%YAML:1.0
my_svm: !!opencv-ml-svm
   svm_type: C_SVC
   kernel: { type:LINEAR }
   C: 1.
   term_criteria: { epsilon:2.2204460492503131e-016, iterations:300 }
   var_all: 120
   var_count: 120
   class_count: 12
   class_labels: !!opencv-matrix
      rows: 1
      cols: 12
      dt: i
      data: [ 0, 1, 2, 4, 5, 6, 7, 8, 10, 11, 12, 13 ]
   sv_total: 66
   support_vectors:
      - [ 7.45964644e-005, -1.59987016e-004, -5.51034755e-004,
          3.99936747e-004, -8.90463532e-004, -9.46648215e-005,
          -2.20508873e-003, -6.44444255e-003, -5.52431587e-003,
          -9.76427546e-005, -5.21410489e-004, -3.20584106e-004,
          1.19568384e-003, -1.21277269e-004, 7.28744490e-004,
          -1.19021597e-005, -1.43374386e-003, -3.20117542e-004,
          -1.53129559e-003, -3.31427902e-003, -9.80252284e-004,
          2.21576495e-003, 8.68353585e-004, 1.43461314e-003,
          -2.00495706e-003, -1.15275988e-003, -7.31507433e-004,
          -3.46277654e-003, -4.21386957e-003, 1.65673008e-003,
          2.68293242e-003, 2.87569291e-003, 2.86598783e-003,
          4.83462572e-005, -1.23249390e-003, -8.78890045e-004,
          -9.42324114e-005, 7.74755666e-004, -6.73356932e-004,
          1.17124822e-004, -1.91911269e-004, 4.35474067e-004,
          7.55828747e-004, 3.55152937e-004, 1.15796085e-003,
          -1.35083348e-004, 6.66390231e-004, 5.67414623e-004,
          -6.59875106e-004, 1.99403381e-004, -5.52026730e-004,
          -1.17620482e-006, -8.01485221e-005, -1.17489741e-004,
          -1.48241335e-004, -1.64165074e-004, 4.05554951e-004,
          -8.00135487e-004, 4.20976630e-006, -9.47658045e-005,
          -5.11633814e-004, 2.75568163e-004, -4.99058107e-004,
          9.76429219e-005, -5.20417043e-018, -5.20417043e-018,
          -5.20417043e-018, -4.42326336e-006, 5.42295806e-004,
          -7.14704511e-004, 1.52451088e-004, 5.34755272e-005,
          3.64781663e-005, 5.62414469e-004, -2.62010522e-004,
          4.84647724e-004, 5.61184832e-004, -1.22529222e-003,
          -5.49667457e-004, 1.01461401e-003, 2.44996743e-003,
          -1.60891691e-003, 1.97067289e-004, 5.95226418e-004,
          -1.32192392e-003, -9.14009986e-004, -5.96911996e-004,
          1.23611768e-003, 9.90143744e-004, 1.74473750e-003,
          9.52905277e-004, -1.21260050e-003, -1.84308214e-003,
          -7.07247003e-004, -1.77098054e-003, -6.58924633e-004,
          7.40584859e-004, 4.95437300e-004, 5.11453545e-004,
          7.59311195e-004, -1.84654142e-003, -2.50001298e-003,
          -2.03285739e-003, -5.38344204e-004, 2.21225293e-003,
          2.15140026e-004, -1.79735827e-003, 2.20093192e-004,
          9.29940317e-004, -6.24333916e-004, -5.96636091e-004,
          -5.74664352e-003, -7.28652906e-003, -3.89357866e-003,
          -5.58755477e-004, 8.78550869e-004, 1.54746464e-003,
          -1.47263799e-003, -6.93475711e-004, -1.01270922e-003 ]
      - [ 3.16184342e-005, -9.97194904e-004, -1.79913291e-003,
          1.15480587e-004, 8.07448116e-004, -2.25481228e-003,
          2.76856328e-004, 1.13999005e-003, 1.08766998e-003,
          -3.87545697e-005, -2.80667981e-003, -2.76524806e-004,
          1.31127279e-004, 5.13716484e-004, 1.49391138e-003,
          1.09795074e-003, 1.08956103e-003, 1.08956103e-003,
          1.09800720e-003, 1.11330964e-003, 9.85351508e-004,
          7.58630340e-004, 2.79482850e-003, 2.77270284e-003,
          4.60591546e-004, 3.56962485e-003, -2.95484974e-003,
          3.32769635e-003, 1.89093454e-003, -3.41731054e-003,
          6.84806961e-004, 9.17418022e-003, 3.12590715e-003,
          8.97424470e-004, -6.34552271e-004, -1.11965893e-003,
          -6.36829122e-004, -5.09494275e-004, -3.44521046e-004,
          -1.12320425e-003, -1.16739713e-003, -1.15890673e-003,
          3.84542771e-004, 1.68008008e-003, 2.59850081e-003,
          8.02858383e-004, 2.79096467e-003, -2.19073569e-004,
          -2.97000166e-004, -4.19134798e-004, -1.67050996e-004,
          -3.55880766e-004, -3.01512104e-004, -3.01512104e-004,
          -1.00221754e-004, 2.30845017e-003, 4.85192955e-004,
          -2.50180979e-004, 2.68452941e-003, 1.29504275e-004,
          -8.25465715e-004, -8.87455477e-004, -5.01809191e-005,
          -7.20786804e-004, -7.19156815e-004, -6.69667672e-004,
          1.11261045e-003, 2.13263812e-003, 9.64914332e-004,
          2.16873028e-004, 1.75774214e-004, -7.56216235e-004,
          -1.06308929e-004, -1.59838703e-004, 1.73803710e-004,
          1.05709955e-003, 2.81045702e-003, 3.69309564e-003,
          2.77448707e-004, 1.94864091e-003, 4.65154555e-003,
          1.15750520e-003, -2.29437734e-004, -4.21319215e-004,
          1.45213853e-004, -4.80086170e-003, -2.41846009e-003,
          -4.16102726e-003, -1.31732796e-003, 5.00530179e-004,
          3.97433387e-003, 1.73072040e-003, -1.04050315e-003,
          -1.11440266e-003, -4.54523513e-004, -3.11911077e-004,
          7.32553366e-004, 1.03400764e-003, 5.18872868e-003,
          8.19579698e-003, 5.64867118e-003, 2.01296317e-003,
          -1.09293952e-003, -1.11291220e-003, -1.09426305e-003,
          -6.70033856e-004, -2.40207373e-004, 1.17093835e-017,
          -2.52363825e-004, 5.52121038e-003, 2.43812706e-003,
          -1.14081020e-003, -1.09870278e-003, -1.10585720e-003,
          -1.11440266e-003, -1.11489953e-003, -8.51476099e-004,
          -5.05025964e-004, -4.97855595e-004, -4.41105221e-004 ]
      - [ -1.46972170e-005, 1.11865056e-005, 2.86661543e-005,
          -5.50547265e-005, -1.64249868e-004, -1.84452219e-004,
          1.24073602e-004, 1.69988954e-004, -9.27841465e-005,
          -3.17679835e-004, -3.28963215e-005, 3.27376765e-005,
          2.42570546e-004, 1.01971382e-004, -7.49824831e-005,
          -7.52210835e-005, -7.60160328e-005, -7.60160328e-005,
          2.90920987e-004, 5.35633590e-004, 1.91816478e-004,
          -2.58169195e-004, -1.02505117e-004, -1.08105458e-004,
          1.74129163e-004, -7.81246272e-005, -2.92693847e-004,
          -1.37135037e-004, -1.39608455e-004, -1.68875849e-004,
          1.34535105e-004, 2.27524491e-004, 1.28297426e-004,
          5.16731350e-004, -1.80231116e-004, -3.24223598e-004,
          1.45876023e-004, -9.42948900e-005, -4.04685852e-004,
          -1.56210372e-004, -1.56210372e-004, -1.56210372e-004,
          2.09348771e-004, 3.97760450e-004, 3.96441697e-004,
          4.79621231e-004, 4.22754907e-004, -1.28340049e-004,
          1.70551910e-004, 9.21625269e-006, -1.21883255e-004,
          2.09874663e-004, 3.08652146e-004, 4.40355419e-004,
          7.87622470e-004, 7.91750150e-004, 2.46775046e-004,
          7.16791779e-004, 3.77839548e-004, 1.06592088e-004,
          1.45876023e-004, 3.30272713e-004, 3.99627403e-004,
          5.60300658e-004, 2.23725598e-004, 1.51953891e-005,
          4.83190437e-004, 9.02997912e-004, 2.43740680e-004,
          4.66990081e-004, 3.44238215e-005, 1.15366049e-004,
          2.51408637e-004, 3.87985870e-004, 2.90843978e-004,
          5.60533605e-004, 4.66889440e-004, 2.67747702e-004,
          3.12736403e-004, -1.04161307e-004, -2.53281702e-004,
          7.82910443e-004, 5.37686516e-004, 2.99744774e-004,
          2.00742084e-004, 1.71498366e-004, -1.59729883e-004,
          -5.68956857e-005, -1.88886144e-004, -1.90715902e-004,
          -1.18684336e-004, 1.69561754e-004, 5.08479279e-005,
          -2.63302209e-004, -1.17963828e-004, 3.50376562e-004,
          2.36417458e-004, 2.78462074e-004, 4.29961539e-004,
          7.12961890e-004, 5.58786793e-004, 3.83836683e-004,
          1.45544429e-004, -3.04533489e-004, -4.84663266e-004,
          -3.22782987e-004, -1.04794417e-004, 4.91178478e-004,
          4.65820165e-004, 2.43974529e-004, -9.89567270e-005,
          1.17341602e-004, 1.08508602e-005, -1.24145357e-004,
          -3.28090275e-004, -4.46877762e-004, -2.66370451e-004,
          -1.23252830e-004, 1.16678995e-004, 4.60441297e-005 ]
      - [ 3.50685965e-004, 3.33465025e-004, 3.93325085e-004,
          3.48615373e-004, 5.10762155e-004, 2.42017064e-004,
          1.10109126e-004, 3.61420360e-004, 5.20986941e-005,
          -4.86445933e-004, -1.77040536e-004, -1.83536577e-005,
          -1.14350922e-004, 1.85149489e-004, 3.23110813e-004,
          4.43735567e-004, -2.91561650e-004, -6.60670863e-004,
          -4.88790974e-004, -3.72841139e-004, 4.29571897e-004,
          6.72905226e-005, -2.54325259e-005, -3.49954295e-004,
          5.20002905e-005, 2.62870046e-004, 5.18428918e-004,
          4.17338917e-004, -3.21300962e-004, -4.46687540e-004,
          -3.63001018e-004, 1.51511267e-005, 2.89224612e-004,
          3.33724398e-004, 2.22085917e-004, -9.15902419e-005,
          4.44838253e-004, 3.85308493e-004, 4.19407850e-004,
          4.36203351e-004, -1.87424157e-004, -2.23680516e-004,
          -2.23680516e-004, 6.47945490e-005, 2.10690210e-004,
          2.89849093e-004, 3.90581117e-004, 3.16008227e-004,
          4.72726475e-004, 3.97901051e-004, 3.70176567e-004,
          4.23569058e-004, -1.61684817e-004, -1.61684817e-004,
          -1.61684817e-004, 1.80862971e-005, 2.04932177e-004,
          3.56346951e-004, 4.37854964e-004, 3.43896449e-004,
          4.29452892e-004, 3.83243721e-004, 3.49184003e-004,
          4.21092787e-004, -1.29415421e-004, -2.00417460e-004,
          -2.00417460e-004, -1.27969863e-004, 1.64942045e-004,
          3.14518955e-004, 3.94581410e-004, 3.00622865e-004,
          5.22268645e-004, 3.82675498e-004, 5.19482419e-004,
          6.33630145e-004, 3.20689396e-005, -1.66842132e-004,
          -1.79411654e-004, -5.71674536e-005, 3.28021531e-004,
          6.56556920e-004, 5.39181696e-004, 3.93438619e-004,
          -1.48656865e-004, 7.10776221e-005, 1.04440252e-004,
          6.14306540e-004, -4.48766878e-005, -4.40836011e-004,
          -4.49160667e-004, -2.41167756e-004, 4.07686457e-004,
          6.53135590e-004, 2.55704450e-004, -1.95763540e-004,
          -3.51101189e-004, -4.46089049e-004, -3.44803237e-004,
          4.31263499e-004, 1.35503142e-004, -3.50151910e-004,
          -4.98048146e-004, -1.15212888e-005, 4.84603603e-004,
          3.14593810e-004, -5.76667298e-005, -9.27537767e-005,
          1.02162419e-004, -3.55639204e-004, -3.64051637e-004,
          -1.51603004e-007, -8.08409459e-005, 6.50804213e-005,
          1.45846119e-004, 1.35789509e-004, 3.85993801e-004,
          6.66692853e-004, 3.39041668e-004, 3.96800955e-004 ]
      - [ -3.54550393e-005, -2.14861066e-005, 8.63709574e-005,
          1.53191504e-004, 1.11552734e-004, -3.14526769e-005,
          -1.86139150e-004, -2.40213805e-004, -2.45925272e-004,
          -2.84337846e-004, -1.66910235e-004, -1.78479328e-004,
          -4.70340865e-006, -7.03022670e-005, -1.80350893e-004,
          -2.33481696e-004, -1.51949949e-004, 6.19422499e-005,
          1.85892903e-004, 1.00980935e-004, -3.60551603e-005,
          -2.28246092e-004, -1.40074393e-004, -2.15574415e-004,
          -1.45764294e-004, -1.58689465e-004, -2.41682064e-004,
          -2.16172615e-004, -6.77495991e-005, 5.80595733e-005,
          2.06105731e-004, 2.06105731e-004, 1.97020010e-004,
          1.77364258e-004, 1.06113992e-004, -8.05789750e-005,
          -1.05375781e-004, -5.41282534e-005, -6.67791755e-005,
          1.39958327e-004, 2.14118438e-004, 2.73799233e-004,
          2.82197550e-004, 2.93488614e-004, 2.75663333e-004,
          1.93649714e-004, 1.09013286e-004, -5.33584061e-005,
          1.09254433e-005, 2.16063214e-004, 2.30475096e-004,
          3.96437012e-004, 4.09923465e-004, 4.06330713e-004,
          3.20973108e-004, 1.80910516e-004, 6.04639717e-005,
          -4.79547780e-005, -6.41651131e-005, -1.33661073e-004,
          -9.02889369e-005, -1.49721582e-005, 6.42681916e-005,
          3.52526084e-004, 4.05749422e-004, 3.94504255e-004,
          1.73927692e-004, 4.93558618e-005, 1.81379055e-005,
          -5.44259456e-005, -9.06935456e-005, -1.55850459e-004,
          -4.43060053e-005, 6.97745854e-005, 4.34396679e-005,
          1.87859201e-004, 1.88999824e-004, 2.80059583e-004,
          2.91379198e-004, 1.47213257e-004, 5.44111317e-005,
          -2.77841336e-005, -2.69071934e-005, -1.04480911e-004,
          2.58896238e-004, 2.57128966e-004, 1.69570325e-004,
          2.41344242e-004, 2.05797551e-004, 1.36676201e-004,
          9.19573431e-005, 5.97289800e-005, 5.81280983e-005,
          4.65189587e-005, 4.89824488e-005, -1.42804274e-005,
          -1.09037474e-005, 1.53334287e-004, 1.23206148e-004,
          1.80499759e-004, -1.00056582e-007, -1.45806684e-004,
          -1.98546739e-004, -1.91170344e-004, -1.69570485e-004,
          -1.04835381e-004, -1.22648635e-005, 2.32511284e-005,
          -1.38718809e-004, -6.26606852e-005, -6.92602698e-005,
          -3.37476763e-006, -1.93166816e-005, 1.27181838e-005,
          -8.54788086e-005, -8.43514645e-005, -6.42184968e-005,
          -2.41637263e-005, -1.94256118e-005, -1.49969746e-005 ]
      - [ 1.04841878e-004, 3.03537876e-004, 3.91350593e-004,
          3.56473523e-004, 3.87621039e-005, -2.97985593e-004,
          -3.73172690e-004, -4.96214954e-004, -4.72242740e-004,
          -4.84234624e-004, -2.28835153e-004, 1.37408802e-004,
          4.31310851e-004, 3.11733427e-004, 3.01533757e-004,
          2.28764999e-004, 1.41560711e-004, -5.90626296e-005,
          -3.96746502e-004, -5.00036054e-004, -4.46533406e-004,
          -3.10483709e-004, 1.30601271e-004, 1.26635670e-004,
          2.35649379e-004, 2.97912920e-004, 2.97414750e-004,
          2.96240556e-004, 2.32879655e-004, -1.54466545e-006,
          -4.83134536e-005, -3.09034294e-005, 2.23665382e-004,
          3.14455770e-004, 2.81126704e-004, 1.96857764e-005,
          -1.39285650e-004, 1.29118969e-004, 1.05727064e-004,
          2.33875340e-004, 1.97478133e-004, 1.39170690e-004,
          9.38709854e-005, 2.17734560e-004, 5.15785825e-004,
          2.56925967e-004, 1.60319876e-004, 5.42773523e-006,
          -2.85267743e-004, -1.53721790e-004, -1.08507316e-004,
          1.68957777e-004, 1.68957777e-004, 1.68957777e-004,
          1.94824097e-004, 3.00132000e-004, 4.47344617e-004,
          2.32746737e-004, 4.54334659e-005, -3.66823660e-005,
          -2.48585362e-004, -1.21918114e-004, -1.45497310e-004,
          -2.16840434e-019, -2.16840434e-019, -2.16840434e-019,
          3.43675958e-004, 3.49503971e-004, 3.91485315e-004,
          4.88229562e-005, -7.58352980e-005, -2.16840434e-019,
          -2.63763301e-004, -1.37096053e-004, -1.60675248e-004,
          -1.51779395e-005, -1.34198926e-005, 1.59517716e-004,
          1.11777837e-004, 2.58628512e-004, 2.48601398e-004,
          -1.41640558e-004, -8.57958148e-005, -1.51779395e-005,
          -2.55870604e-004, -1.29203341e-004, -1.75325622e-004,
          -1.05808911e-004, 7.35647845e-005, 1.17980402e-004,
          1.46495382e-004, 2.03321993e-004, -1.56119815e-004,
          -1.83512442e-004, -8.31205252e-005, -5.26155691e-006,
          -2.93308985e-004, -1.66641723e-004, -3.17528611e-004,
          3.94415383e-006, -1.22410333e-004, -4.42886667e-005,
          1.69978302e-004, 9.66019434e-005, -2.88775162e-004,
          -2.08924481e-004, -1.08158099e-004, -3.82478429e-005,
          -2.95292150e-004, -1.68624902e-004, -3.26115725e-004,
          -3.46164270e-005, -2.28561796e-004, 4.42728051e-005,
          3.06242291e-005, -2.29691126e-004, -1.76452217e-004,
          -9.84066501e-005, -5.14499006e-005, -4.67067948e-005 ]
      - [ -3.12656666e-005, -4.71733911e-005, -5.49924516e-005,
          3.78670047e-005, 6.73329778e-005, 3.11220007e-004,
          9.55616197e-005, -3.09376192e-004, -7.46529666e-004,
          -5.58368629e-004, 2.33671773e-004, 4.38191084e-004,
          -1.04987696e-004, -2.90526368e-004, -6.63337589e-004,
          -4.08460677e-004, -1.67309452e-004, 2.13461608e-004,
          2.24393734e-004, 1.32816102e-004, -1.35187729e-005,
          2.80404580e-004, 5.32707956e-004, -1.31669105e-004,
          -2.82912486e-004, -2.64839706e-004, -3.60718725e-004,
          -1.08564927e-004, -3.17066238e-004, -4.11817775e-004,
          -3.93485476e-004, -3.23803339e-004, 1.13110669e-004,
          3.09283612e-004, -5.90010713e-005, -2.04909113e-004,
          -2.30181337e-004, 2.50303739e-004, 1.83611555e-004,
          4.03282902e-004, 1.90633553e-004, -1.40386488e-004,
          7.05043276e-005, 2.58201413e-004, 2.07411620e-004,
          1.72111017e-004, -1.25688326e-004, -9.08537113e-005,
          1.13406248e-004, 1.97683272e-004, 1.82731412e-004,
          5.44072944e-004, 3.33383243e-004, 4.99295013e-004,
          5.96647034e-004, 3.99255689e-004, 3.64223233e-004,
          -6.95198905e-005, -1.57951174e-004, -8.78428764e-005,
          -2.77876417e-004, -2.25383759e-004, -2.56025058e-004,
          1.46398423e-004, 4.89320548e-004, 5.16239728e-004,
          1.04779690e-004, 3.56730714e-004, 1.31780485e-004,
          -1.68289625e-004, -1.57239047e-004, -8.71307566e-005,
          -2.43434653e-004, -3.02480330e-004, -8.55628386e-005,
          5.27479860e-004, 2.92488257e-004, -2.68063977e-005,
          3.23477318e-004, 3.22159583e-004, 4.69050883e-006,
          -1.22822108e-004, -9.71093468e-005, -3.28067872e-005,
          -2.24544856e-004, -1.82720643e-004, 7.03693804e-005,
          1.84844539e-004, -7.63842691e-005, 7.32275366e-005,
          3.06933332e-004, -5.33385137e-005, -1.12704474e-004,
          -1.08689645e-004, -8.41020010e-005, -1.01511796e-005,
          -1.13158065e-004, 1.44046120e-004, -3.84953688e-004,
          -2.20428687e-004, -1.63636738e-004, 1.56094524e-004,
          -8.77308776e-005, -2.75626662e-004, -2.69462907e-004,
          -2.53687700e-004, -1.48135819e-004, -5.46268493e-005,
          2.96629441e-004, -2.29428508e-004, -5.48596261e-004,
          -2.16276196e-004, -1.62686672e-004, -5.84297459e-006,
          -2.71109340e-004, -2.35891173e-004, -1.72144923e-004,
          -1.15409006e-004, -3.78895638e-005, -2.34678064e-005 ]
      - [ 5.15850261e-004, 1.71350708e-004, -1.46284394e-004,
          -2.57475505e-004, -3.20209336e-004, -3.37058416e-004,
          -3.60260194e-004, -3.60533159e-004, -3.65875167e-004,
          -4.32679954e-004, -3.94070783e-004, -3.97062337e-004,
          2.98949832e-004, 6.21129657e-005, -3.79736921e-005,
          -1.12701237e-004, -1.43915124e-004, -1.43915124e-004,
          -1.41155659e-004, -1.14940740e-004, -9.67783344e-005,
          -1.27407460e-004, -7.28660380e-005, -1.72165892e-004,
          2.79253902e-004, 9.08247021e-005, 9.25697677e-005,
          2.25125732e-005, -8.70131953e-006, -8.70131953e-006,
          -8.70131953e-006, -8.70131953e-006, -1.53741039e-005,
          -8.20082932e-005, -6.84776460e-005, -1.76533620e-004,
          2.77103769e-004, 9.38957601e-005, 9.25697677e-005,
          2.07239063e-005, -1.09193036e-006, -1.09193036e-006,
          -1.09193036e-006, -1.09193036e-006, -7.76471370e-006,
          -7.73675929e-005, -6.52018571e-005, -1.73257824e-004,
          2.78195686e-004, 1.01342630e-004, 1.36247443e-004,
          7.96194145e-005, 7.00127421e-005, 7.19118179e-005,
          7.32682965e-005, 5.97796061e-005, 1.97062454e-005,
          -6.59985599e-005, -6.41099250e-005, -1.72165892e-004,
          2.85616523e-004, 1.82927266e-004, 2.11612743e-004,
          1.71151798e-004, 2.60624278e-004, 2.63422262e-004,
          3.67441447e-004, 4.92244377e-004, 4.88778169e-004,
          3.26582172e-004, 2.19301481e-004, -9.03761684e-005,
          2.78195686e-004, 9.54499264e-005, 6.52349263e-005,
          -1.41124792e-005, -7.10657987e-005, -1.03804938e-004,
          -1.14733280e-004, 7.74429573e-005, 4.66455705e-004,
          4.50454187e-004, 5.14706771e-004, 4.29939188e-004,
          2.38066408e-004, -4.71541025e-005, -1.37655094e-004,
          -2.41259884e-004, -1.83963115e-004, -1.18687414e-004,
          -1.28204672e-004, 2.26086035e-004, 3.66909371e-004,
          3.12712800e-004, 2.12470753e-004, 3.56280907e-005,
          7.86443197e-005, -9.86764790e-005, -1.26273080e-004,
          -7.62317068e-005, 7.02490361e-005, 1.82388045e-004,
          4.22807534e-005, 5.58201937e-005, -1.16994663e-004,
          -1.96182722e-004, -1.14247050e-004, -1.75716305e-005,
          1.72446904e-004, 8.33906015e-005, 5.85357811e-005,
          -1.08487184e-004, -2.39105488e-004, -2.85604183e-004,
          -2.79455271e-004, -1.79715309e-004, -1.35613707e-004,
          -6.30164941e-005, -4.84463380e-005, -4.84463380e-005 ]
      - [ 3.96685617e-004, 2.90403696e-004, 7.97210596e-005,
          -2.90868920e-005, -2.03363379e-004, -2.43056653e-004,
          -2.56284460e-004, -2.56284460e-004, -2.47381540e-004,
          -2.47762684e-004, -2.09371021e-004, -2.13042920e-004,
          2.62207905e-004, 1.58738156e-004, -3.98362317e-005,
          -9.53223789e-005, -1.99756207e-004, -1.99756207e-004,
          -1.99036105e-004, -1.92195104e-004, -1.80257543e-004,
          -1.69982843e-004, -2.09891616e-004, -2.62673595e-004,
          1.97595233e-004, 1.46336388e-004, 1.50880680e-006,
          -3.55005868e-005, -6.36512777e-005, -4.09430140e-005,
          -4.32863362e-006, 6.32695810e-005, 6.57188066e-005,
          -1.31154757e-005, -4.71377061e-005, -7.23783232e-005,
          1.54394584e-004, 1.85845929e-004, 2.00184775e-004,
          2.12627201e-004, 1.95947126e-004, 2.09329548e-004,
          1.94289794e-004, 1.98565947e-004, 2.07355333e-004,
          9.61949117e-005, 7.51820407e-005, 2.23379539e-005,
          1.91154948e-004, 2.30342950e-004, 2.20340342e-004,
          1.81405805e-004, 1.18140386e-004, 8.19918278e-005,
          6.33090167e-005, 1.62565833e-004, 2.09829042e-004,
          9.22468826e-005, 1.43316094e-004, 1.31839901e-004,
          1.54394584e-004, 1.59507937e-004, 8.72897435e-005,
          2.70148266e-005, -1.01530923e-005, 1.14653076e-005,
          4.19504286e-005, 1.04165098e-004, 1.78683767e-004,
          1.01026351e-004, 1.39387877e-004, 9.50795511e-005,
          1.91154948e-004, 2.25874843e-004, 2.60023866e-004,
          2.50719720e-004, 1.99729897e-004, 2.00121416e-004,
          1.87912054e-004, 1.78439092e-004, 1.97286863e-004,
          1.14018505e-004, 1.43268015e-004, 1.27768420e-004,
          8.36016261e-005, 4.10074463e-005, 6.26624023e-005,
          5.89849442e-005, 1.97847221e-005, -1.68964725e-005,
          -3.39761609e-005, 5.76477178e-005, 9.64183710e-005,
          5.44831091e-005, 1.64669473e-004, 2.16712418e-004,
          -2.47156335e-004, -2.31590209e-004, -1.52442226e-004,
          -1.45034152e-004, -1.77318507e-004, -1.77324473e-004,
          -1.77333743e-004, -6.42528757e-005, 2.05702745e-005,
          4.98477129e-006, 1.47493512e-004, 3.47930123e-004,
          -2.18882677e-004, -2.66802119e-004, -2.33733124e-004,
          -1.81802025e-004, -1.81835814e-004, -1.81844414e-004,
          -1.68653147e-004, 2.23507323e-005, 1.27351406e-004,
          1.18951277e-004, 1.98816648e-004, 2.75438098e-004 ]
      - [ -8.39088807e-006, -1.12276230e-005, 1.40984994e-004,
          -2.74429549e-005, -2.12863830e-004, -2.95271951e-004,
          -3.13698605e-004, -1.72070897e-004, 1.63978184e-004,
          -1.28746382e-004, -1.73955923e-004, -1.84253979e-004,
          -7.59162795e-005, -1.46932754e-004, 3.43493703e-005,
          -1.46874139e-004, -2.63598136e-004, -3.13116907e-004,
          -3.18032049e-004, -1.67648279e-004, 1.78340793e-004,
          -1.52604378e-004, -2.80198263e-004, -3.06251342e-004,
          -1.10039844e-004, -1.22803409e-004, 7.70016341e-005,
          1.35438924e-004, -6.06673493e-005, -1.50746579e-004,
          -7.69443577e-005, 5.46660958e-005, 3.35590099e-004,
          9.86182131e-005, -1.09228058e-005, 1.63863242e-005,
          1.30053333e-004, 1.36429197e-004, 1.50772248e-004,
          3.94307601e-004, 3.15660553e-004, 2.41364833e-004,
          2.42713941e-004, 2.73595389e-004, 3.67623958e-004,
          2.48312339e-004, 2.00714712e-004, 1.72924250e-004,
          1.68864441e-004, 1.61014497e-004, 3.12007120e-004,
          3.13016732e-004, 2.30690508e-004, 1.53810630e-004,
          1.14295275e-004, 2.48380762e-004, 4.58930328e-004,
          9.68367895e-005, -4.93422267e-005, -1.24963204e-004,
          -8.12228536e-005, -5.05131247e-005, 2.06505531e-004,
          3.16028367e-004, 1.02044578e-004, -1.47761348e-005,
          -9.72251564e-006, 1.23814301e-004, 4.47893166e-004,
          1.30282991e-004, -1.36592816e-005, -4.12459085e-005,
          1.14382543e-004, 1.39979122e-004, 1.92492647e-004,
          4.54048131e-004, 3.16960330e-004, 2.41055866e-004,
          2.84623471e-004, 2.75071390e-004, 3.40523053e-004,
          3.00352025e-004, 3.48685833e-004, 3.48281115e-004,
          2.41582820e-004, 1.75107387e-004, 1.47606086e-004,
          1.22522077e-004, 6.30056311e-005, -4.92352410e-006,
          -6.20078354e-005, 4.31436856e-005, 2.15629741e-004,
          -6.53142924e-005, -9.11383759e-005, -1.00496916e-004,
          -1.57626622e-004, -1.28279440e-004, -7.29580552e-006,
          4.59990988e-005, -1.63848061e-004, -2.90638767e-004,
          -2.95715057e-004, -1.51173124e-004, 1.88728882e-004,
          5.51464882e-006, -7.58584574e-005, -1.05513273e-005,
          -2.06109005e-004, -2.63760565e-004, -1.09214117e-004,
          3.42911808e-005, -1.80972333e-004, -3.01165885e-004,
          -2.88401963e-004, -1.19098797e-004, 7.22452751e-005,
          1.95438770e-006, -7.86467208e-005, -7.18171577e-005 ]
      - [ 1.62630326e-019, 1.62630326e-019, -2.56988551e-005,
          -1.44824284e-004, -1.55271264e-004, 1.49078129e-004,
          2.27545490e-004, 6.22085790e-005, -1.29212960e-004,
          -2.84605689e-004, -1.39794603e-004, -1.15176757e-004,
          -7.20086100e-005, -1.77480790e-004, -4.47578524e-004,
          -2.72454199e-004, 9.33378760e-006, -6.07001220e-006,
          -3.85506981e-004, -3.33758013e-004, 1.62452401e-004,
          -2.76998675e-004, -1.85670098e-004, -2.71170342e-004,
          -2.50009005e-004, -3.27254209e-004, -4.86557110e-004,
          -2.42118782e-004, -9.89779946e-005, 3.47409587e-005,
          -1.03866059e-005, 3.57519835e-004, 2.57404463e-004,
          -1.90368723e-004, -2.90439610e-004, -3.01458378e-004,
          -2.33062179e-004, -2.28397301e-004, -2.82996596e-004,
          1.96692170e-004, 5.46617142e-004, 5.68823365e-004,
          5.19683294e-004, 6.77808057e-005, -1.11360459e-004,
          -1.79996365e-004, -2.19261739e-004, -2.03926917e-004,
          9.61456099e-005, 3.79982608e-004, 3.06829024e-004,
          6.91276626e-004, 5.88169147e-004, 5.57646796e-004,
          5.64830378e-004, 2.28846475e-004, 2.45365896e-004,
          1.96950481e-004, 1.01558318e-004, -4.27259984e-005,
          3.50577029e-004, 5.22031565e-004, 1.07629803e-005,
          2.44543422e-004, 2.69084529e-004, 2.58036249e-004,
          2.94902449e-004, 4.36897069e-004, 2.07073390e-004,
          1.90248160e-004, 1.75218825e-004, 1.29660708e-004,
          2.86281342e-004, 2.29507539e-004, -1.64536905e-004,
          3.58412042e-004, 3.93633061e-004, 1.00120247e-004,
          8.86529524e-005, 3.40563332e-004, 1.55621121e-004,
          1.62591932e-005, 3.31815303e-004, 4.48958948e-004,
          -1.16288727e-004, -4.15102877e-005, -2.07616162e-004,
          8.03626972e-005, 5.44938302e-005, 7.82413044e-005,
          -1.18507756e-004, -1.39928568e-004, 3.22598498e-004,
          -6.31821458e-005, 7.48834573e-005, 2.34622094e-005,
          -2.66890565e-004, -1.89822182e-004, -2.69131648e-004,
          2.02753334e-004, 1.29686669e-004, 4.34295453e-006,
          -2.48926634e-004, -3.01095308e-004, -6.11769938e-005,
          -3.18355887e-004, -2.65157054e-004, -4.99161797e-005,
          -1.74226298e-004, -8.48567506e-005, -2.51892925e-004,
          -4.39164360e-005, -9.26974753e-005, 6.30834038e-005,
          -7.93594372e-005, 7.32163535e-005, -1.40632183e-004,
          -1.38204690e-004, -4.45827463e-005, -2.80437216e-005 ]
      - [ 1.89735380e-019, -4.88158003e-005, -1.83744152e-004,
          -1.62636454e-004, -1.09640132e-005, -1.56307666e-004,
          2.07817517e-004, 7.67689024e-004, 5.92693279e-004,
          -2.34202875e-004, -2.42045262e-005, -2.00255818e-005,
          -2.28636520e-004, -3.32603959e-005, 1.76475893e-004,
          2.40485446e-004, 2.83333473e-004, 3.55828903e-004,
          6.03706634e-004, 1.25327345e-003, 7.70403596e-004,
          -6.53691182e-004, -3.80148704e-004, -4.36456321e-004,
          2.61354813e-004, -1.31046152e-004, 1.02717117e-004,
          4.16094292e-004, 3.63010942e-004, -4.08257256e-005,
          6.48768537e-006, 3.34639830e-004, 4.88918042e-004,
          -7.40272117e-006, -6.28365378e-005, -3.10569769e-004,
          4.36606315e-005, -3.78559489e-004, -2.53326609e-004,
          -2.72977341e-004, -4.04471444e-004, -4.91574639e-004,
          -2.38699853e-004, 1.86711521e-004, 5.00709924e-004,
          -1.21814875e-004, 4.48546518e-004, -1.70371932e-004,
          4.36606315e-005, -3.88749526e-004, -2.90270022e-004,
          -2.82780704e-004, -3.15286306e-004, -2.79868167e-004,
          -6.19622588e-005, 3.88647168e-004, 5.30533958e-004,
          -2.65578157e-004, 2.03601609e-004, 4.15310613e-004,
          2.94360914e-004, -2.37686545e-004, -2.38844324e-004,
          1.47965466e-005, 1.89735380e-019, 1.08811855e-005,
          4.73444146e-004, 1.09636912e-003, 7.86455697e-004,
          2.08009049e-004, 1.57548144e-004, 5.01584611e-004,
          2.94360914e-004, -2.35555795e-004, -2.44752708e-004,
          1.70483676e-004, 2.34390172e-004, 5.56751504e-004,
          7.04077596e-004, 6.26636844e-004, 2.89131331e-005,
          -5.13098319e-004, 1.52941255e-004, -8.95189296e-005,
          1.94244218e-004, -3.32686846e-004, 7.95522137e-005,
          1.00864621e-003, 7.42102042e-004, 6.90341636e-004,
          4.93263244e-004, 3.82409315e-004, -7.63080025e-005,
          -4.83364391e-004, -2.77959916e-004, -2.56818690e-004,
          1.26701285e-004, 1.83399272e-004, 6.35928067e-004,
          1.16427289e-003, 7.05532788e-004, 5.02171752e-004,
          2.99185427e-004, -2.40282025e-004, -5.60943270e-004,
          -5.33311162e-004, -4.65166086e-004, -3.05987807e-004,
          4.77527094e-004, 1.89785191e-004, 7.90507183e-005,
          4.11812769e-004, 2.57156236e-004, -8.69217693e-005,
          -3.50966002e-004, -4.43423603e-004, -2.51805963e-004,
          -6.15272293e-005, -1.06081438e-006, 1.89735380e-019 ]
      - [ 0., 3.49123184e-005, 1.31738316e-005, -1.99813603e-005,
          -6.16957768e-005, -7.33338820e-005, 2.37011569e-004,
          3.83807608e-004, 2.15793101e-004, -5.81480163e-005,
          1.48101069e-004, 5.51023659e-005, 1.40124728e-004,
          4.82929572e-005, 7.05645434e-005, 9.84698781e-005,
          2.08286176e-004, 2.61639070e-004, 5.30708989e-004,
          6.54554518e-004, 2.78803782e-004, -3.29540257e-004,
          -2.06133511e-004, -2.51554680e-004, 2.53010949e-004,
          -3.54450312e-005, -1.60547759e-004, -4.15139548e-005,
          -8.90199735e-005, -2.48520257e-004, -3.19792271e-005,
          3.56429700e-005, 2.98858777e-005, 2.01023344e-004,
          -2.02145184e-005, -1.00188066e-004, 1.58375478e-004,
          -1.76958609e-004, -2.66920571e-004, -9.46354703e-005,
          -1.09194778e-004, -1.18900978e-004, 1.84064542e-004,
          3.97475844e-004, 3.44579166e-004, 1.75040201e-004,
          3.31769319e-004, -3.21495099e-005, 1.58375478e-004,
          -1.26647719e-004, -1.22848476e-004, 9.51737893e-005,
          1.56918963e-004, 2.39245885e-004, 5.16217784e-004,
          5.43038885e-004, 2.92544399e-004, 3.69502755e-004,
          2.86032126e-004, 1.33731184e-004, 2.53010949e-004,
          1.33906637e-004, 2.23584706e-004, 4.16208262e-004,
          2.05817269e-004, 7.54663342e-005, 4.27904597e-004,
          7.30470696e-004, 4.43042867e-004, 3.20512656e-004,
          1.46582999e-004, 2.46377545e-004, 1.92455263e-004,
          7.33509441e-005, 1.06693995e-004, 3.65282031e-004,
          3.02872446e-004, 1.84694771e-004, 3.22079606e-004,
          9.38281519e-005, -2.50840330e-005, 4.99613874e-004,
          3.58229910e-004, 2.44710332e-004, 2.20858652e-004,
          5.33858329e-005, -1.35029686e-005, 1.49199230e-004,
          6.13065786e-005, 6.53055613e-005, 1.56746115e-004,
          3.26428475e-004, 1.90721679e-004, -2.36787702e-004,
          -5.65052396e-005, 3.02644301e-004, 2.25126132e-004,
          2.59935332e-004, 4.78496571e-004, 6.39205042e-004,
          5.49967110e-004, 3.86848435e-004, 2.06444922e-004,
          -1.65902849e-004, -3.28837486e-004, -3.61173006e-004,
          -1.76069952e-004, 2.36376902e-004, 5.62464877e-004,
          3.18798760e-004, 2.51948150e-005, 2.20410569e-004,
          1.27906183e-004, -4.74978224e-005, -2.34810432e-004,
          -3.09599505e-004, -1.97705958e-004, -7.41436525e-005,
          1.71353036e-004, 1.09330460e-004 ]
      - [ 2.48589786e-004, 2.30384510e-004, 2.89822521e-004,
          3.10036499e-004, 5.03387069e-004, 2.96490849e-004,
          2.27693818e-004, 5.37600776e-004, 2.57447973e-004,
          -4.52610606e-004, -1.37964831e-004, -6.54325268e-005,
          -2.15125430e-004, 9.71042828e-005, 2.88591575e-004,
          5.13341220e-004, -3.59490805e-005, -2.71550933e-004,
          -1.72327636e-004, -8.38876076e-005, 4.81221679e-004,
          -1.59399351e-005, -1.88721868e-004, -5.13672421e-004,
          1.00036312e-004, 3.09335504e-004, 3.93813185e-004,
          3.11776676e-004, -2.99418898e-004, -5.02465584e-004,
          -4.95511573e-004, -2.70176912e-004, 4.40926924e-005,
          2.12734783e-004, 2.58320826e-004, 1.73989847e-005,
          3.46550922e-004, 3.64368956e-004, 4.35060239e-004,
          3.79118428e-004, -1.24618629e-004, -1.59175965e-004,
          -1.40427175e-004, 6.10784336e-005, 1.94996872e-004,
          2.50737270e-004, 4.12359368e-004, 3.05181253e-004,
          3.27447982e-004, 3.44551430e-004, 3.56395642e-004,
          3.03453242e-004, -1.41325552e-004, -1.41325552e-004,
          -1.41325552e-004, -2.46256386e-005, 1.19792923e-004,
          2.28293065e-004, 3.98906035e-004, 2.79959873e-004,
          4.68773535e-004, 4.43169760e-004, 3.80599900e-004,
          4.65432473e-004, 4.60915617e-005, 4.33680869e-019,
          4.33680869e-019, 4.60915617e-005, 2.61118461e-004,
          3.69618618e-004, 5.40231587e-004, 4.21285426e-004,
          3.20431602e-004, 3.09702766e-004, 4.55068046e-004,
          4.77978523e-004, -1.07284788e-004, -2.90936150e-004,
          -3.30322830e-004, -2.43404997e-004, 1.38867530e-004,
          5.44837676e-004, 4.32286004e-004, 2.72943493e-004,
          -9.02130632e-005, 2.15534237e-004, 1.42761550e-004,
          3.37228121e-004, -2.65209121e-004, -4.43664845e-004,
          -2.92723533e-004, -3.11514741e-005, 4.56543203e-004,
          6.03802677e-004, 3.45623412e-004, -9.43781633e-005,
          -4.40747390e-004, -4.31958906e-004, -3.77939316e-004,
          4.97520145e-004, 3.69296613e-004, 2.20215861e-005,
          -1.89035040e-004, -4.86262616e-006, 3.77394026e-004,
          3.83889506e-004, -1.10615387e-004, -1.27036634e-004,
          -4.18320342e-005, -2.14256521e-004, -8.56164479e-005,
          2.71057303e-004, 1.32584595e-004, 1.07630811e-004,
          1.05127627e-004, 9.24690758e-005, 2.68094504e-004,
          4.93768544e-004, 2.50304933e-004, 3.18227772e-004 ]
      - [ -5.42101086e-020, 3.57716272e-006, 7.63963617e-005,
          1.49369051e-004, 1.60241776e-004, -3.28440501e-006,
          -1.41061493e-004, -1.74215267e-004, -1.46365928e-004,
          -2.30266887e-004, -6.46090630e-005, -8.11882564e-005,
          -5.74996302e-005, -8.42961672e-005, -1.21363373e-004,
          -2.26999997e-004, -1.98649359e-004, 3.68623259e-005,
          2.53619684e-004, 2.63862399e-004, 8.84925757e-005,
          -2.47649878e-004, -1.10392029e-004, -1.31325083e-004,
          -1.10321744e-004, -1.24342318e-004, -2.07241887e-004,
          -1.18801756e-004, 3.99254350e-005, 8.31442303e-005,
          1.81756928e-004, 1.74887435e-004, 1.71039603e-004,
          1.57261398e-004, 7.20429671e-005, -4.07713196e-005,
          -4.88994556e-005, -2.59068311e-005, -7.84152944e-005,
          1.55746922e-004, 2.24462885e-004, 2.31585887e-004,
          2.14343730e-004, 2.71711411e-004, 2.80526321e-004,
          1.43103811e-004, 9.53843919e-005, 2.20202855e-005,
          -9.94538732e-006, 2.42119393e-004, 1.84193806e-004,
          3.28708469e-004, 3.69143439e-004, 3.89359397e-004,
          3.38597747e-004, 1.90973326e-004, 8.90554875e-005,
          -7.58108872e-005, -6.37619960e-005, -6.39537393e-005,
          -3.27712114e-005, 1.96317051e-005, 1.50060014e-005,
          3.36518016e-004, 4.18255746e-004, 3.88403860e-004,
          1.92368621e-004, 7.07605795e-005, 5.36407642e-005,
          -5.89690244e-005, -5.89426199e-005, -5.40766778e-005,
          6.05910645e-005, 1.46408012e-004, 3.46976522e-005,
          1.98642389e-004, 2.58775894e-004, 3.06684844e-004,
          3.04533402e-004, 1.45529033e-004, 5.44063550e-005,
          -4.32419693e-005, -1.37958295e-005, -3.63732725e-005,
          3.19106592e-004, 3.28547962e-004, 1.48939129e-004,
          2.15156280e-004, 2.19697657e-004, 1.66858546e-004,
          2.01669463e-004, 2.27905242e-004, 2.35651067e-004,
          1.14403178e-004, 7.61622796e-005, 1.08873310e-005,
          4.65547564e-005, 2.11824139e-004, 1.16176430e-004,
          2.24822666e-004, 4.41049051e-005, -4.75870074e-005,
          -1.09919609e-004, -1.26308951e-004, -1.20403456e-004,
          -7.51325133e-005, 1.60092204e-005, 1.50144751e-005,
          -4.91277970e-005, 2.18046807e-005, -9.18156729e-005,
          1.75321402e-005, 4.59680050e-005, 1.93613814e-005,
          -6.96508287e-005, -9.42303595e-005, -5.61907618e-005,
          -1.29936243e-005, -2.12065402e-007, -5.42101086e-020 ]
      - [ 1.24728613e-004, 3.48294794e-004, 4.33858135e-004,
          2.46978423e-004, -1.05225605e-004, -4.78708709e-004,
          -3.47773457e-004, -2.60003901e-004, -2.26991295e-004,
          -3.42072395e-004, -8.26164614e-005, 3.18571874e-005,
          4.32475616e-004, 3.15636426e-004, 2.75643601e-004,
          2.37062326e-004, 2.23477327e-004, 3.26067493e-005,
          -1.79202223e-004, -1.52472276e-004, -1.69772786e-004,
          -2.17950685e-004, 2.93395307e-004, 1.06413107e-004,
          2.75966711e-004, 3.89950757e-004, 4.74202650e-004,
          6.00408006e-004, 5.47831180e-004, 1.09102242e-004,
          -3.36153498e-005, -6.26127876e-005, 1.19633471e-004,
          1.94866094e-004, 3.13901022e-004, 5.13324449e-005,
          -1.24356971e-004, 6.68604698e-005, 1.11873349e-004,
          2.98566534e-004, 2.29783836e-004, 9.33506890e-005,
          3.38299069e-005, 1.60445124e-004, 5.17211214e-004,
          2.29253143e-004, 2.07389880e-004, -1.13294300e-005,
          -2.63073191e-004, -2.22691859e-004, -1.82770513e-004,
          1.14663446e-004, 1.51568660e-004, 1.75243695e-004,
          2.42997587e-004, 3.71842441e-004, 4.61714400e-004,
          1.78955699e-004, 1.11399568e-004, -4.10715220e-005,
          -2.22001676e-004, -1.97943635e-004, -2.52949685e-004,
          -4.87427278e-005, 0., 0., 3.85106337e-004, 3.43537016e-004,
          3.45975481e-004, 3.06462825e-005, -4.73711589e-006, 0.,
          -2.22001676e-004, -1.97943635e-004, -2.52949685e-004,
          -5.16261898e-005, 1.57950544e-005, 2.67049705e-004,
          1.75414534e-004, 2.69697397e-004, 2.43899674e-004,
          -1.18995558e-004, -4.73711589e-006, 0., -2.29622252e-004,
          -2.07829784e-004, -2.73577374e-004, -1.04510378e-004,
          1.94478402e-004, 1.92986816e-004, 1.77139591e-004,
          2.76559120e-004, -3.24787761e-005, -1.56173177e-004,
          -1.37994239e-005, -7.62057743e-006, -2.97042570e-004,
          -2.77103769e-004, -3.81208432e-004, 1.23399077e-004,
          5.54570797e-005, 7.92895080e-005, 2.65132956e-004,
          2.18493718e-004, -1.39997632e-004, -1.41549899e-004,
          -7.71005143e-005, -7.50408944e-005, -2.23272233e-004,
          -2.01067844e-004, -3.49976792e-004, 1.26031271e-004,
          -4.79896407e-005, 1.67914026e-004, 1.34821210e-004,
          -1.01319383e-004, -7.23222256e-005, -1.23466525e-005,
          -1.27055841e-006, -1.27055841e-006 ]
      - [ -6.56171187e-006, -3.53322939e-005, -3.43152642e-005,
          2.58087948e-005, 1.20245379e-004, 3.75818840e-004,
          2.92126555e-004, 3.11256299e-005, -3.25740373e-004,
          -3.47197085e-004, 2.90464552e-004, 2.51214253e-004,
          -3.22845182e-004, -4.37178853e-004, -6.38365804e-004,
          -3.28599534e-004, 4.16484618e-005, 4.15796472e-004,
          4.67937614e-004, 3.94121569e-004, 1.20553428e-004,
          1.33837311e-004, 4.21265431e-004, -2.71748839e-004,
          -3.09786992e-004, -2.48378026e-004, -2.42871494e-004,
          -1.32558098e-005, -1.97602363e-004, -4.73715365e-004,
          -5.38289896e-004, -5.07467252e-004, -8.11391583e-005,
          2.18875721e-004, 3.52805509e-005, -1.16216288e-004,
          -2.18622969e-004, 3.26943322e-004, 3.02955537e-004,
          4.80277842e-004, 2.19161724e-004, -1.53354616e-004,
          6.92904432e-005, 3.12933931e-004, 2.77959596e-004,
          2.08914804e-004, -1.03548817e-004, -1.12891721e-004,
          7.39457901e-005, 2.28236560e-004, 2.19603447e-004,
          5.34828752e-004, 2.73747486e-004, 5.19065885e-004,
          6.44386455e-004, 4.29878128e-004, 3.82967817e-004,
          -1.09699919e-004, -1.85095254e-004, -1.34164045e-004,
          -2.11336403e-004, -1.90857987e-004, -2.98030907e-004,
          1.65539706e-004, 5.22172835e-004, 5.68145944e-004,
          1.31277789e-004, 4.15683549e-004, 2.11998602e-004,
          -9.98467949e-005, -7.33996640e-005, -2.24684518e-005,
          -2.11336403e-004, -2.42818438e-004, -1.01598678e-004,
          5.17264940e-004, 3.21531232e-004, -2.75508796e-006,
          3.40424827e-004, 3.37587990e-004, 1.80633997e-005,
          -1.10181638e-004, -7.41075273e-005, -2.24684518e-005,
          -2.19561291e-004, -1.58036142e-004, 3.16649348e-005,
          1.70312313e-004, -7.84064396e-005, 8.09015546e-006,
          3.09854804e-004, -2.98529394e-005, -5.29916288e-005,
          -1.35712733e-004, -8.93677061e-005, -2.80051681e-005,
          -1.42070043e-004, 1.21068559e-004, -4.30179236e-004,
          -1.78178088e-004, -1.16061026e-004, 2.95735925e-004,
          7.34823043e-005, -9.17925572e-005, -1.03178740e-004,
          -1.58472147e-004, -1.41257187e-004, -1.20019067e-004,
          2.59482505e-004, -2.09464401e-004, -5.46137162e-004,
          -1.34127986e-004, -1.02784776e-004, 1.37324838e-004,
          -1.41748795e-004, -1.51945525e-004, -1.28687199e-004,
          -6.92814210e-005, -2.97829465e-005, -7.71679424e-006 ]
      - [ 6.36231911e-004, 2.62942543e-004, -1.26165643e-004,
          -2.21436407e-004, -2.51569669e-004, -2.35878048e-004,
          -1.06501240e-004, -8.07383694e-005, -8.07383694e-005,
          -2.50727317e-004, -2.78509979e-004, -2.88829528e-004,
          3.95859592e-004, 3.39406652e-005, -1.15748066e-004,
          -6.55201438e-005, -4.23803685e-005, -5.33811872e-005,
          -6.33913442e-005, -1.00853147e-004, -1.35689857e-004,
          -3.78340279e-004, -3.05890309e-004, -2.10397775e-004,
          2.49221019e-004, 9.33173724e-005, -7.14532507e-005,
          -1.18837481e-004, -1.20422264e-004, -1.05636471e-004,
          -1.96567853e-004, -2.28673031e-004, -1.36896575e-004,
          -2.44212279e-004, -9.03738983e-005, -5.84087611e-005,
          2.51013931e-004, 9.45071442e-005, -3.97047406e-005,
          -3.44978107e-005, -2.77904692e-005, -1.85269801e-005,
          -1.04587789e-005, -4.48233368e-006, 1.62630326e-019,
          -1.83611308e-004, -6.72742244e-005, -5.60181834e-005,
          2.51910416e-004, 1.27700259e-004, 3.26611807e-005,
          4.77906724e-005, 6.64205581e-005, 6.77270000e-005,
          6.97091891e-005, 6.19599377e-005, 4.27713130e-005,
          -1.61412929e-004, -5.90751661e-005, -5.04320124e-005,
          2.59290653e-004, 2.05170698e-004, 1.50091742e-004,
          1.55438713e-004, 2.51260324e-004, 2.51260324e-004,
          3.15308134e-004, 4.56312671e-004, 4.84269403e-004,
          2.15971711e-004, 2.25618307e-004, 2.39370074e-005,
          1.78955772e-004, 8.17907276e-005, 3.89052047e-006,
          -7.40377000e-005, -8.81572050e-005, -9.02345128e-005,
          -9.78702228e-005, 4.80531926e-005, 5.35394647e-004,
          4.31202236e-004, 5.13420033e-004, 4.23650810e-004,
          2.44661001e-004, 8.52289741e-005, -5.48427015e-005,
          -6.43578242e-005, -3.58119978e-005, 9.84263465e-007,
          2.01801686e-005, 3.67056229e-004, 5.49456978e-004,
          4.00307646e-004, 3.19657876e-004, 8.39400818e-005,
          1.31958426e-004, -1.42994315e-006, -8.72794844e-005,
          -3.29392788e-005, 1.21708901e-004, 2.48458731e-004,
          1.97063680e-004, 1.91892526e-004, -8.65328730e-006,
          -2.16988905e-004, -1.20790639e-004, -8.34992388e-005,
          2.10931932e-004, 1.80692805e-004, 1.24135346e-004,
          -2.12878622e-005, -1.38064919e-004, -1.39720956e-004,
          -2.06590164e-004, -1.97615183e-004, -1.39006224e-004,
          -5.28369237e-005, -2.19679151e-007, 1.62630326e-019 ]
      - [ 4.12717520e-004, 3.07518407e-004, 8.61161534e-005,
          -4.89100603e-005, -1.96572990e-004, -2.10804938e-004,
          -1.15134215e-004, -5.89553456e-005, -5.15395514e-005,
          -1.09181310e-004, -1.50749256e-004, -2.50085315e-004,
          2.88439624e-004, 1.81302283e-004, -1.34011934e-005,
          -7.28461382e-005, -1.38268457e-004, -1.24325103e-004,
          -8.62318338e-005, -6.55745680e-005, -8.93333345e-005,
          -2.09989943e-004, -2.43942311e-004, -2.34593012e-004,
          2.09130594e-004, 1.68118320e-004, 3.27125927e-005,
          -6.03626358e-006, -3.87469736e-005, -4.90971397e-005,
          -5.19170972e-005, -1.76824979e-005, -1.99543338e-005,
          -8.20302957e-005, -5.95228194e-005, -3.86121392e-005,
          1.89632570e-004, 2.46702635e-004, 2.37246466e-004,
          2.70578079e-004, 2.44488590e-004, 2.40217094e-004,
          2.31887461e-004, 2.65641225e-004, 3.04162677e-004,
          1.45988801e-004, 1.12393995e-004, 6.52803137e-005,
          1.89632570e-004, 2.75865226e-004, 2.29765152e-004,
          1.94275461e-004, 1.11773530e-004, 8.08479672e-005,
          6.64690670e-005, 1.44204139e-004, 2.14835076e-004,
          5.95804122e-005, 1.09202607e-004, 1.21818499e-004,
          1.96972876e-004, 2.12302097e-004, 7.98841429e-005,
          7.05271596e-005, 2.23544175e-005, 4.05173814e-005,
          6.86288695e-005, 1.30608911e-004, 2.35141430e-004,
          1.26650310e-004, 1.57562026e-004, 1.29158812e-004,
          1.78188508e-004, 2.57017586e-004, 2.68234173e-004,
          2.70201097e-004, 2.41518414e-004, 2.47578806e-004,
          2.35475673e-004, 2.57781561e-004, 2.80322187e-004,
          1.54076217e-004, 1.55949223e-004, 1.10374436e-004,
          1.01094854e-004, 1.08207751e-004, 8.26776086e-005,
          6.53603638e-005, 3.80933525e-005, 2.96119797e-005,
          4.20808756e-005, 1.27639447e-004, 1.78446935e-004,
          9.45632928e-005, 1.93580388e-004, 2.23587209e-004,
          -2.27566416e-004, -1.90854786e-004, -1.12021116e-004,
          -8.30086356e-005, -7.13748595e-005, -6.59943762e-005,
          -9.36042998e-005, -4.51658561e-005, 3.51353119e-005,
          -3.08423550e-005, 1.29499414e-004, 3.28243594e-004,
          -2.33809449e-004, -2.05927616e-004, -1.68861952e-004,
          -1.28725340e-004, -1.26157422e-004, -1.43616300e-004,
          -1.55618662e-004, -5.69983386e-005, 7.60616676e-005,
          7.45152720e-005, 2.11066479e-004, 3.10969335e-004 ]
      - [ 2.57498016e-019, 2.57498016e-019, 1.54222755e-004,
          -4.49410936e-006, -1.36255025e-004, -1.99113580e-004,
          -2.00766372e-004, -5.18214729e-005, 2.64851813e-004,
          -1.52065957e-004, -1.28026019e-004, -1.31992012e-004,
          -6.68102803e-005, -7.78592366e-005, 1.55150527e-004,
          -1.05292376e-004, -2.27514902e-004, -2.24869043e-004,
          -1.73674125e-004, 1.49898106e-005, 2.67770636e-004,
          -1.93749904e-004, -2.09285819e-004, -2.03499512e-004,
          -8.39573258e-005, -9.05703200e-005, 1.05153638e-004,
          1.58116338e-004, -9.73242277e-006, -1.45359096e-004,
          -1.24733240e-004, -7.62493801e-006, 2.62641639e-004,
          5.86349088e-005, -1.52943339e-005, 2.21300743e-005,
          2.52709404e-004, 2.74323684e-004, 1.78055096e-004,
          4.30119399e-004, 3.49720067e-004, 2.36375534e-004,
          2.17821347e-004, 3.02639120e-004, 4.28273837e-004,
          2.77539802e-004, 2.22906034e-004, 2.38469496e-004,
          2.60883273e-004, 2.32452672e-004, 2.70962977e-004,
          2.20309375e-004, 1.60763055e-004, 1.50148844e-004,
          1.36133996e-004, 2.64892820e-004, 4.36833652e-004,
          2.78004572e-005, -7.72512649e-005, -8.66914197e-005,
          3.83686711e-005, 3.87553773e-005, 1.45366736e-004,
          2.47426098e-004, 7.53131608e-005, 1.37469010e-006,
          1.33067315e-005, 1.48314284e-004, 4.41760145e-004,
          9.48808156e-005, -1.68944807e-005, 1.04274704e-005,
          1.79276176e-004, 1.79662879e-004, 1.29503431e-004,
          3.87926208e-004, 3.20722640e-004, 2.58990505e-004,
          2.95762002e-004, 3.18453618e-004, 4.03127109e-004,
          3.18069593e-004, 3.06280243e-004, 3.26215493e-004,
          3.38727463e-004, 2.76188017e-004, 1.20863981e-004,
          9.47652588e-005, 7.86104210e-005, 8.77935963e-005,
          9.66729203e-005, 2.43380156e-004, 3.74605326e-004,
          5.41066129e-006, -6.15441240e-005, -4.90214516e-005,
          -1.16495785e-005, -3.19524406e-005, 3.44560940e-005,
          1.24370184e-004, 3.01642558e-006, -8.19451088e-005,
          -1.38190589e-004, -8.09386256e-005, 1.89263083e-004,
          -4.29557513e-005, -1.08028369e-004, -4.18935524e-005,
          -1.33791502e-004, -1.79986833e-004, -7.39583047e-005,
          5.81048589e-005, -1.30875138e-004, -2.37095999e-004,
          -2.37817483e-004, -1.48546140e-004, 3.19768114e-005,
          -4.07081679e-005, -7.18818337e-005, -5.60868357e-005 ]
      - [ -5.42101086e-020, -2.20299739e-006, -4.42994969e-005,
          -1.03311540e-004, -8.83608518e-005, 1.70513551e-004,
          2.95534293e-004, 1.55880480e-004, -2.50584471e-005,
          -3.90105211e-004, -1.61282165e-004, -1.56493144e-004,
          -1.20488556e-004, -1.88599501e-004, -2.54778541e-004,
          -3.00703425e-004, -1.49187812e-007, 3.21699627e-005,
          -2.24610150e-004, 9.76674164e-006, 4.07462503e-004,
          -4.17285104e-004, -2.62061483e-004, -2.66919233e-004,
          -2.42007940e-004, -2.84404785e-004, -3.43177642e-004,
          -9.49448950e-005, 1.76860151e-004, 4.86642330e-006,
          -6.69781148e-005, 2.51810037e-004, 7.98078618e-005,
          -3.93664202e-004, -3.08102259e-004, -2.70008779e-004,
          -1.01090489e-004, -1.05710955e-004, -1.59016534e-004,
          1.75205758e-004, 4.56278736e-004, 4.08411433e-004,
          3.03214416e-004, -5.11229700e-005, -7.59103568e-005,
          -1.79462906e-004, -1.22597165e-004, -1.01124904e-004,
          1.09767774e-004, 3.67753499e-004, 3.40931001e-004,
          5.36777254e-004, 4.67456528e-004, 5.05462289e-004,
          5.02148527e-004, 2.39515255e-004, 2.49291857e-004,
          5.72621102e-005, 6.93188485e-005, -4.41063785e-005,
          5.29664860e-004, 6.76978030e-004, 2.80681543e-005,
          2.82727851e-004, 3.56948556e-004, 4.69885010e-004,
          4.82103700e-004, 5.96300815e-004, 3.98529897e-004,
          2.42726193e-004, 3.15089244e-004, 3.09709896e-004,
          2.85475660e-004, 1.90673527e-004, -1.76985093e-004,
          2.34771956e-004, 3.32952884e-004, 1.36424860e-004,
          1.46132224e-004, 2.65887415e-004, 1.52073801e-004,
          -4.62035387e-005, 2.94771045e-004, 3.90859961e-004,
          -8.79913714e-005, -4.87550969e-005, -2.15999433e-004,
          3.42090498e-005, 4.14978786e-005, 4.60369738e-005,
          -6.97070282e-005, -6.44666070e-005, 2.73773709e-004,
          -7.68366808e-005, 1.74260684e-004, 6.94840928e-005,
          -2.38829016e-004, -1.95808258e-004, -2.66289397e-004,
          5.71979763e-005, 1.70414161e-004, 1.89497194e-004,
          -1.97798317e-006, 2.21268729e-005, 7.14807466e-005,
          -2.60125438e-004, -1.97342553e-004, -8.52720914e-005,
          -1.37817129e-004, -7.29226813e-005, -2.72316509e-004,
          -1.15361800e-005, 8.14586965e-005, 2.05882650e-004,
          5.36101425e-006, 8.40225548e-005, -1.32936126e-004,
          -4.62731186e-005, -3.96568254e-007, -5.42101086e-020 ]
      - [ 3.25260652e-019, 2.71532117e-005, 8.77739694e-006,
          -4.40238691e-005, -8.32797450e-005, -7.10971508e-005,
          1.93202854e-004, -3.38021673e-005, -1.93006290e-005,
          5.19590685e-005, 2.31721991e-004, 3.57795012e-004,
          1.25293926e-004, 3.34123033e-005, -6.75037973e-006,
          -2.27583569e-005, -2.27583569e-005, -2.27583569e-005,
          3.38969927e-004, 7.90646300e-005, 1.97889138e-004,
          -5.25327778e-005, -1.42116842e-004, -1.50163993e-004,
          1.13309448e-004, -1.16938900e-004, -4.73809749e-004,
          -4.72117652e-004, -4.91199142e-004, -4.73715394e-004,
          -1.74472967e-004, -5.49908029e-004, -7.08090374e-004,
          4.50212363e-004, -4.75837078e-005, -4.61316040e-006,
          7.91590937e-005, -2.28007884e-005, -1.36067800e-004,
          -4.37551389e-005, -8.33573940e-005, -4.18389536e-005,
          3.15624318e-004, 4.46578604e-004, 5.37954948e-005,
          -1.75514488e-005, 1.62286466e-004, -6.58276549e-005,
          6.20839201e-005, 4.30956861e-005, 9.84767612e-005,
          2.49773642e-004, 3.58296733e-004, 4.92322200e-004,
          8.35435814e-004, 8.37405911e-004, 3.95593728e-004,
          7.87012046e-004, 2.12626081e-004, -3.00352462e-004,
          1.13309448e-004, 4.22460347e-004, 6.30855735e-004,
          6.64233230e-004, 3.35063669e-004, 1.22856683e-004,
          5.02936076e-004, 9.81435645e-004, 5.91898803e-004,
          4.94223321e-004, -1.44262058e-005, -2.87904782e-004,
          1.13309448e-004, 4.22460347e-004, 3.85267573e-004,
          4.73902328e-004, 3.95454786e-004, 4.04371276e-005,
          5.58211905e-005, -5.57714549e-004, -1.79347713e-004,
          1.46071892e-003, 3.51720228e-004, 6.46155502e-004,
          7.99533518e-005, -2.99636886e-005, -7.10294757e-004,
          -8.80380918e-004, -1.01349235e-003, -9.44349391e-004,
          -5.36444189e-004, 1.27973783e-006, 1.33302645e-004,
          -7.98099791e-005, -1.07858505e-004, 9.95823764e-004,
          1.00415877e-004, -1.57226696e-005, 1.24058817e-004,
          1.61531978e-004, 7.84356380e-005, 2.00426930e-005,
          9.32717569e-007, 9.12994656e-005, -6.43762833e-005,
          -2.95398513e-005, -9.73884289e-006, 1.32108212e-003,
          2.61707552e-004, 5.57195053e-005, -2.12831859e-004,
          -5.06610086e-005, -3.60656741e-005, 1.04210856e-004,
          1.35682756e-004, -5.94980484e-005, -5.35851213e-005,
          -3.22148626e-005, 5.87978924e-004, 3.44472501e-004 ]
      - [ 2.66860414e-004, 2.40667272e-004, 2.29699304e-004,
          1.64881261e-004, 1.94906461e-004, 1.04585684e-004,
          7.52198030e-005, -8.76657723e-005, -6.46791377e-005,
          -4.75166671e-005, -2.32266138e-005, 6.83874605e-005,
          -1.84582357e-004, -6.30817012e-005, 1.67334205e-004,
          1.26206010e-004, -1.54743815e-004, -3.04341171e-004,
          -1.89224913e-004, -3.74934782e-004, -1.52854365e-004,
          8.14845989e-005, -8.60135551e-005, -2.42093651e-004,
          -1.13337592e-004, 1.02930593e-004, 1.62430806e-004,
          -3.93399641e-005, -3.34117620e-004, -5.22463233e-004,
          -3.59231839e-004, -3.24907101e-004, -1.50401655e-004,
          -2.46759992e-005, 1.75583176e-004, 1.72798900e-004,
          9.99153272e-005, 2.88823678e-004, 3.05026013e-004,
          3.49701557e-004, 7.72044004e-005, -2.53610942e-005,
          4.57908791e-005, -9.87438034e-005, 5.49859360e-005,
          2.69715267e-004, 6.86107815e-005, 1.98229041e-004,
          1.63190256e-004, 3.15363577e-004, 2.85154732e-004,
          3.44431755e-004, 7.09802916e-005, 7.09802916e-005,
          6.91605092e-005, -5.10759492e-005, 9.76362571e-005,
          2.44464318e-004, 1.76738409e-004, 7.39201059e-005,
          1.81677169e-004, 3.55228782e-004, 2.85154732e-004,
          4.07641433e-004, 1.62689204e-004, 1.03292317e-004,
          2.61261030e-005, -2.52133294e-004, 4.60791671e-006,
          2.03756033e-004, 3.32474476e-004, 1.26268482e-004,
          3.92722141e-005, 2.40005989e-004, 3.51752999e-004,
          3.53824114e-004, 6.50596994e-005, -2.35993837e-004,
          -3.51110852e-004, -3.85184656e-004, 8.82015374e-005,
          4.73033084e-004, 2.02957817e-004, 2.24857416e-004,
          -2.29954065e-004, 7.83254000e-005, 7.86429664e-005,
          -4.17939846e-005, -2.60954344e-004, -4.74641594e-004,
          -4.61330259e-004, -2.45304691e-004, 3.42064333e-004,
          6.75857940e-004, 3.10591568e-004, 6.35253018e-005,
          -3.95601382e-004, -3.40476749e-004, -4.33304551e-004,
          -1.46239850e-004, -6.25921821e-005, -1.21348006e-004,
          -1.30790984e-004, 1.22769939e-004, 4.82550560e-004,
          4.31273686e-004, 9.07504291e-005, 5.42101086e-020,
          -1.67773760e-004, -1.89881597e-004, -2.65533454e-004,
          -1.71498614e-004, -6.10059797e-005, 1.78019342e-004,
          3.59013444e-004, 3.70790483e-004, 3.56066215e-004,
          3.27943097e-004, 1.25705599e-004, 1.25705599e-004 ]
      - [ -2.50721752e-019, 4.06916297e-006, 5.86308524e-005,
          7.57484595e-005, 1.37589625e-004, 5.13588420e-005,
          -2.41583155e-004, -3.17658123e-004, -2.10961138e-004,
          -1.45415965e-004, -3.87784239e-005, -2.42308815e-005,
          -1.00921221e-004, -1.31634297e-004, -2.23486946e-004,
          -2.40764813e-004, -1.96563997e-004, 4.08083288e-005,
          1.25131570e-004, -5.71360324e-005, -2.28190729e-005,
          -8.66136688e-005, -5.34888532e-005, -9.73837232e-005,
          -6.63871397e-005, -1.29921726e-004, -2.31274040e-004,
          -1.94803026e-004, -1.17258423e-004, 5.08029152e-005,
          1.47067243e-004, 3.68978144e-005, 1.21813304e-004,
          2.95921927e-004, 3.12037038e-004, 1.29184613e-004,
          -6.96499337e-005, -7.11097091e-005, -4.09083950e-005,
          2.31499958e-004, 3.33974662e-004, 4.36843460e-004,
          2.89040589e-004, 1.37993018e-004, 2.92167009e-004,
          1.66571408e-004, 5.17821754e-005, 2.66670486e-005,
          -1.23279324e-005, 1.66292884e-004, 1.89374856e-004,
          4.52405249e-004, 4.52405249e-004, 4.50935389e-004,
          2.73858896e-004, 8.03338626e-005, 2.34761028e-005,
          -1.34547910e-004, -2.02389128e-004, -1.63505130e-004,
          -6.31426929e-006, 8.89506464e-006, 3.74006995e-005,
          4.30696906e-004, 4.72315383e-004, 4.83359734e-004,
          1.61833232e-004, -4.95646818e-005, -2.84551734e-005,
          -4.50610696e-006, -8.07759207e-005, -1.73306267e-004,
          2.57743304e-005, 5.84042027e-005, 3.67606444e-005,
          2.48490716e-004, 2.36498876e-004, 2.64261762e-004,
          1.54854570e-004, 5.64966831e-005, 1.48317515e-004,
          1.63654637e-004, 5.24603274e-005, -9.06526329e-005,
          3.84534273e-004, 2.84320442e-004, 5.30242869e-005,
          5.15169413e-005, 1.15802841e-005, -5.14447675e-005,
          -2.61145033e-005, 5.15288993e-005, 2.37913031e-004,
          2.23587413e-004, 7.18292940e-005, 3.59192927e-005,
          2.30544538e-005, 1.04938306e-004, 1.46197499e-005,
          -1.70843214e-005, -1.76198562e-004, -2.16481349e-004,
          -2.41742877e-004, -5.22435112e-005, 3.80001584e-005,
          5.47887794e-005, 2.55619543e-005, 2.55481755e-005,
          -1.46824998e-004, -1.64813027e-004, -1.23460442e-004,
          -7.47027443e-005, -1.50362102e-004, 3.61740022e-005,
          8.95470293e-005, 2.44104103e-005, -2.50721752e-019,
          -2.50721752e-019, -2.50721752e-019, -2.50721752e-019 ]
      - [ 8.95558333e-005, 2.97543418e-004, 4.15088667e-004,
          3.10741743e-004, 4.07233201e-005, -2.24355259e-004,
          -3.25309928e-004, -5.54015336e-004, -4.34959278e-004,
          -2.82742403e-004, -1.44909733e-004, 4.46713966e-005,
          3.18128587e-004, 2.73421028e-004, 2.27643264e-004,
          2.08566387e-004, 1.79255338e-004, 2.16652697e-005,
          -2.51009507e-004, -5.56120183e-004, -5.27144002e-004,
          -5.81701170e-005, 2.39795176e-004, 6.41136285e-005,
          1.17786738e-004, 2.68254167e-004, 2.26426666e-004,
          2.57824111e-004, 2.08985322e-004, 2.91821852e-005,
          4.76563582e-005, -3.84177329e-005, 1.24828483e-004,
          3.28273629e-004, 3.15103563e-004, 4.19502940e-005,
          -1.40576230e-004, 3.83060724e-005, 2.93877474e-005,
          2.47124844e-004, 2.62771762e-004, 2.09477919e-004,
          1.59772797e-004, -1.12497710e-005, 2.17542998e-004,
          2.56565225e-004, -6.40884973e-005, -1.60304829e-004,
          -1.96723195e-004, -1.33412585e-004, -1.86286925e-004,
          5.36741973e-005, 7.86438104e-005, 7.86438104e-005,
          1.40083794e-004, 1.65422680e-004, 1.30751941e-004,
          1.24396945e-004, -3.04021178e-005, -2.64215603e-004,
          -1.85675846e-004, -1.26755840e-004, -2.13917854e-004,
          -2.49696095e-005, 1.62630326e-019, -2.48360993e-006,
          2.51151680e-004, -3.42951148e-006, 1.02124104e-005,
          -1.78169848e-005, -5.57594758e-005, -2.01308125e-004,
          -1.85675846e-004, -1.26755840e-004, -2.29430676e-004,
          -9.08217989e-005, -1.18562857e-004, -4.63003817e-005,
          -4.06492072e-005, -1.74858633e-005, 1.11249836e-004,
          -4.05656137e-005, -1.56479509e-004, -5.87148679e-005,
          -1.85858415e-004, -1.82738775e-004, -3.66182212e-004,
          -4.30936401e-004, -2.73961254e-004, -7.46715086e-005,
          4.18865966e-005, -5.54421058e-006, -7.21284596e-005,
          -2.54724600e-005, -3.63473009e-005, 1.62630326e-019,
          -2.56142492e-004, -2.90903641e-004, -5.76740305e-004,
          -2.82966299e-004, -1.91441912e-004, -5.94693629e-005,
          1.36992472e-004, 5.58333268e-005, -9.36169454e-005,
          -3.82112630e-005, 1.62630326e-019, 1.62630326e-019,
          -1.85858415e-004, -1.98433132e-004, -4.39458032e-004,
          -1.00399251e-004, -1.82974429e-004, 6.59716825e-005,
          1.30238215e-004, -4.96746361e-006, 1.62630326e-019,
          1.62630326e-019, 1.62630326e-019, 1.62630326e-019 ]
      - [ -9.48676901e-020, -1.84666751e-005, -1.92245134e-005,
          6.14898163e-005, 1.58391980e-004, 3.34040262e-004,
          1.64395213e-004, -1.76970716e-004, -4.49910731e-004,
          -2.77151790e-004, 1.39830183e-004, 2.46940792e-004,
          -2.29658486e-004, -3.03731125e-004, -4.03244892e-004,
          -2.18763569e-004, -1.17154741e-005, 2.04188400e-004,
          1.27602339e-004, -6.69009823e-005, -1.04310515e-004,
          2.41964852e-004, 3.59821744e-004, -9.50985268e-005,
          -1.81446259e-004, -6.75605261e-005, -2.08040234e-004,
          -1.84970806e-004, -3.12141870e-004, -3.73977702e-004,
          -4.30493004e-004, -4.19457996e-004, -8.00253256e-005,
          2.21687791e-004, 1.15234732e-004, -2.08676138e-005,
          -1.34913644e-004, 3.17687663e-004, 2.61297362e-004,
          4.70216502e-004, 3.72715935e-004, 9.03105756e-005,
          7.68175378e-005, 1.37762530e-004, 1.43975281e-004,
          1.79899012e-004, -2.60997476e-004, -9.22853360e-005,
          1.54497437e-004, 2.83449772e-004, 1.86411256e-004,
          4.45582584e-004, 4.01058875e-004, 3.66236869e-004,
          3.56956385e-004, 9.39425154e-005, 8.14951709e-005,
          -1.91223007e-005, -1.08574401e-004, -2.94576108e-004,
          -1.15603529e-004, 5.38620552e-005, -9.52379996e-005,
          1.89018145e-004, 4.24530212e-004, 4.66173602e-004,
          5.00871392e-005, -2.68991826e-005, -5.45999392e-005,
          -9.05293346e-005, -3.43322972e-005, -2.39688554e-004,
          -1.61485048e-004, -8.70419753e-005, -6.33296222e-005,
          2.91515054e-004, 9.00652740e-005, -2.18644229e-004,
          -6.02312939e-005, -2.42921560e-005, -8.27401091e-005,
          -2.01694147e-005, -1.36305956e-004, -5.26180738e-005,
          -1.61485048e-004, -5.74155310e-005, -1.22707701e-004,
          -2.96235638e-004, -4.67020669e-004, -1.77090376e-004,
          2.05243250e-005, -1.01931648e-004, -1.61341995e-005,
          -1.95379525e-005, -2.84128309e-005, -9.48676901e-020,
          -1.41093464e-004, -8.06859898e-005, -5.84451715e-004,
          -5.66812290e-004, -2.27788405e-004, 1.12670468e-005,
          -1.41397482e-004, -8.13738952e-005, -2.17197521e-005,
          -8.90509818e-006, -9.48676901e-020, -9.48676901e-020,
          5.07730656e-005, -2.98888714e-004, -5.80733467e-004,
          -2.39615591e-004, 2.92573714e-005, 5.41794034e-005,
          -5.09964593e-005, -3.04076525e-006, -9.48676901e-020,
          -9.48676901e-020, -9.48676901e-020, -9.48676901e-020 ]
      - [ 4.28319938e-004, 1.42696867e-004, 2.97481583e-005,
          -5.54772778e-005, -1.36933901e-004, -1.55132788e-004,
          -2.10359474e-004, -3.05505586e-004, -2.13774649e-004,
          -1.66754748e-004, -1.39821088e-004, -9.49072855e-005,
          3.00291926e-004, -1.24555727e-005, -8.08904661e-005,
          -1.24725775e-004, -1.79892711e-004, -1.79892711e-004,
          -2.21294395e-004, -3.78080294e-004, -3.17540427e-004,
          -1.96909474e-004, -1.60018360e-004, -1.17042429e-004,
          2.07683013e-004, 1.99844999e-005, -4.42698838e-005,
          -9.94625225e-005, -1.55757298e-004, -1.46585007e-004,
          -1.85063967e-004, -3.11809854e-004, -2.92236247e-004,
          -2.66505609e-004, -1.11918482e-004, -1.35198650e-006,
          1.93260290e-004, 7.92234496e-005, 9.90022454e-005,
          3.20905710e-005, -1.16457104e-005, -1.81964219e-006,
          -4.14016868e-005, -1.73626846e-004, -1.42962410e-004,
          -1.21154924e-004, -2.05793171e-004, -8.30070494e-005,
          1.93260290e-004, 8.84630281e-005, 1.69415041e-004,
          1.23117774e-004, 1.24086437e-004, 1.31140885e-004,
          9.63892380e-005, -9.50486901e-006, -1.98201942e-005,
          -7.27765000e-005, -1.56044465e-004, -2.45187344e-004,
          2.11739462e-004, 2.19972484e-004, 2.02120966e-004,
          1.37132651e-004, 1.63569275e-004, 1.57800183e-004,
          2.66715128e-004, 2.85808870e-004, 3.10460804e-004,
          2.51097721e-004, 1.63059871e-004, -1.36618910e-004,
          1.93260290e-004, 8.52743906e-005, 1.14307571e-004,
          6.66634442e-005, 2.28850804e-005, 2.02316678e-005,
          -4.58384093e-005, 6.11413270e-005, 2.64066854e-004,
          3.43210297e-004, 2.63946800e-004, 3.04737594e-004,
          1.93260290e-004, 2.67444830e-005, -5.85928683e-005,
          -2.05330798e-004, -2.00919036e-004, -1.53895657e-004,
          -2.12953091e-004, 1.41255659e-004, 3.12922610e-004,
          3.56321572e-004, 2.55767663e-004, 2.32387218e-004,
          6.66896740e-005, -1.88847698e-004, -2.63296271e-004,
          -1.89690676e-004, -6.53579045e-005, 4.01016441e-005,
          -6.64128238e-005, 8.68048155e-005, 5.10258069e-005,
          -7.56142481e-006, -1.00135576e-005, -1.35525272e-020,
          1.32205154e-004, 9.81016710e-005, -1.36540484e-005,
          -1.07152337e-004, -1.45905273e-004, -1.30297223e-004,
          -6.27359186e-005, -8.62449269e-006, -1.35525272e-020,
          -1.35525272e-020, -1.35525272e-020, -1.35525272e-020 ]
      - [ 3.17210797e-004, 2.49277567e-004, 6.32532683e-005,
          -3.87041509e-005, -1.53750763e-004, -1.71747801e-004,
          -2.00477589e-004, -2.86114227e-004, -2.00277602e-004,
          -1.48058723e-004, -9.50203612e-005, -2.50176054e-005,
          1.35444614e-004, 9.74463619e-005, -5.76986313e-005,
          -1.12668873e-004, -1.88130463e-004, -1.88130463e-004,
          -2.03788150e-004, -3.01856606e-004, -2.89087882e-004,
          -1.98469861e-004, -1.47672676e-004, -6.46834742e-005,
          1.38456773e-004, 1.15491879e-004, -5.44935683e-005,
          -9.92715795e-005, -1.35035996e-004, -9.94748043e-005,
          -8.48971977e-005, -1.58730021e-004, -1.28382482e-004,
          -7.10937456e-005, 3.64998377e-005, 7.17929943e-005,
          1.22317855e-004, 1.94726832e-004, 2.30168851e-004,
          2.55956751e-004, 2.37779735e-004, 2.42769791e-004,
          2.08654354e-004, 7.55062065e-005, 8.98683356e-005,
          -2.73559890e-005, -4.56795606e-005, -2.62898375e-005,
          1.22317855e-004, 1.95998189e-004, 1.90820661e-004,
          1.66312821e-004, 8.42177324e-005, 5.66911804e-005,
          2.67462146e-005, 1.26396044e-005, 6.33712698e-005,
          -5.62214846e-005, 3.42459971e-005, 4.60584516e-007,
          1.38456773e-004, 1.59751900e-004, 8.32565056e-005,
          7.90559061e-005, 1.95617686e-005, 3.54557051e-005,
          1.70266740e-005, -7.47448066e-005, 5.20158756e-006,
          4.65835874e-005, 1.68230690e-004, 4.05894752e-005,
          1.38456773e-004, 2.03882359e-004, 2.03867792e-004,
          1.99734466e-004, 1.54795038e-004, 1.10279267e-004,
          7.23318153e-005, 1.35776709e-005, 2.04651660e-004,
          1.92492240e-004, 1.45814149e-004, 9.97885727e-005,
          7.51695479e-005, 5.55576044e-005, -1.50634160e-005,
          -8.27829499e-005, -1.09065673e-004, -1.10343157e-004,
          -7.84338627e-005, 4.98058535e-006, 1.85181125e-004,
          1.74270972e-004, 2.07171674e-004, 1.94207198e-004,
          -1.51423243e-004, -1.90401232e-004, -2.23593684e-004,
          -2.05696124e-004, -2.05682692e-004, -1.79819021e-004,
          -1.58316092e-004, -3.15734651e-005, 1.29248059e-004,
          1.04403633e-004, 1.67896316e-004, 2.86383729e-004,
          -1.62424840e-004, -1.70229934e-004, -1.89527898e-004,
          -1.72577202e-004, -1.60704032e-004, -1.16251067e-004,
          -6.05667992e-005, 7.03172482e-005, 1.70507788e-004,
          1.21644262e-004, 1.83139724e-004, 2.41267568e-004 ]
      - [ 1.76182853e-019, -1.09107714e-005, 1.16966527e-004,
          -9.55703290e-005, -2.35777319e-004, -3.05174501e-004,
          -3.39131482e-004, -2.60583562e-004, 7.95741289e-005,
          2.30917867e-005, -5.58668980e-005, -7.45754460e-006,
          -1.81598152e-004, -1.88777587e-004, 4.52568202e-005,
          -1.47277460e-004, -2.76641629e-004, -3.32732394e-004,
          -3.39131482e-004, -2.70158285e-004, -5.48960015e-005,
          -9.21726387e-005, -1.68840692e-004, -9.29679445e-005,
          -1.11825342e-004, -9.73060814e-005, 7.07133004e-005,
          5.56571722e-005, -1.61743985e-004, -2.06341996e-004,
          -1.93902815e-004, -1.92476917e-004, 7.72481508e-005,
          1.18780517e-004, 1.31620429e-004, 2.02240379e-004,
          1.36650910e-004, 1.65964288e-004, 1.68089202e-004,
          4.81267169e-004, 3.90132220e-004, 3.35372431e-004,
          2.90147931e-004, 4.36385235e-005, 2.16230590e-004,
          2.18580710e-004, 1.20577715e-004, 1.52147739e-004,
          7.94913212e-005, 1.10955407e-004, 3.07188748e-004,
          2.99619045e-004, 1.91816405e-004, 1.14354851e-004,
          7.95354790e-005, 1.42396631e-004, 1.48065606e-004,
          -1.90900046e-005, -1.10351386e-004, -2.10207887e-004,
          -4.44755460e-005, -7.01929548e-006, 1.90763691e-004,
          3.51412367e-004, 1.31795547e-004, 1.75560581e-005,
          -1.08006925e-005, -2.66548523e-005, 9.50018512e-005,
          8.70293079e-005, 4.02087790e-005, -7.53977802e-005,
          1.00469901e-004, 1.58550130e-004, 1.34400689e-004,
          4.37143113e-004, 3.23979970e-004, 2.26631091e-004,
          1.87267797e-004, -6.53613370e-006, 2.62810034e-004,
          3.84351617e-004, 2.95611244e-004, 2.98440806e-004,
          2.63033726e-004, 2.40023568e-004, 1.68728351e-004,
          9.49584428e-005, -8.38160340e-005, -1.65476959e-004,
          -2.15313703e-004, 1.55469297e-005, 3.58829217e-004,
          2.51602876e-004, 2.37306540e-005, 4.02287378e-006,
          -6.38023994e-005, -8.77407656e-005, 5.39520306e-006,
          -8.59019055e-005, -2.93289020e-004, -3.26224166e-004,
          -2.42115464e-004, 2.50388985e-005, 3.23098589e-004,
          2.03080752e-004, -2.18220521e-005, -8.44591796e-006,
          -1.08795073e-004, -1.19688782e-004, -2.21794380e-005,
          4.74001608e-005, -1.18892778e-004, -1.63280405e-004,
          -8.65240363e-005, 9.51491966e-005, 1.86551231e-004,
          8.14170926e-005, 1.76182853e-019, 1.76182853e-019 ]
      - [ -1.62630326e-019, -6.23117194e-006, -3.30333387e-005,
          -1.16211260e-004, -6.64493055e-005, 2.01386429e-004,
          1.38234318e-004, -1.61439675e-004, -1.62896933e-004,
          -1.60982978e-004, -5.31029837e-005, -6.35444958e-005,
          -1.69415929e-004, -2.21846989e-004, -3.14451114e-004,
          -1.29204214e-004, 8.47498668e-005, 1.62052183e-005,
          -3.47462163e-004, -4.74737695e-004, -4.13569251e-005,
          -2.03265852e-004, -1.57765026e-004, -1.66911574e-004,
          -9.19124141e-005, -1.24937869e-004, -3.33665259e-004,
          -1.48258681e-004, -7.51340776e-005, 2.00863469e-005,
          -4.78917464e-005, 5.44779105e-005, 5.95600295e-006,
          -2.56459607e-004, -9.72111375e-005, -7.97859593e-006,
          -1.07395244e-004, -6.57094060e-005, -5.19781861e-005,
          3.19285842e-004, 5.73688943e-004, 5.15951018e-004,
          3.88470246e-004, -1.30208675e-004, -1.93027401e-004,
          -1.69218343e-004, -3.51365365e-004, -1.80981311e-004,
          1.07694352e-004, 3.44474247e-004, 2.48058845e-004,
          4.66166326e-004, 4.26712213e-004, 4.13831818e-004,
          3.74444964e-004, -5.43975366e-005, 1.28214406e-005,
          1.27668027e-004, -9.92938567e-006, -3.41951556e-004,
          4.37013427e-004, 5.15402528e-004, -2.71786357e-005,
          3.65257321e-004, 3.45845416e-004, 2.62542249e-004,
          2.00586423e-004, 6.38938291e-005, 3.42824569e-005,
          1.54454712e-004, 2.23189621e-004, 4.36828414e-005,
          1.89340877e-004, 1.81576659e-004, -2.05679971e-005,
          3.15351703e-004, 2.94162077e-004, -3.03813567e-006,
          -1.16626783e-004, 1.03545408e-005, 1.07226049e-004,
          1.09579829e-004, 1.27670515e-004, 2.58726708e-004,
          -7.78913527e-005, -2.68500935e-005, -2.19478636e-004,
          -1.83068783e-004, -2.56078434e-004, -2.38688895e-004,
          -3.38914921e-004, -2.88050127e-004, 3.36827245e-004,
          1.18664320e-004, 8.96880156e-005, 6.36320619e-005,
          -2.25372904e-004, -2.14773667e-004, -4.16090945e-004,
          -1.56829483e-004, -4.46255217e-005, -2.71573426e-005,
          -1.92639607e-004, -1.41288896e-004, 2.41093803e-004,
          2.10582903e-006, 5.26374833e-007, -1.62630326e-019,
          -1.61264441e-004, -1.09884037e-004, -3.33359640e-004,
          -1.70499989e-004, -1.27102641e-004, 1.23404549e-004,
          1.60595620e-004, 3.37589328e-004, 7.99886693e-005,
          7.10606082e-006, -1.62630326e-019, -1.62630326e-019 ]
      - [ 1.43595258e-004, 8.95790872e-005, 7.79860784e-005,
          1.06183405e-004, 2.54467421e-004, 1.66282218e-004,
          -3.65405795e-005, -1.42566441e-005, -3.32477175e-005,
          -1.37687821e-004, -2.01865259e-004, -1.28737986e-004,
          -2.86685186e-004, -1.42191609e-004, 8.55569306e-005,
          1.24728758e-004, -1.00290767e-004, -2.66865594e-004,
          -3.51064926e-004, -4.10855602e-004, -1.19670922e-005,
          7.18825395e-005, -3.72740578e-005, -9.71667323e-005,
          -2.53909355e-004, 3.68600631e-005, 3.42734565e-004,
          2.03262665e-004, -4.13491834e-005, -1.70716536e-004,
          -2.29545156e-004, -3.38940226e-005, 9.51164402e-005,
          -6.98586955e-005, 2.59597553e-004, 1.52201610e-004,
          -6.70685695e-005, 1.81967000e-004, 4.61278920e-004,
          3.51116236e-004, 1.16068637e-004, 2.86683444e-005,
          -1.12114198e-004, -6.85737323e-005, 2.74581180e-005,
          -5.54594544e-006, 4.60784759e-005, 2.37289147e-004,
          4.91304854e-005, 2.48094817e-004, 3.35210498e-004,
          2.00690934e-004, -2.24541327e-005, -7.97874454e-005,
          -2.64025060e-004, -2.13996638e-004, 4.85952660e-005,
          -9.82811689e-005, 1.72607761e-004, 2.42941460e-004,
          4.74929038e-005, 1.06354120e-004, 1.07469852e-004,
          5.65391711e-005, 3.58642865e-005, 9.61346668e-005,
          -1.48740073e-004, -3.19532119e-004, 1.53443052e-005,
          -5.72029103e-006, 3.30595882e-004, 2.23716896e-004,
          -8.55241960e-005, 1.50020041e-005, 2.14148473e-004,
          6.29347051e-005, -7.96651948e-005, -1.35759852e-004,
          -2.78246589e-004, -3.09232018e-005, 2.34081497e-004,
          -5.07322438e-005, 8.33122831e-005, 4.92447725e-005,
          -3.54558812e-004, -1.14387520e-004, 2.14937041e-004,
          1.77109338e-004, 5.02952280e-005, -1.87594313e-004,
          -2.56813102e-004, -1.42653051e-004, 1.82477714e-004,
          4.51570901e-004, 2.31088852e-004, -2.17277411e-004,
          -5.46806841e-004, -5.89988718e-004, -4.26632847e-004,
          -2.06284953e-004, -1.63132077e-004, -2.17533670e-004,
          -1.97254456e-004, 2.33119805e-004, 4.91546234e-004,
          3.66159016e-004, 2.96784874e-005, -2.88928975e-004,
          -5.26898308e-004, -4.70580097e-004, -7.76343950e-005,
          -9.23884800e-005, 5.27717611e-006, 1.82080315e-004,
          3.28796916e-004, 3.27507471e-004, 2.83664209e-004,
          2.75929691e-004, -1.27530175e-005, 3.87517139e-005 ]
      - [ 1.18584613e-020, -8.17138880e-006, -3.90182458e-006,
          2.34961772e-006, 1.14506060e-004, 8.13716833e-005,
          -1.85732439e-004, -2.78599182e-004, -1.87947488e-004,
          -1.73206514e-004, -1.62150784e-004, -1.26035375e-004,
          -1.68047176e-004, -1.87947488e-004, -1.87947488e-004,
          -1.83777505e-004, -1.27968524e-004, 2.72655125e-005,
          8.69818177e-005, -4.45684127e-005, -2.86837003e-005,
          -4.99213493e-005, -5.84376648e-005, -7.32377739e-005,
          -1.87947488e-004, -1.34142916e-004, -8.54976824e-005,
          -7.19943782e-005, -1.16269530e-005, 1.14306051e-004,
          2.16466928e-004, 2.06387980e-004, 2.51356891e-004,
          1.31901179e-004, 2.66676856e-004, 1.00777092e-004,
          -1.70888481e-004, -5.08192097e-005, 9.62625199e-005,
          1.94973341e-004, 2.95861479e-004, 4.16297378e-004,
          2.79853120e-004, 1.84146265e-004, 2.21104157e-004,
          1.45096637e-004, -2.75248203e-005, -1.08816839e-005,
          -9.02649845e-005, 4.44057114e-005, 1.85456287e-004,
          3.56536533e-004, 3.36636207e-004, 3.09870491e-004,
          1.39814962e-004, 6.48773130e-005, 3.31497577e-005,
          -2.69021490e-004, -2.09262158e-004, -1.52275039e-004,
          -1.40561358e-004, -1.19968092e-004, 1.65738966e-005,
          2.57181760e-004, 3.45690845e-004, 3.91852285e-004,
          1.23425882e-004, -7.76234665e-005, -3.70091379e-006,
          -6.67390123e-005, -1.11231122e-004, -1.64889541e-004,
          -1.25869366e-004, -6.26127076e-006, 1.09616347e-004,
          1.31144930e-004, 1.62630182e-004, 2.75011174e-004,
          1.92631749e-004, 2.06377139e-004, 2.31016718e-004,
          -7.14196212e-005, -7.70429615e-005, -1.35995884e-004,
          2.04027165e-004, 2.28703444e-004, 2.87902745e-004,
          2.69089651e-004, 2.52490572e-004, 1.41863638e-004,
          4.78639122e-005, 2.75632533e-006, 7.33834459e-005,
          1.20925928e-004, 8.94995101e-005, -8.64233880e-005,
          3.08803610e-005, 4.04369603e-005, 8.10753863e-006,
          -3.98540797e-005, -1.90435079e-004, -2.59810215e-004,
          -2.34525651e-004, -6.64945255e-005, 2.36882970e-005,
          3.81841201e-005, 2.64881473e-005, -1.90509847e-004,
          -3.03426204e-004, -1.34048198e-004, 5.17366607e-005,
          -2.46599429e-005, -1.21226745e-004, -4.43612153e-005,
          -8.50929518e-006, 9.47722674e-006, 1.18584613e-020,
          1.18584613e-020, -8.92025346e-005, -5.22600712e-005 ]
      - [ 6.81010351e-005, 1.68000770e-004, 2.08263024e-004,
          1.82914635e-004, 7.95779997e-005, -7.44429635e-005,
          -2.56988249e-004, -2.87728355e-004, -1.84822202e-004,
          -1.67659979e-004, -1.29198263e-004, 5.46452338e-006,
          1.58275332e-004, 1.57760354e-004, 1.85426208e-004,
          1.85426208e-004, 1.55914939e-004, 6.05685236e-005,
          -2.29552927e-004, -3.88004031e-004, -2.28402700e-004,
          1.85748740e-005, 1.93121261e-004, 1.35544498e-004,
          7.50699546e-005, 2.14744010e-004, 3.08049232e-004,
          3.14643316e-004, 2.86346971e-004, 1.80190167e-004,
          5.20767971e-005, 5.33892853e-005, 1.83954471e-004,
          1.09488865e-004, 2.40735186e-004, 6.36209952e-005,
          -1.29437729e-004, 3.99848141e-005, 2.00960043e-004,
          2.38717548e-004, 2.35564206e-004, 1.97493369e-004,
          3.95572024e-005, -2.08021374e-005, 1.65384321e-004,
          4.85880810e-005, -8.71449010e-005, -5.67168681e-005,
          -1.84822202e-004, -1.20315628e-004, -1.41654345e-005,
          3.43317515e-005, 1.47623405e-005, -1.13302058e-005,
          -1.01931051e-004, -2.22465442e-005, 1.37038514e-004,
          -7.84119184e-005, -1.32564644e-004, -1.43200319e-004,
          -1.84822202e-004, -1.84822202e-004, -1.49307351e-004,
          -1.31912311e-004, -6.52313684e-005, -2.39181682e-005,
          2.16546705e-005, -8.15963795e-005, 2.12630348e-005,
          -1.25773338e-004, -1.05742423e-004, -1.55063055e-004,
          -1.84822202e-004, -1.84822202e-004, -1.32637113e-004,
          -1.41334633e-004, -1.22459285e-004, 3.39839280e-005,
          -4.35010879e-005, 8.86531052e-005, 1.03592516e-004,
          -3.03643552e-004, -2.10718121e-004, -1.83025259e-004,
          -1.84822202e-004, -1.84822202e-004, -1.26411484e-004,
          -1.34203729e-004, -1.28332135e-006, 4.98086956e-005,
          2.05143260e-005, 1.13113592e-005, -9.43599516e-005,
          -4.27627856e-005, -4.05497303e-005, -1.81330572e-004,
          -2.79724190e-004, -3.58526711e-004, -3.92920949e-004,
          -2.42006659e-004, -2.02403084e-004, -1.14721202e-004,
          1.58396997e-005, 9.71910486e-005, -2.10064171e-019,
          -2.10064171e-019, -2.96568687e-005, -1.94887994e-004,
          -3.41579929e-004, -3.34692420e-004, -2.30567341e-004,
          -1.02261001e-004, -1.06732208e-004, 6.01712272e-005,
          1.10822926e-004, 1.03914499e-005, -2.10064171e-019,
          -2.10064171e-019, -8.38865744e-005, -4.91456703e-005 ]
      - [ -1.09775470e-018, -4.01483630e-005, -7.59025497e-005,
          3.74758165e-005, 1.20228520e-004, 3.11037729e-004,
          1.35639901e-004, -6.54034229e-005, -2.55522144e-004,
          -2.35773841e-004, -4.53570538e-005, 7.56140289e-005,
          -2.47400720e-004, -2.76698178e-004, -2.58499174e-004,
          -7.44739664e-005, 3.19106657e-005, 2.07303572e-004,
          6.82179088e-005, -4.14993156e-005, -4.82938667e-005,
          2.06533077e-004, 2.86631315e-004, -1.80868064e-005,
          -2.76698178e-004, -1.29723179e-004, 1.91854106e-005,
          1.06361249e-005, -8.55764956e-005, -1.00888356e-004,
          -2.20997696e-004, -2.32909748e-004, -8.03470448e-006,
          6.12485883e-006, 1.02316022e-004, 1.08648544e-006,
          -2.54572689e-004, 1.47853090e-004, 3.96683696e-004,
          3.73705901e-004, 2.38215231e-004, 9.52922346e-005,
          2.79986434e-005, -2.13980529e-005, 6.73764007e-005,
          -6.58543213e-005, -2.78917723e-004, -8.88775612e-005,
          -1.10368146e-005, 1.17987925e-004, 2.95435108e-004,
          2.79027299e-004, 2.19164314e-004, 1.30281624e-004,
          -1.47778037e-005, -5.71106684e-005, 6.98530712e-005,
          -3.51862516e-004, -2.71328347e-004, -1.85435900e-004,
          -2.32152277e-004, -1.47566476e-004, -5.67272291e-005,
          -8.90346314e-007, 2.58817221e-004, 2.80170090e-004,
          -5.30586185e-005, -1.12439273e-004, -1.21046891e-004,
          -3.11992742e-004, -1.42205128e-004, -2.00797454e-004,
          -2.76698178e-004, -2.76698178e-004, -2.06927998e-005,
          5.52255260e-005, -6.74115581e-005, -1.34678325e-004,
          -2.38849243e-005, 5.06833749e-005, -8.58440326e-005,
          -4.41943062e-004, -2.87373638e-004, -2.37006825e-004,
          -2.76698178e-004, -2.23758048e-004, 6.50490329e-005,
          -9.24596534e-005, -1.68069673e-004, 1.41138471e-005,
          3.68976507e-005, -2.21755196e-004, -1.64933823e-004,
          -6.40203652e-005, -5.26560216e-005, -2.34812323e-004,
          -3.19121609e-004, -2.72933859e-004, -4.78916161e-004,
          -5.02243347e-004, -2.55700405e-004, -8.11322898e-005,
          -1.70072715e-004, -9.21693209e-005, -1.09775470e-018,
          -1.09775470e-018, -3.84038831e-005, -2.52368394e-004,
          -2.32989143e-004, -4.19613410e-004, -3.01501539e-004,
          -1.75497131e-004, 4.00469653e-005, 8.69186897e-006,
          -6.91269888e-005, -1.09775470e-018, -1.09775470e-018,
          -1.09775470e-018, -1.08628126e-004, -6.36407203e-005 ]
      - [ 4.69702412e-004, 2.17791967e-004, 5.70344964e-005,
          -7.97814355e-005, -1.64449404e-004, -1.93205589e-004,
          -3.56183155e-004, -3.59680475e-004, -2.29150814e-004,
          -2.11178194e-004, -1.97698741e-004, -1.53665838e-004,
          2.64814618e-004, 2.18904952e-005, -8.31518846e-005,
          -1.73239023e-004, -2.29150814e-004, -2.29150814e-004,
          -3.93350376e-004, -4.98523936e-004, -3.50422371e-004,
          -2.21412280e-004, -1.68043931e-004, -9.79507386e-005,
          1.99257265e-004, 8.74905309e-005, 4.17577758e-005,
          -5.10252576e-005, -1.06937048e-004, -9.97480020e-005,
          -2.41481786e-004, -2.53009261e-004, -1.99323506e-004,
          -3.43396037e-004, -6.26720794e-005, 2.71050543e-020,
          1.84639808e-004, 1.21638492e-004, 1.45998929e-004,
          3.25238507e-005, 2.71050543e-020, 2.71050543e-020,
          -1.64199548e-004, -2.78159074e-004, -2.25455224e-004,
          -2.48462486e-004, -2.72779143e-004, -8.69291762e-005,
          1.84639808e-004, 1.11067042e-004, 1.86107354e-004,
          1.12661954e-004, 9.56477234e-005, 8.34284801e-005,
          -4.98416375e-005, -8.96721176e-005, -9.81301491e-006,
          -2.34703417e-004, -1.60572250e-004, -1.17167176e-004,
          2.03036660e-004, 1.50457505e-004, 8.21606372e-005,
          1.82158365e-005, 1.01137673e-004, 1.53938978e-004,
          1.23529913e-004, 4.35485745e-005, 2.20186033e-004,
          1.91233412e-004, 2.39373534e-004, 4.56912894e-005,
          1.84639808e-004, 2.47597673e-005, -1.55812031e-005,
          -1.10916146e-004, -1.38814241e-004, -1.03477534e-004,
          -2.13363892e-004, 1.79481067e-004, 3.14128614e-004,
          1.03259241e-004, 2.37847547e-004, 2.71005614e-004,
          1.84639808e-004, 2.18904952e-005, -1.14558561e-005,
          -1.20408316e-004, 2.30126238e-006, 6.88400978e-005,
          -9.45583597e-005, 2.43849965e-004, 2.60599627e-004,
          3.90241476e-004, 2.94529222e-004, 5.68450705e-005,
          6.44414395e-005, -1.84191158e-004, -2.72400153e-004,
          -2.09818172e-004, -7.22844925e-005, 8.22544825e-005,
          -2.93287048e-005, 1.85579280e-004, 9.52836926e-005,
          2.33894680e-005, -3.53693686e-005, -2.46835931e-004,
          -2.42176084e-005, 2.24102369e-005, 8.03255607e-005,
          -3.62856481e-005, -1.01696343e-004, -1.07900240e-004,
          -5.65560913e-005, 2.71050543e-020, 2.71050543e-020,
          2.71050543e-020, -1.06246771e-004, -6.22455846e-005 ]
      - [ 3.35471123e-004, 2.44799972e-004, 6.86514250e-005,
          -3.96610449e-005, -1.34482863e-004, -1.57998991e-004,
          -2.56521540e-004, -2.63190508e-004, -1.87394151e-004,
          -1.72696571e-004, -1.61673393e-004, -1.25664315e-004,
          1.45395563e-004, 8.45963295e-005, -4.59897019e-005,
          -1.15693678e-004, -1.87394151e-004, -1.87394151e-004,
          -2.85249582e-004, -3.47928231e-004, -2.59666471e-004,
          -1.80589646e-004, -1.37422379e-004, -8.01018177e-005,
          1.25553837e-004, 1.38242496e-004, 5.61584857e-005,
          -1.11930203e-005, -5.59375258e-005, -3.23944769e-005,
          -9.41914404e-005, -6.05956229e-005, -2.91296146e-005,
          -1.64429133e-004, 4.09128188e-005, 7.24179772e-005,
          1.25553837e-004, 2.10874074e-004, 2.87023198e-004,
          2.53241597e-004, 2.19889029e-004, 2.29104568e-004,
          1.23321297e-004, 5.88215808e-005, 8.02413560e-005,
          -5.62319037e-005, -3.87387990e-005, 7.28604718e-005,
          1.25553837e-004, 1.95956614e-004, 2.00081282e-004,
          1.46905513e-004, 7.11000393e-005, 1.85394256e-005,
          -8.93696342e-005, -4.03476988e-005, 8.89215153e-005,
          -1.15646537e-004, 3.70921261e-005, 1.17248739e-004,
          1.25553837e-004, 8.45963295e-005, -9.98063024e-006,
          -5.72887329e-005, -4.96477114e-005, 5.63965659e-006,
          -9.24901105e-005, -1.48518069e-004, 3.99581586e-005,
          -2.54888946e-005, 1.42478515e-004, 1.08294647e-004,
          1.25553837e-004, 1.28006199e-004, 1.58880590e-004,
          1.05295083e-004, 7.16796640e-005, 1.11528148e-004,
          5.58850370e-005, 1.39793832e-004, 2.21799099e-004,
          -4.04776511e-005, 6.47487250e-005, 8.71885713e-005,
          6.93406328e-005, 6.54516407e-005, 1.08829947e-004,
          7.28162340e-005, 5.80754458e-005, 2.58806667e-005,
          1.34668460e-006, 2.52175432e-005, 1.09805696e-004,
          1.46490085e-004, 2.31919024e-004, 1.34849804e-004,
          -1.58355761e-004, -2.17836510e-004, -2.41731745e-004,
          -2.70315824e-004, -2.66710325e-004, -2.20412941e-004,
          -1.71271357e-004, 1.63639070e-005, 1.59311050e-004,
          1.41404453e-004, 1.88106074e-004, 1.58719398e-004,
          -3.05716094e-004, -2.83803151e-004, -1.77789960e-004,
          -1.63092380e-004, -1.38148840e-004, -9.91345878e-005,
          -4.02934129e-005, 7.00884557e-005, 1.58916257e-004,
          1.41404453e-004, 1.38583811e-004, 2.25780444e-004 ]
      - [ 5.42101086e-020, -1.91663930e-005, 2.94315578e-005,
          -6.85644918e-005, -1.50225358e-004, -1.76494272e-004,
          -3.11717595e-004, -1.77389506e-004, 1.40674936e-004,
          1.14935274e-005, -1.80598799e-004, -1.40374512e-004,
          -1.87166021e-004, -1.80752468e-004, 1.45611175e-005,
          -7.71523628e-005, -2.05465854e-004, -2.09330421e-004,
          -3.45015229e-004, -2.92904821e-004, 4.04632774e-005,
          7.09472943e-006, -1.41741592e-004, -7.77111054e-005,
          -1.69825609e-004, -9.72917187e-005, 1.79679017e-004,
          2.22291317e-004, 4.24535356e-005, -7.99193367e-006,
          -9.85203660e-005, -4.05756728e-005, 2.01560732e-004,
          5.37340884e-006, 1.10920468e-004, 1.69694482e-004,
          -1.56989208e-005, 8.45157410e-005, 2.91336299e-004,
          4.32032422e-004, 3.17921687e-004, 2.66513613e-004,
          1.27247215e-004, 9.22539912e-005, 2.10479018e-004,
          1.26451458e-004, 5.84021946e-005, 2.19418667e-004,
          -2.60270508e-006, 1.00364603e-004, 3.65750719e-004,
          2.52608152e-004, 1.07532040e-004, 5.17176704e-005,
          -1.09216111e-004, 3.82251847e-006, 2.11923063e-004,
          -1.02770988e-004, -1.55361136e-004, -1.04272163e-004,
          -1.48569859e-004, -1.22513491e-004, 1.30530927e-004,
          1.69045787e-004, 1.84524906e-005, -6.63697119e-006,
          -1.62249882e-004, -1.69204446e-004, 1.59966396e-004,
          1.23393374e-005, -2.16340704e-005, -5.05107564e-005,
          -5.19579007e-005, -4.26931474e-005, 1.34232236e-004,
          2.48551893e-004, 1.55700865e-004, 1.62055774e-004,
          1.03593324e-004, 2.09374761e-004, 3.50139220e-004,
          6.01646898e-005, 1.27842824e-004, 1.67161357e-004,
          8.14608866e-005, 1.04577957e-004, 2.72717705e-004,
          2.00232520e-004, 1.13268165e-004, 7.14587295e-005,
          -1.06265506e-005, 8.48401614e-005, 2.47642485e-004,
          1.68339189e-004, 2.62874564e-005, -1.45725280e-004,
          -1.88080725e-004, -2.41977847e-004, -6.41987426e-005,
          -7.59763425e-005, -2.64597387e-004, -2.90171825e-004,
          -2.35105355e-004, 5.16379041e-005, 3.34035314e-004,
          1.94879889e-004, -3.10390096e-005, -2.03970631e-004,
          -3.73393763e-004, -3.32059746e-004, 3.23444256e-005,
          9.23088955e-005, -1.19674056e-004, -1.37458468e-004,
          -5.58702159e-005, 4.61374584e-005, 1.36361632e-004,
          7.18809679e-005, -8.77960483e-005, -5.14360690e-005 ]
      - [ 8.13151629e-020, -3.68246656e-005, -9.85308652e-005,
          -1.36388844e-004, -4.92786421e-005, 1.49684303e-004,
          4.26004044e-006, -7.41956828e-005, -3.29058494e-005,
          -1.45050712e-004, -1.85961369e-004, -1.70189669e-004,
          -2.26919568e-004, -2.53791630e-004, -2.53791630e-004,
          -9.65976651e-005, 5.38390304e-005, 6.79361910e-005,
          -3.51639464e-004, -4.68108483e-004, -9.51680522e-006,
          -8.18783883e-005, -5.71752098e-005, -9.32545008e-005,
          -2.53791630e-004, -1.81137540e-004, -1.15450304e-004,
          4.88734213e-006, 5.98016159e-005, 2.10457089e-004,
          -4.32783017e-005, 1.19034128e-004, 1.49890315e-004,
          -2.80674198e-004, -9.85837050e-006, 1.01526484e-006,
          -2.53791630e-004, -1.11742993e-004, 1.34446789e-004,
          2.67219584e-004, 4.71032719e-004, 4.76474350e-004,
          2.43553965e-004, -1.52468740e-004, -1.95190529e-004,
          -2.66256742e-004, -3.40684172e-004, -1.13349968e-004,
          -1.00519908e-004, 1.86899633e-004, 3.52930801e-004,
          3.66961322e-004, 2.93351070e-004, 2.22990406e-004,
          3.68146757e-005, -2.05298711e-004, -3.76779353e-005,
          -2.65345909e-004, -1.77175141e-004, -1.94735621e-004,
          1.84159100e-004, 2.67306983e-004, 2.35473763e-005,
          1.39469106e-004, 2.43114686e-004, 2.35387313e-004,
          3.04371297e-005, -6.25764951e-005, -4.45868282e-005,
          -1.64032845e-005, 1.41288445e-004, 4.44351899e-005,
          3.38139375e-006, 2.84931502e-005, 2.84065027e-005,
          1.08094835e-004, 1.37843381e-004, -2.41446342e-005,
          -1.83398632e-004, 1.41904136e-004, 1.15122275e-004,
          -3.68614303e-004, 4.79664504e-006, 5.50296390e-005,
          -2.44947820e-004, -1.42595978e-004, 1.63161403e-005,
          -2.56441945e-005, -6.15124445e-005, -4.33021232e-005,
          -2.27579512e-004, -2.54018320e-004, 2.03508607e-004,
          3.52850220e-005, 1.11950467e-004, -2.25145748e-004,
          -4.05311584e-004, -4.52080567e-004, -3.96383606e-004,
          -1.81799973e-004, -1.07535787e-004, -8.79507861e-005,
          -1.98443347e-004, -2.94813253e-005, 2.88140436e-004,
          7.36361471e-005, -4.79631162e-005, -3.21857922e-004,
          -5.06598037e-004, -4.01144498e-004, -1.49843123e-004,
          -9.37796722e-005, -4.64214281e-005, 1.52157067e-004,
          1.66933765e-004, 2.85617629e-004, 9.75386283e-005,
          1.37060761e-005, -1.38538846e-004, -8.11641730e-005 ]
      - [ 8.13151629e-020, 2.55361520e-005, 8.11470964e-005,
          9.49952519e-005, 4.52440372e-006, -8.62500965e-005,
          -2.18836271e-004, -2.56131694e-004, -1.30522036e-004,
          -2.87181665e-005, -1.50518304e-006, 8.13151629e-020,
          -1.50518304e-006, -5.79495463e-005, -1.50286360e-004,
          -3.05218215e-004, -1.58538533e-004, 1.08410481e-004,
          1.84665667e-004, 9.97875031e-005, -8.25758034e-005,
          -8.87998613e-005, 6.34585012e-006, 9.10762265e-006,
          -4.66606725e-005, -1.14453462e-004, -2.85336748e-004,
          -2.61760404e-004, -8.80990774e-005, 2.08117272e-004,
          1.76865375e-004, 1.59193543e-004, 1.25218547e-004,
          9.84272920e-005, 1.70917381e-004, 7.90922859e-005,
          -1.43380952e-004, -1.46223319e-004, -1.48953244e-004,
          4.07262881e-008, 1.29155771e-004, 3.11124313e-004,
          1.98399313e-004, 1.59193543e-004, 1.34425572e-004,
          2.48108099e-005, -8.19979759e-005, -6.70295049e-005,
          -1.71279054e-004, -4.51414526e-005, 1.13098849e-005,
          1.32162342e-004, 1.59193543e-004, 1.59193543e-004,
          1.04794140e-004, 3.29064424e-005, -9.50665199e-005,
          -2.72705918e-004, -3.46346293e-004, -3.24024208e-004,
          -2.13300475e-004, -2.41270609e-004, -1.29201930e-004,
          6.17259066e-005, 1.44633595e-004, 1.69934356e-004,
          3.76495409e-005, -1.06575288e-004, -1.58151452e-004,
          -2.37776170e-004, -3.46346293e-004, -2.91604403e-004,
          -6.75780466e-005, -1.11470596e-004, -9.02296379e-005,
          -2.96583094e-005, 2.91357755e-005, 2.22541756e-004,
          3.30909301e-004, 1.47061146e-004, 1.46592106e-006,
          -1.36826930e-004, -1.54984606e-004, -7.71047562e-005,
          3.44291795e-004, 2.84848822e-004, 1.06664040e-004,
          8.71464727e-005, 1.41192882e-004, 1.66125959e-004,
          2.05458593e-004, 2.92120603e-005, -7.85228549e-005,
          -6.35964316e-005, 7.13006084e-005, 1.01894562e-004,
          2.29691199e-004, 3.36599420e-004, 2.78838736e-004,
          2.84677790e-005, -7.96567110e-005, -1.44351186e-004,
          -1.60959520e-004, -2.41368791e-004, -2.93137797e-004,
          -1.22558151e-004, 4.93191801e-005, 5.34652600e-006,
          -3.82138278e-005, 9.01891908e-005, 9.97085954e-005,
          1.07641681e-004, -3.36199773e-005, -1.00221754e-004,
          -1.99247675e-004, -1.79338938e-004, -1.29768523e-004,
          -1.11173220e-004, -6.02622167e-005, -6.02622167e-005 ]
      - [ -9.48711240e-005, 3.06870606e-005, 6.65280459e-005,
          2.41527541e-005, -1.45468497e-004, -2.63215101e-004,
          -2.91271019e-004, -3.50903108e-004, -2.82750960e-004,
          -2.11711449e-004, -1.45821818e-004, -4.75857314e-006,
          2.50789250e-004, 1.75234469e-004, 5.62642272e-005,
          5.64027614e-005, 1.49307933e-004, 1.29845444e-004,
          -1.23832826e-004, -2.04778480e-004, -3.13664816e-004,
          -1.14267023e-004, 1.66598009e-004, 1.70709929e-004,
          2.32940991e-004, 2.18162138e-004, 8.90144220e-005,
          1.80124305e-004, 3.19060870e-004, 2.67582422e-004,
          1.85522265e-004, 4.37442541e-005, 1.19112876e-004,
          1.82654854e-004, 1.38854884e-004, 8.74709076e-006,
          -1.05635518e-004, -5.89857991e-005, -5.43750939e-005,
          5.83488509e-005, 2.36647436e-004, 2.37798828e-004,
          1.81153038e-004, 6.77257558e-005, 1.39171258e-004,
          6.99638349e-006, -6.74080875e-005, -1.65928344e-004,
          -2.18615110e-004, -2.72896257e-004, -2.43797156e-004,
          -9.53755807e-005, 8.24380768e-005, 8.24380768e-005,
          9.95097944e-005, 9.77902746e-005, 5.79244006e-005,
          -5.66224480e-005, -1.46213308e-004, -2.19773588e-004,
          -2.11101025e-004, -2.72896257e-004, -2.88552808e-004,
          -2.45003263e-004, -8.19103516e-005, -4.98104200e-005,
          1.54526599e-004, 1.16457697e-004, -5.18059323e-006,
          -1.75565059e-004, -2.45140429e-004, -2.12559840e-004,
          -1.45837432e-004, -1.93506959e-004, -3.16791702e-004,
          -2.52821599e-004, -9.96699673e-005, 1.28197367e-004,
          1.34509013e-004, 1.26279934e-004, -3.93435039e-005,
          -3.20920517e-004, -2.13881125e-004, -1.45837432e-004,
          -2.76614865e-005, -1.56272959e-004, -2.66922725e-004,
          -2.82642839e-004, -4.20209908e-005, 1.44663398e-004,
          1.70560132e-004, 9.26920329e-005, -2.52616010e-004,
          -3.57586570e-004, -1.56272959e-004, -2.76614865e-005,
          1.89735380e-019, -3.95164097e-005, -1.46202714e-004,
          -1.19556425e-004, -1.45876853e-004, -2.04971275e-005,
          1.37001029e-004, -2.00102113e-005, -3.26259789e-004,
