%YAML:1.0
my_svm: !!opencv-ml-svm
   svm_type: C_SVC
   kernel: { type:LINEAR }
   C: 1.
   term_criteria: { epsilon:2.2204460492503131e-016, iterations:300 }
   var_all: 120
   var_count: 120
   class_count: 12
   class_labels: !!opencv-matrix
      rows: 1
      cols: 12
      dt: i
      data: [ 0, 1, 2, 4, 5, 6, 7, 8, 10, 11, 12, 13 ]
   sv_total: 66
   support_vectors:
      - [ -1.09773995e-004, -2.87018804e-004, -8.97082733e-004,
          1.00062916e-003, -1.40704884e-004, -6.92860864e-004,
          -2.14799796e-003, -6.63563749e-003, -5.65537252e-003,
          -1.35059367e-004, -7.49025727e-004, -4.02040198e-004,
          1.27018825e-003, 2.51479523e-005, 5.68061485e-004,
          -2.44638883e-004, -1.36707583e-003, -1.63035264e-004,
          -1.38086907e-003, -3.42443539e-003, -6.35765900e-004,
          2.64765229e-003, 1.52504456e-003, 2.03428580e-003,
          -1.68021559e-003, -1.35212077e-003, -4.86191566e-004,
          -4.34973557e-003, -4.28009685e-003, 1.60467462e-003,
          2.97676306e-003, 3.11270985e-003, 1.78538647e-003,
          -4.89573677e-006, -9.03861481e-004, -6.65061001e-004,
          2.09480990e-004, 5.12280036e-004, -2.84238398e-004,
          -1.29471009e-004, -1.20532699e-003, -3.02922941e-004,
          2.82569119e-004, 3.85446998e-004, 1.17395876e-003,
          -9.14089396e-005, 4.22502984e-004, 5.32913837e-004,
          -2.57562322e-004, 9.66802763e-005, -1.36377974e-004,
          5.18121233e-004, 1.56884824e-004, 1.19107055e-004,
          8.79959553e-005, 3.94313101e-005, 3.97541065e-004,
          -5.13759442e-004, -4.45403093e-005, 6.58705248e-005,
          -3.45558277e-004, 1.17885764e-004, -2.84328620e-004,
          3.80125304e-004, 2.00577402e-018, 2.00577402e-018,
          2.00577402e-018, -1.34901793e-005, 2.74470658e-004,
          -7.93315936e-004, -1.32536268e-004, -2.21254304e-005,
          1.98995811e-004, 4.47141996e-004, -7.65920340e-005,
          7.10304652e-004, 3.89287830e-004, -1.13569375e-003,
          -5.09373669e-004, 9.47614491e-004, 2.37856084e-003,
          -1.41558889e-003, -7.92155406e-005, 4.30394255e-004,
          -1.24833698e-003, -8.75651778e-004, -7.04200007e-004,
          9.33902455e-004, 1.02989236e-003, 1.74541713e-003,
          1.03663548e-003, -1.00780604e-003, -1.53775909e-003,
          -6.21875690e-004, -1.68387440e-003, -8.51252233e-004,
          8.77835264e-004, -5.42208945e-005, 4.27285471e-004,
          7.65040226e-004, -2.03777011e-003, -2.45237886e-003,
          -1.98881375e-003, -5.78891195e-004, 2.16199341e-003,
          3.65991466e-004, -1.51799188e-003, 4.74384200e-004,
          1.19533727e-003, -5.13271429e-004, -2.47103861e-004,
          -5.69867482e-003, -7.36740371e-003, -3.71184666e-003,
          -3.70261114e-004, 1.07428036e-003, 1.49212859e-003,
          -1.70237676e-003, -7.12413050e-004, -1.00319646e-003 ]
      - [ 5.75551894e-005, -6.31533854e-004, -1.52993540e-003,
          3.15148936e-004, 9.09840572e-004, -5.72828855e-003,
          -6.58418809e-004, 1.10050640e-003, 1.07419142e-003,
          3.05596154e-006, -5.59600489e-003, 8.22811737e-004,
          -1.49190528e-004, 6.52825751e-004, 1.14124245e-003,
          8.35214043e-004, 8.35214043e-004, 8.35214043e-004,
          9.59007361e-004, 1.20774005e-003, 8.43817310e-004,
          6.20545645e-004, 3.08396830e-003, 2.22992757e-003,
          4.51061380e-004, 1.93018175e-003, -8.07996723e-004,
          3.66966613e-003, 2.63724662e-003, -8.68573028e-004,
          3.68741166e-004, 5.60231740e-003, 3.39847128e-003,
          9.51513473e-004, -7.71216757e-004, -1.28242769e-003,
          -1.22230573e-004, -8.70717748e-004, -6.10278803e-004,
          -5.16201020e-004, -8.17471417e-004, -7.99574540e-004,
          -5.43363509e-004, -2.95896316e-004, 4.20718966e-003,
          4.17471922e-004, 2.90263654e-003, -4.09454340e-004,
          4.23534329e-005, -6.99881522e-004, -4.63137869e-004,
          -1.80306757e-004, -3.25861329e-004, -3.25861329e-004,
          -2.02068011e-004, 9.27502697e-004, 6.56204880e-004,
          1.49190309e-004, 2.61969399e-003, 5.96828992e-004,
          -4.49562009e-004, -1.27501669e-003, -3.96294519e-004,
          -5.95073448e-004, -8.17776774e-004, -7.81103037e-004,
          3.09970084e-004, 2.06723670e-003, 1.65138650e-003,
          2.77783460e-004, 3.56988312e-004, -3.29894945e-004,
          3.68214765e-004, -4.56696638e-004, -2.13319261e-004,
          1.26738811e-003, 2.45293416e-003, 3.29857133e-003,
          6.74149953e-004, 2.87371082e-003, 4.13341587e-003,
          1.32482615e-003, 2.20174097e-005, -4.40036092e-004,
          6.72549126e-004, -4.03394550e-003, -1.31069928e-005,
          -6.05550781e-003, -1.52777939e-003, 3.10532370e-004,
          4.00296226e-003, 5.31048223e-004, -1.10271142e-003,
          -1.12330262e-003, -5.48502081e-004, -3.87758977e-004,
          1.12836680e-003, 1.34351850e-003, 4.83246101e-003,
          7.14556407e-003, 5.01091778e-003, 1.98421138e-003,
          -8.84731358e-004, -1.18184264e-003, -1.15301542e-003,
          -6.90781220e-004, -2.98618979e-004, -1.63714528e-017,
          3.01941735e-004, 5.09596337e-003, 1.96786271e-003,
          -7.84588861e-004, -9.71314905e-004, -1.08281546e-003,
          -1.22149661e-003, -1.24296464e-003, -8.77450453e-004,
          -5.21166308e-004, -5.12252329e-004, -3.95469397e-004 ]
      - [ -7.77100740e-006, 2.35018015e-005, 3.41853338e-005,
          -5.26189760e-005, -1.72097731e-004, -2.00696013e-004,
          1.28478670e-004, 1.74039393e-004, -9.69284229e-005,
          -3.32925061e-004, -2.83608351e-005, 3.83918232e-005,
          2.47208896e-004, 1.15787778e-004, -7.70381230e-005,
          -8.55259059e-005, -8.63340465e-005, -8.63340465e-005,
          2.81210989e-004, 5.21750713e-004, 1.79315539e-004,
          -2.56904052e-004, -1.17807976e-004, -1.16683674e-004,
          1.73833076e-004, -8.22551665e-005, -2.88385869e-004,
          -1.34246919e-004, -1.36625807e-004, -1.65815596e-004,
          1.40015662e-004, 2.38376015e-004, 1.50513282e-004,
          5.14796935e-004, -2.03743970e-004, -3.30373936e-004,
          1.58389346e-004, -9.75081202e-005, -3.90421133e-004,
          -1.53018162e-004, -1.53018162e-004, -1.53018162e-004,
          2.13798325e-004, 4.04354971e-004, 4.08157153e-004,
          4.72364220e-004, 4.13330592e-004, -1.20507502e-004,
          1.81408017e-004, 9.23405332e-006, -1.15248600e-004,
          2.11230916e-004, 3.09746421e-004, 4.41100419e-004,
          7.89673300e-004, 7.94546271e-004, 2.59630266e-004,
          7.09922228e-004, 3.67011438e-004, 1.13490583e-004,
          1.47177794e-004, 3.20060586e-004, 4.09619999e-004,
          5.51356410e-004, 2.15673950e-004, 7.69676444e-006,
          4.76677495e-004, 8.96813755e-004, 2.48850178e-004,
          4.50473191e-004, 1.35913397e-005, 1.12825270e-004,
          2.59888882e-004, 3.81796766e-004, 3.26902431e-004,
          5.98490355e-004, 4.83512675e-004, 2.60573463e-004,
          3.04830406e-004, -1.09716777e-004, -2.54650571e-004,
          7.99207133e-004, 5.23996481e-004, 3.04653629e-004,
          1.92938925e-004, 1.54103953e-004, -1.59711693e-004,
          -7.12347755e-005, -1.90402381e-004, -1.91730214e-004,
          -1.19667333e-004, 1.65357880e-004, 4.43925346e-005,
          -2.66286428e-004, -1.35755763e-004, 3.29339236e-004,
          2.58344488e-004, 2.89357384e-004, 4.43181751e-004,
          7.10716529e-004, 5.55672101e-004, 3.80298297e-004,
          1.42534700e-004, -3.08823830e-004, -4.88488411e-004,
          -3.25537578e-004, -1.10450885e-004, 4.64816665e-004,
          4.44161182e-004, 2.45801144e-004, -7.60304683e-005,
          1.22121623e-004, 7.64528431e-006, -1.25764898e-004,
          -3.09672352e-004, -4.13189497e-004, -2.68010888e-004,
          -1.40887030e-004, 1.05688021e-004, 3.74074189e-005 ]
      - [ 3.80231941e-004, 3.62797902e-004, 4.26138402e-004,
          3.22755834e-004, 3.69259011e-004, 1.09393637e-004,
          4.10996363e-005, 2.28326273e-004, 9.52332084e-006,
          -2.63321097e-004, 1.43014004e-005, 1.42067845e-004,
          -1.23587684e-004, 1.81416719e-004, 3.80241341e-004,
          2.28360004e-004, -3.24316847e-004, -6.16345729e-004,
          -4.21940960e-004, -3.49130918e-004, 2.27651864e-004,
          2.20090325e-004, 1.36220318e-004, -2.37257598e-004,
          -2.06576024e-005, 1.92959924e-004, 4.42759716e-004,
          2.85934017e-004, -2.72046746e-004, -4.18733980e-004,
          -3.22712091e-004, 1.14439797e-004, 2.70673190e-004,
          2.45580741e-004, 2.38851557e-004, -9.58978053e-005,
          3.71206552e-004, 3.24932771e-004, 2.96193408e-004,
          4.17789706e-004, -1.74661225e-004, -2.17076813e-004,
          -2.17076813e-004, 1.20270015e-004, 2.86971510e-004,
          1.84505800e-004, 3.39440187e-004, 3.02798289e-004,
          5.48130251e-004, 4.89997037e-004, 2.14812695e-004,
          4.89417114e-004, -2.23412335e-005, -2.23412335e-005,
          -2.23412335e-005, 1.87969403e-004, 4.20209573e-004,
          2.85142160e-004, 4.96573339e-004, 4.79722017e-004,
          4.87201556e-004, 4.56596608e-004, 1.96920300e-004,
          4.70903993e-004, -2.06061571e-007, -8.32699225e-005,
          -8.32699225e-005, 1.35069581e-006, 3.59280908e-004,
          2.25770229e-004, 4.35644673e-004, 4.18793323e-004,
          4.65453631e-004, 2.75934290e-004, 3.58768128e-004,
          4.88164660e-004, 4.05619612e-005, -1.69748673e-004,
          -1.69748673e-004, -2.30614241e-005, 3.34299664e-004,
          5.49735967e-004, 5.32900798e-004, 3.90981440e-004,
          -2.14654734e-004, -9.31446484e-005, 2.56188050e-005,
          3.41672217e-004, -3.88841472e-005, -4.27057297e-004,
          -4.33301640e-004, -1.61134943e-004, 2.41544505e-004,
          6.75868592e-004, 2.45485222e-004, -1.86205900e-004,
          -4.10576322e-004, -4.94227046e-004, -2.72020465e-004,
          2.74435704e-004, 2.20988932e-005, -1.95702698e-004,
          -3.22949461e-004, -6.10366114e-005, 4.45677812e-004,
          3.37424630e-004, 1.65661786e-005, -4.75464658e-005,
          -2.82294815e-004, -6.65010419e-004, -5.78712614e-004,
          -2.47786607e-004, -1.26776606e-004, 4.40402182e-005,
          1.13311246e-004, 1.36354167e-004, 2.03848598e-004,
          2.90173601e-004, -5.01617069e-006, -9.42405222e-007 ]
      - [ -2.61310324e-005, -1.73291282e-005, 1.00681114e-004,
          1.99167131e-004, 1.47338927e-004, -1.68139104e-005,
          -1.75274763e-004, -2.38077395e-004, -2.36510023e-004,
          -2.76593812e-004, -1.18442753e-004, -1.29125430e-004,
          -1.00983825e-005, -7.47851809e-005, -1.49561281e-004,
          -2.32929291e-004, -1.66439539e-004, 6.23843152e-005,
          1.81904863e-004, 8.89637886e-005, -4.66594211e-005,
          -2.63087248e-004, -1.31705179e-004, -1.80226125e-004,
          -1.40356569e-004, -1.53644258e-004, -2.33675193e-004,
          -2.23738156e-004, -5.88431212e-005, 6.76725394e-005,
          2.02489930e-004, 2.02489930e-004, 2.11850231e-004,
          1.76658345e-004, 1.23890248e-004, -2.92468267e-005,
          -9.76173324e-005, -3.98972516e-005, -2.87037656e-005,
          1.47634200e-004, 2.24434669e-004, 2.56158091e-004,
          2.65888637e-004, 2.91991048e-004, 2.84103153e-004,
          1.59479634e-004, 1.43749625e-004, 5.86366286e-006,
          -7.39454549e-007, 2.83441565e-004, 3.02882574e-004,
          3.79437901e-004, 4.18805692e-004, 4.13620437e-004,
          3.20758059e-004, 1.42561665e-004, 3.63768086e-005,
          -6.19033599e-005, -2.83738354e-005, -9.19832455e-005,
          -7.55653964e-005, 1.31593088e-005, 7.77219248e-005,
          3.41720792e-004, 4.26724640e-004, 4.08285588e-004,
          1.75642752e-004, 1.92083135e-005, -8.34509228e-006,
          -9.36270517e-005, -3.67724133e-005, -9.62689955e-005,
          -2.47996577e-005, 7.58573660e-005, 2.80959957e-005,
          1.55756818e-004, 1.87043712e-004, 2.76635052e-004,
          2.97043065e-004, 1.32826593e-004, 8.74874240e-006,
          -8.60453438e-005, -4.95784734e-005, -9.04877597e-005,
          2.50721409e-004, 2.91391567e-004, 1.91348940e-004,
          2.18051573e-004, 1.95052271e-004, 1.42036588e-004,
          1.13101487e-004, 8.56277184e-005, 1.01693120e-004,
          8.36564286e-005, 5.37321939e-005, -3.58144316e-005,
          -5.14602943e-005, 1.48900974e-004, 1.31378983e-004,
          1.70541782e-004, -1.61748012e-005, -1.36855670e-004,
          -1.97976522e-004, -1.90984705e-004, -1.72953864e-004,
          -1.06192398e-004, -1.06895877e-005, 1.75951809e-005,
          -1.26504339e-004, -6.55667100e-005, -7.12657202e-005,
          -1.72015934e-005, 1.95997454e-005, 3.76298194e-005,
          -6.93268594e-005, -7.51525076e-005, -4.87787365e-005,
          -5.21922721e-006, -6.77626358e-021, -6.77626358e-021 ]
      - [ 5.40924630e-005, 3.40651226e-004, 3.60972102e-004,
          2.96313141e-004, 2.56104577e-005, -1.97595786e-004,
          -3.08125542e-004, -4.67597099e-004, -4.00985940e-004,
          -4.24349768e-004, -2.71112367e-004, 6.12010554e-005,
          3.86798172e-004, 2.97053542e-004, 3.19046492e-004,
          2.35609928e-004, 1.58666444e-004, -5.21837756e-005,
          -3.37864069e-004, -4.69582767e-004, -4.31678112e-004,
          -3.84766026e-004, 9.85726365e-005, 2.23870957e-004,
          2.07503457e-004, 2.62507325e-004, 2.89296964e-004,
          2.84046400e-004, 2.81688408e-004, 7.08381922e-005,
          -4.02021615e-005, -1.05792940e-004, 1.20077137e-004,
          2.67762924e-004, 3.46878165e-004, 2.63551265e-005,
          -1.23610589e-004, 8.05621166e-005, 1.42011326e-004,
          2.28757344e-004, 2.00087830e-004, 1.52618944e-004,
          8.62985107e-005, 1.44055244e-004, 4.51792061e-004,
          3.50173592e-004, 1.85449142e-004, 1.52600278e-005,
          -2.34183943e-004, -1.64052806e-004, -8.33098093e-005,
          1.86392208e-004, 1.86392208e-004, 1.86392208e-004,
          1.31517940e-004, 2.12563056e-004, 5.32483449e-004,
          2.60995672e-004, 3.54469230e-005, -9.68023141e-006,
          -2.24503703e-004, -1.57603907e-004, -1.45569473e-004,
          -2.16840434e-019, -2.16840434e-019, -2.16840434e-019,
          1.94886976e-004, 4.28469852e-004, 4.33178910e-004,
          3.44953987e-005, -8.66999253e-005, -2.16840434e-019,
          -2.38037450e-004, -1.71137654e-004, -1.59103220e-004,
          -1.56877395e-005, -5.38900422e-005, 1.56507613e-005,
          2.13488616e-004, 2.80901499e-004, 2.36434425e-004,
          -1.45986851e-004, -9.55814467e-005, -1.35337459e-005,
          -2.48556637e-004, -1.85605822e-004, -1.93625398e-004,
          -1.34736329e-004, -4.52591485e-005, 1.73053748e-004,
          1.95303219e-004, 1.91305619e-004, -1.61730350e-004,
          -1.84267628e-004, -1.06803869e-004, -2.80019231e-005,
          -2.76091363e-004, -2.13499530e-004, -3.24676599e-004,
          -1.10605048e-004, -3.06847469e-005, 2.09475802e-005,
          1.88081176e-004, 9.63899438e-005, -2.78343214e-004,
          -2.01195129e-004, -1.10798639e-004, -5.58956272e-005,
          -2.56387546e-004, -1.89487735e-004, -2.89636548e-004,
          -4.61599711e-006, -1.90135252e-004, 4.95359636e-005,
          4.54397195e-005, -2.03075819e-004, -1.49158470e-004,
          -7.79831535e-005, -3.61131315e-005, -3.18838356e-005 ]
      - [ -3.31691699e-005, -5.22057999e-005, -6.02583495e-005,
          4.41339980e-005, 6.90244124e-005, 3.17348342e-004,
          7.11553221e-005, -3.42944841e-004, -7.58335344e-004,
          -5.82017004e-004, 2.35625921e-004, 4.57526708e-004,
          -1.09481269e-004, -2.98417843e-004, -6.73947798e-004,
          -4.03033744e-004, -1.61659016e-004, 2.34826832e-004,
          2.38909299e-004, 1.21492172e-004, -2.33381252e-005,
          2.62571266e-004, 5.49502030e-004, -1.12260779e-004,
          -2.83932692e-004, -2.73032230e-004, -3.69703979e-004,
          -1.11388312e-004, -3.21681757e-004, -4.18115174e-004,
          -4.02378326e-004, -3.22272594e-004, 1.22258862e-004,
          3.31514369e-004, -4.22316552e-005, -1.98411974e-004,
          -2.38950714e-004, 2.32680613e-004, 1.62159879e-004,
          3.78790690e-004, 1.82326345e-004, -1.27457635e-004,
          8.39318018e-005, 2.62404646e-004, 1.77636131e-004,
          1.80625779e-004, -1.60902229e-004, -8.45874456e-005,
          1.49030660e-004, 2.14186919e-004, 1.98322916e-004,
          5.65872528e-004, 2.80455803e-004, 4.70446073e-004,
          5.77607600e-004, 4.03966231e-004, 3.84214160e-004,
          -7.50100371e-005, -1.74410830e-004, -8.39657005e-005,
          -2.87161092e-004, -2.04262091e-004, -2.23495110e-004,
          1.88384001e-004, 5.34090796e-004, 5.49472577e-004,
          8.36960971e-005, 3.42018408e-004, 1.55337853e-004,
          -1.96046240e-004, -1.74863671e-004, -8.44185488e-005,
          -2.38101609e-004, -3.10331467e-004, -8.95025805e-005,
          5.32795617e-004, 2.82652763e-004, -4.39789583e-005,
          1.66111975e-004, 3.66784894e-004, -1.45396134e-005,
          -1.40348813e-004, -1.05504259e-004, -2.29472444e-005,
          -2.38246619e-004, -2.06241646e-004, 6.02049877e-005,
          1.72728382e-004, -8.36503023e-005, 2.02450519e-005,
          3.12114222e-004, -3.34062061e-005, -1.23731166e-004,
          -1.31148918e-004, -1.09746128e-004, -2.68835356e-005,
          -1.06383632e-004, 1.42770907e-004, -4.00271092e-004,
          -2.20105925e-004, -1.95745801e-004, 1.35151975e-004,
          -4.14968490e-005, -2.78139400e-004, -2.82751600e-004,
          -2.61169916e-004, -1.51041866e-004, -6.54985561e-005,
          3.19253566e-004, -2.11063467e-004, -5.37676446e-004,
          -2.31470302e-004, -2.18405345e-004, 2.15107830e-005,
          -2.48852681e-004, -2.25026408e-004, -1.56292823e-004,
          -9.32103139e-005, -1.54955997e-005, -6.22104290e-006 ]
      - [ 4.59801056e-004, 1.42496719e-004, -1.65856298e-004,
          -2.81226850e-004, -3.16288235e-004, -3.43967055e-004,
          -3.50870774e-004, -3.51608673e-004, -3.49690992e-004,
          -4.14393668e-004, -3.29612871e-004, -3.41608655e-004,
          2.13949053e-004, 1.00603007e-004, -6.88619693e-005,
          -1.79142793e-004, -1.79201670e-004, -1.79201670e-004,
          -1.79201670e-004, -1.79201670e-004, -1.34562972e-004,
          -1.45435653e-004, -6.27339105e-005, -1.61481919e-004,
          2.02142575e-004, 1.33735986e-004, 8.16536631e-005,
          -2.34618310e-005, -2.35207062e-005, -2.35207062e-005,
          -2.35207062e-005, -2.35207062e-005, -2.52003083e-005,
          -1.12600937e-004, -6.68159482e-005, -1.73288397e-004,
          2.10997430e-004, 1.42037403e-004, 8.16536631e-005,
          -4.82974201e-006, -2.95161817e-006, -2.95161817e-006,
          -2.95161817e-006, -2.95161817e-006, -4.63122069e-006,
          -1.00056561e-004, -5.79610969e-005, -1.64433543e-004,
          2.13949053e-004, 1.52050139e-004, 1.31911976e-004,
          8.02618451e-005, 8.25089228e-005, 8.25089228e-005,
          8.25089228e-005, 6.83139078e-005, 2.74342674e-005,
          -8.33733502e-005, -5.45234216e-005, -1.61481919e-004,
          2.13774372e-004, 2.38286651e-004, 2.42649709e-004,
          2.08589816e-004, 2.76005536e-004, 2.68214324e-004,
          4.05764236e-004, 5.47077332e-004, 5.43773698e-004,
          3.50886228e-004, 2.53333623e-004, -8.14913074e-005,
          2.09135716e-004, 1.29912776e-004, 4.85697528e-005,
          -8.66010596e-005, -1.07284366e-004, -1.30207161e-004,
          -1.51076558e-004, 1.05910389e-004, 4.59491246e-004,
          4.53492656e-004, 5.33142535e-004, 4.16127383e-004,
          1.88500111e-004, 2.53256421e-005, -1.35818977e-004,
          -2.85070273e-004, -1.94681488e-004, -1.22185011e-004,
          -1.61054471e-004, 2.33900078e-004, 3.69969930e-004,
          3.02703527e-004, 2.18452085e-004, 7.98495694e-006,
          3.63358376e-005, -6.67406857e-005, -1.55006914e-004,
          -8.74128600e-005, 8.09782141e-005, 1.76964415e-004,
          3.60700433e-005, 3.31008123e-005, -1.61108896e-004,
          -2.49543344e-004, -1.50423497e-004, -4.47693565e-005,
          1.19773344e-004, 1.41296841e-004, 9.37607911e-005,
          -1.01232436e-004, -2.49928387e-004, -3.23334651e-004,
          -3.13479977e-004, -2.01270828e-004, -1.55367874e-004,
          -8.07406832e-005, -5.92431534e-005, -5.90709096e-005 ]
      - [ 3.77369521e-004, 2.71300349e-004, 6.40425642e-005,
          -3.51784183e-005, -2.02927986e-004, -2.44324387e-004,
          -2.51935853e-004, -2.51935853e-004, -2.44238297e-004,
          -2.49851146e-004, -1.69195933e-004, -1.96583162e-004,
          2.65862007e-004, 1.59167976e-004, -4.20299184e-005,
          -9.87544554e-005, -2.00326176e-004, -2.00326176e-004,
          -2.00326176e-004, -2.00326176e-004, -1.81743031e-004,
          -1.68757382e-004, -1.68303959e-004, -2.45351781e-004,
          1.97979083e-004, 1.49258951e-004, 9.26038501e-006,
          -3.32562704e-005, -6.09626077e-005, -3.75688651e-005,
          -8.36299591e-007, 6.64066465e-005, 6.51760201e-005,
          -2.78687639e-005, -1.77378879e-005, -6.58393474e-005,
          1.59814066e-004, 1.91119936e-004, 2.10830563e-004,
          2.18298301e-004, 1.99269562e-004, 2.12080005e-004,
          1.96767432e-004, 2.01757546e-004, 2.10584956e-004,
          8.18256158e-005, 1.04531195e-004, 2.97563238e-005,
          1.91597574e-004, 2.31997721e-004, 2.27827593e-004,
          1.84208271e-004, 1.23414968e-004, 8.70305885e-005,
          6.83341059e-005, 1.74207773e-004, 2.20579095e-004,
          8.39162894e-005, 1.75002366e-004, 1.39668424e-004,
          1.59814066e-004, 1.64848490e-004, 9.49472524e-005,
          3.18290913e-005, -3.75443915e-006, 1.90191749e-005,
          5.14648564e-005, 1.21021149e-004, 1.95506858e-004,
          9.82035272e-005, 1.74687288e-004, 1.07884916e-004,
          1.86692865e-004, 2.18716115e-004, 2.62167741e-004,
          2.49664037e-004, 2.10899947e-004, 2.14962245e-004,
          1.96297799e-004, 1.97623391e-004, 2.18158340e-004,
          1.20029887e-004, 1.56275215e-004, 1.26160958e-004,
          9.29569942e-005, 6.50886504e-005, 7.54807188e-005,
          6.82399332e-005, 2.78678635e-005, -9.13231997e-006,
          -2.54672468e-005, 7.34332498e-005, 1.12365000e-004,
          5.15769862e-005, 1.66384285e-004, 2.05908116e-004,
          -2.46987271e-004, -2.35829008e-004, -1.39358919e-004,
          -1.44179008e-004, -1.80054543e-004, -1.80255855e-004,
          -1.80438859e-004, -6.13153315e-005, 2.40070076e-005,
          -1.59220308e-005, 1.15870229e-004, 3.16218211e-004,
          -2.25023905e-004, -2.43950126e-004, -2.10456492e-004,
          -1.83868731e-004, -1.86826830e-004, -1.82449323e-004,
          -1.66132551e-004, 1.59396277e-005, 1.29444510e-004,
          1.16731353e-004, 2.10117869e-004, 2.83193745e-004 ]
      - [ -1.38136475e-005, -1.58063158e-005, 1.36654548e-004,
          -2.55460582e-005, -2.12108847e-004, -2.91648932e-004,
          -3.09055758e-004, -1.68099636e-004, 1.58449053e-004,
          -1.39889875e-004, -1.13953603e-004, -1.40963835e-004,
          -5.81353561e-005, -1.33860478e-004, 4.61655472e-005,
          -1.59885196e-004, -2.80524604e-004, -3.15256737e-004,
          -3.15819518e-004, -1.61012504e-004, 1.81071926e-004,
          -1.55518501e-004, -2.21988768e-004, -2.64532748e-004,
          -1.15416784e-004, -1.37419265e-004, 7.26603539e-005,
          1.33191075e-004, -5.82500215e-005, -1.43260258e-004,
          -7.41893891e-005, 4.73409418e-005, 3.28623864e-004,
          7.13611444e-005, 3.48719841e-005, 3.44129221e-005,
          1.26876999e-004, 1.26525643e-004, 1.35895301e-004,
          3.70783644e-004, 2.93014862e-004, 2.19662907e-004,
          2.22166171e-004, 2.65406386e-004, 3.71442904e-004,
          2.33751489e-004, 2.64828792e-004, 2.14827436e-004,
          1.70926985e-004, 1.60231459e-004, 3.21942818e-004,
          3.01057909e-004, 2.25087861e-004, 1.62191020e-004,
          1.25881139e-004, 2.62648682e-004, 4.59849893e-004,
          8.71506782e-005, 2.31590620e-005, -7.31730688e-005,
          -7.61207411e-005, -5.16426444e-005, 2.14033440e-004,
          3.01871332e-004, 9.04989865e-005, -1.19337792e-005,
          -1.66134566e-006, 1.38700387e-004, 4.54831956e-004,
          1.19421384e-004, 4.19764729e-005, -1.61320968e-005,
          1.18852600e-004, 1.21164550e-004, 1.61689895e-004,
          4.27071733e-004, 3.25227971e-004, 2.52364407e-004,
          2.87203788e-004, 2.87916890e-004, 3.66597233e-004,
          3.24029941e-004, 3.56476055e-004, 3.37644102e-004,
          2.48023920e-004, 2.04560056e-004, 1.65581223e-004,
          1.12435802e-004, 4.97003966e-005, -1.79140716e-005,
          -7.29354651e-005, 4.21455989e-005, 2.07699661e-004,
          -5.47319323e-005, -9.02458705e-005, -9.71472182e-005,
          -1.23987033e-004, -1.25932391e-004, -1.57409431e-006,
          3.32875097e-005, -1.74102752e-004, -2.88910291e-004,
          -2.89480464e-004, -1.44124569e-004, 1.80357471e-004,
          1.39522790e-005, -1.02595455e-004, -3.64041916e-005,
          -2.02332725e-004, -2.46757700e-004, -6.07202128e-005,
          4.38048592e-005, -1.80525632e-004, -2.84060545e-004,
          -2.67143478e-004, -1.30906395e-004, 6.92032118e-005,
          1.11194922e-005, -6.14975506e-005, -5.47681411e-005 ]
      - [ -2.74438675e-019, -2.74438675e-019, -2.53812323e-005,
          -1.36604911e-004, -1.49629908e-004, 1.53609857e-004,
          2.35033483e-004, 5.48154130e-005, -1.36123796e-004,
          -3.08004499e-004, -1.25928156e-004, -1.15321076e-004,
          -7.73285792e-005, -1.82413380e-004, -4.24789352e-004,
          -2.81244225e-004, 5.88316288e-006, -8.62601428e-006,
          -3.94097879e-004, -3.41519888e-004, 1.59135670e-004,
          -3.03478795e-004, -1.81629643e-004, -2.71243858e-004,
          -2.39859393e-004, -3.20063264e-004, -4.84688062e-004,
          -2.52633239e-004, -9.44206622e-005, 3.42386957e-005,
          -1.79441886e-005, 3.51722090e-004, 2.61967274e-004,
          -2.04373733e-004, -2.61087000e-004, -3.01117223e-004,
          -2.18691654e-004, -2.11685285e-004, -2.70952180e-004,
          1.69857754e-004, 5.25711395e-004, 5.52273588e-004,
          4.97992034e-004, 6.71588859e-005, -9.63498533e-005,
          -1.95773595e-004, -1.98333117e-004, -2.01327814e-004,
          1.12428810e-004, 3.94609902e-004, 3.14451201e-004,
          6.74525916e-004, 5.94884739e-004, 5.72305988e-004,
          5.74262987e-004, 2.41187692e-004, 2.54493236e-004,
          1.77131471e-004, 1.21962497e-004, -4.24932477e-005,
          3.92831251e-004, 5.55135543e-004, 2.87254875e-006,
          2.50587327e-004, 2.87804316e-004, 2.76184699e-004,
          3.24343186e-004, 4.54953028e-004, 2.38752604e-004,
          1.82989999e-004, 2.02326541e-004, 1.59670191e-004,
          3.06619477e-004, 2.19185720e-004, -1.90063758e-004,
          3.43879597e-004, 3.82001483e-004, 9.78817770e-005,
          9.27155343e-005, 3.38404090e-004, 1.49300482e-004,
          -5.22260234e-006, 3.22499283e-004, 4.27804305e-004,
          -1.00287987e-004, -2.00413433e-005, -1.94380002e-004,
          7.15187343e-005, 6.58812714e-005, 9.60237667e-005,
          -9.50010144e-005, -1.18273922e-004, 3.43119405e-004,
          -7.87030804e-005, 8.83192261e-005, 2.53509570e-005,
          -2.69885350e-004, -2.04379205e-004, -2.72336387e-004,
          1.66207581e-004, 1.33563924e-004, 2.24538890e-005,
          -2.43869232e-004, -2.82146590e-004, -4.60286865e-005,
          -3.11128621e-004, -2.66502524e-004, -6.83733524e-005,
          -1.54157911e-004, -6.76128984e-005, -2.47938267e-004,
          -6.61541344e-005, -8.76753329e-005, 7.05021957e-005,
          -7.85644079e-005, 8.69753057e-005, -1.25710038e-004,
          -1.26340412e-004, -2.96565649e-005, -1.45703034e-005 ]
      - [ 4.87890978e-019, -6.55625554e-005, -2.09960112e-004,
          -2.18762216e-004, -3.07654882e-005, -8.82187669e-005,
          1.78689967e-004, 7.44045479e-004, 5.82267880e-004,
          -1.17922711e-004, 2.85723709e-005, -8.88592840e-005,
          -1.53781220e-004, 1.05829076e-005, 1.05658575e-004,
          2.60251487e-004, 2.97871040e-004, 3.16484773e-004,
          5.35081723e-004, 1.15499354e-003, 7.15923728e-004,
          -6.54749048e-004, -3.35600780e-004, -3.23723129e-004,
          1.95697663e-004, -1.25552760e-004, 1.92338448e-005,
          4.26595914e-004, 3.60548554e-004, -4.52323438e-005,
          -6.95633280e-005, 1.24277911e-004, 3.58171557e-004,
          9.81108824e-005, 3.63487525e-005, -3.39433900e-004,
          9.87904132e-005, -2.81708024e-004, -2.29381796e-004,
          -1.15135939e-004, -2.45475967e-004, -3.03138484e-004,
          3.16856567e-005, 1.97295827e-004, 5.72889810e-004,
          -1.89140686e-004, 5.94465178e-004, -3.49421352e-005,
          9.87904132e-005, -3.01328982e-004, -3.12770950e-004,
          -1.82901960e-004, -2.01499075e-004, -1.77354246e-004,
          -1.90544938e-006, 4.12732508e-004, 7.96682725e-004,
          -2.82187597e-004, 7.50270483e-005, 4.18528565e-004,
          2.56260682e-004, -2.12940897e-004, -2.69098120e-004,
          6.52469680e-006, 4.87890978e-019, 1.18685766e-005,
          4.36875183e-004, 1.28044642e-003, 8.79916654e-004,
          1.06375182e-005, -9.61776313e-005, 4.14682960e-004,
          2.56260682e-004, -2.06400582e-004, -2.49226374e-004,
          2.19645910e-004, 4.22942569e-004, 6.26776542e-004,
          6.85830077e-004, 5.70615346e-004, -1.41771625e-005,
          -5.32621110e-004, 1.25433668e-004, -9.15634155e-005,
          1.61357864e-004, -3.18984356e-004, -3.99307319e-005,
          9.51322494e-004, 9.84673505e-004, 6.92109403e-004,
          5.94219076e-004, 3.65487096e-004, -7.31396649e-005,
          -4.69787308e-004, -2.93080288e-004, -2.53291946e-004,
          2.16782078e-004, 2.49459204e-004, 4.98359266e-004,
          1.22785743e-003, 8.11671489e-004, 5.28292672e-004,
          2.43291099e-004, -2.54640181e-004, -5.40932291e-004,
          -5.15718246e-004, -4.47588711e-004, -2.87866045e-004,
          4.37848532e-004, 1.50754364e-004, 7.80369101e-006,
          3.49508104e-004, 1.60225143e-004, -1.62051656e-004,
          -3.82326718e-004, -4.28466359e-004, -2.47106451e-004,
          -6.43981111e-005, -1.29459261e-006, 4.87890978e-019 ]
      - [ 2.16840434e-019, 3.49123184e-005, 1.31738316e-005,
          -1.99813603e-005, -6.16957768e-005, -7.33338820e-005,
          2.37011569e-004, 3.83807608e-004, 2.15793101e-004,
          -5.81480163e-005, 1.48101069e-004, 5.51023659e-005,
          1.40124728e-004, 4.82929572e-005, 7.05645434e-005,
          9.84698781e-005, 2.08286176e-004, 2.61639070e-004,
          5.30708989e-004, 6.54554518e-004, 2.78803782e-004,
          -3.29540257e-004, -2.06133511e-004, -2.51554680e-004,
          2.53010949e-004, -3.54450312e-005, -1.60547759e-004,
          -4.15139548e-005, -8.90199735e-005, -2.48520257e-004,
          -3.19792271e-005, 3.56429700e-005, 2.98858777e-005,
          2.01023344e-004, -2.02145184e-005, -1.00188066e-004,
          1.58375478e-004, -1.76958609e-004, -2.66920571e-004,
          -9.46354703e-005, -1.09194778e-004, -1.18900978e-004,
          1.84064542e-004, 3.97475844e-004, 3.44579166e-004,
          1.75040201e-004, 3.31769319e-004, -3.21495099e-005,
          1.58375478e-004, -1.26647719e-004, -1.22848476e-004,
          9.51737893e-005, 1.56918963e-004, 2.39245885e-004,
          5.16217784e-004, 5.43038885e-004, 2.92544399e-004,
          3.69502755e-004, 2.86032126e-004, 1.33731184e-004,
          2.53010949e-004, 1.33906637e-004, 2.23584706e-004,
          4.16208262e-004, 2.05817269e-004, 7.54663342e-005,
          4.27904597e-004, 7.30470696e-004, 4.43042867e-004,
          3.20512656e-004, 1.46582999e-004, 2.46377545e-004,
          1.92455263e-004, 7.33509441e-005, 1.06693995e-004,
          3.65282031e-004, 3.02872446e-004, 1.84694771e-004,
          3.22079606e-004, 9.38281519e-005, -2.50840330e-005,
          4.99613874e-004, 3.58229910e-004, 2.44710332e-004,
          2.20858652e-004, 5.33858329e-005, -1.35029686e-005,
          1.49199230e-004, 6.13065786e-005, 6.53055613e-005,
          1.56746115e-004, 3.26428475e-004, 1.90721679e-004,
          -2.36787702e-004, -5.65052396e-005, 3.02644301e-004,
          2.25126132e-004, 2.59935332e-004, 4.78496571e-004,
          6.39205042e-004, 5.49967110e-004, 3.86848435e-004,
          2.06444922e-004, -1.65902849e-004, -3.28837486e-004,
          -3.61173006e-004, -1.76069952e-004, 2.36376902e-004,
          5.62464877e-004, 3.18798760e-004, 2.51948150e-005,
          2.20410569e-004, 1.27906183e-004, -4.74978224e-005,
          -2.34810432e-004, -3.09599505e-004, -1.97705958e-004,
          -7.41436525e-005, 1.71353036e-004, 1.09330460e-004 ]
      - [ 3.04026820e-004, 2.79433501e-004, 3.33069125e-004,
          3.06918373e-004, 3.94689327e-004, 1.95651970e-004,
          1.75245601e-004, 4.27871768e-004, 2.67810887e-004,
          -7.74295331e-005, -3.48133835e-005, -1.06737562e-005,
          -1.93592874e-004, 1.02380349e-004, 3.32852593e-004,
          2.95608013e-004, -7.05922503e-005, -2.61535286e-004,
          -9.15535638e-005, -3.78938821e-005, 3.45546840e-004,
          1.23319711e-004, -1.11865767e-004, -4.88169608e-004,
          9.98642499e-005, 2.88345211e-004, 3.13443947e-004,
          1.60625190e-004, -2.63300491e-004, -5.13985055e-004,
          -4.80202812e-004, -1.88360820e-004, 4.59208059e-005,
          1.85158671e-004, 2.70595774e-004, 6.57540158e-006,
          3.20335006e-004, 3.32345866e-004, 2.58607761e-004,
          3.17657657e-004, -1.39883035e-004, -1.78013273e-004,
          -1.52264940e-004, 9.48635497e-005, 2.87100236e-004,
          2.00941446e-004, 3.45115142e-004, 2.81751389e-004,
          4.24151629e-004, 4.45996498e-004, 1.89488885e-004,
          3.45672102e-004, -1.55914786e-005, -1.55914786e-005,
          -1.55914786e-005, 1.30195389e-004, 3.48075235e-004,
          2.11531195e-004, 4.30076820e-004, 3.85567982e-004,
          5.58121654e-004, 5.29859914e-004, 2.22316055e-004,
          5.07380289e-004, 1.75958223e-004, 1.18378535e-004,
          1.18378535e-004, 1.75958223e-004, 4.82045260e-004,
          3.45501205e-004, 5.64046844e-004, 5.19538007e-004,
          2.87440489e-004, 2.41767208e-004, 2.89049960e-004,
          3.25715198e-004, -3.13804303e-005, -1.99887349e-004,
          -2.28969002e-004, -1.34556147e-004, 1.96846318e-004,
          4.08122753e-004, 3.99466255e-004, 2.48856843e-004,
          -1.36188901e-004, 7.63844000e-005, 1.50912238e-004,
          2.75824161e-004, -4.56129201e-005, -2.78976164e-004,
          -2.38990091e-004, -1.54418813e-005, 3.40378436e-004,
          6.48265588e-004, 3.10312898e-004, -7.57131129e-005,
          -4.44849924e-004, -4.31935448e-004, -1.00988284e-004,
          3.11165990e-004, 1.56319831e-004, 2.38340108e-005,
          -8.83903631e-005, 1.74853831e-005, 3.74110416e-004,
          2.11919294e-004, -7.70870538e-005, -1.19003969e-004,
          -2.98581901e-004, -4.89416649e-004, -3.25686124e-004,
          -6.89871304e-005, -2.22194594e-005, 5.27366610e-005,
          5.68715950e-005, 7.39323150e-005, 1.24197992e-004,
          2.11357823e-004, -9.08801951e-007, 6.50521303e-019 ]
      - [ -7.45388994e-020, 3.80678580e-006, 8.15380045e-005,
          1.63444027e-004, 1.65094360e-004, -8.84312158e-006,
          -1.47465093e-004, -1.73644075e-004, -1.51535598e-004,
          -2.19492576e-004, -6.09612071e-005, -7.78016838e-005,
          -6.07310067e-005, -8.48249329e-005, -1.21532372e-004,
          -2.24823976e-004, -1.95483502e-004, 2.52282207e-005,
          2.45407340e-004, 2.49282020e-004, 6.52870513e-005,
          -2.57742446e-004, -1.09815701e-004, -1.27583713e-004,
          -1.04729195e-004, -1.23303413e-004, -2.09693782e-004,
          -1.19703218e-004, 4.68430990e-005, 7.74560249e-005,
          1.77283509e-004, 1.73427499e-004, 1.73498935e-004,
          1.67272126e-004, 8.99800943e-005, -1.11258532e-005,
          -4.47808306e-005, -2.07909907e-005, -5.48756325e-005,
          1.80837451e-004, 2.42787515e-004, 2.29968180e-004,
          2.13686217e-004, 2.68805685e-004, 2.69714452e-004,
          1.35254944e-004, 1.07677370e-004, 4.14154929e-005,
          -6.07337654e-007, 2.83109111e-004, 2.30761885e-004,
          3.23345186e-004, 3.63106956e-004, 3.82523634e-004,
          3.26405076e-004, 1.57038579e-004, 5.58733191e-005,
          -7.36987495e-005, -6.30677969e-005, -6.64924373e-005,
          -2.59310291e-005, 2.36978958e-005, -3.22409733e-006,
          3.28186288e-004, 4.11841989e-004, 3.81231075e-004,
          1.70851577e-004, 1.83363591e-005, -3.45129024e-006,
          -9.78279204e-005, -5.65829687e-005, -5.45301409e-005,
          6.05974019e-005, 1.24335595e-004, 5.71924420e-006,
          1.87834754e-004, 2.34026069e-004, 3.03552544e-004,
          3.11500567e-004, 1.35574068e-004, 2.11110146e-005,
          -8.74675898e-005, -4.39920041e-005, -5.23083654e-005,
          3.03258857e-004, 3.24296416e-004, 1.48695006e-004,
          2.16816392e-004, 2.13088686e-004, 1.77070629e-004,
          2.14121348e-004, 2.40242225e-004, 2.54367682e-004,
          1.36613249e-004, 8.33704689e-005, -5.00408760e-006,
          1.22697911e-005, 1.96398469e-004, 1.13578441e-004,
          2.29110476e-004, 5.05179923e-005, -3.38345162e-005,
          -9.35285061e-005, -1.12622634e-004, -1.08315762e-004,
          -6.48749483e-005, 3.19093597e-005, 2.03360505e-005,
          -5.92631404e-005, -8.71252178e-006, -9.74835930e-005,
          1.81664345e-005, 7.08770458e-005, 3.71628230e-005,
          -6.57551427e-005, -9.55999130e-005, -6.05456626e-005,
          -1.82679305e-005, -3.93710025e-006, -7.45388994e-020 ]
      - [ 5.89468655e-005, 3.39498540e-004, 3.68176436e-004,
          1.84954784e-004, -1.00661055e-004, -3.08691146e-004,
          -2.35658212e-004, -2.44089984e-004, -2.15818349e-004,
          -3.15518701e-004, -9.62893391e-005, 2.18171808e-005,
          3.56349308e-004, 2.77555315e-004, 3.03193869e-004,
          2.76733830e-004, 2.55585037e-004, 4.92979198e-005,
          -1.30005050e-004, -1.63466029e-004, -2.17201901e-004,
          -3.40858154e-004, 2.36872191e-004, 2.26382108e-004,
          2.07479592e-004, 3.30059760e-004, 3.67564498e-004,
          4.78150061e-004, 4.93376108e-004, 1.11958623e-004,
          -5.30254983e-005, -1.36302478e-004, 9.30803362e-005,
          2.57837703e-004, 4.90217528e-004, 7.84358126e-005,
          -1.80563482e-004, 5.96163154e-005, 1.44760197e-004,
          3.01538996e-004, 2.67740717e-004, 1.68552462e-004,
          9.06810310e-005, 1.37633600e-004, 4.55999514e-004,
          3.63720668e-004, 2.16857312e-004, -3.35456716e-005,
          -2.92720564e-004, -1.84039149e-004, -1.92352338e-004,
          7.65361765e-005, 1.10476140e-004, 1.32248941e-004,
          9.62905833e-005, 1.79895826e-004, 4.89010126e-004,
          1.78802366e-004, 7.07495929e-005, -5.84879454e-005,
          -2.45143427e-004, -1.57810733e-004, -2.44242052e-004,
          -4.48263600e-005, 1.08420217e-019, 1.08420217e-019,
          1.96732595e-004, 4.27165156e-004, 4.13390779e-004,
          4.93641255e-006, -1.35110167e-005, -1.09108096e-005,
          -2.45143427e-004, -1.57810733e-004, -2.45311734e-004,
          -5.02060175e-005, -1.66460668e-005, 1.01458070e-004,
          2.82418652e-004, 2.90170632e-004, 2.21103910e-004,
          -1.46496299e-004, -1.39388912e-005, -1.09108096e-005,
          -2.51839694e-004, -1.71725915e-004, -2.68514181e-004,
          -9.77839081e-005, 7.65688164e-005, 2.90192431e-004,
          2.75242288e-004, 2.84553273e-004, -1.37633806e-005,
          -1.74850167e-004, -2.00945069e-005, -1.29432156e-005,
          -3.18010309e-004, -2.34903142e-004, -3.50663235e-004,
          -3.65863161e-005, 1.07184402e-004, 1.28678003e-004,
          2.83201662e-004, 2.20226575e-004, -1.42208155e-004,
          -1.72197921e-004, -7.37387963e-005, -6.66198830e-005,
          -2.53689010e-004, -1.70508429e-004, -3.54744639e-004,
          1.13633709e-004, -2.24371415e-005, 1.72833883e-004,
          1.37613664e-004, -1.17284355e-004, -9.14745033e-005,
          -2.79050400e-005, -3.62502260e-006, -3.58223497e-006 ]
      - [ -6.57858936e-006, -3.54231743e-005, -3.95710849e-005,
          4.28277745e-005, 1.40956661e-004, 3.92505928e-004,
          2.85866583e-004, 7.32704393e-006, -3.63811851e-004,
          -3.29502102e-004, 3.02034721e-004, 3.05460155e-004,
          -3.39285907e-004, -4.23781981e-004, -5.94447018e-004,
          -2.93467951e-004, 3.44991568e-005, 3.93641734e-004,
          4.66176338e-004, 3.83220293e-004, 7.74286382e-005,
          1.15735565e-004, 4.62410273e-004, -2.29432815e-004,
          -2.85795453e-004, -2.31140701e-004, -2.72956066e-004,
          -4.31998960e-005, -2.37258297e-004, -5.26968739e-004,
          -5.65825787e-004, -5.08892059e-004, -3.86068205e-005,
          3.25467990e-004, 8.25599636e-005, -1.21183788e-004,
          -2.68028933e-004, 3.26119596e-004, 2.72438017e-004,
          4.42307733e-004, 2.12294719e-004, -1.35819791e-004,
          8.44753376e-005, 3.14969511e-004, 2.56740168e-004,
          2.12888437e-004, -1.45038444e-004, -1.17828240e-004,
          7.84806471e-005, 2.52917584e-004, 2.02693394e-004,
          5.18609129e-004, 2.18764151e-004, 4.69897030e-004,
          5.98733022e-004, 4.16212220e-004, 3.87461128e-004,
          -1.05398773e-004, -1.94518827e-004, -1.37976036e-004,
          -2.33553830e-004, -1.20138626e-004, -2.51122023e-004,
          2.20744332e-004, 5.93074423e-004, 6.17145852e-004,
          1.32642628e-004, 3.98085162e-004, 2.43041461e-004,
          -1.09441047e-004, -7.70403713e-005, -2.04975786e-005,
          -2.33553830e-004, -2.26993070e-004, -1.07200227e-004,
          5.12863393e-004, 3.23267333e-004, 1.43200496e-005,
          1.68127503e-004, 3.70920985e-004, -5.42383987e-006,
          -1.17391101e-004, -7.75848966e-005, -2.04975786e-005,
          -2.35350759e-004, -1.29888416e-004, 3.16608384e-005,
          1.69481325e-004, -6.34611861e-005, -2.50110224e-005,
          2.87074829e-004, -3.54031290e-005, -6.71384478e-005,
          -1.57398419e-004, -9.08753500e-005, -2.78682437e-005,
          -1.69674880e-004, 1.22482728e-004, -4.37593582e-004,
          -1.81534604e-004, -1.24477607e-004, 2.62042799e-004,
          1.27006017e-004, -8.90135998e-005, -1.09808301e-004,
          -1.84576158e-004, -1.51966902e-004, -1.31724693e-004,
          2.44142691e-004, -1.74544941e-004, -5.67425042e-004,
          -1.55067013e-004, -1.20599710e-004, 1.44523714e-004,
          -1.30744927e-004, -1.69354302e-004, -1.40730655e-004,
          -7.26578510e-005, -2.26369139e-005, -4.47065531e-006 ]
      - [ 6.09529030e-004, 2.55983730e-004, -7.87593453e-005,
          -2.00752198e-004, -2.49927747e-004, -2.26034768e-004,
          -5.54106227e-005, -2.76430565e-005, -2.76430565e-005,
          -2.23016250e-004, -2.53259263e-004, -2.66050803e-004,
          3.47934023e-004, 8.64835456e-005, -6.06618014e-005,
          -7.48493912e-005, -6.04099514e-005, -7.46190999e-005,
          -8.76545455e-005, -1.22247700e-004, -1.44457445e-004,
          -3.82170052e-004, -2.62481160e-004, -2.12517858e-004,
          2.18513524e-004, 1.13129943e-004, -8.40903595e-005,
          -1.92318563e-004, -1.94509936e-004, -1.79871597e-004,
          -1.71687410e-004, -1.63070406e-004, -1.04354753e-004,
          -2.60068045e-004, -1.16175637e-004, -6.86828644e-005,
          2.21295006e-004, 1.25804640e-004, -1.59226420e-005,
          -5.25387150e-005, -4.31129738e-005, -2.87419825e-005,
          -1.62253127e-005, -6.95370545e-006, -3.11708125e-019,
          -2.00332448e-004, -8.20126079e-005, -6.49742215e-005,
          2.22685747e-004, 1.73716777e-004, 7.99828049e-005,
          4.95652021e-005, 7.49110332e-005, 7.49110332e-005,
          7.49110332e-005, 6.53617753e-005, 4.17159899e-005,
          -1.84448800e-004, -8.20126079e-005, -6.49742215e-005,
          2.31780272e-004, 2.69540731e-004, 2.12718776e-004,
          1.98615395e-004, 2.67083960e-004, 2.63422669e-004,
          3.55138938e-004, 4.96213266e-004, 5.24492236e-004,
          2.44643277e-004, 2.33045401e-004, 1.17731961e-005,
          1.46221049e-004, 1.14079245e-004, 3.05430513e-005,
          -7.97861430e-005, -9.36444922e-005, -9.61315236e-005,
          -1.04648163e-004, 8.66335322e-005, 5.32280363e-004,
          4.07378509e-004, 4.90985578e-004, 3.84562241e-004,
          2.14277316e-004, 1.21016048e-004, -2.58095261e-005,
          -8.19777633e-005, -3.99411947e-005, -1.93371307e-006,
          -6.20231867e-006, 3.71683011e-004, 5.48315991e-004,
          3.77598160e-004, 3.06263100e-004, 9.31187024e-005,
          8.62277229e-005, 2.39237961e-005, -5.25870819e-005,
          -4.08326741e-005, 1.09895816e-004, 2.30148173e-004,
          1.96359382e-004, 1.88495280e-004, -2.43632458e-005,
          -2.44484167e-004, -1.34801943e-004, -8.86951384e-005,
          1.56704831e-004, 1.96446432e-004, 1.42223318e-004,
          -1.12746920e-005, -1.29869979e-004, -1.46797713e-004,
          -2.29597921e-004, -2.17470806e-004, -1.52534922e-004,
          -5.75918020e-005, -2.54800852e-007, -3.11708125e-019 ]
      - [ 4.13257163e-004, 3.11166892e-004, 8.90306037e-005,
          -4.85970813e-005, -1.99256392e-004, -2.13865264e-004,
          -1.17993055e-004, -6.05439600e-005, -5.57972744e-005,
          -1.04511309e-004, -1.48584368e-004, -2.46504875e-004,
          2.86577735e-004, 1.79765149e-004, -1.93412179e-005,
          -7.73948923e-005, -1.39844065e-004, -1.27337276e-004,
          -8.84045294e-005, -6.99149823e-005, -9.45693100e-005,
          -2.10414772e-004, -2.45653064e-004, -2.40390524e-004,
          2.15791879e-004, 1.70707615e-004, 3.51253220e-005,
          -2.69031830e-006, -3.71631104e-005, -5.09980309e-005,
          -5.02363946e-005, -1.48860763e-005, -1.46555303e-005,
          -7.64691285e-005, -5.54336184e-005, -3.43467691e-005,
          1.89291532e-004, 2.43385846e-004, 2.37764354e-004,
          2.70928664e-004, 2.42982176e-004, 2.40472742e-004,
          2.33896280e-004, 2.65184091e-004, 3.01112043e-004,
          1.40688484e-004, 1.08929104e-004, 6.22899752e-005,
          1.89291532e-004, 2.71912548e-004, 2.29958488e-004,
          1.93383559e-004, 1.09709676e-004, 7.81086928e-005,
          6.30932409e-005, 1.41274781e-004, 2.11095787e-004,
          5.60318149e-005, 1.07265194e-004, 1.19364959e-004,
          2.00258015e-004, 2.10869941e-004, 8.31677171e-005,
          7.27775914e-005, 2.23920651e-005, 4.05856154e-005,
          6.86392596e-005, 1.30408123e-004, 2.33968996e-004,
          1.25737191e-004, 1.58570430e-004, 1.30331435e-004,
          1.81065378e-004, 2.54455779e-004, 2.69444397e-004,
          2.72724981e-004, 2.41679707e-004, 2.47426477e-004,
          2.35416388e-004, 2.57844455e-004, 2.80778127e-004,
          1.54263951e-004, 1.56248556e-004, 1.11138805e-004,
          1.04628656e-004, 1.04474617e-004, 8.24969902e-005,
          6.75147166e-005, 3.81388418e-005, 2.96714261e-005,
          4.17083393e-005, 1.27655221e-004, 1.78920222e-004,
          9.68985769e-005, 1.95293833e-004, 2.24805917e-004,
          -2.22708899e-004, -1.94273918e-004, -1.12016343e-004,
          -8.16836473e-005, -7.23273042e-005, -6.68810026e-005,
          -9.42239858e-005, -4.53419634e-005, 3.51689669e-005,
          -2.85721399e-005, 1.30583605e-004, 3.27875430e-004,
          -2.28785881e-004, -2.09339676e-004, -1.68969564e-004,
          -1.26883650e-004, -1.26428087e-004, -1.43932775e-004,
          -1.56349692e-004, -5.78042927e-005, 7.56569352e-005,
          7.74691871e-005, 2.12905157e-004, 3.11322627e-004 ]
      - [ -1.52465931e-019, -1.52465931e-019, 1.52800945e-004,
          -5.69463418e-006, -1.36351155e-004, -2.00306196e-004,
          -2.01576666e-004, -5.30228208e-005, 2.62909627e-004,
          -1.47766841e-004, -1.27025400e-004, -1.30626693e-004,
          -6.86991989e-005, -7.93880899e-005, 1.54408990e-004,
          -1.05398096e-004, -2.28251854e-004, -2.27706492e-004,
          -1.74974499e-004, 1.37835605e-005, 2.65322829e-004,
          -1.94853710e-004, -2.08873040e-004, -2.04151234e-004,
          -8.22034708e-005, -9.17559446e-005, 1.04685620e-004,
          1.57996998e-004, -1.08693403e-005, -1.48310486e-004,
          -1.26204512e-004, -8.61196349e-006, 2.64114497e-004,
          6.15078607e-005, -1.39547601e-005, 2.26510074e-005,
          2.53203383e-004, 2.72344623e-004, 1.79246577e-004,
          4.30961198e-004, 3.49727605e-004, 2.36638167e-004,
          2.18725079e-004, 3.02859873e-004, 4.28124302e-004,
          2.76239327e-004, 2.22686387e-004, 2.38205990e-004,
          2.61190726e-004, 2.30273537e-004, 2.72018136e-004,
          2.20344562e-004, 1.60473297e-004, 1.49369473e-004,
          1.35151684e-004, 2.63530150e-004, 4.35511727e-004,
          2.62266603e-005, -7.82385541e-005, -8.78470310e-005,
          4.01911020e-005, 3.69551599e-005, 1.46919527e-004,
          2.48784112e-004, 7.58625029e-005, 1.47215258e-006,
          1.33745662e-005, 1.48103543e-004, 4.41802491e-004,
          9.45775610e-005, -1.67465350e-005, 1.05025310e-005,
          1.80555682e-004, 1.77319744e-004, 1.30876913e-004,
          3.88690416e-004, 3.20560881e-004, 2.58744723e-004,
          2.95467529e-004, 3.18251026e-004, 4.03055863e-004,
          3.17273021e-004, 3.06496950e-004, 3.26408859e-004,
          3.40116589e-004, 2.74190272e-004, 1.22506928e-004,
          9.53890412e-005, 7.86807577e-005, 8.75264304e-005,
          9.63318962e-005, 2.42757334e-004, 3.74153082e-004,
          5.27427574e-006, -6.14325545e-005, -4.91617539e-005,
          -9.63009916e-006, -3.35298282e-005, 3.55898119e-005,
          1.24690690e-004, 2.90086882e-006, -8.23591836e-005,
          -1.38368778e-004, -8.14859013e-005, 1.88848324e-004,
          -4.29639149e-005, -1.07951688e-004, -4.20018296e-005,
          -1.32111963e-004, -1.81972457e-004, -7.29067251e-005,
          5.89110605e-005, -1.30990302e-004, -2.37850414e-004,
          -2.38742941e-004, -1.49564061e-004, 3.13896235e-005,
          -4.04741913e-005, -7.18179872e-005, -5.60371991e-005 ]
      - [ -2.67662411e-019, -2.32164984e-006, -5.01282666e-005,
          -1.16332594e-004, -9.90420012e-005, 1.63445511e-004,
          2.89071148e-004, 1.50253327e-004, -3.00624542e-005,
          -3.79454665e-004, -1.62631462e-004, -1.56574562e-004,
          -1.29159889e-004, -2.04030526e-004, -2.71680241e-004,
          -2.98353669e-004, 1.74773249e-005, 3.85715757e-005,
          -2.30356804e-004, -6.70400595e-006, 3.92224931e-004,
          -4.18898795e-004, -2.66495830e-004, -2.73123209e-004,
          -2.25702985e-004, -2.68958509e-004, -3.57887853e-004,
          -1.11205947e-004, 1.69033563e-004, 8.60200998e-006,
          -5.85777598e-005, 2.62382993e-004, 9.45106440e-005,
          -3.85602412e-004, -2.82977126e-004, -2.48018187e-004,
          -1.19521079e-004, -1.08668020e-004, -1.62813740e-004,
          1.85057273e-004, 4.63528530e-004, 4.23810969e-004,
          3.18829610e-004, -4.46331687e-005, -8.05423406e-005,
          -2.00824012e-004, -1.36266055e-004, -1.14438320e-004,
          9.47661465e-005, 3.67912522e-004, 3.26321315e-004,
          5.34166524e-004, 4.63009346e-004, 4.98846639e-004,
          4.87410114e-004, 2.27566590e-004, 2.35492102e-004,
          3.77099714e-005, 5.88108924e-005, -5.64806760e-005,
          5.28292265e-004, 6.82267302e-004, 1.52879220e-005,
          2.95770122e-004, 3.57072451e-004, 4.62801894e-004,
          4.79665119e-004, 5.91062242e-004, 3.97776195e-004,
          2.32998340e-004, 3.10629053e-004, 3.14606586e-004,
          2.93984776e-004, 1.98576905e-004, -1.82831136e-004,
          2.56853004e-004, 3.36256140e-004, 1.37158684e-004,
          1.53182031e-004, 2.68852571e-004, 1.55234724e-004,
          -4.65001795e-005, 3.02768778e-004, 3.93830851e-004,
          -8.94153636e-005, -4.10814573e-005, -2.27850265e-004,
          3.58953948e-005, 3.77469041e-005, 5.23266754e-005,
          -5.39791290e-005, -5.76150960e-005, 2.80905631e-004,
          -8.66823248e-005, 1.68337239e-004, 6.50761576e-005,
          -2.32091159e-004, -1.81891082e-004, -2.66668794e-004,
          7.20448879e-005, 1.86328762e-004, 1.85636876e-004,
          -1.21076691e-005, 1.53870278e-005, 6.69496367e-005,
          -2.64868460e-004, -1.86837729e-004, -7.81848939e-005,
          -1.38513249e-004, -6.86517451e-005, -2.90816271e-004,
          -9.69041412e-006, 8.53181409e-005, 2.10476006e-004,
          8.26781252e-006, 1.02254715e-004, -1.35462702e-004,
          -5.83155233e-005, -3.83147096e-007, -2.67662411e-019 ]
      - [ -4.34042977e-006, 2.20187394e-005, 1.33191534e-005,
          -2.19524482e-005, -6.26551264e-005, -6.55713375e-005,
          1.44828140e-004, -1.16374285e-004, -5.39806097e-005,
          1.68718416e-005, 1.52522873e-004, 2.26701959e-004,
          1.24348764e-004, 4.16692164e-005, -3.59025557e-006,
          -1.91416730e-005, -1.91416730e-005, -1.91416730e-005,
          2.51651567e-004, 1.05613399e-004, 3.19841456e-005,
          -7.76280867e-005, -1.57418181e-004, -2.03482792e-004,
          1.13045382e-004, -8.54295140e-005, -4.21098754e-004,
          -4.15613933e-004, -4.28183179e-004, -4.39780270e-004,
          -2.35363128e-004, -6.46940025e-004, -6.95397612e-004,
          2.78442545e-004, -1.39923199e-004, -4.43681802e-006,
          7.98690235e-005, -1.44300839e-005, -1.36587129e-004,
          -5.57074200e-005, -7.43768323e-005, -5.95939200e-005,
          1.42323464e-004, 3.85095424e-004, 2.87222676e-004,
          -3.82051949e-005, 7.99647460e-005, -8.66052287e-005,
          6.32808442e-005, 5.16182590e-005, 9.77790405e-005,
          2.45430972e-004, 3.51763563e-004, 4.83172771e-004,
          7.32151791e-004, 6.84090832e-004, 4.46583610e-004,
          8.63488298e-004, 3.52622119e-005, -2.75154045e-004,
          1.13045382e-004, 4.23145248e-004, 6.19765604e-004,
          6.51386974e-004, 3.28522990e-004, 1.16576019e-004,
          4.36774542e-004, 8.88667069e-004, 4.78626171e-004,
          4.55948350e-004, -8.43773596e-005, -2.25367374e-004,
          1.13045382e-004, 4.10674984e-004, 3.43067688e-004,
          4.56282956e-004, 3.98877135e-004, 1.04049454e-004,
          -1.61730750e-005, -6.93645154e-004, -2.33213344e-004,
          1.52393826e-003, 3.40788916e-004, 5.96267171e-004,
          9.41521357e-005, -7.60045441e-005, -8.07470060e-004,
          -9.04384302e-004, -1.07841403e-003, -1.05588918e-003,
          -6.03100285e-004, -4.11159635e-005, 2.60963745e-004,
          -6.21738363e-005, -1.09435430e-004, 9.76803829e-004,
          -1.01671329e-004, -9.10759468e-007, 1.32860383e-004,
          1.70819752e-004, 1.26417508e-004, 7.95872038e-005,
          6.09169401e-005, -1.38027637e-004, -1.14107417e-004,
          -5.83472029e-005, -6.80485900e-005, 1.31679676e-003,
          2.60788453e-004, 2.25412194e-004, -1.41105673e-004,
          -1.70841849e-005, -4.99909474e-005, 1.57489085e-005,
          8.89671501e-005, -2.43952654e-005, -1.15252633e-005,
          -6.92887852e-006, 5.83649264e-004, 3.41935927e-004 ]
      - [ 3.26810696e-004, 2.86866445e-004, 2.72505975e-004,
          2.08216981e-004, 2.13593550e-004, 1.14236376e-004,
          9.40695681e-005, -6.02394030e-005, -2.78937732e-005,
          8.43622183e-006, 1.96379369e-005, 1.21208272e-004,
          -1.82117801e-004, -3.57075114e-005, 2.37101136e-004,
          7.98687761e-005, -1.48719308e-004, -2.88425363e-004,
          -1.35179522e-004, -2.99817330e-004, -1.74585264e-004,
          9.08614893e-005, -5.63846988e-005, -2.20094953e-004,
          -1.18163109e-004, 1.17073025e-004, 1.59199146e-004,
          -7.74406144e-005, -3.18184873e-004, -5.22477436e-004,
          -3.53475305e-004, -2.27610130e-004, -1.46522550e-004,
          -9.39162637e-005, 2.27878190e-004, 1.94921071e-004,
          9.74964569e-005, 3.15397483e-004, 2.73174432e-004,
          3.54168675e-004, 8.41598085e-005, -2.14368047e-005,
          4.47957646e-005, -6.73361001e-006, 8.16661195e-005,
          1.46879625e-004, 7.30560860e-005, 2.42893875e-004,
          1.68389728e-004, 3.56617529e-004, 2.46272597e-004,
          3.50866234e-004, 7.68919854e-005, 7.68919854e-005,
          7.68919854e-005, 2.31651902e-005, 1.59579999e-004,
          1.35147231e-004, 1.58255440e-004, 1.38153147e-004,
          1.94652559e-004, 3.97873635e-004, 2.46272597e-004,
          4.21152392e-004, 1.81339812e-004, 1.12288144e-004,
          4.79752307e-005, -2.03644347e-004, 3.64653060e-005,
          1.11981200e-004, 3.21373722e-004, 1.92370935e-004,
          5.03853844e-005, 2.61476962e-004, 3.05569323e-004,
          3.24070104e-004, 1.01679390e-004, -2.23313255e-004,
          -3.44522705e-004, -3.64759908e-004, 8.97804130e-005,
          4.04642429e-004, 2.28200894e-004, 2.69321317e-004,
          -2.51080841e-004, 8.03723815e-005, 7.74093787e-005,
          -8.05217351e-005, -1.96445981e-004, -4.68881801e-004,
          -4.53465997e-004, -1.85756435e-004, 3.11001058e-004,
          6.53631345e-004, 3.39119521e-004, 6.80798184e-005,
          -4.10712615e-004, -3.43210035e-004, -3.97666736e-004,
          -1.87413083e-004, -6.10253410e-005, -5.46958581e-005,
          -7.96636741e-005, 1.51770713e-004, 4.37552866e-004,
          4.19550983e-004, 9.72568814e-005, 2.71050543e-019,
          -3.16037331e-004, -3.20311723e-004, -3.23977176e-004,
          -2.55555526e-004, -1.24214508e-004, 1.41172291e-004,
          3.16989899e-004, 2.99614214e-004, 2.53468606e-004,
          2.13965133e-004, 2.71050543e-019, 2.71050543e-019 ]
      - [ -1.08420217e-019, 6.04666752e-007, 8.37548359e-005,
          1.59611998e-004, 1.83873562e-004, 5.80937121e-005,
          -2.67301861e-004, -2.75192666e-004, -1.74738670e-004,
          -1.19381577e-004, -3.05797548e-005, -1.76427548e-005,
          -1.07718115e-004, -1.28463886e-004, -1.86269797e-004,
          -2.05109522e-004, -1.63195058e-004, 2.51040965e-005,
          9.76261435e-005, -7.52356791e-005, -4.31483022e-005,
          -1.43284997e-004, -1.16961637e-004, -1.07612737e-004,
          -3.79389785e-005, -1.00525380e-004, -1.97840578e-004,
          -1.79403956e-004, -8.99051665e-005, 3.11886615e-005,
          1.12512455e-004, 3.68196816e-005, 1.06680149e-004,
          2.65294744e-004, 3.16700462e-004, 1.97026617e-004,
          -7.08220177e-005, -4.85244782e-005, 2.21825539e-005,
          2.66147690e-004, 3.47080466e-004, 3.96757299e-004,
          2.30246806e-004, 1.62986311e-004, 2.50125449e-004,
          1.40869859e-004, 5.95924539e-005, 5.38179520e-005,
          6.27963382e-005, 2.72239326e-004, 2.99974228e-004,
          4.12766647e-004, 4.15267714e-004, 4.13669448e-004,
          2.02820607e-004, 9.00028317e-005, -7.83445139e-005,
          -1.37497918e-004, -1.80433228e-004, -1.87540354e-004,
          -2.09875616e-005, -1.43802226e-005, 5.99986924e-005,
          3.70968977e-004, 4.30305547e-004, 4.51927335e-004,
          1.00060912e-004, -1.25832332e-004, -1.99195754e-004,
          -1.29896143e-004, -6.41795996e-005, -1.75143970e-004,
          9.23816174e-007, -1.90277060e-005, -3.61642014e-005,
          1.53644942e-004, 1.72043670e-004, 2.65327253e-004,
          1.19145756e-004, -2.30704154e-005, 6.12493659e-006,
          3.01959608e-005, -1.08257436e-005, -1.18408600e-004,
          3.39016668e-004, 2.76614592e-004, 5.88493313e-005,
          6.88984946e-005, 1.03330412e-005, -1.79652216e-005,
          -2.11761344e-005, 8.53813544e-005, 2.63610680e-004,
          2.49566307e-004, 9.71771951e-005, 3.11466974e-005,
          -9.08909060e-005, 7.27266452e-005, 1.06447906e-005,
          -1.32485147e-005, -1.62454904e-004, -1.98534806e-004,
          -2.49908509e-004, -5.61603883e-005, 5.00741044e-005,
          7.72458006e-005, 5.98659899e-005, 3.82973121e-005,
          -1.96166846e-004, -2.50592333e-004, -1.71147680e-004,
          -1.25690232e-004, -1.19297503e-004, 6.48981877e-005,
          1.24519414e-004, 3.49143011e-005, -1.08420217e-019,
          -1.08420217e-019, -1.08420217e-019, -1.08420217e-019 ]
      - [ 9.39360543e-005, 3.18908948e-004, 3.96724237e-004,
          2.85070477e-004, 2.86098530e-005, -1.98198453e-004,
          -3.09754047e-004, -5.35129104e-004, -4.21695237e-004,
          -2.81648972e-004, -1.45843413e-004, -7.66683297e-006,
          3.08517803e-004, 2.64243310e-004, 2.08723504e-004,
          1.85545141e-004, 1.57179224e-004, 6.34365206e-005,
          -2.38780864e-004, -5.39579778e-004, -4.99066489e-004,
          -7.61747797e-005, 2.52384110e-004, 1.54919835e-004,
          1.26342464e-004, 2.00291441e-004, 1.97850357e-004,
          2.37941000e-004, 2.30867983e-004, 1.46074977e-004,
          6.23486485e-005, -3.66150016e-005, 1.18808806e-004,
          2.97236082e-004, 3.62850667e-004, 5.70619377e-005,
          -1.03422935e-004, 4.80605086e-005, 4.86217941e-005,
          2.30104270e-004, 2.42373848e-004, 2.35692860e-004,
          2.18581525e-004, 3.88049011e-005, 2.46292941e-004,
          3.68021632e-004, -7.56419831e-005, -1.63726523e-004,
          -1.97252462e-004, -1.64576180e-004, -1.91468382e-004,
          4.86726531e-005, 6.62972889e-005, 6.62972889e-005,
          1.35555121e-004, 9.71797053e-005, 1.26961284e-004,
          1.47963845e-004, -5.78313120e-005, -2.62985559e-004,
          -1.66669255e-004, -1.46147839e-004, -2.17488414e-004,
          -1.76246303e-005, 1.80880727e-006, 6.08003356e-005,
          2.13806037e-004, 7.49999599e-005, 6.46616218e-006,
          -4.05838255e-005, -4.22057674e-005, -1.83782831e-004,
          -1.66669255e-004, -1.48354680e-004, -2.39692585e-004,
          -8.06728131e-005, -8.88945360e-005, -5.74186342e-005,
          2.04927346e-005, 2.82467363e-006, 9.60001344e-005,
          -5.40874498e-005, -1.32927496e-004, -5.36033258e-005,
          -1.66669255e-004, -1.99167975e-004, -3.75523756e-004,
          -3.74453899e-004, -2.95082660e-004, -6.12442964e-005,
          7.98004330e-005, -1.36210485e-006, -6.73863178e-005,
          -1.89473049e-005, -3.31830124e-005, 2.71050543e-020,
          -2.30482736e-004, -2.90092867e-004, -5.26812742e-004,
          -3.01340770e-004, -1.66113488e-004, -1.08838740e-005,
          1.84238859e-004, 1.04782681e-004, -8.57345876e-005,
          -3.48847025e-005, 2.71050543e-020, 2.71050543e-020,
          -1.64462399e-004, -2.08938742e-004, -3.96693969e-004,
          -7.94592706e-005, -1.55835776e-004, 9.11460811e-005,
          1.56397844e-004, -3.18387697e-006, 2.71050543e-020,
          2.71050543e-020, 2.71050543e-020, 2.71050543e-020 ]
      - [ -2.16840434e-019, -1.60838190e-005, -1.00684429e-005,
          7.92804931e-005, 1.68249622e-004, 3.40749364e-004,
          1.72790576e-004, -1.58262585e-004, -4.50255873e-004,
          -2.73085141e-004, 1.34948074e-004, 2.41300906e-004,
          -2.45035393e-004, -3.17564758e-004, -3.95108334e-004,
          -2.14658285e-004, -8.79008530e-006, 2.06175740e-004,
          1.33552458e-004, -6.19104321e-005, -1.24078651e-004,
          2.36963358e-004, 3.37583042e-004, -1.08281878e-004,
          -1.65097721e-004, -4.20264951e-005, -2.05332602e-004,
          -1.91807878e-004, -3.17172729e-004, -3.78467084e-004,
          -4.17019939e-004, -4.12859314e-004, -9.73370916e-005,
          2.07941921e-004, 1.18724965e-004, -1.28196382e-006,
          -1.37397583e-004, 3.24731547e-004, 2.50964717e-004,
          4.53949877e-004, 3.68106266e-004, 8.95658159e-005,
          7.73481806e-005, 1.68345548e-004, 1.20408222e-004,
          1.69084247e-004, -2.79168715e-004, -1.16428586e-004,
          1.58556169e-004, 3.00224987e-004, 1.86138845e-004,
          4.43693949e-004, 3.91258771e-004, 3.61045386e-004,
          3.63837200e-004, 1.06172491e-004, 7.83435316e-005,
          -5.97456665e-006, -1.06293555e-004, -2.85835093e-004,
          -1.21317767e-004, 7.07722793e-005, -8.71589291e-005,
          1.90290521e-004, 4.27932537e-004, 4.69501538e-004,
          6.82900136e-005, -5.36514162e-005, -5.70041084e-005,
          -9.00648083e-005, -4.14231290e-005, -2.26249322e-004,
          -1.65097721e-004, -7.48875100e-005, -6.49319554e-005,
          2.74745718e-004, 8.45034010e-005, -2.03002768e-004,
          -7.79336115e-005, -4.51538763e-005, -8.06185781e-005,
          -1.32475743e-005, -1.29100357e-004, -5.89348710e-005,
          -1.65097721e-004, -5.93829463e-005, -1.50664535e-004,
          -2.97396007e-004, -4.71529260e-004, -1.97673216e-004,
          -1.18558737e-005, -1.14026159e-004, -1.69250998e-005,
          -9.08339644e-006, -1.66631471e-005, -2.16840434e-019,
          -2.07482401e-004, -7.81062699e-005, -5.74826961e-004,
          -5.60181914e-004, -2.38657478e-004, 3.16895648e-006,
          -1.20519202e-004, -1.15120580e-004, -3.04244786e-005,
          -1.24740363e-005, -2.16840434e-019, -2.16840434e-019,
          4.99629787e-005, -2.48455384e-004, -5.68089192e-004,
          -2.29587851e-004, 4.02493315e-005, 6.59395300e-005,
          -5.31913720e-005, -4.25942699e-006, -2.16840434e-019,
          -2.16840434e-019, -2.16840434e-019, -2.16840434e-019 ]
      - [ 4.03216371e-004, 1.53717425e-004, 1.58874700e-005,
          -1.02496997e-004, -1.26499872e-004, -1.43975631e-004,
          -1.95364089e-004, -3.12037591e-004, -2.07437173e-004,
          -1.53371497e-004, -1.29583583e-004, -8.77339116e-005,
          2.06316210e-004, 2.33474912e-005, -6.81944075e-005,
          -1.66353624e-004, -1.66353624e-004, -1.66353624e-004,
          -2.06788929e-004, -3.83456674e-004, -3.31305171e-004,
          -1.88919454e-004, -1.53064655e-004, -1.17896874e-004,
          1.60679469e-004, 4.58632385e-005, -3.93000046e-005,
          -1.46635633e-004, -1.48189880e-004, -1.42315534e-004,
          -1.81412412e-004, -3.26404086e-004, -3.02802218e-004,
          -2.88390525e-004, -1.23211736e-004, -1.32927539e-006,
          1.60679469e-004, 9.73412753e-005, 9.81592166e-005,
          -1.08420217e-019, -1.07062879e-005, -2.89645118e-006,
          -4.81684183e-005, -1.91643878e-004, -1.46376449e-004,
          -1.20472323e-004, -2.29796016e-004, -9.99608383e-005,
          1.60679469e-004, 1.06775587e-004, 1.68384722e-004,
          1.24534548e-004, 1.24534548e-004, 1.24534548e-004,
          8.37566404e-005, -4.35713810e-005, -3.84248233e-005,
          -7.89666810e-005, -1.70275816e-004, -2.85404618e-004,
          1.79548093e-004, 2.54069921e-004, 2.41125774e-004,
          1.63463439e-004, 1.67126098e-004, 1.59800780e-004,
          2.83359870e-004, 2.99036183e-004, 3.39696766e-004,
          2.81791086e-004, 1.64156067e-004, -1.74418601e-004,
          1.60679469e-004, 9.73412753e-005, 1.18670097e-004,
          1.09879720e-005, 1.34348338e-005, 2.70439905e-005,
          -2.61941041e-005, 1.04385923e-004, 2.95449776e-004,
          3.60190927e-004, 2.63186725e-004, 2.76112143e-004,
          1.60679469e-004, 4.67998871e-005, -5.64024194e-005,
          -2.65799230e-004, -2.27916506e-004, -1.68930768e-004,
          -2.08625293e-004, 1.25406441e-004, 3.41938547e-004,
          3.77313350e-004, 2.59984256e-004, 2.00533352e-004,
          2.61643709e-005, -1.61916498e-004, -2.64960545e-004,
          -2.37758111e-004, -7.24192651e-005, 1.68125043e-005,
          -5.77232677e-005, 7.10749373e-005, 4.75637535e-005,
          -2.35720163e-005, -1.18927373e-005, -1.08420217e-019,
          6.43362000e-005, 8.61730659e-005, 9.22162235e-006,
          -1.10413239e-004, -1.58009061e-004, -1.59911855e-004,
          -8.11488644e-005, -1.04576320e-005, -1.08420217e-019,
          -1.08420217e-019, -1.08420217e-019, -1.08420217e-019 ]
      - [ 3.16182181e-004, 2.40778492e-004, 5.58800457e-005,
          -3.93133596e-005, -1.50734078e-004, -1.73647568e-004,
          -2.01592513e-004, -2.84434704e-004, -2.02487150e-004,
          -1.53241243e-004, -1.02133541e-004, -3.92979600e-005,
          1.27283114e-004, 9.60042671e-005, -5.50094446e-005,
          -1.12541005e-004, -1.88341888e-004, -1.88341888e-004,
          -2.04891112e-004, -2.99953739e-004, -2.91719945e-004,
          -1.99796603e-004, -1.54401554e-004, -8.30385616e-005,
          1.38676274e-004, 1.16574229e-004, -4.58630129e-005,
          -8.98118888e-005, -1.27669264e-004, -9.60840407e-005,
          -8.14936793e-005, -1.48348438e-004, -1.29900844e-004,
          -8.07413962e-005, 4.52041604e-005, 7.11018220e-005,
          1.22595593e-004, 1.93627449e-004, 2.36327498e-004,
          2.60130066e-004, 2.40394991e-004, 2.45217787e-004,
          2.10440528e-004, 8.80575026e-005, 1.01294296e-004,
          -3.01515138e-005, -3.59600817e-005, -4.20242577e-006,
          1.22595593e-004, 1.93922606e-004, 1.92803782e-004,
          1.70091458e-004, 8.69567011e-005, 5.96974824e-005,
          2.89763102e-005, 1.59650863e-005, 8.47554911e-005,
          -6.34819589e-005, 2.10859234e-005, 1.79243932e-006,
          1.38676274e-004, 1.57778210e-004, 8.63273817e-005,
          8.15714084e-005, 1.91015297e-005, 3.46215238e-005,
          1.88790982e-005, -7.40817632e-005, 4.70169334e-006,
          3.63661566e-005, 1.57332412e-004, 4.06683903e-005,
          1.38676274e-004, 2.02007737e-004, 1.92067484e-004,
          1.94824592e-004, 1.52832974e-004, 1.13970658e-004,
          6.65021144e-005, 8.00358157e-006, 1.90088773e-004,
          1.92930354e-004, 1.44548438e-004, 1.05826060e-004,
          7.57876478e-005, 5.53783066e-005, -1.19577981e-005,
          -7.67546007e-005, -1.08534950e-004, -1.10803441e-004,
          -7.49184692e-005, 6.41731549e-006, 1.84714823e-004,
          1.75146939e-004, 2.10509999e-004, 1.99142596e-004,
          -1.48403880e-004, -1.86880599e-004, -2.26405944e-004,
          -2.07702527e-004, -2.06173005e-004, -1.80402683e-004,
          -1.58853014e-004, -3.31500378e-005, 1.31081906e-004,
          1.07899912e-004, 1.74291810e-004, 2.89804477e-004,
          -1.59140822e-004, -1.71501262e-004, -1.89888204e-004,
          -1.73187000e-004, -1.61096090e-004, -1.15772003e-004,
          -5.87729810e-005, 6.97473442e-005, 1.72310029e-004,
          1.25517443e-004, 1.86259320e-004, 2.44589814e-004 ]
      - [ 2.64274280e-019, -9.65857907e-006, 1.19012053e-004,
          -9.26735956e-005, -2.34550156e-004, -3.05317371e-004,
          -3.40011145e-004, -2.59834283e-004, 7.90997656e-005,
          1.89899201e-005, -6.09217423e-005, -1.85330446e-005,
          -1.78080765e-004, -1.87514219e-004, 4.49240106e-005,
          -1.44726189e-004, -2.73900252e-004, -3.34280398e-004,
          -3.40011145e-004, -2.68099539e-004, -5.37697779e-005,
          -9.21500759e-005, -1.71529158e-004, -1.07858490e-004,
          -1.12907510e-004, -9.75498042e-005, 7.03455880e-005,
          5.56323866e-005, -1.59190735e-004, -2.05400167e-004,
          -1.93961285e-004, -1.88877253e-004, 7.85302764e-005,
          1.08919550e-004, 1.22474099e-004, 1.99851318e-004,
          1.38643372e-004, 1.66687649e-004, 1.67655380e-004,
          4.77217662e-004, 3.88152199e-004, 3.35678429e-004,
          2.92577897e-004, 4.87633515e-005, 2.33547733e-004,
          2.20942253e-004, 1.15443552e-004, 1.60881536e-004,
          8.21867288e-005, 1.11183268e-004, 3.06185626e-004,
          3.01124819e-004, 1.94064211e-004, 1.14532064e-004,
          7.98792680e-005, 1.44205391e-004, 1.58737530e-004,
          -1.63831774e-005, -1.24360842e-004, -2.04525481e-004,
          -4.53044340e-005, -1.02463637e-005, 1.89223982e-004,
          3.52855015e-004, 1.35317678e-004, 1.72063210e-005,
          -8.50782908e-006, -2.43129070e-005, 9.58517630e-005,
          8.33721278e-005, 4.05213978e-005, -6.94614282e-005,
          9.96804883e-005, 1.56810915e-004, 1.34606729e-004,
          4.36942093e-004, 3.23853950e-004, 2.27268072e-004,
          1.88501304e-004, -1.61807975e-006, 2.60782719e-004,
          3.84384854e-004, 2.98273313e-004, 2.97263992e-004,
          2.59893946e-004, 2.42041264e-004, 1.67932260e-004,
          9.54538700e-005, -8.40657085e-005, -1.63816760e-004,
          -2.13403007e-004, 1.64941903e-005, 3.59715283e-004,
          2.52234662e-004, 2.25479580e-005, 1.80118332e-006,
          -6.52313320e-005, -8.78534993e-005, 1.65948154e-006,
          -8.54585887e-005, -2.89957825e-004, -3.25350411e-004,
          -2.40849535e-004, 2.87395869e-005, 3.23290267e-004,
          2.03084754e-004, -2.28921836e-005, -8.83559187e-006,
          -1.06778512e-004, -1.22717756e-004, -2.29915968e-005,
          4.96292632e-005, -1.15421964e-004, -1.62581593e-004,
          -8.64691974e-005, 9.58020319e-005, 1.85350247e-004,
          8.04876181e-005, 2.64274280e-019, 2.64274280e-019 ]
      - [ 5.42101086e-020, -1.29087550e-006, -2.42236783e-005,
          -1.16649819e-004, -7.81462950e-005, 1.85981597e-004,
          1.40781602e-004, -1.69082006e-004, -1.58717143e-004,
          -1.63773351e-004, -6.53001407e-005, -5.77666797e-005,
          -1.75754132e-004, -2.22048591e-004, -3.08091781e-004,
          -1.30614309e-004, 8.19613051e-005, 2.37988334e-005,
          -3.39458784e-004, -4.66399331e-004, -5.42460584e-005,
          -1.94594788e-004, -1.57001879e-004, -1.88512029e-004,
          -8.22933143e-005, -1.10505811e-004, -3.30243522e-004,
          -1.49660889e-004, -7.62549535e-005, 2.79537617e-005,
          -4.60977244e-005, 3.94067283e-005, 1.58210205e-005,
          -2.64297472e-004, -1.24949627e-004, -2.31351851e-006,
          -1.03867576e-004, -6.39117934e-005, -6.61296435e-005,
          3.05121619e-004, 5.60011016e-004, 5.06077835e-004,
          3.65208281e-004, -1.36835850e-004, -1.97849789e-004,
          -1.75743291e-004, -3.67576751e-004, -1.85131721e-004,
          1.10201203e-004, 3.48468719e-004, 2.47643649e-004,
          4.67114965e-004, 4.31717985e-004, 4.16065450e-004,
          3.75450036e-004, -6.35025935e-005, 1.70717376e-005,
          1.20389464e-004, -3.54629046e-005, -3.12000688e-004,
          4.38831077e-004, 5.19155932e-004, -2.39057827e-005,
          3.64730979e-004, 3.49045033e-004, 2.65417824e-004,
          2.06533208e-004, 3.15825746e-005, 1.90122119e-005,
          1.77152935e-004, 2.37455548e-004, 4.79769114e-005,
          1.91278232e-004, 1.87631522e-004, -2.99722215e-005,
          2.93830439e-004, 2.60779751e-004, -1.79783128e-005,
          -1.26426195e-004, 7.73498641e-007, 1.19531091e-004,
          1.22293204e-004, 1.38065720e-004, 2.25965705e-004,
          -7.83125288e-005, -4.26297556e-005, -2.42979964e-004,
          -1.89585364e-004, -2.96669983e-004, -2.50628917e-004,
          -3.54977034e-004, -3.03649285e-004, 3.34497483e-004,
          1.22921032e-004, 6.72446695e-005, 3.28817150e-005,
          -2.42573922e-004, -2.03163741e-004, -4.07849177e-004,
          -1.57958624e-004, -5.63686481e-005, -2.98176492e-005,
          -1.92540800e-004, -1.61729360e-004, 2.28921985e-004,
          -3.02872564e-007, -3.39766520e-005, -4.65333096e-006,
          -1.54681824e-004, -9.13819458e-005, -3.35605757e-004,
          -1.80555391e-004, -1.35407041e-004, 1.12715963e-004,
          1.53777641e-004, 3.35410819e-004, 8.28204647e-005,
          7.97784378e-006, 5.42101086e-020, 5.42101086e-020 ]
      - [ 1.94777385e-004, 1.40221455e-004, 1.33099791e-004,
          1.46117745e-004, 2.50742654e-004, 1.52716137e-004,
          -3.21867228e-005, -7.48272805e-006, -2.66200987e-005,
          -8.67059571e-005, -1.55546571e-004, -8.15960157e-005,
          -2.66246934e-004, -1.08645720e-004, 1.38247138e-004,
          8.51582590e-005, -1.01915510e-004, -2.53523700e-004,
          -2.94648256e-004, -3.48387577e-004, -4.81822353e-005,
          6.52948220e-005, -3.32584636e-006, -7.39168972e-005,
          -2.49566714e-004, 5.33237253e-005, 3.34088458e-004,
          1.69207182e-004, -4.27837986e-005, -1.54037465e-004,
          -2.12972984e-004, 3.53455798e-005, 1.08029642e-004,
          -1.18332209e-004, 2.61843641e-004, 1.62569049e-004,
          -6.98104050e-005, 2.07012024e-004, 4.16529423e-004,
          3.49233742e-004, 9.58387172e-005, 1.06799625e-005,
          -1.05657899e-004, -1.53309099e-006, 7.48109669e-005,
          -6.74107141e-005, 3.93616720e-005, 2.51233869e-004,
          7.04581616e-005, 2.88379728e-004, 2.86366849e-004,
          2.09059071e-004, -1.88255544e-005, -7.70094266e-005,
          -2.40990048e-004, -1.62820681e-004, 1.04488114e-004,
          -1.26658750e-004, 1.94723849e-004, 2.92538840e-004,
          8.11381251e-005, 1.44536258e-004, 5.52475867e-005,
          6.73854083e-005, 4.93989646e-005, 1.05623287e-004,
          -1.11692556e-004, -2.69903918e-004, 8.57701598e-005,
          -5.25594114e-005, 3.41682375e-004, 2.87474599e-004,
          -7.02170582e-005, 3.67390785e-005, 1.74459827e-004,
          4.32370762e-005, -6.47637207e-005, -1.64462763e-004,
          -2.59143650e-004, -4.59006287e-006, 2.54376500e-004,
          -6.91427122e-005, 1.09218992e-004, 9.70109832e-005,
          -3.57072044e-004, -9.23971529e-005, 2.21332462e-004,
          1.38531410e-004, 8.60576547e-005, -2.09038088e-004,
          -2.50279147e-004, -1.08917018e-004, 1.49013009e-004,
          4.43280529e-004, 2.61472393e-004, -1.85597775e-004,
          -5.38089429e-004, -5.64013550e-004, -3.77493328e-004,
          -2.36603941e-004, -1.62446828e-004, -1.58029463e-004,
          -1.44135993e-004, 2.34771302e-004, 4.50997904e-004,
          3.60479986e-004, 3.93019218e-005, -2.58654880e-004,
          -6.20184233e-004, -5.52812649e-004, -1.46036517e-004,
          -1.50454638e-004, -2.50251724e-005, 1.51246655e-004,
          2.82886933e-004, 2.81895889e-004, 2.02850497e-004,
          1.73057386e-004, -1.11334055e-004, -6.52260132e-005 ]
      - [ 4.06575815e-020, -8.95690664e-006, 2.38946468e-005,
          7.77465975e-005, 1.29916516e-004, 4.81514944e-005,
          -1.93416156e-004, -2.42731636e-004, -1.58120019e-004,
          -1.45718455e-004, -1.36417279e-004, -1.06033425e-004,
          -1.41377895e-004, -1.58120019e-004, -1.58120019e-004,
          -1.55292641e-004, -1.01741512e-004, 1.77484562e-005,
          7.16427749e-005, -6.60462902e-005, -7.03467958e-005,
          -9.97265743e-005, -8.12608196e-005, -5.68140931e-005,
          -1.58120019e-004, -1.12854286e-004, -7.19291056e-005,
          -5.79444786e-005, 3.06658185e-005, 1.08633110e-004,
          1.85161756e-004, 1.75785768e-004, 2.14962929e-004,
          1.10110654e-004, 2.50565121e-004, 1.63052289e-004,
          -1.45479338e-004, -2.97170191e-005, 1.44353471e-004,
          2.48381490e-004, 3.15497251e-004, 3.56811099e-004,
          2.38488501e-004, 1.54112189e-004, 1.69013452e-004,
          1.00019897e-004, 1.16416568e-005, 5.55259467e-005,
          -5.01098948e-005, 1.84745048e-004, 3.17188620e-004,
          3.07574723e-004, 2.90832599e-004, 2.66694900e-004,
          9.81145640e-005, -3.77128927e-005, -5.46007759e-005,
          -2.24344170e-004, -1.78920294e-004, -1.33159556e-004,
          -1.25990759e-004, -9.02878746e-005, 4.25678008e-005,
          2.02904819e-004, 2.90904776e-004, 3.26555106e-004,
          2.74218783e-005, -2.40032459e-004, -1.74108223e-004,
          -1.85851386e-004, -9.63878992e-005, -1.44190519e-004,
          -1.22433659e-004, -7.31912660e-005, 1.02161948e-006,
          3.08599301e-005, 5.37372325e-005, 2.01882154e-004,
          1.50282736e-004, 9.10224262e-005, 5.72377940e-005,
          -2.25597498e-004, -1.63728022e-004, -1.66088532e-004,
          1.36752860e-004, 1.98174472e-004, 2.48876837e-004,
          2.29343044e-004, 2.00973591e-004, 1.74664106e-004,
          1.18054697e-004, 8.73313402e-005, 1.56667171e-004,
          1.70313782e-004, 9.66012813e-005, -1.03663442e-004,
          -1.10085573e-004, -1.48938705e-006, 6.82086375e-006,
          1.65072822e-006, -1.32089190e-004, -1.98280177e-004,
          -2.02556432e-004, -5.16899490e-005, 3.73547300e-005,
          6.28393318e-005, 7.83081996e-005, -1.36207207e-004,
          -3.03629349e-004, -2.21922266e-004, -1.12155085e-005,
          -4.23780111e-005, -3.83792431e-005, 1.89943185e-005,
          2.24153719e-005, 1.43029683e-005, 4.06575815e-020,
          4.06575815e-020, -7.80047048e-005, -4.56997295e-005 ]
      - [ 7.05329221e-005, 1.83921497e-004, 2.04423675e-004,
          1.70873624e-004, 5.14997082e-005, -7.67914171e-005,
          -2.38054243e-004, -2.76123901e-004, -1.74499466e-004,
          -1.59992152e-004, -1.32027402e-004, -1.49159641e-005,
          1.57179296e-004, 1.56706519e-004, 1.83302793e-004,
          1.83302793e-004, 1.47916668e-004, 5.78238250e-005,
          -2.33011699e-004, -3.77021584e-004, -2.13927182e-004,
          2.17292345e-005, 2.02704003e-004, 1.80953619e-004,
          7.26299695e-005, 1.80231378e-004, 2.93708203e-004,
          3.05829657e-004, 3.03589099e-004, 2.47731921e-004,
          7.51027474e-005, 5.93561308e-005, 1.70781481e-004,
          1.11030233e-004, 2.72083678e-004, 6.71742746e-005,
          -1.03766171e-004, 6.02158325e-005, 2.00350929e-004,
          2.13876381e-004, 2.13876381e-004, 2.07669451e-004,
          8.60317814e-005, 2.45801821e-005, 1.54226713e-004,
          1.23934471e-004, -8.27030162e-005, -5.61267734e-005,
          -1.74499466e-004, -1.13595735e-004, -1.28327974e-005,
          3.40386396e-005, 1.55622274e-005, -9.07299273e-006,
          -9.43992854e-005, -5.55921797e-005, 1.46514372e-004,
          -5.02443545e-005, -1.36611518e-004, -1.41007811e-004,
          -1.74499466e-004, -1.74499466e-004, -1.40968201e-004,
          -1.24544720e-004, -6.06759422e-005, 9.94946913e-006,
          -1.60913860e-005, -3.95298594e-005, 4.09255808e-005,
          -1.17635376e-004, -1.03065606e-004, -1.52688939e-004,
          -1.74499466e-004, -1.74499466e-004, -1.25229039e-004,
          -1.33440772e-004, -1.11624628e-004, -5.29772706e-006,
          6.53244251e-006, 1.25189632e-004, 1.12195499e-004,
          -2.93436198e-004, -2.04582844e-004, -1.80223011e-004,
          -1.74499466e-004, -1.74499466e-004, -1.20450401e-004,
          -1.14150258e-004, -3.54202530e-005, 7.11454486e-005,
          7.35438880e-005, 1.05635772e-005, -9.13309923e-005,
          -4.03743870e-005, -3.98995035e-005, -1.78554285e-004,
          -2.67948431e-004, -3.45544453e-004, -3.66965833e-004,
          -2.61654612e-004, -1.95355839e-004, -7.30587926e-005,
          2.76215414e-005, 1.11796850e-004, 4.06575815e-020,
          4.06575815e-020, -2.92028035e-005, -1.91904124e-004,
          -3.28857132e-004, -3.24690278e-004, -2.12767933e-004,
          -1.04344035e-004, -1.26867599e-004, 7.01249301e-005,
          9.31171962e-005, 8.18346962e-006, 4.06575815e-020,
          4.06575815e-020, -8.26022151e-005, -4.83932163e-005 ]
      - [ 5.42101086e-020, -4.01802536e-005, -7.40350733e-005,
          4.09431959e-005, 1.22927144e-004, 3.10378935e-004,
          1.29245629e-004, -7.27716688e-005, -2.55913124e-004,
          -2.34553285e-004, -4.29632055e-005, 7.55347719e-005,
          -2.47597258e-004, -2.76917970e-004, -2.57953303e-004,
          -7.57456291e-005, 3.09249626e-005, 2.06452372e-004,
          6.56551492e-005, -4.78296315e-005, -5.13687810e-005,
          2.02495023e-004, 2.86927796e-004, -1.82995791e-005,
          -2.76917970e-004, -1.30427943e-004, 1.79125873e-005,
          9.40351947e-006, -8.62201850e-005, -1.01822559e-004,
          -2.22793358e-004, -2.33594794e-004, -9.20537514e-006,
          6.84137240e-006, 1.04345279e-004, 1.03990010e-006,
          -2.54368351e-004, 1.47377854e-004, 3.95167415e-004,
          3.69360991e-004, 2.35119660e-004, 9.45217544e-005,
          2.64170030e-005, -2.35296666e-005, 6.25577231e-005,
          -6.37365374e-005, -2.79319385e-004, -8.88764407e-005,
          -1.03462953e-005, 1.20187018e-004, 2.97155144e-004,
          2.80687294e-004, 2.11971404e-004, 1.28525309e-004,
          -1.48252711e-005, -5.62747337e-005, 7.20615062e-005,
          -3.50728747e-004, -2.71381839e-004, -1.85433557e-004,
          -2.34282066e-004, -1.49464162e-004, -5.71901655e-005,
          -1.34832601e-006, 2.57145846e-004, 2.79183383e-004,
          -5.77917162e-005, -1.14145871e-004, -1.19415810e-004,
          -3.12198972e-004, -1.42234858e-004, -2.00794908e-004,
          -2.76917970e-004, -2.76917970e-004, -2.22887611e-005,
          5.29001118e-005, -6.86779531e-005, -1.35885581e-004,
          -3.18741550e-005, 5.42516827e-005, -8.37835178e-005,
          -4.42113465e-004, -2.87456700e-004, -2.37003827e-004,
          -2.76917970e-004, -2.24405885e-004, 6.29195856e-005,
          -9.34224809e-005, -1.68795726e-004, 6.52995277e-006,
          3.65748638e-005, -2.20906455e-004, -1.65064834e-004,
          -6.40712169e-005, -5.26562326e-005, -2.34809355e-004,
          -3.19990475e-004, -2.74999969e-004, -4.79653710e-004,
          -5.02416515e-004, -2.63411814e-004, -8.33375525e-005,
          -1.68052618e-004, -9.21681567e-005, 5.42101086e-020,
          5.42101086e-020, -3.84033992e-005, -2.52365193e-004,
          -2.35201049e-004, -4.20061173e-004, -3.01515247e-004,
          -1.79965777e-004, 2.81707053e-005, 9.71116333e-006,
          -6.81025558e-005, 5.42101086e-020, 5.42101086e-020,
          5.42101086e-020, -1.08626758e-004, -6.36399200e-005 ]
      - [ 4.43066499e-004, 2.21216455e-004, 2.83865702e-005,
          -1.26165629e-004, -1.59527466e-004, -1.87422993e-004,
          -3.56765813e-004, -3.58926336e-004, -2.22292379e-004,
          -2.04857686e-004, -1.91781655e-004, -1.49066662e-004,
          1.86937206e-004, 4.11083347e-005, -9.38122903e-005,
          -2.16826040e-004, -2.22292379e-004, -2.22292379e-004,
          -3.93359689e-004, -5.02932176e-004, -3.48636211e-004,
          -2.14939471e-004, -1.63014411e-004, -9.50190952e-005,
          1.59363146e-004, 1.04744977e-004, 2.73588485e-005,
          -9.82701094e-005, -1.03736442e-004, -9.67625674e-005,
          -2.46036478e-004, -2.59529188e-004, -2.03984877e-004,
          -3.47441732e-004, -6.42616651e-005, -2.71050543e-019,
          1.57934031e-004, 1.37870898e-004, 1.28480082e-004,
          3.17976401e-006, -2.71050543e-019, -2.71050543e-019,
          -1.71067295e-004, -2.89470830e-004, -2.30951642e-004,
          -2.45184463e-004, -2.78707361e-004, -9.05650377e-005,
          1.57934031e-004, 1.27872816e-004, 1.66576850e-004,
          1.06797328e-004, 8.94981276e-005, 7.15366768e-005,
          -7.52106644e-005, -1.15474460e-004, -4.10751018e-005,
          -2.70911260e-004, -1.99204325e-004, -1.40392222e-004,
          1.76294183e-004, 1.70772706e-004, 1.08771026e-004,
          3.03855177e-005, 1.07410575e-004, 1.51011103e-004,
          1.16732015e-004, 4.88588266e-005, 2.17115245e-004,
          1.87006590e-004, 2.11897699e-004, 5.50741288e-006,
          1.57934031e-004, 4.11083347e-005, -1.56006045e-005,
          -1.55425150e-004, -1.40926524e-004, -9.66956359e-005,
          -2.09599573e-004, 1.98449503e-004, 3.31007934e-004,
          1.04096114e-004, 2.37736545e-004, 2.27280820e-004,
          1.57934031e-004, 4.11083347e-005, -2.67263640e-005,
          -1.70813073e-004, -7.21924698e-006, 6.15295066e-005,
          -1.17501673e-004, 2.23594092e-004, 2.84009555e-004,
          4.01427154e-004, 2.90802243e-004, 1.07507676e-005,
          3.27083035e-005, -1.78919407e-004, -2.96898594e-004,
          -2.54590239e-004, -8.03245057e-005, 6.39074424e-005,
          -3.06976581e-005, 1.89604907e-004, 9.39387901e-005,
          1.14475806e-005, -3.89186753e-005, -2.57159991e-004,
          -8.62983798e-005, -9.70941346e-006, 8.42124282e-005,
          -4.12125883e-005, -1.08740263e-004, -1.23583013e-004,
          -6.34347452e-005, -2.71050543e-019, -2.71050543e-019,
          -2.71050543e-019, -1.10690606e-004, -6.48490386e-005 ]
      - [ 3.35471123e-004, 2.44799972e-004, 6.86514250e-005,
          -3.96610449e-005, -1.34482863e-004, -1.57998991e-004,
          -2.56521540e-004, -2.63190508e-004, -1.87394151e-004,
          -1.72696571e-004, -1.61673393e-004, -1.25664315e-004,
          1.45395563e-004, 8.45963295e-005, -4.59897019e-005,
          -1.15693678e-004, -1.87394151e-004, -1.87394151e-004,
          -2.85249582e-004, -3.47928231e-004, -2.59666471e-004,
          -1.80589646e-004, -1.37422379e-004, -8.01018177e-005,
          1.25553837e-004, 1.38242496e-004, 5.61584857e-005,
          -1.11930203e-005, -5.59375258e-005, -3.23944769e-005,
          -9.41914404e-005, -6.05956229e-005, -2.91296146e-005,
          -1.64429133e-004, 4.09128188e-005, 7.24179772e-005,
          1.25553837e-004, 2.10874074e-004, 2.87023198e-004,
          2.53241597e-004, 2.19889029e-004, 2.29104568e-004,
          1.23321297e-004, 5.88215808e-005, 8.02413560e-005,
          -5.62319037e-005, -3.87387990e-005, 7.28604718e-005,
          1.25553837e-004, 1.95956614e-004, 2.00081282e-004,
          1.46905513e-004, 7.11000393e-005, 1.85394256e-005,
          -8.93696342e-005, -4.03476988e-005, 8.89215153e-005,
          -1.15646537e-004, 3.70921261e-005, 1.17248739e-004,
          1.25553837e-004, 8.45963295e-005, -9.98063024e-006,
          -5.72887329e-005, -4.96477114e-005, 5.63965659e-006,
          -9.24901105e-005, -1.48518069e-004, 3.99581586e-005,
          -2.54888946e-005, 1.42478515e-004, 1.08294647e-004,
          1.25553837e-004, 1.28006199e-004, 1.58880590e-004,
          1.05295083e-004, 7.16796640e-005, 1.11528148e-004,
          5.58850370e-005, 1.39793832e-004, 2.21799099e-004,
          -4.04776511e-005, 6.47487250e-005, 8.71885713e-005,
          6.93406328e-005, 6.54516407e-005, 1.08829947e-004,
          7.28162340e-005, 5.80754458e-005, 2.58806667e-005,
          1.34668460e-006, 2.52175432e-005, 1.09805696e-004,
          1.46490085e-004, 2.31919024e-004, 1.34849804e-004,
          -1.58355761e-004, -2.17836510e-004, -2.41731745e-004,
          -2.70315824e-004, -2.66710325e-004, -2.20412941e-004,
          -1.71271357e-004, 1.63639070e-005, 1.59311050e-004,
          1.41404453e-004, 1.88106074e-004, 1.58719398e-004,
          -3.05716094e-004, -2.83803151e-004, -1.77789960e-004,
          -1.63092380e-004, -1.38148840e-004, -9.91345878e-005,
          -4.02934129e-005, 7.00884557e-005, 1.58916257e-004,
          1.41404453e-004, 1.38583811e-004, 2.25780444e-004 ]
      - [ -6.77626358e-020, -1.95411685e-005, 2.86332779e-005,
          -6.49872818e-005, -1.50067877e-004, -1.76309259e-004,
          -3.11693846e-004, -1.77075097e-004, 1.39459647e-004,
          8.90770389e-006, -1.80409465e-004, -1.40227363e-004,
          -1.86969817e-004, -1.81569892e-004, 1.00177058e-005,
          -7.28252198e-005, -2.05275894e-004, -2.09110978e-004,
          -3.44971108e-004, -2.92720477e-004, 3.91185131e-005,
          4.34154708e-006, -1.42007601e-004, -7.80442497e-005,
          -1.71039486e-004, -9.90258632e-005, 1.74626693e-004,
          2.24755524e-004, 3.94382078e-005, -8.30119370e-006,
          -1.00588732e-004, -3.94168055e-005, 2.00818395e-004,
          4.27169334e-006, 1.13517075e-004, 1.71112362e-004,
          -1.67691378e-005, 8.35874671e-005, 2.90970580e-004,
          4.32519882e-004, 3.18927370e-004, 2.70117889e-004,
          1.28940272e-004, 9.33039701e-005, 2.10081911e-004,
          1.25155624e-004, 5.91943062e-005, 2.18204106e-004,
          3.09656980e-006, 1.02676153e-004, 3.64731619e-004,
          2.55824736e-004, 1.08210043e-004, 5.19154310e-005,
          -1.09094610e-004, 2.96689063e-006, 2.10298531e-004,
          -1.03591643e-004, -1.53886824e-004, -1.02725673e-004,
          -1.45830752e-004, -1.23871680e-004, 1.25367311e-004,
          1.71888605e-004, 1.72393229e-005, -6.08988330e-006,
          -1.61557240e-004, -1.65912817e-004, 1.59133648e-004,
          1.82290642e-005, -1.54660866e-005, -4.38508905e-005,
          -5.33396305e-005, -4.10373832e-005, 1.34735237e-004,
          2.50431156e-004, 1.55972724e-004, 1.64833298e-004,
          1.04479986e-004, 2.09427904e-004, 3.50267772e-004,
          5.69322146e-005, 1.26926796e-004, 1.64661396e-004,
          8.30892168e-005, 1.04796978e-004, 2.70658376e-004,
          2.03824078e-004, 1.11488502e-004, 7.20902826e-005,
          -1.35377986e-005, 8.31149882e-005, 2.46167532e-004,
          1.65507518e-004, 2.57095089e-005, -1.46306702e-004,
          -1.88909748e-004, -2.43950315e-004, -7.00996170e-005,
          -7.34059140e-005, -2.65358074e-004, -2.90396885e-004,
          -2.35386076e-004, 5.22617884e-005, 3.33180011e-004,
          1.92437452e-004, -3.10791147e-005, -2.04234166e-004,
          -3.73386283e-004, -3.33243661e-004, 2.69172906e-005,
          9.47029039e-005, -1.20470104e-004, -1.37636074e-004,
          -5.59424043e-005, 4.81658062e-005, 1.38361283e-004,
          7.13324262e-005, -8.79094878e-005, -5.15025313e-005 ]
      - [ -3.38813179e-020, -3.68353540e-005, -9.85594597e-005,
          -1.35112554e-004, -4.69224760e-005, 1.49519328e-004,
          4.64687082e-006, -7.55559813e-005, -3.43749889e-005,
          -1.45244107e-004, -1.86071527e-004, -1.70239073e-004,
          -2.26985416e-004, -2.53865262e-004, -2.53865262e-004,
          -9.33243209e-005, 5.02742660e-005, 6.72364258e-005,
          -3.51737748e-004, -4.62423835e-004, -1.33518233e-005,
          -8.31534853e-005, -5.74114056e-005, -9.33075062e-005,
          -2.53865262e-004, -1.81190117e-004, -1.15483810e-004,
          1.19518227e-005, 5.46925330e-005, 2.11385443e-004,
          -3.72354916e-005, 1.23786856e-004, 1.45922444e-004,
          -2.82390916e-004, -9.95930714e-006, 1.01383046e-006,
          -2.53865262e-004, -1.11697205e-004, 1.34818882e-004,
          2.67493131e-004, 4.73910448e-004, 4.78890492e-004,
          2.41476402e-004, -1.55006463e-004, -1.96437701e-004,
          -2.66345189e-004, -3.40703729e-004, -1.13347749e-004,
          -9.99473632e-005, 1.87841550e-004, 3.53779964e-004,
          3.66579858e-004, 2.91860837e-004, 2.25459662e-004,
          3.63313193e-005, -2.04918178e-004, -3.72530922e-005,
          -2.64929258e-004, -1.76804213e-004, -1.94615423e-004,
          1.83895696e-004, 2.66773306e-004, 2.30259047e-005,
          1.41812037e-004, 2.43990522e-004, 2.35872852e-004,
          3.18162638e-005, -6.08836235e-005, -4.37136332e-005,
          -1.65007059e-005, 1.41235127e-004, 4.43827121e-005,
          5.64620950e-006, 2.78035513e-005, 2.85501028e-005,
          1.08461529e-004, 1.42659395e-004, -2.26439297e-005,
          -1.83077689e-004, 1.46796039e-004, 1.16020354e-004,
          -3.66960332e-004, 1.06689195e-005, 5.47694872e-005,
          -2.44912517e-004, -1.42991717e-004, 1.67450453e-005,
          -2.24880114e-005, -6.18547128e-005, -4.48310711e-005,
          -2.27946322e-004, -2.44917814e-004, 2.01689065e-004,
          3.74981028e-005, 1.13105380e-004, -2.26377757e-004,
          -4.05147875e-004, -4.53072338e-004, -3.94683506e-004,
          -1.80046991e-004, -1.07419808e-004, -8.73829194e-005,
          -1.98146314e-004, -3.03184970e-005, 2.90104072e-004,
          7.35704307e-005, -4.79635928e-005, -3.21851636e-004,
          -5.06311480e-004, -4.02294507e-004, -1.51518587e-004,
          -9.32770708e-005, -4.40396216e-005, 1.54372989e-004,
          1.67279941e-004, 2.87321658e-004, 9.56583026e-005,
          1.36867102e-005, -1.38536139e-004, -8.11625869e-005 ]
      - [ -7.62328182e-006, 2.17271281e-005, 6.84988700e-005,
          9.63657731e-005, 1.98503967e-005, -7.84802905e-005,
          -2.08031939e-004, -2.59349734e-004, -1.34517410e-004,
          -4.03334598e-005, -9.36782453e-006, -7.62328182e-006,
          -5.54123608e-006, -7.11409666e-005, -1.75704394e-004,
          -2.83513218e-004, -1.43096317e-004, 7.88325633e-005,
          1.55272530e-004, 8.63372334e-005, -7.28706873e-005,
          -1.12736037e-004, -3.13877645e-005, 3.78724940e-006,
          -5.40808287e-005, -1.33112830e-004, -2.74654012e-004,
          -2.38809487e-004, -7.92924911e-005, 2.01102623e-004,
          1.69222621e-004, 1.39980853e-004, 1.23510763e-004,
          1.03010614e-004, 1.83726646e-004, 1.21628640e-004,
          -1.62541430e-004, -1.60788448e-004, -8.84358524e-005,
          4.36871524e-005, 1.55460453e-004, 2.87769741e-004,
          1.90730556e-004, 1.41924029e-004, 1.18356205e-004,
          4.92297841e-005, -4.84791090e-005, -3.55075535e-005,
          -1.80010786e-004, -8.66654773e-006, 1.03364167e-004,
          1.15993207e-004, 1.41262528e-004, 1.43757876e-004,
          8.90307565e-005, -6.89010449e-006, -1.48048945e-004,
          -2.35608008e-004, -3.54444055e-004, -3.46417917e-004,
          -2.08076992e-004, -2.68073374e-004, -9.29431626e-005,
          1.64894373e-005, 1.32732559e-004, 1.68049140e-004,
          1.47183428e-005, -1.96218563e-004, -2.59511522e-004,
          -2.75597005e-004, -3.44462664e-004, -2.95665377e-004,
          -5.77439168e-005, -1.02973849e-004, -8.24301314e-005,
          -4.27703417e-005, 1.46184748e-005, 2.56594183e-004,
          3.36135388e-004, 1.37854629e-004, -5.98358420e-005,
          -1.95366243e-004, -1.89344719e-004, -9.67269516e-005,
          3.06909933e-004, 2.56238185e-004, 8.73250901e-005,
          1.02191654e-004, 1.24357364e-004, 1.76271758e-004,
          2.12149025e-004, 6.37002740e-005, -1.91796953e-005,
          -1.53919791e-005, 9.44196363e-005, 8.54609971e-005,
          1.56158421e-004, 2.73960206e-004, 2.52361118e-004,
          6.77182907e-005, -6.18484410e-005, -1.59089919e-004,
          -1.53503192e-004, -2.15937573e-004, -2.71231838e-004,
          -1.22822836e-004, 7.15068163e-005, 1.35593164e-005,
          6.21899062e-007, 8.80833613e-005, 9.74798168e-005,
          1.53064553e-004, 5.72256904e-005, -6.70984082e-005,
          -1.75569658e-004, -1.52764653e-004, -8.93989491e-005,
          -5.75699160e-005, 1.08420217e-019, 1.08420217e-019 ]
      - [ -1.33420137e-004, 2.32797829e-005, 5.81475615e-005,
          8.20318382e-006, -1.59514457e-004, -2.22389994e-004,
          -2.61108216e-004, -3.31818650e-004, -2.72301375e-004,
          -2.09980964e-004, -1.62852419e-004, -6.56182601e-005,
          2.35669810e-004, 1.61222531e-004, 4.54294568e-005,
          5.36882544e-005, 1.48121617e-004, 1.24971484e-004,
          -1.05145773e-004, -1.95669723e-004, -3.10366944e-004,
          -1.64348763e-004, 1.35304625e-004, 2.16170520e-004,
          2.01489383e-004, 1.63540928e-004, 7.48379243e-005,
          1.70730869e-004, 3.41675914e-004, 3.00879037e-004,
          1.87930258e-004, 5.38546374e-006, 7.34401765e-005,
          1.83617361e-004, 2.04141747e-004, 1.83968095e-005,
          -1.01462152e-004, -6.55017138e-005, -4.50831467e-005,
          4.24451791e-005, 2.33045183e-004, 2.38261942e-004,
          1.79702110e-004, 5.40080182e-005, 1.03732840e-004,
          9.73069036e-005, -3.92102047e-005, -1.52737150e-004,
          -2.19042704e-004, -2.72007834e-004, -2.28010234e-004,
          -1.10921312e-004, 6.21913860e-005, 6.21913860e-005,
          2.79847518e-005, -1.45967124e-005, 5.81431523e-005,
          -3.08849994e-005, -1.56663547e-004, -2.19042704e-004,
          -2.14195941e-004, -2.72007834e-004, -2.68197298e-004,
          -2.46797717e-004, -8.83621033e-005, -5.67542047e-005,
          5.05498101e-005, 1.42706995e-004, 8.85758436e-006,
          -1.61924254e-004, -2.37037675e-004, -2.14195941e-004,
          -1.38619769e-004, -1.80926887e-004, -3.02610919e-004,
          -2.36460357e-004, -9.88254978e-005, 4.75361412e-005,
          1.80377669e-004, 1.64013545e-004, -1.29286855e-005,
          -3.02747532e-004, -2.05151009e-004, -1.38619769e-004,
          -2.64637729e-005, -1.48963256e-004, -2.59996654e-004,
          -2.65700422e-004, -9.57784068e-005, 1.65970559e-004,
          2.05846067e-004, 1.00498095e-004, -2.28469973e-004,
          -3.49480135e-004, -1.48963256e-004, -2.64637729e-005,
          -5.42101086e-020, -3.78053919e-005, -1.35538314e-004,
          -1.74868124e-004, -9.04760600e-005, 1.74150828e-005,
