%YAML:1.0
my_svm: !!opencv-ml-svm
   svm_type: C_SVC
   kernel: { type:LINEAR }
   C: 1.
   term_criteria: { epsilon:2.2204460492503131e-016, iterations:300 }
   var_all: 120
   var_count: 120
   class_count: 12
   class_labels: !!opencv-matrix
      rows: 1
      cols: 12
      dt: i
      data: [ 0, 1, 2, 4, 5, 6, 7, 8, 10, 11, 12, 13 ]
   sv_total: 66
   support_vectors:
      - [ -1.14697490e-004, -3.06156609e-004, -7.57694594e-004,
          1.09241658e-003, 3.77792730e-006, -6.29679998e-004,
          -1.98125653e-003, -6.29568147e-003, -5.47023118e-003,
          -4.95588174e-004, -7.69450620e-004, -3.01617605e-004,
          1.13801972e-003, 1.74210836e-005, 2.75896076e-004,
          -2.97690131e-004, -1.16838736e-003, 3.10787232e-006,
          -1.34176109e-003, -3.50329350e-003, -6.48840854e-004,
          2.65703979e-003, 1.54200126e-003, 1.95835787e-003,
          -1.56320340e-003, -1.24196045e-003, -5.61394088e-004,
          -4.27855318e-003, -4.09140624e-003, 1.51675520e-003,
          2.90910760e-003, 3.05762910e-003, 1.66028726e-003,
          -1.48273248e-004, -7.64058088e-004, -5.54723840e-004,
          9.50782305e-006, 3.52470030e-004, -1.82438162e-004,
          -1.21935765e-004, -1.19878736e-003, -2.86733703e-004,
          3.08958552e-004, 4.14988259e-004, 1.19307439e-003,
          -1.49283194e-004, 2.96313432e-004, 3.99283919e-004,
          -3.05694906e-004, 5.76441962e-005, -1.30034823e-004,
          6.04818400e-004, 2.12782354e-004, 1.50191263e-004,
          9.86456434e-005, 4.09956301e-005, 3.29484494e-004,
          -5.13502280e-004, -1.88892736e-005, 8.40811917e-005,
          -4.04340535e-004, 8.19816632e-005, -2.96880957e-004,
          4.23331599e-004, 1.25767452e-017, 1.25767452e-017,
          1.25767452e-017, -1.60138934e-005, 1.89202736e-004,
          -8.39545159e-004, -1.17534917e-004, -1.45644553e-005,
          1.29230437e-004, 4.38269373e-004, -7.20540047e-005,
          6.56681892e-004, 3.52896343e-004, -1.06008979e-003,
          -4.26543382e-004, 8.80373293e-004, 2.33409647e-003,
          -1.42723205e-003, -1.04247643e-004, 4.22664365e-004,
          -1.14547741e-003, -8.33689584e-004, -6.02765300e-004,
          1.02871761e-003, 1.07566058e-003, 1.75518566e-003,
          1.07476464e-003, -9.53911804e-004, -1.39629270e-003,
          -6.41566759e-004, -1.73687702e-003, -6.93957787e-004,
          7.87252211e-004, -3.08062357e-004, 4.85930796e-004,
          9.14178323e-004, -2.10336596e-003, -2.47906521e-003,
          -1.99156860e-003, -3.99366167e-004, 2.23032851e-003,
          1.84822362e-004, -1.74212514e-003, 4.81396099e-004,
          9.64228471e-004, -7.22859928e-004, -4.09211207e-004,
          -5.56102209e-003, -7.24871177e-003, -3.68193048e-003,
          -3.14914418e-004, 9.89750260e-004, 1.38127839e-003,
          -1.65634148e-003, -5.96021244e-004, -9.30590089e-004 ]
      - [ 2.68882139e-017, -1.17885449e-003, -2.06261920e-003,
          -1.00947393e-004, 9.75645555e-004, -2.37496896e-003,
          2.21591647e-004, 1.09220063e-003, 1.06088654e-003,
          -7.66536868e-006, -2.98837386e-003, -1.53430636e-004,
          1.65015328e-004, 4.71421023e-004, 1.44707609e-003,
          1.01825816e-003, 1.00339740e-003, 1.00339740e-003,
          1.03692140e-003, 1.09765888e-003, 9.34557174e-004,
          7.13933550e-004, 2.79252417e-003, 2.94231018e-003,
          5.83369343e-004, 3.43637099e-003, -2.93994555e-003,
          3.22130998e-003, 1.79047405e-003, -3.42425588e-003,
          1.17251545e-003, 8.66261218e-003, 3.03858868e-003,
          6.22466730e-004, -4.53324785e-004, -1.00566435e-003,
          -6.57111173e-004, -3.97324795e-004, -3.40437458e-004,
          -1.25938375e-003, -1.41851371e-003, -1.38770044e-003,
          7.17361399e-004, 2.03745160e-003, 2.01146980e-003,
          7.99110276e-004, 2.85313209e-003, -2.63825292e-004,
          -2.36714448e-004, -2.39955931e-004, -1.33761438e-004,
          -3.51883995e-004, -3.26724927e-004, -3.26724927e-004,
          -1.03341517e-004, 2.20463332e-003, 8.44213122e-004,
          -3.55351949e-004, 2.83099804e-003, -1.70503961e-004,
          -7.60603347e-004, -7.24837009e-004, -3.44976002e-006,
          -7.07148109e-004, -7.39959069e-004, -6.87212800e-004,
          1.19975838e-003, 2.13604118e-003, 1.02513318e-003,
          4.00538353e-004, -1.18265918e-004, -1.06662011e-003,
          -2.06443237e-005, 2.79220239e-005, 2.72156758e-004,
          1.29806262e-003, 3.15765920e-003, 3.85476742e-003,
          1.58525756e-004, 2.04705028e-003, 4.69337497e-003,
          7.22990197e-004, -3.64272884e-004, -3.95848852e-004,
          1.20122008e-004, -4.98417439e-003, -2.48033064e-003,
          -4.37964033e-003, -1.68459909e-003, 2.88125128e-004,
          3.93421529e-003, 1.57312036e-003, -1.10396929e-003,
          -1.10199733e-003, -4.07641113e-004, -2.81411631e-004,
          7.74729706e-004, 9.09239054e-004, 5.17848320e-003,
          8.27618409e-003, 5.73687395e-003, 2.08763289e-003,
          -1.01680704e-003, -1.09608134e-003, -1.08227343e-003,
          -6.43751235e-004, -2.16719316e-004, 2.68882139e-017,
          -2.17112378e-004, 5.52061573e-003, 2.53884704e-003,
          -1.03607599e-003, -1.03968219e-003, -1.06807891e-003,
          -1.10199733e-003, -1.10396929e-003, -8.62842135e-004,
          -5.29881974e-004, -5.23412717e-004, -4.63749107e-004 ]
      - [ -2.09396349e-005, -3.99814999e-005, 8.18787066e-006,
          5.02887269e-005, 7.59236136e-005, -9.84372527e-005,
          2.05451332e-004, 1.65009551e-004, -1.28930085e-004,
          -2.42552822e-004, -4.00802637e-005, 1.85892022e-005,
          6.85475607e-005, 1.69068924e-004, -4.35457623e-005,
          -8.84409310e-005, -9.19874947e-005, -9.19874947e-005,
          2.59419612e-004, 4.98296868e-004, 1.73512730e-004,
          -1.96471621e-004, 1.93190062e-005, -1.75153298e-004,
          -9.78577009e-006, -6.85288614e-005, -3.29677277e-004,
          -2.73798767e-004, -2.73798767e-004, -2.73798767e-004,
          8.31841899e-005, 1.28219559e-004, -5.16658747e-006,
          2.06811092e-004, 1.43282159e-004, -4.44253441e-004,
          7.84667282e-005, 6.08924420e-005, -4.46103397e-004,
          -1.96241715e-004, -6.29257047e-005, 2.79206743e-005,
          5.35613217e-004, 6.65025611e-004, 4.91285115e-004,
          4.77306516e-004, 5.19555470e-004, -9.01384410e-005,
          4.38109419e-005, 2.99656822e-004, 4.11328016e-004,
          4.86554316e-004, 2.84808892e-004, 1.06046682e-004,
          2.76728475e-004, 2.91708770e-004, 6.71653324e-005,
          6.84957544e-004, 6.03427703e-004, 9.96374074e-005,
          9.39780421e-006, 2.03965101e-004, -5.78943582e-005,
          3.35455916e-005, 1.29265216e-004, 2.52347410e-004,
          7.36595714e-004, 9.48467525e-004, 5.94325538e-004,
          4.11401008e-004, 6.09682866e-005, 6.20332066e-005,
          9.40611426e-005, 3.48454167e-004, 4.66496538e-004,
          4.26740735e-004, 2.12898056e-004, -4.36853770e-006,
          7.92855499e-005, -1.92687221e-005, 1.75067849e-004,
          7.24641257e-004, 2.49827950e-004, 2.22066825e-004,
          6.44852189e-005, 7.83758151e-005, -3.12434393e-004,
          -1.80787261e-004, -7.43721394e-005, 6.16037360e-005,
          3.99804238e-004, 1.86939738e-004, -2.39085668e-004,
          -4.00982070e-004, -1.64421377e-004, 2.77733518e-004,
          8.98139333e-005, 2.66549876e-004, 4.21325443e-004,
          4.85356490e-004, 3.33654083e-004, 1.82480435e-004,
          1.29619730e-004, -2.58651417e-004, -4.35142050e-004,
          -3.21551081e-004, -1.31451074e-004, 4.19845484e-004,
          2.58197426e-004, 3.95127630e-004, 2.93390276e-005,
          1.20617478e-004, 4.28297062e-005, -9.64911160e-005,
          -2.91199802e-004, -4.14182898e-004, -2.74204474e-004,
          -1.37289375e-004, 1.10382549e-004, 5.09032543e-005 ]
      - [ 3.03196750e-004, 2.70971126e-004, 3.66947002e-004,
          3.83694278e-004, 5.02400391e-004, 2.11215098e-004,
          1.11830843e-004, 3.40629835e-004, 4.63406213e-005,
          -4.91109386e-004, -2.35050116e-004, -7.11459070e-005,
          -5.78226063e-005, 2.54336104e-004, 3.42495507e-004,
          4.15576040e-004, -3.08938295e-004, -6.73943723e-004,
          -5.10981889e-004, -3.81451857e-004, 4.88876191e-004,
          8.83142493e-005, 4.99583366e-005, -2.37674947e-004,
          -5.00940696e-005, 2.27235985e-004, 4.65207442e-004,
          3.64101783e-004, -3.43738619e-004, -4.64024866e-004,
          -3.78551485e-004, -2.81424636e-005, 2.39080735e-004,
          2.53078411e-004, 1.47307204e-004, -1.33131034e-004,
          4.12725436e-004, 3.73161631e-004, 4.21473698e-004,
          4.32502507e-004, -1.59896677e-004, -1.94678243e-004,
          -1.94678243e-004, 8.06758253e-005, 2.57567299e-004,
          2.75442813e-004, 3.96922434e-004, 3.43242893e-004,
          4.42560529e-004, 4.39033553e-004, 3.20207590e-004,
          4.14749287e-004, -1.14527516e-004, -1.14527516e-004,
          -1.14527516e-004, 5.79310909e-005, 2.79128231e-004,
          3.79222503e-004, 4.59125644e-004, 3.73077957e-004,
          4.34721878e-004, 3.92656715e-004, 3.48384987e-004,
          4.51692671e-004, -5.42522575e-005, -1.22366167e-004,
          -1.22366167e-004, -5.42522575e-005, 2.71289580e-004,
          3.71383852e-004, 4.51286993e-004, 3.65239335e-004,
          4.53205779e-004, 3.90160130e-004, 4.77312627e-004,
          5.83417888e-004, 1.64770499e-005, -1.74085493e-004,
          -1.85974641e-004, -6.86606727e-005, 3.50546528e-004,
          6.22890948e-004, 5.17406967e-004, 3.83723236e-004,
          -1.55924878e-004, 1.23954727e-004, 6.00779967e-005,
          5.65484457e-004, -4.52649692e-005, -4.41546988e-004,
          -4.53942979e-004, -2.33578161e-004, 4.42853692e-004,
          5.67930983e-004, 2.63827009e-004, -1.73817374e-004,
          -4.34640009e-004, -4.72611398e-004, -4.11056419e-004,
          4.24224680e-004, 1.39289899e-004, -3.74182098e-004,
          -5.35132480e-004, -5.39988105e-005, 4.78703761e-004,
          2.43151706e-004, -1.07201668e-004, -7.94906155e-005,
          5.70478951e-005, -2.57599720e-004, -3.56365112e-004,
          -8.42457393e-006, -5.60336048e-005, 7.83945216e-005,
          1.44904421e-004, 1.34421614e-004, 3.42417712e-004,
          6.42466999e-004, 3.79706966e-004, 3.97073076e-004 ]
      - [ -1.97686095e-005, -4.55382678e-006, 1.04072948e-004,
          1.83638127e-004, 1.39339958e-004, -1.33017593e-005,
          -1.70964122e-004, -2.44744064e-004, -2.48504046e-004,
          -2.58326851e-004, -1.45339669e-004, -1.55569651e-004,
          -1.01612477e-005, -7.52402411e-005, -1.56484748e-004,
          -2.37156884e-004, -1.65472244e-004, 5.50110854e-005,
          1.80934032e-004, 9.58578603e-005, -4.24752216e-005,
          -2.35341693e-004, -1.58440831e-004, -2.18419518e-004,
          -1.46945531e-004, -1.61069111e-004, -2.38451612e-004,
          -2.27261931e-004, -7.89446567e-005, 5.03235460e-005,
          1.98642534e-004, 1.98642534e-004, 1.98071633e-004,
          1.90569903e-004, 8.85340996e-005, -9.09511436e-005,
          -9.62090926e-005, -4.14615824e-005, -5.54062317e-005,
          1.18093361e-004, 2.03944161e-004, 2.61804293e-004,
          2.70373159e-004, 2.94960453e-004, 2.86644790e-004,
          1.95311528e-004, 1.05017549e-004, -4.86104218e-005,
          1.43977804e-005, 2.35466432e-004, 2.41848335e-004,
          3.81839258e-004, 4.21612553e-004, 4.17651521e-004,
          3.33005417e-004, 1.87616941e-004, 6.65660991e-005,
          -4.08952037e-005, -6.15642275e-005, -1.24343176e-004,
          -7.69781909e-005, 2.73246451e-006, 6.43538588e-005,
          3.38253827e-004, 4.18431679e-004, 4.05268482e-004,
          1.88601465e-004, 5.95987367e-005, 2.61276364e-005,
          -4.44324505e-005, -8.38625783e-005, -1.42536068e-004,
          -2.93641933e-005, 9.01239328e-005, 5.49745128e-005,
          1.70424566e-004, 1.95651330e-004, 2.81177752e-004,
          2.95020902e-004, 1.49657106e-004, 5.14234926e-005,
          -3.26725203e-005, -3.18349448e-005, -1.03021666e-004,
          2.66253133e-004, 2.71678524e-004, 1.75527603e-004,
          2.19082227e-004, 2.09187448e-004, 1.38519899e-004,
          9.70903420e-005, 6.57058699e-005, 6.87488500e-005,
          5.74576552e-005, 5.58802531e-005, -1.28980364e-005,
          -1.18297285e-005, 1.64154044e-004, 1.32032321e-004,
          1.60743672e-004, -5.76041839e-006, -1.40537362e-004,
          -1.94199412e-004, -1.87220125e-004, -1.66596219e-004,
          -1.02772588e-004, -9.45778629e-006, 2.76810279e-005,
          -1.29044187e-004, -5.26428412e-005, -7.15877468e-005,
          -2.16149601e-005, -1.09114699e-005, 1.71745996e-005,
          -8.11186183e-005, -8.24317540e-005, -6.09126473e-005,
          -2.38963130e-005, -1.94765162e-005, -1.50362748e-005 ]
      - [ 1.05503335e-004, 3.19506420e-004, 3.66947002e-004,
          3.19260027e-004, 4.45161641e-005, -2.75203405e-004,
          -3.55181313e-004, -4.99133661e-004, -4.52829379e-004,
          -4.57265473e-004, -2.44060837e-004, 1.22364014e-004,
          4.00714722e-004, 2.97709019e-004, 3.09001363e-004,
          2.33204715e-004, 1.47452563e-004, -5.44365357e-005,
          -3.91610723e-004, -5.02028968e-004, -4.50093241e-004,
          -3.10804491e-004, 1.48756997e-004, 1.06716019e-004,
          2.22203220e-004, 2.98866187e-004, 3.00092535e-004,
          2.95655511e-004, 2.30642545e-004, -4.71992553e-006,
          -4.51938904e-005, -2.36719206e-005, 2.14738626e-004,
          2.97591847e-004, 2.83326139e-004, 1.35339942e-005,
          -1.33784168e-004, 1.12088586e-004, 1.17019590e-004,
          2.33735205e-004, 1.95996166e-004, 1.35269875e-004,
          8.77199564e-005, 2.15147651e-004, 5.22497925e-004,
          2.22437448e-004, 1.68400671e-004, 5.77834498e-006,
          -2.62012909e-004, -1.63438701e-004, -9.45356005e-005,
          1.91763436e-004, 1.91763436e-004, 1.91763436e-004,
          2.22838426e-004, 3.43235239e-004, 4.83660755e-004,
          2.36506647e-004, 5.80979249e-005, -2.28398894e-005,
          -2.39173023e-004, -1.47640807e-004, -1.53551766e-004,
          -5.42101086e-020, -5.42101086e-020, -5.42101086e-020,
          3.49944807e-004, 3.60614998e-004, 3.83713166e-004,
          3.64850457e-005, -6.79188961e-005, -5.42101086e-020,
          -2.55491177e-004, -1.63958975e-004, -1.69869920e-004,
          -1.94591248e-005, -1.87022561e-005, 1.66798432e-004,
          1.23640872e-004, 2.83023721e-004, 2.53128848e-004,
          -1.37230949e-004, -7.86276869e-005, -1.63181612e-005,
          -2.49816454e-004, -1.60940050e-004, -1.90473205e-004,
          -1.01700025e-004, 9.39080419e-005, 1.38858042e-004,
          1.61353382e-004, 2.06159471e-004, -1.47826097e-004,
          -1.72886226e-004, -7.85623197e-005, -1.23100126e-005,
          -3.02614586e-004, -2.17500623e-004, -3.35258752e-004,
          1.16404799e-005, -1.17436917e-004, -4.29534084e-005,
          1.69888837e-004, 9.19887170e-005, -2.86762021e-004,
          -2.27071432e-004, -1.31693188e-004, -6.66942651e-005,
          -2.74980004e-004, -1.88054546e-004, -2.97401682e-004,
          -2.02994870e-005, -2.28531047e-004, 4.16762450e-005,
          3.99814126e-005, -2.07393910e-004, -1.59767209e-004,
          -9.59974641e-005, -4.55131558e-005, -3.58069847e-005 ]
      - [ -7.38519111e-006, -1.13999340e-005, -4.87016723e-006,
          1.19122669e-004, 1.17463460e-004, 3.31393763e-004,
          8.22890506e-005, -3.43362801e-004, -7.88042264e-004,
          -5.95419959e-004, 1.59059418e-004, 3.83122620e-004,
          -6.92759786e-005, -2.15739856e-004, -6.30753406e-004,
          -4.07401647e-004, -1.77819398e-004, 2.13416861e-004,
          2.22084913e-004, 1.25246050e-004, -3.15968782e-006,
          2.63830647e-004, 4.60256590e-004, -2.10343875e-004,
          -2.89051444e-004, -1.93884742e-004, -3.46808927e-004,
          -1.44134465e-004, -3.49379494e-004, -4.48399223e-004,
          -4.36636648e-004, -3.75970674e-004, 4.52819804e-005,
          2.40810885e-004, -9.95145747e-005, -2.09473816e-004,
          -2.53304635e-004, 2.59477034e-004, 1.87068406e-004,
          3.88189743e-004, 2.62210204e-004, -7.94966982e-005,
          1.31844485e-004, 3.25722736e-004, 2.57328065e-004,
          2.21875234e-004, -7.40810501e-005, -4.57643728e-005,
          2.99198509e-005, 2.58891232e-004, 1.74185581e-004,
          4.47936880e-004, 3.19562707e-004, 5.16751024e-004,
          6.15816680e-004, 4.05567116e-004, 3.62676394e-004,
          -6.52635863e-005, -1.55679983e-004, -9.25874047e-005,
          -2.12860512e-004, -1.33288093e-004, -2.57612002e-004,
          1.13083377e-004, 5.60871151e-004, 5.92187163e-004,
          1.63494537e-004, 4.21812962e-004, 2.05774952e-004,
          -8.71031880e-005, -7.79308029e-005, -1.48382287e-005,
          -2.46828655e-004, -2.35326894e-004, -8.84536494e-005,
          4.40010626e-004, 3.00920074e-004, -2.52321588e-005,
          3.23672808e-004, 3.27894581e-004, 1.64201301e-005,
          -1.19688695e-004, -9.46554210e-005, -3.54465592e-005,
          -2.30660560e-004, -1.18689466e-004, 6.86080093e-005,
          9.97111783e-005, -6.59370344e-005, 6.46209301e-005,
          3.13813653e-004, -3.90141977e-005, -9.65978470e-005,
          -1.06683132e-004, -8.24874005e-005, -1.28770562e-005,
          -1.13281742e-004, 2.22538860e-004, -3.78722383e-004,
          -2.97692139e-004, -1.63496443e-004, 1.73490960e-004,
          -6.41750012e-005, -2.47441378e-004, -2.42013455e-004,
          -2.37634027e-004, -1.36460003e-004, -4.67380742e-005,
          3.02494853e-004, -1.65425387e-004, -5.47893404e-004,
          -3.00167769e-004, -1.83064665e-004, 7.60435341e-006,
          -2.54756393e-004, -2.20828108e-004, -1.65670252e-004,
          -1.13010123e-004, -3.94286399e-005, -2.51100155e-005 ]
      - [ 5.24230534e-004, 1.99466973e-004, -1.21009216e-004,
          -2.64251314e-004, -3.07430164e-004, -3.27150308e-004,
          -3.51275696e-004, -3.52228526e-004, -3.50572314e-004,
          -4.29717853e-004, -3.78877710e-004, -3.78580764e-004,
          2.18162299e-004, 1.12571885e-004, -3.99572236e-005,
          -1.54065609e-004, -1.54065609e-004, -1.54065609e-004,
          -1.51541244e-004, -1.27559746e-004, -1.07829284e-004,
          -1.60209151e-004, -8.57416235e-005, -1.72844753e-004,
          2.02916955e-004, 1.27499865e-004, 7.45426223e-005,
          -3.03715642e-005, -3.03715642e-005, -3.03715642e-005,
          -3.03715642e-005, -3.03715642e-005, -3.33604185e-005,
          -1.11910427e-004, -9.17463985e-005, -1.88090096e-004,
          2.14350963e-004, 1.38219242e-004, 7.45426223e-005,
          -6.31252124e-006, -3.81133373e-006, -3.81133373e-006,
          -3.81133373e-006, -3.81133373e-006, -6.80018729e-006,
          -9.57122611e-005, -8.03123985e-005, -1.76656089e-004,
          2.18162299e-004, 1.49101732e-004, 1.25609193e-004,
          8.15651510e-005, 8.45427567e-005, 8.45427567e-005,
          8.45427567e-005, 7.06006758e-005, 2.75029233e-005,
          -7.72567219e-005, -7.58307870e-005, -1.72844753e-004,
          2.13843450e-004, 2.33852857e-004, 2.34454623e-004,
          2.00866460e-004, 2.66836782e-004, 2.59827240e-004,
          3.97061638e-004, 5.36651700e-004, 5.34352614e-004,
          3.51601397e-004, 2.32484294e-004, -9.02669562e-005,
          2.11661129e-004, 1.28310654e-004, 4.52797321e-005,
          -8.79309082e-005, -1.02834580e-004, -1.11847119e-004,
          -1.23708800e-004, 1.18460644e-004, 4.77095455e-004,
          4.48008650e-004, 5.15072548e-004, 4.07515152e-004,
          1.88183127e-004, 1.13124579e-005, -1.38021715e-004,
          -2.62551650e-004, -1.75473382e-004, -1.08036686e-004,
          -1.47238025e-004, 2.41936126e-004, 3.76897631e-004,
          3.05273745e-004, 2.22367700e-004, 2.02144674e-005,
          3.35806835e-005, -6.80189987e-005, -1.46210630e-004,
          -8.52798985e-005, 8.42153240e-005, 1.78382164e-004,
          3.85027961e-005, 3.74457231e-005, -1.55398535e-004,
          -2.51119840e-004, -1.46881575e-004, -3.66419481e-005,
          1.12241112e-004, 9.46334258e-005, 8.16319589e-005,
          -1.02733735e-004, -2.45524658e-004, -3.20701569e-004,
          -3.10513860e-004, -1.94473774e-004, -1.45578320e-004,
          -6.84894985e-005, -4.71300082e-005, -4.71300082e-005 ]
      - [ 3.23517219e-004, 2.34424035e-004, 9.99879630e-005,
          2.64764712e-005, -1.47812520e-004, -1.88797989e-004,
          -1.95504006e-004, -1.95504006e-004, -1.92972409e-004,
          -2.18244459e-004, -1.92421125e-004, -1.80543633e-004,
          2.09301550e-004, 1.47491301e-004, -2.73539226e-005,
          -7.74756263e-005, -1.72608954e-004, -1.72608954e-004,
          -1.72317305e-004, -1.66324535e-004, -1.50581342e-004,
          -1.73611363e-004, -2.22027025e-004, -2.44581461e-004,
          1.38331874e-004, 1.19868397e-004, -2.35128300e-005,
          -1.19962660e-005, -5.14761196e-005, -3.50880655e-005,
          -2.06887198e-005, 1.56049573e-005, 4.83509502e-005,
          4.13774396e-005, 4.79600567e-006, -3.91259528e-005,
          1.05292689e-004, 1.64920886e-004, 1.38371659e-004,
          1.75004563e-004, 1.90997889e-004, 2.09675476e-004,
          2.04508018e-004, 2.01472692e-004, 2.24672331e-004,
          2.30593054e-004, 2.09058155e-004, 1.00493431e-004,
          1.31759400e-004, 2.25194497e-004, 1.75170528e-004,
          1.64102341e-004, 4.84637349e-005, 1.70986132e-005,
          -1.11339170e-006, -2.53960661e-005, 7.52071865e-005,
          8.69786527e-005, 1.61802076e-004, 1.26960149e-004,
          1.31759400e-004, 1.56664595e-004, 7.61178890e-005,
          8.52852681e-005, 8.13151629e-020, 8.13151629e-020,
          7.28504165e-006, 2.59034350e-005, 1.50839056e-004,
          1.68124097e-004, 2.19473426e-004, 1.26960149e-004,
          1.15603158e-004, 1.95932240e-004, 1.86419187e-004,
          2.21993483e-004, 1.99970993e-004, 2.21635928e-004,
          2.43136499e-004, 2.36542997e-004, 2.24790943e-004,
          1.97607529e-004, 2.04717639e-004, 1.06127096e-004,
          3.10151117e-005, 4.89222075e-005, 6.76507043e-005,
          7.62887139e-005, 5.41393711e-005, 2.37860277e-005,
          3.55046609e-006, -4.01555953e-005, 5.30803709e-006,
          -1.64010526e-005, 1.32528032e-004, 1.43548401e-004,
          -2.56144005e-004, -2.31243102e-004, -1.90021368e-004,
          -1.59655479e-004, -1.60337877e-004, -1.61996300e-004,
          -1.63503966e-004, -1.63503966e-004, -6.98870499e-005,
          -2.38789016e-005, 1.51914748e-004, 3.27056448e-004,
          -1.72472748e-004, -1.99647911e-004, -2.26229924e-004,
          -2.03251184e-004, -1.97304355e-004, -1.97304355e-004,
          -1.83514945e-004, -1.19673648e-004, 2.22783524e-006,
          8.58059648e-005, 2.42111520e-004, 3.83529637e-004 ]
      - [ -1.03885577e-005, -1.35911096e-005, 1.39275318e-004,
          -2.16760218e-005, -2.08343306e-004, -2.93825811e-004,
          -3.13102530e-004, -1.77773618e-004, 1.61069009e-004,
          -1.21020625e-004, -1.74629415e-004, -1.83974087e-004,
          -6.71620655e-005, -1.42501420e-004, 5.03087904e-005,
          -1.48115214e-004, -2.68223521e-004, -3.18912178e-004,
          -3.24397901e-004, -1.71858890e-004, 1.78579285e-004,
          -1.52717024e-004, -2.77286745e-004, -2.93460878e-004,
          -1.14619805e-004, -1.31380250e-004, 7.69658654e-005,
          1.31471897e-004, -6.18221384e-005, -1.52567955e-004,
          -8.15676103e-005, 4.80325725e-005, 3.32824304e-004,
          9.73135175e-005, -1.50019414e-005, 1.23889095e-005,
          1.42303383e-004, 1.47434796e-004, 1.55812406e-004,
          3.79086589e-004, 3.04212765e-004, 2.30319696e-004,
          2.33411411e-004, 2.73980782e-004, 3.81595397e-004,
          2.59551744e-004, 2.10199825e-004, 1.84689663e-004,
          1.74845598e-004, 1.63623365e-004, 3.13087483e-004,
          3.03973153e-004, 2.34972045e-004, 1.57050163e-004,
          1.17131363e-004, 2.52845348e-004, 4.66101454e-004,
          1.02258717e-004, -4.68417602e-005, -1.20455581e-004,
          -7.06237333e-005, -4.39184078e-005, 2.06798795e-004,
          3.10544710e-004, 1.10816363e-004, -7.62338368e-006,
          -3.14460158e-006, 1.31494759e-004, 4.59519186e-004,
          1.40602351e-004, -7.08997959e-006, -3.27930284e-005,
          1.15927018e-004, 1.38276650e-004, 1.93704138e-004,
          4.41959215e-004, 3.16598016e-004, 2.40050082e-004,
          2.83686939e-004, 2.74582359e-004, 3.43429099e-004,
          3.04448447e-004, 3.50407761e-004, 3.51812399e-004,
          2.44363997e-004, 1.74803266e-004, 1.45461920e-004,
          1.03428625e-004, 5.73784637e-005, -9.02175998e-006,
          -6.62204766e-005, 3.86032189e-005, 2.14241154e-004,
          -6.05602472e-005, -9.34638956e-005, -1.01567071e-004,
          -1.52576366e-004, -1.26801664e-004, -1.14430250e-005,
          2.71333265e-005, -1.68054787e-004, -2.94741738e-004,
          -3.00227461e-004, -1.54113717e-004, 1.89758168e-004,
          1.37642792e-005, -7.53483037e-005, -1.04233959e-005,
          -2.01161092e-004, -2.58868880e-004, -1.04206687e-004,
          2.79795531e-005, -1.73654655e-004, -2.94741738e-004,
          -2.83424801e-004, -1.14833914e-004, 7.76594825e-005,
          7.80053870e-006, -7.74951113e-005, -7.16317227e-005 ]
      - [ -5.28840610e-006, -8.83720440e-006, -1.83498905e-005,
          -1.07371103e-004, -1.31722642e-004, 1.60350275e-004,
          2.42094058e-004, 6.44029351e-005, -1.24514903e-004,
          -3.05544032e-004, -1.52982597e-004, -1.29861379e-004,
          -3.99681376e-005, -1.20294149e-004, -3.85099323e-004,
          -2.60946137e-004, 2.82441870e-005, 1.62520064e-005,
          -3.71043541e-004, -3.16036341e-004, 1.70627653e-004,
          -3.12146585e-004, -1.49789004e-004, -2.28655103e-004,
          -3.04814719e-004, -3.31060437e-004, -4.79913986e-004,
          -3.07990151e-004, -1.46944702e-004, -1.49116950e-005,
          -7.53539935e-005, 2.71547353e-004, 1.65660924e-004,
          -2.65932002e-004, -3.13601893e-004, -3.44330765e-004,
          -1.97487636e-004, -1.66721104e-004, -2.53414590e-004,
          2.13580148e-004, 5.63284906e-004, 5.87750343e-004,
          5.32521750e-004, 1.02786209e-004, -5.92741744e-005,
          -1.43403595e-004, -1.49047773e-004, -1.50860520e-004,
          7.35886351e-005, 4.13581001e-004, 3.13706871e-004,
          6.44391926e-004, 5.70758886e-004, 5.45768184e-004,
          5.58339059e-004, 2.31228318e-004, 2.44794530e-004,
          1.73711829e-004, 1.11455913e-004, -5.29443860e-005,
          3.73783201e-004, 5.56734856e-004, 2.08305046e-005,
          2.64697475e-004, 2.93917983e-004, 2.84473557e-004,
          3.32491298e-004, 4.62800555e-004, 2.46311305e-004,
          1.92033607e-004, 2.13292427e-004, 1.78480987e-004,
          2.61450943e-004, 2.37543791e-004, -1.83837663e-004,
          3.30065144e-004, 3.73391144e-004, 1.04013430e-004,
          8.97071805e-005, 3.32960713e-004, 1.47360901e-004,
          -7.02489979e-006, 3.00525571e-004, 4.12429858e-004,
          -1.33275476e-004, -2.76428545e-006, -1.89492115e-004,
          7.08227817e-005, 6.60367878e-005, 9.58952951e-005,
          -9.66366933e-005, -1.21924350e-004, 3.35058983e-004,
          -7.79839320e-005, 6.99112134e-005, 1.83539250e-005,
          -3.03944806e-004, -1.86254430e-004, -2.67209281e-004,
          1.45972881e-004, 1.25973820e-004, 1.53571200e-005,
          -2.51841557e-004, -3.06272414e-004, -6.41946535e-005,
          -3.19759565e-004, -2.71027879e-004, -6.84958432e-005,
          -1.83264114e-004, -4.72052998e-005, -2.42669121e-004,
          -7.52534033e-005, -9.30235910e-005, 6.63395258e-005,
          -8.78696592e-005, 7.96915629e-005, -1.27166655e-004,
          -1.23043181e-004, -2.72714242e-005, -1.25063707e-005 ]
      - [ -1.11130723e-018, -1.07265150e-005, -1.56388065e-004,
          -2.40194451e-004, -7.91250422e-005, -1.65222169e-004,
          2.43541552e-004, 7.94774503e-004, 5.65221417e-004,
          -1.64222147e-004, -2.71871468e-005, -1.17987602e-005,
          -2.45135219e-004, -6.38627243e-005, 8.58632702e-005,
          2.47613410e-004, 2.76936480e-004, 2.53696344e-004,
          5.29935118e-004, 1.17492198e-003, 6.90859451e-004,
          -7.17705581e-004, -3.45303473e-004, -5.10985905e-004,
          2.42654030e-004, -8.01732458e-005, 4.53565335e-005,
          4.51345724e-004, 3.92119400e-004, -3.00946303e-005,
          6.32486672e-006, 2.23357900e-004, 5.23221039e-004,
          -7.09248052e-005, -8.14242376e-005, -2.87504605e-004,
          8.96479323e-005, -2.52271217e-004, -2.74928636e-004,
          -2.24194460e-004, -3.66423832e-004, -4.27456427e-004,
          -3.22877604e-005, 2.39805435e-004, 7.04060658e-004,
          -8.00185153e-005, 4.14033420e-004, -1.04226478e-004,
          8.96479323e-005, -2.56387721e-004, -2.87278206e-004,
          -2.19749272e-004, -2.40414040e-004, -2.14458487e-004,
          -5.82433358e-007, 4.94121516e-004, 6.78128970e-004,
          -2.25649914e-004, 2.24485746e-004, 4.31980763e-004,
          2.82731256e-004, -1.49944361e-004, -2.30343372e-004,
          7.68699192e-006, -1.11130723e-018, 1.31696743e-005,
          5.04035910e-004, 1.26058154e-003, 7.24684855e-004,
          1.26399391e-004, 2.10183440e-004, 4.78355156e-004,
          2.82731256e-004, -1.49944361e-004, -2.35261643e-004,
          2.11530336e-004, 2.85548653e-004, 6.17735554e-004,
          8.20613408e-004, 6.71470654e-004, -3.18832099e-005,
          -5.01666509e-004, 1.63000732e-004, -8.13105071e-005,
          1.92128209e-004, -2.52080819e-004, 1.07275728e-005,
          1.04886468e-003, 7.81368231e-004, 7.31114764e-004,
          5.11190738e-004, 3.38940532e-004, -6.49970607e-005,
          -4.46280290e-004, -2.47994671e-004, -2.67709460e-004,
          6.33781237e-005, 1.69364299e-004, 4.51803266e-004,
          1.19238417e-003, 7.50114501e-004, 5.21230511e-004,
          2.89692893e-004, -2.66003626e-004, -5.54078491e-004,
          -5.13552106e-004, -4.79743117e-004, -3.15753481e-004,
          4.15870367e-004, 2.23682800e-004, 7.63855860e-005,
          4.07305371e-004, 2.00238763e-004, -1.42582459e-004,
          -3.82234401e-004, -4.50805470e-004, -2.72533041e-004,
          -8.34544117e-005, -5.43536225e-006, -1.11130723e-018 ]
      - [ 5.42101086e-020, 8.50103697e-006, -2.65405979e-005,
          -3.68001929e-005, 5.20705689e-005, -3.31217998e-005,
          2.61280482e-004, 3.32863274e-004, 1.34628281e-004,
          4.33353962e-005, 1.51463231e-004, 2.69405100e-005,
          -2.11543193e-005, 1.80880979e-005, -1.70084950e-005,
          2.03870804e-005, 7.19091768e-005, 1.43844387e-004,
          4.50364169e-004, 6.13772077e-004, 2.65330280e-004,
          -2.38426044e-004, -7.96901149e-005, -2.88287585e-004,
          2.27316254e-004, 8.52913672e-006, -1.43815138e-004,
          -3.51461858e-005, -7.59056784e-005, -2.16362809e-004,
          4.17549818e-005, 7.47946324e-005, 3.50327282e-005,
          1.46732214e-004, 2.58522836e-004, -1.05907435e-004,
          1.12643254e-004, -9.06465648e-005, -2.72321282e-004,
          -9.19407175e-005, -4.60523261e-005, 3.25414112e-006,
          4.04121180e-004, 5.86009410e-004, 4.19155782e-004,
          1.64867975e-004, 3.45912587e-004, -6.42828381e-005,
          1.12643254e-004, 4.35439651e-005, 2.00598486e-004,
          2.84109352e-004, 1.52717956e-004, 4.29251668e-005,
          2.12516636e-004, 2.45699281e-004, 1.67802253e-004,
          3.50744900e-004, 4.08908469e-004, 1.10807821e-004,
          2.01109462e-004, 5.09165147e-005, -1.04493593e-004,
          7.55950387e-005, 1.31391382e-004, 2.06986413e-004,
          5.69165277e-004, 7.42639124e-004, 6.26060297e-004,
          2.80968263e-004, 1.47669300e-004, 2.03240023e-004,
          1.72853892e-004, 6.40582148e-005, 2.18227797e-004,
          3.15102603e-004, 1.57089409e-004, 7.47838430e-006,
          1.66529731e-004, 1.30167260e-004, 2.21729482e-004,
          4.89294995e-004, 2.14804808e-004, 2.35243788e-004,
          1.75019683e-004, -3.22863307e-005, -1.66510275e-004,
          -7.96711538e-006, 3.58019897e-005, 1.34688133e-004,
          4.18032025e-004, 3.06080503e-004, -2.00725444e-005,
          -2.95512436e-004, -9.36062133e-005, 2.37170025e-004,
          1.77473979e-004, 2.25172218e-004, 3.91117996e-004,
          4.86725621e-004, 4.34850925e-004, 2.94268539e-004,
          2.34365347e-004, -1.51200293e-004, -3.02897650e-004,
          -2.97004910e-004, -1.87714861e-004, 2.38289955e-004,
          4.54952329e-004, 3.95553798e-004, 1.13282200e-004,
          2.53721082e-004, 1.54635694e-004, -3.58129473e-005,
          -2.06777797e-004, -2.78182968e-004, -1.77344584e-004,
          -7.09077358e-005, 1.68448751e-004, 1.05910374e-004 ]
      - [ 2.55173800e-004, 2.45708157e-004, 2.92604906e-004,
          3.10069881e-004, 4.91473533e-004, 2.63849972e-004,
          2.27552096e-004, 5.38733555e-004, 2.42117094e-004,
          -3.43635067e-004, -1.08190456e-004, -4.62795324e-005,
          -2.42113339e-004, 4.50506377e-005, 2.90888129e-004,
          4.88198857e-004, -1.04694191e-004, -3.40043363e-004,
          -1.93860746e-004, -1.03552695e-004, 4.74932080e-004,
          -7.90125632e-005, -1.99264032e-004, -5.46761905e-004,
          1.55818576e-004, 3.15282872e-004, 4.41394281e-004,
          3.12877208e-004, -3.15601268e-004, -5.57066931e-004,
          -5.14321204e-004, -2.56611063e-004, 9.20419625e-005,
          2.51348014e-004, 2.85639049e-004, 6.01254578e-005,
          3.17415484e-004, 3.02417728e-004, 4.62880300e-004,
          3.38246784e-004, -1.86566584e-004, -2.19329915e-004,
          -1.89152459e-004, 1.54516129e-005, 1.53790985e-004,
          1.79063092e-004, 3.61570914e-004, 2.62878428e-004,
          3.43484164e-004, 3.39167862e-004, 4.01091267e-004,
          3.21482396e-004, -1.28517946e-004, -1.28517946e-004,
          -1.28517946e-004, -9.43683972e-006, 1.35780894e-004,
          2.11880004e-004, 3.99647804e-004, 2.88947136e-004,
          4.72002139e-004, 4.10017499e-004, 4.38987598e-004,
          4.74016706e-004, 4.70320374e-005, -4.33680869e-019,
          -4.33680869e-019, 4.70320374e-005, 2.64298840e-004,
          3.40397964e-004, 5.28165780e-004, 4.17465082e-004,
          3.16414429e-004, 2.66202493e-004, 5.07794612e-004,
          4.89265833e-004, -1.11007837e-004, -3.09445342e-004,
          -3.40535917e-004, -2.49706703e-004, 1.31081906e-004,
          5.09841775e-004, 4.15447576e-004, 2.61877372e-004,
          -7.94942389e-005, 1.77770533e-004, 1.92098436e-004,
          3.32167197e-004, -2.76497623e-004, -4.38826886e-004,
          -2.93954450e-004, -2.32009152e-005, 4.51365806e-004,
          5.86436130e-004, 3.38994520e-004, -7.89281403e-005,
          -4.49605985e-004, -4.53629822e-004, -3.30801558e-004,
          4.73059947e-004, 3.42105195e-004, 1.57008108e-005,
          -1.91631130e-004, -1.11956851e-005, 3.56365752e-004,
          3.51838360e-004, -1.21463170e-004, -1.33525013e-004,
          -4.96238208e-005, -2.52726255e-004, -3.40654624e-005,
          2.65630544e-004, 1.17826421e-004, 8.01629285e-005,
          7.84673466e-005, 6.17513215e-005, 2.36758555e-004,
          4.70930507e-004, 2.40758658e-004, 3.08051531e-004 ]
      - [ -2.43945489e-019, 3.61448588e-006, 7.47128652e-005,
          1.46034989e-004, 1.57152870e-004, -6.85793157e-006,
          -1.42941251e-004, -1.75828172e-004, -1.50762091e-004,
          -2.23186013e-004, -4.81699644e-005, -8.16993779e-005,
          -6.23011219e-005, -8.83777830e-005, -1.26554150e-004,
          -2.27868557e-004, -1.99683360e-004, 3.41917294e-005,
          2.49813282e-004, 2.57029984e-004, 8.00986600e-005,
          -2.49043689e-004, -9.26825960e-005, -1.33885813e-004,
          -1.05913015e-004, -1.25834762e-004, -2.10805010e-004,
          -1.21253484e-004, 3.68594847e-005, 7.86046803e-005,
          1.80016796e-004, 1.75784953e-004, 1.77563605e-004,
          1.66655358e-004, 9.24350898e-005, -3.94829585e-005,
          -4.86259669e-005, -3.03913876e-005, -7.81634953e-005,
          1.57662173e-004, 2.25518525e-004, 2.33947285e-004,
          2.18130226e-004, 2.73279118e-004, 2.79227650e-004,
          1.39342665e-004, 1.08686480e-004, 1.76739977e-005,
          -9.40330392e-006, 2.36642169e-004, 1.82296935e-004,
          3.28183727e-004, 3.67551576e-004, 3.87023261e-004,
          3.35043209e-004, 1.86954072e-004, 8.56555707e-005,
          -7.87406389e-005, -4.84674347e-005, -6.66533670e-005,
          -2.95484970e-005, 1.50334072e-005, 1.37175757e-005,
          3.37865145e-004, 4.18357231e-004, 3.88113986e-004,
          1.91703381e-004, 7.14299313e-005, 5.44858085e-005,
          -5.78644867e-005, -4.06028630e-005, -5.38303757e-005,
          6.48726345e-005, 1.44129925e-004, 3.81395475e-005,
          2.05480945e-004, 2.60375411e-004, 3.05838621e-004,
          3.08731571e-004, 1.45514437e-004, 5.22116607e-005,
          -4.45172227e-005, -5.82345911e-006, -3.59514088e-005,
          3.25496076e-004, 3.24872963e-004, 1.49452273e-004,
          2.17649038e-004, 2.20857837e-004, 1.65688660e-004,
          1.98113368e-004, 2.30230711e-004, 2.42506692e-004,
          1.20944664e-004, 8.62411616e-005, 4.33180105e-008,
          4.03158119e-005, 2.05826727e-004, 1.15334617e-004,
          2.19954760e-004, 4.68409453e-005, -4.63624456e-005,
          -1.06378357e-004, -1.29114211e-004, -1.20418597e-004,
          -7.53126296e-005, 5.28153259e-006, 9.24910819e-006,
          -5.65033806e-005, 1.17713962e-005, -9.29093658e-005,
          1.94538407e-005, 4.17365773e-005, 1.71829597e-005,
          -7.17924850e-005, -9.69122557e-005, -6.25474495e-005,
          -1.91975869e-005, -1.26659711e-006, -2.43945489e-019 ]
      - [ 1.23905600e-004, 3.36248544e-004, 3.91559675e-004,
          2.34391904e-004, -9.94536458e-005, -4.21971956e-004,
          -2.96596612e-004, -2.49893375e-004, -2.22282193e-004,
          -3.17477796e-004, -9.93756330e-005, 7.77191817e-005,
          4.05952043e-004, 3.35352262e-004, 3.47057619e-004,
          2.81891786e-004, 2.54524028e-004, 3.26675654e-005,
          -1.85854427e-004, -1.67513179e-004, -2.11405175e-004,
          -2.45410891e-004, 3.06292932e-004, 1.23343183e-004,
          2.27750279e-004, 3.46916640e-004, 4.01609897e-004,
          5.08466794e-004, 4.74139262e-004, 4.29157190e-005,
          -7.63097196e-005, -6.40637300e-005, 1.45372687e-004,
          2.29677738e-004, 3.52862931e-004, 3.87350265e-005,
          -1.52035776e-004, 5.53446298e-005, 1.31438006e-004,
          3.27607500e-004, 2.74028978e-004, 1.30035492e-004,
          5.37737942e-005, 1.82896809e-004, 5.52184414e-004,
          2.47028249e-004, 2.17741064e-004, -2.65539097e-006,
          -2.89949792e-004, -2.49395904e-004, -1.83925222e-004,
          1.02986007e-004, 1.48070787e-004, 1.76993082e-004,
          2.53269274e-004, 3.94684845e-004, 4.90239996e-004,
          1.91666171e-004, 1.18526812e-004, -3.20217405e-005,
          -2.57928041e-004, -2.31742888e-004, -2.52093974e-004,
          -5.95459278e-005, 5.42101086e-020, 5.42101086e-020,
          3.98015603e-004, 3.59322614e-004, 3.53252224e-004,
          2.76555766e-005, -4.67357950e-006, 5.42101086e-020,
          -2.57928041e-004, -2.31742888e-004, -2.52093974e-004,
          -6.23907181e-005, 1.68560346e-005, 2.74862774e-004,
          1.83555938e-004, 2.77110230e-004, 2.46769836e-004,
          -1.22939775e-004, -4.67357950e-006, 5.42101086e-020,
          -2.65446433e-004, -2.41496440e-004, -2.72422796e-004,
          -1.13621238e-004, 2.03823802e-004, 2.07780467e-004,
          1.87955869e-004, 2.80041510e-004, -3.23002969e-005,
          -1.59647709e-004, -1.36143399e-005, -7.51836706e-006,
          -3.33391043e-004, -3.11269861e-004, -3.80429672e-004,
          1.18067153e-004, 5.66876952e-005, 8.06640601e-005,
          2.71430414e-004, 2.21445429e-004, -1.41536351e-004,
          -1.45220576e-004, -7.74949949e-005, -7.54630018e-005,
          -2.59379623e-004, -2.35023253e-004, -3.51006107e-004,
          1.21027064e-004, -4.96145440e-005, 1.70462677e-004,
          1.36995121e-004, -1.03976708e-004, -7.45312063e-005,
          -1.34735583e-005, -1.45158026e-006, -1.45158026e-006 ]
      - [ -6.56965312e-006, -3.53750547e-005, -3.60176091e-005,
          3.26680201e-005, 1.28380474e-004, 3.62768158e-004,
          2.92233832e-004, 2.46998861e-005, -3.49641807e-004,
          -2.84775684e-004, 2.99529522e-004, 2.68519303e-004,
          -3.50243645e-004, -4.65557037e-004, -6.08406961e-004,
          -3.38190410e-004, -9.18348087e-006, 3.69187095e-004,
          4.57844319e-004, 3.80991580e-004, 1.13101356e-004,
          1.01424121e-004, 4.12497146e-004, -2.83793488e-004,
          -2.85372604e-004, -2.38136403e-004, -2.20471280e-004,
          -2.91073611e-005, -2.21999653e-004, -5.23102994e-004,
          -5.66030503e-004, -5.06564160e-004, -4.39612340e-005,
          2.58024927e-004, 5.69326112e-005, -8.52794183e-005,
          -2.33682120e-004, 3.00899526e-004, 3.37055477e-004,
          4.51709522e-004, 1.90052146e-004, -1.97421818e-004,
          2.43294107e-005, 2.75365892e-004, 2.41195798e-004,
          1.70135245e-004, -1.21317382e-004, -1.20045777e-004,
          1.00753699e-004, 2.41931906e-004, 2.44080584e-004,
          5.38964814e-004, 2.89056887e-004, 5.38759457e-004,
          6.72413793e-004, 4.46481194e-004, 3.99554876e-004,
          -9.45594220e-005, -1.53697212e-004, -9.33275369e-005,
          -2.04437893e-004, -2.00077484e-004, -2.60985864e-004,
          1.55614398e-004, 5.17492299e-004, 5.72870951e-004,
          1.32603411e-004, 4.07572952e-004, 2.06445868e-004,
          -1.10374218e-004, -6.96566349e-005, -9.28695772e-006,
          -2.04437893e-004, -2.51024117e-004, -5.98531806e-005,
          5.20704722e-004, 3.35748045e-004, 7.90890954e-006,
          3.40277824e-004, 3.34104843e-004, 1.65653091e-005,
          -1.10374218e-004, -6.96566349e-005, -9.28695772e-006,
          -2.08111131e-004, -1.52122957e-004, 8.36726758e-005,
          1.71389809e-004, -8.63570313e-005, -1.82813255e-005,
          2.75998987e-004, -5.25280739e-005, -7.16505601e-005,
          -1.54490044e-004, -8.72292367e-005, -2.49164932e-005,
          -1.39224954e-004, 1.01262223e-004, -3.92436574e-004,
          -1.72197979e-004, -1.09208697e-004, 2.93554505e-004,
          7.66044468e-005, -8.78572755e-005, -1.08624903e-004,
          -1.62190539e-004, -1.53078407e-004, -1.38949545e-004,
          2.73058948e-004, -2.07945122e-004, -5.16097527e-004,
          -1.53195608e-004, -1.18403717e-004, 1.11621397e-004,
          -1.49085594e-004, -1.63617049e-004, -1.34101327e-004,
          -7.07668223e-005, -2.77826966e-005, -7.77389141e-006 ]
      - [ 6.15316676e-004, 2.94557365e-004, -1.08296925e-004,
          -2.44267023e-004, -2.46161944e-004, -2.26049888e-004,
          -1.24306855e-004, -9.60136240e-005, -9.60136240e-005,
          -2.80360488e-004, -2.47402146e-004, -3.19249550e-004,
          3.25305504e-004, 7.19120289e-005, -5.65290866e-005,
          -4.33017667e-005, -2.89269192e-005, -5.16339533e-005,
          -6.73486356e-005, -1.09085398e-004, -1.49508516e-004,
          -4.19000367e-004, -3.07329814e-004, -1.83138298e-004,
          2.19209658e-004, 1.18806398e-004, -3.17403828e-005,
          -1.24033744e-004, -1.25717459e-004, -1.02706668e-004,
          -1.99882896e-004, -2.27767610e-004, -1.13504539e-004,
          -2.35684885e-004, -5.69276417e-005, -6.74350740e-005,
          2.19209658e-004, 1.26102503e-004, 2.32610018e-005,
          -6.17362502e-006, 1.62630326e-019, 1.62630326e-019,
          1.62630326e-019, 1.62630326e-019, 1.62630326e-019,
          -2.00220398e-004, -5.43326787e-005, -6.74350740e-005,
          2.19209658e-004, 1.45675105e-004, 7.68833706e-005,
          4.81689385e-005, 4.93694351e-005, 4.93694351e-005,
          4.93694351e-005, 4.00891804e-005, 1.71095035e-005,
          -1.92742009e-004, -5.43326787e-005, -6.74350740e-005,
          2.28047997e-004, 2.09542355e-004, 1.81530399e-004,
          1.74948524e-004, 2.69703451e-004, 2.66208459e-004,
          3.47181107e-004, 4.80372255e-004, 4.82445030e-004,
          1.81750642e-004, 2.16150787e-004, -1.91728509e-006,
          1.37462514e-004, 8.93413671e-005, 4.53061621e-005,
          -7.76358138e-005, -9.98758478e-005, -1.03654667e-004,
          -1.04721781e-004, 9.32465919e-005, 5.27843134e-004,
          4.05995466e-004, 5.07973717e-004, 4.17766219e-004,
          2.11901090e-004, 9.61308469e-005, -2.07704252e-005,
          -7.09513988e-005, -3.37918027e-005, 2.58729392e-006,
          7.00428700e-006, 3.67404311e-004, 5.55449456e-004,
          3.84281389e-004, 3.52420495e-004, 8.32362784e-005,
          7.00274322e-005, 3.36862422e-006, -5.27325428e-005,
          -3.15088764e-005, 1.52613313e-004, 2.63418478e-004,
          1.68974337e-004, 1.52644076e-004, -2.15437485e-005,
          -2.48552766e-004, -1.50815904e-004, -1.01580990e-004,
          1.44627775e-004, 1.76118847e-004, 1.85741170e-004,
          1.18930693e-005, -1.34650254e-004, -1.98062669e-004,
          -2.37448752e-004, -2.28405275e-004, -1.67865757e-004,
          -6.96351635e-005, -1.58670764e-006, 1.62630326e-019 ]
      - [ 3.48111498e-004, 2.67832773e-004, 1.10012857e-004,
          -1.23207337e-006, -1.63778255e-004, -1.89885424e-004,
          -1.22978410e-004, -7.11767425e-005, -6.50300717e-005,
          -1.06122519e-004, -1.13622606e-004, -2.10998405e-004,
          2.20677612e-004, 1.51196888e-004, -2.12728100e-005,
          -6.81272795e-005, -1.42670062e-004, -1.24102997e-004,
          -7.74930741e-005, -4.76998939e-005, -7.15943170e-005,
          -1.83605618e-004, -2.02501746e-004, -2.35383603e-004,
          1.66143305e-004, 1.44999576e-004, 4.54625952e-005,
          5.23373274e-005, 5.36932657e-006, -2.89343498e-005,
          -5.26329095e-005, -4.56347298e-005, -2.66971074e-005,
          -6.02883620e-006, 3.44964828e-005, 6.56322618e-006,
          1.40049931e-004, 2.17834691e-004, 1.87299811e-004,
          2.35264743e-004, 2.28205288e-004, 2.29496465e-004,
          2.30125457e-004, 2.54992308e-004, 2.97216466e-004,
          2.60847009e-004, 2.48383440e-004, 1.33694324e-004,
          1.40049931e-004, 2.50902143e-004, 1.91090250e-004,
          1.67292441e-004, 4.88199112e-005, 2.38274661e-005,
          1.08950062e-005, -1.34879419e-005, 8.05378804e-005,
          6.38077036e-005, 1.64059078e-004, 1.33694324e-004,
          1.53537883e-004, 1.80109171e-004, 7.01048557e-005,
          8.47427509e-005, 8.13151629e-020, 8.13151629e-020,
          8.12764938e-006, 3.25105975e-005, 1.58031064e-004,
          1.61620002e-004, 2.35456522e-004, 1.47182276e-004,
          1.35667724e-004, 2.26244258e-004, 2.05358141e-004,
          2.46412121e-004, 2.23551222e-004, 2.35138432e-004,
          2.57092412e-004, 2.64891802e-004, 2.59979599e-004,
          2.16847198e-004, 2.29923229e-004, 1.29312117e-004,
          7.13074623e-005, 8.58019339e-005, 4.45502992e-005,
          4.22483135e-005, 2.69369411e-005, 2.57320389e-005,
          2.97323022e-005, 1.83251032e-005, 7.17529183e-005,
          5.10194441e-005, 1.61400749e-004, 1.59181800e-004,
          -2.52951839e-004, -2.16451983e-004, -1.82328979e-004,
          -1.24310551e-004, -5.68064352e-005, -5.58378852e-005,
          -7.80311821e-005, -1.47953004e-004, -6.02641048e-005,
          -2.60237302e-005, 1.45215628e-004, 3.39846127e-004,
          -2.03589836e-004, -1.91822459e-004, -1.71641397e-004,
          -1.22408077e-004, -1.32427595e-004, -1.54655281e-004,
          -1.60572148e-004, -1.54135923e-004, -2.82433975e-005,
          6.95701237e-005, 2.50079698e-004, 3.88050132e-004 ]
      - [ 5.42101086e-020, 5.42101086e-020, 1.49708678e-004,
          -1.01235628e-005, -1.39627431e-004, -2.00326002e-004,
          -2.01031668e-004, -5.28189448e-005, 2.57334177e-004,
          -1.51184766e-004, -8.98063881e-005, -1.31081921e-004,
          -7.04733538e-005, -8.12496946e-005, 1.45804297e-004,
          -1.10076377e-004, -2.30279285e-004, -2.26203541e-004,
          -1.75657275e-004, 9.52531900e-006, 2.57278036e-004,
          -1.98631038e-004, -1.65877063e-004, -1.99803573e-004,
          -8.23181836e-005, -9.36667129e-005, 9.87698513e-005,
          1.53727553e-004, -1.62932629e-005, -1.53007742e-004,
          -1.30007160e-004, -1.23200689e-005, 2.62006593e-004,
          5.91898461e-005, 2.93825051e-005, 2.52035643e-005,
          2.45397561e-004, 2.63047114e-004, 1.72386208e-004,
          4.26228304e-004, 3.44602944e-004, 2.34200837e-004,
          2.18195710e-004, 3.01130058e-004, 4.22165991e-004,
          2.68743373e-004, 2.65177281e-004, 2.41832488e-004,
          2.60460627e-004, 2.28700184e-004, 2.68204283e-004,
          2.17093650e-004, 1.57857416e-004, 1.49954460e-004,
          1.34938964e-004, 2.62279675e-004, 4.28637519e-004,
          2.07348567e-005, -3.39066864e-005, -8.20111163e-005,
          4.05263818e-005, 3.53370269e-005, 1.42584831e-004,
          2.45790085e-004, 7.19577147e-005, 5.42101086e-020,
          1.18192966e-005, 1.44786376e-004, 4.35859314e-004,
          8.97246864e-005, 2.54539809e-005, 1.27343546e-005,
          1.73947468e-004, 1.68758110e-004, 1.27320818e-004,
          3.93320865e-004, 3.17566359e-004, 2.53872131e-004,
          3.02767818e-004, 3.14556091e-004, 3.94200382e-004,
          3.08412069e-004, 3.23713321e-004, 3.27975024e-004,
          3.41095845e-004, 2.71854049e-004, 1.22491838e-004,
          9.89929758e-005, 8.16541724e-005, 8.82601817e-005,
          8.96526035e-005, 2.47312739e-004, 3.83016362e-004,
          1.37474899e-005, -3.92916663e-005, -7.22074255e-005,
          -3.24196881e-005, -2.99361636e-005, 3.15274920e-005,
          1.05592189e-004, 5.12838551e-006, -7.86572127e-005,
          -1.25881212e-004, -8.11151403e-005, 1.91297338e-004,
          -4.11479596e-005, -1.25916427e-004, -5.38437089e-005,
          -1.50906417e-004, -1.88753140e-004, -7.29096719e-005,
          5.92242177e-005, -1.43666417e-004, -2.41551708e-004,
          -2.41446789e-004, -1.53798886e-004, 1.94499444e-005,
          -5.07072655e-005, -7.19739401e-005, -5.43281640e-005 ]
      - [ 2.16840434e-019, -1.10669168e-006, -4.27376181e-005,
          -1.25177627e-004, -1.21677942e-004, 1.47080456e-004,
          3.09987867e-004, 1.83211567e-004, -1.11423205e-005,
          -3.44643573e-004, -1.14316506e-004, -1.70904721e-004,
          -1.32996298e-004, -2.03637072e-004, -2.79770902e-004,
          -2.79520144e-004, 5.93567202e-005, 2.03252566e-005,
          -2.42003283e-004, -1.44272308e-005, 4.08567779e-004,
          -3.94402712e-004, -2.39085595e-004, -2.74928258e-004,
          -2.18034547e-004, -2.57175678e-004, -3.79764999e-004,
          -1.19535973e-004, 1.65357997e-004, 1.58789790e-005,
          -4.82289543e-005, 2.72335979e-004, 9.73125570e-005,
          -3.95094161e-004, -2.52865400e-004, -2.30731239e-004,
          -1.33002366e-004, -1.00913749e-004, -1.72542117e-004,
          1.86990568e-004, 4.61896998e-004, 4.13901231e-004,
          3.07950948e-004, -6.25557586e-005, -9.95753071e-005,
          -2.13247986e-004, -1.16073701e-004, -1.17807438e-004,
          8.02664290e-005, 3.73719638e-004, 2.99562962e-004,
          5.20094240e-004, 4.47862898e-004, 4.83852142e-004,
          4.71814739e-004, 2.13770836e-004, 2.22029994e-004,
          2.61308833e-005, 7.84235308e-005, -6.00220264e-005,
          5.23123250e-004, 6.92945381e-004, -6.49787899e-006,
          2.96313869e-004, 3.56594479e-004, 4.57639981e-004,
          4.76377434e-004, 5.86738344e-004, 3.94302886e-004,
          2.30547157e-004, 3.38505022e-004, 3.20446969e-004,
          2.87618837e-004, 2.08092955e-004, -2.01564268e-004,
          2.65911804e-004, 3.37438192e-004, 1.35783281e-004,
          1.61063770e-004, 2.71854777e-004, 1.52832130e-004,
          -4.56697235e-005, 3.12352204e-004, 3.96921678e-004,
          -8.83060857e-005, -2.27317341e-005, -2.41691334e-004,
          4.51411070e-005, 3.92229849e-005, 4.15954673e-005,
          -7.30574538e-005, -6.58280260e-005, 2.80085689e-004,
          -8.58811618e-005, 1.80413233e-004, 4.84823177e-005,
          -2.50241661e-004, -1.58569470e-004, -2.86258408e-004,
          5.87456670e-005, 1.94877488e-004, 1.89396073e-004,
          1.27306419e-006, 1.87943242e-005, 8.21658614e-005,
          -2.57552107e-004, -2.03731746e-004, -8.82762979e-005,
          -1.54388545e-004, -5.38735221e-005, -2.95751262e-004,
          -3.92060929e-006, 7.47231024e-005, 2.01657065e-004,
          2.88033357e-006, 9.78544122e-005, -1.43697107e-004,
          -6.70326626e-005, -2.12549821e-006, 2.16840434e-019 ]
      - [ 6.50521303e-019, 2.81995483e-007, -3.02630979e-005,
          8.83397752e-006, 1.71014297e-004, 5.64876354e-005,
          2.42788621e-004, -5.00946153e-005, -9.15310593e-005,
          4.90764287e-005, 2.22461895e-004, 2.46303302e-004,
          -8.27420517e-005, 2.21269020e-005, -4.22795165e-005,
          -6.02313376e-005, -6.02313376e-005, -6.02313376e-005,
          2.56701867e-004, 1.21267927e-004, 8.73377212e-005,
          -7.33239576e-005, 5.13000214e-006, -2.94553058e-004,
          9.23591288e-005, -4.27647101e-005, -4.80185641e-004,
          -4.59767471e-004, -4.74313914e-004, -4.81291994e-004,
          -1.70708023e-004, -4.83708194e-004, -5.55269944e-004,
          2.35293090e-004, 4.84664226e-004, 5.95852034e-005,
          5.40619149e-005, 6.05827227e-005, -1.69393141e-004,
          -4.10045795e-005, 7.67377132e-005, 1.78456539e-004,
          6.07726746e-004, 7.66681740e-004, 5.05125325e-004,
          5.35201480e-007, 3.06580769e-004, 6.71000525e-005,
          3.49133079e-005, 2.47607823e-004, 5.86000097e-004,
          5.70612669e-004, 3.54933902e-004, 1.67208811e-004,
          2.91906705e-004, 2.52592610e-004, 2.72412872e-004,
          8.12465849e-004, 3.49704467e-004, -1.13142727e-004,
          9.23591288e-005, 2.30681675e-004, 1.97473310e-005,
          1.14293500e-004, 2.24654636e-004, 3.39082093e-004,
          7.55077635e-004, 1.02598686e-003, 8.67942348e-004,
          3.70470225e-004, 9.40502068e-005, -1.64492260e-004,
          9.23591288e-005, 2.73037265e-004, 4.41694108e-004,
          3.52565083e-004, 1.25444261e-004, -2.03109143e-004,
          -2.00053953e-004, -4.97161236e-004, 1.21557343e-004,
          1.32968416e-003, 2.60038010e-004, 5.22359624e-004,
          3.60157501e-005, -2.93547753e-004, -9.40237602e-004,
          -9.38329729e-004, -9.00229963e-004, -7.49094819e-004,
          -1.04683269e-004, -7.54140492e-005, -1.30691129e-004,
          -1.93343876e-004, -1.74714645e-004, 8.21033085e-004,
          -6.99114316e-005, 4.31779299e-005, 8.66605697e-005,
          -4.68363287e-005, -1.19224576e-004, -1.30023604e-004,
          6.18752529e-005, -2.32338152e-005, -1.03445833e-004,
          -5.91904573e-005, -6.77470598e-005, 1.20680686e-003,
          2.83099536e-004, 2.91993201e-004, -1.36326853e-004,
          -7.36295215e-006, -4.89456725e-005, 8.53497040e-005,
          1.48164763e-004, -2.64483351e-005, -1.44931355e-005,
          -8.71313478e-006, 5.51228761e-004, 3.22942098e-004 ]
      - [ 2.66100687e-004, 2.39839646e-004, 2.28733246e-004,
          1.64029640e-004, 1.94402397e-004, 1.04152990e-004,
          7.48356251e-005, -8.79807340e-005, -6.52703966e-005,
          -4.83633630e-005, -2.41008001e-005, 6.75508491e-005,
          -1.84542252e-004, -6.30293143e-005, 1.66733575e-004,
          1.25904044e-004, -1.55154587e-004, -3.04548303e-004,
          -1.89759754e-004, -3.75397532e-004, -1.53012850e-004,
          8.15669555e-005, -8.58173080e-005, -2.42040303e-004,
          -1.13767048e-004, 1.02552563e-004, 1.62167620e-004,
          -3.95386887e-005, -3.33929958e-004, -5.22303453e-004,
          -3.59163707e-004, -3.25533329e-004, -1.51018423e-004,
          -2.45440970e-005, 1.75636538e-004, 1.72508633e-004,
          1.00295772e-004, 2.88965268e-004, 3.05023947e-004,
          3.49700305e-004, 7.76748420e-005, -2.50291323e-005,
          4.61543932e-005, -9.90680928e-005, 5.46996125e-005,
          2.65438808e-004, 6.47387860e-005, 1.98846727e-004,
          1.63879333e-004, 3.15675832e-004, 2.85085291e-004,
          3.44498258e-004, 7.15839560e-005, 7.15839560e-005,
          6.96657080e-005, -5.15828797e-005, 9.79042015e-005,
          2.44668394e-004, 1.75054680e-004, 6.79059667e-005,
          1.82005140e-004, 3.55263590e-004, 2.85085291e-004,
          4.07371321e-004, 1.62856915e-004, 1.03569517e-004,
          2.58965247e-005, -2.52159574e-004, 4.97356496e-006,
          2.03886855e-004, 3.32778320e-004, 1.26729457e-004,
          3.93271694e-005, 2.40186229e-004, 3.51847499e-004,
          3.53674201e-004, 6.48963687e-005, -2.36026666e-004,
          -3.51106166e-004, -3.84545157e-004, 8.83549947e-005,
          4.73023800e-004, 2.03256655e-004, 2.25032447e-004,
          -2.30053978e-004, 7.83118594e-005, 7.89281476e-005,
          -4.23024394e-005, -2.61467358e-004, -4.74283472e-004,
          -4.60676296e-004, -2.45149597e-004, 3.41741368e-004,
          6.75823772e-004, 3.10852454e-004, 6.35618417e-005,
          -3.95691401e-004, -3.40666709e-004, -4.33137408e-004,
          -1.46057151e-004, -6.23328669e-005, -1.21228426e-004,
          -1.30686603e-004, 1.22522397e-004, 4.82404372e-004,
          4.31385735e-004, 9.08026341e-005, -1.08420217e-019,
          -1.67711361e-004, -1.89956118e-004, -2.74469610e-004,
          -1.70687374e-004, -6.06207359e-005, 1.77951748e-004,
          3.58827208e-004, 3.70568276e-004, 3.56144621e-004,
          3.28260881e-004, 1.25904451e-004, 1.25904451e-004 ]
      - [ 1.89735380e-019, -1.61240905e-006, 5.27934171e-005,
          8.61460940e-005, 1.55285321e-004, 6.53739990e-005,
          -2.57026637e-004, -3.13204539e-004, -2.07269331e-004,
          -1.40271746e-004, -2.77397030e-005, -1.67021790e-005,
          -1.04413470e-004, -1.28528380e-004, -2.20138434e-004,
          -2.38647655e-004, -2.04676369e-004, 6.22366997e-006,
          1.12942791e-004, -5.49117140e-005, -1.74488541e-005,
          -1.04128092e-004, -8.08707046e-005, -1.06863889e-004,
          -5.92110737e-005, -1.24364946e-004, -2.28119825e-004,
          -1.94017295e-004, -1.25263105e-004, 2.41170019e-005,
          1.33540787e-004, 3.90653840e-005, 1.19996141e-004,
          2.97909690e-004, 2.86090159e-004, 1.20595287e-004,
          -6.57738346e-005, -6.56702541e-005, -3.67314169e-005,
          2.34015184e-004, 3.38091166e-004, 4.43117577e-004,
          2.75485334e-004, 1.57911723e-004, 2.98354251e-004,
          1.62307886e-004, 5.55118058e-005, 2.52863010e-005,
          4.35550319e-005, 1.70248197e-004, 1.87743324e-004,
          4.55720874e-004, 4.55720874e-004, 4.54579742e-004,
          2.59572349e-004, 9.68939348e-005, 2.16523240e-005,
          -1.36105838e-004, -2.09933802e-004, -1.84995137e-004,
          -2.54971274e-005, -4.52526729e-005, 1.70539606e-005,
          4.27114632e-004, 4.72632964e-004, 4.88409889e-004,
          1.48978914e-004, -4.18531818e-005, -2.88750216e-005,
          6.10034647e-007, -6.60005171e-005, -2.02413445e-004,
          2.84380912e-005, 5.16014770e-005, 2.20111888e-005,
          2.34642823e-004, 2.29176803e-004, 2.55304738e-004,
          1.43216559e-004, 7.81712661e-005, 1.60018259e-004,
          1.73424429e-004, 7.14671187e-005, -1.15981093e-004,
          3.87539156e-004, 2.72098230e-004, 4.85945820e-005,
          5.32048107e-005, 8.86941780e-006, -5.25506002e-005,
          -3.25369547e-005, 5.88602015e-005, 2.35255560e-004,
          2.25517622e-004, 7.21319229e-005, 1.92510070e-005,
          -7.31824639e-006, 1.10254565e-004, 7.71682971e-006,
          -2.44056519e-005, -1.74235131e-004, -2.08624420e-004,
          -2.44320137e-004, -5.78111758e-005, 3.73700750e-005,
          5.21317670e-005, 1.93658634e-005, 1.30062517e-005,
          -1.67868857e-004, -1.74061395e-004, -1.41676006e-004,
          -8.16104948e-005, -1.58288836e-004, 3.30373987e-005,
          1.06991552e-004, 2.83485679e-005, 1.89735380e-019,
          1.89735380e-019, 1.89735380e-019, 1.89735380e-019 ]
      - [ 9.12221076e-005, 3.07615148e-004, 4.19075019e-004,
          3.13022465e-004, 4.26387087e-005, -2.21551483e-004,
          -3.25174478e-004, -5.52434067e-004, -4.31991037e-004,
          -2.79766449e-004, -1.38215750e-004, 5.21490656e-005,
          3.35308607e-004, 2.71147728e-004, 2.26938282e-004,
          2.07836114e-004, 1.77904600e-004, 2.14406155e-005,
          -2.50509300e-004, -5.55029139e-004, -5.24838688e-004,
          -5.82909488e-005, 2.38154680e-004, 6.90291345e-005,
          1.25536084e-004, 2.65760202e-004, 2.18810237e-004,
          2.51377322e-004, 2.02082374e-004, 2.40156860e-005,
          4.08358865e-005, -4.08218657e-005, 1.17572941e-004,
          3.16978316e-004, 3.15875484e-004, 4.47089697e-005,
          -1.41565193e-004, 3.56652890e-005, 3.17655285e-005,
          2.48291850e-004, 2.62673275e-004, 2.08488113e-004,
          1.53900241e-004, -2.25656204e-005, 2.19176625e-004,
          2.61194218e-004, -7.12771507e-005, -1.66041820e-004,
          -1.99023794e-004, -1.37984549e-004, -1.85180121e-004,
          5.39016073e-005, 7.76939269e-005, 7.76939269e-005,
          1.40626653e-004, 1.51597807e-004, 1.23891732e-004,
          1.38307223e-004, -4.15941649e-005, -2.68943462e-004,
          -1.84833058e-004, -1.29433727e-004, -2.12897430e-004,
          -2.37923214e-005, -1.08420217e-019, -2.55113150e-006,
          2.47570017e-004, -1.72586097e-005, 1.77908260e-005,
          -1.16740230e-005, -6.34476964e-005, -2.01292132e-004,
          -1.84833058e-004, -1.29599881e-004, -2.30523161e-004,
          -9.32943149e-005, -1.26604937e-004, -5.47612472e-005,
          -4.36618902e-005, -1.12290090e-005, 1.12113645e-004,
          -5.13338964e-005, -1.60612937e-004, -5.87102077e-005,
          -1.84833058e-004, -1.89513798e-004, -3.73534102e-004,
          -4.36274917e-004, -2.67016410e-004, -7.39154711e-005,
          3.92556758e-005, -1.41724095e-005, -7.90037157e-005,
          -2.72690031e-005, -3.63444124e-005, -1.08420217e-019,
          -2.54726154e-004, -2.93411082e-004, -5.70479024e-004,
          -2.75868748e-004, -1.89551269e-004, -6.18285339e-005,
          1.36944553e-004, 5.45107323e-005, -9.35632124e-005,
          -3.82082289e-005, -1.08420217e-019, -1.08420217e-019,
          -1.84666889e-004, -1.98420996e-004, -4.35301423e-004,
          -1.01571452e-004, -1.78267175e-004, 7.03343103e-005,
          1.31544744e-004, -4.76881360e-006, -1.08420217e-019,
          -1.08420217e-019, -1.08420217e-019, -1.08420217e-019 ]
      - [ -1.08420217e-019, -1.84666824e-005, -1.92245243e-005,
          6.14898090e-005, 1.58391980e-004, 3.34040262e-004,
          1.64395213e-004, -1.76970701e-004, -4.49910731e-004,
          -2.77151790e-004, 1.39830183e-004, 2.46940763e-004,
          -2.29658486e-004, -3.03731125e-004, -4.03244892e-004,
          -2.18763555e-004, -1.17154677e-005, 2.04188415e-004,
          1.27602354e-004, -6.69009751e-005, -1.04310508e-004,
          2.41964852e-004, 3.59821744e-004, -9.50985414e-005,
          -1.81446259e-004, -6.75605334e-005, -2.08040234e-004,
          -1.84970791e-004, -3.12141870e-004, -3.73977702e-004,
          -4.30493004e-004, -4.19457996e-004, -8.00253183e-005,
          2.21687806e-004, 1.15234739e-004, -2.08676029e-005,
          -1.34913658e-004, 3.17687663e-004, 2.61297362e-004,
          4.70216502e-004, 3.72715935e-004, 9.03105756e-005,
          7.68175087e-005, 1.37762516e-004, 1.43975267e-004,
          1.79899027e-004, -2.60997476e-004, -9.22853360e-005,
          1.54497422e-004, 2.83449743e-004, 1.86411271e-004,
          4.45582584e-004, 4.01058875e-004, 3.66236869e-004,
          3.56956385e-004, 9.39425008e-005, 8.14951563e-005,
          -1.91223098e-005, -1.08574386e-004, -2.94576108e-004,
          -1.15603529e-004, 5.38620588e-005, -9.52379851e-005,
          1.89018145e-004, 4.24530212e-004, 4.66173602e-004,
          5.00871611e-005, -2.68991989e-005, -5.45999428e-005,
          -9.05293200e-005, -3.43322936e-005, -2.39688554e-004,
          -1.61485048e-004, -8.70419826e-005, -6.33296149e-005,
          2.91515054e-004, 9.00652885e-005, -2.18644214e-004,
          -6.02313085e-005, -2.42921797e-005, -8.27401091e-005,
          -2.01694165e-005, -1.36305956e-004, -5.26180702e-005,
          -1.61485048e-004, -5.74155492e-005, -1.22707715e-004,
          -2.96235638e-004, -4.67020669e-004, -1.77090376e-004,
          2.05243086e-005, -1.01931648e-004, -1.61341995e-005,
          -1.95379525e-005, -2.84128291e-005, -1.08420217e-019,
          -1.41093478e-004, -8.06859971e-005, -5.84451656e-004,
          -5.66812290e-004, -2.27788420e-004, 1.12670414e-005,
          -1.41397482e-004, -8.13738880e-005, -2.17197485e-005,
          -8.90509727e-006, -1.08420217e-019, -1.08420217e-019,
          5.07730547e-005, -2.98888714e-004, -5.80733467e-004,
          -2.39615591e-004, 2.92573932e-005, 5.41794070e-005,
          -5.09964593e-005, -3.04076480e-006, -1.08420217e-019,
          -1.08420217e-019, -1.08420217e-019, -1.08420217e-019 ]
      - [ 4.03237238e-004, 1.54106106e-004, 1.61511707e-005,
          -1.02427824e-004, -1.26390005e-004, -1.43834768e-004,
          -1.96709909e-004, -3.12444754e-004, -2.06743047e-004,
          -1.53153189e-004, -1.29372856e-004, -8.75230544e-005,
          2.06245852e-004, 2.37964414e-005, -6.78981305e-005,
          -1.66242156e-004, -1.66242156e-004, -1.66242156e-004,
          -2.07935445e-004, -3.85271938e-004, -3.30982817e-004,
          -1.88493606e-004, -1.53161003e-004, -1.18314856e-004,
          1.60668380e-004, 4.59645562e-005, -3.93348055e-005,
          -1.46726568e-004, -1.48325635e-004, -1.42501987e-004,
          -1.82886608e-004, -3.25079687e-004, -3.01350607e-004,
          -2.89318152e-004, -1.23270627e-004, -1.33542903e-006,
          1.60668380e-004, 9.73175411e-005, 9.83440186e-005,
          -1.62630326e-019, -1.08096947e-005, -2.91814399e-006,
          -4.94613887e-005, -1.91180254e-004, -1.46276259e-004,
          -1.19253069e-004, -2.30556630e-004, -1.00300014e-004,
          1.60668380e-004, 1.06728985e-004, 1.68443294e-004,
          1.24389917e-004, 1.24389917e-004, 1.24389917e-004,
          8.23524751e-005, -4.30046384e-005, -3.76169955e-005,
          -7.93685103e-005, -1.69307808e-004, -2.87027768e-004,
          1.79491268e-004, 2.53879058e-004, 2.41328933e-004,
          1.63645978e-004, 1.67315535e-004, 1.59976422e-004,
          2.81926157e-004, 2.99531443e-004, 3.40307452e-004,
          2.81508459e-004, 1.63732679e-004, -1.74171160e-004,
          1.60668380e-004, 9.73175411e-005, 1.18893513e-004,
          1.10086585e-005, 1.35060855e-005, 2.72195612e-005,
          -2.73145106e-005, 1.04767983e-004, 2.95803329e-004,
          3.59699974e-004, 2.60927773e-004, 2.79267551e-004,
          1.60668380e-004, 4.81738352e-005, -5.44868344e-005,
          -2.63930386e-004, -2.25988435e-004, -1.66453741e-004,
          -2.06188764e-004, 1.26146930e-004, 3.41791078e-004,
          3.76890996e-004, 2.62186775e-004, 2.00777897e-004,
          2.81731045e-005, -1.62477532e-004, -2.65367766e-004,
          -2.38159904e-004, -7.30176471e-005, 1.63680961e-005,
          -5.84521040e-005, 7.30123429e-005, 4.87014913e-005,
          -2.25893073e-005, -1.12922298e-005, -1.62630326e-019,
          6.21408399e-005, 8.31763609e-005, 8.64737558e-006,
          -1.11160945e-004, -1.58620271e-004, -1.60624055e-004,
          -8.09987323e-005, -1.03093207e-005, -1.62630326e-019,
          -1.62630326e-019, -1.62630326e-019, -1.62630326e-019 ]
      - [ 2.70766963e-004, 2.08227590e-004, 7.52235137e-005,
          -1.36298386e-005, -1.38861200e-004, -1.52278153e-004,
          -1.87289828e-004, -2.55004416e-004, -1.77032882e-004,
          -1.34824368e-004, -9.53343770e-005, -4.05528481e-005,
          8.80994921e-005, 7.35767098e-005, -3.68694309e-005,
          -7.90134218e-005, -1.65287944e-004, -1.65287944e-004,
          -1.90039631e-004, -2.75202154e-004, -2.53366685e-004,
          -1.75422640e-004, -1.36707473e-004, -7.59777176e-005,
          8.05769305e-005, 8.46480834e-005, -3.53531941e-005,
          -5.92628930e-005, -1.04446983e-004, -8.21795766e-005,
          -9.34760174e-005, -1.69658160e-004, -1.05959240e-004,
          -9.48431534e-006, 9.03832843e-005, 1.15707371e-004,
          6.71716116e-005, 1.59861200e-004, 1.97960675e-004,
          2.28571182e-004, 2.32071397e-004, 2.44224851e-004,
          2.09639809e-004, 9.72670387e-005, 1.27800115e-004,
          1.06433065e-004, 7.80299524e-005, 8.27201802e-005,
          6.71716116e-005, 1.71101085e-004, 1.79236202e-004,
          1.50539796e-004, 4.16427720e-005, 1.82661879e-005,
          -2.00590039e-005, -1.05871601e-004, -1.94751083e-005,
          -2.86402319e-005, 6.35986653e-005, 5.12369807e-005,
          8.05769305e-005, 1.21114215e-004, 8.92337412e-005,
          8.62745219e-005, 2.16840434e-019, -4.75097437e-007,
          -3.81099417e-005, -1.35327165e-004, -3.71770839e-005,
          7.93835352e-005, 2.10395156e-004, 7.67225938e-005,
          8.05769305e-005, 1.67468868e-004, 1.68862636e-004,
          1.78504837e-004, 1.47478961e-004, 1.25556922e-004,
          1.02559658e-004, 6.04084998e-005, 2.00964409e-004,
          2.54830637e-004, 2.06740820e-004, 1.31996392e-004,
          2.12847444e-005, 3.04272762e-005, -2.43728373e-005,
          -8.14769155e-005, -9.88355168e-005, -9.78386524e-005,
          -7.59578106e-005, -8.54714453e-005, 7.53469722e-005,
          1.15876363e-004, 1.67099075e-004, 1.70998755e-004,
          -1.93554079e-004, -2.27142227e-004, -2.50632962e-004,
          -2.09728416e-004, -1.91684943e-004, -1.70202067e-004,
          -1.50800814e-004, -9.71661357e-005, 4.72305837e-005,
          1.05851192e-004, 1.92673222e-004, 3.12121643e-004,
          -1.54666297e-004, -1.70376952e-004, -1.78102622e-004,
          -1.64186858e-004, -1.53908535e-004, -1.05320134e-004,
          -4.58193390e-005, -5.46615092e-006, 8.62745219e-005,
          1.24293801e-004, 2.20062400e-004, 3.16585065e-004 ]
      - [ 1.35525272e-019, -9.65786330e-006, 1.19028802e-004,
          -9.26681387e-005, -2.34550753e-004, -3.05317604e-004,
          -3.40008468e-004, -2.59816588e-004, 7.90927588e-005,
          1.89938110e-005, -6.09226481e-005, -1.85370463e-005,
          -1.78085713e-004, -1.87519254e-004, 4.49275758e-005,
          -1.44735634e-004, -2.73907004e-004, -3.34280456e-004,
          -3.40008468e-004, -2.68082047e-004, -5.37770175e-005,
          -9.21461615e-005, -1.71537744e-004, -1.07871230e-004,
          -1.12900692e-004, -9.75448129e-005, 7.03524565e-005,
          5.56396044e-005, -1.59194387e-004, -2.05393619e-004,
          -1.93967629e-004, -1.88866354e-004, 7.85267985e-005,
          1.08920663e-004, 1.22471276e-004, 1.99847913e-004,
          1.38642295e-004, 1.66678292e-004, 1.67644190e-004,
          4.77218360e-004, 3.88148561e-004, 3.35682911e-004,
          2.92574463e-004, 4.87611796e-005, 2.33550396e-004,
          2.20930233e-004, 1.15448711e-004, 1.60884229e-004,
          8.21909416e-005, 1.11190297e-004, 3.06200964e-004,
          3.01126274e-004, 1.94067354e-004, 1.14540220e-004,
          7.98897308e-005, 1.44230275e-004, 1.58736220e-004,
          -1.63814202e-005, -1.24369035e-004, -2.04519456e-004,
          -4.52981803e-005, -1.02413251e-005, 1.89233702e-004,
          3.52862669e-004, 1.35317241e-004, 1.72055661e-005,
          -8.50886136e-006, -2.42970636e-005, 9.58470628e-005,
          8.33725135e-005, 4.05122482e-005, -6.94612536e-005,
          9.96734234e-005, 1.56812908e-004, 1.34604838e-004,
          4.36948671e-004, 3.23846762e-004, 2.27265191e-004,
          1.88492704e-004, -1.62845583e-006, 2.60782777e-004,
          3.84377781e-004, 2.98277591e-004, 2.97259539e-004,
          2.59897613e-004, 2.42039605e-004, 1.67942970e-004,
          9.54666175e-005, -8.40731082e-005, -1.63816512e-004,
          -2.13417705e-004, 1.65136316e-005, 3.59712460e-004,
          2.52239610e-004, 2.25516887e-005, 1.79885956e-006,
          -6.52212329e-005, -8.78445717e-005, 1.67262249e-006,
          -8.54525788e-005, -2.89959571e-004, -3.25351517e-004,
          -2.40849942e-004, 2.87574057e-005, 3.23276472e-004,
          2.03085860e-004, -2.28955032e-005, -8.83695975e-006,
          -1.06773165e-004, -1.22714133e-004, -2.29839570e-005,
          4.96357061e-005, -1.15424511e-004, -1.62583136e-004,
          -8.64713802e-005, 9.58164164e-005, 1.85344601e-004,
          8.04833689e-005, 1.35525272e-019, 1.35525272e-019 ]
      - [ 5.42101086e-020, -5.77224318e-006, -3.22091291e-005,
          -1.15782881e-004, -6.60955338e-005, 2.01874354e-004,
          1.46140635e-004, -1.65726189e-004, -1.61190852e-004,
          -1.61440752e-004, -5.54670005e-005, -6.39104910e-005,
          -1.68625920e-004, -2.20658549e-004, -3.12472053e-004,
          -1.27093153e-004, 8.64046597e-005, 1.82941058e-005,
          -3.41464300e-004, -4.77828813e-004, -4.14420865e-005,
          -2.00730035e-004, -1.56349139e-004, -1.67923659e-004,
          -9.21662649e-005, -1.23628139e-004, -3.32049618e-004,
          -1.46277671e-004, -7.34537753e-005, 2.20828133e-005,
          -4.27271443e-005, 5.99099803e-005, 1.80604948e-005,
          -2.45005940e-004, -1.01356847e-004, -7.34064588e-006,
          -1.07564309e-004, -6.50778384e-005, -5.15878237e-005,
          3.18253005e-004, 5.73681784e-004, 5.16341184e-004,
          3.90381407e-004, -1.35995229e-004, -2.04013064e-004,
          -1.61628617e-004, -3.39443621e-004, -1.82327101e-004,
          1.07105392e-004, 3.45307752e-004, 2.51019694e-004,
          4.68222424e-004, 4.28564759e-004, 4.15380433e-004,
          3.79175064e-004, -5.53786485e-005, 1.67922626e-005,
          1.09867811e-004, -1.30203589e-005, -3.25047178e-004,
          4.36517730e-004, 5.16885484e-004, -2.39440324e-005,
          3.65294953e-004, 3.47109686e-004, 2.63961614e-004,
          2.06806086e-004, 6.23708911e-005, 3.58502984e-005,
          1.58376410e-004, 2.21927694e-004, 4.78440415e-005,
          1.89371582e-004, 1.81925512e-004, -2.52996469e-005,
          3.08323855e-004, 2.86186551e-004, -8.89910825e-006,
          -1.14981660e-004, 1.08056565e-005, 1.10785848e-004,
          1.11885893e-004, 1.48802297e-004, 2.44860683e-004,
          -8.14826926e-005, -3.71538190e-005, -2.26216216e-004,
          -1.91477287e-004, -2.68987496e-004, -2.49442703e-004,
          -3.39454418e-004, -2.86897644e-004, 3.38202779e-004,
          1.18404088e-004, 8.32390142e-005, 3.68862275e-005,
          -2.27863318e-004, -2.15098335e-004, -4.15105897e-004,
          -1.57103743e-004, -4.74147564e-005, -2.95506525e-005,
          -1.93622225e-004, -1.39908923e-004, 2.41442336e-004,
          -4.72550177e-008, -3.47692949e-005, -4.75242314e-006,
          -1.67422666e-004, -1.16869560e-004, -3.32462165e-004,
          -1.78183269e-004, -1.33372698e-004, 1.19836928e-004,
          1.60635682e-004, 3.37802514e-004, 8.05842064e-005,
          7.21467950e-006, 5.42101086e-020, 5.42101086e-020 ]
      - [ 1.25364124e-004, 1.05441446e-004, 1.05086423e-004,
          1.00035169e-004, 1.32299363e-004, 1.09812179e-004,
          -7.66180456e-005, -2.79702053e-005, -1.89880502e-005,
          -1.55007394e-004, -2.39497487e-004, -1.60152544e-004,
          -1.32854533e-004, -1.16835239e-004, 9.60353718e-005,
          1.28118190e-004, -7.42812699e-005, -2.04367010e-004,
          -3.10820644e-004, -3.83567385e-004, -2.54608858e-006,
          7.91549755e-005, -1.25582272e-004, -1.02418751e-004,
          -2.23387135e-004, 2.10494272e-005, 3.54335440e-004,
          2.09503414e-004, 1.54878653e-005, -1.44949998e-004,
          -2.08988044e-004, -4.84055054e-005, 8.08993209e-005,
          5.16192540e-006, -3.23450622e-005, 1.12855843e-004,
          -2.62534595e-005, 1.62579759e-004, 4.34479414e-004,
          3.01338645e-004, 5.59569817e-005, -8.66789269e-005,
          -2.80331064e-004, -2.57226697e-004, -7.47096346e-005,
          -1.04640026e-006, 1.14769946e-005, 2.38483655e-004,
          8.12610233e-005, 1.40314165e-004, 5.56127161e-005,
          1.31618881e-005, -3.73503353e-005, 5.10583814e-005,
          -4.85038618e-005, -9.46577711e-006, 1.12958733e-004,
          -1.00530800e-004, 1.64599460e-005, 2.27635319e-004,
          6.35550095e-005, 1.73648601e-004, 3.22288193e-004,
          2.64099188e-004, 7.41647091e-005, -1.65649144e-005,
          -2.84708192e-004, -3.64812411e-004, -1.60627722e-004,
          -5.02864486e-006, 2.76532141e-004, 2.10592247e-004,
          -8.54061218e-005, 4.54940273e-005, 1.06660176e-004,
          6.40420694e-005, 2.11529223e-005, -8.10437177e-006,
          -1.75560781e-004, -5.01305185e-005, 4.37439121e-005,
          -5.15791107e-005, 1.51692075e-004, 1.88005288e-005,
          -3.20061372e-004, -2.93578778e-005, 3.32745054e-004,
          2.30129983e-004, 2.23889383e-005, -2.51119491e-004,
          -4.61252406e-004, -1.33510141e-004, 3.10125557e-004,
          5.37092274e-004, 2.27402546e-004, -2.13397565e-004,
          -5.07177087e-004, -5.50696685e-004, -4.03231446e-004,
          -1.44305217e-004, -8.56567131e-005, -1.06366198e-004,
          -1.45774815e-004, 2.17180452e-004, 4.61929099e-004,
          3.53194395e-004, 2.77373401e-005, -2.82570720e-004,
          -5.01562725e-004, -5.30031102e-004, -1.12305126e-004,
          -1.12538655e-004, -2.29749330e-005, 1.51826578e-004,
          3.00123153e-004, 2.89128715e-004, 2.58371700e-004,
          2.52882659e-004, -2.63284164e-005, 2.40428872e-005 ]
      - [ -5.42101086e-020, 2.83420991e-006, 1.51183676e-005,
          1.39135045e-005, 7.12791589e-005, 5.61517445e-005,
          -2.14931832e-004, -2.91929173e-004, -1.90457111e-004,
          -1.90457111e-004, -1.90457111e-004, -1.47137456e-004,
          -1.03070903e-004, -1.87469544e-004, -1.90457111e-004,
          -1.87040205e-004, -1.35806433e-004, 2.73099049e-005,
          9.09551600e-005, -4.47168459e-005, -2.77258096e-005,
          -6.28124981e-005, -1.16107323e-004, -8.13664665e-005,
          -1.90457111e-004, -1.53112574e-004, -7.76766246e-005,
          -6.63844039e-005, -6.71183079e-006, 1.20995632e-004,
          2.07152538e-004, 2.02549665e-004, 2.54640850e-004,
          1.57903734e-004, 1.18659525e-004, 9.10827657e-005,
          -1.75529334e-004, -7.83907308e-005, 1.06039639e-004,
          1.91591331e-004, 2.61369918e-004, 3.56312987e-004,
          1.75783134e-004, 9.03737673e-005, 1.77275622e-004,
          1.45825048e-004, -6.78278957e-005, -1.70980620e-005,
          -8.37101834e-005, -4.60356569e-006, 6.41741135e-005,
          2.71780882e-004, 3.26303911e-004, 3.71864240e-004,
          2.40776615e-004, 1.59882344e-004, 6.15984609e-005,
          -2.77814950e-004, -2.95125821e-004, -1.65324236e-004,
          -1.51628730e-004, -1.06376421e-004, 1.02941267e-004,
          3.57119774e-004, 3.60874488e-004, 3.40494822e-004,
          5.59907603e-005, -1.19468372e-004, -9.91078559e-005,
          -7.40466858e-005, -1.38505784e-004, -1.69314575e-004,
          -1.33283771e-004, -1.13405304e-005, 5.53475402e-005,
          1.37710813e-004, 1.96124718e-004, 3.29065486e-004,
          2.58115440e-004, 2.11435981e-004, 1.54259003e-004,
          -6.97104042e-005, -4.12007685e-005, -1.41090786e-004,
          2.03855234e-004, 2.62342190e-004, 3.49726237e-004,
          3.09556519e-004, 2.45474250e-004, 9.74227150e-005,
          -6.27192567e-005, -4.16524972e-006, 1.42712670e-004,
          1.70029714e-004, 9.87217427e-005, -8.27110853e-005,
          1.52964749e-005, 4.12133959e-005, 4.48134369e-006,
          -9.97335883e-006, -1.37726616e-004, -2.01067480e-004,
          -2.31944185e-004, -6.88760047e-005, 2.27855635e-005,
          3.67289686e-005, 2.23708012e-005, -1.98856331e-004,
          -3.11249489e-004, -1.79594237e-004, 4.13867456e-005,
          -2.70381279e-005, -1.18928954e-004, -3.41934610e-005,
          9.81763787e-006, 1.47290648e-005, -5.42101086e-020,
          -5.42101086e-020, -9.15964119e-005, -5.36625412e-005 ]
      - [ 5.95519377e-005, 1.68091399e-004, 2.02294294e-004,
          1.62242111e-004, 1.55977341e-005, -9.68521563e-005,
          -2.79295957e-004, -2.98327534e-004, -1.86333709e-004,
          -1.83464406e-004, -1.54973575e-004, 1.72853163e-006,
          2.09803198e-004, 1.50915541e-004, 1.82004980e-004,
          1.82004980e-004, 1.46431863e-004, 6.57911805e-005,
          -2.25631884e-004, -3.89459892e-004, -2.36128020e-004,
          -6.40380676e-007, 1.42715333e-004, 1.55701433e-004,
          7.63820935e-005, 2.00511349e-004, 3.21440079e-004,
          3.27826798e-004, 3.03894747e-004, 2.09206963e-004,
          5.28232995e-005, 3.67510547e-005, 1.74454224e-004,
          1.32916553e-004, 1.11877169e-004, 6.56062257e-005,
          -1.22019977e-004, 2.06029672e-005, 2.08554731e-004,
          2.33764295e-004, 1.99966191e-004, 1.47245708e-004,
          -5.00734823e-005, -1.11430832e-004, 1.03632876e-004,
          5.93137629e-005, -1.02725833e-004, -5.80521810e-005,
          -1.86333709e-004, -1.80487943e-004, -1.36651171e-004,
          -3.50939263e-005, 1.82486638e-005, 6.28226117e-005,
          -1.08009290e-005, 4.84131378e-005, 1.62036798e-004,
          -5.05046410e-005, -1.93258675e-004, -1.54360605e-004,
          -1.86333709e-004, -1.63681369e-004, -4.09203421e-005,
          -3.06902584e-005, -5.33425919e-005, -8.40328503e-005,
          -7.63366552e-005, -1.25843741e-004, -3.71658207e-005,
          -1.09349377e-004, -1.31399851e-004, -1.57652845e-004,
          -1.86333709e-004, -1.80487943e-004, -1.83410826e-004,
          -1.43221201e-004, -8.64639005e-005, 6.68164648e-005,
          1.00545021e-005, 1.02346712e-004, 4.34755893e-005,
          -3.05766065e-004, -1.77820533e-004, -1.86082034e-004,
          -1.86333709e-004, -1.58566327e-004, -7.36030925e-005,
          -1.03278202e-004, -3.98429984e-005, -1.90904830e-005,
          -7.76578891e-005, 3.68301371e-005, -2.16111093e-005,
          2.71050543e-020, -4.04900748e-005, -1.84359058e-004,
          -2.82820693e-004, -3.62939347e-004, -4.01629572e-004,
          -2.40726906e-004, -1.81660667e-004, -5.73244870e-005,
          5.19804889e-005, 1.28687185e-004, 2.71050543e-020,
          2.71050543e-020, -3.01521832e-005, -1.98142909e-004,
          -3.45709530e-004, -3.76523531e-004, -2.45255389e-004,
          -1.25113220e-004, -1.08201923e-004, 8.40463617e-005,
          1.40554024e-004, 1.42604258e-005, 2.71050543e-020,
          2.71050543e-020, -8.52876037e-005, -4.99664748e-005 ]
      - [ -5.42101086e-019, -1.84204273e-005, -4.80370472e-005,
          4.77875365e-005, 6.21713625e-005, 2.73795449e-004,
          1.00102530e-004, -8.36473482e-005, -2.58932996e-004,
          -2.56800791e-004, -8.16424290e-005, 5.00203460e-005,
          -1.49530533e-004, -2.71972182e-004, -2.57182692e-004,
          -6.44361862e-005, 4.98477857e-005, 2.16140761e-004,
          7.10231470e-005, -4.06927647e-005, -4.78110451e-005,
          1.95186149e-004, 2.18232221e-004, -2.40790432e-005,
          -2.76306411e-004, -1.58002906e-004, 2.68221793e-005,
          1.92281586e-005, -7.12106848e-005, -9.55103751e-005,
          -2.41073227e-004, -2.47062475e-004, -1.50816104e-005,
          3.96128853e-005, -1.14594004e-004, -2.37867571e-005,
          -2.52989179e-004, 1.03390121e-004, 3.92709015e-004,
          3.47796711e-004, 1.71532942e-004, -1.04315104e-005,
          -1.43777434e-004, -1.76723028e-004, -1.03326602e-005,
          -6.41086808e-005, -3.38426180e-004, -9.45345892e-005,
          2.19017170e-006, 4.38157585e-005, 1.14431532e-004,
          1.55729504e-004, 2.01179268e-004, 1.97959453e-004,
          1.20413730e-004, 7.95267333e-005, 1.30596425e-004,
          -3.53946933e-004, -3.91240959e-004, -2.01198476e-004,
          -2.29771496e-004, -1.07691310e-004, 1.13947317e-004,
          1.56159382e-004, 2.73643789e-004, 1.95589062e-004,
          -1.52204608e-004, -1.52435503e-004, -2.44689174e-004,
          -3.14558682e-004, -1.79442228e-004, -2.03786010e-004,
          -2.76306411e-004, -2.67637981e-004, -1.03585902e-004,
          4.40939875e-005, -9.04190711e-006, -4.69718798e-005,
          7.34705245e-005, 5.07783698e-005, -2.16573928e-004,
          -4.47132858e-004, -2.36805630e-004, -2.40534311e-004,
          -2.76306411e-004, -1.85112585e-004, 1.33763708e-004,
          -4.28479980e-005, -1.90250736e-004, -5.77949686e-005,
          -1.21043624e-004, -2.29168872e-004, -6.39297214e-005,
          -5.42101086e-019, -5.23384842e-005, -2.38307141e-004,
          -3.24233115e-004, -2.84631009e-004, -4.88237827e-004,
          -4.67084843e-004, -1.94312277e-004, -7.58846045e-006,
          -1.55324582e-004, -9.35411226e-005, -5.42101086e-019,
          -5.42101086e-019, -3.89754678e-005, -2.56124506e-004,
          -2.44299299e-004, -4.79459937e-004, -3.21888539e-004,
          -1.75004330e-004, 4.88901242e-005, 1.48203162e-005,
          -7.01558383e-005, -5.42101086e-019, -5.42101086e-019,
          -5.42101086e-019, -1.10244895e-004, -6.45879190e-005 ]
      - [ 4.00568853e-004, 2.07927049e-004, 4.41573829e-005,
          -1.04176092e-004, -1.75926514e-004, -1.75926514e-004,
          -3.40301485e-004, -3.22287786e-004, -1.75926514e-004,
          -1.75926514e-004, -1.75926514e-004, -1.35911861e-004,
          2.46489624e-004, 5.66779709e-005, -6.58741337e-005,
          -1.75926514e-004, -1.75926514e-004, -1.75926514e-004,
          -3.48182453e-004, -4.58516355e-004, -3.03148234e-004,
          -1.78178234e-004, -1.75926514e-004, -8.07192264e-005,
          1.65770398e-004, 8.84137335e-005, 3.83019615e-005,
          -7.38201488e-005, -7.38201488e-005, -7.38201488e-005,
          -2.44006369e-004, -2.56394909e-004, -1.96072680e-004,
          -2.97717401e-004, -2.03823074e-004, -1.58678813e-005,
          1.65770398e-004, 1.04281615e-004, 1.10052380e-004,
          -1.31082497e-005, -4.20843826e-005, -6.34715252e-005,
          -2.72982492e-004, -3.79540899e-004, -2.67319294e-004,
          -2.12575964e-004, -3.01238906e-004, -9.39539605e-005,
          1.65770398e-004, 6.78981523e-005, 2.62193353e-005,
          1.31862935e-005, 6.82434329e-005, 1.20050827e-004,
          4.63140350e-006, -3.64793304e-005, -1.63473887e-005,
          -2.42929367e-004, -2.63340102e-004, -1.56974304e-004,
          1.82691510e-004, 1.99605478e-004, 2.03491189e-004,
          1.35022507e-004, 1.16465744e-004, 8.18288536e-005,
          2.61847563e-005, 5.41127474e-006, 1.02431230e-004,
          1.86775389e-004, 1.59041432e-004, -2.50944904e-005,
          1.65770398e-004, 5.94375997e-005, -4.72643660e-005,
          -1.26730811e-004, -7.31160981e-005, -1.50520063e-005,
          -1.34132744e-004, 1.71017688e-004, 2.28741192e-004,
          9.32938638e-005, 2.43884002e-004, 1.80209550e-004,
          1.65770398e-004, 8.01348360e-005, 3.05607973e-005,
          -1.24161845e-004, -2.49086479e-005, 8.63893456e-006,
          -2.14759464e-004, 1.98662718e-004, 3.53918876e-004,
          4.16408089e-004, 2.63549271e-004, -2.05449251e-005,
          3.96745418e-005, -1.68421568e-004, -2.80154083e-004,
          -2.11585051e-004, -4.22160956e-005, 7.96560998e-005,
          -4.27687955e-005, 1.63572069e-004, 9.27485526e-005,
          1.08301974e-005, -3.94049566e-005, -2.58946849e-004,
          -7.61960764e-005, -5.95068523e-005, 3.86775828e-005,
          -6.99912853e-005, -1.26736632e-004, -1.33757247e-004,
          -6.58997815e-005, 0., 0., 0., -1.11459733e-004,
          -6.52996387e-005 ]
      - [ 2.76241975e-004, 2.04708907e-004, 6.83014077e-005,
          -1.09654102e-005, -1.50448264e-004, -1.50448264e-004,
          -2.46226002e-004, -2.35729822e-004, -1.50448264e-004,
          -1.50448264e-004, -1.50448264e-004, -1.16228664e-004,
          1.32588873e-004, 6.66505002e-005, -3.78973709e-005,
          -7.23247067e-005, -1.50448264e-004, -1.50448264e-004,
          -2.50818091e-004, -3.15107260e-004, -2.24577612e-004,
          -1.51760294e-004, -1.50448264e-004, -6.90292072e-005,
          6.35596734e-005, 9.37901859e-005, 5.11916041e-005,
          2.86769482e-005, -9.28139343e-006, 4.40126496e-006,
          -8.69569194e-005, -6.66225096e-005, -3.89856177e-006,
          -4.27904197e-005, 4.70412124e-006, 1.10811772e-004,
          6.35596734e-005, 1.59660922e-004, 2.41291549e-004,
          2.39112240e-004, 2.23023249e-004, 2.19083930e-004,
          8.21789727e-005, 1.99317874e-005, 9.36477227e-005,
          1.05035047e-004, 8.00537600e-005, 1.58511000e-004,
          6.35596734e-005, 1.30966917e-004, 6.99219090e-005,
          3.88717672e-005, -2.03211657e-005, -9.27508245e-006,
          -8.81386513e-005, -1.20050187e-004, -1.13372598e-005,
          -1.20513912e-004, -7.38022072e-006, 9.60620018e-005,
          6.35596734e-005, 8.25803145e-005, 7.95112792e-005,
          5.33438506e-005, -4.30695036e-005, -6.78492215e-005,
          -1.88921709e-004, -2.31931743e-004, -8.76061167e-005,
          5.72419367e-006, 1.58227995e-004, 9.39577512e-005,
          6.35596734e-005, 1.19702105e-004, 8.99847437e-005,
          1.24844286e-004, 1.54225039e-004, 2.15158128e-004,
          1.70955973e-004, 1.90337465e-004, 1.61088072e-004,
          1.98816560e-005, 1.46046645e-004, 7.23093617e-005,
          6.11851510e-006, 7.01644167e-005, 1.28770145e-004,
          6.83075050e-005, 1.32207369e-005, -4.74977132e-005,
          -1.37253344e-004, -9.97366733e-005, 5.69966214e-005,
          1.12550893e-004, 1.83906232e-004, 7.36213842e-005,
          -2.23921612e-004, -2.84930720e-004, -3.14191362e-004,
          -2.66991905e-004, -2.19202455e-004, -1.78492919e-004,
          -1.66627040e-004, -5.51050034e-005, 7.81235649e-005,
          1.12550893e-004, 1.91778367e-004, 1.66848564e-004,
          -2.71810481e-004, -2.93999561e-004, -1.87932805e-004,
          -1.67283055e-004, -1.41698576e-004, -1.01681850e-004,
          -4.13287526e-005, -2.71050543e-020, 7.81235649e-005,
          1.12550893e-004, 1.49793603e-004, 2.79682630e-004 ]
      - [ -1.62630326e-019, -3.76924640e-006, 4.36657974e-005,
          -4.79294322e-005, -1.96560213e-004, -1.96560213e-004,
          -3.27854970e-004, -1.85909157e-004, 1.41089389e-004,
          -1.97724730e-005, -1.96560213e-004, -1.51852393e-004,
          -1.06373758e-004, -1.69673251e-004, 3.93311711e-006,
          -4.86122226e-005, -1.93185042e-004, -1.96560213e-004,
          -3.34149925e-004, -2.94721918e-004, 3.94708513e-005,
          -1.76037538e-005, -1.86758713e-004, -8.03849471e-005,
          -1.63655161e-004, -1.14612325e-004, 1.64879879e-004,
          2.29209778e-004, 3.93718910e-005, -5.94471521e-006,
          -1.13820526e-004, -4.78653710e-005, 1.92568084e-004,
          2.03726377e-005, -3.60153463e-005, 1.61808639e-004,
          -3.45792796e-006, 6.64453401e-005, 2.92473444e-004,
          4.07479267e-004, 2.74384132e-004, 2.09829348e-004,
          2.38891407e-005, -7.01036834e-006, 1.52499633e-004,
          1.16039693e-004, 9.36479773e-006, 2.02080526e-004,
          2.43480226e-005, 4.15000504e-005, 2.09523263e-004,
          1.56777824e-004, 8.07827892e-005, 1.00679645e-004,
          -1.71369884e-005, 7.84201984e-005, 2.34986102e-004,
          -1.16711191e-004, -2.36164866e-004, -1.12297894e-004,
          -1.29991415e-004, -9.81331032e-005, 2.23480572e-004,
          2.78256717e-004, 2.35440002e-005, -6.61126178e-005,
          -2.32924809e-004, -1.98256588e-004, 6.00252351e-005,
          3.30074145e-005, -1.52860939e-005, -2.24594260e-005,
          -3.75981035e-005, -1.57173999e-005, 9.09782830e-005,
          2.51051621e-004, 2.08959944e-004, 2.40079491e-004,
          1.74310626e-004, 2.02926851e-004, 2.48909113e-004,
          4.44296493e-005, 1.54673093e-004, 1.43456200e-004,
          9.00301675e-005, 1.37060211e-004, 3.11699434e-004,
          2.34125633e-004, 8.04262236e-005, 3.93231358e-006,
          -1.51176006e-004, 5.42443195e-005, 3.11746990e-004,
          1.87588288e-004, 1.78119681e-005, -1.53968766e-004,
          -1.91974061e-004, -2.51803373e-004, -9.99269105e-005,
          -4.89541526e-005, -2.29645259e-004, -2.43961855e-004,
          -2.28416902e-004, 4.12829177e-005, 3.24347551e-004,
          1.68853192e-004, -3.14747704e-005, -2.06834200e-004,
          -3.62926861e-004, -3.70982860e-004, -1.12494199e-005,
          8.13151637e-005, -1.31466077e-004, -1.39388270e-004,
          -5.66545859e-005, 4.59095863e-005, 1.40604214e-004,
          6.27782283e-005, -8.90286392e-005, -5.21581896e-005 ]
      - [ -1.89735380e-019, -1.59053616e-005, -7.01707177e-005,
          -1.26297702e-004, -1.00247547e-004, 1.19193377e-004,
          -2.45720403e-005, -7.98322508e-005, -2.86398172e-005,
          -1.49285930e-004, -2.05413904e-004, -1.84315082e-004,
          -1.29114123e-004, -2.34837993e-004, -2.38580440e-004,
          -6.91266905e-005, 6.23244923e-005, 6.45146429e-005,
          -3.35806108e-004, -4.49804531e-004, -6.33317768e-006,
          -8.06140961e-005, -1.08975837e-004, -9.41586841e-005,
          -2.38580440e-004, -1.91799962e-004, -9.73033966e-005,
          3.28313909e-005, 7.24878846e-005, 1.96512250e-004,
          -7.19587551e-005, 9.76306765e-005, 1.54106427e-004,
          -2.39184155e-004, -2.01154675e-004, -2.04985117e-005,
          -2.38580440e-004, -1.42824894e-004, 1.16909599e-004,
          2.23393086e-004, 3.97931552e-004, 3.80555954e-004,
          1.01703481e-004, -2.65485083e-004, -2.52760568e-004,
          -2.60836678e-004, -3.84679501e-004, -1.16861542e-004,
          -1.04544211e-004, 9.31947507e-005, 1.81143740e-004,
          2.54857005e-004, 2.66404299e-004, 2.89209594e-004,
          1.45356578e-004, -9.80098193e-005, -1.19823480e-005,
          -2.77555955e-004, -2.92140641e-004, -2.10928411e-004,
          1.90916908e-004, 3.03461682e-004, 1.76104018e-004,
          2.60858884e-004, 2.48934957e-004, 1.89005179e-004,
          -4.64033001e-005, -8.39634813e-005, -1.24575090e-004,
          -6.61334752e-006, 1.06348576e-004, 1.55291418e-005,
          4.25525250e-005, 5.27385782e-005, -3.92329675e-005,
          1.12367707e-004, 1.97537549e-004, 4.37002709e-005,
          -1.17779527e-004, 1.40093587e-004, -4.16206194e-006,
          -3.69925518e-004, 4.99325652e-005, 6.75030897e-005,
          -2.29564452e-004, -8.68931966e-005, 9.79607285e-005,
          1.35247683e-005, -8.90588490e-005, -1.17791526e-004,
          -3.76348675e-004, -2.50626763e-004, 2.98486673e-004,
          9.35757635e-005, 1.20770288e-004, -2.21179289e-004,
          -3.89374793e-004, -4.29376261e-004, -3.81474645e-004,
          -1.47530634e-004, -7.47822414e-005, -6.03862027e-005,
          -2.02168463e-004, -3.63848922e-005, 2.92719749e-004,
          7.27734077e-005, -4.78581169e-005, -3.21202388e-004,
          -4.90385399e-004, -4.29025531e-004, -1.47440151e-004,
          -7.99300396e-005, -4.54682013e-005, 1.31942579e-004,
          1.56560302e-004, 2.75139551e-004, 1.00635581e-004,
          1.37768666e-005, -1.38256684e-004, -8.09988633e-005 ]
      - [ 1.42301535e-019, 2.68889398e-005, 7.46587102e-005,
          8.74462276e-005, 8.02686554e-006, -7.91178027e-005,
          -2.06098892e-004, -2.56719941e-004, -1.31440756e-004,
          -2.96957605e-005, -1.55787382e-006, 1.42301535e-019,
          -1.55787382e-006, -5.99781415e-005, -1.53116038e-004,
          -3.05700698e-004, -1.58915849e-004, 8.16315078e-005,
          1.79793176e-004, 1.04786530e-004, -7.59388931e-005,
          -8.44870956e-005, -3.04925629e-006, 7.16705927e-006,
          -4.82940886e-005, -1.17477153e-004, -2.86186405e-004,
          -2.61171517e-004, -9.09468799e-005, 2.08864090e-004,
          1.87415411e-004, 1.61231888e-004, 1.27966443e-004,
          1.02172926e-004, 1.72494067e-004, 9.62397753e-005,
          -1.45105019e-004, -1.39764583e-004, -1.32606787e-004,
          9.56629538e-006, 1.33648355e-004, 3.15078214e-004,
          2.03725183e-004, 1.61231888e-004, 1.37439478e-004,
          3.38249483e-005, -6.96949792e-005, -6.03466178e-005,
          -1.72397602e-004, -4.64179866e-005, 2.12861250e-005,
          1.34765214e-004, 1.61231888e-004, 1.61231888e-004,
          1.09175453e-004, 3.35911755e-005, -1.06812957e-004,
          -2.69485667e-004, -3.50262271e-004, -3.27812188e-004,
          -2.19631373e-004, -2.56207481e-004, -1.38094576e-004,
          5.35874824e-005, 1.46491104e-004, 1.71777967e-004,
          4.23675156e-005, -1.16540381e-004, -1.66211306e-004,
          -2.43306902e-004, -3.50262271e-004, -2.96579587e-004,
          -5.92085999e-005, -8.81184242e-005, -7.94030420e-005,
          -2.13692529e-005, 3.16448459e-005, 2.32664112e-004,
          3.36082943e-004, 1.60690965e-004, -2.89931268e-006,
          -1.45205631e-004, -1.68191225e-004, -8.51501754e-005,
          3.38114100e-004, 2.85691262e-004, 1.07508764e-004,
          9.00585364e-005, 1.33748195e-004, 1.51136745e-004,
          1.90838036e-004, 3.07783848e-005, -7.55748988e-005,
          -4.45080732e-005, 8.94261029e-005, 9.95281735e-005,
          2.19797585e-004, 3.16762598e-004, 2.77288433e-004,
          4.00172285e-005, -9.33487172e-005, -1.57705290e-004,
          -1.58606577e-004, -2.41974369e-004, -2.95651320e-004,
          -1.26556100e-004, 4.61378113e-005, 9.16441877e-006,
          -3.88202643e-005, 7.52211927e-005, 8.39105996e-005,
          1.10904519e-004, -1.51200784e-005, -1.11085283e-004,
          -2.13595646e-004, -1.83148819e-004, -1.29562963e-004,
          -1.11627574e-004, -5.90036689e-005, -5.90036689e-005 ]
      - [ -9.48711240e-005, 3.06870606e-005, 6.65280459e-005,
          2.41527541e-005, -1.45468497e-004, -2.63215101e-004,
          -2.91271019e-004, -3.50903108e-004, -2.82750960e-004,
          -2.11711449e-004, -1.45821818e-004, -4.75857314e-006,
          2.50789250e-004, 1.75234469e-004, 5.62642272e-005,
          5.64027614e-005, 1.49307933e-004, 1.29845444e-004,
          -1.23832826e-004, -2.04778480e-004, -3.13664816e-004,
          -1.14267023e-004, 1.66598009e-004, 1.70709929e-004,
          2.32940991e-004, 2.18162138e-004, 8.90144220e-005,
          1.80124305e-004, 3.19060870e-004, 2.67582422e-004,
          1.85522265e-004, 4.37442541e-005, 1.19112876e-004,
          1.82654854e-004, 1.38854884e-004, 8.74709076e-006,
          -1.05635518e-004, -5.89857991e-005, -5.43750939e-005,
          5.83488509e-005, 2.36647436e-004, 2.37798828e-004,
          1.81153038e-004, 6.77257558e-005, 1.39171258e-004,
          6.99638349e-006, -6.74080875e-005, -1.65928344e-004,
          -2.18615110e-004, -2.72896257e-004, -2.43797156e-004,
          -9.53755807e-005, 8.24380768e-005, 8.24380768e-005,
          9.95097944e-005, 9.77902746e-005, 5.79244006e-005,
          -5.66224480e-005, -1.46213308e-004, -2.19773588e-004,
          -2.11101025e-004, -2.72896257e-004, -2.88552808e-004,
          -2.45003263e-004, -8.19103516e-005, -4.98104200e-005,
          1.54526599e-004, 1.16457697e-004, -5.18059323e-006,
          -1.75565059e-004, -2.45140429e-004, -2.12559840e-004,
          -1.45837432e-004, -1.93506959e-004, -3.16791702e-004,
          -2.52821599e-004, -9.96699673e-005, 1.28197367e-004,
          1.34509013e-004, 1.26279934e-004, -3.93435039e-005,
          -3.20920517e-004, -2.13881125e-004, -1.45837432e-004,
          -2.76614865e-005, -1.56272959e-004, -2.66922725e-004,
          -2.82642839e-004, -4.20209908e-005, 1.44663398e-004,
          1.70560132e-004, 9.26920329e-005, -2.52616010e-004,
          -3.57586570e-004, -1.56272959e-004, -2.76614865e-005, 0.,
          -3.95164097e-005, -1.46202714e-004, -1.19556425e-004,
          -1.45876853e-004, -2.04971275e-005, 1.37001029e-004,
