%YAML:1.0
my_svm: !!opencv-ml-svm
   svm_type: C_SVC
   kernel: { type:LINEAR }
   C: 1.
   term_criteria: { epsilon:2.2204460492503131e-016, iterations:300 }
   var_all: 120
   var_count: 120
   class_count: 12
   class_labels: !!opencv-matrix
      rows: 1
      cols: 12
      dt: i
      data: [ 0, 1, 2, 4, 5, 6, 7, 8, 10, 11, 12, 13 ]
   sv_total: 66
   support_vectors:
      - [ -7.34778179e-004, -8.05999211e-004, -4.77086433e-004,
          1.40785915e-003, 1.96356559e-004, -7.23666861e-004,
          -2.21859524e-003, -6.49198052e-003, -5.55661088e-003,
          -9.14609816e-004, -1.33621157e-003, -8.88002047e-004,
          1.09032576e-003, 8.54707090e-004, 2.91762233e-004,
          -1.83821283e-003, -2.45766412e-003, -5.18066576e-004,
          -1.21436385e-003, -3.36647802e-003, -7.70067156e-004,
          2.57413113e-003, 1.55249611e-003, 1.01537874e-003,
          -4.43780009e-004, -1.81301919e-004, -5.30776335e-004,
          -4.26710071e-003, -3.77071975e-003, 1.74255238e-003,
          3.02766566e-003, 3.04844906e-003, 1.81877625e-003,
          4.62383119e-004, -1.44741789e-004, 1.19551412e-004,
          1.90390565e-005, 4.07980202e-004, 8.77181155e-005,
          -4.68513434e-004, -1.43593678e-003, -5.02665236e-004,
          1.12783004e-004, 4.42640245e-004, 1.18493731e-003,
          -1.53570523e-004, 3.41093983e-004, 4.51762200e-004,
          -3.58266116e-004, 8.81216547e-005, 1.43474303e-004,
          2.80267181e-004, 1.74907109e-004, 1.57028466e-004,
          1.42304882e-004, 1.25769089e-004, 7.34942674e-004,
          -4.85567260e-004, -3.62111750e-005, 7.44570207e-005,
          -5.00570983e-004, 8.43110101e-005, -1.46399516e-005,
          1.10856476e-004, -8.67361738e-019, -8.67361738e-019,
          -8.67361738e-019, -4.59327566e-006, 5.80695283e-004,
          -6.93096663e-004, -1.78516057e-004, -6.78478609e-005,
          1.07785818e-004, 5.01224888e-004, 2.54408049e-004,
          4.30654734e-004, 4.67180129e-004, -1.18370075e-003,
          -5.14387852e-004, 1.07859378e-003, 2.52869353e-003,
          -1.52389263e-003, 8.22000657e-005, 5.38613473e-004,
          -1.29718252e-003, -9.62938240e-004, -2.33986662e-004,
          8.67998635e-004, 8.86462571e-004, 1.71228126e-003,
          1.05778978e-003, -9.68973269e-004, -1.66369358e-003,
          -7.90750957e-004, -1.64172438e-003, -7.08520995e-004,
          6.71316171e-004, 1.10229594e-004, 8.06179189e-004,
          7.92439037e-004, -1.69121008e-003, -2.40570144e-003,
          -2.00561830e-003, -5.52349957e-004, 2.26554251e-003,
          5.28433709e-004, -1.26795378e-003, 6.56420016e-004,
          9.73375107e-004, -5.61752240e-004, -9.07412759e-005,
          -5.62405959e-003, -6.86924206e-003, -3.47050210e-003,
          -2.30088568e-004, 1.12224685e-003, 1.50757679e-003,
          -1.47269177e-003, -5.90914977e-004, -9.57676792e-004 ]
      - [ 4.44257785e-005, -7.12871901e-004, -1.53346499e-003,
          6.18293358e-004, 1.74163433e-003, -3.01128533e-003,
          2.08935871e-005, 1.10281783e-003, 1.08329137e-003,
          6.14567543e-005, -3.41789657e-003, 6.69953180e-004,
          -4.62844153e-004, 4.76234301e-004, 1.33664440e-003,
          1.00874575e-003, 1.00363512e-003, 1.00363512e-003,
          1.06496119e-003, 1.17606972e-003, 9.41187260e-004,
          6.11759257e-004, 2.94522429e-003, 2.39802757e-003,
          1.42876306e-004, 3.53877177e-003, -1.71362690e-003,
          3.37863807e-003, 2.17905222e-003, -2.20769504e-003,
          4.32674307e-004, 8.84125754e-003, 2.96754367e-003,
          6.41171471e-004, -8.35387153e-004, -1.27991103e-003,
          -2.55375315e-004, -4.32373170e-004, -3.12538876e-004,
          -7.10330787e-004, -7.83075695e-004, -7.62835669e-004,
          -2.06436060e-004, 6.46905159e-004, 2.81601981e-003,
          3.99148354e-004, 2.47120089e-003, -4.25968989e-004,
          -2.13162581e-004, -4.00212855e-004, -2.18483838e-004,
          -3.41238396e-004, -3.23947490e-004, -3.23947490e-004,
          -5.42663256e-005, 2.82585714e-003, 3.15680663e-005,
          -2.74427846e-004, 2.24214746e-003, 1.87131445e-004,
          -6.84222206e-004, -9.03357228e-004, -1.85229335e-004,
          -7.52007239e-004, -7.95007101e-004, -7.46220700e-004,
          1.10120501e-003, 2.32221372e-003, 9.13736061e-004,
          7.64415236e-005, 1.04418345e-004, -6.44005369e-004,
          1.10784924e-004, -1.09813845e-004, -2.61029127e-005,
          8.74442223e-004, 2.51205009e-003, 3.74001241e-003,
          2.63938273e-004, 8.03922245e-004, 4.68205661e-003,
          1.47346873e-003, -1.67596256e-004, -4.82586824e-004,
          3.68216221e-004, -4.74038254e-003, -1.04645884e-003,
          -4.14746860e-003, -1.22517836e-003, 7.45030411e-004,
          4.98599978e-003, 1.81533175e-003, -1.08308229e-003,
          -1.08019216e-003, -5.49357501e-004, -3.80285492e-004,
          6.39456091e-004, 1.15719542e-003, 5.26025612e-003,
          8.56193341e-003, 5.87572949e-003, 2.24084547e-003,
          -1.02816557e-003, -1.17318379e-003, -1.11593248e-003,
          -6.74086215e-004, -2.92863522e-004, -3.46944695e-018,
          -1.10585075e-004, 6.22899085e-003, 2.56833667e-003,
          -1.04715594e-003, -1.07001164e-003, -1.12195848e-003,
          -1.18400611e-003, -1.18761347e-003, -8.30484205e-004,
          -4.85791679e-004, -4.77049500e-004, -3.68292094e-004 ]
      - [ -3.13737161e-007, -8.18086278e-007, 3.01675409e-005,
          6.86463027e-005, 9.31269606e-005, 9.15249402e-005,
          4.97820693e-005, 1.09483139e-004, 1.42507182e-004,
          2.03068739e-005, 1.56491093e-004, 1.40807038e-004,
          8.49234857e-005, 1.74493951e-004, 1.37981988e-004,
          1.35831186e-004, 1.35440117e-004, 1.35440117e-004,
          1.35440117e-004, 1.35440117e-004, 1.38078060e-004,
          6.34492026e-005, 8.93175456e-005, -2.80776458e-005,
          2.31318816e-004, 4.40559488e-005, -1.76444562e-004,
          -7.25607606e-005, -7.36680377e-005, -9.44336280e-005,
          -1.34397807e-004, -9.97807292e-005, -2.33830779e-005,
          3.64098087e-004, 2.57255044e-004, -6.12882650e-006,
          1.82315038e-004, -3.65638357e-006, -2.47080054e-004,
          -4.70254054e-005, 8.56599581e-006, 4.95977438e-005,
          1.21072408e-004, 5.81783497e-005, 2.40804671e-004,
          6.85637002e-004, 3.07773706e-004, -6.52253948e-005,
          2.29559053e-004, 1.72065600e-004, 2.66345800e-004,
          4.83074517e-004, 4.56535228e-004, 4.69240476e-004,
          3.75522097e-004, 3.09679046e-004, 1.40381715e-004,
          6.34154479e-004, 3.51189694e-004, -7.39254119e-006,
          1.82315038e-004, 3.49149632e-004, 3.86685628e-004,
          4.80764546e-004, 2.82991998e-004, 1.90628591e-004,
          3.24193970e-004, 4.60226438e-004, 7.31256732e-005,
          7.03605649e-004, 9.10155068e-005, -7.05198108e-005,
          2.29559053e-004, 4.05429106e-004, 5.92810917e-004,
          7.46246951e-004, 6.13522017e-004, 4.05919418e-004,
          1.04828978e-004, -1.08652399e-004, 1.11234594e-005,
          6.65089698e-004, 2.76640058e-004, -2.32757993e-005,
          2.04761964e-004, 2.80512526e-004, 8.18163098e-005,
          1.26705083e-004, 7.34580026e-005, 1.51062690e-004,
          6.77976495e-005, 3.05719877e-004, 3.37198755e-004,
          2.28100889e-005, -6.16542238e-005, -4.07125517e-005,
          1.73452368e-004, 1.28074418e-004, 4.21703415e-004,
          5.05956647e-004, 2.97482678e-004, 8.76685008e-005,
          -1.04291736e-004, -1.35440117e-004, -1.30960922e-004,
          -7.94485459e-005, -4.97949040e-005, -3.75636992e-005,
          2.36941894e-004, 4.50264997e-005, -1.77918220e-004,
          -1.21114979e-004, -1.35440117e-004, -1.28436717e-004,
          -1.17613279e-004, -9.62847407e-005, -5.47903328e-005,
          -2.38191751e-005, -2.34540657e-005, -1.81070245e-005 ]
      - [ -1.77140282e-006, 5.06172137e-006, 9.13637195e-005,
          1.62263590e-004, 4.29581240e-004, 2.34217368e-004,
          1.01557802e-004, 2.68300617e-004, -1.02315767e-004,
          -7.27628649e-004, -4.12641210e-004, -2.60131637e-004,
          -1.72206041e-004, 5.70111952e-005, 7.07986692e-005,
          4.20633995e-004, -2.79261178e-004, -5.92924829e-004,
          -5.53911203e-004, -4.53713757e-004, 3.80134908e-004,
          -1.12951282e-004, -2.03366610e-004, -4.51207801e-004,
          8.07171091e-005, 2.18854402e-004, 4.21256234e-004,
          3.38138285e-004, -2.94993224e-004, -4.21642035e-004,
          -2.85437854e-004, -1.84167497e-004, 1.78571630e-004,
          4.18766926e-004, 1.29086038e-004, -1.56490321e-004,
          4.71544132e-004, 3.19106708e-004, 4.25248669e-004,
          3.46912828e-004, -6.55290642e-005, -1.61689677e-004,
          -7.33065244e-005, -2.38970097e-005, 8.07512697e-005,
          3.31335497e-004, 4.20644385e-004, 2.54182087e-004,
          6.10213552e-004, 4.11582907e-004, 3.75840900e-004,
          3.03002336e-004, 1.46429477e-006, 1.46429477e-006,
          1.46429477e-006, 1.46429477e-006, 3.44626678e-005,
          2.73629645e-004, 4.87510988e-004, 3.92851478e-004,
          5.36727835e-004, 3.74939060e-004, 3.69257614e-004,
          2.92785553e-004, -1.49082434e-005, -4.71547901e-005,
          -6.36451223e-005, -3.79229532e-005, 1.97295303e-005,
          2.54153652e-004, 4.38760791e-004, 3.19365761e-004,
          5.11544815e-004, 4.20690980e-004, 5.00759052e-004,
          5.32623671e-004, 1.16259043e-005, -1.22479891e-004,
          -2.27098135e-004, -1.37441966e-004, 1.59570438e-004,
          5.44047332e-004, 4.94763255e-004, 2.94158963e-004,
          3.41137747e-005, 1.79446826e-004, 2.37994609e-004,
          5.90900134e-004, -1.29854219e-004, -2.72810255e-004,
          -3.58286256e-004, -2.95305217e-004, 3.37539648e-004,
          5.20591217e-004, 2.48640514e-004, -1.03293445e-004,
          -2.14932632e-004, -3.47969384e-004, -3.13907367e-004,
          4.76560963e-004, 6.58296631e-005, -4.37879382e-004,
          -5.25982701e-004, -1.25519218e-004, 3.85961728e-004,
          2.35984509e-004, -7.38357994e-005, -8.68669667e-005,
          2.75023660e-004, -2.04995871e-004, -2.51593272e-004,
          9.89466062e-005, -1.20606082e-005, 3.13083801e-005,
          6.47400011e-005, 6.31956573e-005, 3.48849135e-004,
          6.29215036e-004, 3.62476305e-004, 4.25608043e-004 ]
      - [ -3.26450609e-005, -2.01567364e-005, 9.13950498e-005,
          1.63394347e-004, 1.20134275e-004, -2.91268097e-005,
          -1.84298449e-004, -2.36142354e-004, -2.33903862e-004,
          -3.01340886e-004, -1.34316404e-004, -1.42019140e-004,
          -4.91963146e-006, -7.12538385e-005, -1.80781513e-004,
          -2.31001293e-004, -1.51576009e-004, 7.47946615e-005,
          1.90863502e-004, 1.02938939e-004, -2.50028897e-005,
          -2.42460184e-004, -1.16161522e-004, -1.87315964e-004,
          -1.49971063e-004, -1.60685508e-004, -2.39241883e-004,
          -2.15563778e-004, -7.54370558e-005, 6.82859027e-005,
          2.10007973e-004, 2.10007973e-004, 2.10884347e-004,
          1.62223194e-004, 1.67846054e-004, -5.45550574e-005,
          -1.11518144e-004, -5.64624606e-005, -6.51103255e-005,
          1.45642771e-004, 2.19949230e-004, 2.76301696e-004,
          2.84083188e-004, 2.94070196e-004, 2.79953441e-004,
          1.68609826e-004, 1.32305096e-004, -2.24361702e-005,
          -1.11443046e-006, 2.21299284e-004, 2.42962313e-004,
          3.99825338e-004, 4.13056783e-004, 4.08930413e-004,
          3.20668769e-004, 1.73816108e-004, 6.62153179e-005,
          -6.43599051e-005, -3.23002132e-005, -9.85350125e-005,
          -1.00620055e-004, -1.55007674e-005, 8.19119814e-005,
          3.53529438e-004, 4.08178923e-004, 3.94037430e-004,
          1.70444604e-004, 5.06998367e-005, 3.00047795e-005,
          -7.13317640e-005, -6.00771127e-005, -1.22194775e-004,
          -4.34438334e-005, 7.28532468e-005, 4.64757286e-005,
          1.93537679e-004, 2.06837489e-004, 2.86997180e-004,
          2.95129081e-004, 1.52232649e-004, 5.76287748e-005,
          -2.43726881e-005, -1.29134114e-005, -7.68378886e-005,
          2.55896884e-004, 2.77841522e-004, 1.87162164e-004,
          2.39109024e-004, 2.00214752e-004, 1.29284774e-004,
          8.64236572e-005, 5.42222442e-005, 5.59806977e-005,
          4.22985140e-005, 3.37578567e-005, -2.69654083e-005,
          -3.96054065e-006, 1.60939395e-004, 1.25450606e-004,
          1.76133733e-004, -1.02276317e-005, -1.49606538e-004,
          -2.04869648e-004, -1.97870526e-004, -1.79788083e-004,
          -1.13991366e-004, -2.64852060e-005, 1.38393625e-006,
          -1.26415151e-004, -3.77189281e-005, -4.12080262e-005,
          3.47254445e-006, -1.74283632e-005, 1.77493403e-005,
          -7.91201455e-005, -7.88647303e-005, -5.04930686e-005,
          -5.42382213e-006, 1.35525272e-020, 1.35525272e-020 ]
      - [ 1.05935804e-004, 3.21241037e-004, 3.66773835e-004,
          3.18460079e-004, 4.37650160e-005, -2.76988401e-004,
          -3.57993384e-004, -5.04436030e-004, -4.53721790e-004,
          -4.70697240e-004, -2.55897408e-004, 1.19114571e-004,
          4.00097546e-004, 2.95826147e-004, 3.07232462e-004,
          2.30624559e-004, 1.45045749e-004, -5.76709062e-005,
          -3.95642681e-004, -5.07338962e-004, -4.50175023e-004,
          -3.20440042e-004, 1.37884257e-004, 1.03293845e-004,
          2.18701723e-004, 2.96070852e-004, 2.97130900e-004,
          2.92525569e-004, 2.27139200e-004, -9.14762313e-006,
          -4.88641563e-005, -2.58749697e-005, 2.17736568e-004,
          2.90888362e-004, 2.74077815e-004, 1.22255224e-005,
          -1.36261151e-004, 1.10898014e-004, 1.14873772e-004,
          2.31905025e-004, 1.93790911e-004, 1.32755900e-004,
          8.52383309e-005, 2.14912798e-004, 5.30431629e-004,
          2.16069457e-004, 1.58634881e-004, 5.33248112e-006,
          -2.63396010e-004, -1.63729492e-004, -9.60778852e-005,
          1.91440166e-004, 1.91440166e-004, 1.91440166e-004,
          2.23441049e-004, 3.46480665e-004, 4.92125750e-004,
          2.30598336e-004, 4.81386814e-005, -2.26428929e-005,
          -2.40753114e-004, -1.48395789e-004, -1.55614354e-004,
          5.42101086e-020, 5.42101086e-020, 5.42101086e-020,
          3.51901806e-004, 3.63192376e-004, 3.88749031e-004,
          2.95579684e-005, -7.70882616e-005, 5.42101086e-020,
          -2.40753114e-004, -1.48395789e-004, -1.55614354e-004,
          -2.20114771e-006, -1.14846280e-005, 1.63449702e-004,
          1.19878016e-004, 2.70802324e-004, 2.44966446e-004,
          -1.41938232e-004, -7.70882616e-005, 5.42101086e-020,
          -2.65332579e-004, -1.77010705e-004, -2.02655443e-004,
          -1.15144838e-004, 6.55833646e-005, 1.02208789e-004,
          1.29937805e-004, 1.73101987e-004, -1.87246682e-004,
          -2.20855873e-004, -9.76323063e-005, -2.86149207e-005,
          -2.95150006e-004, -2.07194986e-004, -3.47140885e-004,
          -1.50717879e-005, -1.21542093e-004, -2.64067730e-005,
          1.86506935e-004, 1.07778411e-004, -2.75611848e-004,
          -2.09419522e-004, -1.15786977e-004, -5.87991963e-005,
          -2.72426871e-004, -1.83643002e-004, -3.23924323e-004,
          -2.15884102e-005, -2.27501165e-004, 4.78600814e-005,
          4.64567529e-005, -1.97308269e-004, -1.42944205e-004,
          -6.73004324e-005, -3.16737533e-005, -3.05042540e-005 ]
      - [ -5.75412651e-006, -9.15114106e-006, -1.64493831e-005,
          9.51643378e-005, 1.02726051e-004, 3.30085313e-004,
          5.58003121e-005, -3.78144119e-004, -8.02803901e-004,
          -6.70779555e-004, 1.76169313e-004, 3.97517520e-004,
          -1.19691438e-004, -2.73828045e-004, -6.55535143e-004,
          -4.09675762e-004, -1.79393188e-004, 2.23788622e-004,
          2.28580728e-004, 1.12396585e-004, -2.41471444e-005,
          1.88826263e-004, 4.70117549e-004, -2.19739246e-004,
          -2.48573779e-004, -2.13663967e-004, -3.48802190e-004,
          -1.42715275e-004, -3.54776246e-004, -4.54291177e-004,
          -4.40310454e-004, -3.65605723e-004, 8.88744180e-005,
          2.51198129e-004, -2.74964350e-005, -1.76035988e-004,
          -2.82833644e-004, 2.04069758e-004, 1.51843837e-004,
          3.49804148e-004, 2.45395553e-004, -8.21353169e-005,
          1.30848071e-004, 3.19324812e-004, 2.31614846e-004,
          1.55161702e-004, -1.33776310e-004, -8.54809405e-005,
          1.11239329e-004, 2.55548861e-004, 1.80937073e-004,
          4.90863633e-004, 3.07149341e-004, 5.03605639e-004,
          6.12582488e-004, 4.28789033e-004, 4.11312038e-004,
          -1.03653416e-004, -1.44358855e-004, -7.91023122e-005,
          -2.55023333e-004, -1.66987098e-004, -2.55230581e-004,
          9.48423476e-005, 5.47182979e-004, 5.66847681e-004,
          9.21202518e-005, 3.47644964e-004, 1.70092942e-004,
          -2.30130565e-004, -1.50737484e-004, -8.54809405e-005,
          -1.90840030e-004, -2.53573526e-004, -9.25785789e-005,
          4.67012578e-004, 3.15816462e-004, -1.70487765e-005,
          1.91378014e-004, 3.91760725e-004, 2.00970335e-005,
          -1.60497497e-004, -7.44019198e-005, -9.14537577e-006,
          -2.12372193e-004, -1.68674800e-004, 4.02232617e-005,
          8.33524318e-005, -8.94971672e-005, 3.21191192e-006,
          3.01552704e-004, -4.20534561e-005, -1.24114886e-004,
          -1.87434620e-004, -9.45228239e-005, -3.42126623e-005,
          -7.43182609e-005, 1.90738123e-004, -4.30580316e-004,
          -3.11930780e-004, -1.65034711e-004, 1.87039710e-004,
          5.93511913e-006, -2.29562298e-004, -2.25890399e-004,
          -2.18729663e-004, -1.45668804e-004, -7.06032297e-005,
          3.41162871e-004, -1.92130086e-004, -5.71965706e-004,
          -2.93743913e-004, -1.82724150e-004, 5.59333930e-005,
          -2.18528847e-004, -1.96491805e-004, -1.39134572e-004,
          -8.02205468e-005, -3.14300996e-005, -2.33593419e-005 ]
      - [ 4.59755334e-004, 1.41303695e-004, -1.65698046e-004,
          -2.80801090e-004, -3.15694662e-004, -3.43279098e-004,
          -3.50133749e-004, -3.50860908e-004, -3.52604809e-004,
          -4.13597125e-004, -3.30029812e-004, -3.42424784e-004,
          2.13849024e-004, 9.95035371e-005, -6.86669591e-005,
          -1.78667004e-004, -1.78667004e-004, -1.78667004e-004,
          -1.78667004e-004, -1.78667004e-004, -1.37694791e-004,
          -1.44835227e-004, -6.34709140e-005, -1.62520679e-004,
          2.02214345e-004, 1.32753979e-004, 8.17314067e-005,
          -2.31784634e-005, -2.31784634e-005, -2.31784634e-005,
          -2.31784634e-005, -2.31784634e-005, -2.84673042e-005,
          -1.12135654e-004, -6.74079056e-005, -1.74155357e-004,
          2.10940358e-004, 1.40934615e-004, 8.17314067e-005,
          -4.81748430e-006, -2.90866979e-006, -2.90866979e-006,
          -2.90866979e-006, -2.90866979e-006, -8.19751131e-006,
          -9.97738025e-005, -5.86818969e-005, -1.65429345e-004,
          2.13849024e-004, 1.50985346e-004, 1.32549889e-004,
          8.11896098e-005, 8.34620078e-005, 8.34620078e-005,
          8.34620078e-005, 6.91315581e-005, 2.41925845e-005,
          -8.29477503e-005, -5.52734018e-005, -1.62520679e-004,
          2.14044267e-004, 2.38502878e-004, 2.43134316e-004,
          2.08594065e-004, 2.75545084e-004, 2.67715979e-004,
          4.06487292e-004, 5.48049284e-004, 5.41174086e-004,
          3.52373405e-004, 2.53630220e-004, -8.15552630e-005,
          2.13849024e-004, 1.34647154e-004, 5.38742279e-005,
          -8.15198873e-005, -1.03703998e-004, -1.27581166e-004,
          -1.49060375e-004, 1.08282460e-004, 4.57203336e-004,
          4.53756016e-004, 5.37855260e-004, 4.21360543e-004,
          1.89047336e-004, 2.43509421e-005, -1.36521849e-004,
          -2.88767507e-004, -1.98691385e-004, -1.26383165e-004,
          -1.67258258e-004, 2.28178891e-004, 3.59333848e-004,
          3.01236840e-004, 2.16869317e-004, 8.12403687e-006,
          3.57529316e-005, -6.76722411e-005, -1.55449379e-004,
          -8.21893191e-005, 8.70456570e-005, 1.81791431e-004,
          3.94020353e-005, 3.72082468e-005, -1.60179334e-004,
          -2.47180200e-004, -1.48537860e-004, -4.35211441e-005,
          1.18871001e-004, 1.37822703e-004, 9.09334922e-005,
          -1.01164900e-004, -2.50404642e-004, -3.23172222e-004,
          -3.11957498e-004, -1.97537549e-004, -1.50578402e-004,
          -7.83321739e-005, -6.00277563e-005, -5.90563359e-005 ]
      - [ 3.77867196e-004, 2.70967197e-004, 6.37078556e-005,
          -3.47358364e-005, -2.03390417e-004, -2.44892261e-004,
          -2.52412225e-004, -2.52412225e-004, -2.44838622e-004,
          -2.47153948e-004, -1.69948456e-004, -1.99451082e-004,
          2.67430936e-004, 1.59157280e-004, -4.15862924e-005,
          -9.73409697e-005, -2.00244394e-004, -2.00244394e-004,
          -2.00244394e-004, -2.00244394e-004, -1.81587267e-004,
          -1.65116304e-004, -1.67937033e-004, -2.47465010e-004,
          1.97223475e-004, 1.48918451e-004, 9.93985759e-006,
          -3.41366976e-005, -6.11280848e-005, -3.81449972e-005,
          -9.60613420e-007, 6.64936670e-005, 6.47559355e-005,
          -2.60712004e-005, -1.83639750e-005, -6.66292253e-005,
          1.59539690e-004, 1.90854073e-004, 2.11471604e-004,
          2.17918219e-004, 1.98911206e-004, 2.11958919e-004,
          1.96596025e-004, 2.01400442e-004, 2.09250880e-004,
          8.34614984e-005, 1.03824910e-004, 3.04403657e-005,
          1.90811334e-004, 2.31454484e-004, 2.28593839e-004,
          1.82219184e-004, 1.23749225e-004, 8.74101825e-005,
          6.87557404e-005, 1.75531153e-004, 2.18983347e-004,
          8.52518278e-005, 1.74933622e-004, 1.40504402e-004,
          1.59539690e-004, 1.64946148e-004, 9.61365949e-005,
          3.03751676e-005, -3.06136826e-006, 1.98594880e-005,
          5.24425413e-005, 1.22225727e-004, 1.93777538e-004,
          9.95919472e-005, 1.74817935e-004, 1.09232751e-004,
          1.90811334e-004, 2.23299066e-004, 2.65575654e-004,
          2.53907667e-004, 2.14648346e-004, 2.16792905e-004,
          1.98027483e-004, 1.97073416e-004, 2.17722467e-004,
          1.25148508e-004, 1.59674339e-004, 1.32658286e-004,
          9.16737263e-005, 6.59282450e-005, 7.61259071e-005,
          6.33964592e-005, 2.12861469e-005, -1.56817314e-005,
          -3.23005224e-005, 6.78061915e-005, 1.05715226e-004,
          5.90745840e-005, 1.59222865e-004, 2.02604453e-004,
          -2.41497444e-004, -2.30500416e-004, -1.40098404e-004,
          -1.42934470e-004, -1.77946393e-004, -1.78509057e-004,
          -1.79020572e-004, -5.91268654e-005, 2.45091160e-005,
          -5.20961567e-006, 1.16773299e-004, 3.13390687e-004,
          -2.26432297e-004, -2.45906005e-004, -2.11672945e-004,
          -1.81765616e-004, -1.86232995e-004, -1.81688214e-004,
          -1.65102188e-004, 2.19347876e-005, 1.34036818e-004,
          1.20217504e-004, 2.05812845e-004, 2.80512468e-004 ]
      - [ -6.38287656e-006, -9.28418376e-006, 1.34154005e-004,
          -2.74708473e-005, -2.10561484e-004, -2.86367547e-004,
          -3.08570859e-004, -1.19994722e-004, 1.55723203e-004,
          -1.50232008e-004, -1.10155881e-004, -1.32938527e-004,
          -6.49309659e-005, -1.17893673e-004, 1.44265345e-004,
          -3.05255503e-006, -2.13343737e-004, -3.06416856e-004,
          -3.10945295e-004, -1.13611844e-004, 1.73819906e-004,
          -1.81516880e-004, -1.98033697e-004, -2.35144093e-004,
          -1.04421844e-004, -1.06542815e-004, 1.29661072e-004,
          9.09478331e-005, -7.16305076e-005, -1.36802017e-004,
          -6.42603409e-005, 1.14976341e-004, 3.26665526e-004,
          8.79122817e-005, 1.56089649e-004, 1.59460003e-004,
          1.55148766e-004, 1.65720790e-004, 2.16005225e-004,
          3.59644269e-004, 2.89763790e-004, 2.06533034e-004,
          1.83168057e-004, 2.49453733e-004, 3.59087018e-004,
          2.16076340e-004, 2.14234387e-004, 1.65787947e-004,
          5.82853172e-005, 2.08700712e-005, 2.10840153e-004,
          2.65949639e-004, 9.15078272e-005, -8.99117185e-006,
          -1.97935660e-005, 1.68699495e-004, 4.30378714e-004,
          5.27755838e-005, -5.49686119e-005, -1.24130835e-004,
          -1.27313440e-004, -1.03698723e-004, 2.06428012e-004,
          2.35473592e-004, 5.11433864e-005, -3.66333261e-005,
          -2.84603320e-005, 1.63497083e-004, 4.20120778e-004,
          8.76035119e-005, 2.59712833e-005, -1.26631130e-005,
          1.41530894e-004, 1.62912140e-004, 2.20279020e-004,
          3.82991013e-004, 2.92569835e-004, 2.79051135e-004,
          3.66577733e-004, 3.56949313e-004, 3.62094666e-004,
          3.17194033e-004, 3.69735732e-004, 3.38452955e-004,
          3.01558059e-004, 2.39826957e-004, 1.17935590e-004,
          1.00394209e-004, 3.83636325e-005, -1.03507073e-005,
          -4.13680027e-005, 6.91353343e-005, 2.11020000e-004,
          -7.98294277e-005, -1.03067599e-004, -8.91227464e-005,
          -1.99301212e-004, -1.87890284e-004, -4.28667881e-005,
          2.66221414e-005, -1.53990142e-004, -2.47063261e-004,
          -2.51591729e-004, -6.06411268e-005, 2.11817591e-004,
          -1.82984274e-006, -6.45926630e-005, -4.77056210e-006,
          -2.10733488e-004, -2.57128268e-004, -4.55552727e-005,
          2.66221414e-005, -1.53990142e-004, -2.47063261e-004,
          -2.46318989e-004, -9.04721383e-005, 1.37488474e-004,
          4.35404727e-005, -8.37811094e-005, -7.66828744e-005 ]
      - [ -1.86803106e-006, -3.12157817e-006, -2.77683921e-005,
          -1.32739311e-004, -1.43771031e-004, 1.01953250e-004,
          2.02729498e-004, 4.74010194e-005, -1.76432877e-004,
          -2.86884024e-004, -8.23727023e-005, -1.10697809e-004,
          -7.19507952e-005, -1.47455663e-004, -3.72186449e-004,
          -2.15419685e-004, 1.03714478e-006, -2.52676400e-005,
          -3.45050445e-004, -3.04542133e-004, 4.43432218e-005,
          -2.53159466e-004, -1.30555753e-004, -2.25953001e-004,
          -1.93853892e-004, -2.60880421e-004, -3.98935197e-004,
          -1.81040989e-004, -5.32590020e-005, -5.90720010e-005,
          -6.04333327e-005, 2.95483362e-004, 2.95836682e-004,
          -1.98928421e-004, -1.98904439e-004, -2.54673971e-004,
          -1.80223680e-004, -2.18159461e-004, -3.59763246e-004,
          3.02486878e-005, 4.45050682e-004, 5.84388559e-004,
          5.07727440e-004, 1.40837001e-004, -1.37821189e-004,
          -2.18133820e-004, -1.45375452e-004, -1.90771869e-004,
          -5.03447300e-005, 1.88723148e-004, 3.32942815e-004,
          6.63753250e-004, 4.40419622e-004, 3.95832234e-004,
          4.24520753e-004, 9.57404336e-005, 4.88410406e-005,
          -5.14028397e-005, -3.79999692e-005, -1.01074162e-004,
          3.32748634e-004, 4.74771456e-004, 4.18704331e-005,
          6.36107288e-005, 2.89297692e-004, 3.81748221e-004,
          4.02274600e-004, 3.93253024e-004, 2.56462954e-004,
          2.36314052e-004, 2.64414848e-004, -6.85954947e-005,
          4.34622372e-004, 3.79398029e-004, -2.50978803e-004,
          2.93474906e-004, 3.29884497e-004, 7.93956497e-005,
          -6.71917087e-006, 2.89677875e-004, 1.98583002e-005,
          -1.44727281e-004, 3.03160283e-004, 6.17697719e-004,
          -6.91622263e-005, -2.62879385e-005, -1.31191395e-004,
          5.28173223e-005, -5.03545962e-005, -2.00220657e-005,
          -7.57598100e-005, -3.59043624e-005, 2.39988542e-004,
          -4.58857648e-005, 1.69887411e-004, 3.34209180e-005,
          -2.02315903e-004, -1.50556283e-004, -2.71878060e-004,
          5.79446532e-005, -3.76556909e-006, -1.22420650e-004,
          -2.28336416e-004, -2.12623461e-004, -3.16368005e-006,
          -2.06022582e-004, -1.81126277e-004, -3.42061758e-005,
          -1.33164431e-004, -9.31447139e-005, -2.50415265e-004,
          1.28943342e-004, 9.39472084e-005, 6.94491973e-005,
          -9.51732000e-005, -1.35062555e-005, -1.21701023e-005,
          -3.89341440e-005, -3.21086372e-005, -2.40061599e-005 ]
      - [ -1.08420217e-019, -3.55300945e-005, -1.77359660e-004,
          -2.39023517e-004, -8.58569038e-005, -1.61904609e-004,
          2.33863189e-004, 8.06314230e-004, 5.94326993e-004,
          -1.51945569e-004, -2.87110415e-005, -1.74009529e-005,
          -2.43530245e-004, -4.64347067e-005, 1.21292804e-004,
          2.76766805e-004, 3.12376855e-004, 3.21813597e-004,
          5.81307919e-004, 1.19658210e-003, 7.09106564e-004,
          -6.90157758e-004, -3.81368678e-004, -4.63481905e-004,
          2.56864325e-004, -6.01096654e-005, 5.57556414e-005,
          4.51230560e-004, 3.80695070e-004, -4.61678392e-005,
          -7.26079679e-006, 2.46000913e-004, 5.16367902e-004,
          -6.33840609e-005, -9.25964196e-005, -2.75382830e-004,
          9.09785667e-005, -2.86060589e-004, -2.93365476e-004,
          -2.13542255e-004, -3.44450149e-004, -4.07984015e-004,
          -5.08270023e-005, 2.43824528e-004, 6.91245426e-004,
          -9.73874703e-005, 3.94808536e-004, -1.15947929e-004,
          9.09785667e-005, -2.91609322e-004, -3.12440650e-004,
          -2.15980996e-004, -2.28508259e-004, -2.02797411e-004,
          7.53600534e-006, 4.84155724e-004, 7.38920877e-004,
          -2.30076141e-004, 1.68508108e-004, 4.40832460e-004,
          2.72602338e-004, -1.91483385e-004, -2.58884917e-004,
          -3.28157171e-007, -1.08420217e-019, 1.29663622e-005,
          5.05994365e-004, 1.22633751e-003, 7.74070271e-004,
          1.19897923e-004, 1.28826301e-004, 4.77043155e-004,
          2.72602338e-004, -1.90835635e-004, -2.73299578e-004,
          1.66943180e-004, 2.74345570e-004, 6.05444715e-004,
          7.50571955e-004, 6.47068082e-004, 2.68964977e-005,
          -4.95773042e-004, 1.44265403e-004, -8.00739726e-005,
          1.76337388e-004, -2.96270475e-004, -3.74023148e-005,
          1.02047948e-003, 8.17811873e-004, 7.35736918e-004,
          5.42306865e-004, 3.58347083e-004, -7.98198307e-005,
          -4.74504108e-004, -2.62815127e-004, -2.40458015e-004,
          1.11155183e-004, 2.20718692e-004, 5.26167336e-004,
          1.23586436e-003, 7.51773419e-004, 4.87445213e-004,
          2.61700683e-004, -2.58730637e-004, -5.51529694e-004,
          -5.14561310e-004, -4.45946760e-004, -2.98512663e-004,
          4.63508622e-004, 2.48493539e-004, 2.73750557e-005,
          3.83039529e-004, 2.28689823e-004, -1.02170692e-004,
          -3.49610084e-004, -4.27878927e-004, -2.39946254e-004,
          -5.65084410e-005, -9.74283466e-007, -1.08420217e-019 ]
      - [ -6.99039310e-006, 6.86908743e-006, 1.14511167e-005,
          4.08852393e-005, 8.02404466e-005, 7.88352772e-005,
          1.07481588e-004, 2.51778838e-004, 3.10485688e-004,
          2.78553140e-004, 2.84835434e-004, 1.86519726e-004,
          1.27147374e-004, 1.37208845e-004, 2.24463831e-004,
          2.61053763e-004, 3.09962663e-004, 3.77611286e-004,
          4.25208360e-004, 3.86320753e-004, 1.55265967e-004,
          2.66654752e-005, 2.48164706e-005, -9.09237715e-005,
          2.56621337e-004, 2.29886791e-005, -6.45094551e-005,
          1.85039917e-005, -2.49827663e-005, -1.52866472e-004,
          -2.23836090e-004, -2.28801742e-004, -1.81517520e-004,
          9.15392666e-005, 1.34302158e-004, -7.32750323e-006,
          2.01477000e-004, -8.61303779e-005, -1.55535337e-004,
          -4.02643127e-005, -1.58553539e-005, 2.76676474e-006,
          5.35411309e-005, 5.84493828e-005, 1.50634223e-004,
          4.07583371e-004, 1.93101718e-004, -5.20117064e-005,
          2.01477000e-004, 2.83648933e-006, 1.41417244e-004,
          2.50565325e-004, 2.40106499e-004, 2.54616200e-004,
          1.98193113e-004, 1.66304322e-004, 1.38317162e-004,
          3.57646320e-004, 1.85910947e-004, -4.57464303e-005,
          2.56621337e-004, 1.72027852e-004, 2.56027211e-004,
          3.47765017e-004, 2.12876752e-004, 1.47155588e-004,
          2.31622835e-004, 3.25046480e-004, 1.74566187e-004,
          5.28399134e-004, 1.09434724e-004, 2.27682456e-018,
          2.56621337e-004, 1.90040519e-004, 3.68951791e-004,
          4.86671168e-004, 4.05347615e-004, 2.80323467e-004,
          1.27601146e-004, 3.13033597e-005, 8.71882294e-005,
          4.30383254e-004, 2.03548960e-004, 2.27682456e-018,
          2.45544303e-004, 1.52175518e-004, 1.14891132e-004,
          1.81144744e-004, 1.57972216e-004, 2.20368660e-004,
          1.51099710e-004, 2.91919248e-004, 2.90914555e-004,
          2.57322426e-005, -1.83283537e-005, -1.10770379e-005,
          2.14408850e-004, 1.48105712e-004, 3.96577845e-004,
          4.38518386e-004, 2.67651310e-004, 8.75543919e-005,
          -5.55809384e-005, -7.63417484e-005, -7.63417484e-005,
          -5.50858131e-005, -4.52062923e-005, -4.22124976e-005,
          2.76950770e-004, 3.02047101e-005, -1.39991957e-004,
          -5.08945013e-005, -5.29901554e-005, -7.09529195e-005,
          -6.22709194e-005, -4.82000869e-005, -2.09565587e-005,
          2.27682456e-018, 2.27682456e-018, 2.27682456e-018 ]
      - [ -4.33680869e-019, -1.79079882e-006, 5.99981540e-005,
          1.69509498e-004, 4.35765454e-004, 2.49531964e-004,
          2.15529013e-004, 4.66215453e-004, 8.90191368e-005,
          -5.85472386e-004, -3.34236596e-004, -3.03561304e-004,
          -2.09598264e-004, 3.96946671e-005, 1.16125848e-004,
          5.11508784e-004, -5.80178312e-005, -3.06789676e-004,
          -2.50035635e-004, -1.69491395e-004, 4.29666950e-004,
          -5.45890362e-005, -2.00806171e-004, -5.23313764e-004,
          1.11148460e-004, 3.04242247e-004, 3.78597819e-004,
          3.53093725e-004, -2.33527317e-004, -3.72858369e-004,
          -3.73281015e-004, -2.98906816e-004, 2.34657091e-005,
          3.12481920e-004, 2.05036791e-004, -8.49653873e-007,
          3.59213998e-004, 3.06065544e-004, 3.95176787e-004,
          2.79659900e-004, -1.21240126e-004, -1.48948282e-004,
          -1.15808070e-004, -3.44902182e-005, 6.04374873e-005,
          2.75330705e-004, 4.22611454e-004, 2.94295663e-004,
          4.04855906e-004, 3.67981789e-004, 3.50256247e-004,
          2.24247618e-004, -3.45846311e-005, -3.45846311e-005,
          -3.45846311e-005, -3.45846311e-005, -2.08558013e-005,
          1.93419211e-004, 4.68253333e-004, 3.39937542e-004,
          4.87199810e-004, 4.14824870e-004, 3.76217300e-004,
          3.41087929e-004, 8.03835719e-005, 4.77592766e-005,
          4.77592766e-005, 5.85219314e-005, 9.94937291e-005,
          3.13768745e-004, 5.50597208e-004, 4.22281446e-004,
          3.28098831e-004, 3.37638281e-004, 4.55323723e-004,
          4.21069271e-004, -1.15752620e-004, -2.60345056e-004,
          -2.96567450e-004, -2.62959540e-004, 4.51503511e-005,
          5.10251441e-004, 4.14782262e-004, 2.63180496e-004,
          -5.90670825e-005, 2.57447507e-004, 1.49987100e-004,
          2.35399581e-004, -4.08446387e-004, -4.43173485e-004,
          -2.82703084e-004, -1.26045328e-004, 3.59486061e-004,
          5.24749281e-004, 3.04327084e-004, -1.05679799e-004,
          -3.72463081e-004, -3.42339452e-004, -3.64975334e-004,
          4.98373469e-004, 3.22750653e-004, -3.42241256e-005,
          -2.45512172e-004, -1.06769876e-004, 3.01209278e-004,
          4.09754022e-004, -9.51254260e-005, -1.03521525e-004,
          3.99205564e-005, -9.18891747e-005, 4.12042791e-005,
          3.67000874e-004, 1.91143292e-004, 8.34351886e-005,
          4.54003493e-005, 8.95138946e-005, 3.15110607e-004,
          5.28954668e-004, 2.98112718e-004, 3.79807549e-004 ]
      - [ 0., 3.60194099e-006, 7.54491120e-005, 1.47024184e-004,
          1.56978538e-004, -7.03169462e-006, -1.41357974e-004,
          -1.74445071e-004, -1.46831386e-004, -2.21845927e-004,
          -6.62538077e-005, -8.32627338e-005, -5.84651498e-005,
          -8.60293803e-005, -1.23354126e-004, -2.28574558e-004,
          -2.00558206e-004, 3.51320778e-005, 2.52321275e-004,
          2.61674868e-004, 8.67323542e-005, -2.44743540e-004,
          -1.11376830e-004, -1.34537288e-004, -1.10884837e-004,
          -1.27134917e-004, -2.08623154e-004, -1.19537275e-004,
          1.90322717e-005, 7.88945617e-005, 1.78950082e-004,
          1.72922068e-004, 1.73534485e-004, 1.61985154e-004,
          1.31286535e-004, -4.56684174e-005, -4.95573877e-005,
          -2.80585446e-005, -7.83146388e-005, 1.54460082e-004,
          2.22037983e-004, 2.29199199e-004, 2.12384650e-004,
          2.69529701e-004, 2.80418579e-004, 1.42983408e-004,
          8.90187439e-005, 1.67374328e-005, -1.04952587e-005,
          2.37604880e-004, 1.81542651e-004, 3.26821493e-004,
          3.67443718e-004, 3.87740176e-004, 3.36692727e-004,
          1.89485290e-004, 9.02887114e-005, -7.45619836e-005,
          -6.69257497e-005, -6.63394821e-005, -3.30677358e-005,
          1.61399767e-005, 1.29977570e-005, 3.35177174e-004,
          4.17203788e-004, 3.87051346e-004, 1.91908504e-004,
          7.29902604e-005, 5.78170184e-005, -5.47405034e-005,
          -6.15416357e-005, -5.60716398e-005, 6.14934688e-005,
          1.46354039e-004, 3.83127699e-005, 2.00204129e-004,
          2.57086853e-004, 3.01198452e-004, 2.98158993e-004,
          1.40343633e-004, 5.27066259e-005, -3.96385913e-005,
          -1.52760858e-005, -3.78035693e-005, 3.23196611e-004,
          3.28088179e-004, 1.50901295e-004, 2.15418040e-004,
          2.20095782e-004, 1.66162761e-004, 2.02860596e-004,
          2.31110069e-004, 2.40327587e-004, 1.17357187e-004,
          7.88317775e-005, 1.47865021e-005, 4.40693511e-005,
          2.00515555e-004, 1.15396964e-004, 2.28302219e-004,
          4.30832260e-005, -5.30086181e-005, -1.18784679e-004,
          -1.33790556e-004, -1.23002596e-004, -7.52330889e-005,
          7.19332093e-006, 9.83685641e-006, -4.97599940e-005,
          1.79524704e-005, -9.38185913e-005, 1.84182773e-005,
          4.83315489e-005, 2.09446989e-005, -6.63007959e-005,
          -9.05880806e-005, -5.33023122e-005, -1.27535495e-005,
          -2.19888790e-007, 0. ]
      - [ 1.28444182e-004, 3.46778717e-004, 3.94228322e-004,
          2.34376974e-004, -1.03477374e-004, -4.22116951e-004,
          -2.97210820e-004, -2.54934683e-004, -2.27172728e-004,
          -3.21427389e-004, -9.69144239e-005, 9.55435899e-005,
          4.12981899e-004, 3.21372587e-004, 3.32127471e-004,
          2.78585416e-004, 2.60043656e-004, 5.42834787e-005,
          -1.62875862e-004, -1.45839702e-004, -1.93442756e-004,
          -2.30543868e-004, 2.94301339e-004, 9.91948909e-005,
          2.29667261e-004, 3.47519177e-004, 4.09273256e-004,
          5.21850248e-004, 4.74809000e-004, 2.57352258e-005,
          -8.69186697e-005, -7.98020701e-005, 1.45007114e-004,
          2.42424212e-004, 3.49117850e-004, 4.00257959e-005,
          -1.50178326e-004, 7.02807447e-005, 1.41857279e-004,
          3.27140093e-004, 2.74243881e-004, 1.32018075e-004,
          5.62069836e-005, 1.85204437e-004, 5.51812467e-004,
          2.45209725e-004, 2.16301385e-004, -5.38576660e-006,
          -2.87588453e-004, -2.49187724e-004, -1.89678889e-004,
          1.00687961e-004, 1.45420592e-004, 1.74116998e-004,
          2.48708995e-004, 3.89124325e-004, 4.88631136e-004,
          1.90483697e-004, 1.15700379e-004, -3.47042333e-005,
          -2.52884201e-004, -2.30055899e-004, -2.56930100e-004,
          -5.90808340e-005, -1.62630326e-019, -1.62630326e-019,
          3.95364128e-004, 3.60722886e-004, 3.56827892e-004,
          2.63186394e-005, -4.56443240e-006, -1.62630326e-019,
          -2.52884201e-004, -2.30055899e-004, -2.56930100e-004,
          -6.18591803e-005, 1.68286952e-005, 2.71723024e-004,
          1.83374883e-004, 2.79932108e-004, 2.47756048e-004,
          -1.25023798e-004, -4.56443240e-006, -1.62630326e-019,
          -2.60226981e-004, -2.39581670e-004, -2.76802893e-004,
          -1.11935355e-004, 2.01872055e-004, 2.09253601e-004,
          1.92637715e-004, 2.81744928e-004, -3.19941282e-005,
          -1.61671880e-004, -1.32963896e-005, -7.34278228e-006,
          -3.28412309e-004, -3.09553056e-004, -3.84891464e-004,
          1.13378046e-004, 5.21991096e-005, 8.07329779e-005,
          2.74134974e-004, 2.23273892e-004, -1.42192832e-004,
          -1.47581683e-004, -7.75126246e-005, -7.55280853e-005,
          -2.54462706e-004, -2.33420462e-004, -3.56786797e-004,
          1.17501673e-004, -5.06969882e-005, 1.72026033e-004,
          1.37991665e-004, -1.05518389e-004, -7.60514085e-005,
          -1.42817453e-005, -1.57848206e-006, -1.57848206e-006 ]
      - [ -6.30771547e-006, -3.39646213e-005, -3.96087671e-005,
          2.44230941e-005, 1.11012218e-004, 3.74355790e-004,
          3.02957225e-004, 3.70397029e-005, -3.43014428e-004,
          -3.23031622e-004, 3.08475544e-004, 2.69782497e-004,
          -3.28901078e-004, -4.41659329e-004, -6.39367790e-004,
          -3.26274137e-004, 4.80634662e-005, 4.28509753e-004,
          5.03660005e-004, 4.06288658e-004, 1.12660346e-004,
          1.41967146e-004, 4.68736078e-004, -2.55359715e-004,
          -3.14995385e-004, -2.66855612e-004, -2.58818327e-004,
          -1.76511130e-005, -2.10069324e-004, -4.99219983e-004,
          -5.49899181e-004, -5.12276602e-004, -5.89254378e-005,
          2.73647922e-004, 5.55878432e-005, -1.20247350e-004,
          -2.35275103e-004, 2.93794088e-004, 2.72333215e-004,
          4.39261174e-004, 1.97654605e-004, -1.59734031e-004,
          6.96808784e-005, 3.05088732e-004, 2.50724901e-004,
          2.24567630e-004, -1.31239707e-004, -1.09256194e-004,
          1.17162985e-004, 2.35637621e-004, 2.31634855e-004,
          5.44097857e-004, 2.32726874e-004, 4.78990114e-004,
          6.13513577e-004, 4.25765553e-004, 4.02714999e-004,
          -1.01318161e-004, -1.84373610e-004, -1.32347734e-004,
          -2.08300189e-004, -1.47635306e-004, -2.32934079e-004,
          2.29111800e-004, 5.98503451e-004, 6.29748276e-004,
          1.38133997e-004, 4.07717889e-004, 2.48922501e-004,
          -1.11336449e-004, -6.99306547e-005, -1.79047820e-005,
          -2.08300189e-004, -2.57075357e-004, -9.30703463e-005,
          5.20235684e-004, 3.21820989e-004, 2.06267100e-006,
          1.64467288e-004, 3.76963348e-004, -2.38042799e-006,
          -1.20196877e-004, -7.05375351e-005, -1.79047820e-005,
          -2.13768624e-004, -1.65202859e-004, 4.69799634e-005,
          1.73579698e-004, -6.42141968e-005, -6.51528671e-006,
          3.24285909e-004, -3.70995849e-006, -4.73328255e-005,
          -1.43196608e-004, -8.26767573e-005, -2.18618825e-005,
          -1.34780625e-004, 1.16011826e-004, -4.26697748e-004,
          -1.86267425e-004, -1.25466002e-004, 2.64503789e-004,
          1.21446494e-004, -9.62843769e-005, -1.04570565e-004,
          -1.64733283e-004, -1.35332477e-004, -1.18291151e-004,
          2.70024291e-004, -2.21723007e-004, -5.48905169e-004,
          -1.39628435e-004, -1.05762541e-004, 1.69811945e-004,
          -1.21640085e-004, -1.54486988e-004, -1.30561442e-004,
          -6.97784926e-005, -2.94283000e-005, -8.22828588e-006 ]
      - [ 6.19395520e-004, 2.84511101e-004, -1.03663762e-004,
          -2.43502844e-004, -2.48685508e-004, -2.27552417e-004,
          -1.20243800e-004, -9.26009452e-005, -9.26009452e-005,
          -2.80192355e-004, -2.58993910e-004, -3.16698104e-004,
          3.25945410e-004, 6.29488277e-005, -5.29438221e-005,
          -4.23260426e-005, -2.84062844e-005, -5.07325567e-005,
          -6.61728991e-005, -1.06852516e-004, -1.46209364e-004,
          -4.17961099e-004, -3.28720926e-004, -1.89171740e-004,
          2.17723878e-004, 1.10619105e-004, -3.05804242e-005,
          -1.26397266e-004, -1.27942461e-004, -1.06151841e-004,
          -2.00143113e-004, -2.27584911e-004, -1.17144678e-004,
          -2.40859459e-004, -7.90763152e-005, -7.04356789e-005,
          2.18160392e-004, 1.21716461e-004, 2.71165864e-005,
          -7.42995599e-006, -1.20041364e-006, 2.30392962e-019,
          2.30392962e-019, 2.30392962e-019, 2.30392962e-019,
          -2.02890573e-004, -7.62462005e-005, -7.04356789e-005,
          2.18160392e-004, 1.40578850e-004, 7.77333044e-005,
          4.33109672e-005, 6.23762171e-005, 6.23762171e-005,
          6.23762171e-005, 5.40319052e-005, 3.33697935e-005,
          -1.90058010e-004, -7.62462005e-005, -7.04356789e-005,
          2.26107353e-004, 2.21584851e-004, 2.06378740e-004,
          1.96798792e-004, 2.75504135e-004, 2.71719560e-004,
          3.52688949e-004, 4.92231571e-004, 5.13685751e-004,
          2.23543160e-004, 2.25533542e-004, 4.66969504e-006,
          1.34923219e-004, 7.80063565e-005, 3.36131598e-005,
          -8.58928470e-005, -1.03561833e-004, -1.06470834e-004,
          -1.14002571e-004, 7.33031557e-005, 5.32730541e-004,
          4.08925291e-004, 5.01257658e-004, 3.92517686e-004,
          2.09011152e-004, 9.08313232e-005, -1.82056629e-005,
          -7.33716079e-005, -4.33120804e-005, -9.83129576e-006,
          9.99677241e-007, 3.67787521e-004, 5.52995072e-004,
          3.83375620e-004, 3.22179461e-004, 8.30785430e-005,
          8.05149321e-005, -5.28736427e-006, -5.32612103e-005,
          -4.46807826e-005, 1.05596395e-004, 2.28343357e-004,
          1.94222288e-004, 1.81085430e-004, -2.25512467e-005,
          -2.49899982e-004, -1.38535368e-004, -9.70515102e-005,
          1.54783454e-004, 1.59360105e-004, 1.53443791e-004,
          -5.94105541e-006, -1.30996341e-004, -1.60637414e-004,
          -2.35492189e-004, -2.24729738e-004, -1.58266892e-004,
          -6.11928990e-005, -4.26317854e-007, 2.30392962e-019 ]
      - [ 4.13257163e-004, 3.11166892e-004, 8.90306037e-005,
          -4.85970704e-005, -1.99256392e-004, -2.13865249e-004,
          -1.17993055e-004, -6.05439636e-005, -5.57972780e-005,
          -1.04511302e-004, -1.48584368e-004, -2.46504875e-004,
          2.86577735e-004, 1.79765149e-004, -1.93411979e-005,
          -7.73948850e-005, -1.39844065e-004, -1.27337276e-004,
          -8.84045294e-005, -6.99149823e-005, -9.45693100e-005,
          -2.10414772e-004, -2.45653064e-004, -2.40390509e-004,
          2.15791864e-004, 1.70707630e-004, 3.51253220e-005,
          -2.69032466e-006, -3.71631104e-005, -5.09980309e-005,
          -5.02363910e-005, -1.48860699e-005, -1.46555249e-005,
          -7.64691140e-005, -5.54336148e-005, -3.43467727e-005,
          1.89291532e-004, 2.43385861e-004, 2.37764354e-004,
          2.70928664e-004, 2.42982176e-004, 2.40472742e-004,
          2.33896280e-004, 2.65184091e-004, 3.01112043e-004,
          1.40688484e-004, 1.08929111e-004, 6.22899825e-005,
          1.89291532e-004, 2.71912577e-004, 2.29958488e-004,
          1.93383545e-004, 1.09709668e-004, 7.81086928e-005,
          6.30932409e-005, 1.41274781e-004, 2.11095787e-004,
          5.60318222e-005, 1.07265201e-004, 1.19364959e-004,
          2.00258015e-004, 2.10869941e-004, 8.31677244e-005,
          7.27775841e-005, 2.23920651e-005, 4.05856190e-005,
          6.86392668e-005, 1.30408138e-004, 2.33968982e-004,
          1.25737191e-004, 1.58570430e-004, 1.30331435e-004,
          1.81065378e-004, 2.54455808e-004, 2.69444427e-004,
          2.72724981e-004, 2.41679722e-004, 2.47426477e-004,
          2.35416403e-004, 2.57844455e-004, 2.80778157e-004,
          1.54263951e-004, 1.56248556e-004, 1.11138805e-004,
          1.04628649e-004, 1.04474624e-004, 8.24969829e-005,
          6.75147166e-005, 3.81388454e-005, 2.96714261e-005,
          4.17083356e-005, 1.27655221e-004, 1.78920236e-004,
          9.68985914e-005, 1.95293833e-004, 2.24805917e-004,
          -2.22708899e-004, -1.94273918e-004, -1.12016343e-004,
          -8.16836473e-005, -7.23273042e-005, -6.68809953e-005,
          -9.42239785e-005, -4.53419489e-005, 3.51689741e-005,
          -2.85721271e-005, 1.30583605e-004, 3.27875430e-004,
          -2.28785881e-004, -2.09339676e-004, -1.68969549e-004,
          -1.26883635e-004, -1.26428073e-004, -1.43932761e-004,
          -1.56349692e-004, -5.78042891e-005, 7.56569352e-005,
          7.74691944e-005, 2.12905157e-004, 3.11322598e-004 ]
      - [ 1.08420217e-019, 1.08420217e-019, 1.44587539e-004,
          2.37319928e-005, -1.27601408e-004, -1.89007988e-004,
          -1.95334826e-004, -1.54521422e-005, 2.51410442e-004,
          -1.86036370e-004, -1.23732534e-004, -1.21684585e-004,
          -6.14085220e-005, -6.62681123e-005, 2.43167146e-004,
          5.10253121e-005, -1.84805060e-004, -2.21310285e-004,
          -1.70575164e-004, 5.29491481e-005, 2.55343737e-004,
          -2.18931615e-004, -1.95766726e-004, -1.89367420e-004,
          -8.51466320e-005, -8.53633028e-005, 1.26571889e-004,
          1.22988844e-004, -3.62133651e-005, -1.42629215e-004,
          -1.14842849e-004, 5.06874167e-005, 2.60636909e-004,
          7.30184038e-005, 1.07126507e-004, 1.38560164e-004,
          2.66117888e-004, 2.97574996e-004, 2.43461589e-004,
          3.87475360e-004, 3.17505357e-004, 1.99845395e-004,
          1.55600617e-004, 2.71240715e-004, 4.04684077e-004,
          2.66498711e-004, 1.97807749e-004, 2.04702301e-004,
          1.67909908e-004, 1.02138772e-004, 1.87325306e-004,
          1.89990838e-004, 2.85159967e-005, -5.37660890e-006,
          7.26775852e-006, 1.75710302e-004, 4.07531828e-004,
          4.77218873e-006, -1.17832817e-004, -1.10938272e-004,
          1.02764297e-005, -4.73577984e-006, 1.41082797e-004,
          2.09467005e-004, 4.75562119e-005, 7.26775852e-006,
          2.37425847e-005, 2.04403579e-004, 4.32274654e-004,
          1.18171964e-004, 3.27729831e-005, 5.89595438e-005,
          2.12976811e-004, 2.22266171e-004, 2.03463263e-004,
          3.62577935e-004, 3.07475362e-004, 2.92040699e-004,
          3.64446780e-004, 3.65582149e-004, 3.84828862e-004,
          3.02493369e-004, 3.02599074e-004, 3.05019465e-004,
          3.51641036e-004, 2.70470278e-004, 6.70239097e-005,
          5.45795665e-005, 2.81266566e-005, 6.71742746e-005,
          1.00997408e-004, 2.47081189e-004, 3.57269106e-004,
          -2.87214461e-005, -1.09667402e-004, -7.35400536e-005,
          -9.66616499e-005, -1.14333947e-004, -1.42727749e-005,
          1.24590602e-004, 7.55292285e-006, -4.88941259e-005,
          -1.14364389e-004, -2.74567428e-005, 1.95090091e-004,
          -5.77618412e-005, -9.09284354e-005, -2.65408980e-005,
          -1.32090790e-004, -1.76941350e-004, -4.39376236e-005,
          3.71232745e-005, -1.39384705e-004, -2.15452572e-004,
          -2.09188962e-004, -7.95035521e-005, 1.20221528e-004,
          -5.96963946e-006, -8.18562985e-005, -6.39367427e-005 ]
      - [ 5.42101086e-020, -2.36207461e-006, -3.76963580e-005,
          -8.80730149e-005, -9.38465018e-005, 1.16614981e-004,
          2.72541831e-004, 1.26781175e-004, -4.02101250e-005,
          -2.97001912e-004, -1.36643241e-004, -1.35251044e-004,
          -9.24993219e-005, -1.59342468e-004, -2.07121062e-004,
          -2.73762504e-004, 8.44396709e-006, 3.36470875e-005,
          -2.02904572e-004, -2.49788300e-005, 3.01290915e-004,
          -2.96950602e-004, -2.29679077e-004, -2.14824206e-004,
          -2.17923502e-004, -2.33437415e-004, -2.93934165e-004,
          -1.07029126e-004, 1.72781714e-004, -8.67690978e-005,
          -1.21013341e-004, 1.93538392e-004, 1.57371906e-004,
          -3.21729836e-004, -2.60178553e-004, -2.17395660e-004,
          -9.97193929e-005, -1.12478694e-004, -2.62680958e-004,
          1.32974185e-006, 3.39009304e-004, 4.34459798e-004,
          3.05672904e-004, 1.93540673e-005, -8.34964449e-005,
          -1.39364609e-004, -7.92405262e-005, -7.35279391e-005,
          -6.68748253e-005, 1.92156411e-004, 3.62551014e-004,
          5.39220870e-004, 3.41206323e-004, 3.38694925e-004,
          3.52709292e-004, 9.56997537e-005, 8.63276364e-005,
          -9.13267504e-005, -7.33902853e-005, -7.35279391e-005,
          4.57268994e-004, 6.40666578e-004, 7.93471700e-005,
          1.01265498e-004, 3.78406665e-004, 5.81336033e-004,
          5.67629759e-004, 5.56223677e-004, 4.75101057e-004,
          3.87115899e-004, 3.85196821e-004, 1.17627897e-004,
          3.90481873e-004, 3.26658977e-004, -2.65406503e-004,
          2.01008632e-004, 2.59325927e-004, 8.81140440e-005,
          4.55684640e-005, 1.94227221e-004, 4.80184935e-005,
          -1.04531551e-004, 2.40567984e-004, 5.63996553e-004,
          -7.14491762e-005, 1.89797065e-005, -1.03675964e-004,
          -3.27115049e-005, -1.42759527e-005, 3.66963322e-005,
          1.68251408e-005, 7.32340559e-005, 3.00669344e-004,
          3.47641108e-005, 2.23892421e-004, 8.52194353e-005,
          -1.99614442e-004, -1.20760531e-004, -2.11670049e-004,
          -2.95623590e-006, 4.94148662e-005, -4.56509661e-005,
          -1.00453042e-004, -2.03854725e-005, 5.04791569e-005,
          -1.57819697e-004, -1.81729687e-004, -1.27748004e-004,
          -1.75671536e-004, -8.67616618e-005, -2.01075163e-004,
          9.29851012e-005, 1.67710765e-004, 1.04713537e-004,
          -8.47959163e-005, -4.04238890e-005, -1.78965038e-005,
          -1.07477927e-005, -1.37196894e-005, 5.42101086e-020 ]
      - [ -4.36339315e-006, -1.46888569e-005, -5.56393825e-005,
          -6.54458245e-006, 9.18007208e-005, 3.88434019e-005,
          -5.08990706e-005, -9.31603245e-006, 3.50797527e-005,
          3.29383911e-005, 1.93389875e-004, 2.31737067e-004,
          7.04998602e-005, 1.05476181e-004, 3.57640965e-005,
          2.82346955e-005, 2.82346955e-005, 2.82346955e-005,
          1.78266127e-005, 1.43941588e-006, 2.05947199e-005,
          3.20773433e-005, 1.22814517e-005, -2.07713252e-004,
          8.81879823e-005, -3.50674454e-005, -4.46547434e-004,
          -4.75084380e-004, -4.82684904e-004, -4.68252576e-004,
          -5.15901425e-004, -5.95782185e-004, -5.62377740e-004,
          -1.41094497e-005, 1.52045846e-004, 1.48174313e-005,
          1.02629463e-004, 1.58323295e-004, -9.20191305e-005,
          -2.57122501e-005, 4.57884271e-005, 1.43353522e-004,
          2.30223770e-004, 1.19832475e-005, 3.79447847e-005,
          4.02307865e-004, 1.44573887e-005, -6.38800630e-005,
          9.85986553e-005, 3.54904303e-004, 5.97913458e-004,
          6.41069084e-004, 5.60945016e-004, 5.27995697e-004,
          3.70550115e-004, 2.40620982e-004, 1.84953224e-005,
          1.58112467e-004, -2.38771332e-004, -1.58162526e-004,
          1.10691079e-004, 5.53533260e-004, 5.89636562e-004,
          5.67073876e-004, 3.91809619e-004, 3.12333548e-004,
          3.77443474e-004, 3.21885222e-004, -3.79462464e-004,
          3.02308734e-004, -1.90747189e-004, -1.60507843e-004,
          1.10691079e-004, 5.85622329e-004, 7.56859372e-004,
          6.63973799e-004, 4.29776352e-004, 3.32776153e-006,
          -4.76247020e-004, -6.30869123e-004, -3.41431965e-004,
          6.02047134e-004, 1.01402991e-004, -7.44847421e-005,
          1.10691079e-004, 3.26540612e-004, -3.28535592e-004,
          -4.41283832e-004, -4.28434549e-004, -1.81607364e-004,
          -7.78180547e-005, 2.14453088e-004, 2.75393220e-004,
          2.02407482e-005, -1.57718478e-005, 6.50521303e-019,
          1.02054582e-004, 7.12546243e-005, 1.31999564e-004,
          2.10353290e-004, 1.67721839e-004, 3.29833310e-005,
          -6.61260274e-005, -2.28491826e-005, -1.90845567e-005,
          -2.98196210e-006, 6.50521303e-019, 6.50521303e-019,
          1.21246725e-004, 8.02761570e-005, -1.46116974e-004,
          -1.16996533e-004, -3.07296214e-005, -1.45048834e-005,
          -3.21100470e-006, 6.50521303e-019, 6.50521303e-019,
          6.50521303e-019, 6.50521303e-019, 6.50521303e-019 ]
      - [ -8.05351988e-007, -1.40119582e-005, 1.25691622e-005,
          1.45449258e-005, 1.65034013e-004, 9.73352871e-005,
          6.26650362e-005, -1.30919187e-004, -1.84694829e-004,
          -2.39954868e-004, -2.14240456e-004, -1.48113279e-004,
          -2.25666110e-004, -1.12935675e-004, 3.10540236e-005,
          1.42021396e-004, -1.48690087e-004, -2.71001860e-004,
          -2.18570713e-004, -3.97716241e-004, -1.39063457e-004,
          5.03716074e-005, -1.18753596e-004, -2.65011273e-004,
          -1.03172511e-004, 9.34962300e-005, 1.49583648e-004,
          5.22313121e-006, -2.40739173e-004, -3.89250228e-004,
          -2.43268965e-004, -3.78480530e-004, -1.64854675e-004,
          7.96051609e-005, 1.44575402e-004, 1.34631293e-004,
          1.24031809e-004, 2.53573526e-004, 3.01879132e-004,
          2.79989705e-004, 9.94890652e-005, -2.72257057e-006,
          8.78003120e-005, -1.76931018e-004, 5.11586732e-005,
          3.08975141e-004, 1.08429915e-004, 1.73849621e-004,
          2.66944786e-004, 3.30412411e-004, 2.83894187e-004,
          2.74270627e-004, 1.75328969e-004, 1.68845188e-004,
          1.62234486e-004, -9.91828128e-005, 5.97014659e-005,
          2.18666843e-004, 2.92655721e-004, 1.32862842e-004,
          2.35837244e-004, 3.52830160e-004, 2.83894187e-004,
          3.08083254e-004, 1.89731669e-004, 1.55869857e-004,
          8.01823990e-005, -1.81260009e-004, -7.00284072e-005,
          1.86633566e-004, 4.28985106e-004, 1.55343223e-004,
          6.20624196e-005, 2.90910772e-004, 3.45801527e-004,
          2.84395966e-004, 5.54059188e-005, -1.38459858e-004,
          -2.88762443e-004, -3.56276840e-004, 3.50492082e-005,
          4.50444320e-004, 2.52428523e-004, 2.07975958e-004,
          -1.86585748e-004, 9.06762434e-005, 1.82876262e-004,
          -1.95941266e-005, -2.92104465e-004, -3.86498432e-004,
          -3.78541095e-004, -2.48318509e-004, 2.88564159e-004,
          5.93924720e-004, 2.73564307e-004, 5.65095615e-005,
          -3.45757056e-004, -3.10380536e-004, -3.05428752e-004,
          -5.96524042e-005, -1.14994342e-004, -2.23526993e-004,
          -2.01496892e-004, 1.22917209e-005, 3.94010305e-004,
          3.87242850e-004, 8.07279430e-005, 2.74438675e-019,
          -4.34863032e-005, -8.25796233e-005, -1.35851311e-004,
          -7.78650210e-005, 3.69460986e-006, 1.36601477e-004,
          2.83342466e-004, 3.24202148e-004, 3.66723922e-004,
          3.79016274e-004, 1.97354006e-004, 1.97354006e-004 ]
      - [ -2.43945489e-019, -3.00174634e-006, 4.82124742e-005,
          7.66696176e-005, 1.54829599e-004, 6.28473790e-005,
          -2.56061147e-004, -3.12586199e-004, -2.13279374e-004,
          -1.52104039e-004, -3.82244907e-005, -2.53742601e-005,
          -1.00519515e-004, -1.20379591e-004, -2.10374958e-004,
          -2.29414698e-004, -1.97283312e-004, 5.34699620e-006,
          1.16112227e-004, -5.05469689e-005, -9.08906532e-006,
          -9.88778047e-005, -7.17376315e-005, -1.06492589e-004,
          -7.32917179e-005, -8.99402294e-005, -2.25456592e-004,
          -1.89823259e-004, -1.26646744e-004, 2.23698971e-005,
          1.37311014e-004, 4.50636871e-005, 1.17403659e-004,
          2.84043694e-004, 2.82852969e-004, 1.19657379e-004,
          -6.61034137e-005, -2.84566195e-005, -3.62124774e-005,
          2.28815290e-004, 3.47944559e-004, 4.55549161e-004,
          2.97823804e-004, 1.74787448e-004, 3.07757495e-004,
          1.66978672e-004, 5.32678932e-005, 3.45380977e-005,
          3.32483469e-005, 1.85435376e-004, 1.81917683e-004,
          4.42123972e-004, 4.48955572e-004, 4.48202976e-004,
          2.55096500e-004, 9.76826923e-005, 5.59537439e-005,
          -1.39711861e-004, -2.23870607e-004, -1.91062310e-004,
          -4.07996267e-005, -1.13603674e-005, 1.25633978e-005,
          4.09590692e-004, 4.66379366e-004, 4.84431919e-004,
          1.48552572e-004, -4.02170772e-005, -7.29526209e-006,
          -2.25332042e-006, -6.86458879e-005, -2.03947653e-004,
          9.94416860e-006, 8.40649227e-005, 8.92729531e-006,
          2.07020479e-004, 2.12266285e-004, 2.37622386e-004,
          1.54100766e-004, 9.07035937e-005, 1.80393850e-004,
          1.75954672e-004, 7.46669903e-005, -1.14008319e-004,
          3.67744680e-004, 3.00562941e-004, 3.91834983e-005,
          5.25950381e-005, 2.26011653e-005, -3.94870985e-005,
          -1.84654200e-005, 6.57020937e-005, 2.29503072e-004,
          2.19095557e-004, 6.96719580e-005, 2.13096901e-005,
          -2.57022493e-005, 1.40295902e-004, 1.17235504e-005,
          -1.21440835e-005, -1.52940964e-004, -2.05381628e-004,
          -2.50858662e-004, -5.95248348e-005, 3.68341534e-005,
          5.13285559e-005, 1.68001588e-005, 9.09467144e-006,
          -1.81268726e-004, -1.38526011e-004, -1.36927862e-004,
          -1.02946200e-004, -1.70715095e-004, 2.69396442e-005,
          1.07673288e-004, 2.89387681e-005, -2.43945489e-019,
          -2.43945489e-019, -2.43945489e-019, -2.43945489e-019 ]
      - [ 8.88968643e-005, 3.07279610e-004, 4.18076350e-004,
          3.16852733e-004, 4.40165059e-005, -2.23030773e-004,
          -3.22718552e-004, -5.53530932e-004, -4.36050614e-004,
          -2.84787791e-004, -1.48325926e-004, 4.46834165e-005,
          3.51507770e-004, 2.84135313e-004, 2.28021367e-004,
          2.08588201e-004, 1.79910290e-004, 2.01025614e-005,
          -2.52239988e-004, -5.55619015e-004, -5.27779048e-004,
          -5.86332862e-005, 2.52097787e-004, 8.45808827e-005,
          9.64123465e-005, 2.57683889e-004, 2.17039778e-004,
          2.47534190e-004, 2.00861265e-004, 2.00603517e-005,
          3.97550393e-005, -3.81640748e-005, 1.03873041e-004,
          3.07271839e-004, 3.04165937e-004, 3.08068811e-005,
          -1.41868353e-004, 5.30184479e-005, 3.14100216e-005,
          2.49544537e-004, 2.69117823e-004, 2.16270928e-004,
          1.65544741e-004, -4.42525106e-006, 2.05976859e-004,
          2.59977212e-004, -6.39067366e-005, -1.57570117e-004,
          -1.94701715e-004, -1.14881244e-004, -1.82209653e-004,
          5.95330166e-005, 8.73821191e-005, 8.73821191e-005,
          1.48483246e-004, 1.63268312e-004, 1.37319541e-004,
          1.45820988e-004, -3.56815071e-005, -2.55006045e-004,
          -1.94701715e-004, -1.14881244e-004, -2.11337028e-004,
          -2.78491007e-005, -2.69356477e-019, -2.59264925e-006,
          2.43017173e-004, -2.05825672e-005, 2.75746243e-005,
          -1.21953435e-005, -7.15651986e-005, -2.00692244e-004,
          -1.94701715e-004, -1.14881244e-004, -2.29414713e-004,
          -1.01067060e-004, -1.33022186e-004, -5.64442307e-005,
          -3.36437333e-005, -1.77516267e-006, 1.20676537e-004,
          -4.89458762e-005, -1.65366204e-004, -5.85352391e-005,
          -1.94754582e-004, -1.75655019e-004, -3.69035639e-004,
          -4.34195215e-004, -2.60151370e-004, -6.49922149e-005,
          4.57307724e-005, -2.21476766e-005, -8.78553983e-005,
          -2.94574711e-005, -3.62360988e-005, -2.69356477e-019,
          -2.65126670e-004, -2.86599039e-004, -5.69395605e-004,
          -2.65505194e-004, -1.81494746e-004, -6.42874074e-005,
          1.31095236e-004, 5.27919510e-005, -9.36355209e-005,
          -3.80943602e-005, -2.69356477e-019, -2.69356477e-019,
          -1.95177519e-004, -1.87281330e-004, -4.31080320e-004,
          -9.74815994e-005, -1.81219002e-004, 6.07703878e-005,
          1.27300242e-004, -5.13556779e-006, -2.69356477e-019,
          -2.69356477e-019, -2.69356477e-019, -2.69356477e-019 ]
      - [ 1.62630326e-019, -1.03251286e-005, -8.06429489e-006,
          6.31902803e-005, 1.55330083e-004, 3.32503259e-004,
          1.58657291e-004, -1.83279626e-004, -4.53557557e-004,
          -2.74257327e-004, 1.39079639e-004, 2.45787756e-004,
          -2.26805365e-004, -3.03577806e-004, -4.06491017e-004,
          -2.22167364e-004, -1.43456909e-005, 2.03543794e-004,
          1.28015134e-004, -6.96072675e-005, -1.10435336e-004,
          2.40634370e-004, 3.64669919e-004, -8.39628701e-005,
          -1.84626697e-004, -6.18033082e-005, -2.06745855e-004,
          -1.87983853e-004, -3.14295408e-004, -3.73909483e-004,
          -4.26610786e-004, -4.11541027e-004, -6.82914833e-005,
          2.18539659e-004, 1.05694788e-004, -2.59300195e-005,
          -1.35404422e-004, 3.21454339e-004, 2.50456244e-004,
          4.60087234e-004, 3.69291927e-004, 8.93807592e-005,
          9.15868659e-005, 1.54167326e-004, 1.60637865e-004,
          1.77298672e-004, -2.83047644e-004, -9.43285777e-005,
          1.58462150e-004, 2.91466102e-004, 1.82397562e-004,
          4.45269485e-004, 3.89172055e-004, 3.62086605e-004,
          3.58242309e-004, 1.06166204e-004, 1.00247555e-004,
          -6.69488918e-006, -1.25977953e-004, -2.92981422e-004,
          -1.16535557e-004, 6.64739709e-005, -9.19077502e-005,
          1.94546214e-004, 4.31313500e-004, 4.73856344e-004,
          4.41288103e-005, -6.39277323e-006, -4.91023020e-005,
          -1.10403380e-004, -4.02190635e-005, -2.38001798e-004,
          -1.60358904e-004, -7.91818093e-005, -6.65888656e-005,
          2.88605195e-004, 8.61161243e-005, -2.21089154e-004,
          -7.57004746e-005, -1.20081113e-005, -9.47247681e-005,
          -1.83634711e-005, -1.35957365e-004, -5.28135570e-005,
          -1.60358904e-004, -3.64377374e-005, -1.04962091e-004,
          -2.92768615e-004, -4.64764540e-004, -1.80164920e-004,
          2.40842091e-005, -1.02254038e-004, -1.60366471e-005,
          -1.94100703e-005, -2.85140341e-005, 1.62630326e-019,
          -1.39072275e-004, -7.48477469e-005, -5.86238632e-004,
          -5.61243913e-004, -2.22031507e-004, 9.04701483e-006,
          -1.32366156e-004, -8.56230763e-005, -2.38299253e-005,
          -9.77026957e-006, 1.62630326e-019, 1.62630326e-019,
          5.84215268e-005, -2.90853233e-004, -5.81427710e-004,
          -2.36470281e-004, 1.86489942e-005, 5.50800287e-005,
          -4.87311809e-005, -3.33618959e-006, 1.62630326e-019,
          1.62630326e-019, 1.62630326e-019, 1.62630326e-019 ]
      - [ 4.03236452e-004, 1.54108478e-004, 1.61551961e-005,
          -1.02427162e-004, -1.26389161e-004, -1.43831145e-004,
          -1.96714042e-004, -3.12443386e-004, -2.06744982e-004,
          -1.53151224e-004, -1.29367239e-004, -8.75166879e-005,
          2.06251134e-004, 2.37893983e-005, -6.79037548e-005,
          -1.66245853e-004, -1.66245853e-004, -1.66245853e-004,
          -2.07940175e-004, -3.85272200e-004, -3.30978219e-004,
          -1.88494887e-004, -1.53157918e-004, -1.18310432e-004,
          1.60665382e-004, 4.59651419e-005, -3.93403825e-005,
          -1.46725870e-004, -1.48325940e-004, -1.42496938e-004,
          -1.82881195e-004, -3.25085275e-004, -3.01367661e-004,
          -2.89335090e-004, -1.23280377e-004, -1.33541687e-006,
          1.60665382e-004, 9.73259012e-005, 9.83420978e-005,
          -5.42101086e-020, -1.08165923e-005, -2.91706579e-006,
          -4.94487867e-005, -1.91189960e-004, -1.46277060e-004,
          -1.19255063e-004, -2.30541322e-004, -1.00294295e-004,
          1.60665382e-004, 1.06737636e-004, 1.68442843e-004,
          1.24391270e-004, 1.24391270e-004, 1.24391270e-004,
          8.23534065e-005, -4.29927568e-005, -3.76092212e-005,
          -7.93690924e-005, -1.69305829e-004, -2.87015835e-004,
          1.79488852e-004, 2.53888866e-004, 2.41326488e-004,
          1.63644028e-004, 1.67313512e-004, 1.59974559e-004,
          2.81927962e-004, 2.99541105e-004, 3.40306113e-004,
          2.81504617e-004, 1.63732970e-004, -1.74169691e-004,
          1.60665382e-004, 9.73259012e-005, 1.18891192e-004,
          1.10084438e-005, 1.35071259e-005, 2.72297566e-005,
          -2.72893867e-005, 1.04782615e-004, 2.95807229e-004,
          3.59704631e-004, 2.60933535e-004, 2.79270869e-004,
          1.60665382e-004, 4.81789612e-005, -5.44876857e-005,
          -2.63927912e-004, -2.25981843e-004, -1.66448124e-004,
          -2.06196419e-004, 1.26150873e-004, 3.41770472e-004,
          3.76880926e-004, 2.62182759e-004, 2.00780967e-004,
          2.81669018e-005, -1.62486336e-004, -2.65367533e-004,
          -2.38148597e-004, -7.30160245e-005, 1.63661953e-005,
          -5.84626214e-005, 7.30108222e-005, 4.86950012e-005,
          -2.25910280e-005, -1.12934922e-005, -5.42101086e-020,
          6.21377330e-005, 8.31781290e-005, 8.64939193e-006,
          -1.11142959e-004, -1.58614552e-004, -1.60617579e-004,
          -8.09943012e-005, -1.03088705e-005, -5.42101086e-020,
          -5.42101086e-020, -5.42101086e-020, -5.42101086e-020 ]
      - [ 3.16038844e-004, 2.35610991e-004, 4.94082524e-005,
          -4.31278131e-005, -1.47159662e-004, -1.71414926e-004,
          -2.00807859e-004, -2.82114313e-004, -2.02052994e-004,
          -1.56241804e-004, -1.07742118e-004, -4.10284993e-005,
          1.31741108e-004, 9.60873149e-005, -5.21812944e-005,
          -1.08054242e-004, -1.81038078e-004, -1.81038078e-004,
          -2.00807859e-004, -2.96163169e-004, -2.85878428e-004,
          -1.95260538e-004, -1.47936167e-004, -7.54086941e-005,
          1.31712513e-004, 1.22864847e-004, -4.41372176e-005,
          -8.79342624e-005, -1.23145175e-004, -9.17556026e-005,
          -7.94649022e-005, -1.48553081e-004, -1.32940928e-004,
          -8.54663376e-005, 4.08271990e-005, 7.35103022e-005,
          1.22707759e-004, 2.04975877e-004, 2.42868773e-004,
          2.61432200e-004, 2.47469230e-004, 2.53321457e-004,
          2.20300848e-004, 9.95141527e-005, 9.61317419e-005,
          -3.24665452e-005, -3.91858412e-005, -1.45844729e-006,
          1.18205389e-004, 2.01392977e-004, 1.99360395e-004,
          1.69156949e-004, 9.11615934e-005, 6.36834593e-005,
          2.95729405e-005, 1.60149557e-005, 9.43187406e-005,
          -6.94697083e-005, 1.66305163e-005, 2.10803682e-006,
          1.31712513e-004, 1.67127466e-004, 8.87575006e-005,
          7.50834079e-005, 1.86206871e-005, 3.37499951e-005,
          1.26462382e-005, -7.83652577e-005, 9.60883517e-006,
          3.51702001e-005, 1.53200657e-004, 4.20077376e-005,
          1.31712513e-004, 2.12083032e-004, 1.90643332e-004,
          1.82307878e-004, 1.45286249e-004, 1.09265238e-004,
          7.08745210e-005, 1.30850794e-005, 1.99571106e-004,
          1.95655986e-004, 1.38569230e-004, 1.10748610e-004,
          6.78171709e-005, 6.03398476e-005, -1.37626294e-005,
          -7.58694223e-005, -1.01262820e-004, -1.02399317e-004,
          -6.47640700e-005, 1.20192453e-005, 1.80832401e-004,
          1.69375548e-004, 2.04227108e-004, 2.04778466e-004,
          -1.64085010e-004, -1.83101074e-004, -2.19024369e-004,
          -1.97433954e-004, -1.95887667e-004, -1.80410745e-004,
          -1.64310855e-004, -3.60316990e-005, 1.23777354e-004,
          1.02952537e-004, 1.72015221e-004, 2.90125055e-004,
          -1.68475075e-004, -1.60811411e-004, -1.82862786e-004,
          -1.80973540e-004, -1.65302030e-004, -1.16882919e-004,
          -5.45594994e-005, 7.24846832e-005, 1.71704320e-004,
          1.24635815e-004, 1.84761753e-004, 2.45361123e-004 ]
      - [ 5.42101086e-020, -2.16334956e-006, 8.71169323e-005,
          -9.03678010e-005, -2.36950669e-004, -3.07456066e-004,
          -3.43935564e-004, -2.54635437e-004, 9.37004952e-005,
          -4.71618441e-005, -6.31253861e-005, -2.32417424e-005,
          -1.17396383e-004, -1.22061341e-004, 1.15940777e-004,
          -3.05935441e-006, -2.31670288e-004, -3.43935564e-004,
          -3.43935564e-004, -2.43344315e-004, -2.54784336e-005,
          -1.32024812e-004, -1.07188025e-004, -7.65895820e-005,
          -1.48729567e-004, -1.16242831e-004, 1.02282320e-004,
          7.08208063e-006, -1.56378388e-004, -2.16694243e-004,
          -1.62379583e-004, -1.49043743e-004, 4.81206334e-005,
          7.10816530e-005, 2.10372571e-004, 2.30884834e-004,
          1.66119818e-004, 2.11121718e-004, 2.22905830e-004,
          4.43966477e-004, 3.61926330e-004, 2.91604461e-004,
          2.67901662e-004, 6.38701677e-005, 2.40038382e-004,
          2.08561076e-004, 9.73202405e-005, 1.74265486e-004,
          4.82183314e-005, 4.36810296e-005, 1.90178820e-004,
          2.97527033e-004, 1.00683319e-004, 6.96869620e-006,
          -7.30973443e-006, 8.82120003e-005, 1.52907422e-004,
          -1.50344649e-005, -1.43457335e-004, -1.84347518e-004,
          -7.97810499e-005, -4.68589315e-005, 1.56800394e-004,
          3.13968223e-004, 1.20207049e-004, 2.21753398e-005,
          1.58930525e-005, 8.17715409e-006, 1.15082286e-004,
          6.24926470e-005, 1.30333850e-004, 1.06685775e-005,
          1.04079110e-004, 1.49758780e-004, 1.74141242e-004,
          4.01567318e-004, 3.24033928e-004, 2.72622361e-004,
          2.88334268e-004, 9.67245069e-005, 2.37522690e-004,
          3.91957263e-004, 3.56407982e-004, 3.30492796e-004,
          2.57417036e-004, 2.92446930e-004, 1.40221833e-004,
          7.62391210e-005, -6.82753234e-005, -1.23376347e-004,
          -1.18673954e-004, -3.86467900e-006, 3.39263235e-004,
          1.94207212e-004, -4.06536674e-005, 3.69558143e-006,
          -1.40495598e-004, -1.32947214e-004, -3.73476760e-005,
          -9.96037343e-005, -2.75477447e-004, -2.87310482e-004,
          -2.06317942e-004, 5.12612969e-005, 3.44453729e-004,
          1.49013460e-004, 5.42101086e-020, 5.42101086e-020,
          -7.79144393e-005, -8.76933918e-005, 2.56411113e-006,
          5.03935626e-005, -9.09664886e-005, -1.38557938e-004,
          -8.33006197e-005, 1.06930442e-004, 2.64345756e-004,
          1.36154762e-004, 5.42101086e-020, 5.42101086e-020 ]
      - [ 4.65868121e-020, -7.11134726e-006, -2.80408040e-005,
          -8.46274488e-005, -4.40038602e-005, 1.74312896e-004,
          1.51886445e-004, -1.28519940e-004, -1.55331858e-004,
          -1.39717391e-004, -5.45822877e-005, -6.33556410e-005,
          -1.13922186e-004, -1.60589392e-004, -2.40634152e-004,
          -8.21517824e-005, 8.72963792e-005, 2.76883075e-005,
          -2.79820815e-004, -4.06112493e-004, -5.49475699e-005,
          -1.63738790e-004, -1.25405801e-004, -1.11812406e-004,
          -9.19887752e-005, -9.47566659e-005, -2.57199310e-004,
          -9.92722125e-005, -2.77022118e-005, -4.76438654e-005,
          -1.07785345e-004, 2.06069381e-005, 7.14189664e-005,
          -2.03668911e-004, -9.47021981e-005, -9.29184807e-006,
          -8.24269737e-005, -6.45092441e-005, -1.41690180e-004,
          1.51661763e-004, 4.67803649e-004, 5.28688426e-004,
          3.81153892e-004, -1.85966092e-005, -1.97784058e-004,
          -1.54985391e-004, -2.46373325e-004, -1.32881469e-004,
          -4.54771289e-005, 1.83896613e-004, 3.10078816e-004,
          4.71641222e-004, 3.20204883e-004, 3.13091383e-004,
          2.69582582e-004, -1.41525234e-004, -3.19870123e-005,
          -1.42915369e-005, -1.85370824e-004, -2.89126445e-004,
          3.80408019e-004, 4.71777515e-004, 5.52473757e-005,
          2.44650495e-004, 3.98190954e-004, 3.38615180e-004,
          2.95843201e-004, 2.54333445e-005, 1.84165285e-004,
          2.78294174e-004, 2.39144530e-004, -1.10032277e-004,
          2.78643885e-004, 2.98697705e-004, -8.99353035e-005,
          2.54538521e-004, 1.77366004e-004, -9.78589233e-005,
          -2.04163429e-004, -7.98972542e-006, -5.72833824e-006,
          1.27287703e-005, 1.25651291e-004, 3.68794310e-004,
          -7.49969040e-005, -2.26756274e-005, -1.33212379e-004,
          -1.69536244e-004, -2.55749939e-004, -2.35773463e-004,
          -1.80850489e-004, -9.07805297e-005, 3.12013377e-004,
          1.96959256e-004, 1.26539569e-004, 2.34267118e-005,
          -2.18788278e-004, -1.60365264e-004, -3.48992558e-004,
          -1.88337304e-004, -1.40143646e-004, -1.81027935e-004,
          -2.35826446e-004, -1.95191198e-004, 2.06126220e-004,
          -4.91984520e-006, -4.78631846e-005, -6.47946035e-006,
          -1.47604005e-004, -6.92227477e-005, -2.08223937e-004,
          2.51233359e-005, 5.39845532e-005, 1.05599996e-004,
          1.23974009e-004, 1.65318881e-004, 1.31216730e-004,
          1.64479334e-005, 4.65868121e-020, 4.65868121e-020 ]
      - [ 8.13151629e-020, -4.24027057e-005, -6.74730327e-005,
          -8.02507639e-005, -4.55863119e-005, -8.39288405e-005,
          -9.38444427e-005, -1.06111984e-004, -2.25026190e-004,
          -3.16860096e-004, -3.66837834e-004, -2.86644907e-004,
          -2.96059297e-004, -2.59897497e-004, -1.38267074e-004,
          -1.14960050e-004, -2.25520067e-004, -2.73876212e-004,
          -2.53785809e-004, -2.30897451e-004, -1.11755275e-004,
          -1.09180372e-004, -2.02775365e-004, -1.73744105e-004,
          -2.83566187e-004, -5.68218784e-005, 1.20705117e-004,
          2.44045714e-005, -6.52835588e-005, -1.53768357e-004,
          -3.78716322e-005, 5.92624237e-005, 1.00304918e-004,
          6.58201316e-005, 1.08369444e-004, 1.02606493e-004,
          -1.38667776e-004, 4.32777015e-005, 2.45594594e-004,
          1.73620181e-004, 5.61552042e-005, -3.11009208e-005,
          -7.27242195e-006, 5.18403394e-005, 3.72518007e-005,
          -9.74464856e-005, 1.58084353e-004, 2.60966510e-004,
          -5.31168625e-005, 3.91627545e-005, 1.27732437e-005,
          -3.03543075e-005, -7.14065827e-005, -6.51044902e-005,
          -2.07953799e-005, 1.46866350e-005, 5.80150336e-005,
          -8.00464186e-005, 1.94815788e-004, 3.41314240e-004,
          -6.46514454e-005, -2.83811896e-005, -1.15098452e-007,
          -1.48121417e-005, -1.31924671e-005, 6.96062170e-006,
          -5.96522368e-005, -9.03560795e-005, 4.19317475e-005,
          -1.52606604e-004, 2.89339892e-004, 3.37584410e-004,
          -1.70048384e-004, -7.87012323e-005, -5.02148723e-005,
          -1.11375964e-004, -1.22944679e-004, -1.07945256e-004,
          -6.78259530e-005, 3.19446408e-005, 7.52676424e-005,
          -3.45431872e-005, 2.03366624e-004, 2.27219003e-004,
          -3.44103202e-004, -1.49277548e-004, 1.56356531e-004,
          8.27422118e-005, 1.80230290e-005, -9.80333425e-005,
          -1.17566204e-004, -7.36207512e-005, 4.50861880e-005,
          2.75928673e-004, 2.25108088e-004, 4.52974491e-005,
          -4.00137564e-004, -3.34990153e-004, -1.72591070e-004,
          -3.88771150e-005, 1.29033824e-005, 6.34023017e-005,
          1.17235642e-004, 1.82617150e-004, 2.62267917e-004,
          2.36750770e-004, 6.39333957e-005, 4.42140021e-007,
          -3.55976808e-004, -2.48758763e-004, 1.11415233e-004,
          1.40049189e-004, 1.64535246e-004, 1.98653492e-004,
          2.11696097e-004, 1.64154524e-004, 1.51981047e-004,
          1.53290166e-004, 4.62590433e-005, 4.62590433e-005 ]
      - [ -1.01643954e-019, -8.41634483e-006, -2.26904376e-005,
          -5.31661644e-005, -6.55177937e-005, -1.09788023e-004,
          -1.93005631e-004, -2.52501137e-004, -2.68056028e-004,
          -2.58029788e-004, -2.50510086e-004, -1.94052292e-004,
          -1.90183739e-004, -2.65856477e-004, -2.68056028e-004,
          -2.63770373e-004, -2.08611134e-004, -9.45847642e-005,
          -4.76448213e-006, -3.83109618e-005, -1.07678832e-004,
          -1.78882809e-004, -1.78692251e-004, -1.13135822e-004,
          -2.68056028e-004, -2.03965828e-004, -1.15340561e-004,
          -1.02909915e-004, -4.59150397e-005, 4.85616983e-005,
          1.67754843e-004, 1.96331544e-004, 2.07037840e-004,
          1.17460411e-004, 8.12610015e-005, 5.04457130e-005,
          -2.50523764e-004, -1.14977636e-004, 9.27578876e-005,
          1.41571683e-004, 1.72703934e-004, 2.17306762e-004,
          1.87772428e-004, 1.91864514e-004, 1.61246251e-004,
          -8.71481188e-006, -1.83402236e-007, 2.76417341e-005,
          -1.52107546e-004, -8.31410071e-005, -9.17378657e-007,
          1.12620350e-004, 1.39226715e-004, 1.54722613e-004,
          1.55369751e-004, 1.24215396e-004, 2.94380770e-005,
          -1.88428443e-004, -1.26439030e-004, -6.59865191e-006,
          -2.16163156e-004, -1.81400479e-004, -2.20745223e-005,
          1.27228661e-004, 1.76952017e-004, 1.88275633e-004,
          5.07997211e-005, -1.23315667e-005, 1.34190686e-005,
          -1.66041718e-004, -5.59894979e-005, -1.01643954e-019,
          -2.32285849e-004, -1.49629122e-004, -7.15447895e-005,
          -2.86093054e-005, 2.53381713e-005, 1.36909701e-004,
          1.99260059e-004, 1.90051724e-004, 1.21953868e-004,
          -4.19841381e-005, 1.55265298e-005, 3.51317613e-005,
          -7.63737262e-006, 2.08957317e-005, 1.64733297e-004,
          1.72462853e-004, 1.57572038e-004, 5.15575593e-005,
          2.76682331e-005, -1.04012133e-005, 3.06246761e-006,
          8.29344135e-005, 1.00518977e-004, 8.03335352e-005,
          -4.11184155e-005, -4.78815082e-007, 7.37731762e-006,
          1.40508309e-005, -1.58971011e-006, -2.31790000e-005,
          -4.57930400e-006, 5.58617603e-006, 1.18107719e-005,
          1.80353672e-005, 2.63348302e-005, 9.41669623e-006,
          -2.38551060e-004, -6.32345764e-005, 1.43751400e-004,
          1.28157451e-004, 7.01290992e-005, 9.31158575e-005,
          4.87007637e-005, 9.74015256e-006, -1.01643954e-019,
          -1.01643954e-019, -1.01643954e-019, -1.01643954e-019 ]
      - [ 5.13259292e-005, 1.11576846e-004, 9.22098261e-005,
          4.18734053e-005, -6.95882773e-005, -1.72287619e-004,
          -2.19517955e-004, -2.53783219e-004, -2.59187596e-004,
          -2.45435309e-004, -2.08577738e-004, -8.62186789e-005,
          2.39015408e-005, -3.23914537e-005, -1.80238530e-005,
          -1.80238530e-005, -3.56413402e-005, -1.05182167e-004,
          -1.92853156e-004, -2.42061622e-004, -2.27694574e-004,
          -1.28455824e-004, -8.06723438e-006, 3.53391879e-005,
          -8.65373440e-005, 4.55610243e-005, 1.45548896e-004,
          1.43945188e-004, 1.23307269e-004, 4.59763796e-005,
          5.35030231e-005, 9.59007957e-005, 1.64824014e-004,
          1.00347781e-004, 7.24063793e-005, 4.07413536e-005,
          -2.25223746e-004, -7.18415540e-005, 1.33627109e-004,
          1.55601432e-004, 1.32020941e-004, 9.57302327e-005,
          5.01727664e-005, 4.37542949e-005, 1.24119877e-004,
          -6.16081015e-005, -2.09738428e-005, 5.10534346e-006,
          -2.59187596e-004, -2.07280682e-004, -1.29759093e-004,
          -8.78113933e-005, -6.76564669e-005, -5.80772867e-005,
          -8.52394351e-006, 9.74332288e-005, 1.13243557e-004,
          -5.95075944e-005, -5.87495051e-005, -5.71179817e-006,
          -2.59187596e-004, -2.44432129e-004, -1.37985451e-004,
          -1.18351156e-004, -8.33862650e-005, -7.25725477e-005,
          2.20195598e-005, 2.89418745e-006, 4.55274494e-005,
          -1.83443728e-004, -5.22986375e-005, 5.42101086e-020,
          -2.59187596e-004, -2.55379739e-004, -2.18372079e-004,
          -1.98678274e-004, -1.55962582e-004, -2.02378724e-005,
          6.09549970e-005, 9.02684624e-005, 3.39876788e-005,
          -1.96491193e-004, -7.73025968e-005, 5.42101086e-020,
          -2.59187596e-004, -2.41100250e-004, -1.04027058e-004,
          -9.00581435e-005, -1.01233645e-005, -3.86480770e-006,
          9.95615483e-006, 6.06683079e-006, -9.39064412e-005,
          -3.18858874e-005, -5.40438805e-007, 5.42101086e-020,
          -2.59187596e-004, -2.59187596e-004, -2.50386889e-004,
          -1.05538864e-004, -3.06360525e-005, 5.77618484e-005,
          1.38296455e-004, 1.03822320e-004, 5.42101086e-020,
          5.42101086e-020, 5.42101086e-020, 5.42101086e-020,
          -2.59187596e-004, -1.93001193e-004, -2.74681879e-005,
          7.80651899e-005, 5.92998804e-005, 1.28735934e-004,
          1.22727972e-004, 1.11612762e-005, 5.42101086e-020,
          5.42101086e-020, 5.42101086e-020, 5.42101086e-020 ]
      - [ -2.71050543e-020, -3.64389452e-005, -9.52800474e-005,
          -7.53885106e-005, -5.58214670e-005, 2.69428638e-005,
          5.70518159e-006, -1.40904172e-004, -3.37185309e-004,
          -3.07099690e-004, -1.90819352e-004, -8.48273339e-005,
          -2.45296425e-004, -3.34688113e-004, -3.25605739e-004,
          -2.16380198e-004, -1.25017075e-004, -3.54000476e-005,
          -2.88529354e-005, -3.33191674e-005, -1.25559483e-004,
          -4.51986853e-005, 1.78256369e-006, -9.00468658e-005,
          -3.37185309e-004, -2.18660571e-004, -5.85125636e-005,
          -6.24794484e-005, -1.13621201e-004, -1.33213252e-004,
          -1.02211437e-004, -6.74319672e-005, 6.26048131e-005,
          2.98552022e-005, -4.74982808e-005, -1.37441930e-005,
          -3.23412765e-004, -3.74391639e-005, 2.39655055e-004,
          2.11578357e-004, 1.28450265e-004, -1.02364174e-005,
          1.15422617e-005, 6.60716614e-005, 3.97272561e-005,
          -1.48902167e-004, -1.37129740e-004, -2.49719619e-006,
          -1.76584406e-004, -8.97890277e-005, 2.53820417e-005,
          3.71265887e-005, 3.62880601e-005, 7.82455845e-006,
          8.91629097e-005, 6.13323573e-005, 7.39511597e-005,
          -2.23606810e-004, -1.53373490e-004, -7.49158835e-006,
          -3.11983225e-004, -2.41740199e-004, -7.88125108e-005,
          -4.21982404e-005, 8.74949546e-005, 1.16062089e-004,
          -2.40757217e-005, -1.07779497e-005, -3.78949262e-005,
          -3.18599486e-004, -6.82044993e-005, -2.71050543e-020,
          -3.37185309e-004, -3.32190917e-004, -1.88758539e-004,
          -9.83776699e-005, -1.12189453e-004, -1.29854467e-004,
          6.84816187e-005, 8.56456172e-005, -9.32114272e-005,
          -2.67029973e-004, -1.00316589e-004, -2.71050543e-020,
          -3.37185309e-004, -2.85397633e-004, 7.91659932e-006,
          -3.85154053e-005, -1.18920085e-004, -5.39525281e-005,
          2.20757611e-005, -1.39517564e-004, -1.42929086e-004,
          -4.11817819e-005, -6.97996313e-007, -2.71050543e-020,
          -2.91261880e-004, -1.99414979e-004, -2.76011153e-004,
          -2.48595781e-004, -5.31621590e-005, 1.02595193e-004,
          6.63708197e-005, -2.71050543e-020, -2.71050543e-020,
          -2.71050543e-020, -2.71050543e-020, -2.71050543e-020,
          -1.85382814e-004, -2.25189433e-004, -3.58103935e-005,
          5.90097479e-005, 1.56744645e-004, 1.08398599e-004,
          7.67633537e-007, -2.71050543e-020, -2.71050543e-020,
          -2.71050543e-020, -2.71050543e-020, -2.71050543e-020 ]
      - [ 2.74022837e-004, 1.92290769e-004, -1.19593515e-005,
          -1.63686840e-004, -2.24709569e-004, -2.57825712e-004,
          -2.65069859e-004, -2.88872106e-004, -2.99220905e-004,
          -2.78523308e-004, -2.63000111e-004, -2.04255935e-004,
          3.92163274e-005, -6.57303317e-005, -1.83183060e-004,
          -2.80788197e-004, -2.99220905e-004, -2.99220905e-004,
          -2.99220905e-004, -2.99220905e-004, -2.99220905e-004,
          -2.87837232e-004, -2.28849080e-004, -1.29010557e-004,
          -1.33421490e-005, 1.61885200e-005, -1.84159107e-005,
          -1.19541291e-004, -1.37973999e-004, -1.29694949e-004,
          -1.03407358e-004, -7.53105196e-005, -6.71617454e-005,
          -1.83313314e-004, -4.73129840e-005, -3.18631919e-006,
          -1.63184541e-005, 5.87002651e-005, 1.16037838e-004,
          1.10384381e-005, -8.45067279e-006, -1.27452768e-005,
          -2.02261999e-005, -2.37381719e-005, -8.08602199e-005,
          -2.49872333e-004, -1.07082691e-004, -5.54142503e-007,
          -1.63184541e-005, 2.82986803e-005, 7.03541009e-005,
          -2.00100476e-005, -6.01245711e-006, -3.37757447e-005,
          -1.94065997e-005, -7.16895602e-006, 1.76219328e-005,
          -1.30808170e-004, -1.86596735e-005, 1.26479717e-005,
          -1.35772916e-005, -3.57948848e-005, -2.86374925e-005,
          -5.11327817e-005, 3.25792939e-006, 6.52300951e-005,
          5.89706906e-005, 5.38041022e-005, 2.09139034e-004,
          -3.33335374e-005, 1.65110687e-004, 1.28459636e-004,
          -1.63184541e-005, -6.13369994e-005, -1.02333324e-004,
          -1.81705880e-004, -1.93667409e-004, -1.58780342e-004,
          -8.45362738e-005, 5.47689160e-005, 2.63821974e-004,
          6.30873546e-005, 1.85752346e-004, 1.95615023e-004,
          -1.63184541e-005, -6.10201241e-005, -3.44684231e-005,
          -1.10137422e-004, -7.99132686e-005, -7.11925604e-005,
          4.99247435e-005, 1.21551951e-004, 1.28123647e-004,
          1.82022399e-004, 1.48798019e-004, 8.40950306e-005,
          -3.86969296e-005, -6.06852118e-005, -1.41488927e-004,
          -1.52144159e-004, -1.33445201e-006, 1.58440147e-004,
          1.91948289e-004, 1.52083696e-004, 7.10519380e-005,
          2.92859531e-005, 8.72824330e-006, 5.28625435e-007,
          -7.34690257e-005, 6.35977267e-005, 1.92029707e-004,
          1.35757524e-004, 8.81075830e-005, 3.40411752e-005,
          7.71800751e-006, -2.71050543e-020, -2.71050543e-020,
          -2.71050543e-020, -2.71050543e-020, -2.71050543e-020 ]
      - [ 2.50513927e-004, 1.87731785e-004, 3.50392438e-005,
          -9.22405670e-005, -2.12585946e-004, -2.34145351e-004,
          -2.38861467e-004, -2.54357292e-004, -2.61094596e-004,
          -2.47619988e-004, -2.37514003e-004, -1.84191362e-004,
          3.27088565e-005, -4.10812099e-005, -1.33093272e-004,
          -1.98336798e-004, -2.61094596e-004, -2.61094596e-004,
          -2.61094596e-004, -2.61094596e-004, -2.61094596e-004,
          -2.53683567e-004, -2.15280874e-004, -1.14406495e-004,
          -2.64516748e-005, 2.42089500e-005, 1.34309075e-005,
          -5.17843546e-005, -9.23276384e-005, -7.12044639e-005,
          -3.90770510e-005, 1.34290103e-005, 1.10633819e-005,
          -1.18171301e-004, -5.31331425e-005, 1.51323939e-005,
          -2.64516748e-005, 8.32281949e-005, 2.21627750e-004,
          1.81857598e-004, 1.27166844e-004, 1.17087540e-004,
          8.88560098e-005, 9.48723755e-005, 6.67811037e-005,
          -1.51160799e-004, -3.48175381e-005, 4.95597997e-005,
          -2.64516748e-005, 4.72969950e-005, 7.54238572e-005,
          4.58903123e-005, 1.25492606e-005, -1.11671407e-005,
          5.94239100e-006, 8.14773957e-005, 1.26188301e-004,
          -7.13356931e-005, 4.67337159e-005, 1.46056889e-004,
          -2.64516748e-005, -3.09885254e-005, -3.00699448e-005,
          -6.99940356e-005, -7.03141122e-005, -3.37127458e-005,
          -5.16206528e-005, -5.26931399e-005, 8.12887665e-005,
          -1.06189487e-004, 1.11099151e-004, 1.50258915e-004,
          -2.64516748e-005, -1.15931289e-005, 2.50323192e-005,
          -1.28732081e-005, -3.10247997e-005, 1.80352417e-005,
          7.31872351e-005, 1.19568351e-004, 1.39410840e-004,
          -3.69155350e-005, 8.61586304e-005, 1.50258915e-004,
          -5.94086596e-005, -4.66626589e-005, 7.31045075e-005,
          5.79382686e-005, 4.47717975e-005, 1.02509568e-006,
          3.44865584e-005, 5.41948757e-005, 8.40278663e-005,
          1.34910573e-004, 2.09004211e-004, 1.94932800e-004,
          -1.61796153e-004, -1.61796153e-004, -1.52284105e-004,
          -1.54458874e-004, -1.25810999e-004, -5.92042525e-005,
          -8.08477489e-006, 6.75072079e-005, 1.47141807e-004,
          1.28001324e-004, 1.59378455e-004, 2.18075307e-004,
          -2.61094596e-004, -1.87826095e-004, -2.57305455e-005,
          -4.23516474e-021, -4.23516474e-021, -4.23516474e-021,
          -4.23516474e-021, 6.75072079e-005, 1.46752398e-004,
          1.28001324e-004, 1.51105502e-004, 1.76710600e-004 ]
      - [ 2.71050543e-020, -1.04941382e-005, -2.14485008e-005,
          -7.49969186e-005, -2.25309530e-004, -2.53121310e-004,
          -2.56915722e-004, -1.62428376e-004, -2.17218094e-005,
          -7.86463352e-005, -2.00935086e-004, -1.98205773e-004,
          -1.97502610e-004, -2.17377907e-004, -8.45915420e-005,
          -3.68677574e-005, -2.39858928e-004, -2.74803664e-004,
          -2.74803664e-004, -1.66222773e-004, -1.30488370e-005,
          -1.12615220e-004, -1.87119484e-004, -9.80182376e-005,
          -2.16359986e-004, -1.02926992e-004, 7.63904609e-005,
          1.30291679e-004, 1.58356252e-005, 6.44403326e-006,
          4.69846818e-005, 1.10488349e-004, 2.05346732e-004,
          5.90134841e-005, 7.92424180e-005, 1.95804096e-004,
          -7.39912502e-005, 2.63773800e-005, 2.38541936e-004,
          2.62974412e-004, 1.79647308e-004, 1.58827097e-004,
          1.23013044e-004, 1.68777755e-004, 1.71116029e-004,
          -2.23196434e-006, 3.80789643e-005, 1.44838355e-004,
          -1.53837929e-004, -6.90171728e-005, 8.35396349e-005,
          9.90309709e-005, -4.33122950e-005, -7.61361734e-005,
          -5.20014582e-005, 5.57301755e-005, 1.87789745e-004,
          -5.46680676e-005, -8.75566620e-005, 9.09700429e-006,
          -2.63663824e-004, -2.00481896e-004, 4.96674002e-005,
          1.30608401e-004, -3.29930735e-005, -4.17827905e-005,
          -7.70268525e-005, -1.22258152e-005, 1.67355029e-004,
          -5.88140501e-005, 7.59186150e-005, 7.82890420e-005,
          -1.06804335e-004, -8.20682326e-005, 9.97154871e-007,
          5.97990984e-005, 6.42454688e-005, 1.18518736e-004,
          1.97102068e-004, 2.23180425e-004, 1.92070613e-004,
          4.34847279e-005, 1.72514337e-004, 1.70799438e-004,
          -7.07885629e-005, -3.44715045e-005, 1.48136998e-004,
          1.58618044e-004, 4.74222688e-005, -2.69125048e-005,
          -3.18589409e-005, 2.48992801e-005, 1.47761311e-004,
          1.17720832e-004, 4.01781435e-005, 1.52020202e-005,
          -2.45110539e-004, -1.94978667e-004, -7.33025590e-005,
          5.01195500e-005, -8.18428452e-005, -5.24570605e-005,
          -6.50471020e-006, 9.09291193e-005, 2.35037165e-004,
          1.25847873e-004, 2.28572189e-005, 2.71050543e-020,
          -2.74803664e-004, -1.50924170e-004, 1.60624870e-004,
          2.51758465e-004, 4.12872942e-005, 2.71050543e-020,
          2.71050543e-020, 1.34452266e-005, 5.87276954e-005,
          2.58371965e-005, 1.16021502e-005, 2.71050543e-020 ]
      - [ 2.71050543e-019, -3.08583076e-005, -9.84432481e-005,
          -1.57836126e-004, -1.72515545e-004, -1.10361791e-004,
          -5.70833181e-005, -9.42338957e-005, -1.67351391e-004,
          -1.97803442e-004, -2.30645994e-004, -2.06324679e-004,
          -2.08036683e-004, -2.84668524e-004, -2.86820257e-004,
          -1.88367281e-004, -1.71171952e-004, -1.39993295e-004,
          -1.98918307e-004, -2.29109952e-004, -1.41060722e-004,
          -1.58839903e-004, -1.39581462e-004, -1.11449132e-004,
          -2.86820257e-004, -2.17083507e-004, -1.24019847e-004,
          -5.34343999e-005, -4.31960507e-005, -1.13811839e-005,
          -2.63176025e-005, 9.98198011e-005, 1.53797999e-004,
          -4.93104308e-005, -7.08518128e-005, -1.23725658e-005,
          -2.86820257e-004, -1.82410731e-004, 2.44837793e-006,
          4.81870993e-005, 1.57333998e-004, 2.11873499e-004,
          1.72227767e-004, 7.89065598e-005, -3.77269789e-005,
          -2.32454011e-004, -1.24117447e-004, -2.15175055e-006,
          -2.79360829e-004, -1.37624782e-004, 4.52261265e-005,
          1.08673579e-004, 5.98650622e-005, 5.00987007e-005,
          5.83849360e-005, -5.01597242e-005, -6.17136393e-005,
          -2.14216285e-004, -1.28202984e-004, -6.45525142e-006,
          -7.23758130e-005, 6.10582219e-006, 3.67727698e-005,
          -1.73309218e-005, 1.15045099e-004, 1.45018668e-004,
          9.56851218e-005, 8.63398673e-005, 1.15840638e-004,
          -2.30322712e-005, 1.12027563e-004, 6.28136258e-005,
          -4.08186861e-005, -8.54242244e-005, -1.71910753e-004,
          -5.40078763e-005, -2.09638147e-005, -1.14350616e-004,
          -3.40700608e-005, 8.77698913e-005, 5.64538686e-006,
          -2.01667033e-004, 1.11760877e-004, 2.73126730e-004,
          -2.69087002e-004, -1.69907114e-004, 3.97197027e-006,
          -2.40851223e-005, -9.57600787e-005, -1.20972865e-004,
          -1.05392173e-004, -1.13673465e-004, 7.02350953e-005,
          3.94935778e-005, 1.28865300e-004, 6.74366311e-005,
          -2.82497931e-004, -2.30149773e-004, -1.58167997e-004,
          -3.69073969e-005, -7.94349671e-006, 1.95676075e-005,
          2.42991100e-005, 3.19787359e-005, 1.52198845e-004,
          6.24702225e-005, 2.71050543e-019, 2.71050543e-019,
          -2.82978202e-004, -1.55077389e-004, 1.07459673e-004,
          1.76482616e-004, 1.52280831e-004, 1.38600895e-004,
          9.22619656e-005, 1.13452901e-004, 7.70928964e-005,
          1.06178868e-005, 2.71050543e-019, 2.71050543e-019 ]
      - [ 9.14795583e-020, 2.45668907e-005, 8.09906560e-005,
          8.84528054e-005, -6.27456348e-006, -8.57175401e-005,
          -2.12528044e-004, -2.48232740e-004, -1.30885281e-004,
          -2.89672716e-005, -1.51780694e-006, 9.14795583e-020,
          -1.51780694e-006, -5.84355657e-005, -1.50143926e-004,
          -3.04550689e-004, -1.59960997e-004, 8.83100292e-005,
          1.93230255e-004, 1.03231338e-004, -8.59091524e-005,
          -8.75565675e-005, 1.45265130e-005, 1.29155915e-005,
          -4.70520135e-005, -1.14916213e-004, -2.83409900e-004,
          -2.61703855e-004, -8.93001197e-005, 1.98491442e-004,
          1.86353747e-004, 1.61580159e-004, 1.26755316e-004,
          9.85310107e-005, 1.71841413e-004, 8.54091340e-005,
          -1.46804290e-004, -1.43975456e-004, -1.36345479e-004,
          4.47332059e-006, 1.30159402e-004, 3.08763963e-004,
          1.98071109e-004, 1.61580159e-004, 1.36364979e-004,
          1.88275517e-005, -8.69389623e-005, -7.13228219e-005,
          -1.57423099e-004, -5.03032643e-005, 1.69579143e-005,
          1.33872803e-004, 1.61580159e-004, 1.61580159e-004,
          1.07279564e-004, 2.44587700e-005, -1.11539281e-004,
          -2.80152308e-004, -3.45705746e-004, -3.23548476e-004,
          -2.16598040e-004, -2.52765050e-004, -1.27887790e-004,
          7.64082070e-005, 1.45284517e-004, 1.72122367e-004,
          4.53775829e-005, -9.94453876e-005, -1.61703356e-004,
          -2.41576723e-004, -3.45705746e-004, -2.90414348e-004,
          -7.00633173e-005, -1.11742163e-004, -9.36854631e-005,
          -3.50075752e-005, 1.30498747e-005, 2.13569903e-004,
          3.34852550e-004, 1.46866645e-004, -6.48728292e-006,
          -1.42020785e-004, -1.53340472e-004, -7.67042075e-005,
          3.38608254e-004, 2.84753041e-004, 1.09240347e-004,
          8.79185973e-005, 1.37200695e-004, 1.68531216e-004,
          2.06373195e-004, 3.09111601e-005, -7.23837293e-005,
          -6.60216610e-005, 6.26545952e-005, 9.66409061e-005,
          2.22856223e-004, 3.42143030e-004, 2.79799715e-004,
          3.19998508e-005, -8.63121531e-005, -1.38760748e-004,
          -1.58246577e-004, -2.39615401e-004, -2.93491263e-004,
          -1.22303987e-004, 4.68474209e-005, 5.94500943e-006,
          -4.10937100e-005, 9.63077982e-005, 1.04902523e-004,
          1.04490697e-004, -5.03565934e-005, -9.93396243e-005,
          -1.95264831e-004, -1.79669078e-004, -1.31496345e-004,
          -1.13128219e-004, -6.17696132e-005, -6.17696132e-005 ]
      - [ 5.62006317e-005, 1.48052277e-004, 1.68437691e-004,
          8.48138152e-005, -1.22838523e-004, -2.35149811e-004,
          -2.35244835e-004, -2.58511456e-004, -1.41154567e-004,
          -4.46716949e-005, 5.29126964e-006, 1.56470109e-004,
          2.68091710e-004, 2.11108185e-004, 1.51710730e-004,
          4.78607253e-005, 1.41245444e-004, 1.25509425e-004,
          -7.05907805e-005, -1.27474545e-004, -2.73878541e-004,
          -7.39113675e-005, 2.07166493e-004, 2.39076689e-004,
          2.44009323e-004, 2.12125786e-004, 1.18337754e-004,
          1.72201821e-004, 2.81026907e-004, 2.32878840e-004,
          1.32271816e-004, 7.55548172e-005, 1.19714554e-004,
          8.13374863e-005, 1.10060595e-004, 2.33340706e-005,
          -9.60076068e-005, -9.21430819e-006, -1.29682694e-005,
          1.09499939e-004, 2.05892182e-004, 2.24030446e-004,
          1.43261190e-004, 1.19495460e-004, 1.58663432e-004,
          -4.52297427e-005, -1.09833069e-004, -1.63019722e-004,
          -2.76091625e-004, -2.78441992e-004, -2.06635319e-004,
          -3.01633627e-005, 2.61952791e-005, 2.61952791e-005,
          3.05945941e-005, 4.62766839e-005, 7.38112576e-005,
          -5.20518297e-005, -2.08872210e-004, -2.78441992e-004,
          -2.47446354e-004, -2.65727867e-004, -2.58436630e-004,
          -1.85567318e-004, -1.26661835e-004, -1.11606627e-004,
          6.00431704e-005, 2.29889738e-005, 4.46053091e-005,
          -1.45068800e-004, -2.98914558e-004, -2.50406069e-004,
          -1.30665445e-004, -1.92981315e-004, -2.81885761e-004,
          -2.02984040e-004, -8.97559366e-005, 8.90479496e-005,
          8.66541450e-005, 1.06416679e-004, 1.02367185e-005,
          -2.78342486e-004, -2.22869188e-004, -1.30665445e-004,
          -2.45796073e-005, -1.42733872e-004, -2.61959416e-004,
          -2.47791322e-004, 1.08380254e-005, 6.85734485e-005,
          1.21438810e-004, 1.30726388e-004, -2.05494347e-004,
          -3.19948012e-004, -1.42733872e-004, -2.45796073e-005, 0.,
          -3.51137242e-005, -1.44104401e-004, -1.38803516e-004,
          -1.19200340e-004, 1.61571916e-005, 1.54099398e-004,
