%YAML:1.0
my_svm: !!opencv-ml-svm
   svm_type: C_SVC
   kernel: { type:LINEAR }
   C: 1.
   term_criteria: { epsilon:2.2204460492503131e-016, iterations:300 }
   var_all: 120
   var_count: 120
   class_count: 12
   class_labels: !!opencv-matrix
      rows: 1
      cols: 12
      dt: i
      data: [ 0, 1, 2, 4, 5, 6, 7, 8, 10, 11, 12, 13 ]
   sv_total: 66
   support_vectors:
      - [ -3.49783986e-005, -2.17793640e-004, -8.91797245e-004,
          9.31869261e-004, 1.61389122e-004, -5.90553333e-004,
          -1.98824587e-003, -6.17551105e-003, -6.29292661e-003,
          1.35113703e-004, -6.58654375e-004, 8.03819858e-005,
          9.50148795e-004, -6.57462369e-005, 2.71770492e-004,
          1.27241510e-004, -1.04405184e-003, 5.59773935e-006,
          -1.46293361e-003, -3.32542229e-003, -1.41766772e-003,
          3.03135323e-003, 1.54828851e-003, 1.91886630e-003,
          -1.68567465e-003, -1.23928871e-003, -5.97722712e-004,
          -4.05090395e-003, -3.83210531e-003, 1.62565988e-003,
          2.87214946e-003, 2.85539450e-003, 5.83711662e-004,
          -1.18717777e-004, -9.29765694e-004, -4.72612504e-004,
          9.46101136e-005, 2.91659991e-004, -2.06138575e-004,
          -4.24566861e-005, -1.20054465e-003, -1.85976620e-004,
          4.66211524e-004, 6.89056702e-004, 2.85258575e-004,
          2.84538983e-004, 3.45104723e-004, 5.71853190e-004,
          -2.42624024e-004, 1.52279579e-004, -1.43602330e-004,
          6.92357833e-004, 3.58132500e-004, 2.77191954e-004,
          2.10535029e-004, 1.92506050e-004, -1.91974075e-004,
          5.16365872e-005, 7.87058980e-006, 2.34619059e-004,
          -4.53159038e-004, 6.19088751e-005, -2.29859565e-004,
          3.67933098e-004, -1.64798730e-017, -1.64798730e-017,
          -1.64798730e-017, -5.00804708e-006, -4.15530027e-004,
          -2.30012709e-004, -2.02664436e-004, 1.01717189e-004,
          5.70579839e-004, 6.17356738e-004, 2.73422425e-004,
          7.38332805e-004, -1.20135272e-004, -7.69791310e-004,
          4.63747303e-004, 2.12825462e-003, 2.88314722e-003,
          -1.71735976e-003, -3.12813027e-005, 9.83702135e-004,
          -1.42127811e-003, -1.35494547e-003, -2.41891568e-004,
          1.04195147e-003, 8.46157141e-004, 8.04493611e-004,
          6.91063702e-004, -1.55938906e-004, -1.02406309e-003,
          -4.06034349e-004, -1.25379022e-003, -8.33110884e-004,
          1.97920919e-004, -3.03131208e-004, -1.79021066e-004,
          8.42181966e-004, -1.38894899e-003, -3.03118234e-003,
          -2.80391239e-003, -1.76042703e-003, 1.84859021e-003,
          6.42522587e-004, -2.46045296e-004, 7.71361403e-004,
          1.68449047e-003, -5.14524756e-004, 1.87594982e-004,
          -5.21812541e-003, -6.53575547e-003, -4.02133865e-003,
          -1.26734155e-003, 2.03155869e-004, 7.91694387e-004,
          -1.16498058e-003, -5.86344569e-004, -9.03451175e-004 ]
      - [ 4.40464173e-005, -8.20803165e-004, -1.67169457e-003,
          6.20879815e-004, 1.96677237e-003, -2.80880672e-003,
          1.12619011e-004, 1.12464034e-003, 1.08229369e-003,
          6.83604303e-005, -3.45733552e-003, 4.71648556e-004,
          -1.07196502e-004, 4.93132044e-004, 1.43774052e-003,
          1.03973004e-003, 1.03973004e-003, 1.03973004e-003,
          1.03973004e-003, 1.05242489e-003, 9.48998902e-004,
          6.79997320e-004, 2.79270578e-003, 2.46143853e-003,
          2.96995509e-004, 3.71666625e-003, -1.50450901e-003,
          3.32805119e-003, 2.19443976e-003, -1.97358220e-003,
          1.16293726e-003, 8.50415789e-003, 2.95645231e-003,
          7.13367946e-004, -6.83829887e-004, -1.09476829e-003,
          -4.30521875e-004, -3.98741249e-004, -2.54310929e-004,
          -9.11357522e-004, -9.32083174e-004, -9.30743874e-004,
          1.91336541e-004, 1.18846528e-003, 2.59837206e-003,
          7.02528167e-004, 2.56872061e-003, -2.87172763e-004,
          -2.42930924e-004, -4.42511897e-004, -2.27475161e-004,
          -3.62112449e-004, -3.00441898e-004, -3.00441898e-004,
          -1.00096906e-004, 2.59814132e-003, 4.86374192e-004,
          -3.76212556e-004, 2.35400884e-003, 1.27960448e-004,
          -7.24310812e-004, -9.24057211e-004, -2.11957886e-004,
          -7.90682621e-004, -7.81821785e-004, -7.28841056e-004,
          1.12983154e-003, 2.27335328e-003, 7.68427912e-004,
          1.73880428e-004, 1.82489923e-004, -6.91832567e-004,
          5.75109734e-005, -1.42142148e-004, -2.99809344e-005,
          9.65351239e-004, 2.77056405e-003, 3.81087069e-003,
          1.40308752e-004, 8.86493945e-004, 4.96504456e-003,
          1.48688024e-003, -1.71610023e-004, -4.35011636e-004,
          3.20740393e-004, -4.91858972e-003, -1.20269996e-003,
          -4.28993255e-003, -1.32809510e-003, 7.14580121e-004,
          5.20354183e-003, 1.93772081e-003, -9.52469360e-004,
          -9.63321363e-004, -4.79040755e-004, -3.30255396e-004,
          7.40786025e-004, 9.48219618e-004, 5.13407262e-003,
          8.56542401e-003, 5.90684963e-003, 2.17736233e-003,
          -1.03973004e-003, -1.04200258e-003, -9.86402621e-004,
          -5.90193085e-004, -2.54334591e-004, 2.47198095e-017,
          -1.35567359e-004, 5.95145067e-003, 2.45422823e-003,
          -1.10142794e-003, -1.04082713e-003, -1.04427512e-003,
          -1.05124945e-003, -1.05861563e-003, -7.46677455e-004,
          -4.43331402e-004, -4.35739319e-004, -3.36399797e-004 ]
      - [ -3.13737161e-007, -8.18086278e-007, 3.01675409e-005,
          6.86463027e-005, 9.31269606e-005, 9.15249402e-005,
          4.97820693e-005, 1.09483139e-004, 1.42507182e-004,
          2.03068739e-005, 1.56491093e-004, 1.40807038e-004,
          8.49234857e-005, 1.74493951e-004, 1.37981988e-004,
          1.35831186e-004, 1.35440117e-004, 1.35440117e-004,
          1.35440117e-004, 1.35440117e-004, 1.38078060e-004,
          6.34492026e-005, 8.93175456e-005, -2.80776458e-005,
          2.31318816e-004, 4.40559488e-005, -1.76444562e-004,
          -7.25607606e-005, -7.36680377e-005, -9.44336280e-005,
          -1.34397807e-004, -9.97807292e-005, -2.33830779e-005,
          3.64098087e-004, 2.57255044e-004, -6.12882650e-006,
          1.82315038e-004, -3.65638357e-006, -2.47080054e-004,
          -4.70254054e-005, 8.56599581e-006, 4.95977438e-005,
          1.21072408e-004, 5.81783497e-005, 2.40804671e-004,
          6.85637002e-004, 3.07773706e-004, -6.52253948e-005,
          2.29559053e-004, 1.72065600e-004, 2.66345800e-004,
          4.83074517e-004, 4.56535228e-004, 4.69240476e-004,
          3.75522097e-004, 3.09679046e-004, 1.40381715e-004,
          6.34154479e-004, 3.51189694e-004, -7.39254119e-006,
          1.82315038e-004, 3.49149632e-004, 3.86685628e-004,
          4.80764546e-004, 2.82991998e-004, 1.90628591e-004,
          3.24193970e-004, 4.60226438e-004, 7.31256732e-005,
          7.03605649e-004, 9.10155068e-005, -7.05198108e-005,
          2.29559053e-004, 4.05429106e-004, 5.92810917e-004,
          7.46246951e-004, 6.13522017e-004, 4.05919418e-004,
          1.04828978e-004, -1.08652399e-004, 1.11234594e-005,
          6.65089698e-004, 2.76640058e-004, -2.32757993e-005,
          2.04761964e-004, 2.80512526e-004, 8.18163098e-005,
          1.26705083e-004, 7.34580026e-005, 1.51062690e-004,
          6.77976495e-005, 3.05719877e-004, 3.37198755e-004,
          2.28100889e-005, -6.16542238e-005, -4.07125517e-005,
          1.73452368e-004, 1.28074418e-004, 4.21703415e-004,
          5.05956647e-004, 2.97482678e-004, 8.76685008e-005,
          -1.04291736e-004, -1.35440117e-004, -1.30960922e-004,
          -7.94485459e-005, -4.97949040e-005, -3.75636992e-005,
          2.36941894e-004, 4.50264997e-005, -1.77918220e-004,
          -1.21114979e-004, -1.35440117e-004, -1.28436717e-004,
          -1.17613279e-004, -9.62847407e-005, -5.47903328e-005,
          -2.38191751e-005, -2.34540657e-005, -1.81070245e-005 ]
      - [ 3.25677393e-004, 3.13525787e-004, 3.78349563e-004,
          3.36705882e-004, 5.19888068e-004, 2.47893506e-004,
          1.20837649e-004, 3.66237044e-004, 4.89087688e-005,
          -4.70559840e-004, -1.51691740e-004, 1.27379126e-005,
          -1.25418708e-004, 1.86633712e-004, 3.56358301e-004,
          4.22334240e-004, -3.14094708e-004, -6.79376884e-004,
          -5.15063293e-004, -4.12363268e-004, 3.97720491e-004,
          1.32794856e-004, 1.44042669e-005, -3.36797064e-004,
          1.26310979e-005, 2.41638772e-004, 5.50440920e-004,
          4.05524886e-004, -3.35002289e-004, -4.61569056e-004,
          -3.71811941e-004, 6.71924636e-006, 2.76108360e-004,
          3.19943560e-004, 1.82261414e-004, -1.22376819e-004,
          4.21851728e-004, 3.95392970e-004, 4.51330736e-004,
          4.29045904e-004, -1.90263541e-004, -2.31522674e-004,
          -2.24017349e-004, 6.21276340e-005, 1.98439680e-004,
          2.62082263e-004, 3.75821110e-004, 2.99942243e-004,
          4.73626889e-004, 4.18208510e-004, 3.97548982e-004,
          4.34942602e-004, -1.42826553e-004, -1.42826553e-004,
          -1.42826553e-004, 3.47010246e-005, 2.20657195e-004,
          3.64546577e-004, 4.42814373e-004, 3.51717405e-004,
          4.05248458e-004, 3.81177466e-004, 3.77551507e-004,
          4.02368081e-004, -1.41089040e-004, -2.11204970e-004,
          -2.11204970e-004, -1.39746568e-004, 1.52278764e-004,
          2.97510618e-004, 3.74435971e-004, 2.83339003e-004,
          5.09513076e-004, 4.04928840e-004, 5.42329333e-004,
          6.26459252e-004, 3.42214989e-005, -1.70337808e-004,
          -1.85667581e-004, -5.97104918e-005, 3.27786285e-004,
          6.54600735e-004, 5.37137850e-004, 3.87256150e-004,
          -1.56601833e-004, 8.80452935e-005, 1.29169071e-004,
          6.03009597e-004, -4.69923762e-005, -4.43690398e-004,
          -4.55415604e-004, -2.43853021e-004, 4.03692829e-004,
          6.49552268e-004, 2.53248319e-004, -1.94254957e-004,
          -3.63563071e-004, -4.32337227e-004, -3.25747969e-004,
          4.20990749e-004, 1.32583067e-004, -3.48078116e-004,
          -4.94201144e-004, -1.27175335e-005, 4.80327581e-004,
          3.13399272e-004, -5.84961963e-005, -8.92168537e-005,
          9.74601207e-005, -3.28065187e-004, -3.45626759e-004,
          -6.89107992e-006, -7.82023999e-005, 6.64056861e-005,
          1.45538317e-004, 1.32572721e-004, 3.80174606e-004,
          6.61087048e-004, 3.33039177e-004, 3.89395573e-004 ]
      - [ -1.90166920e-005, -4.16227977e-006, 1.06491672e-004,
          1.86889738e-004, 1.42776771e-004, -1.04456576e-005,
          -1.69575564e-004, -2.41883754e-004, -2.37040571e-004,
          -2.72527861e-004, -1.54876368e-004, -1.32112618e-004,
          -9.74472732e-006, -7.52659180e-005, -1.60021329e-004,
          -2.36330292e-004, -1.63955992e-004, 6.14422679e-005,
          1.86157078e-004, 1.00367615e-004, -2.91674405e-005,
          -2.45321397e-004, -1.65793899e-004, -1.95698172e-004,
          -1.49030151e-004, -1.62681870e-004, -2.38113731e-004,
          -2.25943193e-004, -8.93551842e-005, 5.62733876e-005,
          2.03810239e-004, 2.03810239e-004, 2.12331841e-004,
          1.79060255e-004, 1.25236707e-004, -6.66579217e-005,
          -9.86161758e-005, -4.19674834e-005, -5.11075159e-005,
          1.27558204e-004, 2.12564264e-004, 2.68664648e-004,
          2.76725914e-004, 2.99346022e-004, 2.97686463e-004,
          1.81509269e-004, 9.44610656e-005, -2.69761040e-005,
          1.08266986e-005, 2.38326655e-004, 2.48703611e-004,
          3.86533153e-004, 4.23758407e-004, 4.19710705e-004,
          3.33906850e-004, 1.84911274e-004, 7.22071127e-005,
          -5.72470744e-005, -7.25886275e-005, -1.02749829e-004,
          -8.09348639e-005, 1.10273322e-006, 7.58491951e-005,
          3.40706669e-004, 4.19821066e-004, 4.07131563e-004,
          1.90264880e-004, 5.98430888e-005, 3.42842759e-005,
          -6.03674089e-005, -9.49010500e-005, -1.21186647e-004,
          -3.01376585e-005, 9.19003796e-005, 6.37165358e-005,
          1.78412854e-004, 1.98769179e-004, 2.75542494e-004,
          2.89396878e-004, 1.50004606e-004, 5.17254339e-005,
          -3.36674748e-005, -3.80904203e-005, -8.10486745e-005,
          2.53508275e-004, 2.71117693e-004, 1.90607767e-004,
          2.23374082e-004, 2.06914818e-004, 1.35343886e-004,
          9.31717441e-005, 6.06799076e-005, 6.61635422e-005,
          5.34835599e-005, 4.06160070e-005, -1.77841757e-005,
          -8.14322266e-006, 1.71884822e-004, 1.31795736e-004,
          1.62559227e-004, -8.81823962e-006, -1.42426055e-004,
          -1.99770933e-004, -1.93182423e-004, -1.76146772e-004,
          -1.09844259e-004, -2.03305681e-005, 4.11480960e-006,
          -1.10033136e-004, -2.58312357e-005, -4.34934373e-005,
          -1.12773087e-005, -1.04237779e-005, 1.99665683e-005,
          -7.40716860e-005, -7.36012953e-005, -4.63825272e-005,
          -3.88671015e-006, -2.16840434e-019, -2.16840434e-019 ]
      - [ 9.03418841e-005, 3.58582736e-004, 4.24811355e-004,
          3.80838232e-004, 1.22044563e-004, -1.75966576e-004,
          -2.88631534e-004, -4.42225224e-004, -4.14208829e-004,
          -4.41067299e-004, -2.59311812e-004, -1.28054220e-004,
          4.67958918e-004, 3.27608839e-004, 2.51109392e-004,
          2.35922649e-004, 2.32606762e-004, 1.91895538e-006,
          -2.67899974e-004, -4.39217401e-004, -3.68162902e-004,
          -1.98277732e-004, 1.62251774e-004, -2.79993201e-005,
          2.95770733e-005, 1.36512113e-004, 2.10870930e-004,
          2.49232311e-004, 1.87991551e-004, -6.91557216e-005,
          -4.57132701e-005, 1.13341979e-004, 3.11505428e-004,
          3.35406046e-004, 3.01033491e-004, -8.50906235e-006,
          -2.54273211e-004, -3.14767640e-005, -1.61196840e-005,
          1.11586050e-004, 9.10454401e-005, 2.80094519e-005,
          -1.62840406e-005, 1.47285231e-004, 5.76454215e-004,
          2.05184318e-004, 2.02490560e-006, -4.39863688e-005,
          -2.74652703e-004, -1.29887310e-004, -1.42993958e-004,
          -4.39863688e-005, -4.39863688e-005, -4.39863688e-005,
          4.86509489e-005, 3.64483130e-004, 5.39183791e-004,
          7.98149267e-005, -1.03044011e-004, -4.39863688e-005,
          -2.30666337e-004, -1.05638406e-004, -1.30023618e-004,
          1.62630326e-019, 1.62630326e-019, 1.62630326e-019,
          3.77530785e-004, 4.70881088e-004, 2.53931881e-004,
          -7.21355827e-005, -5.92685428e-005, 1.62630326e-019,
          -2.38364300e-004, -1.13336369e-004, -1.37721581e-004,
          -9.43286886e-006, -1.81030937e-005, 1.60828073e-004,
          2.07914156e-004, 2.09655045e-004, 1.27237756e-004,
          -1.55323549e-004, -6.43203311e-005, -7.69796407e-006,
          -2.50039448e-004, -1.28192172e-004, -1.70421888e-004,
          -1.05444618e-004, 9.11037278e-005, 2.40085050e-004,
          1.57058181e-004, 3.67298817e-005, -1.67677048e-004,
          -1.64662066e-004, -7.54609937e-005, -2.25537642e-005,
          -2.81117886e-004, -1.60608732e-004, -2.83201050e-004,
          5.56181440e-005, -1.39039339e-005, -3.21915504e-005,
          9.63037965e-005, -1.83871125e-005, -2.17978188e-004,
          -1.59707895e-004, -8.60238652e-005, -5.39213434e-005,
          -2.57406937e-004, -1.37446637e-004, -2.56922358e-004,
          5.80912929e-005, -1.99748145e-004, -4.92498039e-005,
          -3.12121338e-005, -1.70775267e-004, -1.08263543e-004,
          -5.57530730e-005, -2.91462002e-005, -2.58743221e-005 ]
      - [ -1.65371955e-006, -2.63001175e-006, -1.19282204e-005,
          1.01216625e-004, 1.21176658e-004, 3.42920655e-004,
          8.54148166e-005, -3.48936504e-004, -7.89497979e-004,
          -6.02046610e-004, 1.69758569e-004, 4.16077703e-004,
          -1.04604631e-004, -2.66354647e-004, -6.50716771e-004,
          -4.27059509e-004, -1.83368786e-004, 2.14408443e-004,
          2.22062474e-004, 1.21067387e-004, -3.21369844e-005,
          2.38937530e-004, 4.49713873e-004, -2.18127345e-004,
          -2.47804623e-004, -2.16861430e-004, -3.43928376e-004,
          -1.43192112e-004, -3.54157848e-004, -4.58321301e-004,
          -4.50195686e-004, -3.67510947e-004, 7.31310793e-005,
          2.70075892e-004, -6.68885186e-005, -1.73239503e-004,
          -2.61574925e-004, 2.30818230e-004, 1.84407079e-004,
          3.88481189e-004, 2.51569261e-004, -9.48838569e-005,
          1.16604540e-004, 3.12580523e-004, 2.35562504e-004,
          1.87201163e-004, -1.17912874e-004, -7.42912816e-005,
          8.41322544e-005, 2.43332703e-004, 1.82415562e-004,
          4.83270007e-004, 3.44904984e-004, 5.33802900e-004,
          6.37059333e-004, 4.28577652e-004, 3.86403495e-004,
          -6.73422837e-005, -1.54396126e-004, -6.97650830e-005,
          -2.50547018e-004, -2.05566030e-004, -2.87112955e-004,
          5.16778382e-005, 4.93326923e-004, 5.26301155e-004,
          9.46493674e-005, 3.62385617e-004, 1.36152623e-004,
          -1.73228167e-004, -1.58922325e-004, -7.42912816e-005,
          -2.13117426e-004, -2.72732781e-004, -1.01001919e-004,
          4.52705863e-004, 3.00603599e-004, -3.75421878e-005,
          3.17919359e-004, 3.30614625e-004, -4.65576295e-006,
          -1.26410057e-004, -9.90303306e-005, -2.19417616e-005,
          -2.13470325e-004, -1.67968596e-004, 5.43763381e-005,
          9.63195780e-005, -8.08499171e-005, 5.87556242e-005,
          3.11449810e-004, -5.21481779e-005, -1.18082964e-004,
          -1.17667623e-004, -1.03265396e-004, -2.59549834e-005,
          -7.58026072e-005, 1.94599837e-004, -4.01434372e-004,
          -3.03792796e-004, -1.86352321e-004, 1.68824350e-004,
          -8.15865133e-005, -2.63673865e-004, -2.67376541e-004,
          -2.41392569e-004, -1.41431563e-004, -6.12069925e-005,
          3.57601675e-004, -1.67691222e-004, -5.36941632e-004,
          -2.87994073e-004, -1.81047450e-004, 1.73879998e-005,
          -2.48265744e-004, -2.06908982e-004, -1.42203513e-004,
          -8.33464728e-005, -1.16239462e-005, -3.57535896e-006 ]
      - [ 4.34871850e-004, 1.12099333e-004, -2.05529999e-004,
          -2.94024037e-004, -3.28275579e-004, -3.53303563e-004,
          -3.57960205e-004, -3.57960205e-004, -3.61894665e-004,
          -4.15354996e-004, -3.67600645e-004, -3.68479494e-004,
          2.97537277e-004, 5.05041317e-005, -6.89160952e-005,
          -1.53730449e-004, -1.69067687e-004, -1.69067687e-004,
          -1.68999177e-004, -1.68348284e-004, -1.22363810e-004,
          -1.10498077e-004, -7.47609738e-005, -1.71164400e-004,
          2.97537277e-004, 9.92590867e-005, 1.00083082e-004,
          1.53372384e-005, 1.71947688e-019, 1.71947688e-019,
          1.71947688e-019, 1.71947688e-019, -3.93445498e-006,
          -8.20459245e-005, -6.77078933e-005, -1.71164400e-004,
          2.97537277e-004, 9.92590867e-005, 1.00083082e-004,
          1.53372384e-005, 1.71947688e-019, 1.71947688e-019,
          1.71947688e-019, 1.71947688e-019, -3.93445498e-006,
          -8.20459245e-005, -6.77078933e-005, -1.71164400e-004,
          2.97537277e-004, 1.05345251e-004, 1.42962541e-004,
          8.54781611e-005, 7.04577324e-005, 7.11139801e-005,
          7.21096658e-005, 5.93287186e-005, 2.37461991e-005,
          -6.71938542e-005, -6.35893666e-005, -1.68358383e-004,
          3.09709605e-004, 1.87989630e-004, 2.19647132e-004,
          1.69999257e-004, 2.58933083e-004, 2.66218267e-004,
          3.61500453e-004, 4.82715142e-004, 4.84055723e-004,
          3.14250996e-004, 2.07846664e-004, -8.97007485e-005,
          2.92062934e-004, 9.45565989e-005, 7.04495615e-005,
          -1.93364122e-005, -7.63136632e-005, -1.19486554e-004,
          -1.29279128e-004, 6.16894904e-005, 4.50858235e-004,
          4.46189457e-004, 5.10956277e-004, 4.25262930e-004,
          2.60064146e-004, -3.90943351e-005, -1.23949547e-004,
          -2.53224600e-004, -1.84269680e-004, -1.19992212e-004,
          -1.21663863e-004, 2.29050871e-004, 3.75471252e-004,
          3.12991440e-004, 2.23449038e-004, 4.58652357e-005,
          7.25813225e-005, -1.05341322e-004, -1.26330357e-004,
          -9.71909976e-005, 5.85979833e-005, 1.76060115e-004,
          4.86543031e-005, 6.15251483e-005, -1.12111717e-004,
          -1.96214867e-004, -1.19566437e-004, -2.99285803e-005,
          2.00912240e-004, 1.46008271e-004, 7.30665561e-005,
          -1.07611049e-004, -2.42157214e-004, -2.83972593e-004,
          -2.79702392e-004, -1.83713288e-004, -1.40734293e-004,
          -6.85956111e-005, -4.80973868e-005, -4.80973868e-005 ]
      - [ 3.68978042e-004, 2.81667832e-004, 7.43748678e-005,
          -9.75044827e-007, -1.85929908e-004, -2.28742632e-004,
          -2.37522443e-004, -2.37522443e-004, -2.27893324e-004,
          -2.53254810e-004, -1.93041269e-004, -1.70268511e-004,
          2.37677916e-004, 1.60040785e-004, -6.35003380e-005,
          -9.07592621e-005, -2.06087454e-004, -2.06087454e-004,
          -2.06087454e-004, -2.06087454e-004, -1.91740502e-004,
          -2.05455042e-004, -2.35444983e-004, -2.54435785e-004,
          1.65462217e-004, 1.45575366e-004, -2.77630716e-005,
          -3.32300733e-005, -4.73697437e-005, -1.99046626e-005,
          1.81581290e-005, 8.79000363e-005, 9.34926866e-005,
          -6.83662938e-006, -2.85194492e-005, -4.13578673e-005,
          1.18750679e-004, 1.86215577e-004, 1.75885260e-004,
          2.27597833e-004, 2.37358661e-004, 2.48317840e-004,
          2.28326302e-004, 2.31481157e-004, 2.51765072e-004,
          1.23268721e-004, 1.21476325e-004, 6.52761810e-005,
          1.58509647e-004, 2.35103740e-004, 2.01336967e-004,
          1.43333411e-004, 4.66187412e-005, 9.33742103e-006,
          -1.00594780e-005, 8.52114608e-005, 1.62317330e-004,
          3.66278982e-005, 1.16150171e-004, 1.05035142e-004,
          1.18750679e-004, 1.59753821e-004, 6.48300193e-005,
          2.51683214e-005, -1.38017886e-005, 7.28841360e-006,
          3.73108669e-005, 9.79300603e-005, 1.72607586e-004,
          4.58908398e-005, 1.12127935e-004, 6.52761810e-005,
          1.42778750e-004, 2.17524313e-004, 2.44695839e-004,
          2.67141761e-004, 2.34797451e-004, 2.38699606e-004,
          2.37497210e-004, 2.40933528e-004, 2.31694270e-004,
          8.37033949e-005, 1.23021178e-004, 8.47505653e-005,
          4.15361756e-005, 3.23909662e-005, 6.54578980e-005,
          6.82865648e-005, 2.89665677e-005, -8.76934064e-006,
          -2.80106015e-005, 5.34549908e-005, 1.07025851e-004,
          3.31343508e-005, 1.78792921e-004, 1.97522910e-004,
          -2.95222155e-004, -2.82602006e-004, -2.08390979e-004,
          -1.67875231e-004, -1.74430315e-004, -1.74848043e-004,
          -1.75227789e-004, -6.49098074e-005, 1.97725221e-005,
          -3.11386684e-005, 1.29197986e-004, 3.22444801e-004,
          -1.76497706e-004, -2.13243853e-004, -2.20038055e-004,
          -1.90517516e-004, -1.92794367e-004, -1.92794367e-004,
          -1.78587201e-004, 2.87515149e-006, 1.15112140e-004,
          9.74912546e-005, 2.00082242e-004, 2.83333124e-004 ]
      - [ -1.05725640e-005, -1.37310708e-005, 1.41208395e-004,
          -1.94103377e-005, -2.05875491e-004, -2.91448727e-004,
          -3.10223288e-004, -1.77499605e-004, 1.59517425e-004,
          -1.22043108e-004, -1.75064401e-004, -1.86358535e-004,
          -6.76540003e-005, -1.43802870e-004, 4.67000318e-005,
          -1.53378394e-004, -2.67833035e-004, -3.15978483e-004,
          -3.21455213e-004, -1.71921711e-004, 1.76100017e-004,
          -1.52538560e-004, -2.77572777e-004, -2.96502578e-004,
          -1.12699068e-004, -1.30712782e-004, 7.63549397e-005,
          1.30395536e-004, -6.13860466e-005, -1.50608917e-004,
          -7.86410747e-005, 4.78671318e-005, 3.29919771e-004,
          9.71656482e-005, -1.92685384e-005, 7.11742723e-006,
          1.45457307e-004, 1.50514781e-004, 1.55770656e-004,
          3.79960111e-004, 3.08621849e-004, 2.36855441e-004,
          2.40254332e-004, 2.76923529e-004, 3.78131168e-004,
          2.59633031e-004, 2.07312449e-004, 1.79765251e-004,
          1.79057184e-004, 1.67242484e-004, 3.17103084e-004,
          3.02080560e-004, 2.37651067e-004, 1.61572141e-004,
          1.20745426e-004, 2.53289938e-004, 4.61666088e-004,
          1.00803816e-004, -4.53429238e-005, -1.21733021e-004,
          -6.80446246e-005, -4.22603152e-005, 2.07452176e-004,
          3.10889969e-004, 1.12201182e-004, -5.41671579e-006,
          -8.45211503e-007, 1.31063600e-004, 4.56937181e-004,
          1.41646160e-004, -3.51811195e-006, -3.08939743e-005,
          1.18410375e-004, 1.39856769e-004, 1.93966102e-004,
          4.41907207e-004, 3.21084954e-004, 2.43664254e-004,
          2.84442503e-004, 2.75130064e-004, 3.42480082e-004,
          3.03124369e-004, 3.47714027e-004, 3.47924710e-004,
          2.42858136e-004, 1.72427171e-004, 1.52034292e-004,
          1.11009736e-004, 6.36047116e-005, -4.72254396e-006,
          -6.30089562e-005, 4.25466824e-005, 2.17264896e-004,
          -6.37103367e-005, -8.94390614e-005, -9.95470036e-005,
          -1.52634064e-004, -1.27683263e-004, -3.04220089e-006,
          3.42302010e-005, -1.60835130e-004, -2.88048555e-004,
          -2.93672027e-004, -1.50414780e-004, 1.90317674e-004,
          6.26360952e-006, -7.53663771e-005, -1.05573226e-005,
          -2.01922710e-004, -2.63587222e-004, -1.07838539e-004,
          2.33766968e-005, -1.77070498e-004, -2.97635124e-004,
          -2.85518181e-004, -1.18829092e-004, 6.96205752e-005,
          -5.10163261e-007, -7.65350269e-005, -7.02972247e-005 ]
      - [ -1.35525272e-019, -1.35525272e-019, -2.54217248e-005,
          -1.36817936e-004, -1.50868043e-004, 1.51844200e-004,
          2.34159699e-004, 5.48850403e-005, -1.31961540e-004,
          -3.08598886e-004, -1.31449458e-004, -1.16046547e-004,
          -7.75445806e-005, -1.82768723e-004, -4.24998230e-004,
          -2.83220026e-004, 3.86495140e-006, -8.55429334e-006,
          -3.93099268e-004, -3.42333835e-004, 1.60989934e-004,
          -3.04785470e-004, -1.86205856e-004, -2.72035570e-004,
          -2.39941830e-004, -3.20324412e-004, -4.85186960e-004,
          -2.54192913e-004, -9.52683040e-005, 3.45050685e-005,
          -1.89186976e-005, 3.50032642e-004, 2.64350732e-004,
          -2.04318669e-004, -2.66273972e-004, -3.01957742e-004,
          -2.18799600e-004, -2.11859675e-004, -2.71734811e-004,
          1.68848419e-004, 5.24025585e-004, 5.51953737e-004,
          4.97486093e-004, 6.74926050e-005, -9.17069119e-005,
          -1.96765264e-004, -2.04565789e-004, -2.02157680e-004,
          1.12247028e-004, 3.93825379e-004, 3.13570286e-004,
          6.74733310e-004, 5.96014201e-004, 5.73574798e-004,
          5.73397381e-004, 2.40967493e-004, 2.57937267e-004,
          1.75838330e-004, 1.15748029e-004, -4.32442357e-005,
          3.92320595e-004, 5.55282691e-004, 4.22282574e-006,
          2.51368270e-004, 2.88481417e-004, 2.76504317e-004,
          3.24398687e-004, 4.54888883e-004, 2.43082235e-004,
          1.82584408e-004, 1.96163775e-004, 1.58537645e-004,
          3.07289505e-004, 2.18842732e-004, -1.90059523e-004,
          3.43064487e-004, 3.82619153e-004, 9.73405622e-005,
          9.39528909e-005, 3.33508244e-004, 1.49150044e-004,
          -9.35427579e-006, 3.17772792e-004, 4.26658313e-004,
          -9.99252952e-005, -1.97816444e-005, -1.93168205e-004,
          7.57071175e-005, 6.62954262e-005, 9.56241056e-005,
          -9.41160324e-005, -1.17416203e-004, 3.42830899e-004,
          -8.27217009e-005, 8.29130295e-005, 2.50557005e-005,
          -2.70816818e-004, -2.06452343e-004, -2.69695360e-004,
          1.66643629e-004, 1.34639820e-004, 2.45452702e-005,
          -2.41977235e-004, -2.79910601e-004, -4.77202448e-005,
          -3.16842139e-004, -2.68074422e-004, -6.87875727e-005,
          -1.44996258e-004, -5.98811785e-005, -2.48766708e-004,
          -6.71300513e-005, -8.72731471e-005, 7.12540568e-005,
          -7.72261992e-005, 8.81602609e-005, -1.21032812e-004,
          -1.17099087e-004, -2.02135325e-005, -9.47934495e-006 ]
      - [ -9.75781955e-019, -3.53669529e-005, -1.53225352e-004,
          -1.98553782e-004, -9.15637575e-005, -1.39099400e-004,
          2.38591223e-004, 7.06732448e-004, 5.17574197e-004,
          -5.01457180e-005, -3.32938580e-005, -1.00988545e-004,
          -2.00997310e-004, -5.16901528e-005, 9.82464480e-005,
          2.51064252e-004, 2.91603297e-004, 2.55434134e-004,
          5.32162085e-004, 1.11168541e-003, 6.02053071e-004,
          -5.59809036e-004, -3.81189020e-004, -5.24467556e-004,
          2.51775607e-004, -5.38446948e-005, 4.20440520e-005,
          4.36476257e-004, 3.91390204e-004, -5.05162971e-005,
          2.01656735e-006, 1.58285635e-004, 4.30727174e-004,
          -1.65261972e-005, -1.34011221e-004, -2.95952545e-004,
          8.98186045e-005, -2.48064462e-004, -2.89363612e-004,
          -2.05163131e-004, -3.33333621e-004, -3.99040000e-004,
          -4.40089498e-005, 1.88022110e-004, 6.70361449e-004,
          2.52338414e-005, 3.05234193e-004, -1.77396665e-004,
          8.98186045e-005, -2.52443802e-004, -3.04041721e-004,
          -2.03468138e-004, -2.14157015e-004, -1.88853111e-004,
          3.31221381e-005, 4.24137135e-004, 7.25185848e-004,
          -1.02447877e-004, 1.04788560e-004, 3.06472066e-004,
          2.57833221e-004, -1.58651717e-004, -2.56544095e-004,
          -1.96307383e-006, -9.75781955e-019, 1.38369378e-005,
          5.43701230e-004, 1.16471783e-003, 6.78587705e-004,
          1.94230262e-004, 8.25921670e-005, 3.25710018e-004,
          2.57833221e-004, -1.58241019e-004, -2.72303674e-004,
          1.63235673e-004, 3.44322587e-004, 7.16566923e-004,
          8.41526140e-004, 6.36186276e-004, 5.78898471e-005,
          -3.81964928e-004, 3.64656844e-005, -1.75143126e-004,
          1.98790585e-004, -2.74214603e-004, -1.20826655e-004,
          1.05018017e-003, 8.72715551e-004, 7.85392418e-004,
          5.36883716e-004, 2.66057468e-004, -1.20164179e-004,
          -3.21860134e-004, -2.46789918e-004, -2.66036281e-004,
          2.06566925e-004, 3.61578597e-004, 5.39314467e-004,
          1.18658470e-003, 8.40758090e-004, 6.98485353e-004,
          4.75700799e-004, -1.81891766e-004, -4.68338578e-004,
          -4.23207646e-004, -2.55013554e-004, -7.11208850e-005,
          2.30571561e-004, 4.85870078e-005, 1.19774795e-005,
          3.22970125e-004, 1.39598080e-004, -1.05077699e-004,
          -3.67267203e-004, -4.63909470e-004, -3.98224365e-004,
          -2.36725580e-004, -1.47885614e-004, -1.28014843e-004 ]
      - [ -6.87333750e-006, 7.47906370e-006, 1.31216666e-005,
          4.25126673e-005, 8.26653777e-005, 8.07161196e-005,
          1.08588727e-004, 2.51300342e-004, 3.09529307e-004,
          2.85803486e-004, 2.75749771e-004, 1.89304730e-004,
          1.27060732e-004, 1.39489552e-004, 2.23597744e-004,
          2.59932771e-004, 3.08170653e-004, 3.73938848e-004,
          4.20706172e-004, 3.83474195e-004, 1.56664100e-004,
          3.52690877e-005, 1.55156595e-005, -8.86700218e-005,
          2.60197732e-004, 2.70642122e-005, -6.46642075e-005,
          1.84161763e-005, -2.42812039e-005, -1.51217479e-004,
          -2.21279784e-004, -2.26663120e-004, -1.79544077e-004,
          9.86642481e-005, 1.23803387e-004, -6.73702107e-006,
          2.04534153e-004, -8.18299741e-005, -1.56999828e-004,
          -4.06462823e-005, -1.60137915e-005, 2.77902222e-006,
          5.40233741e-005, 5.87882460e-005, 1.49698360e-004,
          4.11268295e-004, 1.78924078e-004, -5.25020405e-005,
          2.04534153e-004, 7.12270366e-006, 1.40301243e-004,
          2.49716395e-004, 2.38136519e-004, 2.51413934e-004,
          1.94660126e-004, 1.62970508e-004, 1.36129238e-004,
          3.61553655e-004, 1.72425949e-004, -4.61789714e-005,
          2.60197732e-004, 1.74503759e-004, 2.50544050e-004,
          3.44066444e-004, 2.11425096e-004, 1.47260740e-004,
          2.31444588e-004, 3.23680841e-004, 1.74924164e-004,
          5.32146485e-004, 9.63553175e-005, -1.08547265e-005,
          2.41604677e-004, 1.74089539e-004, 3.46790039e-004,
          4.69397521e-004, 4.07645683e-004, 2.96810758e-004,
          1.47831612e-004, 6.19142520e-005, 1.10461835e-004,
          4.32139408e-004, 1.63601100e-004, -3.37444362e-005,
          2.60197732e-004, 1.58568626e-004, 1.18771255e-004,
          2.25509095e-004, 1.93657412e-004, 2.51518562e-004,
          1.57645234e-004, 2.71861994e-004, 2.74860387e-004,
          2.77874824e-005, -1.79639173e-005, 2.71050543e-019,
          2.23626543e-004, 1.53614994e-004, 4.21787088e-004,
          4.21191333e-004, 2.64941365e-004, 1.02343649e-004,
          -3.20185354e-005, -5.05830976e-005, -5.00042588e-005,
          -7.33126872e-005, -3.12557968e-005, -1.85930476e-005,
          2.61914858e-004, 1.61816588e-005, -1.20245037e-004,
          -4.47548919e-005, -5.19253517e-005, -5.63799367e-005,
          -6.27858826e-005, -5.87802861e-005, -3.99556084e-005,
          -1.24457056e-005, 2.71050543e-019, 2.71050543e-019 ]
      - [ 2.39490037e-004, 2.21896102e-004, 2.77644576e-004,
          2.91781267e-004, 4.79873182e-004, 2.67642085e-004,
          2.36800232e-004, 5.39586588e-004, 2.95538688e-004,
          -3.56745470e-004, -1.28755812e-004, -6.03597364e-005,
          -2.11823077e-004, 1.00909834e-004, 2.78477906e-004,
          4.89116297e-004, -4.35227303e-005, -3.02896195e-004,
          -1.74449218e-004, -1.06999076e-004, 5.04848082e-004,
          1.97226764e-005, -1.41006021e-004, -5.05059201e-004,
          1.15815252e-004, 3.07889481e-004, 3.93781491e-004,
          3.05291993e-004, -2.93162098e-004, -5.17873035e-004,
          -4.88768565e-004, -2.56198866e-004, 1.27005071e-004,
          2.60096625e-004, 2.72511214e-004, 2.01026469e-005,
          3.60959501e-004, 3.53281968e-004, 4.09913104e-004,
          3.50204558e-004, -1.46230828e-004, -1.76857618e-004,
          -1.50603970e-004, 4.39744763e-005, 2.41086498e-004,
          2.47692835e-004, 4.17876028e-004, 3.11978423e-004,
          3.35047313e-004, 3.36460595e-004, 3.39023391e-004,
          2.83844274e-004, -1.46955135e-004, -1.46955135e-004,
          -1.46955135e-004, -3.28924907e-005, 1.71020394e-004,
          2.22218121e-004, 4.03465965e-004, 2.86066235e-004,
          4.82002448e-004, 4.33088077e-004, 3.74316878e-004,
          4.50842228e-004, 4.50499501e-005, 4.33680869e-019,
          4.33680869e-019, 4.50499501e-005, 3.17975529e-004,
          3.69173271e-004, 5.50421071e-004, 4.26749757e-004,
          3.19744868e-004, 2.88079085e-004, 4.46451479e-004,
          4.60306357e-004, -1.03143968e-004, -2.96437647e-004,
          -3.19752260e-004, -2.33764600e-004, 1.48366627e-004,
          5.21146809e-004, 4.30057466e-004, 2.62009678e-004,
          -8.89438597e-005, 1.78831222e-004, 1.38384799e-004,
          3.36491707e-004, -2.49806268e-004, -4.12703841e-004,
          -2.88778276e-004, -3.14276876e-005, 4.83616255e-004,
          6.14014512e-004, 3.38340673e-004, -6.32771917e-005,
          -4.79766313e-004, -4.54565918e-004, -3.17056867e-004,
          4.59735194e-004, 3.18970880e-004, 1.96000419e-005,
          -1.82445161e-004, 1.69137747e-005, 3.84445040e-004,
          3.27554211e-004, -1.24896338e-004, -1.32915069e-004,
          -5.87862960e-005, -2.06312543e-004, -2.38350294e-005,
          2.98382831e-004, 1.41339682e-004, 1.05720399e-004,
          1.08750864e-004, 9.69164321e-005, 2.89833784e-004,
          5.31129423e-004, 2.90181575e-004, 3.20941035e-004 ]
      - [ 7.36918664e-020, 3.77822334e-006, 7.43315759e-005,
          1.47992061e-004, 1.61569333e-004, -6.01856584e-007,
          -1.36853094e-004, -1.70803673e-004, -1.57824936e-004,
          -1.91495652e-004, -6.90213783e-005, -9.20893144e-005,
          -5.61944216e-005, -7.91995990e-005, -1.13619768e-004,
          -2.18742905e-004, -1.93479602e-004, 3.19629944e-005,
          2.49504403e-004, 2.56821018e-004, 6.84111146e-005,
          -2.17153836e-004, -1.15128765e-004, -1.43399127e-004,
          -1.04758328e-004, -1.19844190e-004, -2.03687567e-004,
          -1.16299663e-004, 2.14273459e-005, 7.58545793e-005,
          1.81348689e-004, 1.76810339e-004, 1.64116456e-004,
          1.92508072e-004, 1.25511433e-004, -6.08198243e-005,
          -4.21124787e-005, -2.48273100e-005, -7.57476737e-005,
          1.56657858e-004, 2.24824413e-004, 2.30187899e-004,
          2.13073989e-004, 2.68375938e-004, 2.60203989e-004,
          1.63887584e-004, 8.51646109e-005, 8.81680626e-006,
          -5.51297671e-006, 2.43887494e-004, 1.89487822e-004,
          3.22927255e-004, 3.62972118e-004, 3.82616097e-004,
          3.30999319e-004, 1.81338226e-004, 7.25592690e-005,
          -4.43352510e-005, -7.10925960e-005, -8.07658798e-005,
          -2.80530221e-005, 1.62270462e-005, 1.86800607e-005,
          3.35306046e-004, 4.13590635e-004, 3.79378849e-004,
          1.81443320e-004, 6.07740803e-005, 3.29926697e-005,
          -3.48939757e-005, -6.66902779e-005, -7.11549001e-005,
          7.03183978e-005, 1.50493477e-004, 3.46024754e-005,
          1.96072098e-004, 2.79456464e-004, 3.42568936e-004,
          3.39426333e-004, 1.85501834e-004, 6.97765863e-005,
          -3.93345654e-005, -3.11940130e-005, -5.64338916e-005,
          2.98080064e-004, 2.98309926e-004, 1.25568055e-004,
          2.14633212e-004, 2.23653915e-004, 1.77918089e-004,
          1.94040302e-004, 1.97770292e-004, 2.06467594e-004,
          1.33021764e-004, 4.63593606e-005, -2.82124474e-005,
          6.72883034e-005, 2.50255107e-004, 1.52226712e-004,
          2.11215607e-004, 5.13662853e-005, 4.53599705e-006,
          -2.65940089e-005, -6.40570433e-005, -9.39552119e-005,
          -7.88157849e-005, 6.26246037e-005, 6.64942054e-005,
          -5.24527568e-005, 9.62305694e-006, -6.67097775e-005,
          2.07354133e-005, 4.61649215e-005, 2.60787874e-005,
          -8.32431761e-005, -1.07321226e-004, -7.31729597e-005,
          -2.08143665e-005, -2.79038829e-007, 7.36918664e-020 ]
      - [ 1.19900171e-004, 4.05861996e-004, 4.97227709e-004,
          3.63779604e-004, 3.05895956e-005, -2.57367268e-004,
          -1.91887011e-004, -2.11467719e-004, -1.90374834e-004,
          -2.53842532e-004, -9.71138579e-005, -4.58015238e-005,
          4.31912107e-004, 3.49425623e-004, 3.31443240e-004,
          3.12345161e-004, 3.55951488e-004, 1.05167026e-004,
          -8.87910646e-005, -1.75985988e-004, -1.94620079e-004,
          -1.44151636e-004, 2.62996909e-004, -3.99626915e-005,
          3.30542680e-005, 1.92965075e-004, 2.74877966e-004,
          3.79064295e-004, 3.39738210e-004, -8.58469502e-005,
          -9.97028183e-005, 6.75874035e-005, 2.46440002e-004,
          2.84979265e-004, 3.14334902e-004, -5.07183468e-005,
          -2.51784688e-004, -9.12308606e-005, -9.29082853e-006,
          1.46614533e-004, 1.11557165e-004, 2.60732751e-008,
          -6.23744490e-005, 8.58634521e-005, 5.81638655e-004,
          2.18330271e-004, 5.72640347e-005, -3.58264551e-005,
          -2.77253159e-004, -2.20665257e-004, -2.19674039e-004,
          -9.35710195e-005, -6.69583096e-005, -4.98860027e-005,
          7.68116224e-005, 4.12429537e-004, 5.48504642e-004,
          6.97203286e-005, -3.58264551e-005, -3.58264551e-005,
          -2.41426707e-004, -2.00914772e-004, -2.09109829e-004,
          -3.51488670e-005, 5.42101086e-020, 5.42101086e-020,
          4.15176211e-004, 4.66081692e-004, 2.22680566e-004,
          -6.83894905e-005, 5.42101086e-020, 5.42101086e-020,
          -2.41426707e-004, -2.00914772e-004, -2.09109829e-004,
          -3.51488670e-005, 2.85084298e-005, 2.83326692e-004,
          2.81321380e-004, 2.31574712e-004, 1.27702966e-004,
          -1.23086429e-004, 5.42101086e-020, 5.42101086e-020,
          -2.59229826e-004, -2.18717876e-004, -2.29550424e-004,
          -5.45033436e-005, 2.51716207e-004, 3.68078297e-004,
          2.20784408e-004, 1.08558495e-004, -4.05116552e-005,
          -1.26877829e-004, -1.78031078e-005, -1.78031078e-005,
          -2.67530675e-004, -2.27018740e-004, -2.69629585e-004,
          1.56886716e-004, 1.15398434e-004, 6.85463820e-005,
          1.97866582e-004, 1.07784217e-004, -8.56149709e-005,
          -1.19624718e-004, -2.61039713e-005, -2.61039713e-005,
          -2.44248746e-004, -2.03736825e-004, -2.78557127e-004,
          1.93812841e-004, -5.12045917e-005, 6.27203335e-005,
          4.59000112e-005, -9.85318984e-005, -6.97769938e-005,
          -2.11918104e-005, -2.82205087e-006, -2.82205087e-006 ]
      - [ -6.22181051e-006, -3.35020559e-005, -3.78613477e-005,
          2.30000442e-005, 1.17154799e-004, 3.71002330e-004,
          3.03573470e-004, 3.53681316e-005, -3.40218568e-004,
          -3.02528730e-004, 2.99957377e-004, 2.56812666e-004,
          -3.23554646e-004, -4.32172295e-004, -6.33447082e-004,
          -3.34285141e-004, 3.58392281e-005, 4.02602978e-004,
          4.76802466e-004, 3.91259469e-004, 1.05104700e-004,
          1.39107477e-004, 4.48316481e-004, -2.68281758e-004,
          -3.07021983e-004, -2.60130881e-004, -2.53250590e-004,
          -1.50024453e-005, -2.03315649e-004, -4.89470433e-004,
          -5.37822896e-004, -4.99480928e-004, -5.82393222e-005,
          2.55656108e-004, 2.97020542e-005, -1.27383799e-004,
          -2.09346006e-004, 3.26122565e-004, 3.06386733e-004,
          4.77040332e-004, 2.11707622e-004, -1.55338712e-004,
          6.96455536e-005, 3.09394643e-004, 2.79554602e-004,
          2.10727550e-004, -1.08091859e-004, -1.17698517e-004,
          8.33465747e-005, 2.25832715e-004, 2.22610353e-004,
          5.31058467e-004, 2.71255180e-004, 5.18746499e-004,
          6.42536208e-004, 4.32756991e-004, 3.84472485e-004,
          -1.11399946e-004, -1.91657527e-004, -1.40644799e-004,
          -2.02880707e-004, -1.98605150e-004, -2.89733784e-004,
          1.63489822e-004, 5.24391944e-004, 5.65821363e-004,
          1.30245753e-004, 4.18064737e-004, 2.13213003e-004,
          -1.00801270e-004, -7.86329911e-005, -2.76202627e-005,
          -2.03504314e-004, -2.51486839e-004, -9.52001210e-005,
          5.10784972e-004, 3.24602966e-004, 8.24537528e-006,
          3.44851665e-004, 3.34663666e-004, 5.58224338e-006,
          -1.16667194e-004, -8.03007788e-005, -2.82438778e-005,
          -2.06455094e-004, -1.64744924e-004, 4.23846577e-005,
          1.87529775e-004, -5.01065952e-005, 4.32943125e-005,
          3.26289912e-004, -3.18284292e-005, -4.36176670e-005,
          -1.34641305e-004, -8.69624782e-005, -2.45505798e-005,
          -1.30490327e-004, 1.19528180e-004, -4.02274658e-004,
          -1.80932184e-004, -1.24421218e-004, 2.91053439e-004,
          7.26938742e-005, -9.14139237e-005, -1.01087964e-004,
          -1.71128515e-004, -1.29271837e-004, -1.07249216e-004,
          2.66484683e-004, -2.22882227e-004, -5.38545894e-004,
          -1.37235940e-004, -1.05813131e-004, 1.44610225e-004,
          -1.43447920e-004, -1.53908099e-004, -1.32812231e-004,
          -7.27278457e-005, -2.83459085e-005, -8.27694203e-006 ]
      - [ 6.32716285e-004, 2.78174295e-004, -1.28857035e-004,
          -2.29090729e-004, -2.52311118e-004, -2.35325861e-004,
          -1.11789632e-004, -8.51527584e-005, -8.51527584e-005,
          -2.53196282e-004, -2.75752216e-004, -2.99844949e-004,
          3.86987289e-004, 4.74289591e-005, -1.09983142e-004,
          -6.04142515e-005, -3.93556475e-005, -5.34583196e-005,
          -6.50244037e-005, -1.03892926e-004, -1.40405231e-004,
          -3.84535844e-004, -3.12593911e-004, -2.07156656e-004,
          2.49518751e-004, 1.04041392e-004, -7.04637641e-005,
          -1.21331024e-004, -1.22956641e-004, -1.05923988e-004,
          -1.98996277e-004, -2.30203688e-004, -1.31970635e-004,
          -2.36745575e-004, -8.65500333e-005, -6.32353476e-005,
          2.50871090e-004, 1.06803243e-004, -3.24617758e-005,
          -2.75982256e-005, -2.09614791e-005, -1.39743188e-005,
          -7.88872876e-006, -3.38088353e-006, 3.04931861e-020,
          -1.82077347e-004, -6.84711558e-005, -6.14322053e-005,
          2.51547259e-004, 1.36988063e-004, 3.90929017e-005,
          5.57361091e-005, 5.79815351e-005, 5.99648483e-005,
          6.29740171e-005, 5.44494469e-005, 3.33409916e-005,
          -1.59688861e-004, -5.60241533e-005, -5.29518329e-005,
          2.59665918e-004, 1.97674133e-004, 1.34084563e-004,
          1.39712807e-004, 2.48617202e-004, 2.48617202e-004,
          3.12785938e-004, 4.46528691e-004, 4.58114693e-004,
          1.81068201e-004, 1.99997972e-004, 1.76270769e-005,
          1.76848873e-004, 9.31619434e-005, 1.46110251e-005,
          -7.52371416e-005, -9.11261595e-005, -9.30896058e-005,
          -1.00798745e-004, 6.40409780e-005, 5.24890900e-004,
          4.27647756e-004, 5.10212907e-004, 4.40668489e-004,
          2.43597213e-004, 9.31784889e-005, -5.30109537e-005,
          -6.37665289e-005, -2.82717228e-005, 1.45358435e-005,
          3.07533301e-005, 3.66612192e-004, 5.42239286e-004,
          3.97462776e-004, 3.38849757e-004, 9.47356748e-005,
          1.30112210e-004, 7.84386066e-006, -8.01420465e-005,
          -1.35232485e-005, 1.57212460e-004, 2.75499275e-004,
          1.68590224e-004, 1.64300436e-004, -1.42375093e-005,
          -2.20420377e-004, -1.23749982e-004, -8.62621091e-005,
          2.09616104e-004, 2.03022806e-004, 1.60594966e-004,
          -2.59958767e-007, -1.31735593e-004, -1.71465625e-004,
          -2.08761892e-004, -2.00281473e-004, -1.41253156e-004,
          -5.44344475e-005, -2.40910623e-007, 3.04931861e-020 ]
      - [ 3.98130418e-004, 3.06003698e-004, 8.21368885e-005,
          -2.47661737e-005, -1.90348874e-004, -2.15904118e-004,
          -1.28505839e-004, -7.24363344e-005, -5.99261803e-005,
          -1.08366803e-004, -1.45711805e-004, -2.32427978e-004,
          2.74005870e-004, 1.80841787e-004, -3.66876520e-005,
          -7.75642402e-005, -1.56586597e-004, -1.36858594e-004,
          -8.49955322e-005, -5.29020799e-005, -7.69831022e-005,
          -2.02265830e-004, -2.39977831e-004, -2.35391693e-004,
          1.75594541e-004, 1.62451819e-004, 1.51029308e-005,
          8.32902606e-006, -5.49909691e-006, -2.62844515e-005,
          -3.41334853e-005, -1.07986239e-006, -9.19452759e-006,
          -6.47781562e-005, -4.57661372e-005, -2.00426275e-005,
          1.61814372e-004, 2.49220146e-004, 2.15263557e-004,
          2.76782666e-004, 2.69756652e-004, 2.59543682e-004,
          2.45340634e-004, 2.83663190e-004, 3.38121172e-004,
          1.88592850e-004, 1.53216490e-004, 1.04987193e-004,
          1.61814372e-004, 2.77365034e-004, 2.05679025e-004,
          1.45119833e-004, 5.23640774e-005, 2.31263548e-005,
          1.04543269e-005, 9.30133392e-005, 1.76017507e-004,
          3.26856789e-005, 9.32187249e-005, 1.04987193e-004,
          1.68708793e-004, 2.12282146e-004, 5.26842159e-005,
          5.46496485e-005, 2.35077077e-005, 4.26077204e-005,
          7.18983501e-005, 1.36262519e-004, 2.28452409e-004,
          9.95778682e-005, 1.41316443e-004, 1.11881614e-004,
          1.47127779e-004, 2.55341613e-004, 2.42644557e-004,
          2.68267497e-004, 2.65758164e-004, 2.72654113e-004,
          2.63582246e-004, 2.88699579e-004, 2.89572752e-004,
          1.30931163e-004, 1.36561386e-004, 9.03006003e-005,
          6.72919341e-005, 9.16885547e-005, 4.97756118e-005,
          4.61524651e-005, 2.61546065e-005, 1.57069298e-005,
          2.54367988e-005, 1.08968903e-004, 1.74971632e-004,
          9.46635118e-005, 1.83694152e-004, 2.14196334e-004,
          -2.69538083e-004, -2.35233500e-004, -1.68779967e-004,
          -1.12136266e-004, -7.82834541e-005, -7.14856651e-005,
          -9.80890691e-005, -4.31563385e-005, 3.12002958e-005,
          -5.22955415e-005, 1.20732380e-004, 3.27155809e-004,
          -2.13511623e-004, -1.86638339e-004, -1.81046082e-004,
          -1.37490802e-004, -1.30829008e-004, -1.48370251e-004,
          -1.49939544e-004, -3.38640712e-005, 9.42062397e-005,
          8.02823779e-005, 2.10925369e-004, 3.04619753e-004 ]
      - [ -8.13151629e-020, -8.13151629e-020, 1.47201761e-004,
          -4.64091818e-006, -1.28814921e-004, -1.94643755e-004,
          -2.00565293e-004, -5.77970059e-005, 2.66931514e-004,
          -1.26773492e-004, -1.23601480e-004, -1.31519075e-004,
          -7.05705461e-005, -7.74855071e-005, 1.53445348e-004,
          -1.04569677e-004, -2.27066048e-004, -2.29576413e-004,
          -1.75937617e-004, 1.29920609e-005, 2.74387130e-004,
          -1.78786446e-004, -2.05318516e-004, -2.08482874e-004,
          -7.71759587e-005, -9.08040529e-005, 1.00684323e-004,
          1.59843650e-004, -1.16028268e-005, -1.52003326e-004,
          -1.30574888e-004, -1.54207519e-005, 2.74024205e-004,
          7.88492471e-005, -1.45005342e-005, 8.77735511e-006,
          2.50393408e-004, 2.64297210e-004, 1.76626694e-004,
          4.29609267e-004, 3.44586442e-004, 2.32016988e-004,
          2.16002081e-004, 2.98913423e-004, 4.35886439e-004,
          2.85283662e-004, 2.23789000e-004, 2.31084545e-004,
          2.66549585e-004, 2.32226768e-004, 2.73291022e-004,
          2.20913091e-004, 1.62894008e-004, 1.52207576e-004,
          1.37016425e-004, 2.60845525e-004, 4.40848060e-004,
          3.92383809e-005, -7.75535300e-005, -9.60382240e-005,
          4.92304098e-005, 3.87823166e-005, 1.45569895e-004,
          2.52168393e-004, 7.68383834e-005, 9.94528136e-007,
          1.25345605e-005, 1.42918492e-004, 4.48706298e-004,
          1.07908039e-004, -1.93169562e-005, -1.55069745e-006,
          1.70932879e-004, 1.60484778e-004, 1.17332034e-004,
          3.80777463e-004, 3.27174261e-004, 2.75393366e-004,
          3.17001337e-004, 3.38428916e-004, 4.20378055e-004,
          3.18590231e-004, 2.95081118e-004, 3.06300295e-004,
          3.26835492e-004, 2.51701713e-004, 1.18203883e-004,
          1.18215627e-004, 9.65484505e-005, 8.13171646e-005,
          6.75841438e-005, 2.03020303e-004, 3.62974533e-004,
          2.70619535e-006, -8.37043699e-005, -6.97098512e-005,
          -1.23896489e-005, -4.13261805e-005, 5.37005071e-005,
          9.54480347e-005, -3.18886268e-005, -9.58611854e-005,
          -1.24691956e-004, -5.43821152e-005, 2.05028016e-004,
          -7.77641908e-005, -1.22911413e-004, -5.22357841e-005,
          -8.88841678e-005, -1.34654751e-004, -4.17699521e-005,
          7.65230870e-005, -1.19140139e-004, -2.24155272e-004,
          -2.32228776e-004, -1.39845783e-004, 6.04437009e-005,
          5.41820737e-006, -2.13425919e-005, -1.85874414e-005 ]
      - [ 3.86247024e-019, -2.30235401e-006, -4.97169822e-005,
          -1.15555420e-004, -9.85297665e-005, 1.62267053e-004,
          2.87610485e-004, 1.49537154e-004, -2.86453360e-005,
          -3.87057778e-004, -1.51508910e-004, -1.65877136e-004,
          -1.28654123e-004, -2.02939933e-004, -2.70223420e-004,
          -2.97971623e-004, 1.66719201e-005, 3.92894508e-005,
          -2.29156547e-004, -6.46444232e-006, 3.90133209e-004,
          -4.25442267e-004, -2.54616141e-004, -2.82439345e-004,
          -2.24926873e-004, -2.67648371e-004, -3.58114776e-004,
          -1.12111484e-004, 1.67036807e-004, 1.15960756e-005,
          -7.30277534e-005, 2.70122837e-004, 8.92628668e-005,
          -3.92904476e-004, -2.72123987e-004, -2.58322165e-004,
          -1.18692631e-004, -1.07080996e-004, -1.62164288e-004,
          1.85325014e-004, 4.62328724e-004, 4.22028068e-004,
          3.17102706e-004, -4.42864039e-005, -7.99134214e-005,
          -2.10309197e-004, -1.26655548e-004, -1.24966406e-004,
          9.58777746e-005, 3.70008871e-004, 3.24991008e-004,
          5.31251077e-004, 4.61244083e-004, 4.95931483e-004,
          4.88841906e-004, 2.28000514e-004, 2.35809086e-004,
          2.82733126e-005, 6.85610357e-005, -6.69672809e-005,
          5.28278470e-004, 6.80586440e-004, 1.23169702e-005,
          2.94840400e-004, 3.56300035e-004, 4.60214855e-004,
          4.77031630e-004, 5.89319039e-004, 3.95199313e-004,
          2.21349226e-004, 3.20384745e-004, 3.04648012e-004,
          2.87263654e-004, 1.96040986e-004, -1.87413112e-004,
          2.47139949e-004, 3.27086949e-004, 1.28303931e-004,
          1.40169956e-004, 2.58331362e-004, 1.45583792e-004,
          -6.67055210e-005, 3.04496119e-004, 3.77216376e-004,
          -8.79608488e-005, -3.92362308e-005, -2.29556856e-004,
          2.91688975e-005, 5.36553707e-005, 9.26494904e-005,
          -1.75783698e-005, -2.31103841e-005, 3.16774036e-004,
          -6.34705648e-005, 1.79622788e-004, 6.42948435e-005,
          -2.41813614e-004, -1.92769250e-004, -2.58475426e-004,
          8.87762217e-005, 1.78224320e-004, 1.75311841e-004,
          -3.03137640e-005, -7.00681539e-006, 5.14720741e-005,
          -2.69873330e-004, -1.72838802e-004, -8.45882969e-005,
          -1.43168698e-004, -7.61083356e-005, -2.97869701e-004,
          -1.03820739e-005, 8.73342506e-005, 2.12265804e-004,
          1.34859711e-005, 1.01756617e-004, -1.29791690e-004,
          -5.53852333e-005, -6.81515587e-007, 3.86247024e-019 ]
      - [ -4.45864453e-006, -1.61070984e-005, -5.91342796e-005,
          -8.10584334e-006, 8.95526900e-005, 3.77755532e-005,
          -5.01157047e-005, -8.95376434e-006, 3.53912365e-005,
          3.08349518e-005, 1.88757214e-004, 2.28638761e-004,
          7.88402540e-005, 1.10574598e-004, 3.49179536e-005,
          2.80948734e-005, 2.80710865e-005, 2.80710865e-005,
          1.77233123e-005, 1.43107491e-006, 2.05229571e-005,
          3.67070425e-005, 1.82567746e-005, -1.98978159e-004,
          7.79817638e-005, -4.77505491e-005, -4.41857555e-004,
          -4.69858933e-004, -4.77107737e-004, -4.62990545e-004,
          -5.13441162e-004, -5.95730904e-004, -5.64467453e-004,
          -1.69184113e-005, 1.48288949e-004, 9.43347823e-006,
          1.02641243e-004, 1.55484347e-004, -8.27412150e-005,
          -1.72785385e-005, 5.12356164e-005, 1.47257582e-004,
          2.25780168e-004, 1.55769212e-005, 3.54051772e-005,
          4.03215323e-004, 2.23028128e-005, -5.84935588e-005,
          1.02641243e-004, 3.54769640e-004, 6.03013497e-004,
          6.48938818e-004, 5.69195487e-004, 5.37901651e-004,
          3.79960460e-004, 2.36011649e-004, 3.56648452e-005,
          1.71163716e-004, -2.36065025e-004, -1.52258595e-004,
          1.05602769e-004, 5.45570219e-004, 6.00839558e-004,
          5.71574143e-004, 3.91768379e-004, 3.11119278e-004,
          3.70534428e-004, 3.15988378e-004, -3.59606085e-004,
          3.12623917e-004, -2.00047230e-004, -1.65045072e-004,
          1.05602769e-004, 5.77804050e-004, 7.65081844e-004,
          6.68464229e-004, 4.30659013e-004, 6.42063287e-006,
          -4.75622976e-004, -6.20148377e-004, -3.30508599e-004,
          6.06469694e-004, 9.39554011e-005, -7.72463172e-005,
          1.05602769e-004, 3.18795937e-004, -3.22226173e-004,
          -4.42631048e-004, -4.30346787e-004, -1.81318785e-004,
          -7.18160663e-005, 2.20546601e-004, 2.75471190e-004,
          1.72131258e-005, -1.62394681e-005, -2.16840434e-019,
          9.70163164e-005, 6.17635305e-005, 1.31082561e-004,
          2.10916172e-004, 1.75908222e-004, 3.96305404e-005,
          -6.45170730e-005, -2.28357130e-005, -1.90929022e-005,
          -2.98326586e-006, -2.16840434e-019, -2.16840434e-019,
          1.15957933e-004, 7.07587023e-005, -1.42033983e-004,
          -1.09348126e-004, -2.45716255e-005, -1.44208325e-005,
          -3.19239803e-006, -2.16840434e-019, -2.16840434e-019,
          -2.16840434e-019, -2.16840434e-019, -2.16840434e-019 ]
      - [ 2.64740753e-004, 2.19584443e-004, 1.99082118e-004,
          1.70434025e-004, 2.11171995e-004, 1.11924943e-004,
          8.07766337e-005, -8.03038783e-005, -5.38899949e-005,
          -3.47207606e-005, -1.68411989e-005, 7.86807068e-005,
          -1.96132751e-004, -5.99155683e-005, 1.73083623e-004,
          1.28161293e-004, -1.55322850e-004, -3.06075875e-004,
          -1.90375213e-004, -3.78090161e-004, -1.54625843e-004,
          9.94247239e-005, -7.08530133e-005, -2.18410860e-004,
          -1.21870107e-004, 7.90272388e-005, 1.78449729e-004,
          -2.77565268e-005, -3.21111671e-004, -4.99883026e-004,
          -3.46314016e-004, -3.21686675e-004, -1.88335136e-004,
          -2.39312922e-005, 2.04590760e-004, 1.70832791e-004,
          1.07039072e-004, 2.86405964e-004, 3.37079196e-004,
          3.71058355e-004, 9.04841509e-005, -4.88454089e-006,
          5.22706396e-005, -6.70446098e-005, 1.30122435e-005,
          2.25344731e-004, 9.70207257e-005, 2.14596992e-004,
          1.78113987e-004, 3.20594176e-004, 3.00061278e-004,
          3.61774699e-004, 8.53856982e-005, 8.53856982e-005,
          8.18530534e-005, -5.65498085e-005, 1.02461774e-004,
          2.30095116e-004, 1.90600666e-004, 7.81671406e-005,
          1.75138019e-004, 3.31715826e-004, 3.03847366e-004,
          4.05293365e-004, 1.52921610e-004, 9.38833327e-005,
          -2.20018001e-006, -2.96156766e-004, 2.21019491e-005,
          2.21672643e-004, 3.14253411e-004, 1.15728042e-004,
          4.02921432e-005, 2.20630012e-004, 3.47577356e-004,
          3.33211705e-004, 3.70340204e-005, -2.53483246e-004,
          -3.55980650e-004, -3.70317430e-004, 1.10949120e-004,
          4.89744009e-004, 1.90655497e-004, 2.26876451e-004,
          -2.32932012e-004, 5.78822001e-005, 9.10083982e-005,
          -6.14053861e-005, -2.82747293e-004, -4.65282123e-004,
          -4.27906809e-004, -2.32061604e-004, 3.36685684e-004,
          6.66047505e-004, 3.12493998e-004, 6.42522136e-005,
          -4.00561752e-004, -3.66774912e-004, -4.35511174e-004,
          -1.42493140e-004, -3.78812110e-005, -1.12533773e-004,
          -1.40442062e-004, 1.07415101e-004, 4.71762294e-004,
          4.30842803e-004, 9.17888829e-005, 1.89735380e-019,
          -1.66850048e-004, -2.10670638e-004, -2.57579610e-004,
          -1.39268217e-004, -5.26642034e-005, 1.66905302e-004,
          3.47287074e-004, 3.66378430e-004, 3.56048375e-004,
          3.30558454e-004, 1.26029729e-004, 1.26029729e-004 ]
      - [ -2.24463731e-020, -1.87251067e-006, 5.22645205e-005,
          8.81151209e-005, 1.60108553e-004, 7.23051999e-005,
          -2.54112121e-004, -3.08252376e-004, -2.03274380e-004,
          -1.37798357e-004, -2.80550703e-005, -1.69013929e-005,
          -1.05354746e-004, -1.28952131e-004, -2.16226617e-004,
          -2.34372128e-004, -2.01696195e-004, -7.60012881e-007,
          1.10513458e-004, -5.23902854e-005, -9.18407295e-006,
          -1.02283637e-004, -8.36231920e-005, -1.08283639e-004,
          -5.69755066e-005, -1.21857338e-004, -2.24150936e-004,
          -1.92548221e-004, -1.33398687e-004, 1.55141679e-005,
          1.28271495e-004, 3.96380856e-005, 1.22305733e-004,
          2.97657185e-004, 3.04512068e-004, 1.32823363e-004,
          -6.58767676e-005, -6.06703288e-005, -2.99631938e-005,
          2.30108868e-004, 3.34798038e-004, 4.40569071e-004,
          2.67254247e-004, 1.64346246e-004, 3.03658249e-004,
          1.77385475e-004, 6.72131864e-005, 2.63421298e-005,
          5.49134820e-005, 1.72395070e-004, 1.90002000e-004,
          4.53341432e-004, 4.53341432e-004, 4.52918932e-004,
          2.55933992e-004, 1.18155243e-004, 2.19884605e-005,
          -1.42837438e-004, -2.01878109e-004, -1.73568478e-004,
          -2.64027494e-005, -4.57312781e-005, 1.84793425e-005,
          4.19944990e-004, 4.68003185e-004, 4.91197745e-004,
          1.54132140e-004, -2.95631380e-005, -3.10127871e-005,
          -9.03156945e-007, -7.62138588e-005, -1.82494856e-004,
          1.72664004e-005, 3.90540627e-005, 2.35063690e-005,
          2.29766258e-004, 2.24119925e-004, 2.59485038e-004,
          1.40113130e-004, 8.82824679e-005, 1.67258666e-004,
          1.81237963e-004, 6.16025281e-005, -9.84377912e-005,
          3.89020977e-004, 2.91136384e-004, 5.28536111e-005,
          5.46244373e-005, 1.30303670e-005, -4.44229081e-005,
          -2.99453841e-005, 6.58908830e-005, 2.30292324e-004,
          2.19617141e-004, 7.60966359e-005, 4.25339204e-005,
          2.25265035e-006, 1.13605842e-004, 7.80887149e-006,
          -2.31494687e-005, -1.61579577e-004, -2.00412687e-004,
          -2.50712706e-004, -5.44837276e-005, 3.85191743e-005,
          5.57973908e-005, 1.21632511e-005, 1.58006005e-005,
          -1.62118537e-004, -1.73549910e-004, -1.34232003e-004,
          -8.45525137e-005, -1.65873964e-004, 2.13928051e-005,
          1.06468142e-004, 3.12546108e-005, -2.24463731e-020,
          -2.24463731e-020, -2.24463731e-020, -2.24463731e-020 ]
      - [ 1.01250778e-004, 3.38440528e-004, 4.80983785e-004,
          3.84285086e-004, 9.53438357e-005, -1.94735054e-004,
          -3.04136454e-004, -5.41075482e-004, -4.31943423e-004,
          -2.81464541e-004, -1.57431365e-004, -3.14481877e-005,
          3.47464200e-004, 2.91853066e-004, 2.37598346e-004,
          2.22947798e-004, 2.19420515e-004, 3.71777933e-005,
          -2.15815089e-004, -5.36667940e-004, -5.03082294e-004,
          -1.25963888e-005, 2.27199824e-004, -3.77916440e-005,
          4.70651685e-005, 2.46595766e-004, 2.14993997e-004,
          2.49200559e-004, 1.95834713e-004, -1.58507246e-005,
          4.08719570e-005, 3.48350768e-005, 1.64340599e-004,
          3.47021502e-004, 2.81695626e-004, 6.98083613e-006,
          -1.76302667e-004, -1.22812689e-005, -3.16606420e-005,
          1.81612879e-004, 2.01228031e-004, 1.44791571e-004,
          1.00012701e-004, -2.73158930e-005, 2.32510545e-004,
          2.43441566e-004, -7.74253713e-005, -1.29877371e-004,
          -1.95114830e-004, -1.22624493e-004, -2.06989731e-004,
          -2.94410384e-005, -3.63834118e-007, -3.63834118e-007,
          9.48726884e-005, 2.41864458e-004, 1.83826502e-004,
          8.42654335e-005, -5.97384969e-005, -2.30131453e-004,
          -1.94750988e-004, -1.22405254e-004, -2.06915094e-004,
          -2.90772041e-005, -1.62630326e-019, -3.23080053e-006,
          2.86417082e-004, 3.84365521e-005, -3.55194038e-006,
          -3.53345422e-005, -5.79249208e-005, -1.88849895e-004,
          -1.94750988e-004, -1.22405254e-004, -2.13734922e-004,
          -9.16539575e-005, -1.26863088e-004, -3.68299443e-005,
          3.93889195e-006, 6.32911451e-006, 1.10226101e-004,
          -3.29660943e-005, -1.50087828e-004, -5.50812219e-005,
          -1.94750988e-004, -1.73189779e-004, -3.49525595e-004,
          -4.32611792e-004, -2.44240393e-004, 1.13304404e-005,
          8.38678752e-005, -1.73435747e-005, -6.51649898e-005,
          -2.53243179e-005, -3.40978986e-005, -1.62630326e-019,
          -2.60323868e-004, -2.78285763e-004, -5.71989396e-004,
          -2.31926562e-004, -1.17762880e-004, -4.65815901e-005,
          9.92208006e-005, 4.71016756e-006, -8.74305115e-005,
          -3.58465077e-005, -1.62630326e-019, -1.62630326e-019,
          -1.94750988e-004, -1.97243557e-004, -4.23783320e-004,
          -4.52261411e-005, -1.80595016e-004, 1.73949138e-005,
          9.52080663e-005, -9.77012951e-006, -1.62630326e-019,
          -1.62630326e-019, -1.62630326e-019, -1.62630326e-019 ]
      - [ -5.42101086e-020, -1.03009770e-005, -1.52069606e-005,
          6.80449448e-005, 1.59576215e-004, 3.29760893e-004,
          1.46001912e-004, -1.96555528e-004, -4.44369682e-004,
          -2.62973743e-004, 1.25521678e-004, 2.39294895e-004,
          -2.18385190e-004, -2.95557664e-004, -3.97189520e-004,
          -2.60546716e-004, -3.71420247e-005, 1.94030828e-004,
          1.17704825e-004, -8.56455154e-005, -1.31139881e-004,
          2.30524151e-004, 3.61555634e-004, -8.16213287e-005,
          -1.84558419e-004, -6.30448412e-005, -1.99805276e-004,
          -1.81950963e-004, -3.09253752e-004, -3.74219118e-004,
          -4.45619691e-004, -4.02122794e-004, -7.41463300e-005,
          2.07019781e-004, 1.00025944e-004, -2.54607494e-005,
          -1.24641592e-004, 3.31065850e-004, 2.62128771e-004,
          4.78014961e-004, 3.64345644e-004, 9.16128120e-005,
          8.90347874e-005, 1.66841404e-004, 1.41075056e-004,
          1.75532099e-004, -2.70051853e-004, -8.99593579e-005,
          1.50164837e-004, 2.93952151e-004, 1.87333877e-004,
          4.46666265e-004, 3.82240949e-004, 3.78536235e-004,
          3.73970892e-004, 1.11397661e-004, 1.08943808e-004,
          5.70862494e-006, -1.18571683e-004, -2.83749920e-004,
          -1.23553880e-004, 4.20642100e-005, -1.03456798e-004,
          1.72230109e-004, 4.03961458e-004, 4.47522121e-004,
          1.66843038e-005, -2.12520790e-005, -4.21850491e-005,
          -9.62215272e-005, -4.07266380e-005, -2.37132132e-004,
          -1.60950061e-004, -7.92189821e-005, -5.91039279e-005,
          2.81102461e-004, 7.88583784e-005, -2.20836708e-004,
          -5.46221672e-005, -6.91093464e-006, -6.62032180e-005,
          -5.25553196e-006, -1.36149611e-004, -5.27746633e-005,
          -1.60950061e-004, -3.77045690e-005, -9.89912951e-005,
          -2.88301788e-004, -4.58767550e-004, -1.82175630e-004,
          3.12932752e-005, -9.59966274e-005, -1.21334015e-005,
          -1.94398017e-005, -2.87268413e-005, -5.42101086e-020,
          -1.40868273e-004, -7.76323941e-005, -5.74899896e-004,
          -5.46764990e-004, -2.64731090e-004, 1.18539874e-005,
          -1.59612566e-004, -8.75386540e-005, -2.51929559e-005,
          -1.03291122e-005, -5.42101086e-020, -5.42101086e-020,
          5.41462032e-005, -2.87634088e-004, -5.67517651e-004,
          -2.41686736e-004, -1.49893340e-005, 4.45052938e-005,
          -5.33105849e-005, -3.52701386e-006, -5.42101086e-020,
          -5.42101086e-020, -5.42101086e-020, -5.42101086e-020 ]
      - [ 3.97331954e-004, 1.34237329e-004, -2.28520767e-005,
          -1.08678396e-004, -1.37581519e-004, -1.55705537e-004,
          -2.10305778e-004, -3.02439381e-004, -2.14830099e-004,
          -1.69042949e-004, -1.41605327e-004, -9.67174492e-005,
          2.90498341e-004, -2.42884234e-005, -1.20935467e-004,
          -1.75131267e-004, -1.82367090e-004, -1.82367090e-004,
          -2.21585782e-004, -3.71187431e-004, -3.14160483e-004,
          -1.97789603e-004, -1.58035327e-004, -1.09642664e-004,
          2.35767890e-004, 1.47678602e-005, -7.95789674e-005,
          -1.45390120e-004, -1.53357236e-004, -1.42696110e-004,
          -1.78821720e-004, -2.98926199e-004, -2.79420870e-004,
          -2.53995386e-004, -1.06754575e-004, -1.20965808e-006,
          2.35767890e-004, 7.75561202e-005, 6.14316305e-005,
          7.23583298e-006, -1.16595847e-005, -1.82181009e-006,
          -3.92186776e-005, -1.72061307e-004, -1.32498200e-004,
          -1.11336194e-004, -1.93707223e-004, -7.94991138e-005,
          2.35767890e-004, 8.66341725e-005, 1.35218768e-004,
          1.39090946e-004, 1.33955546e-004, 1.38306452e-004,
          1.05689149e-004, 1.12075656e-006, -1.63218501e-005,
          -4.71216081e-005, -1.27183332e-004, -2.21945418e-004,
          2.53923994e-004, 2.19443304e-004, 1.85252444e-004,
          1.19587836e-004, 1.13496630e-004, 1.31104171e-004,
          2.42032591e-004, 2.47983495e-004, 2.67555297e-004,
          2.30139907e-004, 1.50338921e-004, -1.26353407e-004,
          2.35767890e-004, 8.53324600e-005, 7.27276929e-005,
          3.55885750e-005, 3.26327718e-005, 2.51292822e-005,
          -3.64710577e-005, 6.94803311e-005, 2.41291695e-004,
          3.43969121e-004, 2.67299241e-004, 3.09362047e-004,
          2.35767890e-004, 2.71676345e-005, -8.78288556e-005,
          -2.41791960e-004, -1.85442070e-004, -1.49510335e-004,
          -2.25329772e-004, 1.43984653e-004, 2.94035242e-004,
          3.38281039e-004, 2.34793755e-004, 2.25843061e-004,
          9.23960033e-005, -1.83165088e-004, -2.71460478e-004,
          -2.15251333e-004, -6.02240580e-005, 3.25411129e-005,
          -7.26371873e-005, 7.57148155e-005, 4.27881278e-005,
          -4.69296947e-006, -3.03280171e-006, 5.42687474e-007,
          1.50175882e-004, 9.98352480e-005, -1.73262506e-005,
          -1.05053266e-004, -1.43220706e-004, -1.16847827e-004,
          -5.47206255e-005, -8.26330961e-006, -4.06575815e-020,
          -4.06575815e-020, -4.06575815e-020, -4.06575815e-020 ]
      - [ 3.04857909e-004, 2.38115696e-004, 4.61781856e-005,
          -2.95534537e-005, -1.50336971e-004, -1.70088533e-004,
          -1.92583058e-004, -2.82010034e-004, -2.00014969e-004,
          -1.47749350e-004, -9.57251832e-005, -2.92882105e-005,
          1.09482047e-004, 9.10615781e-005, -6.92224567e-005,
          -9.90212575e-005, -1.85746525e-004, -1.85746525e-004,
          -1.95875604e-004, -2.93594814e-004, -2.92740791e-004,
          -1.96633831e-004, -1.47975603e-004, -7.02273101e-005,
          1.06667852e-004, 1.10111803e-004, -6.38015990e-005,
          -9.21279279e-005, -1.12984984e-004, -7.70864499e-005,
          -5.25764772e-005, -1.19202508e-004, -9.90173139e-005,
          -5.50245277e-005, 6.39323262e-005, 9.02782558e-005,
          9.06167406e-005, 1.89362865e-004, 2.24804317e-004,
          2.74402497e-004, 2.74961611e-004, 2.79195112e-004,
          2.46676704e-004, 1.13401926e-004, 1.32576562e-004,
          5.32293461e-006, -8.76974627e-006, 1.10192232e-005,
          9.06167406e-005, 1.89740036e-004, 1.81307711e-004,
          1.31306806e-004, 3.81226455e-005, 9.58908277e-006,
          -1.52844696e-005, -2.73705500e-005, 3.46901543e-005,
          -8.36639883e-005, 2.14759220e-005, -2.11325114e-005,
          1.06667852e-004, 1.52623921e-004, 6.96054412e-005,
          6.90482120e-005, 2.10326325e-005, 3.81216450e-005,
          2.84394300e-005, -6.52073286e-005, -2.62290473e-006,
          1.23373256e-005, 1.55412810e-004, 2.15109922e-005,
          1.06667852e-004, 1.98105641e-004, 1.94878463e-004,
          2.09963284e-004, 1.81996453e-004, 1.38982097e-004,
          1.04837680e-004, 4.47207312e-005, 2.09634483e-004,
          1.71807769e-004, 1.34417103e-004, 8.54273094e-005,
          4.10426765e-005, 4.80876770e-005, -1.99337101e-005,
          -9.41195904e-005, -1.25221966e-004, -1.28868021e-004,
          -9.88048487e-005, -1.76693702e-005, 1.67859325e-004,
          1.64525714e-004, 2.06622906e-004, 1.81534968e-004,
          -1.83016949e-004, -2.23135037e-004, -2.67794559e-004,
          -2.23068026e-004, -2.01700663e-004, -1.75977722e-004,
          -1.55305679e-004, -2.90992539e-005, 1.30533197e-004,
          9.29715970e-005, 1.60657364e-004, 2.76310137e-004,
          -1.59217496e-004, -1.66534985e-004, -1.86267993e-004,
          -1.68775296e-004, -1.56997674e-004, -1.18871510e-004,
          -7.04998529e-005, 6.73323739e-005, 1.59322837e-004,
          1.02634425e-004, 1.69241743e-004, 2.27352211e-004 ]
      - [ 0., -8.08108143e-006, 1.27008214e-004, -7.21653196e-005,
          -2.24197080e-004, -2.79911736e-004, -3.12078599e-004,
          -2.68153672e-004, 9.85571096e-005, 3.84736413e-005,
          -4.47460989e-005, -6.67088898e-006, -2.14266693e-004,
          -2.32690203e-004, 3.56548626e-005, -1.51143686e-004,
          -2.71617173e-004, -3.20966879e-004, -3.24916822e-004,
          -2.84453126e-004, -6.60068035e-005, -8.27708864e-005,
          -2.18555884e-004, -1.49201966e-004, -5.46672636e-005,
          -1.12957983e-004, 8.23061200e-005, 6.03651242e-005,
          -1.56919661e-004, -2.00039256e-004, -1.82319229e-004,
          -1.88834209e-004, 7.70392944e-005, 1.32158370e-004,
          1.78243907e-004, 2.22820454e-004, 1.44727950e-004,
          1.22511236e-004, 1.78127579e-004, 4.71237377e-004,
          3.68207169e-004, 3.19040497e-004, 2.64309521e-004,
          6.50243310e-005, 2.48658034e-004, 1.73736349e-004,
          8.75007972e-005, 1.56133348e-004, 1.15174807e-004,
          8.52422891e-005, 3.14163073e-004, 2.90505879e-004,
          1.81770039e-004, 1.14623195e-004, 8.02313807e-005,
          1.32758491e-004, 1.18149728e-004, 8.60181353e-006,
          -1.12766356e-004, -2.12367915e-004, -1.94333516e-005,
          -6.26535766e-005, 2.05923920e-004, 3.52347444e-004,
          1.23474558e-004, 1.39685171e-005, -1.82803960e-005,
          -4.44309007e-005, 1.08984852e-004, 1.20636505e-004,
          6.12168078e-005, -6.30139257e-005, 1.13521186e-004,
          9.85400548e-005, 1.63029617e-004, 4.48334147e-004,
          3.17628350e-004, 2.19641690e-004, 1.74769273e-004,
          2.54837560e-005, 2.85573216e-004, 4.02142556e-004,
          2.83348898e-004, 3.00700893e-004, 2.76206207e-004,
          1.96134395e-004, 2.01113653e-004, 8.31740326e-005,
          -9.30573297e-005, -1.38044023e-004, -1.76838890e-004,
          4.51238011e-005, 3.66738794e-004, 2.32658538e-004,
          4.56120915e-006, 2.65108538e-005, -4.80692070e-005,
          -1.36230883e-004, -7.68085010e-006, -9.87144085e-005,
          -2.85083690e-004, -3.07914248e-004, -2.31971644e-004,
          1.45646090e-005, 2.99110048e-004, 1.72574786e-004,
          3.59729938e-006, -7.12286351e-007, -8.01862479e-005,
          -1.72311382e-004, -3.33030403e-005, 7.25961581e-005,
          -1.36212504e-004, -1.71777050e-004, -1.00827347e-004,
          8.94624172e-005, 1.83858152e-004, 7.46408987e-005, 0., 0. ]
      - [ -5.42101086e-020, -5.77231458e-006, -3.22092783e-005,
          -1.15782932e-004, -6.60953592e-005, 2.01874529e-004,
          1.46140563e-004, -1.65726073e-004, -1.61190896e-004,
          -1.61440621e-004, -5.54666367e-005, -6.39104474e-005,
          -1.68625731e-004, -2.20658432e-004, -3.12472170e-004,
          -1.27093081e-004, 8.64046742e-005, 1.82939166e-005,
          -3.41464416e-004, -4.77828959e-004, -4.14418573e-005,
          -2.00730166e-004, -1.56348979e-004, -1.67923194e-004,
          -9.21663668e-005, -1.23628459e-004, -3.32049647e-004,
          -1.46277554e-004, -7.34537243e-005, 2.20826605e-005,
          -4.27272389e-005, 5.99101186e-005, 1.80604111e-005,
          -2.45005678e-004, -1.01356440e-004, -7.34087007e-006,
          -1.07564258e-004, -6.50779621e-005, -5.15877473e-005,
          3.18253122e-004, 5.73681900e-004, 5.16341242e-004,
          3.90381785e-004, -1.35995520e-004, -2.04013020e-004,
          -1.61628399e-004, -3.39443126e-004, -1.82327072e-004,
          1.07105392e-004, 3.45307490e-004, 2.51019548e-004,
          4.68222366e-004, 4.28564555e-004, 4.15380258e-004,
          3.79174890e-004, -5.53787104e-005, 1.67919770e-005,
          1.09867637e-004, -1.30199032e-005, -3.25047557e-004,
          4.36517847e-004, 5.16885368e-004, -2.39441579e-005,
          3.65294924e-004, 3.47109657e-004, 2.63961614e-004,
          2.06805926e-004, 6.23715823e-005, 3.58505640e-005,
          1.58376104e-004, 2.21927505e-004, 4.78439579e-005,
          1.89371800e-004, 1.81925381e-004, -2.52996706e-005,
          3.08324292e-004, 2.86187074e-004, -8.89902549e-006,
          -1.14981565e-004, 1.08059130e-005, 1.10785455e-004,
          1.11885529e-004, 1.48802297e-004, 2.44861178e-004,
          -8.14825034e-005, -3.71536044e-005, -2.26215867e-004,
          -1.91477317e-004, -2.68987089e-004, -2.49442703e-004,
          -3.39454215e-004, -2.86897470e-004, 3.38202779e-004,
          1.18404037e-004, 8.32393780e-005, 3.68865694e-005,
          -2.27862838e-004, -2.15098480e-004, -4.15106071e-004,
          -1.57103859e-004, -4.74146764e-005, -2.95507198e-005,
          -1.93622240e-004, -1.39908516e-004, 2.41442584e-004,
          -4.72177817e-008, -3.47689565e-005, -4.75237766e-006,
          -1.67422637e-004, -1.16869931e-004, -3.32462165e-004,
          -1.78183036e-004, -1.33372581e-004, 1.19837066e-004,
          1.60635784e-004, 3.37802514e-004, 8.05841701e-005,
          7.21466586e-006, -5.42101086e-020, -5.42101086e-020 ]
      - [ 1.63160657e-004, 1.15349249e-004, 6.70568988e-005,
          2.18749028e-005, -1.64210469e-005, -7.19721429e-005,
          -7.88581965e-005, -8.25116003e-005, -1.51359709e-004,
          -2.05783494e-004, -2.54684041e-004, -1.64763434e-004,
          -2.63229798e-004, -2.30886624e-004, -5.01997347e-005,
          -1.22966580e-004, -2.53313774e-004, -3.14099132e-004,
          -2.40171081e-004, -2.18080997e-004, -1.18119526e-004,
          -9.11770403e-005, -1.62185286e-004, -1.16607691e-004,
          -3.45990149e-004, -9.77854506e-005, 1.79743496e-004,
          2.77941326e-005, -8.75457554e-005, -1.91160987e-004,
          -7.51036932e-005, 1.13740956e-004, 1.40800679e-004,
          -1.51275744e-005, 8.63268360e-005, 9.96105155e-005,
          -2.08471552e-004, 4.54963920e-005, 2.90388532e-004,
          2.13820982e-004, 3.88937042e-005, -4.35580987e-005,
          -3.61945858e-005, 8.82683089e-005, 8.08520781e-005,
          -1.59916075e-004, 1.04051680e-004, 2.50480953e-004,
          -1.63160657e-004, -5.81004633e-006, 2.22290473e-005,
          -1.79432245e-005, -1.49653672e-004, -1.46679056e-004,
          -9.82720303e-005, 7.07760137e-007, 1.01687634e-004,
          -9.20129605e-005, 1.12681751e-004, 2.90170021e-004,
          -1.77222653e-004, -8.82688473e-005, -6.92814183e-006,
          3.66076074e-006, -5.45522817e-005, -5.56648629e-005,
          -1.28392101e-004, -1.48782492e-004, 9.28740264e-005,
          -1.75311463e-004, 2.17900728e-004, 2.84540787e-004,
          -2.59258231e-004, -1.72449087e-004, -6.55560652e-005,
          -1.15419942e-004, -1.59944437e-004, -1.75462337e-004,
          -1.13297596e-004, 3.38078389e-005, 1.21550067e-004,
          -3.25756228e-005, 1.42692472e-004, 2.02505209e-004,
          -4.15558170e-004, -2.14301181e-004, 1.28478903e-004,
          9.49548557e-005, 4.21386685e-005, -1.63780685e-004,
          -1.46309656e-004, -6.71628732e-005, 5.04093077e-005,
          3.29990406e-004, 2.19650421e-004, 4.62052631e-005,
          -4.60022013e-004, -3.98545730e-004, -2.48749013e-004,
          -9.38081939e-005, 2.55990726e-005, 9.94134971e-005,
          1.36286544e-004, 2.29564554e-004, 3.06558009e-004,
          2.62929796e-004, 6.32177034e-005, 1.74141246e-006,
          -4.61763440e-004, -3.34696728e-004, 6.79041841e-005,
          7.84664226e-005, 1.13912545e-004, 2.07010118e-004,
          2.42811730e-004, 1.70166226e-004, 1.41989905e-004,
          1.14661860e-004, 1.74141246e-006, -9.48676901e-020 ]
      - [ -6.77626358e-020, -8.41634483e-006, -2.26904376e-005,
          -5.31661644e-005, -6.55177937e-005, -1.09788023e-004,
          -1.93005631e-004, -2.52501137e-004, -2.68056028e-004,
          -2.58029788e-004, -2.50510086e-004, -1.94052292e-004,
          -1.90183739e-004, -2.65856477e-004, -2.68056028e-004,
          -2.63770373e-004, -2.08611134e-004, -9.45847642e-005,
          -4.76448213e-006, -3.83109618e-005, -1.07678832e-004,
          -1.78882809e-004, -1.78692251e-004, -1.13135822e-004,
          -2.68056028e-004, -2.03965828e-004, -1.15340561e-004,
          -1.02909915e-004, -4.59150397e-005, 4.85616983e-005,
          1.67754843e-004, 1.96331544e-004, 2.07037840e-004,
          1.17460411e-004, 8.12610015e-005, 5.04457130e-005,
          -2.50523764e-004, -1.14977636e-004, 9.27578876e-005,
          1.41571683e-004, 1.72703934e-004, 2.17306762e-004,
          1.87772428e-004, 1.91864514e-004, 1.61246251e-004,
          -8.71481188e-006, -1.83402236e-007, 2.76417341e-005,
          -1.52107546e-004, -8.31410071e-005, -9.17378657e-007,
          1.12620350e-004, 1.39226715e-004, 1.54722613e-004,
          1.55369751e-004, 1.24215396e-004, 2.94380770e-005,
          -1.88428443e-004, -1.26439030e-004, -6.59865191e-006,
          -2.16163156e-004, -1.81400479e-004, -2.20745223e-005,
          1.27228661e-004, 1.76952017e-004, 1.88275633e-004,
          5.07997211e-005, -1.23315667e-005, 1.34190686e-005,
          -1.66041718e-004, -5.59894979e-005, -6.77626358e-020,
          -2.32285849e-004, -1.49629122e-004, -7.15447895e-005,
          -2.86093054e-005, 2.53381713e-005, 1.36909701e-004,
          1.99260059e-004, 1.90051724e-004, 1.21953868e-004,
          -4.19841381e-005, 1.55265298e-005, 3.51317613e-005,
          -7.63737262e-006, 2.08957317e-005, 1.64733297e-004,
          1.72462853e-004, 1.57572038e-004, 5.15575593e-005,
          2.76682331e-005, -1.04012133e-005, 3.06246761e-006,
          8.29344135e-005, 1.00518977e-004, 8.03335352e-005,
          -4.11184155e-005, -4.78815082e-007, 7.37731762e-006,
          1.40508309e-005, -1.58971011e-006, -2.31790000e-005,
          -4.57930400e-006, 5.58617603e-006, 1.18107719e-005,
          1.80353672e-005, 2.63348302e-005, 9.41669623e-006,
          -2.38551060e-004, -6.32345764e-005, 1.43751400e-004,
          1.28157451e-004, 7.01290992e-005, 9.31158575e-005,
          4.87007637e-005, 9.74015256e-006, -6.77626358e-020,
          -6.77626358e-020, -6.77626358e-020, -6.77626358e-020 ]
      - [ 6.27125628e-005, 1.47881758e-004, 1.42678356e-004,
          1.02246289e-004, -1.08001550e-005, -1.33913549e-004,
          -1.98664027e-004, -2.44523690e-004, -2.50700046e-004,
          -2.34378909e-004, -1.87233192e-004, -1.04544699e-004,
          5.79969019e-005, 1.46201160e-006, 0., 0., -1.57442958e-006,
          -8.29199562e-005, -1.57048824e-004, -2.27610930e-004,
          -2.08948477e-004, -9.31699615e-005, 1.65896090e-005,
          4.61687705e-006, -1.19926866e-004, 3.44430373e-005,
          1.38212883e-004, 1.38092728e-004, 1.13951472e-004,
          2.33771516e-005, 5.40843903e-005, 1.35775234e-004,
          1.88157297e-004, 9.93212379e-005, 7.35287758e-005,
          1.50433043e-005, -2.42303082e-004, -1.03603401e-004,
          9.10202434e-005, 1.15037576e-004, 9.54879724e-005,
          5.89665106e-005, 1.98113921e-005, 1.91959352e-005,
          1.53252346e-004, -6.39121645e-005, -4.51819833e-005,
          -1.46201160e-006, -2.50700046e-004, -1.92806547e-004,
          -1.26631669e-004, -1.26922765e-004, -1.16917181e-004,
          -1.16856354e-004, -4.89629019e-005, 1.29894222e-004,
          1.42519901e-004, -8.12385115e-005, -7.41560943e-005,
          -4.38603456e-006, -2.50700046e-004, -2.39369445e-004,
          -1.47700877e-004, -1.27760606e-004, -8.22688162e-005,
          -6.24147724e-005, 6.63859901e-005, 5.13873383e-005,
          3.39700855e-005, -2.02944590e-004, -4.74545413e-005,
          -5.42101086e-020, -2.50700046e-004, -2.47776014e-004,
          -2.04768337e-004, -1.92077292e-004, -1.54071677e-004,
          -5.30261195e-006, 8.98355866e-005, 8.40635330e-005,
          2.15923792e-005, -1.98341630e-004, -7.94209627e-005,
          -5.42101086e-020, -2.50700046e-004, -2.36810927e-004,
          -1.07642612e-004, -9.04747576e-005, 1.05112140e-005,
          4.43839926e-005, 2.97433180e-005, -2.41799789e-005,
          -1.03900566e-004, -3.64404368e-005, -6.17634498e-007,
          -5.42101086e-020, -2.50700046e-004, -2.50700046e-004,
          -2.41713045e-004, -8.81463857e-005, -1.05547770e-005,
          5.04364834e-005, 1.09461915e-004, 6.01791398e-005,
          -5.42101086e-020, -5.42101086e-020, -5.42101086e-020,
          -5.42101086e-020, -2.50700046e-004, -1.81841460e-004,
          -2.51452911e-005, 9.13169133e-005, 6.42172017e-005,
          1.05556530e-004, 1.05556530e-004, 8.29764667e-006,
          -5.42101086e-020, -5.42101086e-020, -5.42101086e-020,
          -5.42101086e-020 ]
      - [ -1.08420217e-019, -3.59823171e-005, -9.89026375e-005,
          -7.87562967e-005, -5.73708348e-005, 2.70499859e-005,
          9.50689991e-006, -1.33836278e-004, -3.33074771e-004,
          -3.03980632e-004, -1.94268534e-004, -8.39042405e-005,
          -2.42250229e-004, -3.30605544e-004, -3.22941050e-004,
          -2.27324665e-004, -1.29770400e-004, -3.49056172e-005,
          -2.73868372e-005, -2.95136942e-005, -1.24601953e-004,
          -4.09142922e-005, 1.40196244e-006, -9.03240070e-005,
          -3.33074771e-004, -2.15319757e-004, -5.61346824e-005,
          -6.00532112e-005, -1.14361137e-004, -1.36864430e-004,
          -1.11074063e-004, -6.92961548e-005, 7.37260416e-005,
          2.98994109e-005, -3.86074134e-005, -1.39236399e-005,
          -3.16519581e-004, -3.07429109e-005, 2.44250346e-004,
          2.23887168e-004, 1.32802103e-004, -9.27363817e-006,
          1.32583627e-005, 6.81314996e-005, 4.79719965e-005,
          -1.53385117e-004, -1.29504901e-004, -2.46923605e-006,
          -1.77437003e-004, -9.17563229e-005, 2.27250421e-005,
          3.44560758e-005, 4.29072825e-005, 1.75604291e-005,
          9.66560983e-005, 6.57766068e-005, 6.93888869e-005,
          -2.24216317e-004, -1.51570785e-004, -7.40770838e-006,
          -3.11923242e-004, -2.47419550e-004, -8.74674006e-005,
          -5.12316037e-005, 7.84129370e-005, 1.07422464e-004,
          -2.55790019e-005, -1.12614807e-005, -4.68579565e-005,
          -3.14716774e-004, -6.73935210e-005, -1.08420217e-019,
          -3.33074771e-004, -3.28136317e-004, -1.84685268e-004,
          -9.41429462e-005, -1.08840846e-004, -1.15234798e-004,
          8.15083840e-005, 8.31310535e-005, -9.32816110e-005,
          -2.63775903e-004, -9.90632470e-005, -1.08420217e-019,
          -3.33074771e-004, -2.81362620e-004, 1.05754752e-005,
          -3.64085863e-005, -1.18015123e-004, -4.11028304e-005,
          1.64620542e-005, -1.44797523e-004, -1.41128956e-004,
          -4.06431282e-005, -6.88866578e-007, -1.08420217e-019,
          -2.86840281e-004, -1.94371285e-004, -2.71706027e-004,
          -2.45542877e-004, -5.30425459e-005, 9.83562713e-005,
          4.29037937e-005, -1.08420217e-019, -1.08420217e-019,
          -1.08420217e-019, -1.08420217e-019, -1.08420217e-019,
          -1.80244067e-004, -2.21979935e-004, -3.53831492e-005,
          2.63488382e-005, 1.60135241e-004, 1.18705000e-004,
          -1.08420217e-019, -1.08420217e-019, -1.08420217e-019,
          -1.08420217e-019, -1.08420217e-019, -1.08420217e-019 ]
      - [ 2.66223127e-004, 1.93854517e-004, -1.88694885e-005,
          -1.74178771e-004, -2.24700882e-004, -2.57707579e-004,
          -2.64927803e-004, -2.88651354e-004, -2.98965955e-004,
          -2.78336782e-004, -2.62864894e-004, -2.04147917e-004,
          3.89681773e-005, -6.39873615e-005, -1.84681456e-004,
          -2.89446063e-004, -2.98965955e-004, -2.98965955e-004,
          -2.98965955e-004, -2.98965955e-004, -2.98965955e-004,
          -2.87619914e-004, -2.28826728e-004, -1.28920947e-004,
          -5.37309506e-006, 1.77931579e-005, -2.00242248e-005,
          -1.28306070e-004, -1.37825977e-004, -1.29574299e-004,
          -1.03364946e-004, -7.52717388e-005, -6.71095986e-005,
          -1.83075885e-004, -4.77956164e-005, -3.24199164e-006,
          -5.37309506e-006, 6.02306063e-005, 1.14284499e-004,
          6.84174120e-006, -8.59832562e-006, -1.29679665e-005,
          -2.05795986e-005, -2.40454228e-005, -8.09614066e-005,
          -2.49679753e-004, -1.07125998e-004, -5.63824642e-007,
          -5.37309506e-006, 2.98688756e-005, 7.02848338e-005,
          -1.43878378e-005, -4.16096464e-006, -3.26951777e-005,
          -1.89395541e-005, -6.97341284e-006, 1.69454634e-005,
          -1.28661151e-004, -1.68175047e-005, 1.30209028e-005,
          -2.38804228e-006, -3.47206260e-005, -2.91171891e-005,
          -5.61393354e-005, -3.11929284e-006, 6.20898281e-005,
          5.58406609e-005, 4.74025692e-005, 2.01689618e-004,
          -3.93688497e-005, 1.57911054e-004, 1.25937004e-004,
          -5.37309506e-006, -5.93334371e-005, -1.04155552e-004,
          -1.83006501e-004, -1.89168102e-004, -1.56700582e-004,
          -8.10406345e-005, 6.12173899e-005, 2.63292575e-004,
          6.30285285e-005, 1.85600133e-004, 1.96879337e-004,
          -5.37309506e-006, -5.91948483e-005, -3.59056685e-005,
          -1.18823897e-004, -7.76552915e-005, -6.80859957e-005,
          5.05535536e-005, 1.21101584e-004, 1.28087864e-004,
          1.79691953e-004, 1.50138090e-004, 8.91074233e-005,
          -3.55988050e-005, -5.80860215e-005, -1.40384000e-004,
          -1.57296614e-004, 4.07928201e-006, 1.61269709e-004,
          1.86328267e-004, 1.48361112e-004, 7.23155608e-005,
          3.21682237e-005, 1.11858926e-005, 7.13993131e-007,
          -7.18710435e-005, 6.73818722e-005, 1.93409825e-004,
          1.39766562e-004, 9.02355387e-005, 3.17321428e-005,
          9.51990842e-006, -1.37219337e-019, -1.37219337e-019,
          -1.37219337e-019, -1.37219337e-019, -1.37219337e-019 ]
      - [ 2.18829737e-004, 1.71806620e-004, 2.18347286e-005,
          -8.32392325e-005, -2.07547098e-004, -2.21340262e-004,
          -2.24357515e-004, -2.34271341e-004, -2.38581706e-004,
          -2.29960977e-004, -2.23495445e-004, -1.73109118e-004,
          2.12937211e-005, -4.02306068e-005, -1.36231014e-004,
          -1.80543153e-004, -2.38581706e-004, -2.38581706e-004,
          -2.38581706e-004, -2.38581706e-004, -2.38581706e-004,
          -2.33840314e-004, -2.09271238e-004, -1.06018611e-004,
          -4.93799234e-005, 1.44456399e-005, -1.25658886e-007,
          -4.07306834e-005, -6.74638577e-005, -4.46216000e-005,
          -1.81506166e-005, 3.25437468e-005, 4.45901715e-005,
          -4.77696740e-005, -3.76277458e-005, 4.04552120e-005,
          -4.93799234e-005, 6.23962696e-005, 1.85517900e-004,
          2.14186002e-004, 1.91539439e-004, 1.73371023e-004,
          1.33048961e-004, 1.42664867e-004, 1.38633623e-004,
          -5.65397168e-005, 4.05185856e-005, 9.84157741e-005,
          -4.93799234e-005, 3.06152979e-005, 3.96796750e-005,
          -1.29347582e-005, -7.14249109e-005, -8.49478965e-005,
          -5.88277762e-005, 1.88774102e-005, 8.43713569e-005,
          -8.01676870e-005, 1.00092266e-005, 9.43791529e-005,
          -4.93799234e-005, -2.61865825e-005, -1.44838250e-005,
          -3.63806903e-005, -5.89182637e-005, -4.19652533e-005,
          -5.99977830e-005, -4.82416908e-005, 6.11310679e-005,
          -1.17625517e-004, 7.88177713e-005, 1.00434088e-004,
          -4.93799234e-005, -5.69180929e-006, 1.46841503e-005,
          3.34209108e-005, 5.18574670e-005, 9.96063754e-005,
          1.52920271e-004, 1.93271873e-004, 1.57414470e-004,
          -4.19072239e-005, 7.90214399e-005, 1.00434088e-004,
          -7.88889083e-005, -4.39992255e-005, 7.57696689e-005,
          3.34977885e-005, 1.01422647e-005, -3.92111215e-005,
          -3.02181052e-005, -1.09118182e-005, 6.33875170e-005,
          1.26002866e-004, 1.86502817e-004, 1.47428756e-004,
          -1.89813494e-004, -1.89813494e-004, -1.82044620e-004,
          -1.52598892e-004, -1.05178995e-004, -4.32078123e-005,
          -5.17243461e-006, 7.10141539e-005, 1.46997496e-004,
          1.02350685e-004, 1.34021349e-004, 1.93327593e-004,
          -2.38581706e-004, -1.81045514e-004, -2.62809663e-005,
          -1.69406589e-020, -1.69406589e-020, -1.69406589e-020,
          -1.69406589e-020, 7.10141539e-005, 1.46806255e-004,
          1.02350685e-004, 1.25318635e-004, 1.49814019e-004 ]
      - [ -1.35525272e-020, -1.38549331e-005, -3.87193468e-005,
          -1.04879509e-004, -2.31936749e-004, -2.61436653e-004,
          -2.66221643e-004, -1.70460218e-004, -2.87867733e-005,
          -8.87688584e-005, -2.57103093e-004, -2.05323464e-004,
          -2.17801673e-004, -2.37923974e-004, -1.28669810e-004,
          -1.18281845e-004, -2.65338836e-004, -2.88779353e-004,
          -2.88779353e-004, -1.77295893e-004, -2.87867733e-005,
          -8.72281526e-005, -2.14351225e-004, -1.02157464e-004,
          -2.30653110e-004, -1.13728187e-004, 6.39505233e-005,
          1.40612290e-004, 2.78598181e-005, -8.31148736e-006,
          3.24718530e-005, 8.51729346e-005, 1.99070812e-004,
          8.35849351e-005, 5.85529779e-005, 1.60028299e-004,
          -1.22039026e-004, -1.54282097e-005, 2.08870479e-004,
          2.78997875e-004, 1.70133324e-004, 1.29508189e-004,
          9.92955902e-005, 1.51503424e-004, 1.78762188e-004,
          -4.21938512e-006, 3.99760502e-005, 1.58081020e-004,
          -1.79373717e-004, -6.86031635e-005, 1.21097066e-004,
          1.22076075e-004, -5.06671495e-006, -3.88814442e-005,
          -2.39425081e-005, 9.43521081e-005, 1.88248829e-004,
          -2.49975164e-005, -7.87447862e-005, 2.23903135e-005,
          -2.53283564e-004, -1.95589440e-004, 3.48627909e-005,
          1.26404193e-004, -1.82602798e-005, -3.13220953e-005,
          -6.88831860e-005, -1.88153226e-005, 1.72810818e-004,
          -4.29470711e-005, 3.67229586e-005, 4.38037750e-005,
          -1.35937007e-004, -1.25133054e-004, -3.10288306e-005,
          6.35995457e-005, 4.40632029e-005, 7.93000218e-005,
          1.55318397e-004, 1.97690737e-004, 2.08534897e-004,
          4.50595217e-005, 1.47765313e-004, 1.48976556e-004,
          -1.02367761e-004, -5.13086125e-005, 1.48791994e-004,
          1.65119331e-004, 7.07951331e-005, 2.64119740e-006,
          4.51638880e-006, 5.67071402e-005, 1.41538490e-004,
          1.52592562e-004, 4.36907139e-005, 2.34550953e-005,
          -2.24586474e-004, -1.75526671e-004, -4.47999337e-005,
          5.36717671e-005, -7.33539055e-005, -6.18473787e-005,
          -8.20281002e-006, 8.93278193e-005, 2.29405443e-004,
          1.66159924e-004, 6.36038794e-006, -1.35525272e-020,
          -2.88779353e-004, -1.61823831e-004, 1.57885210e-004,
          2.69667304e-004, 5.96519130e-005, -1.35525272e-020,
          -1.35525272e-020, 3.86252168e-006, 5.33880811e-005,
          3.82688377e-005, -1.35525272e-020, -1.35525272e-020 ]
      - [ 8.13151629e-020, -3.46103516e-005, -1.06110550e-004,
          -1.69653402e-004, -1.84988559e-004, -1.03463179e-004,
          -5.20120157e-005, -9.95634473e-005, -1.73471359e-004,
          -2.25670286e-004, -2.47895048e-004, -2.14146974e-004,
          -2.28485675e-004, -2.99770880e-004, -3.01601132e-004,
          -2.24074305e-004, -1.55524889e-004, -1.25164224e-004,
          -2.29255937e-004, -2.42398266e-004, -1.17748408e-004,
          -1.82765478e-004, -1.66973259e-004, -1.20294811e-004,
          -3.01601132e-004, -2.25784519e-004, -1.31708119e-004,
          -7.16911163e-005, -4.04944549e-005, 3.03714005e-005,
          7.04547858e-007, 1.31396126e-004, 1.36337709e-004,
          -7.98254623e-005, -6.71128146e-005, -1.05240915e-005,
          -3.01601132e-004, -1.75776033e-004, 5.13907798e-005,
          1.16536110e-004, 2.01810952e-004, 2.11412465e-004,
          1.75062451e-004, 6.01193060e-005, -4.67009304e-005,
          -2.46213167e-004, -1.24784885e-004, -1.83027680e-006,
          -2.39691348e-004, -6.65435437e-005, 6.05577334e-005,
          8.71468728e-005, 6.45207183e-005, 5.32343547e-005,
          8.78491846e-005, -1.36411954e-005, -1.01580890e-005,
          -1.61590360e-004, -7.08105799e-005, 1.02842996e-005,
          -6.80220255e-005, -1.81464402e-005, -3.51708331e-005,
          8.94476671e-006, 8.35482715e-005, 8.45403047e-005,
          5.26046642e-005, 5.78871841e-005, 6.32346491e-005,
          -1.05461077e-004, 1.11425390e-004, 1.37938492e-004,
          -1.26126630e-004, -1.22976911e-004, -1.44263759e-004,
          -6.11299183e-005, -2.52139034e-005, -8.74617908e-005,
          -1.70259245e-005, 1.24578684e-004, 3.95919196e-005,
          -1.84823235e-004, 9.08128641e-005, 2.09036050e-004,
          -2.91034288e-004, -2.10470709e-004, -1.55871276e-005,
          1.41180317e-005, -4.48172104e-005, -8.04559313e-005,
          -8.35749306e-005, -1.22275087e-004, 5.23019080e-005,
          4.32470370e-005, 1.04393548e-004, 4.85632481e-005,
          -2.95126549e-004, -2.52615311e-004, -1.79183364e-004,
          -2.09101472e-005, 4.62659627e-005, 9.17636498e-005,
          6.43049061e-005, 4.58081777e-005, 1.46931707e-004,
          5.18323504e-005, 8.13151629e-020, 8.13151629e-020,
          -2.96864047e-004, -1.67119564e-004, 8.32554724e-005,
          1.48555904e-004, 1.48942388e-004, 1.87207610e-004,
          1.24478334e-004, 1.43289813e-004, 6.28288399e-005,
          8.19029992e-006, 8.13151629e-020, 8.13151629e-020 ]
      - [ -2.71050543e-020, 2.68889398e-005, 7.46587102e-005,
          8.74462276e-005, 8.02686554e-006, -7.91178027e-005,
          -2.06098892e-004, -2.56719941e-004, -1.31440756e-004,
          -2.96957605e-005, -1.55787382e-006, -2.71050543e-020,
          -1.55787382e-006, -5.99781415e-005, -1.53116038e-004,
          -3.05700698e-004, -1.58915849e-004, 8.16315078e-005,
          1.79793176e-004, 1.04786530e-004, -7.59388931e-005,
          -8.44870956e-005, -3.04925629e-006, 7.16705972e-006,
          -4.82940886e-005, -1.17477153e-004, -2.86186405e-004,
          -2.61171517e-004, -9.09468799e-005, 2.08864090e-004,
          1.87415411e-004, 1.61231888e-004, 1.27966443e-004,
          1.02172926e-004, 1.72494067e-004, 9.62397753e-005,
          -1.45105019e-004, -1.39764583e-004, -1.32606787e-004,
          9.56629538e-006, 1.33648355e-004, 3.15078214e-004,
          2.03725183e-004, 1.61231888e-004, 1.37439478e-004,
          3.38249483e-005, -6.96949792e-005, -6.03466178e-005,
          -1.72397602e-004, -4.64179866e-005, 2.12861250e-005,
          1.34765214e-004, 1.61231888e-004, 1.61231888e-004,
          1.09175453e-004, 3.35911755e-005, -1.06812957e-004,
          -2.69485667e-004, -3.50262271e-004, -3.27812188e-004,
          -2.19631373e-004, -2.56207481e-004, -1.38094576e-004,
          5.35874824e-005, 1.46491104e-004, 1.71777967e-004,
          4.23675156e-005, -1.16540381e-004, -1.66211306e-004,
          -2.43306902e-004, -3.50262271e-004, -2.96579587e-004,
          -5.92085999e-005, -8.81184242e-005, -7.94030420e-005,
          -2.13692529e-005, 3.16448459e-005, 2.32664112e-004,
          3.36082943e-004, 1.60690965e-004, -2.89931268e-006,
          -1.45205631e-004, -1.68191225e-004, -8.51501754e-005,
          3.38114100e-004, 2.85691262e-004, 1.07508764e-004,
          9.00585364e-005, 1.33748195e-004, 1.51136745e-004,
          1.90838036e-004, 3.07783848e-005, -7.55748988e-005,
          -4.45080732e-005, 8.94261029e-005, 9.95281735e-005,
          2.19797585e-004, 3.16762598e-004, 2.77288433e-004,
          4.00172285e-005, -9.33487172e-005, -1.57705290e-004,
          -1.58606577e-004, -2.41974369e-004, -2.95651320e-004,
          -1.26556100e-004, 4.61378113e-005, 9.16441877e-006,
          -3.88202643e-005, 7.52211927e-005, 8.39105996e-005,
          1.10904519e-004, -1.51200784e-005, -1.11085283e-004,
          -2.13595646e-004, -1.83148819e-004, -1.29562963e-004,
          -1.11627574e-004, -5.90036689e-005, -5.90036689e-005 ]
      - [ -1.01495636e-004, 7.75912267e-005, 1.37416719e-004,
          1.20877048e-004, -3.08484377e-005, -1.70797503e-004,
          -2.46189127e-004, -3.31257819e-004, -2.88350566e-004,
          -2.34159554e-004, -1.46822873e-004, -9.84337676e-005,
          3.01704655e-004, 2.06752986e-004, 4.78084075e-005,
          8.77731363e-005, 2.04794109e-004, 1.61145101e-004,
          -5.62479545e-005, -1.82753240e-004, -2.55015126e-004,
          -5.01114046e-005, 1.67624705e-004, 6.90485322e-005,
          1.21943107e-004, 1.65270685e-004, 6.33111122e-005,
          1.63481775e-004, 2.89943418e-004, 2.05688979e-004,
          1.88483813e-004, 1.19333272e-004, 1.66472630e-004,
          2.04773067e-004, 9.76514493e-005, -5.10599893e-005,
          -1.45738522e-004, -1.42845631e-004, -1.36963135e-004,
          -3.68996843e-005, 1.46682709e-004, 1.30351429e-004,
          9.21861429e-005, -2.84861253e-005, 1.72786953e-004,
          2.19226513e-005, -9.82593119e-005, -1.59401272e-004,
          -1.72955479e-004, -2.35505591e-004, -2.56095867e-004,
          -2.08254307e-004, -1.66127447e-005, -1.66127447e-005,
          5.25549149e-005, 2.05952645e-004, 1.28253072e-004,
          -9.02093670e-005, -1.61292293e-004, -1.72955479e-004,
          -1.70916464e-004, -2.35505591e-004, -2.56095867e-004,
          -2.26341086e-004, -5.20326867e-005, -1.59330721e-005,
          2.42767885e-004, 2.30756254e-004, -5.27872471e-005,
          -2.08563011e-004, -1.92403138e-004, -1.70916464e-004,
          -1.34883929e-004, -1.67774444e-004, -2.82850000e-004,
          -2.31070793e-004, -8.13766310e-005, 1.71786043e-004,
          2.17200330e-004, 1.17245123e-004, -8.92894677e-005,
          -3.08210118e-004, -1.81928510e-004, -1.34883929e-004,
          -2.57505690e-005, -1.43411788e-004, -2.31934027e-004,
          -2.50933779e-004, -1.46112670e-005, 2.40735579e-004,
          1.80933916e-004, 1.67398448e-005, -2.38747816e-004,
          -3.25294764e-004, -1.43411788e-004, -2.57505690e-005,
          -1.08420217e-019, -3.67865250e-005, -1.30324624e-004,
          -6.18439080e-005, -7.94517327e-005, -1.90310311e-005,
