%YAML:1.0
my_svm: !!opencv-ml-svm
   svm_type: C_SVC
   kernel: { type:LINEAR }
   C: 1.
   term_criteria: { epsilon:2.2204460492503131e-016, iterations:300 }
   var_all: 120
   var_count: 120
   class_count: 12
   class_labels: !!opencv-matrix
      rows: 1
      cols: 12
      dt: i
      data: [ 0, 1, 2, 4, 5, 6, 7, 8, 10, 11, 12, 13 ]
   sv_total: 66
   support_vectors:
      - [ -8.50550787e-005, -2.84418231e-004, -7.44639081e-004,
          6.06423477e-004, -1.03568513e-004, -6.58153440e-004,
          -2.41434062e-003, -6.80962671e-003, -5.35035413e-003,
          -1.01613731e-003, -5.14691637e-004, -1.18792530e-004,
          1.29106862e-003, 1.89149883e-004, 3.46821151e-004,
          -1.76055793e-004, -1.48484251e-003, -5.35387022e-004,
          -1.66373432e-003, -3.21155647e-003, -6.80204248e-004,
          2.21027248e-003, 1.32961618e-003, 1.87053531e-003,
          -1.78823830e-003, -1.64887612e-003, -9.86026484e-004,
          -3.50832893e-003, -3.77931749e-003, 1.76498713e-003,
          2.72837188e-003, 3.40870675e-003, 2.03724345e-003,
          -1.45363983e-005, -1.05149089e-003, -1.00361509e-003,
          1.48353502e-004, -1.49094485e-004, -1.65840538e-004,
          1.14762595e-004, -1.23408958e-004, 5.88779920e-004,
          1.83679425e-004, 1.05302988e-005, 3.54292599e-004,
          2.03925447e-005, 2.33754108e-004, 1.59644551e-004,
          -1.78855364e-004, -8.62430534e-005, -3.95129144e-004,
          1.88693171e-004, -5.73109901e-006, -5.73109901e-006,
          -5.73109901e-006, -5.73109901e-006, 1.37895549e-004,
          -2.43194605e-004, -9.34547570e-005, -1.67564314e-004,
          -1.73124266e-004, -2.55579857e-006, -4.24856815e-004,
          1.65573860e-004, 1.04083409e-017, 1.04083409e-017,
          1.04083409e-017, 1.04083409e-017, 1.43626647e-004,
          -2.37463508e-004, -8.77236525e-005, -1.61833217e-004,
          4.31168330e-004, 1.71763677e-004, -2.27427707e-004,
          7.71340448e-004, 1.07637001e-003, 1.14762814e-004,
          -6.55969430e-004, -1.82623364e-004, -2.27807068e-005,
          -2.29477620e-004, 4.74860281e-005, 1.24862654e-005,
          -8.00167094e-004, -3.16336052e-004, -4.55314905e-004,
          5.80489519e-004, 1.71602436e-003, 2.97344849e-003,
          1.28124340e-003, -1.59747573e-003, -2.37071328e-003,
          -8.27697921e-004, -9.18253092e-004, -7.58493785e-004,
          9.89139546e-004, 3.63752100e-004, 1.55150169e-003,
          5.82312292e-004, -2.70060473e-003, -2.17456697e-003,
          -1.62028347e-003, -1.39532448e-003, -1.06930372e-003,
          2.70804121e-005, -5.99065621e-004, 1.20085482e-004,
          -2.06594661e-004, -1.65479389e-004, -6.78101089e-004,
          -5.74410940e-003, -6.35169307e-003, -2.79441848e-003,
          2.78921012e-004, 1.61053299e-003, 1.94602273e-003,
          -9.68861103e-004, -4.61893651e-005, -8.67035560e-005 ]
      - [ 4.88283258e-005, -7.68962316e-004, -1.66192616e-003,
          3.38178332e-004, 1.63634669e-003, -2.69116880e-003,
          -1.52381108e-006, 1.06002530e-003, 9.60128440e-004,
          -2.83178852e-005, -2.81313690e-003, 4.71792300e-004,
          2.28097502e-004, 7.91606959e-004, 1.32059946e-003,
          9.02863569e-004, 8.90541647e-004, 8.90541647e-004,
          9.11345414e-004, 1.08855206e-003, 9.81728779e-004,
          8.76997190e-004, 3.06897261e-003, 2.72174436e-003,
          1.29930515e-004, 3.48079694e-003, -2.00585858e-003,
          3.45701538e-003, 2.26136553e-003, -2.06770841e-003,
          1.15293404e-003, 8.60450696e-003, 3.47057264e-003,
          9.12174699e-004, -8.63364665e-004, -1.45538477e-003,
          -3.90122557e-004, -5.88379102e-004, -2.65862735e-004,
          -8.66078597e-004, -1.20217085e-003, -1.15422078e-003,
          1.13409551e-005, 1.20672747e-004, 2.92524626e-003,
          1.01484149e-003, 2.85944063e-003, -3.51781142e-004,
          -1.96139372e-004, -4.64088458e-004, -2.05459772e-004,
          -1.18362244e-004, -2.34356237e-004, -2.34356237e-004,
          -2.13552441e-004, 1.16422202e-003, 1.43682456e-003,
          -8.88912473e-005, 2.61344225e-003, 3.81680555e-004,
          -7.10661465e-004, -1.03142846e-003, -1.59076764e-004,
          -5.62235480e-004, -7.48878345e-004, -7.06477731e-004,
          4.80494084e-004, 2.25847308e-003, 1.23937707e-003,
          4.46032587e-004, 2.27953074e-004, -5.22404560e-004,
          3.82168691e-005, -2.77313695e-004, 1.05261834e-005,
          1.35986938e-003, 2.85373721e-003, 3.28676403e-003,
          -2.59954890e-004, 1.18921977e-003, 5.05316909e-003,
          1.41673803e-003, -1.66686004e-004, -4.94542241e-004,
          2.81442102e-004, -5.01669338e-003, -1.27338315e-003,
          -4.52927547e-003, -2.05178233e-003, 3.43939209e-005,
          5.25724795e-003, 2.13853386e-003, -1.02973753e-003,
          -1.16773823e-003, -5.78525476e-004, -4.32545232e-004,
          7.81684415e-004, 9.88625572e-004, 5.31645259e-003,
          8.04258510e-003, 5.88021893e-003, 2.30290391e-003,
          -9.04737157e-004, -9.71961766e-004, -1.07802788e-003,
          -7.46941136e-004, -3.31514457e-004, 4.11996826e-017,
          -7.08703592e-005, 5.68185281e-003, 2.53656972e-003,
          -8.07425473e-004, -9.24674387e-004, -9.88278305e-004,
          -1.08752248e-003, -1.17397506e-003, -8.29970581e-004,
          -4.22041659e-004, -4.11963061e-004, -3.65003536e-004 ]
      - [ -5.33655748e-006, 2.98679952e-005, 4.50053085e-005,
          9.32408784e-006, -1.41065015e-004, -1.76005851e-004,
          1.32967165e-004, 1.74510584e-004, -8.68044954e-005,
          -3.15078156e-004, -6.57004784e-005, 1.10245037e-005,
          2.58262735e-004, 2.02914394e-004, -3.84802552e-005,
          -8.11964564e-005, -8.23839218e-005, -8.23839218e-005,
          2.73819605e-004, 5.05491276e-004, 1.60731273e-004,
          -2.65542330e-004, -2.95864538e-005, -7.44607896e-005,
          6.33049494e-005, -1.21874560e-004, -2.03729462e-004,
          -1.53297675e-004, -1.54133522e-004, -1.82682794e-004,
          1.08293338e-004, 2.04928525e-004, 1.20918477e-004,
          4.48877108e-004, -2.89596006e-004, -4.04484395e-004,
          1.83906057e-004, -5.10562459e-005, -3.64751759e-004,
          -1.09048226e-004, -9.98772448e-005, -9.90413901e-005,
          2.57748441e-004, 4.46000631e-004, 4.54441324e-004,
          5.48444688e-004, 4.73561668e-004, -4.98523841e-005,
          1.27627034e-004, 2.43589966e-005, -1.02528138e-004,
          1.87764541e-004, 2.98171100e-004, 4.27771185e-004,
          7.65474397e-004, 7.70451443e-004, 2.59205961e-004,
          7.08022795e-004, 3.50626186e-004, 9.84560611e-005,
          1.12093890e-004, 3.10091011e-004, 4.51256288e-004,
          5.55851846e-004, 2.29934245e-004, 2.47341086e-005,
          4.81237395e-004, 8.91507720e-004, 2.68333795e-004,
          4.80332179e-004, 2.37806471e-005, 1.15470932e-004,
          2.06159864e-004, 3.94925912e-004, 3.23408574e-004,
          5.51892386e-004, 4.69515711e-004, 2.60687346e-004,
          3.12920514e-004, -8.71541051e-005, -2.46225187e-004,
          7.72279454e-004, 5.07386809e-004, 2.86257215e-004,
          1.40951597e-004, 1.69134248e-004, -9.99302720e-005,
          -5.30315738e-005, -1.74461762e-004, -1.73612993e-004,
          -1.11618632e-004, 1.65058242e-004, 4.69183942e-005,
          -2.87881820e-004, -1.44303849e-004, 3.18678736e-004,
          1.69720137e-004, 3.21599655e-004, 4.65708436e-004,
          6.90571906e-004, 5.45252871e-004, 3.68365610e-004,
          1.33431909e-004, -3.04993911e-004, -4.93726053e-004,
          -3.49314651e-004, -1.28277243e-004, 4.49465559e-004,
          4.43742523e-004, 2.94713565e-004, -4.76843416e-005,
          1.05985440e-004, 1.88728779e-006, -1.22302299e-004,
          -3.08688352e-004, -4.11169138e-004, -2.37557295e-004,
          -9.36084398e-005, 1.41769706e-004, 5.65262199e-005 ]
      - [ -3.45385779e-005, -4.60943556e-005, 7.98841065e-005,
          1.97833913e-004, 4.30721935e-004, 1.97730027e-004,
          1.05114887e-004, 2.84296373e-004, -1.38094721e-004,
          -7.17444753e-004, -4.74924513e-004, -3.19410989e-004,
          -1.08426029e-004, 1.54318783e-004, 1.31040419e-004,
          4.46146150e-004, -2.61687237e-004, -5.82737965e-004,
          -5.45195362e-004, -4.27897787e-004, 4.24937491e-004,
          -3.66739660e-005, -1.22227328e-004, -3.26361187e-004,
          -1.07619744e-005, 2.15551379e-004, 4.06584732e-004,
          3.18460283e-004, -3.10963602e-004, -4.00765421e-004,
          -3.03167209e-004, -2.28372635e-004, 8.32463193e-005,
          3.78681376e-004, 6.21358777e-005, -1.82928226e-004,
          4.64847632e-004, 3.38763377e-004, 4.50499443e-004,
          3.58732796e-004, -4.18179552e-005, -1.09667148e-004,
          -4.93086845e-005, -3.89614297e-006, 8.97560021e-005,
          3.77009681e-004, 4.31627821e-004, 3.10554577e-004,
          5.48215525e-004, 4.37742914e-004, 3.50489747e-004,
          2.80553912e-004, 5.62729520e-006, 5.62729520e-006,
          5.62729520e-006, 5.62729520e-006, 2.41213365e-005,
          3.06012400e-004, 4.78258706e-004, 3.93922499e-004,
          5.11371240e-004, 3.77593300e-004, 3.88456974e-004,
          3.03478329e-004, 1.53677447e-005, -1.27833873e-005,
          -2.36731084e-005, -5.29265890e-006, 3.55180709e-005,
          3.11954325e-004, 4.57749004e-004, 3.57078214e-004,
          4.48313600e-004, 4.26773593e-004, 4.82186588e-004,
          4.99304966e-004, -9.18398928e-006, -1.34455782e-004,
          -2.17595763e-004, -1.57012924e-004, 1.18963893e-004,
          5.50325378e-004, 4.50854423e-004, 2.94020545e-004,
          -1.11232575e-005, 2.42678390e-004, 2.27560435e-004,
          5.69541065e-004, -1.37244322e-004, -2.93548947e-004,
          -3.60826874e-004, -2.94014462e-004, 3.17593076e-004,
          5.14570624e-004, 2.31092272e-004, -1.07954962e-004,
          -2.21853683e-004, -2.61708337e-004, -3.15652636e-004,
          4.82466596e-004, 1.03334241e-004, -4.28637431e-004,
          -5.21850248e-004, -1.10913476e-004, 3.99360200e-004,
          2.26998309e-004, -8.76790800e-005, -1.21660261e-004,
          2.19088048e-004, -1.22076861e-004, -2.34469931e-004,
          8.43879752e-005, -1.08629756e-005, 1.47246783e-005,
          4.63220167e-005, 8.12762955e-005, 3.70335561e-004,
          6.15281751e-004, 3.73547198e-004, 4.32490109e-004 ]
      - [ -2.06260120e-005, -7.74310411e-006, 1.04710765e-004,
          1.90193998e-004, 1.41794444e-004, -1.67152066e-005,
          -1.75089677e-004, -2.41890899e-004, -2.35045343e-004,
          -2.78617110e-004, -1.13863032e-004, -1.23947902e-004,
          -9.11495317e-006, -7.56695954e-005, -1.61577569e-004,
          -2.33932573e-004, -1.62806784e-004, 7.22197074e-005,
          1.86617646e-004, 9.73094066e-005, -3.16054502e-005,
          -2.50839599e-004, -1.27375417e-004, -1.88559221e-004,
          -1.49115382e-004, -1.62385069e-004, -2.36236621e-004,
          -2.22941031e-004, -8.33639497e-005, 6.51766895e-005,
          2.05304852e-004, 2.05304852e-004, 2.12683997e-004,
          1.73159380e-004, 1.61183343e-004, -6.36813857e-005,
          -1.04354745e-004, -5.14899621e-005, -5.65336413e-005,
          1.29380234e-004, 2.11571212e-004, 2.66833813e-004,
          2.74852646e-004, 2.95230711e-004, 2.87342031e-004,
          1.68155690e-004, 1.30749584e-004, -2.01187795e-005,
          -3.44475751e-007, 2.34650433e-004, 2.50912970e-004,
          3.87884560e-004, 4.21210163e-004, 4.16707189e-004,
          3.28563590e-004, 1.77740265e-004, 7.09632150e-005,
          -5.85786074e-005, -2.71946556e-005, -9.19586601e-005,
          -8.93312244e-005, -3.36490302e-006, 7.92468418e-005,
          3.43378400e-004, 4.18322859e-004, 4.02100559e-004,
          1.79132738e-004, 5.77537830e-005, 3.74247138e-005,
          -6.21360377e-005, -5.02429539e-005, -1.10906563e-004,
          -2.99545518e-005, 8.42804438e-005, 5.46957672e-005,
          1.83909506e-004, 2.14707907e-004, 2.89393123e-004,
          2.98304833e-004, 1.52539316e-004, 5.49586184e-005,
          -2.69247048e-005, -1.42883064e-005, -7.55797591e-005,
          2.65698385e-004, 2.87687639e-004, 1.93779517e-004,
          2.24054529e-004, 2.03140240e-004, 1.31589157e-004,
          9.17372381e-005, 5.99625637e-005, 6.34728058e-005,
          4.86231911e-005, 3.74730844e-005, -2.68714830e-005,
          -9.15460362e-007, 1.66829137e-004, 1.33007663e-004,
          1.60468495e-004, -1.33575040e-005, -1.44289996e-004,
          -2.01116985e-004, -1.94146312e-004, -1.76150847e-004,
          -1.11227972e-004, -2.28929075e-005, 5.82476332e-006,
          -1.17585638e-004, -3.19187166e-005, -3.93834489e-005,
          -1.45080030e-005, -1.18330054e-005, 2.07109515e-005,
          -7.63205026e-005, -7.72694038e-005, -4.95548047e-005,
          -5.31106662e-006, -1.08420217e-019, -1.08420217e-019 ]
      - [ 6.41320366e-005, 4.05956584e-004, 4.61899006e-004,
          4.09579021e-004, 1.18764503e-004, -1.26950210e-004,
          -2.61846290e-004, -4.34392772e-004, -3.88569868e-004,
          -3.98438046e-004, -2.41981208e-004, -1.22336467e-004,
          4.68232291e-004, 3.34350218e-004, 2.90104741e-004,
          2.45311327e-004, 2.33414074e-004, -1.65699894e-005,
          -2.48167227e-004, -4.25311882e-004, -3.74273921e-004,
          -2.91225006e-004, 1.19053853e-004, 9.96828749e-005,
          4.05756837e-005, 1.25339167e-004, 2.12343715e-004,
          2.38775305e-004, 2.34675143e-004, -1.39421954e-005,
          -6.27081899e-005, 1.88707861e-006, 1.83239477e-004,
          2.81008455e-004, 3.23181914e-004, -3.84950654e-005,
          -2.14350497e-004, -2.33498922e-005, 1.95562970e-005,
          1.02808714e-004, 8.23219380e-005, 2.74095237e-005,
          -3.86142565e-005, 6.32766241e-005, 5.08196012e-004,
          3.30924144e-004, 5.37305568e-005, -1.77673774e-005,
          -2.31720900e-004, -1.18670047e-004, -1.35364273e-004,
          -1.77673774e-005, -1.77673774e-005, -1.77673774e-005,
          -4.67920745e-006, 2.61738373e-004, 5.84679423e-004,
          1.19610035e-004, -8.36300533e-005, -1.77673774e-005,
          -2.13953521e-004, -1.08875211e-004, -1.30125176e-004,
          -5.42101086e-020, -5.42101086e-020, -5.42101086e-020,
          2.44339666e-004, 5.22641581e-004, 2.98006576e-004,
          -6.52556773e-005, -6.58626741e-005, -5.42101086e-020,
          -2.22212606e-004, -1.17134288e-004, -1.38384261e-004,
          -1.01507394e-005, -4.40906806e-005, 5.21692855e-005,
          3.02594184e-004, 2.27911180e-004, 1.32030036e-004,
          -1.52536566e-004, -7.12826950e-005, -8.25907864e-006,
          -2.35077066e-004, -1.33466805e-004, -1.72865068e-004,
          -1.21155957e-004, -4.98066674e-006, 2.78003223e-004,
          1.83538607e-004, 4.01498437e-005, -1.66306520e-004,
          -1.61631819e-004, -8.35181781e-005, -2.45915926e-005,
          -2.58873479e-004, -1.57859409e-004, -2.85593036e-004,
          -4.52155218e-005, 6.38944257e-005, 1.39861268e-005,
          1.02922306e-004, -1.55989346e-005, -2.19595589e-004,
          -1.51479093e-004, -8.35894971e-005, -4.87032667e-005,
          -2.41535716e-004, -1.37105701e-004, -2.51109537e-004,
          8.66724004e-005, -1.62126147e-004, -3.79745507e-005,
          -2.29910365e-005, -1.71176682e-004, -1.11639441e-004,
          -5.57146741e-005, -3.01631517e-005, -2.75821894e-005 ]
      - [ -9.92710557e-006, -1.50241958e-005, 6.80794437e-006,
          1.37867508e-004, 1.23277554e-004, 3.24707886e-004,
          6.02316359e-005, -3.76942364e-004, -8.19147157e-004,
          -6.39395206e-004, 1.55566115e-004, 3.93581780e-004,
          -7.49689934e-005, -2.00191484e-004, -6.17354352e-004,
          -4.04581835e-004, -1.80905161e-004, 2.27940152e-004,
          2.30783146e-004, 1.09798115e-004, -9.68584845e-006,
          2.50139536e-004, 4.76596382e-004, -1.84083197e-004,
          -2.89320305e-004, -1.84708886e-004, -3.38186568e-004,
          -1.37135736e-004, -3.43922991e-004, -4.46433463e-004,
          -4.41649114e-004, -3.84623389e-004, 3.94551062e-005,
          2.58078537e-004, -7.02593024e-005, -1.87030964e-004,
          -2.77449202e-004, 2.47184973e-004, 1.67787817e-004,
          3.53881391e-004, 2.56891042e-004, -7.17588118e-005,
          1.40743170e-004, 3.29896866e-004, 2.22000206e-004,
          2.32593418e-004, -9.98748583e-005, -3.35284276e-005,
          7.01154568e-005, 2.91912205e-004, 2.00424678e-004,
          4.78910864e-004, 2.86654307e-004, 5.00866212e-004,
          6.13807992e-004, 4.20361321e-004, 3.92403075e-004,
          -4.69643273e-005, -1.42815508e-004, -6.22465959e-005,
          -2.31308120e-004, -9.42299594e-005, -2.11560808e-004,
          1.49892847e-004, 6.03759661e-004, 6.30895200e-004,
          1.46344290e-004, 4.00399556e-004, 2.22346309e-004,
          -1.12294198e-004, -8.83990724e-005, -8.58631029e-006,
          -2.50946905e-004, -2.28978213e-004, -8.13268271e-005,
          4.43855388e-004, 2.99225096e-004, -3.74507545e-005,
          1.55780421e-004, 3.69154062e-004, -5.87757131e-006,
          -1.29131629e-004, -9.35759090e-005, -2.09724167e-005,
          -2.50293466e-004, -1.22100842e-004, 7.50157778e-005,
          8.83465909e-005, -7.48569873e-005, 1.06024263e-005,
          3.10745585e-004, -2.18347432e-005, -1.14460847e-004,
          -1.20524055e-004, -9.67958040e-005, -2.36549567e-005,
          -1.10029541e-004, 2.41607078e-004, -3.78193974e-004,
          -3.02339206e-004, -1.92281324e-004, 1.44217614e-004,
          -1.96766996e-005, -2.51539430e-004, -2.59009947e-004,
          -2.40232199e-004, -1.33438516e-004, -5.67581192e-005,
          3.14131117e-004, -1.32221103e-004, -5.26339863e-004,
          -3.16193735e-004, -2.26826160e-004, 3.64363405e-005,
          -2.26044765e-004, -2.06984725e-004, -1.44324702e-004,
          -8.67815470e-005, -1.50522355e-005, -6.37376661e-006 ]
      - [ 4.59801697e-004, 1.42497534e-004, -1.65853635e-004,
          -2.81225628e-004, -3.16287333e-004, -3.43966298e-004,
          -3.50870192e-004, -3.51608120e-004, -3.49687849e-004,
          -4.14391368e-004, -3.29612143e-004, -3.41607840e-004,
          2.13949024e-004, 1.00604433e-004, -6.88607834e-005,
          -1.79143346e-004, -1.79202179e-004, -1.79202179e-004,
          -1.79202179e-004, -1.79202179e-004, -1.34561385e-004,
          -1.45435712e-004, -6.27348782e-005, -1.61482225e-004,
          2.02141819e-004, 1.33736394e-004, 8.16535612e-005,
          -2.34633371e-005, -2.35221687e-005, -2.35221687e-005,
          -2.35221687e-005, -2.35221687e-005, -2.51993952e-005,
          -1.12600705e-004, -6.68176071e-005, -1.73289431e-004,
          2.10997227e-004, 1.42038334e-004, 8.16535612e-005,
          -4.83008944e-006, -2.95180166e-006, -2.95180166e-006,
          -2.95180166e-006, -2.95180166e-006, -4.62902699e-006,
          -1.00055542e-004, -5.79622065e-005, -1.64434023e-004,
          2.13949024e-004, 1.52051143e-004, 1.31911904e-004,
          8.02629293e-005, 8.25101888e-005, 8.25101888e-005,
          8.25101888e-005, 6.83160179e-005, 2.74382510e-005,
          -8.33709346e-005, -5.45240364e-005, -1.61482225e-004,
          2.13773252e-004, 2.38288616e-004, 2.42651397e-004,
          2.08590311e-004, 2.76004925e-004, 2.68213393e-004,
          4.05761617e-004, 5.47077332e-004, 5.43777132e-004,
          3.50889721e-004, 2.53335369e-004, -8.14889790e-005,
          2.09133679e-004, 1.29910783e-004, 4.85663186e-005,
          -8.66040064e-005, -1.07284250e-004, -1.30202068e-004,
          -1.51067361e-004, 1.05916755e-004, 4.59498056e-004,
          4.53493616e-004, 5.33138867e-004, 4.16123279e-004,
          1.88500431e-004, 2.53269773e-005, -1.35818089e-004,
          -2.85067275e-004, -1.94686407e-004, -1.22188343e-004,
          -1.61044736e-004, 2.33900224e-004, 3.69971705e-004,
          3.02704342e-004, 2.18451853e-004, 7.98260589e-006,
          3.63367799e-005, -6.67388376e-005, -1.55007365e-004,
          -8.74186153e-005, 8.09722987e-005, 1.76960457e-004,
          3.60720369e-005, 3.30960211e-005, -1.61110074e-004,
          -2.49545730e-004, -1.50424254e-004, -4.47681996e-005,
          1.19772470e-004, 1.41300843e-004, 9.37613004e-005,
          -1.01231868e-004, -2.49927514e-004, -3.23335582e-004,
          -3.13481985e-004, -2.01273375e-004, -1.55370362e-004,
          -8.07410543e-005, -5.92428478e-005, -5.90712116e-005 ]
      - [ 3.67207394e-004, 2.51478166e-004, 4.93561965e-005,
          -3.06757684e-005, -1.93023807e-004, -2.37270346e-004,
          -2.40165318e-004, -2.40165318e-004, -2.39248257e-004,
          -2.53653940e-004, -1.82387477e-004, -2.13207953e-004,
          2.83527479e-004, 1.66178739e-004, -3.20810868e-005,
          -8.91624513e-005, -1.81609328e-004, -1.81609328e-004,
          -1.81609328e-004, -1.80442148e-004, -1.59958610e-004,
          -1.54492955e-004, -1.53158981e-004, -2.39825575e-004,
          1.76419111e-004, 1.38006348e-004, 9.83588143e-006,
          -4.44584184e-005, -6.64551990e-005, -4.40136428e-005,
          -8.80096923e-006, 5.26698059e-005, 4.23929050e-005,
          -5.28306955e-005, -3.38755599e-005, -8.09607664e-005,
          1.59411866e-004, 1.91050101e-004, 2.20082846e-004,
          2.14141037e-004, 1.97159534e-004, 2.11362276e-004,
          1.97454370e-004, 2.02517520e-004, 2.11162842e-004,
          8.92298704e-005, 1.21637575e-004, 4.60936062e-005,
          1.68999395e-004, 2.26928838e-004, 2.39549307e-004,
          1.74782035e-004, 1.23984661e-004, 8.68775751e-005,
          6.77915305e-005, 1.74763991e-004, 2.15745851e-004,
          7.67296660e-005, 1.74421904e-004, 1.37243405e-004,
          1.68999395e-004, 1.77369802e-004, 1.17310723e-004,
          5.44423274e-005, 2.83758254e-005, 5.14311832e-005,
          8.43486123e-005, 1.54725072e-004, 2.24621646e-004,
          1.23848775e-004, 2.06780809e-004, 1.37243405e-004,
          1.66257116e-004, 2.14574771e-004, 2.72167148e-004,
          2.41061454e-004, 2.10992759e-004, 2.16941873e-004,
          1.99548638e-004, 1.94690903e-004, 2.14818312e-004,
          1.18351927e-004, 1.52905835e-004, 1.24899409e-004,
          7.17745061e-005, 6.76813725e-005, 9.64413994e-005,
          6.26520778e-005, 2.32924613e-005, -1.44292499e-005,
          -3.07085429e-005, 7.07087675e-005, 1.06334461e-004,
          4.79089431e-005, 1.50022592e-004, 1.99240545e-004,
          -2.66025483e-004, -2.26842414e-004, -1.11883281e-004,
          -1.45317375e-004, -1.79968978e-004, -1.80771371e-004,
          -1.81500815e-004, -6.09035524e-005, 1.85069912e-005,
          -2.20459024e-005, 1.04408442e-004, 3.05534399e-004,
          -2.50384765e-004, -2.39227273e-004, -1.93782253e-004,
          -1.92395572e-004, -1.93914821e-004, -1.90455015e-004,
          -1.73906781e-004, 1.88492777e-005, 1.27548876e-004,
          1.08664361e-004, 1.98330104e-004, 2.77182960e-004 ]
      - [ -1.37921470e-005, -1.53597193e-005, 1.37337192e-004,
          -2.51285892e-005, -2.10504266e-004, -2.89718097e-004,
          -3.06649279e-004, -1.65763093e-004, 1.62859651e-004,
          -1.39387150e-004, -1.12605514e-004, -1.39942305e-004,
          -6.47137931e-005, -1.39175550e-004, 4.50114057e-005,
          -1.58464376e-004, -2.79381959e-004, -3.14171601e-004,
          -3.14171601e-004, -1.60472089e-004, 1.78137998e-004,
          -1.59733361e-004, -2.25293261e-004, -2.70068733e-004,
          -1.09337889e-004, -1.34730391e-004, 7.35134017e-005,
          1.30231361e-004, -6.64505642e-005, -1.51943066e-004,
          -8.10549391e-005, 4.13100861e-005, 3.26065143e-004,
          7.49908359e-005, 4.01887337e-005, 3.91705034e-005,
          1.24267593e-004, 1.22921992e-004, 1.34608286e-004,
          3.75518110e-004, 2.95532751e-004, 2.21236784e-004,
          2.23421332e-004, 2.65915209e-004, 3.70897935e-004,
          2.30799604e-004, 2.62923917e-004, 2.11923834e-004,
          1.69732535e-004, 1.55659363e-004, 3.21598171e-004,
          3.03432258e-004, 2.23596406e-004, 1.60498268e-004,
          1.24545782e-004, 2.60850589e-004, 4.57499002e-004,
          8.45059039e-005, 2.10309026e-005, -7.50047693e-005,
          -7.23125049e-005, -5.21808142e-005, 2.12664963e-004,
          3.07322305e-004, 9.17806101e-005, -1.04371220e-005,
          3.16305091e-007, 1.40299278e-004, 4.55728616e-004,
          1.20184253e-004, 4.29088177e-005, -1.53153032e-005,
          1.22746264e-004, 1.20063400e-004, 1.59208736e-004,
          4.30983549e-004, 3.24993860e-004, 2.51526828e-004,
          2.85922782e-004, 2.86763214e-004, 3.65742657e-004,
          3.22688516e-004, 3.54765245e-004, 3.35817720e-004,
          2.49190984e-004, 2.02000447e-004, 1.63935634e-004,
          1.16758558e-004, 5.04430536e-005, -1.85883728e-005,
          -7.33593406e-005, 4.21052755e-005, 2.07600693e-004,
          -5.37285996e-005, -9.00111263e-005, -9.73900678e-005,
          -1.20846402e-004, -1.27206484e-004, -3.02636545e-006,
          3.77247634e-005, -1.74340428e-004, -2.89957679e-004,
          -2.89984222e-004, -1.45199156e-004, 1.79114504e-004,
          1.43520165e-005, -1.03432729e-004, -3.77172073e-005,
          -1.99265647e-004, -2.47773773e-004, -5.98489860e-005,
          4.76258792e-005, -1.82179327e-004, -2.86117778e-004,
          -2.68173113e-004, -1.31920096e-004, 6.78154975e-005,
          1.05669105e-005, -6.15176250e-005, -5.44186005e-005 ]
      - [ -5.13630175e-006, -8.58303065e-006, -1.80327334e-005,
          -1.07168249e-004, -1.32480680e-004, 1.60245487e-004,
          2.43179122e-004, 6.58381468e-005, -1.23548787e-004,
          -3.05195455e-004, -1.53241737e-004, -1.29691878e-004,
          -3.95100651e-005, -1.20067998e-004, -3.85178369e-004,
          -2.62238405e-004, 2.83490335e-005, 1.70384210e-005,
          -3.70750320e-004, -3.16450751e-004, 1.70862200e-004,
          -3.11882672e-004, -1.50664418e-004, -2.29107580e-004,
          -3.04393499e-004, -3.30831623e-004, -4.79806971e-004,
          -3.09055322e-004, -1.45755053e-004, -1.51816475e-005,
          -7.47374215e-005, 2.72203411e-004, 1.65293837e-004,
          -2.66108662e-004, -3.14292236e-004, -3.44344357e-004,
          -1.97407266e-004, -1.66877973e-004, -2.52635451e-004,
          2.12810977e-004, 5.63037000e-004, 5.88822528e-004,
          5.32806211e-004, 1.02065664e-004, -5.97237376e-005,
          -1.43350262e-004, -1.49642568e-004, -1.51025975e-004,
          7.34357163e-005, 4.12924681e-004, 3.14742385e-004,
          6.46955392e-004, 5.71261451e-004, 5.47976117e-004,
          5.60229993e-004, 2.30810896e-004, 2.44516879e-004,
          1.73637251e-004, 1.10683584e-004, -5.31865589e-005,
          3.73363087e-004, 5.57441672e-004, 2.24835239e-005,
          2.64810893e-004, 2.92972050e-004, 2.85444316e-004,
          3.32941127e-004, 4.62835393e-004, 2.47158343e-004,
          1.92763808e-004, 2.12280138e-004, 1.77784488e-004,
          2.62754300e-004, 2.37167827e-004, -1.84046250e-004,
          3.30117356e-004, 3.72670562e-004, 1.03839178e-004,
          9.15144119e-005, 3.31255636e-004, 1.46684513e-004,
          -6.28077078e-006, 3.01375258e-004, 4.12384892e-004,
          -1.32549161e-004, -2.30068326e-006, -1.89492028e-004,
          6.84159968e-005, 6.59145953e-005, 9.57387747e-005,
          -9.56753065e-005, -1.20890043e-004, 3.35046789e-004,
          -7.56079899e-005, 7.09085361e-005, 1.90180508e-005,
          -3.04277142e-004, -1.87583399e-004, -2.67924828e-004,
          1.50505177e-004, 1.24052240e-004, 1.37523939e-005,
          -2.53172708e-004, -2.91224424e-004, -6.42063460e-005,
          -3.16247315e-004, -2.72146252e-004, -6.88014698e-005,
          -1.82677861e-004, -4.79129158e-005, -2.44213123e-004,
          -7.77458845e-005, -9.54760908e-005, 6.40629441e-005,
          -8.99079096e-005, 7.85955053e-005, -1.28246713e-004,
          -1.23317091e-004, -2.67588584e-005, -1.20630475e-005 ]
      - [ 4.43845264e-019, -3.41890518e-005, -1.79383263e-004,
          -2.66389863e-004, -1.14983195e-004, -1.98375448e-004,
          2.11798702e-004, 7.95173924e-004, 5.31602418e-004,
          -1.71838066e-004, 7.61838019e-005, 6.25248649e-005,
          -2.86657480e-004, -7.08203297e-005, -3.12789598e-005,
          2.62196816e-004, 4.71922773e-004, 3.27709568e-004,
          5.60642453e-004, 1.14331557e-003, 6.76330645e-004,
          -6.45384484e-004, -3.26650625e-004, -5.61006716e-004,
          3.08000919e-004, -4.58213872e-005, 3.26315640e-005,
          4.34200163e-004, 3.51682538e-004, -5.69924341e-005,
          -4.01639081e-005, 1.94451728e-004, 5.28238830e-004,
          -8.88483628e-005, -8.93746255e-005, -2.50968209e-004,
          8.30855279e-005, -2.98384693e-004, -2.96237558e-004,
          -1.38228323e-004, -2.82800000e-004, -2.98457919e-004,
          9.24219567e-005, 2.35321626e-004, 7.76940200e-004,
          -1.28568703e-004, 3.88860877e-004, -1.56333277e-004,
          8.30855279e-005, -3.03318404e-004, -3.12700635e-004,
          -1.54691399e-004, -2.13535895e-004, -2.13535895e-004,
          -3.76716744e-005, 3.69356159e-004, 7.55016634e-004,
          -2.65823619e-004, 1.70685104e-004, 3.92406597e-004,
          2.96621438e-004, -1.84582575e-004, -2.51515245e-004,
          5.88445073e-005, 4.43845264e-019, 1.29466780e-005,
          4.65797551e-004, 1.24974840e-003, 7.82355200e-004,
          9.64074425e-005, 1.72901433e-004, 4.63696750e-004,
          2.96621438e-004, -1.84139382e-004, -2.55547377e-004,
          2.69851502e-004, 2.92774697e-004, 5.80008200e-004,
          7.56691035e-004, 6.64591382e-004, 1.01916494e-005,
          -5.01591770e-004, 1.55952133e-004, -8.51145669e-005,
          2.06420606e-004, -2.94340367e-004, -6.89214357e-005,
          1.01488491e-003, 7.52568536e-004, 6.74587965e-004,
          5.27927477e-004, 3.61461076e-004, -6.26359470e-005,
          -4.53312125e-004, -2.45005562e-004, -2.76511739e-004,
          6.40659418e-005, 1.88862381e-004, 4.57573391e-004,
          1.21701870e-003, 7.39773270e-004, 4.98490932e-004,
          2.77509127e-004, -2.66509567e-004, -5.60966553e-004,
          -5.21250011e-004, -4.89086728e-004, -3.22885229e-004,
          4.25656646e-004, 2.12097671e-004, 3.00598058e-005,
          4.43961122e-004, 1.98981186e-004, -1.39546464e-004,
          -3.79272387e-004, -4.56822658e-004, -2.76691630e-004,
          -8.49274365e-005, -5.57733983e-006, 4.43845264e-019 ]
      - [ 1.08420217e-019, 3.49206093e-005, 1.31644638e-005,
          -2.03391010e-005, -6.22231091e-005, -7.40538380e-005,
          2.36025124e-004, 3.82755970e-004, 2.14818298e-004,
          -6.04060115e-005, 1.55618254e-004, 5.73446123e-005,
          1.39341297e-004, 4.77959729e-005, 6.94424889e-005,
          9.74383147e-005, 2.07044592e-004, 2.60051747e-004,
          5.29170735e-004, 6.53478899e-004, 2.77990737e-004,
          -3.32270632e-004, -1.97096728e-004, -2.47716031e-004,
          2.53208098e-004, -3.54557451e-005, -1.61504970e-004,
          -4.22487319e-005, -8.96307465e-005, -2.49236240e-004,
          -3.26895024e-005, 3.49167640e-005, 2.93569337e-005,
          1.98631795e-004, -1.08816557e-005, -9.59652534e-005,
          1.58265742e-004, -1.77051304e-004, -2.67786148e-004,
          -9.49423629e-005, -1.09548884e-004, -1.19286560e-004,
          1.83654891e-004, 3.97037162e-004, 3.44039901e-004,
          1.72345390e-004, 3.40563653e-004, -2.82533783e-005,
          1.58265742e-004, -1.26797502e-004, -1.23877544e-004,
          9.46515283e-005, 1.56326641e-004, 2.38560140e-004,
          5.15473774e-004, 5.42314607e-004, 2.91957142e-004,
          3.66796390e-004, 2.94878380e-004, 1.37586321e-004,
          2.53208098e-004, 1.33710826e-004, 2.22247530e-004,
          4.15735994e-004, 2.05583739e-004, 7.53807035e-005,
          4.27675026e-004, 7.30056781e-004, 4.42866411e-004,
          3.18055361e-004, 1.55852846e-004, 2.46690848e-004,
          1.94014137e-004, 7.45168654e-005, 1.08171458e-004,
          3.70231515e-004, 3.07456969e-004, 1.91160885e-004,
          3.30014969e-004, 9.91444249e-005, -2.17663164e-005,
          4.99147631e-004, 3.59747995e-004, 2.44849100e-004,
          2.24324889e-004, 5.32855775e-005, -1.02576460e-005,
          1.47959276e-004, 5.88846779e-005, 6.51390583e-005,
          1.52562236e-004, 3.25888162e-004, 1.92180160e-004,
          -2.39947185e-004, -5.44386567e-005, 2.98242987e-004,
          2.21688926e-004, 2.56794796e-004, 4.75351204e-004,
          6.33653428e-004, 5.54817612e-004, 3.90368077e-004,
          2.11801234e-004, -1.65271136e-004, -3.27113463e-004,
          -3.60299891e-004, -1.80014133e-004, 2.35015032e-004,
          5.51443314e-004, 3.11229203e-004, 2.50140529e-005,
          2.20117261e-004, 1.23059566e-004, -4.97078472e-005,
          -2.36380161e-004, -3.11143958e-004, -2.07264093e-004,
          -7.78656467e-005, 1.68304134e-004, 1.05883868e-004 ]
      - [ 0., -1.79075312e-006, 5.99983287e-005, 1.69509804e-004,
          4.35765571e-004, 2.49531935e-004, 2.15529013e-004,
          4.66215191e-004, 8.90192168e-005, -5.85471338e-004,
          -3.34237673e-004, -3.03561654e-004, -2.09598351e-004,
          3.96948053e-005, 1.16126008e-004, 5.11508377e-004,
          -5.80181113e-005, -3.06789967e-004, -2.50035548e-004,
          -1.69491119e-004, 4.29666979e-004, -5.45880976e-005,
          -2.00806491e-004, -5.23314695e-004, 1.11148860e-004,
          3.04242654e-004, 3.78597702e-004, 3.53093346e-004,
          -2.33527287e-004, -3.72858631e-004, -3.73281160e-004,
          -2.98906612e-004, 2.34659710e-005, 3.12482502e-004,
          2.05036500e-004, -8.50246636e-007, 3.59214464e-004,
          3.06065922e-004, 3.95176146e-004, 2.79659784e-004,
          -1.21240162e-004, -1.48948457e-004, -1.15808150e-004,
          -3.44898945e-005, 6.04381094e-005, 2.75331200e-004,
          4.22610989e-004, 2.94295198e-004, 4.04856808e-004,
          3.67982633e-004, 3.50255606e-004, 2.24247633e-004,
          -3.45842600e-005, -3.45842600e-005, -3.45842600e-005,
          -3.45842600e-005, -2.08550755e-005, 1.93419837e-004,
          4.68253304e-004, 3.39937513e-004, 4.87200596e-004,
          4.14825539e-004, 3.76216689e-004, 3.41088074e-004,
          8.03840376e-005, 4.77595531e-005, 4.77595531e-005,
          5.85222697e-005, 9.94945804e-005, 3.13769473e-004,
          5.50597091e-004, 4.22281330e-004, 3.28098802e-004,
          3.37638165e-004, 4.55322588e-004, 4.21068136e-004,
          -1.15754403e-004, -2.60348723e-004, -2.96570885e-004,
          -2.62962887e-004, 4.51473788e-005, 5.10248065e-004,
          4.14781447e-004, 2.63179507e-004, -5.90679556e-005,
          2.57444335e-004, 1.49983622e-004, 2.35397776e-004,
          -4.08446387e-004, -4.43170109e-004, -2.82700494e-004,
          -1.26043000e-004, 3.59488477e-004, 5.24752308e-004,
          3.04326677e-004, -1.05677842e-004, -3.72465671e-004,
          -3.42339510e-004, -3.64972599e-004, 4.98374109e-004,
          3.22750886e-004, -3.42245585e-005, -2.45513365e-004,
          -1.06770698e-004, 3.01208434e-004, 4.09751345e-004,
          -9.51257025e-005, -1.03521299e-004, 3.99212768e-005,
          -9.18889564e-005, 4.12043773e-005, 3.67000350e-004,
          1.91142593e-004, 8.34344683e-005, 4.54007277e-005,
          8.95144258e-005, 3.15111800e-004, 5.28956240e-004,
          2.98114290e-004, 3.79808189e-004 ]
      - [ 2.20228566e-019, 6.36197456e-006, 4.82290961e-005,
          7.11766406e-005, 9.25409549e-005, -1.13211136e-005,
          -1.22703859e-004, -1.24801270e-004, -1.20075136e-004,
          -2.10873113e-004, -5.21099391e-005, -8.56082843e-005,
          -1.08071683e-004, -1.48528110e-004, -2.12904095e-004,
          -1.88079823e-004, -1.24321668e-004, 6.16299512e-005,
          2.17916269e-004, 1.77229100e-004, 4.40210351e-005,
          -2.41110305e-004, -1.58040086e-004, -1.83820259e-004,
          -3.30087460e-005, -1.03872473e-004, -1.66318510e-004,
          -9.60370089e-005, -2.92915092e-006, 6.11339274e-005,
          2.11604143e-004, 2.15061038e-004, 2.34265273e-004,
          1.77808470e-004, 2.23383060e-004, 5.08010016e-005,
          -8.83119064e-005, -1.04400198e-004, -4.47102502e-005,
          1.89696046e-004, 2.49512610e-004, 3.02027038e-004,
          3.16467340e-004, 3.25759494e-004, 2.77512358e-004,
          8.69100986e-005, 7.70985498e-005, -1.87740516e-005,
          -2.71938425e-005, 1.34271831e-004, 1.91850399e-004,
          3.44689877e-004, 3.44689877e-004, 3.40463186e-004,
          2.77622516e-004, 1.49972708e-004, 4.19768876e-005,
          -1.36484014e-004, -8.44393071e-005, -1.01178375e-004,
          -2.82326328e-005, -4.64074365e-005, 4.98467452e-005,
          3.58443096e-004, 3.87392298e-004, 3.68937093e-004,
          1.93103362e-004, 7.56900408e-005, 5.21402362e-005,
          -7.32649132e-005, -3.69869704e-005, -4.89292361e-005,
          3.94625349e-005, 5.81628119e-005, 5.78084509e-005,
          2.20771006e-004, 2.24602263e-004, 2.80045206e-004,
          2.89137301e-004, 1.46629638e-004, 6.39502978e-005,
          -4.60391238e-005, 5.61547040e-006, -2.95556711e-005,
          2.80222157e-004, 2.30105812e-004, 1.60454962e-004,
          2.27210185e-004, 1.86954756e-004, 1.39366937e-004,
          1.64133307e-004, 1.91594198e-004, 1.95399058e-004,
          7.76725137e-005, 6.57359196e-005, -4.40130543e-006,
          3.31437332e-005, 1.49654865e-004, 1.25402395e-004,
          2.31244019e-004, 5.38551321e-005, -3.76951793e-005,
          -9.78422686e-005, -1.24045851e-004, -1.29195862e-004,
          -8.90681331e-005, 4.04374578e-006, -8.13711722e-007,
          -5.64731599e-005, -3.85595013e-005, -5.05294483e-005,
          5.37260821e-005, 1.10742540e-005, -6.74458215e-006,
          -8.31988000e-005, -1.09840505e-004, -7.15977585e-005,
          -1.91177005e-005, -1.15127614e-006, 2.20228566e-019 ]
      - [ 6.74869516e-005, 4.14299429e-004, 4.79315349e-004,
          3.07255745e-004, -3.56040582e-005, -2.14877276e-004,
          -1.72423053e-004, -1.62220153e-004, -1.56928276e-004,
          -2.49505072e-004, -1.00237150e-004, -1.06547406e-004,
          3.93161899e-004, 2.89146905e-004, 2.53311970e-004,
          2.86625756e-004, 3.52507632e-004, 1.08005785e-004,
          -4.05092360e-005, -1.96911060e-004, -2.15075794e-004,
          -2.33408035e-004, 1.70051935e-004, 4.49882209e-005,
          9.37829391e-005, 1.77815047e-004, 2.87707458e-004,
          4.29660984e-004, 4.18825221e-004, 2.58431483e-005,
          -6.72430397e-005, -1.36819044e-005, 1.76206508e-004,
          3.06333328e-004, 4.43448196e-004, 2.53197359e-005,
          -2.39150482e-004, -1.18165539e-004, 3.28321112e-005,
          1.80829593e-004, 1.51650849e-004, 8.01714777e-005,
          2.95183036e-005, 9.47658846e-005, 5.08641766e-004,
          3.35237070e-004, 7.97747198e-005, -4.73089094e-005,
          -2.58432468e-004, -2.34075778e-004, -2.03624353e-004,
          -4.73089094e-005, -4.73089094e-005, -4.73089094e-005,
          -3.35360601e-005, 2.33359722e-004, 5.37060434e-004,
          7.05078637e-005, -5.34835599e-005, -4.73089094e-005,
          -2.11123566e-004, -2.07995225e-004, -1.89674291e-004,
          -1.08420217e-019, -1.08420217e-019, -1.08420217e-019,
          2.44386494e-004, 5.18723158e-004, 2.71673052e-004,
          -7.24063793e-005, -6.17465139e-006, -1.08420217e-019,
          -2.11123566e-004, -2.07995225e-004, -1.89674291e-004,
          -3.75848344e-006, -2.22824383e-005, 1.08909313e-004,
          3.72320908e-004, 2.77445739e-004, 1.66490194e-004,
          -1.32224988e-004, -6.17465139e-006, -1.08420217e-019,
          -2.21056704e-004, -2.20881455e-004, -2.16007931e-004,
          -8.82247623e-005, 4.20251818e-005, 3.10371135e-004,
          2.26474571e-004, 1.24992497e-004, -6.42807281e-005,
          -1.32224988e-004, -1.79870276e-005, -9.93313552e-006,
          -2.83556903e-004, -2.85797840e-004, -3.18409555e-004,
          4.98608460e-005, 1.90952705e-004, 1.14694027e-004,
          1.78877599e-004, 6.76150012e-005, -1.30004250e-004,
          -1.13164104e-004, -7.51179832e-005, -7.24333513e-005,
          -2.11123566e-004, -2.10411396e-004, -2.72845849e-004,
          2.04685464e-004, -3.85206040e-005, 4.11238034e-005,
          4.09780296e-005, -1.02865226e-004, -5.40069668e-005,
          -3.80697838e-006, -1.08420217e-019, -1.08420217e-019 ]
      - [ -5.58122247e-006, -3.00527354e-005, -4.32721099e-005,
          -1.73568071e-006, 8.26158357e-005, 3.69652204e-004,
          3.05640599e-004, 5.92147626e-005, -3.14189267e-004,
          -3.26177862e-004, 3.14310775e-004, 2.69394426e-004,
          -3.33541422e-004, -4.65062330e-004, -7.10681663e-004,
          -3.01257853e-004, 1.04975959e-004, 4.73328517e-004,
          4.94153937e-004, 3.53552576e-004, 9.08949660e-005,
          1.62021970e-004, 4.40538832e-004, -2.68775446e-004,
          -2.73290003e-004, -2.58877815e-004, -2.54781160e-004,
          -5.97876169e-006, -2.06060344e-004, -4.68968938e-004,
          -5.00630995e-004, -4.66581434e-004, -2.37589466e-005,
          2.85251095e-004, 1.02929109e-004, -6.58845456e-005,
          -2.57746346e-004, 2.33190483e-004, 2.55487976e-004,
          4.54465655e-004, 2.15409935e-004, -1.04659972e-004,
          1.35545153e-004, 3.37085512e-004, 2.55470426e-004,
          2.12732833e-004, -1.42793680e-004, -1.18922180e-004,
          9.70874244e-005, 1.93737957e-004, 2.42635448e-004,
          5.74730686e-004, 2.33211031e-004, 4.49801126e-004,
          5.73811529e-004, 4.00336139e-004, 3.86846688e-004,
          -1.24316459e-004, -2.01261442e-004, -1.46775012e-004,
          -2.11071820e-004, -1.77581707e-004, -2.20226153e-004,
          2.61731475e-004, 5.88319555e-004, 6.18411170e-004,
          1.39730619e-004, 4.15451650e-004, 2.53629900e-004,
          -1.11000634e-004, -6.11306677e-005, -6.64423897e-006,
          -2.27279859e-004, -3.05315567e-004, -1.13006688e-004,
          5.16184256e-004, 2.89897347e-004, -2.40652462e-005,
          1.68366445e-004, 4.09988716e-004, 3.79927369e-005,
          -1.12403744e-004, -7.63321950e-005, -2.28522786e-005,
          -2.24275194e-004, -2.02499039e-004, 3.08537892e-005,
          1.71098145e-004, -1.01098238e-004, -6.31865623e-005,
          3.04899644e-004, -4.24799873e-006, -7.75537046e-005,
          -1.47686165e-004, -8.71526136e-005, -2.57209540e-005,
          -1.31771390e-004, 8.06480311e-005, -4.23711666e-004,
          -1.50072767e-004, -1.09286309e-004, 2.95291393e-004,
          1.45235521e-004, -8.78996361e-005, -1.09565786e-004,
          -1.66686601e-004, -1.48659543e-004, -1.20244869e-004,
          2.65963638e-004, -2.39792629e-004, -5.44899318e-004,
          -1.28348664e-004, -1.14263261e-004, 1.62543103e-004,
          -1.27257546e-004, -1.57640839e-004, -1.18406431e-004,
          -5.68062278e-005, -1.66712271e-005, -1.74994966e-006 ]
      - [ 6.21140294e-004, 2.77300191e-004, -9.47657172e-005,
          -2.21953305e-004, -2.46237963e-004, -2.28592224e-004,
          -1.03702892e-004, -7.73694119e-005, -7.73694119e-005,
          -2.67367170e-004, -2.57959677e-004, -2.89873133e-004,
          3.48380388e-004, 6.40242433e-005, -6.66843771e-005,
          -5.95759338e-005, -4.02677724e-005, -5.46338633e-005,
          -6.63883329e-005, -1.04261708e-004, -1.38350049e-004,
          -3.99263634e-004, -2.89615709e-004, -1.96253357e-004,
          2.15850174e-004, 1.16712865e-004, -3.36835583e-005,
          -1.23899736e-004, -1.25559454e-004, -1.08247470e-004,
          -1.91589803e-004, -2.19001216e-004, -1.25278573e-004,
          -2.56309024e-004, -7.59342147e-005, -5.84552981e-005,
          2.17251232e-004, 1.19468270e-004, 4.88849264e-006,
          -2.85024380e-005, -2.17163142e-005, -1.44775431e-005,
          -8.17280670e-006, -3.50263144e-006, 1.62630326e-019,
          -2.03679738e-004, -5.74975384e-005, -5.65872288e-005,
          2.17951761e-004, 1.50409425e-004, 7.32489643e-005,
          4.46337435e-005, 6.66715714e-005, 6.66715714e-005,
          6.66715714e-005, 5.80724081e-005, 3.67792454e-005,
          -1.89643455e-004, -5.74975384e-005, -5.65872288e-005,
          2.26141434e-004, 2.36799096e-004, 2.04184427e-004,
          1.94948065e-004, 2.71926227e-004, 2.68537871e-004,
          3.51154129e-004, 4.92464984e-004, 5.17543638e-004,
          2.29211408e-004, 2.49601639e-004, 1.34654147e-005,
          1.41511555e-004, 9.40220780e-005, 3.53144169e-005,
          -7.27758743e-005, -9.12261821e-005, -9.48370871e-005,
          -9.74141876e-005, 8.06450626e-005, 5.40243986e-004,
          4.12990630e-004, 5.10585669e-004, 4.00366000e-004,
          2.12625906e-004, 1.01651596e-004, -2.47334356e-005,
          -7.71592386e-005, -4.44466605e-005, -1.09215953e-005,
          -3.06323705e-006, 3.74972646e-004, 5.62314293e-004,
          3.89981724e-004, 3.27301241e-004, 8.06986645e-005,
          7.17827934e-005, 3.56335158e-006, -5.87756367e-005,
          -4.75875677e-005, 1.19698547e-004, 2.40730573e-004,
          2.06084180e-004, 1.88174134e-004, -1.70268904e-005,
          -2.38861641e-004, -1.40208998e-004, -9.30835085e-005,
          1.40597491e-004, 1.63694349e-004, 1.47751023e-004,
          -8.31577108e-006, -1.37541705e-004, -1.54326728e-004,
          -2.29778831e-004, -2.18440342e-004, -1.57643444e-004,
          -6.26689289e-005, -1.33146420e-006, 1.62630326e-019 ]
      - [ 4.07406362e-004, 3.11846175e-004, 8.47740957e-005,
          -6.53039533e-005, -2.13992156e-004, -2.22500341e-004,
          -1.22243946e-004, -5.57955063e-005, -5.65863229e-005,
          -1.03362356e-004, -1.13615708e-004, -2.33905695e-004,
          2.76779669e-004, 1.58286173e-004, -5.88701005e-005,
          -8.55062608e-005, -1.34069458e-004, -1.22079029e-004,
          -9.11439347e-005, -8.36269392e-005, -1.02165352e-004,
          -2.13436171e-004, -2.20215152e-004, -2.51266581e-004,
          2.37028406e-004, 1.71302672e-004, 4.05966312e-005,
          7.67386700e-006, -3.68837900e-005, -5.46964984e-005,
          -4.65119956e-005, -1.22577567e-005, -9.11564075e-006,
          -8.51204386e-005, -1.02587674e-005, -1.15805033e-005,
          1.77136229e-004, 2.15974258e-004, 2.32975988e-004,
          2.70608492e-004, 2.36755470e-004, 2.44059236e-004,
          2.47196411e-004, 2.69487209e-004, 2.93825055e-004,
          1.08943459e-004, 1.26388346e-004, 4.99985326e-005,
          1.77198031e-004, 2.45320727e-004, 2.28043937e-004,
          2.02749608e-004, 1.11241658e-004, 7.43910641e-005,
          5.49591350e-005, 1.34834860e-004, 2.06644385e-004,
          3.64709340e-005, 1.31342895e-004, 1.11891626e-004,
          2.00596143e-004, 1.92646330e-004, 8.68102434e-005,
          8.60499058e-005, 2.26682059e-005, 4.10861248e-005,
          6.92423855e-005, 1.31042951e-004, 2.37824090e-004,
          1.16807591e-004, 1.93843385e-004, 1.35289738e-004,
          1.76262780e-004, 2.29949292e-004, 2.67851428e-004,
          2.79126922e-004, 2.27209268e-004, 2.29439538e-004,
          2.26312739e-004, 2.37598520e-004, 2.59592838e-004,
          1.28656568e-004, 1.63360673e-004, 1.10956382e-004,
          1.09736182e-004, 8.55852995e-005, 8.91866584e-005,
          8.59490028e-005, 4.64174409e-005, 3.52954376e-005,
          4.56925191e-005, 1.43218771e-004, 2.04916869e-004,
          1.05502433e-004, 2.16465269e-004, 2.07416029e-004,
          -2.38275374e-004, -1.96231180e-004, -1.00005876e-004,
          -8.86854177e-005, -7.70946863e-005, -7.56564186e-005,
          -9.69522080e-005, -5.83214060e-005, 3.41333216e-005,
          -3.77705182e-005, 1.14785842e-004, 3.17688769e-004,
          -2.45547184e-004, -2.26350836e-004, -1.70831088e-004,
          -1.25958832e-004, -1.50132299e-004, -1.64658355e-004,
          -1.66378668e-004, -5.54317157e-005, 7.71812993e-005,
          7.43098353e-005, 2.11041624e-004, 3.04610643e-004 ]
      - [ -1.89735380e-019, -1.89735380e-019, 1.17805059e-004,
          -6.92782342e-005, -1.81278097e-004, -1.90282750e-004,
          -1.76609246e-004, -1.68115494e-005, 2.70440534e-004,
          -1.46234568e-004, -8.69767246e-005, -1.23779289e-004,
          -9.96326708e-005, -1.18928619e-004, 3.40093284e-005,
          -7.65103032e-005, -1.48630512e-004, -1.58097318e-004,
          -1.77187729e-004, -6.61552986e-005, 2.02923664e-004,
          -1.68447252e-004, -2.00752795e-004, -2.21111739e-004,
          -2.28335502e-005, -7.20989774e-005, 9.75962175e-005,
          1.80067727e-004, -1.53962901e-005, -1.28796091e-004,
          -7.03075129e-005, 4.56058406e-005, 3.33307544e-004,
          9.65028594e-005, 8.17956388e-005, 8.13576844e-005,
          1.87871949e-004, 1.78472372e-004, 1.60417607e-004,
          4.64020151e-004, 3.78566416e-004, 3.09005700e-004,
          3.21982865e-004, 3.60782200e-004, 4.21965931e-004,
          2.15810229e-004, 2.34863561e-004, 2.15256965e-004,
          2.14632193e-004, 1.63811361e-004, 2.68217584e-004,
          2.53966777e-004, 1.69669613e-004, 1.38230011e-004,
          1.03542130e-004, 2.19777983e-004, 3.74742056e-004,
          -2.25212316e-005, -6.19062848e-005, -1.07499051e-004,
          3.87356085e-005, -2.44193984e-006, 1.43956830e-004,
          2.90932803e-004, 7.55222718e-005, -1.89735380e-019,
          1.09069015e-005, 1.33609545e-004, 4.17781586e-004,
          7.87928730e-005, 2.42462902e-005, 1.31698880e-005,
          1.54996320e-004, 1.13818773e-004, 1.26940213e-004,
          4.27449064e-004, 3.05890513e-004, 2.43017013e-004,
          2.89674907e-004, 3.03888228e-004, 3.82774684e-004,
          2.84825510e-004, 3.20899970e-004, 3.26435722e-004,
          3.15830723e-004, 2.19576716e-004, 1.25310326e-004,
          1.31348163e-004, 7.59588365e-005, 8.01456918e-005,
          8.01952192e-005, 2.27214055e-004, 3.56001197e-004,
          7.94949574e-006, -3.92492657e-005, -7.25897917e-005,
          -1.87246769e-005, -5.30078396e-005, 3.15593279e-005,
          1.38194562e-004, 3.32376771e-006, -7.63632852e-005,
          -1.16381583e-004, -8.02454742e-005, 1.78482165e-004,
          -3.74935953e-005, -1.14835988e-004, -4.91687824e-005,
          -1.44303413e-004, -2.15155422e-004, -7.10684399e-005,
          1.02681261e-004, -1.42276360e-004, -2.44970637e-004,
          -2.47925025e-004, -1.64008612e-004, 1.37918851e-005,
          -3.93161463e-005, -6.70109075e-005, -5.06264514e-005 ]
      - [ 5.67512075e-020, -7.27453710e-007, -7.70559564e-005,
          -1.90470979e-004, -1.74599321e-004, 1.47575003e-004,
          3.25036119e-004, 2.19164664e-004, -6.97392625e-006,
          -2.64277216e-004, -1.47972809e-004, -1.17596886e-004,
          -2.20109432e-004, -2.94836005e-004, -3.93739843e-004,
          -2.08277153e-004, 1.44550853e-004, 8.77079656e-005,
          -2.66855874e-004, -1.41150100e-004, 3.11277836e-004,
          -3.63795290e-004, -3.08397895e-004, -3.70830996e-004,
          -1.16027149e-004, -1.90003615e-004, -3.03822017e-004,
          -9.29453308e-005, 1.28855900e-004, 4.13790804e-006,
          5.24105417e-005, 3.79399658e-004, 2.42149908e-004,
          -2.59210501e-004, -1.19106851e-004, -7.77220484e-005,
          -2.08652476e-004, -2.10430182e-004, -9.75828807e-005,
          2.67294236e-004, 5.08598401e-004, 5.32190781e-004,
          4.86651086e-004, 4.82829746e-005, -8.31038924e-005,
          -2.83354748e-004, -1.70312502e-004, -1.65710197e-004,
          7.13059580e-006, 2.49416771e-004, 3.26562644e-004,
          5.29545650e-004, 4.11074492e-004, 4.13577189e-004,
          3.66757478e-004, 1.42284436e-004, 1.52839551e-004,
          -4.03369449e-005, 2.73384230e-005, -1.06987827e-004,
          4.63170436e-004, 5.58587140e-004, 5.01919312e-005,
          3.63112253e-004, 3.03809415e-004, 3.95165553e-004,
          4.15600865e-004, 5.23224066e-004, 3.37077974e-004,
          1.69052102e-004, 3.06691334e-004, 3.28667520e-004,
          2.27542929e-004, 9.37836012e-005, -1.10319132e-004,
          3.26457550e-004, 3.10648233e-004, 1.43649144e-004,
          1.78514238e-004, 2.54471553e-004, 1.51492364e-004,
          -3.71345559e-005, 2.95641250e-004, 3.50936636e-004,
          -9.69576868e-005, -1.01365404e-004, -1.58125345e-004,
          1.16591538e-004, 5.83254150e-005, 5.55391234e-005,
          -5.49842334e-005, -5.67586758e-005, 2.35436077e-004,
          -1.22192883e-004, 1.64535682e-004, 4.86796089e-005,
          -2.29339421e-004, -2.12267507e-004, -2.02118928e-004,
          1.12767419e-004, 1.52553650e-004, 1.73096050e-004,
          2.06508844e-006, 3.65206142e-005, 5.99762388e-005,
          -2.79642845e-004, -1.83989963e-004, -7.68617319e-005,
          -1.48242441e-004, -1.23176898e-004, -2.39668734e-004,
          3.75119052e-005, 4.01990765e-005, 1.79263370e-004,
          -5.08488984e-006, 8.14215527e-005, -1.71861233e-004,
          -7.64466386e-005, -1.59077979e-006, 5.67512075e-020 ]
      - [ -4.79877599e-006, 1.79631115e-005, 1.32646628e-005,
          -1.83034244e-005, -6.05917739e-005, -6.34083408e-005,
          1.78808899e-004, -1.52951925e-005, -3.34533906e-005,
          2.66900552e-005, 1.59775736e-004, 2.13060441e-004,
          1.74045170e-004, 6.25612302e-005, 1.10888222e-005,
          -5.49502693e-006, -5.49502693e-006, -5.49502693e-006,
          3.20670573e-004, 1.21166267e-004, 1.63917342e-004,
          -5.64877846e-005, -1.99393689e-004, -3.24739551e-004,
          1.35467693e-004, -1.18808020e-004, -4.58859780e-004,
          -4.36285947e-004, -4.53630695e-004, -4.82638570e-004,
          -2.35388652e-004, -5.33912855e-004, -6.91380468e-004,
          3.54531629e-004, -9.44074127e-005, -6.67440281e-006,
          1.00088815e-004, -6.03570224e-005, -1.47617277e-004,
          -6.52928429e-005, -9.15538840e-005, -6.82209284e-005,
          2.12210172e-004, 4.97957459e-004, 2.56924832e-004,
          3.04592504e-005, 1.50534921e-004, 1.03394304e-004,
          8.23993760e-005, 9.44153453e-006, 1.00800316e-004,
          2.57152948e-004, 3.69057612e-004, 5.07207937e-004,
          8.11293256e-004, 8.22526577e-004, 5.01384260e-004,
          8.70250980e-004, 5.48049320e-005, -2.88167328e-004,
          1.35467693e-004, 4.00731340e-004, 6.49564026e-004,
          6.84606668e-004, 3.45375767e-004, 1.20766119e-004,
          5.00670052e-004, 9.96697112e-004, 5.26825897e-004,
          4.55164089e-004, -1.17744185e-005, -3.03579640e-004,
          1.35467693e-004, 3.82960337e-004, 3.38677230e-004,
          4.61313524e-004, 3.82277125e-004, 6.06609028e-005,
          -1.04236833e-005, -5.61176217e-004, -2.53655977e-004,
          1.53142179e-003, 4.50911495e-004, 5.94856043e-004,
          8.61704029e-005, -1.05092739e-004, -7.32767279e-004,
          -8.72472825e-004, -1.02967652e-003, -9.75548581e-004,
          -5.41613728e-004, 4.51671294e-005, 2.14356711e-004,
          -1.56326532e-005, -1.38561445e-004, 9.45456210e-004,
          2.75058646e-005, 2.87475123e-005, 1.16105046e-004,
          1.56815076e-004, 9.84907383e-005, 4.04257662e-005,
          2.54386832e-005, 2.45489882e-005, -1.06853171e-004,
          -5.70157754e-005, -2.30937949e-005, 1.30253646e-003,
          3.09480558e-004, 1.16702133e-004, -2.01468269e-004,
          -6.46659828e-005, -7.64634678e-005, 7.15851420e-005,
          1.56537193e-004, -2.61518617e-005, -1.52875818e-005,
          -9.19074864e-006, 5.88760711e-004, 3.44930537e-004 ]
      - [ -2.30392962e-019, -4.20892411e-006, 2.99536114e-005,
          2.88272677e-005, 1.64252560e-004, 1.08008237e-004,
          6.97518844e-005, -1.33169669e-004, -1.74810659e-004,
          -2.31980361e-004, -2.22726056e-004, -1.56981230e-004,
          -2.41826492e-004, -1.38885021e-004, 3.83901970e-005,
          1.54287773e-004, -1.36993680e-004, -2.49327102e-004,
          -2.04629148e-004, -3.99301847e-004, -1.28310698e-004,
          5.51454905e-005, -1.57814808e-004, -3.00255517e-004,
          -8.08091063e-005, 1.20930737e-004, 1.55576388e-004,
          -5.73647321e-006, -2.47892196e-004, -4.01029858e-004,
          -2.31521029e-004, -3.78881203e-004, -1.66039783e-004,
          1.05587955e-004, 1.57310482e-004, 1.57543502e-004,
          1.17506926e-004, 2.61832523e-004, 2.98547326e-004,
          2.62436282e-004, 9.38208250e-005, -1.18481394e-005,
          9.88856700e-005, -1.52916065e-004, 2.41108537e-005,
          3.04652116e-004, 9.37065342e-005, 1.72393324e-004,
          2.55269377e-004, 3.28580994e-004, 2.87375064e-004,
          2.64350121e-004, 1.68926257e-004, 1.62353026e-004,
          1.62353026e-004, -5.97014623e-005, 2.55311716e-005,
          2.29170037e-004, 2.63819005e-004, 1.28852960e-004,
          2.22441347e-004, 3.54255550e-004, 2.87375064e-004,
          3.01445776e-004, 1.86671721e-004, 1.51621731e-004,
          9.63539569e-005, -1.87048630e-004, -8.89780058e-005,
          1.85567842e-004, 4.24615399e-004, 1.36846240e-004,
          4.65011508e-005, 2.93279416e-004, 3.60771868e-004,
          2.75994418e-004, 4.39056093e-005, -1.41167737e-004,
          -2.95283680e-004, -3.72374256e-004, 3.37425590e-005,
          4.52886365e-004, 2.56696279e-004, 1.78093178e-004,
          -1.89553277e-004, 9.90973858e-005, 1.84321078e-004,
          -2.07209814e-005, -2.86560622e-004, -3.63135623e-004,
          -3.91327019e-004, -2.60105997e-004, 2.90943717e-004,
          6.04363740e-004, 2.65462761e-004, 3.90934729e-005,
          -3.43727297e-004, -3.00920772e-004, -3.01843655e-004,
          -4.88298137e-005, -1.21400517e-004, -2.28188917e-004,
          -1.96749534e-004, 1.13730575e-005, 4.03068960e-004,
          3.92094051e-004, 7.16053983e-005, -3.81231803e-006,
          -5.57574640e-005, -8.14609884e-005, -1.38567280e-004,
          -9.19407103e-005, -7.39743564e-006, 1.26142215e-004,
          2.70332646e-004, 3.08856339e-004, 3.56281613e-004,
          3.73030314e-004, 2.02371215e-004, 2.02371215e-004 ]
      - [ -5.42101086e-020, -2.09797781e-006, 5.15879365e-005,
          8.78404389e-005, 1.67037346e-004, 8.02657087e-005,
          -2.44089315e-004, -2.97098362e-004, -2.01266856e-004,
          -1.51834625e-004, -5.48601201e-005, -3.67631692e-005,
          -1.18231939e-004, -1.36505230e-004, -1.94977649e-004,
          -2.13951702e-004, -1.74619476e-004, 1.98019097e-005,
          1.23060832e-004, -4.66496749e-005, 1.95355801e-006,
          -1.01071186e-004, -9.18978767e-005, -1.25240229e-004,
          -7.40158503e-005, -8.20447895e-005, -2.13025560e-004,
          -1.93604938e-004, -1.30358589e-004, 1.59415868e-005,
          1.37420415e-004, 4.38312527e-005, 1.01831472e-004,
          2.69957789e-004, 2.94244936e-004, 1.43620768e-004,
          -8.66335104e-005, -2.12778396e-005, -1.07656015e-005,
          2.15455497e-004, 3.35028046e-004, 4.42973920e-004,
          2.96578364e-004, 1.89543774e-004, 2.83714005e-004,
          1.57724964e-004, 2.94453057e-005, 1.93935521e-005,
          2.84700782e-005, 1.82891061e-004, 1.93681190e-004,
          4.29884298e-004, 4.40239703e-004, 4.40153992e-004,
          2.51536578e-004, 1.56077818e-004, 1.87542155e-005,
          -1.70453757e-004, -2.30389574e-004, -2.06109049e-004,
          -4.85567543e-005, -1.47239888e-007, 1.91497093e-005,
          3.97469703e-004, 4.60336072e-004, 4.84256336e-004,
          1.85282552e-004, -1.96694509e-005, -5.67873249e-005,
          -3.44566033e-005, -6.80035882e-005, -2.06593075e-004,
          -1.62715060e-005, 7.83713913e-005, 2.08079073e-005,
          1.95683009e-004, 2.14014624e-004, 2.67953408e-004,
          1.56930793e-004, 5.11585895e-005, 1.52765060e-004,
          1.71801512e-004, 8.02278955e-005, -1.07371692e-004,
          3.46425717e-004, 2.93551595e-004, 4.49269646e-005,
          7.07522559e-005, 3.48668400e-005, -4.91325118e-005,
          -7.06063365e-005, 1.46547382e-005, 2.04766766e-004,
          2.14160478e-004, 7.59817558e-005, 3.29710056e-005,
          -3.75030977e-005, 1.29785782e-004, 1.70865496e-005,
          -1.82557869e-005, -1.75094334e-004, -2.29954283e-004,
          -2.66198796e-004, -6.87784559e-005, 3.45836197e-005,
          4.88459591e-005, 1.29490500e-005, 2.57420538e-006,
          -2.00430077e-004, -1.40232121e-004, -1.18366224e-004,
          -1.26985236e-004, -1.84168734e-004, 2.85397364e-005,
          1.13064227e-004, 3.07123191e-005, -5.42101086e-020,
          -5.42101086e-020, -5.42101086e-020, -5.42101086e-020 ]
      - [ 9.60331308e-005, 3.59556230e-004, 4.53501125e-004,
          3.73880612e-004, 8.27187323e-005, -1.74783214e-004,
          -2.93388352e-004, -5.21011127e-004, -4.20481549e-004,
          -2.87133706e-004, -1.51802946e-004, -9.74646609e-005,
          3.89096560e-004, 3.09584721e-004, 2.19980197e-004,
          1.97999107e-004, 1.97999107e-004, 6.23535452e-005,
          -2.10734914e-004, -5.21821086e-004, -4.75576147e-004,
          -5.58229804e-005, 2.56044208e-004, 1.15197996e-004,
          2.78100033e-005, 1.64629746e-004, 1.86700039e-004,
          2.30318765e-004, 2.30000966e-004, 9.91099732e-005,
          4.09454115e-005, 3.10032107e-007, 1.04419400e-004,
          3.07487819e-004, 3.51618015e-004, -4.75233264e-006,
          -1.45859405e-004, 2.01976582e-005, -7.28697751e-006,
          1.78118542e-004, 2.03603908e-004, 1.84142438e-004,
          1.59801071e-004, -1.03705279e-005, 2.05434539e-004,
          4.02910402e-004, -4.68790095e-005, -1.13394468e-004,
          -1.89535262e-004, -1.17803538e-004, -2.14069834e-004,
          -3.17634222e-005, -5.45856210e-006, -5.45856210e-006,
          8.63209789e-005, 1.27048916e-004, 1.65816862e-004,
          1.38077565e-004, -7.15615461e-005, -2.04302109e-004,
          -1.84076707e-004, -1.12686139e-004, -2.14069834e-004,
          -2.68734602e-005, 1.58485409e-006, 5.40134715e-005,
          2.15690437e-004, 1.04657498e-004, 2.58283053e-005,
          -3.97896729e-005, -6.31368021e-005, -1.67716891e-004,
          -1.84076707e-004, -1.13058682e-004, -2.16056753e-004,
          -8.16559623e-005, -1.10720168e-004, -6.10056522e-005,
          1.02252896e-004, 5.70433185e-005, 8.65966576e-005,
          -7.12292967e-005, -1.39332158e-004, -4.89174272e-005,
          -1.84076707e-004, -1.77084570e-004, -3.76181415e-004,
          -3.83529434e-004, -2.51581223e-004, 3.96938703e-005,
          1.07765532e-004, -6.82043392e-005, -9.81580306e-005,
          -2.51106067e-005, -3.02822154e-005, 0., -2.42311726e-004,
          -2.62711139e-004, -5.03661227e-004, -2.46719166e-004,
          -6.89862063e-005, -8.74475791e-006, 1.31024222e-004,
          3.50200353e-005, -7.86367818e-005, -3.18351485e-005, 0., 0.,
          -1.83704149e-004, -1.71057924e-004, -3.74763767e-004,
          -1.83897027e-005, -1.36020637e-004, 3.44476139e-005,
          1.03553182e-004, -1.08705390e-005, 0., 0., 0., 0. ]
      - [ -1.62630326e-019, -1.95900157e-005, -1.61859134e-005,
          7.52387568e-005, 1.68200597e-004, 3.42467189e-004,
          1.69892359e-004, -1.78144270e-004, -4.47542261e-004,
          -2.77482643e-004, 1.33411697e-004, 2.42744980e-004,
          -2.45529867e-004, -3.17858881e-004, -3.95614043e-004,
          -2.11556267e-004, -4.63117203e-006, 2.10160986e-004,
          1.33832174e-004, -6.45786422e-005, -1.05047024e-004,
          2.41398680e-004, 3.37707868e-004, -1.15387804e-004,
          -1.67052844e-004, -5.15720931e-005, -2.09302772e-004,
          -1.92175590e-004, -3.18882550e-004, -3.81658057e-004,
          -4.26614773e-004, -4.08945780e-004, -7.61661649e-005,
          2.33977495e-004, 1.31983281e-004, -1.11395696e-006,
          -1.41149561e-004, 3.15150275e-004, 2.56423955e-004,
          4.58670489e-004, 3.69128800e-004, 8.78648207e-005,
          6.69426590e-005, 1.65759484e-004, 1.23301797e-004,
          1.78466013e-004, -2.71299708e-004, -9.39257661e-005,
          1.56920156e-004, 2.90398631e-004, 1.91268875e-004,
          4.45442070e-004, 3.98189499e-004, 3.59991012e-004,
          3.57152574e-004, 1.11739057e-004, 7.65345976e-005,
          -1.82673975e-005, -1.12705136e-004, -2.96219980e-004,
          -1.21092562e-004, 6.29546412e-005, -8.40024295e-005,
          1.93135449e-004, 4.30582411e-004, 4.71588894e-004,
          7.12577385e-005, -4.45118603e-005, -6.00142776e-005,
          -8.82480017e-005, -3.66117965e-005, -2.42427966e-004,
          -1.67052844e-004, -8.51592195e-005, -6.29754577e-005,
          2.78162770e-004, 8.63378227e-005, -2.06361961e-004,
          -8.25035677e-005, -3.82400794e-005, -7.84129661e-005,
          -1.62005035e-005, -1.38625343e-004, -5.36407606e-005,
          -1.67052844e-004, -5.99882078e-005, -1.26164829e-004,
          -2.86323979e-004, -4.54529625e-004, -1.74450906e-004,
          1.13652386e-005, -9.94428119e-005, -1.59983556e-005,
          -1.98259550e-005, -2.90997450e-005, -1.62630326e-019,
          -1.48531166e-004, -7.77741807e-005, -5.78058593e-004,
          -5.65113849e-004, -2.40425477e-004, 2.72860188e-006,
          -1.36821851e-004, -8.64318063e-005, -2.41425896e-005,
          -9.89846194e-006, -1.62630326e-019, -1.62630326e-019,
          4.38534880e-005, -2.92304932e-004, -5.78087987e-004,
          -2.48882017e-004, 2.79139731e-005, 5.53128630e-005,
          -5.04346863e-005, -3.37996244e-006, -1.62630326e-019,
          -1.62630326e-019, -1.62630326e-019, -1.62630326e-019 ]
      - [ 4.03237151e-004, 1.54107300e-004, 1.61521075e-005,
          -1.02427592e-004, -1.26389656e-004, -1.43834332e-004,
          -1.96710811e-004, -3.12444899e-004, -2.06742610e-004,
          -1.53152665e-004, -1.29372347e-004, -8.75225232e-005,
          2.06245575e-004, 2.37970125e-005, -6.78978759e-005,
          -1.66242244e-004, -1.66242244e-004, -1.66242244e-004,
          -2.07936493e-004, -3.85273219e-004, -3.30982351e-004,
          -1.88493475e-004, -1.53161513e-004, -1.18316013e-004,
          1.60667929e-004, 4.59643525e-005, -3.93354385e-005,
          -1.46726903e-004, -1.48326129e-004, -1.42502628e-004,
          -1.82888427e-004, -3.25079251e-004, -3.01350636e-004,
          -2.89320247e-004, -1.23271340e-004, -1.33543210e-006,
          1.60667929e-004, 9.73172864e-005, 9.83443751e-005,
          2.71050543e-020, -1.08101731e-005, -2.91836295e-006,
          -4.94632550e-005, -1.91181127e-004, -1.46276318e-004,
          -1.19252014e-004, -2.30556238e-004, -1.00300022e-004,
          1.60667929e-004, 1.06728650e-004, 1.68443235e-004,
          1.24389539e-004, 1.24389539e-004, 1.24389539e-004,
          8.23510854e-005, -4.30044383e-005, -3.76165626e-005,
          -7.93686559e-005, -1.69306659e-004, -2.87028291e-004,
          1.79490657e-004, 2.53878359e-004, 2.41329340e-004,
          1.63646298e-004, 1.67315869e-004, 1.59976727e-004,
          2.81924120e-004, 2.99531297e-004, 3.40306608e-004,
          2.81508022e-004, 1.63732882e-004, -1.74170054e-004,
          1.60667929e-004, 9.73172864e-005, 1.18893950e-004,
          1.10086985e-005, 1.35058071e-005, 2.72203179e-005,
          -2.73139649e-005, 1.04767350e-004, 2.95803067e-004,
          3.59699217e-004, 2.60926114e-004, 2.79270113e-004,
          1.60667929e-004, 4.81745919e-005, -5.44850773e-005,
          -2.63928756e-004, -2.25989003e-004, -1.66453552e-004,
          -2.06184792e-004, 1.26146988e-004, 3.41789535e-004,
          3.76890501e-004, 2.62188434e-004, 2.00777009e-004,
          2.81742687e-005, -1.62477649e-004, -2.65368057e-004,
          -2.38160792e-004, -7.30191387e-005, 1.63673922e-005,
          -5.84507798e-005, 7.30139436e-005, 4.87026846e-005,
          -2.25883705e-005, -1.12917878e-005, 2.71050543e-020,
          6.21383952e-005, 8.31733778e-005, 8.64726553e-006,
          -1.11159956e-004, -1.58620271e-004, -1.60624069e-004,
          -8.09984122e-005, -1.03091834e-005, 2.71050543e-020,
          2.71050543e-020, 2.71050543e-020, 2.71050543e-020 ]
      - [ 3.11580079e-004, 2.29877405e-004, 5.40009714e-005,
          -3.89121342e-005, -1.46217411e-004, -1.73610228e-004,
          -1.99175047e-004, -2.79892876e-004, -2.01507588e-004,
          -1.62011216e-004, -1.21342302e-004, -7.39477182e-005,
          1.30692686e-004, 1.00623874e-004, -4.36485752e-005,
          -1.02683232e-004, -1.79071125e-004, -1.79071125e-004,
          -1.99175047e-004, -2.94064463e-004, -2.83949485e-004,
          -1.93150408e-004, -1.59265517e-004, -1.16513998e-004,
          1.34395930e-004, 1.29040680e-004, -3.12503762e-005,
          -7.25987193e-005, -1.11064874e-004, -8.81579399e-005,
          -7.75876106e-005, -1.36072165e-004, -1.28927684e-004,
          -1.05569001e-004, 4.41339289e-005, 7.20982061e-005,
          1.23997510e-004, 1.98646609e-004, 2.37529239e-004,
          2.56977684e-004, 2.41415139e-004, 2.46732961e-004,
          2.13264691e-004, 1.05308864e-004, 1.30024055e-004,
          -2.47156859e-005, -2.64507344e-005, 4.90592101e-005,
          1.18798300e-004, 1.94541441e-004, 1.95741231e-004,
          1.68843544e-004, 9.00107698e-005, 6.35150791e-005,
          2.95583177e-005, 1.28228930e-005, 1.32917994e-004,
          -6.05052919e-005, -1.84191940e-005, 1.48894096e-005,
          1.34395930e-004, 1.63585602e-004, 8.91170712e-005,
          7.76350498e-005, 1.76684716e-005, 3.20241052e-005,
          2.08769488e-005, -7.13344343e-005, 1.52485400e-005,
          1.77910351e-005, 1.32415487e-004, 4.20952492e-005,
          1.34395930e-004, 2.07101315e-004, 1.77932787e-004,
          1.82571152e-004, 1.45313970e-004, 1.16904164e-004,
          6.55493641e-005, 9.47015269e-006, 1.74307628e-004,
          1.92133783e-004, 1.41820899e-004, 1.11279565e-004,
          7.23705452e-005, 6.72189708e-005, -1.05265217e-005,
          -6.83411199e-005, -1.00468118e-004, -1.05608509e-004,
          -6.57471246e-005, 8.63518744e-006, 1.79829352e-004,
          1.72437474e-004, 2.05274264e-004, 2.02652387e-004,
          -1.53949513e-004, -1.73317312e-004, -2.24993826e-004,
          -2.03572010e-004, -2.01064104e-004, -1.83191820e-004,
          -1.64957601e-004, -3.97084259e-005, 1.22663667e-004,
          1.09059787e-004, 1.76287518e-004, 2.90963537e-004,
          -1.57437709e-004, -1.61473872e-004, -1.88621125e-004,
          -1.83841723e-004, -1.66780985e-004, -1.16818388e-004,
          -5.43611714e-005, 6.84286861e-005, 1.70039290e-004,
          1.30548287e-004, 1.89331317e-004, 2.48577213e-004 ]
      - [ -1.35525272e-019, -3.43398619e-006, 1.34192829e-004,
          -7.74581713e-005, -2.26747579e-004, -3.00524436e-004,
          -3.40548868e-004, -2.53446022e-004, 7.80315459e-005,
          1.21772009e-005, -6.94875052e-005, -5.45662333e-005,
          -1.61133736e-004, -1.76007990e-004, 4.71010862e-005,
          -1.41559212e-004, -2.67534226e-004, -3.33753851e-004,
          -3.40548868e-004, -2.61320354e-004, -4.93906664e-005,
          -8.89122239e-005, -1.79274197e-004, -1.61199918e-004,
          -1.01720369e-004, -8.68715215e-005, 6.92972535e-005,
          5.61854140e-005, -1.51752582e-004, -2.02277384e-004,
          -1.98577312e-004, -1.76580754e-004, 8.52189842e-005,
          7.59634931e-005, 8.49465214e-005, 1.92590742e-004,
          1.56738213e-004, 1.72235377e-004, 1.52680761e-004,
          4.59008763e-004, 3.77769466e-004, 3.33665608e-004,
          2.93064077e-004, 6.31566436e-005, 2.90720316e-004,
          2.34949664e-004, 1.04788858e-004, 1.99336675e-004,
          9.80498007e-005, 1.14837130e-004, 2.94904370e-004,
          2.98659812e-004, 1.96627836e-004, 1.14603557e-004,
          7.81366325e-005, 1.48559804e-004, 1.90144492e-004,
          -1.03709397e-006, -1.66342172e-004, -1.82294010e-004,
          -3.40008955e-005, -1.13793976e-005, 1.76856163e-004,
          3.51393392e-004, 1.40692180e-004, 1.51921295e-005,
          -6.05626792e-006, -1.85070730e-005, 1.02208483e-004,
          7.18820302e-005, 3.10923133e-005, -5.96639766e-005,
          1.13439681e-004, 1.58808252e-004, 1.26225175e-004,
          4.35097871e-004, 3.22366308e-004, 2.29914629e-004,
          1.90208666e-004, 1.84883847e-005, 2.50745739e-004,
          3.78871977e-004, 2.97901512e-004, 2.85584392e-004,
          2.62345711e-004, 2.49678618e-004, 1.62924320e-004,
          9.63590937e-005, -9.06352070e-005, -1.67101476e-004,
          -2.20746311e-004, 1.43886255e-005, 3.57278856e-004,
          2.51732941e-004, 1.81206924e-005, -5.33210095e-006,
          -5.75035847e-005, -7.83166834e-005, -1.24165608e-005,
          -9.41058388e-005, -2.88390758e-004, -3.25638743e-004,
          -2.38872861e-004, 3.94116360e-005, 3.20823805e-004,
          2.01314411e-004, -2.68331132e-005, -9.94658421e-006,
          -9.21311002e-005, -1.30701737e-004, -3.63802610e-005,
          4.82126889e-005, -1.11065732e-004, -1.60352953e-004,
          -8.47464107e-005, 9.62667837e-005, 1.76500835e-004,
          7.32544067e-005, -1.35525272e-019, -1.35525272e-019 ]
      - [ -1.08420217e-019, -5.59636555e-006, -3.03782635e-005,
          -1.15711111e-004, -6.65211483e-005, 1.97711168e-004,
          1.42918972e-004, -1.67769482e-004, -1.63646764e-004,
          -1.69152947e-004, -6.59573780e-005, -7.11432513e-005,
          -1.71643478e-004, -2.21988128e-004, -3.06732720e-004,
          -1.24978673e-004, 8.80200896e-005, 2.29707275e-005,
          -3.38341400e-004, -4.76510497e-004, -3.99360506e-005,
          -1.97756875e-004, -1.57449758e-004, -1.74704342e-004,
          -9.58425080e-005, -9.95950613e-005, -3.31682386e-004,
          -1.48271138e-004, -7.36332295e-005, 2.41845883e-005,
          -4.02508231e-005, 6.67204877e-005, 2.31978902e-005,
          -2.43411720e-004, -1.01271762e-004, -7.86152384e-007,
          -1.10852721e-004, -4.56748276e-005, -5.24524767e-005,
          3.16169200e-004, 5.79589978e-004, 5.22848626e-004,
          3.95341282e-004, -1.13895490e-004, -2.01249873e-004,
          -1.63234523e-004, -3.45326494e-004, -1.75888883e-004,
          9.59318859e-005, 3.57809535e-004, 2.52874277e-004,
          4.62430500e-004, 4.28590836e-004, 4.14706505e-004,
          3.77217337e-004, -5.02137918e-005, 3.37300662e-005,
          1.08353437e-004, -2.76899773e-005, -3.25446774e-004,
          4.24918166e-004, 5.36500709e-004, -2.53385224e-005,
          3.57902813e-004, 3.47139110e-004, 2.64016970e-004,
          2.11027989e-004, 5.83142646e-005, 4.02604928e-005,
          1.54408743e-004, 2.19138994e-004, 4.59604926e-005,
          1.77868773e-004, 2.02911324e-004, -2.84251200e-005,
          2.94311234e-004, 2.79870641e-004, -8.41414658e-006,
          -1.09734385e-004, 7.29720250e-006, 1.18665725e-004,
          1.11014459e-004, 1.48387349e-004, 2.40606794e-004,
          -9.23489788e-005, -2.09978280e-005, -2.31034923e-004,
          -1.85131081e-004, -2.58676737e-004, -2.42947004e-004,
          -3.37886828e-004, -2.80311622e-004, 3.38812533e-004,
          1.18952317e-004, 8.06374810e-005, 3.42165658e-005,
          -2.41756832e-004, -2.00347960e-004, -4.09079192e-004,
          -1.49732063e-004, -4.50870357e-005, -3.16945880e-005,
          -1.97089932e-004, -1.40619057e-004, 2.40109119e-004,
          7.80238793e-007, -3.74020419e-005, -5.10893506e-006,
          -1.80989795e-004, -9.93801368e-005, -3.30422947e-004,
          -1.92845851e-004, -1.36526796e-004, 1.18540032e-004,
          1.60382639e-004, 3.37047415e-004, 8.10986385e-005,
          7.42564089e-006, -1.08420217e-019, -1.08420217e-019 ]
      - [ 2.16840434e-019, -4.60712617e-005, -5.03796509e-005,
          4.99652288e-007, 1.81879659e-004, 1.29188425e-004,
          -8.85218469e-005, -5.89139527e-005, -1.01936959e-004,
          -2.34914332e-004, -2.96365557e-004, -2.33881568e-004,
          -3.07307404e-004, -1.74185130e-004, 4.56161189e-007,
          1.37691328e-004, -8.28411357e-005, -1.95021552e-004,
          -3.72479204e-004, -4.49323590e-004, 1.71353702e-006,
          6.30466820e-005, -8.11795981e-005, -1.44547710e-004,
          -2.08195313e-004, 5.57589192e-005, 3.05761409e-004,
          1.89966857e-004, 1.46907423e-005, -1.15617833e-004,
          -1.56400027e-004, -1.22600730e-004, 4.43133031e-005,
          5.33706043e-005, 2.60732108e-004, 1.40575430e-004,
          -4.05180981e-006, 2.26065837e-004, 4.39267169e-004,
          2.96624028e-004, 1.74101064e-004, 6.37873163e-005,
          -1.82314961e-005, -1.35393217e-004, -4.41286902e-005,
          8.02181748e-005, 1.48342515e-004, 2.42475420e-004,
          1.32651898e-004, 2.59750057e-004, 3.20184365e-004,
          1.64647776e-004, 4.72562679e-005, -1.98195494e-006,
          -1.90899897e-004, -2.11503066e-004, -2.17302149e-005,
          -8.80104708e-005, 2.17638357e-004, 2.70565128e-004,
          1.05906518e-004, 1.38022224e-004, 1.24599203e-004,
          2.92426575e-005, 7.46108344e-005, 1.45910453e-004,
          -1.01464349e-004, -2.83548085e-004, -7.03474434e-005,
          1.79620547e-005, 3.71173956e-004, 2.27299694e-004,
          -9.29232192e-005, 6.02433356e-005, 2.16602537e-004,
          5.50154655e-005, -5.94265512e-005, -1.25451115e-004,
          -3.18753824e-004, -6.98844597e-005, 1.64065801e-004,
          -4.45461228e-005, 9.37587320e-005, -2.25783751e-005,
          -3.01156484e-004, -5.81904242e-005, 2.52159545e-004,
          1.68281724e-004, -4.25246299e-006, -1.25681094e-004,
          -2.43498900e-004, -1.65968057e-004, 1.70721905e-004,
          4.52875975e-004, 2.25157244e-004, -2.26189062e-004,
          -4.92069696e-004, -5.43038594e-004, -3.60826758e-004,
          -1.50868262e-004, -1.84100732e-004, -2.42321970e-004,
          -1.88838472e-004, 1.71593172e-004, 4.65412188e-004,
          3.58321413e-004, 2.32394541e-005, -2.94274592e-004,
          -4.06089443e-004, -3.71364527e-004, -2.31138893e-005,
          -2.87851890e-005, 4.42829405e-005, 1.63595469e-004,
          2.96481187e-004, 3.17883096e-004, 3.17648140e-004,
          3.32716241e-004, 5.27144293e-005, 1.05172076e-004 ]
      - [ 2.71050543e-020, -9.66970856e-006, -5.19889272e-006,
          3.68841165e-006, 1.17697113e-004, 8.50782817e-005,
          -1.84023185e-004, -2.77866697e-004, -1.86422592e-004,
          -1.71801221e-004, -1.60835189e-004, -1.25012797e-004,
          -1.66683734e-004, -1.86422592e-004, -1.86422592e-004,
          -1.82599033e-004, -1.30130182e-004, 2.48510387e-005,
          8.86929993e-005, -4.25775434e-005, -2.57814936e-005,
          -4.89799459e-005, -5.90808086e-005, -7.30653192e-005,
          -1.86422592e-004, -1.33054564e-004, -8.48040072e-005,
          -7.26741637e-005, -1.61840835e-005, 1.11565409e-004,
          2.16067230e-004, 2.05671065e-004, 2.50873622e-004,
          1.31736888e-004, 2.69273674e-004, 1.03288425e-004,
          -1.70421452e-004, -5.01417162e-005, 9.70838810e-005,
          1.94195425e-004, 2.95716658e-004, 4.16306750e-004,
          2.78939173e-004, 1.82767253e-004, 2.23029143e-004,
          1.50474894e-004, -2.53823673e-005, -1.13409642e-005,
          -8.73659374e-005, 4.59807015e-005, 1.85349010e-004,
          3.57035286e-004, 3.37296427e-004, 3.10977921e-004,
          1.42335688e-004, 6.81742313e-005, 3.39283433e-005,
          -2.69013835e-004, -2.09986960e-004, -1.53287256e-004,
          -1.42972989e-004, -1.21669633e-004, 1.62241304e-005,
          2.54675368e-004, 3.44308559e-004, 3.93588736e-004,
          1.28806889e-004, -7.67423189e-005, -4.14334954e-006,
          -6.51750597e-005, -1.11578847e-004, -1.65985606e-004,
          -1.27929656e-004, -1.03406810e-005, 1.07543710e-004,
          1.28133586e-004, 1.58951108e-004, 2.71390920e-004,
          1.92628053e-004, 2.09079619e-004, 2.36043532e-004,
          -6.65319894e-005, -7.51649131e-005, -1.36825664e-004,
          2.03013187e-004, 2.29876678e-004, 2.88532756e-004,
          2.69500684e-004, 2.53915874e-004, 1.45059588e-004,
          4.88315491e-005, 1.87275941e-006, 7.21898396e-005,
          1.19907629e-004, 8.99625156e-005, -8.51399964e-005,
          2.74327522e-005, 4.21026270e-005, 8.04175943e-006,
          -3.92104266e-005, -1.84923541e-004, -2.53021775e-004,
          -2.35990898e-004, -6.70429872e-005, 2.35714397e-005,
          3.79957528e-005, 2.48959386e-005, -1.94191467e-004,
          -3.02904082e-004, -1.35088165e-004, 4.99014386e-005,
          -2.64238679e-005, -1.23888647e-004, -4.42793353e-005,
          -2.61481864e-006, 1.13247261e-005, 2.71050543e-020,
          2.71050543e-020, -8.97954887e-005, -5.26074582e-005 ]
      - [ 7.58177193e-005, 2.39955523e-004, 2.79870088e-004,
          2.52716913e-004, 1.17403659e-004, -2.73706664e-005,
          -2.09600956e-004, -2.63365713e-004, -1.70729239e-004,
          -1.55038171e-004, -1.17113457e-004, -6.91573005e-005,
          2.12313505e-004, 1.94843044e-004, 1.94843044e-004,
          1.94843044e-004, 1.88251041e-004, 7.17676812e-005,
          -1.76365022e-004, -3.47565656e-004, -1.96935420e-004,
          3.69033223e-005, 2.04985117e-004, 1.38159434e-004,
          1.02016957e-005, 1.45624144e-004, 2.71907047e-004,
          2.85898655e-004, 2.84218317e-004, 1.94806576e-004,
          6.07722322e-005, 1.00770158e-004, 1.91285450e-004,
          1.15594630e-004, 2.50030716e-004, 2.76988976e-005,
          -1.45709986e-004, -8.17648925e-006, 1.39383919e-004,
          1.53799672e-004, 1.53799672e-004, 1.38460004e-004,
          1.54894624e-005, -4.20797041e-005, 1.80299947e-004,
          1.19980956e-004, -1.18654178e-004, -6.18913182e-005,
          -1.70729239e-004, -1.11141388e-004, -4.21801669e-005,
          -5.55706938e-005, -7.36479051e-005, -9.77508607e-005,
          -1.54263587e-004, -2.03766967e-006, 2.00843700e-004,
          -9.14169286e-005, -1.71061038e-004, -1.29131280e-004,
          -1.70729239e-004, -1.70729239e-004, -1.37922441e-004,
          -1.21853809e-004, -5.95247584e-005, 4.03572767e-006,
          1.99511123e-005, 4.13548332e-005, 1.00903326e-005,
          -1.56877039e-004, -9.59274475e-005, -1.39828539e-004,
          -1.70729239e-004, -1.70729239e-004, -1.22523343e-004,
          -1.30557659e-004, -1.12195405e-004, 9.46358068e-006,
          8.00275448e-005, 1.08547945e-004, 7.06816354e-005,
          -2.90449243e-004, -1.91593936e-004, -1.65043530e-004,
          -1.70729239e-004, -1.70729239e-004, -1.16176016e-004,
          -1.11859226e-004, -1.70982967e-005, 1.37187162e-004,
          7.53475542e-005, -4.14271235e-005, -9.69140019e-005,
          -3.95020579e-005, -3.65817759e-005, -1.63515346e-004,
          -2.56307365e-004, -3.27367772e-004, -3.47950816e-004,
          -2.30996433e-004, -1.27338557e-004, -6.70527152e-005,
          -8.65276979e-006, 4.38543575e-005, -5.42101086e-020,
          -5.42101086e-020, -2.67431642e-005, -1.75740788e-004,
          -3.12085962e-004, -3.04456247e-004, -1.97244284e-004,
          -5.62287241e-005, -1.01707279e-004, 2.98970153e-005,
          6.72332608e-005, 3.48882259e-006, -5.42101086e-020,
          -5.42101086e-020, -7.56449517e-005, -4.43172430e-005 ]
      - [ 0., -4.01802536e-005, -7.40350733e-005, 4.09431959e-005,
          1.22927144e-004, 3.10378935e-004, 1.29245629e-004,
          -7.27716688e-005, -2.55913124e-004, -2.34553285e-004,
          -4.29632055e-005, 7.55347719e-005, -2.47597258e-004,
          -2.76917970e-004, -2.57953303e-004, -7.57456291e-005,
          3.09249626e-005, 2.06452372e-004, 6.56551492e-005,
          -4.78296315e-005, -5.13687810e-005, 2.02495023e-004,
          2.86927796e-004, -1.82995791e-005, -2.76917970e-004,
          -1.30427943e-004, 1.79125873e-005, 9.40351947e-006,
          -8.62201850e-005, -1.01822559e-004, -2.22793358e-004,
          -2.33594794e-004, -9.20537514e-006, 6.84137240e-006,
          1.04345279e-004, 1.03990010e-006, -2.54368351e-004,
          1.47377854e-004, 3.95167415e-004, 3.69360991e-004,
          2.35119660e-004, 9.45217544e-005, 2.64170030e-005,
          -2.35296666e-005, 6.25577231e-005, -6.37365374e-005,
          -2.79319385e-004, -8.88764407e-005, -1.03462953e-005,
          1.20187018e-004, 2.97155144e-004, 2.80687294e-004,
          2.11971404e-004, 1.28525309e-004, -1.48252711e-005,
          -5.62747337e-005, 7.20615062e-005, -3.50728747e-004,
          -2.71381839e-004, -1.85433557e-004, -2.34282066e-004,
          -1.49464162e-004, -5.71901655e-005, -1.34832601e-006,
          2.57145846e-004, 2.79183383e-004, -5.77917162e-005,
          -1.14145871e-004, -1.19415810e-004, -3.12198972e-004,
          -1.42234858e-004, -2.00794908e-004, -2.76917970e-004,
          -2.76917970e-004, -2.22887611e-005, 5.29001118e-005,
          -6.86779531e-005, -1.35885581e-004, -3.18741550e-005,
          5.42516827e-005, -8.37835178e-005, -4.42113465e-004,
          -2.87456700e-004, -2.37003827e-004, -2.76917970e-004,
          -2.24405885e-004, 6.29195856e-005, -9.34224809e-005,
          -1.68795726e-004, 6.52995277e-006, 3.65748638e-005,
          -2.20906455e-004, -1.65064834e-004, -6.40712169e-005,
          -5.26562326e-005, -2.34809355e-004, -3.19990475e-004,
          -2.74999969e-004, -4.79653710e-004, -5.02416515e-004,
          -2.63411814e-004, -8.33375525e-005, -1.68052618e-004,
          -9.21681567e-005, 0., 0., -3.84033992e-005, -2.52365193e-004,
          -2.35201049e-004, -4.20061173e-004, -3.01515247e-004,
          -1.79965777e-004, 2.81707053e-005, 9.71116333e-006,
          -6.81025558e-005, 0., 0., 0., -1.08626758e-004,
          -6.36399200e-005 ]
      - [ 4.44840174e-004, 2.26448406e-004, 2.50572102e-005,
          -1.32192436e-004, -1.60206720e-004, -1.88221005e-004,
          -3.58834193e-004, -3.60943697e-004, -2.23238865e-004,
          -2.05729943e-004, -1.92598236e-004, -1.49701358e-004,
          1.85252007e-004, 4.59833172e-005, -9.70926558e-005,
          -2.23238865e-004, -2.23238865e-004, -2.23238865e-004,
          -3.95610201e-004, -5.06017997e-004, -3.50545801e-004,
          -2.15862179e-004, -1.63708508e-004, -9.54236748e-005,
          1.61614953e-004, 1.09890920e-004, 2.45944157e-005,
          -1.04178143e-004, -1.04178143e-004, -9.71745685e-005,
          -2.47659744e-004, -2.61322770e-004, -2.05372635e-004,
          -3.49620910e-004, -6.47045963e-005, 5.01443505e-018,
          1.61614953e-004, 1.43157886e-004, 1.26146217e-004,
          5.01443505e-018, 5.01443505e-018, 5.01443505e-018,
          -1.72371321e-004, -2.91662785e-004, -2.32533232e-004,
          -2.46431620e-004, -2.80582579e-004, -9.12554096e-005,
          1.61614953e-004, 1.33046124e-004, 1.65772712e-004,
          1.10951682e-004, 9.40203608e-005, 7.63947464e-005,
          -7.05241619e-005, -1.11161033e-004, -2.86771774e-005,
          -2.46535608e-004, -1.75426874e-004, -1.31003399e-004,
          1.79911061e-004, 1.74125031e-004, 8.92434837e-005,
          2.32681432e-005, 1.06693187e-004, 1.50825726e-004,
          1.14827577e-004, 4.44710713e-005, 2.15707478e-004,
          1.87718178e-004, 2.12991959e-004, 7.93840354e-006,
          1.61614953e-004, 4.59833172e-005, -1.79103299e-005,
          -1.62060198e-004, -1.42026634e-004, -9.78999669e-005,
          -2.13122083e-004, 1.97813526e-004, 3.26702022e-004,
          1.04731225e-004, 2.39091169e-004, 2.26801232e-004,
          1.61614953e-004, 4.59833172e-005, -2.98414798e-005,
          -1.77285838e-004, -7.31456021e-006, 5.91673997e-005,
          -1.25883700e-004, 2.22715491e-004, 2.79744330e-004,
          4.02775942e-004, 2.89185031e-004, 7.48188540e-006,
          3.54346339e-005, -1.75823676e-004, -3.02352768e-004,
          -2.63017515e-004, -8.45861650e-005, 6.23863962e-005,
          -3.16297555e-005, 1.90188919e-004, 9.00580199e-005,
          9.41288181e-006, -3.94313502e-005, -2.59120308e-004,
          -8.73079698e-005, -1.06340240e-005, 8.46143957e-005,
          -4.09360800e-005, -1.09198860e-004, -1.23472710e-004,
          -6.37917110e-005, 5.01443505e-018, 5.01443505e-018,
          5.01443505e-018, -1.11534384e-004, -6.53433817e-005 ]
      - [ 3.35471123e-004, 2.44799972e-004, 6.86514250e-005,
          -3.96610449e-005, -1.34482863e-004, -1.57998991e-004,
          -2.56521540e-004, -2.63190508e-004, -1.87394151e-004,
          -1.72696571e-004, -1.61673393e-004, -1.25664315e-004,
          1.45395563e-004, 8.45963295e-005, -4.59897019e-005,
          -1.15693678e-004, -1.87394151e-004, -1.87394151e-004,
          -2.85249582e-004, -3.47928231e-004, -2.59666471e-004,
          -1.80589646e-004, -1.37422379e-004, -8.01018177e-005,
          1.25553837e-004, 1.38242496e-004, 5.61584857e-005,
          -1.11930203e-005, -5.59375258e-005, -3.23944769e-005,
          -9.41914404e-005, -6.05956229e-005, -2.91296146e-005,
          -1.64429133e-004, 4.09128188e-005, 7.24179772e-005,
          1.25553837e-004, 2.10874074e-004, 2.87023198e-004,
          2.53241597e-004, 2.19889029e-004, 2.29104568e-004,
          1.23321297e-004, 5.88215808e-005, 8.02413560e-005,
          -5.62319037e-005, -3.87387990e-005, 7.28604718e-005,
          1.25553837e-004, 1.95956614e-004, 2.00081282e-004,
          1.46905513e-004, 7.11000393e-005, 1.85394256e-005,
          -8.93696342e-005, -4.03476988e-005, 8.89215153e-005,
          -1.15646537e-004, 3.70921261e-005, 1.17248739e-004,
          1.25553837e-004, 8.45963295e-005, -9.98063024e-006,
          -5.72887329e-005, -4.96477114e-005, 5.63965659e-006,
          -9.24901105e-005, -1.48518069e-004, 3.99581586e-005,
          -2.54888946e-005, 1.42478515e-004, 1.08294647e-004,
          1.25553837e-004, 1.28006199e-004, 1.58880590e-004,
          1.05295083e-004, 7.16796640e-005, 1.11528148e-004,
          5.58850370e-005, 1.39793832e-004, 2.21799099e-004,
          -4.04776511e-005, 6.47487250e-005, 8.71885713e-005,
          6.93406328e-005, 6.54516407e-005, 1.08829947e-004,
          7.28162340e-005, 5.80754458e-005, 2.58806667e-005,
          1.34668460e-006, 2.52175432e-005, 1.09805696e-004,
          1.46490085e-004, 2.31919024e-004, 1.34849804e-004,
          -1.58355761e-004, -2.17836510e-004, -2.41731745e-004,
          -2.70315824e-004, -2.66710325e-004, -2.20412941e-004,
          -1.71271357e-004, 1.63639070e-005, 1.59311050e-004,
          1.41404453e-004, 1.88106074e-004, 1.58719398e-004,
          -3.05716094e-004, -2.83803151e-004, -1.77789960e-004,
          -1.63092380e-004, -1.38148840e-004, -9.91345878e-005,
          -4.02934129e-005, 7.00884557e-005, 1.58916257e-004,
          1.41404453e-004, 1.38583811e-004, 2.25780444e-004 ]
      - [ 8.13151629e-020, -1.95411685e-005, 2.86332779e-005,
          -6.49872818e-005, -1.50067877e-004, -1.76309259e-004,
          -3.11693846e-004, -1.77075097e-004, 1.39459647e-004,
          8.90770389e-006, -1.80409465e-004, -1.40227363e-004,
          -1.86969817e-004, -1.81569892e-004, 1.00177058e-005,
          -7.28252198e-005, -2.05275894e-004, -2.09110978e-004,
          -3.44971108e-004, -2.92720477e-004, 3.91185131e-005,
          4.34154708e-006, -1.42007601e-004, -7.80442497e-005,
          -1.71039486e-004, -9.90258632e-005, 1.74626693e-004,
          2.24755524e-004, 3.94382078e-005, -8.30119370e-006,
          -1.00588732e-004, -3.94168055e-005, 2.00818395e-004,
          4.27169334e-006, 1.13517075e-004, 1.71112362e-004,
          -1.67691378e-005, 8.35874671e-005, 2.90970580e-004,
          4.32519882e-004, 3.18927370e-004, 2.70117889e-004,
          1.28940272e-004, 9.33039701e-005, 2.10081911e-004,
          1.25155624e-004, 5.91943062e-005, 2.18204106e-004,
          3.09656980e-006, 1.02676153e-004, 3.64731619e-004,
          2.55824736e-004, 1.08210043e-004, 5.19154310e-005,
          -1.09094610e-004, 2.96689063e-006, 2.10298531e-004,
          -1.03591643e-004, -1.53886824e-004, -1.02725673e-004,
          -1.45830752e-004, -1.23871680e-004, 1.25367311e-004,
          1.71888605e-004, 1.72393229e-005, -6.08988330e-006,
          -1.61557240e-004, -1.65912817e-004, 1.59133648e-004,
          1.82290642e-005, -1.54660866e-005, -4.38508905e-005,
          -5.33396305e-005, -4.10373832e-005, 1.34735237e-004,
          2.50431156e-004, 1.55972724e-004, 1.64833298e-004,
          1.04479986e-004, 2.09427904e-004, 3.50267772e-004,
          5.69322146e-005, 1.26926796e-004, 1.64661396e-004,
          8.30892168e-005, 1.04796978e-004, 2.70658376e-004,
          2.03824078e-004, 1.11488502e-004, 7.20902826e-005,
          -1.35377986e-005, 8.31149882e-005, 2.46167532e-004,
          1.65507518e-004, 2.57095089e-005, -1.46306702e-004,
          -1.88909748e-004, -2.43950315e-004, -7.00996170e-005,
          -7.34059140e-005, -2.65358074e-004, -2.90396885e-004,
          -2.35386076e-004, 5.22617884e-005, 3.33180011e-004,
          1.92437452e-004, -3.10791147e-005, -2.04234166e-004,
          -3.73386283e-004, -3.33243661e-004, 2.69172906e-005,
          9.47029039e-005, -1.20470104e-004, -1.37636074e-004,
          -5.59424043e-005, 4.81658062e-005, 1.38361283e-004,
          7.13324262e-005, -8.79094878e-005, -5.15025313e-005 ]
      - [ -6.77626358e-020, -3.68353540e-005, -9.85594597e-005,
          -1.35112554e-004, -4.69224760e-005, 1.49519328e-004,
          4.64687082e-006, -7.55559813e-005, -3.43749889e-005,
          -1.45244107e-004, -1.86071527e-004, -1.70239073e-004,
          -2.26985416e-004, -2.53865262e-004, -2.53865262e-004,
          -9.33243209e-005, 5.02742660e-005, 6.72364258e-005,
          -3.51737748e-004, -4.62423835e-004, -1.33518233e-005,
          -8.31534853e-005, -5.74114056e-005, -9.33075062e-005,
          -2.53865262e-004, -1.81190117e-004, -1.15483810e-004,
          1.19518227e-005, 5.46925330e-005, 2.11385443e-004,
          -3.72354916e-005, 1.23786856e-004, 1.45922444e-004,
          -2.82390916e-004, -9.95930714e-006, 1.01383046e-006,
          -2.53865262e-004, -1.11697205e-004, 1.34818882e-004,
          2.67493131e-004, 4.73910448e-004, 4.78890492e-004,
          2.41476402e-004, -1.55006463e-004, -1.96437701e-004,
          -2.66345189e-004, -3.40703729e-004, -1.13347749e-004,
          -9.99473632e-005, 1.87841550e-004, 3.53779964e-004,
          3.66579858e-004, 2.91860837e-004, 2.25459662e-004,
          3.63313193e-005, -2.04918178e-004, -3.72530922e-005,
          -2.64929258e-004, -1.76804213e-004, -1.94615423e-004,
          1.83895696e-004, 2.66773306e-004, 2.30259047e-005,
          1.41812037e-004, 2.43990522e-004, 2.35872852e-004,
          3.18162638e-005, -6.08836235e-005, -4.37136332e-005,
          -1.65007059e-005, 1.41235127e-004, 4.43827121e-005,
          5.64620950e-006, 2.78035513e-005, 2.85501028e-005,
          1.08461529e-004, 1.42659395e-004, -2.26439297e-005,
          -1.83077689e-004, 1.46796039e-004, 1.16020354e-004,
          -3.66960332e-004, 1.06689195e-005, 5.47694872e-005,
          -2.44912517e-004, -1.42991717e-004, 1.67450453e-005,
          -2.24880114e-005, -6.18547128e-005, -4.48310711e-005,
          -2.27946322e-004, -2.44917814e-004, 2.01689065e-004,
          3.74981028e-005, 1.13105380e-004, -2.26377757e-004,
          -4.05147875e-004, -4.53072338e-004, -3.94683506e-004,
          -1.80046991e-004, -1.07419808e-004, -8.73829194e-005,
          -1.98146314e-004, -3.03184970e-005, 2.90104072e-004,
          7.35704307e-005, -4.79635928e-005, -3.21851636e-004,
          -5.06311480e-004, -4.02294507e-004, -1.51518587e-004,
          -9.32770708e-005, -4.40396216e-005, 1.54372989e-004,
          1.67279941e-004, 2.87321658e-004, 9.56583026e-005,
          1.36867102e-005, -1.38536139e-004, -8.11625869e-005 ]
      - [ -7.62329653e-020, 2.68825061e-005, 7.59173854e-005,
          9.36508732e-005, 1.50855294e-005, -7.82214847e-005,
          -2.06112978e-004, -2.57612846e-004, -1.33963389e-004,
          -2.98262003e-005, -1.56397857e-006, -7.62329653e-020,
          -1.56397857e-006, -6.02131731e-005, -1.52421519e-004,
          -3.02087981e-004, -1.61136602e-004, 7.88444304e-005,
          1.82251577e-004, 1.06405947e-004, -7.96698878e-005,
          -9.26865177e-005, -4.41092607e-006, 7.36667926e-006,
          -4.84833326e-005, -1.18627606e-004, -2.82112160e-004,
          -2.59558146e-004, -1.02961691e-004, 2.06927885e-004,
          1.75678026e-004, 1.63658042e-004, 1.29298220e-004,
          9.41311664e-005, 1.70225510e-004, 9.51898110e-005,
          -1.60842770e-004, -1.61860575e-004, -1.34679853e-004,
          1.42711169e-005, 1.18788150e-004, 2.94662168e-004,
          1.81445415e-004, 1.63658042e-004, 1.39235839e-004,
          2.74526847e-005, -9.18289734e-005, -7.16496070e-005,
          -1.69634819e-004, -3.70363705e-005, 2.76506544e-005,
          1.36320668e-004, 1.63658042e-004, 1.63658042e-004,
          1.10966896e-004, 3.51208982e-005, -1.03669096e-004,
          -2.67634110e-004, -3.48034169e-004, -3.29725677e-004,
          -2.07042263e-004, -2.52099213e-004, -1.31766210e-004,
          5.54851431e-005, 1.48604682e-004, 1.74646149e-004,
          4.18226482e-005, -1.20313431e-004, -1.69701481e-004,
          -2.47144722e-004, -3.48034169e-004, -2.88888230e-004,
          -4.26454244e-005, -7.52718770e-005, -7.09736996e-005,
          -2.07719822e-005, 3.33052922e-005, 2.52297963e-004,
          3.56857607e-004, 1.66269165e-004, -7.13212694e-006,
          -1.49032756e-004, -1.51581145e-004, -6.72732640e-005,
          3.38051876e-004, 2.83723872e-004, 1.11519810e-004,
          9.04818080e-005, 1.37094452e-004, 1.53108005e-004,
          1.94087130e-004, 3.88825174e-005, -7.04064078e-005,
          -4.99473063e-005, 8.51359582e-005, 9.80442128e-005,
          2.15683845e-004, 3.17345781e-004, 2.78225285e-004,
          4.05700812e-005, -8.92043754e-005, -1.61081320e-004,
          -1.63829667e-004, -2.37938293e-004, -2.95868958e-004,
          -1.27422973e-004, 5.20903850e-005, 8.75256501e-006,
          -4.24193131e-005, 7.45897269e-005, 8.35378378e-005,
          1.09890461e-004, -1.11642266e-005, -1.06336534e-004,
          -2.09938647e-004, -1.81971904e-004, -1.32382847e-004,
          -1.13810085e-004, -6.09447852e-005, -6.09447852e-005 ]
      - [ 3.73565963e-005, 2.26057877e-004, 2.76381179e-004,
          1.86088611e-004, -2.94043639e-005, -1.17086900e-004,
          -1.58448223e-004, -2.09986785e-004, -1.15069641e-004,
          -3.99362543e-005, 9.56109488e-007, 6.09903645e-006,
          3.28178343e-004, 2.49675504e-004, 1.55353686e-004,
          8.11143036e-005, 2.13415566e-004, 1.46418388e-004,
          7.19320269e-006, -9.11737297e-005, -2.15463850e-004,
          -6.73145332e-005, 1.83283453e-004, 1.93972897e-004,
          1.15025905e-004, 1.04276252e-004, 8.18710905e-005,
          1.53621164e-004, 2.84739217e-004, 1.81554467e-004,
          1.15956216e-004, 1.10380744e-004, 1.24158949e-004,
          9.45259599e-005, 1.28435888e-004, -3.66876266e-005,
          -1.37195428e-004, -8.41148139e-005, -7.05539351e-005,
          2.35112366e-005, 1.22986356e-004, 1.22052006e-004,
          5.02961993e-005, 1.79674971e-005, 1.81821830e-004,
          4.90125531e-005, -1.37346564e-004, -1.47868734e-004,
          -2.26039134e-004, -2.26039134e-004, -2.06237281e-004,
          -1.42066041e-004, -9.25843269e-005, -9.25843269e-005,
          -8.49605349e-005, 5.07391051e-005, 1.85309676e-004,
          -9.48812958e-005, -2.55925435e-004, -2.26039134e-004,
          -1.99228933e-004, -2.05434510e-004, -2.06237281e-004,
          -1.42066041e-004, -8.96668644e-005, -6.99111843e-005,
          5.81129316e-005, 1.83429220e-004, 1.90803785e-005,
          -1.79597089e-004, -2.35320811e-004, -1.99228933e-004,
          -1.15137474e-004, -1.54484820e-004, -2.26275690e-004,
          -1.57379342e-004, -6.92369649e-005, 6.05137720e-005,
          2.13518768e-004, 1.15216004e-004, -2.41669422e-005,
          -2.50722223e-004, -1.80910414e-004, -1.15137474e-004,
          -2.19807916e-005, -1.24980157e-004, -2.10762184e-004,
          -2.02877156e-004, 3.74332171e-006, 1.91826213e-004,
          1.42076067e-004, 4.43441386e-005, -1.78937567e-004,
          -2.74520775e-004, -1.24980157e-004, -2.19807916e-005,
          1.62630326e-019, -3.14011304e-005, -1.24560058e-004,
          -1.28198953e-004, 6.20373794e-006, 3.60215417e-005,
          9.76260999e-005, -3.15100660e-005, -2.37127504e-004,
          -1.83754833e-004, -3.14011304e-005, 1.62630326e-019,
          -8.32083460e-005, -8.32083460e-005, -1.52975670e-004,
