%YAML:1.0
my_svm: !!opencv-ml-svm
   svm_type: C_SVC
   kernel: { type:LINEAR }
   C: 1.
   term_criteria: { epsilon:2.2204460492503131e-016, iterations:300 }
   var_all: 120
   var_count: 120
   class_count: 12
   class_labels: !!opencv-matrix
      rows: 1
      cols: 12
      dt: i
      data: [ 0, 1, 2, 4, 5, 6, 7, 8, 10, 11, 12, 13 ]
   sv_total: 66
   support_vectors:
      - [ -6.55693701e-004, -6.55675714e-004, -8.20749730e-004,
          1.15049386e-003, 5.79550455e-004, -7.78712565e-004,
          -1.80727872e-003, -6.01023016e-003, -5.97213022e-003,
          3.94056085e-004, -1.14224828e-003, -5.02468261e-004,
          1.04626047e-003, 7.30363594e-004, -4.02640173e-004,
          -1.42295391e-003, -1.81366433e-003, -5.64675021e-004,
          -1.33111246e-003, -3.20114614e-003, -1.35524955e-003,
          3.04906955e-003, 1.61310914e-003, 1.04222877e-003,
          -4.20079945e-004, -1.74561050e-004, -9.61589569e-004,
          -3.89836868e-003, -3.16154188e-003, 1.39520958e-003,
          3.14470450e-003, 2.73297774e-003, 1.57191197e-003,
          7.71617342e-004, -2.80488661e-004, 4.01953381e-004,
          -1.73840715e-004, 3.23746877e-004, -3.62241299e-005,
          -6.57379394e-004, -1.41806877e-003, -5.56892890e-004,
          1.98246897e-004, 5.21878770e-004, 9.54482646e-004,
          1.51890621e-004, 1.10340829e-004, 5.71317854e-004,
          -5.20838832e-004, -9.87489670e-007, 4.83268814e-005,
          1.19323871e-004, 1.46365768e-004, 6.61006707e-005,
          4.87890978e-018, -1.61804492e-005, 3.87582928e-004,
          -1.60106370e-004, -2.36657273e-004, 2.24319723e-004,
          -5.20838832e-004, -9.87489670e-007, 4.83268814e-005,
          1.30906510e-005, 4.87890978e-018, 4.87890978e-018,
          -2.18577225e-006, -2.19807462e-005, 3.58410878e-004,
          -2.31579470e-004, -2.36657273e-004, 2.24319723e-004,
          6.24850625e-004, 8.40374210e-004, 7.91720347e-004,
          4.11142595e-004, -1.31538181e-004, -7.99931586e-004,
          4.61604941e-004, 2.28103437e-003, 2.94641987e-003,
          -1.93205301e-003, 3.21587904e-005, 1.15802430e-003,
          -1.38485676e-003, -1.19167892e-003, -3.71858914e-005,
          9.87408333e-004, 1.20441383e-003, 1.02209894e-003,
          4.59300645e-004, -8.14925821e-004, -1.14310614e-003,
          -5.87331713e-004, -1.30429689e-003, -5.64019487e-004,
          4.65279445e-004, 2.27068849e-005, 2.02534284e-004,
          1.31302295e-004, -1.80093374e-003, -2.88899732e-003,
          -2.63807666e-003, -1.44702545e-003, 1.93245674e-003,
          5.20660076e-004, -1.85540775e-004, 9.16946621e-004,
          1.26277900e-003, -1.95142580e-004, 6.00458006e-004,
          -5.77633176e-003, -6.86937058e-003, -3.94788431e-003,
          -1.17343513e-003, 4.23567632e-004, 7.07379368e-004,
          -1.06687122e-003, -3.67284054e-004, -1.15958333e-003 ]
      - [ 4.28627172e-005, -8.09645164e-004, -1.63081684e-003,
          6.34301396e-004, 1.88351329e-003, -2.67856638e-003,
          1.46717008e-004, 1.05735264e-003, 9.87185631e-004,
          -5.51933881e-005, -3.24181188e-003, 4.67661332e-004,
          -2.07812802e-004, 4.90007922e-004, 1.46475772e-003,
          9.36287921e-004, 9.36287921e-004, 9.36287921e-004,
          1.00815296e-003, 1.13835558e-003, 8.90103052e-004,
          5.30566263e-004, 2.71834107e-003, 2.40610749e-003,
          2.79251020e-004, 3.70622776e-003, -1.65772717e-003,
          3.23782349e-003, 2.07711314e-003, -2.14007939e-003,
          1.03824807e-003, 8.66818335e-003, 3.05577950e-003,
          7.21463293e-004, -6.89928362e-004, -1.17531628e-003,
          -5.04109310e-004, -5.23512310e-004, -2.88881187e-004,
          -8.16551968e-004, -8.63815134e-004, -8.61902314e-004,
          2.06951838e-004, 9.61367972e-004, 2.46767141e-003,
          5.94923564e-004, 2.51782546e-003, -4.36593342e-004,
          -1.51612156e-004, -3.41628969e-004, -2.85997259e-004,
          -2.51344463e-004, -2.08256330e-004, -2.08256330e-004,
          4.91886349e-005, 2.60399329e-003, 5.46332798e-004,
          -2.67916854e-004, 2.40082736e-003, 3.08958581e-004,
          -7.18810770e-004, -9.49538022e-004, -2.44779862e-004,
          -7.45386933e-004, -7.75454915e-004, -7.23740901e-004,
          1.13849749e-003, 2.27878732e-003, 8.00118316e-004,
          1.72896936e-004, 1.12629874e-004, -6.27892674e-004,
          5.66441813e-005, -1.73937908e-004, -8.08220648e-005,
          9.64417821e-004, 2.69676768e-003, 3.70900519e-003,
          1.30641056e-004, 7.56544527e-004, 4.83492529e-003,
          1.40542467e-003, -1.72224158e-004, -4.87783196e-004,
          3.02071101e-004, -4.95807407e-003, -1.29323406e-003,
          -4.07240447e-003, -1.31575728e-003, 6.51080685e-004,
          5.17059676e-003, 1.90743862e-003, -1.05102966e-003,
          -1.05118298e-003, -5.57171705e-004, -3.86318017e-004,
          7.46990554e-004, 9.90847009e-004, 5.13493642e-003,
          8.56014341e-003, 5.93808340e-003, 2.26323376e-003,
          -9.65033949e-004, -1.13497360e-003, -1.08527089e-003,
          -6.69371453e-004, -2.97509279e-004, -9.10729825e-018,
          -5.42257621e-005, 5.97765064e-003, 2.49241176e-003,
          -9.98119125e-004, -1.01407128e-003, -1.07494520e-003,
          -1.14765577e-003, -1.15188304e-003, -7.94652558e-004,
          -4.52196080e-004, -4.43315221e-004, -3.42248532e-004 ]
      - [ -8.71473276e-006, 2.10921571e-005, 3.29219874e-005,
          -5.33680322e-005, -1.71752123e-004, -2.00375420e-004,
          1.26647181e-004, 1.72756307e-004, -9.59660902e-005,
          -3.21395055e-004, -2.51767487e-005, 5.13458799e-005,
          2.47070595e-004, 1.13605522e-004, -7.46652440e-005,
          -8.28079719e-005, -8.36289255e-005, -8.36289255e-005,
          2.81578832e-004, 5.21243142e-004, 1.80262141e-004,
          -2.48333468e-004, -1.12813221e-004, -1.09891851e-004,
          1.71728971e-004, -8.30595454e-005, -2.89109565e-004,
          -1.34744667e-004, -1.37107068e-004, -1.66399375e-004,
          1.36393952e-004, 2.32782550e-004, 1.43218247e-004,
          5.20886155e-004, -1.95950677e-004, -3.23455402e-004,
          1.54768786e-004, -9.87344756e-005, -3.89051187e-004,
          -1.53132045e-004, -1.53132045e-004, -1.53132045e-004,
          2.11258695e-004, 3.99768905e-004, 4.05171246e-004,
          4.82252304e-004, 4.19095333e-004, -1.15896051e-004,
          1.78975955e-004, 9.16212593e-006, -1.12125170e-004,
          2.13978055e-004, 3.12839547e-004, 4.44654870e-004,
          7.90737919e-004, 7.94837601e-004, 2.58689543e-004,
          7.18785799e-004, 3.73766059e-004, 1.17895339e-004,
          1.43827492e-004, 3.20704828e-004, 4.14522045e-004,
          5.54662256e-004, 2.17800887e-004, 9.09329174e-006,
          4.76007059e-004, 8.95287259e-004, 2.44718540e-004,
          4.60578303e-004, 2.04671887e-005, 1.16089832e-004,
          2.55564926e-004, 3.81906226e-004, 3.09558993e-004,
          5.65542898e-004, 4.62273980e-004, 2.57841923e-004,
          2.99533422e-004, -1.15982744e-004, -2.61977199e-004,
          7.81287439e-004, 5.29596175e-004, 3.06421338e-004,
          1.98259586e-004, 1.61563003e-004, -1.45239726e-004,
          -6.06827271e-005, -1.88407328e-004, -1.89879371e-004,
          -1.19694305e-004, 1.68074926e-004, 4.97357396e-005,
          -2.64697446e-004, -1.31106121e-004, 3.42290936e-004,
          2.50837300e-004, 2.82777532e-004, 4.45823767e-004,
          7.11512577e-004, 5.56172337e-004, 3.80355283e-004,
          1.41798184e-004, -3.07018869e-004, -4.86686040e-004,
          -3.19774292e-004, -1.00482423e-004, 4.83854092e-004,
          4.72227199e-004, 2.44559924e-004, -7.06686988e-005,
          1.18564894e-004, 7.35746653e-006, -1.26163373e-004,
          -3.27555725e-004, -4.42404678e-004, -2.66228366e-004,
          -1.23663558e-004, 1.15462761e-004, 4.52827953e-005 ]
      - [ 3.41876294e-004, 3.35324992e-004, 3.55393451e-004,
          3.25041008e-004, 4.81365103e-004, 2.02741678e-004,
          1.14943607e-004, 3.50195798e-004, 3.41331615e-005,
          -4.55864472e-004, -1.36376722e-004, 8.17907585e-006,
          -1.08494962e-004, 1.99214017e-004, 3.36510391e-004,
          4.43911005e-004, -2.85130314e-004, -6.53009221e-004,
          -4.77857247e-004, -3.68153764e-004, 4.18071199e-004,
          1.22625541e-004, -1.31740244e-005, -3.85604682e-004,
          4.68454418e-005, 2.64460366e-004, 5.00138325e-004,
          4.16360126e-004, -3.16222955e-004, -4.44157049e-004,
          -3.60087899e-004, 2.20766433e-005, 2.79466825e-004,
          3.09720082e-004, 1.98334470e-004, -1.12625508e-004,
          4.56877286e-004, 3.88257555e-004, 4.38953692e-004,
          4.33013571e-004, -1.93785556e-004, -2.30778547e-004,
          -2.30778547e-004, 6.34634343e-005, 1.92304462e-004,
          2.63753609e-004, 4.08305263e-004, 3.17792699e-004,
          4.79406619e-004, 4.16098017e-004, 3.90174857e-004,
          4.33011679e-004, -1.55099115e-004, -1.55099115e-004,
          -1.55099115e-004, 2.83244517e-005, 2.10909580e-004,
          3.60487989e-004, 4.49331070e-004, 3.40322003e-004,
          4.31211316e-004, 3.87922308e-004, 3.77243996e-004,
          4.22223820e-004, -1.30849803e-004, -2.03294403e-004,
          -2.03294403e-004, -1.29468986e-004, 1.62714306e-004,
          3.13673518e-004, 4.01135796e-004, 2.92126730e-004,
          5.25800628e-004, 3.82347411e-004, 5.56222280e-004,
          6.41736086e-004, 2.83384798e-005, -1.84735647e-004,
          -2.04207652e-004, -8.11415739e-005, 3.04019690e-004,
          6.61351776e-004, 5.49638877e-004, 3.86716041e-004,
          -1.57337301e-004, 6.16207471e-005, 1.23667429e-004,
          5.96989470e-004, -4.03593440e-005, -4.52300999e-004,
          -4.63262928e-004, -2.28109493e-004, 4.10282810e-004,
          6.65597152e-004, 2.59987253e-004, -2.20935486e-004,
          -3.44422093e-004, -4.49522253e-004, -3.32240394e-004,
          4.38684452e-004, 1.39918833e-004, -3.45459644e-004,
          -4.97316010e-004, -1.24237422e-005, 4.87285171e-004,
          3.20726976e-004, -6.19072889e-005, -1.08887973e-004,
          8.98818325e-005, -3.42714920e-004, -3.26482870e-004,
          8.82067343e-006, -7.92416322e-005, 7.06849678e-005,
          1.52367997e-004, 1.43565325e-004, 3.95141513e-004,
          6.61680126e-004, 3.42133164e-004, 3.89828201e-004 ]
      - [ 4.06575815e-020, 2.44811526e-005, 1.28876374e-004,
          1.87564074e-004, 1.35493421e-004, -1.62167253e-005,
          -1.74796907e-004, -2.32895647e-004, -2.24815129e-004,
          -2.76055973e-004, -1.23096717e-004, -1.08592816e-004,
          -5.09930805e-006, -7.70516926e-005, -2.06133176e-004,
          -2.33475672e-004, -1.46058257e-004, 6.48757195e-005,
          1.94914857e-004, 1.12204201e-004, -1.46496359e-005,
          -2.28615303e-004, -1.36713672e-004, -1.99239512e-004,
          -1.77390306e-004, -1.92940322e-004, -2.38796798e-004,
          -2.07977253e-004, -6.49466820e-005, 6.21633444e-005,
          2.16081069e-004, 2.16081069e-004, 2.16081069e-004,
          1.58060910e-004, 8.12811049e-005, -8.05589880e-005,
          -1.20507975e-004, -7.22643090e-005, -5.97235339e-005,
          1.63504155e-004, 2.44042036e-004, 3.07362381e-004,
          3.09119438e-004, 3.07507289e-004, 2.84066948e-004,
          1.78301401e-004, 1.06933425e-004, -3.30251933e-005,
          1.77378161e-006, 2.01191477e-004, 2.40819732e-004,
          3.99832265e-004, 4.08927997e-004, 4.05703671e-004,
          3.23360902e-004, 1.87854690e-004, 7.46234073e-005,
          -6.27397967e-005, -6.52339295e-005, -1.08644810e-004,
          -1.27118896e-004, -4.90641396e-005, 9.49266978e-005,
          3.32304102e-004, 3.78643046e-004, 3.70338617e-004,
          1.55408576e-004, 3.18637285e-005, 9.39442907e-006,
          -9.19690065e-005, -1.20000332e-004, -1.59018557e-004,
          -5.79755542e-005, 5.52920101e-005, 6.21419531e-005,
          1.91355066e-004, 1.89117854e-004, 2.73847400e-004,
          2.82992958e-004, 1.46215825e-004, 6.01201973e-005,
          -1.95531247e-005, -2.36051073e-005, -7.90416598e-005,
          2.38781387e-004, 2.47859280e-004, 1.96351248e-004,
          2.40980997e-004, 2.00609080e-004, 1.31017456e-004,
          8.43923262e-005, 5.06877695e-005, 4.70803316e-005,
          3.07812334e-005, 2.47470653e-005, -2.14298107e-005,
          -4.31899753e-006, 1.55053975e-004, 1.35154114e-004,
          1.77563270e-004, -4.39872474e-006, -1.51569329e-004,
          -2.06383003e-004, -1.98915484e-004, -1.79713403e-004,
          -1.11085355e-004, -2.36827473e-005, -5.44338081e-006,
          -1.26195679e-004, -3.65595151e-005, -1.53823985e-005,
          7.72562998e-006, -3.27660782e-005, 5.98669021e-006,
          -8.12838407e-005, -7.75795852e-005, -4.89710364e-005,
          -4.50549896e-006, 4.06575815e-020, 4.06575815e-020 ]
      - [ 1.05555468e-004, 3.20821971e-004, 3.69691319e-004,
          3.21779953e-004, 4.40582226e-005, -2.77506944e-004,
          -3.58346646e-004, -5.03490213e-004, -4.48189734e-004,
          -4.61597287e-004, -2.65547569e-004, 1.24663464e-004,
          4.02968784e-004, 2.99452367e-004, 3.10809963e-004,
          2.33683139e-004, 1.46909777e-004, -5.50790792e-005,
          -3.94742150e-004, -5.06415672e-004, -4.43973782e-004,
          -3.09884868e-004, 1.28686894e-004, 1.08499706e-004,
          2.23751354e-004, 3.00333922e-004, 3.01329390e-004,
          2.96640792e-004, 2.31648795e-004, -3.85203793e-006,
          -4.52686181e-005, -2.50507001e-005, 2.25058509e-004,
          3.03369045e-004, 2.64938571e-004, 1.32137266e-005,
          -1.33657202e-004, 1.12632493e-004, 1.16239557e-004,
          2.34068488e-004, 1.95838918e-004, 1.35152266e-004,
          8.76017657e-005, 2.16143482e-004, 5.35255065e-004,
          2.29748592e-004, 1.50152846e-004, 6.05377636e-006,
          -2.63569411e-004, -1.65100500e-004, -9.62581835e-005,
          1.93463275e-004, 1.93463275e-004, 1.93463275e-004,
          2.23725627e-004, 3.43329302e-004, 4.96324908e-004,
          2.44109557e-004, 3.82590442e-005, -2.33112205e-005,
          -2.40258203e-004, -1.48885549e-004, -1.55581060e-004,
          -5.42101086e-020, -5.42101086e-020, -5.42101086e-020,
          3.50877875e-004, 3.62849212e-004, 3.98389617e-004,
          4.20015822e-005, -8.90159572e-005, -5.42101086e-020,
          -2.54461716e-004, -1.63089077e-004, -1.69784587e-004,
          -1.64682260e-005, -2.81056782e-005, 1.42750112e-004,
          9.82244746e-005, 2.51085701e-004, 2.32690101e-004,
          -1.46406543e-004, -9.83370192e-005, -1.42035242e-005,
          -2.65547365e-004, -1.78326678e-004, -2.05058168e-004,
          -1.22338170e-004, 7.11019384e-005, 1.24265352e-004,
          1.52447377e-004, 1.97792542e-004, -1.61243661e-004,
          -1.88627091e-004, -1.10153167e-004, -2.94411184e-005,
          -2.94471451e-004, -2.07628211e-004, -3.38096404e-004,
          6.32866249e-006, -1.19146251e-004, -3.92207476e-005,
          1.76041649e-004, 9.72549460e-005, -2.86625931e-004,
          -2.10180457e-004, -1.15891286e-004, -5.87426512e-005,
          -2.71659112e-004, -1.80830903e-004, -3.02150322e-004,
          -2.16131320e-005, -2.29334226e-004, 4.75235101e-005,
          4.14617243e-005, -2.06509721e-004, -1.52957829e-004,
          -8.03557923e-005, -3.58395191e-005, -3.12227421e-005 ]
      - [ -4.19562048e-006, -6.67255290e-006, -8.03963303e-006,
          1.08696411e-004, 1.23604492e-004, 3.55390133e-004,
          8.00987618e-005, -3.60230682e-004, -8.02900991e-004,
          -6.19837490e-004, 1.73029272e-004, 4.17114556e-004,
          -1.19227698e-004, -2.80004984e-004, -6.54286472e-004,
          -4.16125753e-004, -1.78297036e-004, 2.26313932e-004,
          2.30695601e-004, 1.14167255e-004, -4.24090686e-005,
          2.42657887e-004, 4.67973703e-004, -2.12943210e-004,
          -2.49580917e-004, -2.23261741e-004, -3.45349312e-004,
          -1.51467058e-004, -3.65564891e-004, -4.66452650e-004,
          -4.51079337e-004, -3.74556257e-004, 7.78200992e-005,
          3.06824280e-004, -3.98296688e-005, -1.72703221e-004,
          -2.84874113e-004, 1.99552946e-004, 1.62955563e-004,
          3.52074188e-004, 2.46854499e-004, -8.74897523e-005,
          1.27675215e-004, 3.18915671e-004, 2.22189061e-004,
          2.07969453e-004, -1.51260465e-004, -8.30628051e-005,
          1.17946984e-004, 2.53880920e-004, 1.92654421e-004,
          4.95082233e-004, 3.11418669e-004, 5.03928517e-004,
          6.15899509e-004, 4.29691252e-004, 4.04287828e-004,
          -5.53365935e-005, -1.61345612e-004, -7.57540547e-005,
          -2.55543215e-004, -1.74315675e-004, -2.49425939e-004,
          9.24022534e-005, 5.49192133e-004, 5.70808304e-004,
          9.23120460e-005, 3.50026210e-004, 1.57554881e-004,
          -1.84458768e-004, -1.68654355e-004, -8.30628051e-005,
          -2.09025355e-004, -2.84342270e-004, -1.09497538e-004,
          4.49712592e-004, 2.99172010e-004, -3.66135064e-005,
          1.78758244e-004, 3.78317956e-004, -1.02247241e-005,
          -1.29408858e-004, -1.00669196e-004, -2.29754551e-005,
          -2.06588811e-004, -1.74257177e-004, 4.99768757e-005,
          9.06045680e-005, -7.35369977e-005, 3.51666458e-005,
          3.27969145e-004, -2.28164336e-005, -1.16105221e-004,
          -1.19542572e-004, -1.02758408e-004, -2.39109722e-005,
          -6.64285108e-005, 1.91282714e-004, -4.12405381e-004,
          -3.11028765e-004, -1.80618299e-004, 1.52222303e-004,
          -2.79679025e-005, -2.67374155e-004, -2.73650279e-004,
          -2.53204926e-004, -1.43202327e-004, -5.91750795e-005,
          3.64972773e-004, -1.82744829e-004, -5.58421598e-004,
          -3.08498013e-004, -1.99937960e-004, 3.64710540e-005,
          -2.39046334e-004, -2.17759021e-004, -1.52241249e-004,
          -9.15021665e-005, -1.45137501e-005, -5.50012328e-006 ]
      - [ 4.61574760e-004, 1.43577781e-004, -1.64059631e-004,
          -2.80175824e-004, -3.14951234e-004, -3.42452578e-004,
          -3.49275710e-004, -3.49997194e-004, -3.50444316e-004,
          -4.14462178e-004, -3.52766394e-004, -3.50760849e-004,
          2.15882930e-004, 1.01758982e-004, -6.68163702e-005,
          -1.78161688e-004, -1.78161688e-004, -1.78161688e-004,
          -1.78161688e-004, -1.78161688e-004, -1.35961222e-004,
          -1.46201637e-004, -8.67581402e-005, -1.71231237e-004,
          2.04339449e-004, 1.35007707e-004, 8.32982405e-005,
          -2.29967955e-005, -2.29967955e-005, -2.29967955e-005,
          -2.29967955e-005, -2.29967955e-005, -2.69610991e-005,
          -1.13610418e-004, -9.06272908e-005, -1.82774718e-004,
          2.12997067e-004, 1.43124227e-004, 8.32982405e-005,
          -4.77972617e-006, -2.88587239e-006, -2.88587239e-006,
          -2.88587239e-006, -2.88587239e-006, -6.85017585e-006,
          -1.01345460e-004, -8.19696725e-005, -1.74117100e-004,
          2.15882930e-004, 1.52997323e-004, 1.33244408e-004,
          8.01841161e-005, 8.24387025e-005, 8.24387025e-005,
          8.24387025e-005, 6.86329004e-005, 2.55378418e-005,
          -8.43805101e-005, -7.84904041e-005, -1.71231237e-004,
          2.15878928e-004, 2.39648376e-004, 2.43772636e-004,
          2.08809157e-004, 2.75963568e-004, 2.68633739e-004,
          4.04315768e-004, 5.43991511e-004, 5.39924367e-004,
          3.49994312e-004, 2.33296349e-004, -8.70032527e-005,
          2.10021055e-004, 1.33809866e-004, 5.73123289e-005,
          -8.60289583e-005, -1.12092595e-004, -1.31874534e-004,
          -1.48728126e-004, 9.97835086e-005, 4.58975846e-004,
          4.44087491e-004, 5.18837129e-004, 4.11662942e-004,
          1.83185170e-004, 1.30621311e-005, -1.34116810e-004,
          -2.76895560e-004, -1.88233316e-004, -1.16856740e-004,
          -1.51854125e-004, 2.40278285e-004, 3.75256233e-004,
          3.03508918e-004, 2.21996801e-004, 1.44524665e-005,
          2.79004089e-005, -6.86915591e-005, -1.47933839e-004,
          -8.50991491e-005, 8.33648737e-005, 1.79006820e-004,
          4.09635977e-005, 3.75560739e-005, -1.58129347e-004,
          -2.52138241e-004, -1.49164392e-004, -4.29168394e-005,
          1.28372951e-004, 1.44766702e-004, 9.12217001e-005,
          -1.03944447e-004, -2.52039084e-004, -3.25595029e-004,
          -3.15423444e-004, -1.99375456e-004, -1.51267217e-004,
          -7.58645911e-005, -5.34554420e-005, -5.29432436e-005 ]
      - [ 3.76663636e-004, 2.68771983e-004, 6.16208999e-005,
          -3.91848844e-005, -2.03547228e-004, -2.44512921e-004,
          -2.52353144e-004, -2.52353144e-004, -2.44388939e-004,
          -2.56678846e-004, -2.09442383e-004, -2.00923329e-004,
          2.59613065e-004, 1.56188995e-004, -4.41888151e-005,
          -1.03372891e-004, -2.00514798e-004, -2.00514798e-004,
          -2.00514798e-004, -2.00514798e-004, -1.81706782e-004,
          -1.75300767e-004, -2.08048135e-004, -2.48819706e-004,
          1.99532238e-004, 1.47939019e-004, 8.01512124e-006,
          -2.89833515e-005, -5.96711507e-005, -3.58562829e-005,
          -1.42136332e-006, 6.41976876e-005, 6.72624446e-005,
          -2.39531528e-005, -4.87510588e-005, -6.78305732e-005,
          1.60422336e-004, 1.91635161e-004, 2.11103034e-004,
          2.22005998e-004, 2.04770331e-004, 2.18226603e-004,
          2.04036493e-004, 2.09007107e-004, 2.19573849e-004,
          9.14755874e-005, 7.82903808e-005, 2.79085398e-005,
          1.93306812e-004, 2.33816827e-004, 2.27228098e-004,
          1.92059277e-004, 1.22556681e-004, 8.55906037e-005,
          6.63828105e-005, 1.62232463e-004, 2.17535984e-004,
          8.31329962e-005, 1.40433185e-004, 1.34890783e-004,
          1.60422336e-004, 1.62120006e-004, 9.13273325e-005,
          3.68205292e-005, -6.85732402e-006, 1.42897352e-005,
          4.43293757e-005, 1.05040366e-004, 1.89966871e-004,
          9.83873106e-005, 1.42617355e-004, 1.02006306e-004,
          1.82221469e-004, 2.17184090e-004, 2.59680062e-004,
          2.46530020e-004, 1.94828666e-004, 1.99151458e-004,
          1.90867213e-004, 1.83531360e-004, 2.02347175e-004,
          1.03006561e-004, 1.38055577e-004, 1.18433403e-004,
          7.91955899e-005, 3.52406205e-005, 7.72796993e-005,
          7.78831818e-005, 3.89264605e-005, 1.49115397e-006,
          -1.48014406e-005, 7.27916777e-005, 1.14012066e-004,
          3.89036140e-005, 1.75587469e-004, 2.24116797e-004,
          -2.63005262e-004, -2.41160102e-004, -1.39733020e-004,
          -1.45482249e-004, -1.81530064e-004, -1.81530064e-004,
          -1.81530064e-004, -7.09146771e-005, 1.88509493e-005,
          -1.80296665e-005, 1.42830002e-004, 3.48265981e-004,
          -1.98053895e-004, -2.25653581e-004, -2.16216140e-004,
          -1.88531340e-004, -1.90135790e-004, -1.90135790e-004,
          -1.75244568e-004, 1.59821302e-005, 1.32016503e-004,
          1.23863603e-004, 2.19351787e-004, 2.98102415e-004 ]
      - [ -1.02990889e-005, -1.25259194e-005, 1.35717011e-004,
          -3.03013949e-005, -2.12216852e-004, -2.92974408e-004,
          -3.10409319e-004, -1.72340078e-004, 1.66281825e-004,
          -1.28514701e-004, -1.73198030e-004, -1.84802557e-004,
          -7.29564999e-005, -1.48142470e-004, 3.45116023e-005,
          -1.47419894e-004, -2.64527684e-004, -3.12606280e-004,
          -3.16671532e-004, -1.70851083e-004, 1.70241663e-004,
          -1.47759725e-004, -2.73677550e-004, -3.02916684e-004,
          -1.07972301e-004, -1.36190065e-004, 7.68965619e-005,
          1.38903531e-004, -6.23990491e-005, -1.53086075e-004,
          -8.04509982e-005, 4.42680466e-005, 3.27816262e-004,
          9.73142596e-005, -1.31624201e-005, 1.38054320e-005,
          1.31801091e-004, 1.33864494e-004, 1.48881038e-004,
          4.01569094e-004, 3.21412517e-004, 2.45560863e-004,
          2.47235614e-004, 2.78756110e-004, 3.73952877e-004,
          2.51883845e-004, 2.06170749e-004, 1.76076253e-004,
          1.68244267e-004, 1.45838538e-004, 3.11037555e-004,
          3.10073694e-004, 2.26250530e-004, 1.50460619e-004,
          1.11313813e-004, 2.42591414e-004, 4.52239008e-004,
          9.00808373e-005, -5.44790746e-005, -1.28837535e-004,
          -7.04780541e-005, -5.49859906e-005, 2.03119474e-004,
          3.22452426e-004, 1.06195374e-004, -9.45918327e-006,
          -3.63381878e-006, 1.28088184e-004, 4.51598113e-004,
          1.34516507e-004, -8.02024078e-006, -3.54946205e-005,
          1.18798351e-004, 1.29114269e-004, 1.87800455e-004,
          4.55057831e-004, 3.16024700e-004, 2.40125868e-004,
          2.83900823e-004, 2.74964201e-004, 3.40833998e-004,
          2.99153879e-004, 3.48936388e-004, 3.48247413e-004,
          2.43930699e-004, 1.63615550e-004, 1.44048812e-004,
          1.24619764e-004, 6.45458058e-005, -4.77780532e-006,
          -6.17199184e-005, 4.26043844e-005, 2.15813590e-004,
          -6.41768056e-005, -9.08258080e-005, -1.00977151e-004,
          -1.49823842e-004, -1.35417096e-004, -8.22769925e-006,
          4.84599441e-005, -1.64539189e-004, -2.91367585e-004,
          -2.95611477e-004, -1.53687972e-004, 1.87157741e-004,
          4.82477708e-006, -7.58112728e-005, -1.04846213e-005,
          -2.01315823e-004, -2.73669692e-004, -1.10728077e-004,
          3.57944482e-005, -1.83015596e-004, -3.03039647e-004,
          -2.89299292e-004, -1.21029552e-004, 7.05776838e-005,
          1.63621667e-006, -7.88487232e-005, -7.14787457e-005 ]
      - [ -5.42101086e-020, -5.42101086e-020, -2.57892625e-005,
          -1.45098631e-004, -1.56553797e-004, 1.47682687e-004,
          2.29268626e-004, 6.53032112e-005, -1.22022211e-004,
          -3.06294300e-004, -1.25223378e-004, -1.14761475e-004,
          -7.21930337e-005, -1.77225345e-004, -4.46828024e-004,
          -2.73686281e-004, 8.41677047e-006, -2.47807611e-006,
          -3.82520870e-004, -3.33601958e-004, 1.63971505e-004,
          -2.93472171e-004, -1.69207880e-004, -2.69861979e-004,
          -2.48835277e-004, -3.26230627e-004, -4.85468394e-004,
          -2.42508409e-004, -9.77929521e-005, 3.87449400e-005,
          -8.90619231e-006, 3.58515681e-004, 2.65191222e-004,
          -2.08787867e-004, -2.74645601e-004, -3.00363230e-004,
          -2.32120336e-004, -2.28079763e-004, -2.83950387e-004,
          1.97547226e-004, 5.47209347e-004, 5.73253084e-004,
          5.22854447e-004, 7.14501293e-005, -1.05501007e-004,
          -2.03102900e-004, -2.05933247e-004, -2.03747317e-004,
          9.54241914e-005, 3.80089768e-004, 3.09293857e-004,
          6.92624541e-004, 5.89233648e-004, 5.55560633e-004,
          5.62775705e-004, 2.27771990e-004, 2.47396732e-004,
          1.71022722e-004, 1.12823058e-004, -4.30930777e-005,
          3.53727752e-004, 5.25064883e-004, 1.35503496e-005,
          2.42647002e-004, 2.70406541e-004, 2.63803871e-004,
          2.98596860e-004, 4.40898584e-004, 2.14379223e-004,
          1.70956540e-004, 1.92833686e-004, 1.29582215e-004,
          2.77064188e-004, 2.16990113e-004, -1.81792289e-004,
          3.40904458e-004, 3.86710308e-004, 9.74185605e-005,
          8.53219390e-005, 3.38444108e-004, 1.56593800e-004,
          -6.53205370e-006, 3.26203415e-004, 4.36236063e-004,
          -1.14882576e-004, -4.00304161e-005, -1.96661465e-004,
          9.62279155e-005, 6.52704257e-005, 9.13125477e-005,
          -1.00467267e-004, -1.21321435e-004, 3.43291351e-004,
          -8.94532568e-005, 9.06551359e-005, 2.51963702e-005,
          -2.78238818e-004, -2.08003257e-004, -2.71354947e-004,
          1.93638596e-004, 1.29501801e-004, 1.03324383e-005,
          -2.42723181e-004, -3.08999850e-004, -5.58495922e-005,
          -3.22455075e-004, -2.69954180e-004, -6.76721756e-005,
          -1.65636346e-004, -7.38003946e-005, -2.50777957e-004,
          -4.90580787e-005, -9.11080351e-005, 6.37744160e-005,
          -8.08429468e-005, 7.27225633e-005, -1.33432215e-004,
          -1.27196094e-004, -3.20763211e-005, -1.61543740e-005 ]
      - [ -6.50521303e-019, -7.89362457e-005, -1.69008505e-004,
          -1.62422817e-004, -2.04190055e-005, -4.77181493e-005,
          2.16325265e-004, 7.31406501e-004, 6.05657231e-004,
          -1.89266895e-004, -4.09285785e-005, -1.39538941e-004,
          -1.49045693e-004, 2.89505351e-005, 2.17786306e-004,
          2.87985429e-004, 3.19526589e-004, 4.07580112e-004,
          6.43225212e-004, 1.19904440e-003, 7.26893137e-004,
          -6.33898366e-004, -3.77279561e-004, -3.34466982e-004,
          1.02835205e-004, -3.26828267e-005, -3.30384660e-006,
          3.85525986e-004, 3.31801071e-004, -3.06827678e-005,
          -7.93944346e-005, 1.03445338e-004, 2.68319563e-004,
          -8.63929745e-005, -4.05850224e-005, -3.09731608e-004,
          1.49110216e-004, -1.21373028e-004, -2.51220481e-004,
          -7.39280440e-005, -1.54537687e-004, -2.34204403e-004,
          8.64382891e-005, 3.27984482e-004, 6.72556111e-004,
          -5.27802840e-005, 5.87467570e-004, 3.99345554e-005,
          1.49110216e-004, -1.34840273e-004, -3.08456278e-004,
          -1.07914515e-004, -6.55208132e-005, -2.95900445e-005,
          1.82728749e-004, 6.04641857e-004, 9.94116650e-004,
          -1.43795798e-004, 1.30315384e-004, 5.12884057e-004,
          1.49110216e-004, -1.34840273e-004, -3.08456278e-004,
          -6.03590815e-005, -6.50521303e-019, 1.26198283e-005,
          4.99366841e-004, 1.21373183e-003, 8.17228050e-004,
          -2.40070840e-005, -1.27249310e-004, 3.87599634e-004,
          1.49110216e-004, -1.30351196e-004, -3.01431865e-004,
          1.13143127e-004, 3.86054278e-004, 6.10969844e-004,
          6.58581790e-004, 5.32979204e-004, 4.74474109e-005,
          -4.75552049e-004, 9.88392057e-005, -8.20948626e-005,
          6.31589792e-005, -2.54337385e-004, -1.85944984e-004,
          8.49332893e-004, 9.65438492e-004, 6.90585759e-004,
          5.73054771e-004, 3.56866309e-004, -7.48661041e-005,
          -4.19037911e-004, -2.47358170e-004, -2.29337384e-004,
          3.16417390e-005, 4.11459652e-004, 5.02193638e-004,
          1.19144935e-003, 7.72840925e-004, 4.81743977e-004,
          2.55911349e-004, -2.46696523e-004, -5.11412567e-004,
          -4.76978283e-004, -4.07134066e-004, -2.64465692e-004,
          3.46063869e-004, 3.44274158e-004, -2.52552600e-005,
          2.95475504e-004, 2.09069156e-004, -9.73369824e-005,
          -3.26340640e-004, -3.92154150e-004, -2.23202005e-004,
          -5.66060589e-005, -9.75966600e-007, -6.50521303e-019 ]
      - [ -4.33680869e-019, 1.79207855e-005, 8.12144845e-006,
          1.87812293e-005, -2.22801809e-005, -4.14964925e-005,
          2.56890082e-004, 3.69822374e-004, 2.13152001e-004,
          -5.04606069e-005, 7.47850936e-005, -1.53175970e-005,
          1.72297106e-004, 7.28559899e-005, 1.66014885e-004,
          1.08351182e-004, 2.12791565e-004, 3.11513722e-004,
          5.98323240e-004, 6.94084039e-004, 3.04748333e-004,
          -2.76937266e-004, -1.56845941e-004, -1.94555265e-004,
          9.87546446e-005, -5.61107227e-005, -1.01480036e-004,
          -9.91389970e-006, -4.40661461e-005, -1.78581555e-004,
          -5.45859257e-006, 5.02449184e-005, 1.34500351e-005,
          1.52462671e-004, -7.75217923e-005, -1.42842066e-004,
          1.43863654e-004, -8.69398718e-005, -1.80099290e-004,
          -6.63201499e-005, -6.47691195e-005, -9.41554463e-005,
          1.69112609e-004, 3.91174748e-004, 3.75865493e-004,
          2.40761990e-004, 3.92080372e-004, 5.88324692e-005,
          1.43863654e-004, -4.11317014e-005, -4.89213380e-005,
          1.15690469e-004, 2.03144955e-004, 2.92304758e-004,
          5.64399408e-004, 5.90431038e-004, 3.57629673e-004,
          4.25368460e-004, 3.50436574e-004, 2.14592830e-004,
          1.43863654e-004, 1.44183185e-004, 2.48831784e-004,
          3.40622675e-004, 1.87397076e-004, 6.87122592e-005,
          3.97824217e-004, 6.78412849e-004, 4.13863076e-004,
          2.87508621e-004, 1.32522706e-004, 2.30131947e-004,
          9.07177600e-005, 9.10372837e-005, 1.43609970e-004,
          2.93322431e-004, 2.71473196e-004, 1.61494710e-004,
          2.92961486e-004, 8.17711625e-005, -2.80725708e-005,
          4.54455061e-004, 3.29364266e-004, 2.31738304e-004,
          1.12938716e-004, 6.46968547e-005, 2.46669351e-005,
          8.62081433e-005, 4.69191073e-005, 5.43520073e-005,
          1.49388929e-004, 3.05295311e-004, 1.75158842e-004,
          -2.21283335e-004, -5.57552921e-005, 2.85833696e-004,
          1.18792253e-004, 2.61073874e-004, 4.87172132e-004,
          5.56493003e-004, 5.13429230e-004, 3.62162187e-004,
          1.91782630e-004, -1.58244395e-004, -3.12434830e-004,
          -3.37238511e-004, -1.62928758e-004, 2.28461038e-004,
          4.37449256e-004, 3.21285683e-004, 7.45504949e-005,
          1.68929022e-004, 1.19640827e-004, -4.47628117e-005,
          -2.16761327e-004, -2.85970484e-004, -1.80640127e-004,
          -6.52982126e-005, 1.62919692e-004, 1.02660240e-004 ]
      - [ 1.97031317e-004, 1.70998028e-004, 2.18458285e-004,
          2.72712176e-004, 4.86132078e-004, 3.30559124e-004,
          2.77928950e-004, 5.51082310e-004, 2.57791864e-004,
          -4.91485465e-004, -2.45766598e-004, -2.07283345e-004,
          -7.77693931e-005, 1.49913496e-004, 2.89742922e-004,
          5.86616865e-004, 7.24077181e-005, -7.48603270e-005,
          -4.02983369e-006, -3.74834017e-005, 4.43852216e-004,
          1.19921177e-004, -1.11585192e-004, -4.11701127e-004,
          5.18713796e-006, 2.25372598e-004, 3.55806435e-004,
          3.48447531e-004, -2.26463642e-004, -3.46184504e-004,
          -3.50568123e-004, -1.88622682e-004, 7.98709516e-005,
          2.38335168e-004, 2.06267956e-004, -1.76275571e-005,
          2.99121632e-004, 3.84440733e-004, 4.55736212e-004,
          4.03949147e-004, -2.67099076e-005, -5.72980134e-005,
          -6.25819157e-005, 9.78718745e-005, 2.30267819e-004,
          3.59326223e-004, 5.17108128e-004, 4.10139095e-004,
          3.59532365e-004, 3.37590463e-004, 3.67763365e-004,
          3.03287699e-004, -7.55118672e-005, -6.93558031e-005,
          -6.42860978e-005, 2.76618484e-005, 1.43453944e-004,
          2.97596736e-004, 4.78507573e-004, 3.62266466e-004,
          4.23818448e-004, 4.01876547e-004, 3.71866743e-004,
          3.88794491e-004, 3.63155741e-005, -2.98155597e-019,
          -2.98155597e-019, 3.63155741e-005, 2.07740042e-004,
          3.61882849e-004, 5.42793656e-004, 4.26552549e-004,
          2.97045801e-004, 3.03279638e-004, 4.70812607e-004,
          4.37847979e-004, -1.02766629e-004, -2.68173550e-004,
          -2.99620646e-004, -2.27627112e-004, 1.18850578e-004,
          5.45367249e-004, 4.54447087e-004, 2.99779902e-004,
          -1.16753174e-004, 2.05548276e-004, 1.66196289e-004,
          2.75159109e-004, -2.90973810e-004, -4.07592714e-004,
          -2.56572937e-004, -2.39520650e-005, 4.33816487e-004,
          6.10510702e-004, 3.52755247e-004, -7.32786502e-005,
          -4.41457349e-004, -3.95993324e-004, -3.19337851e-004,
          4.85424418e-004, 3.64828622e-004, 3.41955965e-005,
          -1.63281962e-004, -5.84881082e-006, 3.67579487e-004,
          4.19918011e-004, -8.08060795e-005, -1.03532388e-004,
          -5.99361701e-005, -2.01958333e-004, -6.63649462e-006,
          2.90293945e-004, 1.61751843e-004, 1.09535715e-004,
          1.07787615e-004, 1.02753831e-004, 2.79718224e-004,
          4.98896348e-004, 2.52937869e-004, 3.21567757e-004 ]
      - [ 0., 3.64346647e-006, 8.08790428e-005, 1.59910531e-004,
          1.67983220e-004, 7.46860209e-008, -1.34153073e-004,
          -1.70294879e-004, -1.41137454e-004, -2.26313481e-004,
          -6.54650285e-005, -8.67535127e-005, -4.27371524e-005,
          -7.15796414e-005, -1.03342747e-004, -2.26214106e-004,
          -2.00580515e-004, 4.06297404e-005, 2.66675139e-004,
          2.82542547e-004, 1.03182356e-004, -2.38757930e-004,
          -9.78154058e-005, -1.21564495e-004, -1.25954975e-004,
          -1.27240957e-004, -2.00197974e-004, -1.12860551e-004,
          5.12594161e-005, 9.29480811e-005, 1.82487114e-004,
          1.71097083e-004, 1.59147850e-004, 1.45415281e-004,
          5.30626130e-005, -5.49812139e-005, -4.56980779e-005,
          -1.28823149e-005, -7.49161482e-005, 1.49297790e-004,
          2.17667271e-004, 2.18389701e-004, 1.96934343e-004,
          2.61325302e-004, 2.79886532e-004, 1.51325134e-004,
          1.02479731e-004, 3.04103851e-005, -6.99176235e-006,
          2.56178464e-004, 1.90218547e-004, 3.26023466e-004,
          3.71877424e-004, 3.95463634e-004, 3.46916699e-004,
          1.98729220e-004, 9.83089776e-005, -6.48223941e-005,
          -5.45160983e-005, -5.46987430e-005, -3.97667209e-005,
          2.70635956e-005, 1.80073639e-005, 3.29372124e-004,
          4.17864561e-004, 3.86897183e-004, 1.90143066e-004,
          7.00896053e-005, 5.35927975e-005, -5.78005020e-005,
          -5.95278943e-005, -5.46987430e-005, 5.54603503e-005,
          1.57296512e-004, 4.04462262e-005, 1.93135929e-004,
          2.60159315e-004, 3.06745642e-004, 3.03412642e-004,
          1.43986443e-004, 5.24796997e-005, -4.39323558e-005,
          -1.52738066e-005, -3.71934693e-005, 3.13182740e-004,
          3.37142614e-004, 1.52880035e-004, 2.08035228e-004,
          2.19387599e-004, 1.66077429e-004, 2.01468123e-004,
          2.28306730e-004, 2.36886583e-004, 1.16155672e-004,
          7.63400676e-005, 1.03866068e-005, 4.11762994e-005,
          2.17966852e-004, 1.20614008e-004, 2.17915236e-004,
          4.21333134e-005, -4.92071194e-005, -1.10217814e-004,
          -1.26603365e-004, -1.20184595e-004, -7.49645187e-005,
          1.53180881e-005, 1.57165796e-005, -5.59044893e-005,
          3.02087865e-005, -8.83890316e-005, 1.05883209e-005,
          4.73979562e-005, 2.00627674e-005, -7.01031022e-005,
          -9.37361983e-005, -5.56670857e-005, -1.30409671e-005,
          -2.14504865e-007, 0. ]
      - [ 1.21036108e-004, 3.17378872e-004, 3.78482393e-004,
          2.41407091e-004, -8.55750695e-005, -4.07506013e-004,
          -2.73002603e-004, -2.33381696e-004, -1.84188495e-004,
          -3.24037421e-004, -1.19008633e-004, 5.51533194e-005,
          4.17025585e-004, 3.64197243e-004, 4.05594270e-004,
          2.82655674e-004, 2.41996706e-004, 2.45599713e-005,
          -1.71533597e-004, -1.25518112e-004, -1.67277671e-004,
          -2.50746118e-004, 3.23517568e-004, 1.64273748e-004,
          1.75136767e-004, 3.40206985e-004, 3.99687211e-004,
          4.90664097e-004, 4.81094437e-004, 6.56713019e-005,
          -8.32483347e-005, -8.07867909e-005, 1.06705826e-004,
          1.65746780e-004, 3.03426059e-004, 6.28862836e-006,
          -1.47995888e-004, 9.32356488e-005, 1.45593687e-004,
          3.23385146e-004, 2.72604724e-004, 1.09490749e-004,
          1.74456582e-005, 1.59711402e-004, 5.59571024e-004,
          2.67889001e-004, 2.42672351e-004, 2.70710134e-005,
          -2.88788258e-004, -2.04074022e-004, -1.59761767e-004,
          1.06457017e-004, 1.67090504e-004, 2.05987453e-004,
          2.90664088e-004, 4.24748752e-004, 5.20390400e-004,
          2.14256608e-004, 1.48512452e-004, -2.94955657e-006,
          -2.88788258e-004, -2.04074022e-004, -2.39101835e-004,
          -8.00819544e-005, -2.71050543e-019, -2.71050543e-019,
          3.96078365e-004, 3.45608772e-004, 3.54832620e-004,
          2.86658051e-005, -1.01676987e-005, -2.94955657e-006,
          -2.88788258e-004, -2.04074022e-004, -2.39391011e-004,
          -8.55020407e-005, 6.20662195e-006, 2.61938520e-004,
          1.48046078e-004, 2.18503003e-004, 2.06056648e-004,
          -1.22316429e-004, -1.02833683e-005, -2.94955657e-006,
          -3.01079475e-004, -2.21432740e-004, -2.71272962e-004,
          -1.42358680e-004, 2.21628274e-004, 2.26279037e-004,
          1.99459304e-004, 3.02748143e-004, 2.97340557e-006,
          -1.59078729e-004, -2.44113344e-005, -1.39799895e-005,
          -3.58493591e-004, -2.80587090e-004, -3.52688774e-004,
          1.23200007e-004, 6.97923169e-005, 7.34964124e-005,
          2.54638464e-004, 2.17181761e-004, -1.34849848e-004,
          -1.38249539e-004, -7.27737643e-005, -6.80165831e-005,
          -2.92516663e-004, -2.11474311e-004, -3.46298359e-004,
          1.11527166e-004, -3.73639559e-005, 1.73998254e-004,
          1.47057566e-004, -8.92804528e-005, -6.71543312e-005,
          -1.67807266e-005, -2.39821088e-006, -2.38664393e-006 ]
      - [ -6.71012231e-006, -3.86712236e-005, -1.74975812e-005,
          5.88399998e-005, 1.23008882e-004, 3.99613316e-004,
          3.47230642e-004, 7.74767323e-005, -2.81452056e-004,
          -3.64629494e-004, 2.66938994e-004, 1.93067681e-004,
          -2.26167322e-004, -3.49702314e-004, -5.46140014e-004,
          -3.01990280e-004, 6.32565570e-005, 5.00785711e-004,
          5.80934167e-004, 4.65656194e-004, 1.80568066e-004,
          2.16622357e-004, 5.13099425e-004, -1.91956104e-004,
          -4.08050721e-004, -2.48153723e-004, -2.29586294e-004,
          3.39654835e-005, -1.29447755e-004, -3.80529760e-004,
          -4.76221408e-004, -4.63097444e-004, -8.28153934e-005,
          2.03407006e-004, -2.63068323e-005, -1.85355035e-004,
          -2.24352203e-004, 3.74503725e-004, 2.63711234e-004,
          4.08535619e-004, 1.91228595e-004, -1.89309780e-004,
          1.09730299e-005, 2.78209132e-004, 2.62515154e-004,
          2.82628753e-004, -5.80383821e-005, -5.51103622e-005,
          1.27197709e-004, 3.17445287e-004, 2.16313027e-004,
          5.23382914e-004, 2.69239914e-004, 5.34039515e-004,
          6.72774739e-004, 4.76867426e-004, 4.44748788e-004,
          -4.35952825e-006, -9.37364603e-005, -6.29186907e-005,
          -2.45834613e-004, -7.59625036e-005, -2.47880031e-004,
          1.72979882e-004, 5.79708314e-004, 6.12150703e-004,
          1.29899243e-004, 3.78503726e-004, 2.31086480e-004,
          -8.45494869e-005, -5.83831825e-005, -2.75654129e-005,
          -2.45834613e-004, -1.77560869e-004, -9.60261314e-005,
          4.73321124e-004, 3.17417493e-004, 1.19151605e-006,
          1.52300418e-004, 3.53452167e-004, 2.60971615e-006,
          -1.00332036e-004, -5.94641788e-005, -2.75654129e-005,
          -2.51240068e-004, -9.21348183e-005, 3.16376172e-005,
          1.28171057e-004, -6.12225558e-005, -4.03377499e-006,
          3.08717543e-004, 6.79546974e-006, -3.95281168e-005,
          -1.12697118e-004, -6.72783572e-005, -2.71405497e-005,
          -1.55826201e-004, 2.15580047e-004, -3.79844278e-004,
          -1.75366353e-004, -8.73548634e-005, 2.74725258e-004,
          1.32620626e-004, -8.58968851e-005, -9.92139903e-005,
          -1.36913397e-004, -9.71896661e-005, -7.63630815e-005,
          2.54419836e-004, -1.28410844e-004, -5.36048319e-004,
          -1.70194311e-004, -9.45455395e-005, 1.71029227e-004,
          -9.17614088e-005, -1.14266950e-004, -8.70747608e-005,
          -4.09912791e-005, -9.75253079e-006, -2.25508779e-006 ]
      - [ 6.21659972e-004, 2.78733292e-004, -9.46432046e-005,
          -2.24203308e-004, -2.46939366e-004, -2.28591074e-004,
          -1.04010556e-004, -7.72775529e-005, -7.72775529e-005,
          -2.63984490e-004, -2.71669065e-004, -2.96599464e-004,
          3.45910492e-004, 6.63488318e-005, -6.33404125e-005,
          -5.83571127e-005, -3.99574092e-005, -5.54259059e-005,
          -6.77864882e-005, -1.06131840e-004, -1.40364340e-004,
          -3.97336175e-004, -3.09152267e-004, -2.02476760e-004,
          2.16254688e-004, 1.17639363e-004, -3.31760712e-005,
          -1.26352228e-004, -1.28046900e-004, -1.09854896e-004,
          -1.91976404e-004, -2.18358866e-004, -1.23130725e-004,
          -2.50427314e-004, -9.38168523e-005, -6.74954936e-005,
          2.17550783e-004, 1.20878591e-004, 7.70978750e-006,
          -2.69513475e-005, -2.00895374e-005, -1.33930243e-005,
          -7.56057852e-006, -3.24024791e-006, 2.71050543e-019,
          -1.99633636e-004, -7.66071098e-005, -6.57673590e-005,
          2.18198838e-004, 1.51249202e-004, 7.53125860e-005,
          4.47097264e-005, 6.64818217e-005, 6.64818217e-005,
          6.64818217e-005, 5.78680229e-005, 3.65386113e-005,
          -1.85676443e-004, -7.66071098e-005, -6.57673590e-005,
          2.26402452e-004, 2.37350381e-004, 2.06475393e-004,
          1.96679481e-004, 2.73472629e-004, 2.69933807e-004,
          3.53050767e-004, 4.94350214e-004, 5.18997898e-004,
          2.34311301e-004, 2.30974052e-004, 1.00625839e-005,
          1.38192525e-004, 9.12052928e-005, 3.17432095e-005,
          -8.23331866e-005, -9.83816135e-005, -1.00947495e-004,
          -1.08622822e-004, 7.72594067e-005, 5.39189961e-004,
          4.16398223e-004, 5.04820491e-004, 3.96847056e-004,
          2.09687772e-004, 1.02568811e-004, -2.05821707e-005,
          -7.31057153e-005, -4.01182042e-005, -5.70961220e-006,
          2.05673905e-006, 3.72669514e-004, 5.56877989e-004,
          3.88236862e-004, 3.19972518e-004, 8.76300401e-005,
          8.46610783e-005, 7.74293403e-006, -5.35635263e-005,
          -4.10897846e-005, 1.09189918e-004, 2.32471008e-004,
          2.00699535e-004, 1.89568964e-004, -1.78448026e-005,
          -2.42330614e-004, -1.34721209e-004, -9.23860571e-005,
          1.56759459e-004, 1.73798151e-004, 1.49853353e-004,
          -6.43783642e-006, -1.28730957e-004, -1.51003740e-004,
          -2.29047684e-004, -2.18166082e-004, -1.53585526e-004,
          -5.87574286e-005, -2.57911211e-007, 2.71050543e-019 ]
      - [ 4.12768015e-004, 3.02743632e-004, 8.15684834e-005,
          -4.72544234e-005, -1.91138242e-004, -2.06792000e-004,
          -1.07614032e-004, -5.55063380e-005, -4.74794033e-005,
          -1.05727595e-004, -1.52767127e-004, -2.54805840e-004,
          2.93786521e-004, 1.86784979e-004, 7.49477294e-007,
          -7.36764123e-005, -1.37512819e-004, -1.22507205e-004,
          -7.91640414e-005, -5.60368426e-005, -8.33240265e-005,
          -2.06722005e-004, -2.34538937e-004, -2.22439281e-004,
          1.95554749e-004, 1.62027500e-004, 2.99057338e-005,
          -1.16282090e-005, -3.90202622e-005, -4.68660801e-005,
          -5.24611096e-005, -1.83683496e-005, -2.23225143e-005,
          -8.37965999e-005, -6.70527006e-005, -4.48047867e-005,
          1.91867497e-004, 2.54419399e-004, 2.40204885e-004,
          2.67799827e-004, 2.44283088e-004, 2.36394699e-004,
          2.24675154e-004, 2.62806134e-004, 3.07088427e-004,
          1.54063309e-004, 1.19073993e-004, 7.46056976e-005,
          1.91867497e-004, 2.84256937e-004, 2.32810635e-004,
          1.91887928e-004, 1.13853894e-004, 8.49397911e-005,
          7.23543781e-005, 1.50732492e-004, 2.20779519e-004,
          6.47517081e-005, 1.13250171e-004, 1.29424778e-004,
          1.91867497e-004, 2.15303444e-004, 7.94701264e-005,
          6.36379191e-005, 2.25678614e-005, 4.09042477e-005,
          6.93172115e-005, 1.31988229e-004, 2.35423067e-004,
          1.25394610e-004, 1.54896494e-004, 1.29424778e-004,
          1.73618944e-004, 2.61421432e-004, 2.70888995e-004,
          2.66195246e-004, 2.44121984e-004, 2.50307465e-004,
          2.37658271e-004, 2.59889930e-004, 2.81364541e-004,
          1.53046771e-004, 1.54018708e-004, 1.11176225e-004,
          9.45573629e-005, 1.10011788e-004, 8.28350894e-005,
          5.67692041e-005, 3.50722621e-005, 2.69780230e-005,
          4.02793885e-005, 1.26527593e-004, 1.77313545e-004,
          9.31757968e-005, 1.91601604e-004, 2.25026757e-004,
          -2.35329600e-004, -1.86482925e-004, -1.08594664e-004,
          -8.72862001e-005, -7.02271500e-005, -6.49962094e-005,
          -9.33183255e-005, -4.47619896e-005, 3.41162886e-005,
          -3.42356579e-005, 1.28266707e-004, 3.29405011e-004,
          -2.41078553e-004, -2.00937749e-004, -1.65655947e-004,
          -1.34468166e-004, -1.26864834e-004, -1.44377074e-004,
          -1.54721667e-004, -5.36767911e-005, 7.78212998e-005,
          7.18820156e-005, 2.08631143e-004, 3.09495226e-004 ]
      - [ -1.74912304e-019, -1.74912304e-019, 1.57255636e-004,
          -2.37995209e-006, -1.36555420e-004, -1.97125613e-004,
          -1.96095090e-004, -4.71820385e-005, 2.67136638e-004,
          -1.54820969e-004, -1.28917542e-004, -1.34276706e-004,
          -6.12241492e-005, -7.31851833e-005, 1.58325507e-004,
          -1.04826206e-004, -2.27009034e-004, -2.19518057e-004,
          -1.67852515e-004, 1.83512821e-005, 2.70048389e-004,
          -1.89488186e-004, -2.04965225e-004, -2.00088893e-004,
          -8.93600518e-005, -8.98933431e-005, 1.05825151e-004,
          1.57650706e-004, -8.10660822e-006, -1.40952339e-004,
          -1.20790522e-004, -2.92765890e-006, 2.64183007e-004,
          5.78124418e-005, -1.91256113e-005, 2.01577950e-005,
          2.53216334e-004, 2.80002307e-004, 1.77088135e-004,
          4.27026651e-004, 3.48870817e-004, 2.35043553e-004,
          2.15008098e-004, 3.01433669e-004, 4.28331754e-004,
          2.81161978e-004, 2.23930270e-004, 2.39984671e-004,
          2.62134883e-004, 2.38374516e-004, 2.69711454e-004,
          2.18780275e-004, 1.60656258e-004, 1.52304565e-004,
          1.39179450e-004, 2.69440177e-004, 4.40960343e-004,
          3.18346683e-005, -7.40087416e-005, -8.24990857e-005,
          3.45421067e-005, 4.23129713e-005, 1.44305915e-004,
          2.42095659e-004, 7.31008695e-005, 9.18244154e-007,
          1.29693453e-005, 1.49059968e-004, 4.41626704e-004,
          9.50579270e-005, -1.71899210e-005, 1.06740408e-005,
          1.77103619e-004, 1.84874487e-004, 1.28908359e-004,
          3.84908984e-004, 3.21066589e-004, 2.59445776e-004,
          2.96426879e-004, 3.18863429e-004, 4.03249898e-004,
          3.20687570e-004, 3.05974478e-004, 3.26255686e-004,
          3.37060133e-004, 2.81389657e-004, 1.20184421e-004,
          9.23357366e-005, 7.84502845e-005, 8.92287717e-005,
          9.85048173e-005, 2.46404525e-004, 3.76368902e-004,
          5.35878644e-006, -6.11081487e-005, -4.76720998e-005,
          -1.57146860e-005, -2.87065304e-005, 3.45562876e-005,
          1.22903919e-004, 3.37045208e-006, -8.07403994e-005,
          -1.38121643e-004, -7.93678337e-005, 1.90761944e-004,
          -4.24702666e-005, -1.08094006e-004, -4.15008981e-005,
          -1.37691532e-004, -1.76532223e-004, -7.37828304e-005,
          5.45382063e-005, -1.30820044e-004, -2.34594030e-004,
          -2.34717794e-004, -1.45206082e-004, 3.36315643e-005,
          -4.22652229e-005, -7.30107058e-005, -5.69738477e-005 ]
      - [ 5.42101086e-020, -2.21010941e-006, -4.41921511e-005,
          -1.02996390e-004, -8.88704235e-005, 1.71042149e-004,
          2.97862018e-004, 1.58327210e-004, -2.30054848e-005,
          -3.91392881e-004, -1.60520096e-004, -1.55546499e-004,
          -1.19647804e-004, -1.87938582e-004, -2.53664388e-004,
          -3.00657994e-004, 1.41504916e-006, 3.51050985e-005,
          -2.22990959e-004, 9.58307282e-006, 4.07484826e-004,
          -4.17209172e-004, -2.60386732e-004, -2.65023700e-004,
          -2.41391812e-004, -2.83054251e-004, -3.41572450e-004,
          -9.54456918e-005, 1.78879913e-004, 6.49229150e-006,
          -6.43562671e-005, 2.54347571e-004, 8.19177076e-005,
          -3.95736046e-004, -3.06395203e-004, -2.67986528e-004,
          -1.01291669e-004, -1.05163221e-004, -1.58220500e-004,
          1.75583802e-004, 4.56991169e-004, 4.11879737e-004,
          3.05596332e-004, -5.00136375e-005, -7.55100627e-005,
          -1.82788368e-004, -1.21574689e-004, -9.99087642e-005,
          1.08532840e-004, 3.67470289e-004, 3.43126740e-004,
          5.39062195e-004, 4.68384824e-004, 5.06113283e-004,
          5.00799622e-004, 2.38558481e-004, 2.48160592e-004,
          5.26271469e-005, 6.92343965e-005, -4.32191082e-005,
          5.26916236e-004, 6.76663534e-004, 2.88044230e-005,
          2.79246102e-004, 3.53713403e-004, 4.70358704e-004,
          4.81415278e-004, 5.95071993e-004, 3.98024422e-004,
          2.40033565e-004, 3.14236648e-004, 3.07279755e-004,
          2.90479278e-004, 1.95602232e-004, -1.73534470e-004,
          2.37678061e-004, 3.35868739e-004, 1.40198143e-004,
          1.50836058e-004, 2.67647905e-004, 1.54800815e-004,
          -4.62721400e-005, 3.00066837e-004, 3.96925141e-004,
          -8.92352109e-005, -5.37771521e-005, -2.20690534e-004,
          3.18371858e-005, 3.56691162e-005, 5.04254022e-005,
          -5.43944298e-005, -5.36161533e-005, 2.78515130e-004,
          -8.09479170e-005, 1.70178246e-004, 6.42185987e-005,
          -2.30856545e-004, -1.87685873e-004, -2.58539949e-004,
          6.46604894e-005, 1.79468392e-004, 1.80602889e-004,
          -1.09796010e-005, 1.76100311e-005, 6.15966856e-005,
          -2.61048903e-004, -1.87330937e-004, -7.77289024e-005,
          -1.37532421e-004, -7.26643339e-005, -2.78070656e-004,
          -1.62734304e-005, 8.44772367e-005, 2.08450612e-004,
          6.93963602e-006, 1.01735852e-004, -1.36192233e-004,
          -5.35603394e-005, -3.91799091e-007, 5.42101086e-020 ]
      - [ -2.40790860e-006, 3.97844051e-005, 2.87799303e-005,
          -8.71949669e-006, -5.05228745e-005, -4.87690668e-005,
          1.84586548e-004, -1.54907029e-005, -3.35748446e-005,
          4.19600692e-005, 1.87652826e-004, 2.81207322e-004,
          1.57276037e-004, 5.66139133e-005, 6.27691315e-006,
          -9.09973642e-006, -9.09973642e-006, -9.09973642e-006,
          3.21162224e-004, 1.19866541e-004, 1.66598722e-004,
          -5.86337192e-005, -1.73744047e-004, -2.46113515e-004,
          1.21601784e-004, -1.29635111e-004, -4.76615562e-004,
          -4.63443983e-004, -4.80557384e-004, -4.94501961e-004,
          -2.38687295e-004, -5.36996347e-004, -6.83201419e-004,
          3.93215916e-004, -1.03035112e-004, -7.21196602e-006,
          8.87982678e-005, -5.70093180e-005, -1.38410658e-004,
          -6.51569062e-005, -9.36312717e-005, -7.06847713e-005,
          2.04851473e-004, 5.13663457e-004, 2.31451384e-004,
          -2.08990386e-005, 1.04135463e-004, 7.43999908e-006,
          7.23965059e-005, 1.38221876e-005, 1.09674300e-004,
          2.59791996e-004, 3.70498543e-004, 5.07856137e-004,
          8.15375417e-004, 8.42400768e-004, 4.77909867e-004,
          8.49531789e-004, 8.47615738e-005, -3.09809751e-004,
          1.21601784e-004, 3.99530691e-004, 6.55289274e-004,
          6.81605190e-004, 3.43394029e-004, 1.19108969e-004,
          4.90686682e-004, 1.02400966e-003, 5.07206772e-004,
          4.48351930e-004, 1.95908942e-005, -3.09204595e-004,
          1.21601784e-004, 3.80763464e-004, 3.44386033e-004,
          4.42150689e-004, 3.74272669e-004, 5.24119023e-005,
          5.04720674e-006, -5.84761496e-004, -2.48245691e-004,
          1.53133867e-003, 4.53976536e-004, 5.88193361e-004,
          7.20322860e-005, -1.09774381e-004, -7.19458389e-004,
          -8.67855561e-004, -1.02326344e-003, -9.72943672e-004,
          -5.56291256e-004, 3.07166738e-005, 2.02596086e-004,
          -1.99902133e-005, -1.42782330e-004, 9.41434235e-004,
          2.13071562e-005, 2.08068395e-005, 1.24557875e-004,
          1.49806918e-004, 8.50125434e-005, 3.52411225e-005,
          2.61378882e-005, 2.76369628e-005, -1.04596977e-004,
          -5.57451713e-005, -2.79778742e-005, 1.30847294e-003,
          2.87340168e-004, 1.04473576e-004, -1.98376409e-004,
          -5.80050619e-005, -7.28020314e-005, 6.98958247e-005,
          1.49787928e-004, -3.51480812e-005, -2.41726611e-005,
          -1.45323729e-005, 5.92485827e-004, 3.47112917e-004 ]
      - [ 2.67488649e-004, 2.26177028e-004, 2.11476290e-004,
          1.66401442e-004, 2.08125552e-004, 1.06022104e-004,
          7.61253905e-005, -8.70349177e-005, -6.31809380e-005,
          -4.78661532e-005, -1.11003628e-005, 8.32333826e-005,
          -2.01862858e-004, -6.35460237e-005, 1.67972888e-004,
          1.27979874e-004, -1.53664441e-004, -3.04766174e-004,
          -1.88672595e-004, -3.74722847e-004, -1.51965869e-004,
          8.15395979e-005, -7.52891938e-005, -2.24582647e-004,
          -1.19648597e-004, 9.70852925e-005, 1.74145200e-004,
          -2.36476553e-005, -3.21591710e-004, -5.09555743e-004,
          -3.44988744e-004, -3.12829390e-004, -1.58188166e-004,
          -1.23006876e-005, 2.02765252e-004, 1.69634019e-004,
          9.70018082e-005, 2.91102187e-004, 3.23643500e-004,
          3.66590451e-004, 8.93996184e-005, -1.25251154e-005,
          5.51925805e-005, -9.28230584e-005, 5.08369267e-005,
          2.36125474e-004, 8.29028795e-005, 2.01266754e-004,
          1.59097253e-004, 3.13716591e-004, 2.90070020e-004,
          3.46864341e-004, 6.87522552e-005, 6.87522552e-005,
          6.56728444e-005, -6.29031929e-005, 1.05550993e-004,
          2.06686876e-004, 1.73133696e-004, 6.92402973e-005,
          1.78825692e-004, 3.54497257e-004, 2.90070020e-004,
          4.11162036e-004, 1.61855249e-004, 1.02218481e-004,
          1.91597919e-005, -2.66214542e-004, -7.74306682e-006,
          1.98528636e-004, 3.35019547e-004, 1.28795291e-004,
          3.75895761e-005, 2.40032721e-004, 3.27724119e-004,
          3.41562496e-004, 5.92277174e-005, -2.44280265e-004,
          -3.67045490e-004, -4.06917912e-004, 8.42305453e-005,
          4.82671778e-004, 2.10707614e-004, 2.25772019e-004,
          -2.30709396e-004, 7.16537907e-005, 7.21964752e-005,
          -4.06664549e-005, -2.68367294e-004, -4.82179457e-004,
          -4.54988651e-004, -2.34204141e-004, 3.54159914e-004,
          6.80032070e-004, 3.09165800e-004, 6.33064992e-005,
          -3.96467251e-004, -3.45693930e-004, -4.38084302e-004,
          -1.41920347e-004, -5.57630920e-005, -1.17425749e-004,
          -1.29987486e-004, 1.25362858e-004, 4.85450204e-004,
          4.31220687e-004, 9.04378612e-005, -2.16840434e-019,
          -1.62071505e-004, -1.84785240e-004, -2.57739652e-004,
          -1.70634186e-004, -6.06288304e-005, 1.79710551e-004,
          3.61207494e-004, 3.73598828e-004, 3.57931654e-004,
          3.28943657e-004, 1.27359803e-004, 1.27359803e-004 ]
      - [ -1.96511644e-019, -1.61240871e-006, 5.27934208e-005,
          8.61460940e-005, 1.55285321e-004, 6.53739990e-005,
          -2.57026637e-004, -3.13204539e-004, -2.07269331e-004,
          -1.40271746e-004, -2.77396994e-005, -1.67021753e-005,
          -1.04413470e-004, -1.28528365e-004, -2.20138434e-004,
          -2.38647655e-004, -2.04676369e-004, 6.22365633e-006,
          1.12942791e-004, -5.49117140e-005, -1.74488523e-005,
          -1.04128099e-004, -8.08707118e-005, -1.06863889e-004,
          -5.92110700e-005, -1.24364931e-004, -2.28119825e-004,
          -1.94017295e-004, -1.25263105e-004, 2.41169928e-005,
          1.33540787e-004, 3.90653840e-005, 1.19996141e-004,
          2.97909690e-004, 2.86090159e-004, 1.20595279e-004,
          -6.57738274e-005, -6.56702541e-005, -3.67314206e-005,
          2.34015184e-004, 3.38091166e-004, 4.43117577e-004,
          2.75485334e-004, 1.57911723e-004, 2.98354251e-004,
          1.62307872e-004, 5.55118058e-005, 2.52862992e-005,
          4.35550610e-005, 1.70248197e-004, 1.87743310e-004,
          4.55720874e-004, 4.55720874e-004, 4.54579742e-004,
          2.59572349e-004, 9.68939275e-005, 2.16523222e-005,
          -1.36105853e-004, -2.09933802e-004, -1.84995137e-004,
          -2.54971310e-005, -4.52526983e-005, 1.70539770e-005,
          4.27114632e-004, 4.72632964e-004, 4.88409889e-004,
          1.48978914e-004, -4.18531781e-005, -2.88750161e-005,
          6.10039365e-007, -6.60005171e-005, -2.02413445e-004,
          2.84380967e-005, 5.16014807e-005, 2.20111888e-005,
          2.34642808e-004, 2.29176803e-004, 2.55304738e-004,
          1.43216559e-004, 7.81712661e-005, 1.60018259e-004,
          1.73424429e-004, 7.14671187e-005, -1.15981093e-004,
          3.87539156e-004, 2.72098230e-004, 4.85945784e-005,
          5.32048107e-005, 8.86941780e-006, -5.25506039e-005,
          -3.25369620e-005, 5.88601979e-005, 2.35255560e-004,
          2.25517622e-004, 7.21319229e-005, 1.92510070e-005,
          -7.31826231e-006, 1.10254572e-004, 7.71682789e-006,
          -2.44056537e-005, -1.74235131e-004, -2.08624420e-004,
          -2.44320137e-004, -5.78111758e-005, 3.73700750e-005,
          5.21317634e-005, 1.93658580e-005, 1.30062508e-005,
          -1.67868842e-004, -1.74061410e-004, -1.41676035e-004,
          -8.16104948e-005, -1.58288836e-004, 3.30373987e-005,
          1.06991552e-004, 2.83485679e-005, -1.96511644e-019,
          -1.96511644e-019, -1.96511644e-019, -1.96511644e-019 ]
      - [ 8.98231083e-005, 2.94469646e-004, 4.20812343e-004,
          3.09591560e-004, 3.97148397e-005, -2.25557917e-004,
          -3.29246657e-004, -5.54999628e-004, -4.37444483e-004,
          -2.86967668e-004, -1.44857157e-004, 4.00354693e-005,
          3.13874800e-004, 2.80284003e-004, 2.28823861e-004,
          2.08436526e-004, 1.78592774e-004, 2.25879830e-005,
          -2.49734032e-004, -5.55108592e-004, -5.25731302e-004,
          -5.99222185e-005, 2.46114912e-004, 6.26045148e-005,
          1.18639400e-004, 2.67465599e-004, 2.30940728e-004,
          2.61683686e-004, 2.12749917e-004, 3.44585933e-005,
          5.05195530e-005, -4.12309673e-005, 1.30027955e-004,
          3.21887608e-004, 3.04675254e-004, 3.79586236e-005,
          -1.38931850e-004, 3.77604738e-005, 3.03422858e-005,
          2.46817013e-004, 2.61210575e-004, 2.08342695e-004,
          1.59478572e-004, -1.40776774e-005, 2.33989573e-004,
          2.58065556e-004, -7.41617550e-005, -1.62712196e-004,
          -1.94619963e-004, -1.34347923e-004, -1.87450496e-004,
          5.45010953e-005, 7.84697622e-005, 7.84697622e-005,
          1.39806638e-004, 1.64623038e-004, 1.24507671e-004,
          1.26658255e-004, -2.10911439e-005, -2.67212541e-004,
          -1.81474417e-004, -1.26426879e-004, -2.15292413e-004,
          -2.39686706e-005, 1.08420217e-019, -2.88464912e-006,
          2.54048879e-004, -6.39108430e-006, -1.10823903e-005,
          -1.38289734e-005, -3.16500336e-005, -2.01893374e-004,
          -1.81474417e-004, -1.27045263e-004, -2.33067956e-004,
          -9.01856547e-005, -1.16343348e-004, -4.39537689e-005,
          -4.79417758e-005, -2.69739867e-005, 1.15242001e-004,
          -1.91218278e-005, -1.41321594e-004, -5.88889452e-005,
          -1.81808413e-004, -1.83627213e-004, -3.69503279e-004,
          -4.26985702e-004, -2.76288338e-004, -7.59236791e-005,
          4.82895266e-005, 1.05955605e-005, -5.29101890e-005,
          -1.88282338e-005, -3.64320549e-005, 1.08420217e-019,
          -2.52557540e-004, -2.90712545e-004, -5.73749829e-004,
          -2.80863518e-004, -1.89696177e-004, -5.41505142e-005,
          1.38679490e-004, 5.45815165e-005, -9.39635720e-005,
          -3.82907201e-005, 1.08420217e-019, 1.08420217e-019,
          -1.81190029e-004, -1.96603243e-004, -4.35645023e-004,
          -1.06275002e-004, -1.81585390e-004, 6.87613501e-005,
          1.31625653e-004, -4.82124869e-006, 1.08420217e-019,
          1.08420217e-019, 1.08420217e-019, 1.08420217e-019 ]
      - [ 1.62630326e-019, -1.03114198e-005, -8.04366118e-006,
          6.31501825e-005, 1.55280199e-004, 3.32454278e-004,
          1.58727780e-004, -1.83639640e-004, -4.53605258e-004,
          -2.74262420e-004, 1.39086929e-004, 2.45791045e-004,
          -2.26733900e-004, -3.03515670e-004, -4.06498351e-004,
          -2.22184099e-004, -1.43629841e-005, 2.03528252e-004,
          1.28216721e-004, -6.95764684e-005, -1.10468645e-004,
          2.40578825e-004, 3.64695035e-004, -8.39905115e-005,
          -1.84658129e-004, -6.19293714e-005, -2.06820871e-004,
          -1.88013699e-004, -3.14330420e-004, -3.73958901e-004,
          -4.26479150e-004, -4.11080284e-004, -6.77087301e-005,
          2.18624002e-004, 1.05636063e-004, -2.59869903e-005,
          -1.35395399e-004, 3.21316969e-004, 2.50416779e-004,
          4.60049283e-004, 3.69241112e-004, 8.93419856e-005,
          9.17643774e-005, 1.54306457e-004, 1.60733500e-004,
          1.77669543e-004, -2.83133471e-004, -9.44575659e-005,
          1.58460083e-004, 2.91332370e-004, 1.82390053e-004,
          4.45266836e-004, 3.89124005e-004, 3.62063263e-004,
          3.58434860e-004, 1.06364219e-004, 1.00336394e-004,
          -6.76981244e-006, -1.26192070e-004, -2.93209567e-004,
          -1.16522147e-004, 6.63435421e-005, -9.19265221e-005,
          1.94552951e-004, 4.31303750e-004, 4.73847933e-004,
          4.42979508e-005, -6.11846008e-006, -4.91470164e-005,
          -1.10483816e-004, -4.03262275e-005, -2.38269015e-004,
          -1.60337819e-004, -7.93029467e-005, -6.66185442e-005,
          2.88598152e-004, 8.60724249e-005, -2.21199429e-004,
          -7.56047957e-005, -1.17230929e-005, -9.47475273e-005,
          -1.83919346e-005, -1.36309405e-004, -5.27549637e-005,
          -1.60337819e-004, -3.63895233e-005, -1.04661885e-004,
          -2.92753510e-004, -4.64821875e-004, -1.80230549e-004,
          2.43043378e-005, -1.02023230e-004, -1.60840391e-005,
          -1.94911208e-005, -2.86301274e-005, 1.62630326e-019,
          -1.38693911e-004, -7.46902297e-005, -5.86171402e-004,
          -5.61201596e-004, -2.22039118e-004, 9.04155877e-006,
          -1.32327492e-004, -8.52863741e-005, -2.39061301e-005,
          -9.80151344e-006, 1.62630326e-019, 1.62630326e-019,
          5.85807320e-005, -2.90879747e-004, -5.81397268e-004,
          -2.36451699e-004, 1.86380112e-005, 5.52028323e-005,
          -4.85273958e-005, -3.34685819e-006, 1.62630326e-019,
          1.62630326e-019, 1.62630326e-019, 1.62630326e-019 ]
      - [ 4.03237646e-004, 1.54106776e-004, 1.61521930e-005,
          -1.02427897e-004, -1.26390063e-004, -1.43833953e-004,
          -1.96712645e-004, -3.12445540e-004, -2.06743483e-004,
          -1.53152825e-004, -1.29371227e-004, -8.75210899e-005,
          2.06247889e-004, 2.37942822e-005, -6.78999277e-005,
          -1.66243452e-004, -1.66243452e-004, -1.66243452e-004,
          -2.07937890e-004, -3.85273859e-004, -3.30982206e-004,
          -1.88493941e-004, -1.53160217e-004, -1.18313823e-004,
          1.60667871e-004, 4.59647308e-005, -3.93366099e-005,
          -1.46726685e-004, -1.48326071e-004, -1.42500649e-004,
          -1.82885851e-004, -3.25080211e-004, -3.01354186e-004,
          -2.89324729e-004, -1.23274178e-004, -1.33544211e-006,
          1.60667871e-004, 9.73201459e-005, 9.83435239e-005,
          -1.08420217e-019, -1.08118684e-005, -2.91766719e-006,
          -4.94573796e-005, -1.91182568e-004, -1.46277205e-004,
          -1.19252552e-004, -2.30553094e-004, -1.00299141e-004,
          1.60667871e-004, 1.06731561e-004, 1.68442813e-004,
          1.24390353e-004, 1.24390353e-004, 1.24390353e-004,
          8.23519877e-005, -4.29996144e-005, -3.76126918e-005,
          -7.93692161e-005, -1.69306717e-004, -2.87026254e-004,
          1.79490715e-004, 2.53882288e-004, 2.41328744e-004,
          1.63645498e-004, 1.67315040e-004, 1.59975971e-004,
          2.81923742e-004, 2.99534149e-004, 3.40308441e-004,
          2.81507237e-004, 1.63733057e-004, -1.74168817e-004,
          1.60667871e-004, 9.73201459e-005, 1.18892916e-004,
          1.10086030e-005, 1.35058353e-005, 2.72230500e-005,
          -2.73055884e-005, 1.04771214e-004, 2.95804726e-004,
          3.59700556e-004, 2.60926230e-004, 2.79272121e-004,
          1.60667871e-004, 4.81770403e-005, -5.44848263e-005,
          -2.63927446e-004, -2.25988231e-004, -1.66451733e-004,
          -2.06182667e-004, 1.26148036e-004, 3.41784267e-004,
          3.76888464e-004, 2.62188434e-004, 2.00777591e-004,
          2.81740413e-005, -1.62480545e-004, -2.65368493e-004,
          -2.38157067e-004, -7.30180545e-005, 1.63676723e-005,
          -5.84521367e-005, 7.30136235e-005, 4.87016769e-005,
          -2.25884905e-005, -1.12919097e-005, -1.08420217e-019,
          6.21385843e-005, 8.31751386e-005, 8.64791673e-006,
          -1.11156223e-004, -1.58619398e-004, -1.60622876e-004,
          -8.09976991e-005, -1.03090988e-005, -1.08420217e-019,
          -1.08420217e-019, -1.08420217e-019, -1.08420217e-019 ]
      - [ 3.16182181e-004, 2.40778478e-004, 5.58800457e-005,
          -3.93133523e-005, -1.50734064e-004, -1.73647553e-004,
          -2.01592513e-004, -2.84434675e-004, -2.02487136e-004,
          -1.53241243e-004, -1.02133563e-004, -3.92980219e-005,
          1.27283129e-004, 9.60042744e-005, -5.50094264e-005,
          -1.12540991e-004, -1.88341874e-004, -1.88341874e-004,
          -2.04891112e-004, -2.99953710e-004, -2.91719945e-004,
          -1.99796588e-004, -1.54401554e-004, -8.30386343e-005,
          1.38676289e-004, 1.16574236e-004, -4.58629838e-005,
          -8.98118597e-005, -1.27669235e-004, -9.60840334e-005,
          -8.14936939e-005, -1.48348423e-004, -1.29900814e-004,
          -8.07414472e-005, 4.52041531e-005, 7.11018365e-005,
          1.22595608e-004, 1.93627449e-004, 2.36327498e-004,
          2.60130066e-004, 2.40394991e-004, 2.45217787e-004,
          2.10440514e-004, 8.80575390e-005, 1.01294361e-004,
          -3.01514483e-005, -3.59600563e-005, -4.20232800e-006,
          1.22595608e-004, 1.93922606e-004, 1.92803782e-004,
          1.70091473e-004, 8.69567084e-005, 5.96974896e-005,
          2.89762957e-005, 1.59650881e-005, 8.47555420e-005,
          -6.34819444e-005, 2.10858943e-005, 1.79246206e-006,
          1.38676289e-004, 1.57778195e-004, 8.63273817e-005,
          8.15714084e-005, 1.91015242e-005, 3.46215129e-005,
          1.88790818e-005, -7.40817486e-005, 4.70169061e-006,
          3.63661347e-005, 1.57332368e-004, 4.06684085e-005,
          1.38676289e-004, 2.02007723e-004, 1.92067455e-004,
          1.94824577e-004, 1.52832974e-004, 1.13970695e-004,
          6.65021071e-005, 8.00360522e-006, 1.90088729e-004,
          1.92930369e-004, 1.44548423e-004, 1.05826119e-004,
          7.57876624e-005, 5.53782957e-005, -1.19577971e-005,
          -7.67545716e-005, -1.08534936e-004, -1.10803434e-004,
          -7.49184619e-005, 6.41730730e-006, 1.84714780e-004,
          1.75146924e-004, 2.10509985e-004, 1.99142640e-004,
          -1.48403880e-004, -1.86880599e-004, -2.26405944e-004,
          -2.07702542e-004, -2.06173019e-004, -1.80402698e-004,
          -1.58853029e-004, -3.31500414e-005, 1.31081892e-004,
          1.07899919e-004, 1.74291839e-004, 2.89804506e-004,
          -1.59140822e-004, -1.71501291e-004, -1.89888218e-004,
          -1.73187014e-004, -1.61096104e-004, -1.15772003e-004,
          -5.87729592e-005, 6.97473297e-005, 1.72310014e-004,
          1.25517457e-004, 1.86259349e-004, 2.44589843e-004 ]
      - [ 8.97854924e-020, -9.39500114e-006, 1.22438680e-004,
          -9.19188169e-005, -2.35296538e-004, -3.06151982e-004,
          -3.43225664e-004, -2.76846578e-004, 7.85539742e-005,
          1.92447260e-005, -5.89432238e-005, -1.74581692e-005,
          -1.79418246e-004, -1.88678867e-004, 4.62769131e-005,
          -1.45561178e-004, -2.75436410e-004, -3.34962038e-004,
          -3.43225664e-004, -2.84251611e-004, -5.86384194e-005,
          -8.70522126e-005, -1.72809436e-004, -1.10707915e-004,
          -1.09343535e-004, -9.48111701e-005, 7.18844822e-005,
          5.62702880e-005, -1.61084288e-004, -2.06095254e-004,
          -1.98852897e-004, -1.96000954e-004, 5.39216126e-005,
          1.01846803e-004, 1.44009537e-004, 1.99998365e-004,
          1.40214790e-004, 1.66494399e-004, 1.64034602e-004,
          4.77896450e-004, 3.87992826e-004, 3.36189056e-004,
          2.88835960e-004, 5.02840194e-005, 2.43144474e-004,
          1.80557283e-004, 9.66341904e-005, 1.74522793e-004,
          8.55188628e-005, 1.13052229e-004, 3.04982852e-004,
          2.99870415e-004, 1.92381733e-004, 1.13973481e-004,
          7.67004094e-005, 1.49603889e-004, 1.50377906e-004,
          -4.74085391e-006, -1.29794236e-004, -2.02398689e-004,
          -4.16250041e-005, -8.27469285e-006, 1.87476238e-004,
          3.53444368e-004, 1.34692818e-004, 1.67680901e-005,
          -1.17138015e-005, -1.80098978e-005, 9.07525828e-005,
          8.39838685e-005, 4.82273244e-005, -6.61821396e-005,
          9.99610274e-005, 1.57989183e-004, 1.31709690e-004,
          4.38297138e-004, 3.26440553e-004, 2.38158580e-004,
          1.93956017e-004, 1.46236573e-006, 2.54619779e-004,
          3.82976315e-004, 2.85872637e-004, 2.93481513e-004,
          2.63991184e-004, 2.43044735e-004, 1.74278757e-004,
          1.10631576e-004, -7.30483880e-005, -1.57566654e-004,
          -2.03970209e-004, 2.07353278e-005, 3.53843177e-004,
          2.55083869e-004, 5.23598419e-006, 2.25013537e-005,
          -7.19883246e-005, -9.20729726e-005, 3.09236111e-006,
          -8.76241684e-005, -2.92971032e-004, -3.26900161e-004,
          -2.41085902e-004, 2.66834650e-005, 3.13914614e-004,
          1.95172455e-004, 1.24551525e-006, -1.49016341e-006,
          -1.06991320e-004, -1.25002742e-004, -2.73933147e-005,
          4.87592333e-005, -1.21904319e-004, -1.64885423e-004,
          -9.45529828e-005, 9.42942788e-005, 1.87423735e-004,
          8.15767198e-005, 8.97854924e-020, 8.97854924e-020 ]
      - [ 2.16840434e-019, -1.25831673e-006, -2.49785553e-005,
          -1.18223827e-004, -7.63306161e-005, 1.89835861e-004,
          1.45146609e-004, -1.63337463e-004, -1.54576177e-004,
          -1.64017809e-004, -6.44282336e-005, -5.63096764e-005,
          -1.73742446e-004, -2.20177535e-004, -3.07652168e-004,
          -1.25893348e-004, 8.69655705e-005, 2.31382783e-005,
          -3.39689665e-004, -4.76852816e-004, -4.00888493e-005,
          -1.94522014e-004, -1.58253475e-004, -1.86426463e-004,
          -8.33532395e-005, -1.14796123e-004, -3.28485301e-004,
          -1.45089696e-004, -7.25197315e-005, 2.66300540e-005,
          -4.36535411e-005, 5.90486306e-005, 3.05202157e-005,
          -2.63590540e-004, -1.24535523e-004, -5.40723795e-006,
          -1.03568163e-004, -6.71866001e-005, -6.44036627e-005,
          3.05614754e-004, 5.60486864e-004, 5.04694588e-004,
          3.70074617e-004, -1.39136348e-004, -1.86577396e-004,
          -1.55598667e-004, -3.69854941e-004, -1.85494704e-004,
          1.10604415e-004, 3.44991451e-004, 2.48670898e-004,
          4.66637837e-004, 4.28542116e-004, 4.14266833e-004,
          3.74406663e-004, -5.50328405e-005, 1.78372502e-005,
          1.16191804e-004, -1.57611630e-005, -3.19248968e-004,
          4.40995471e-004, 5.17149398e-004, -2.43152044e-005,
          3.65008513e-004, 3.47992405e-004, 2.64780829e-004,
          2.05423203e-004, 4.63582401e-005, 2.15548607e-005,
          1.74489600e-004, 2.46611336e-004, 5.08574667e-005,
          1.93976157e-004, 1.83166048e-004, -3.20728213e-005,
          2.97040504e-004, 2.60623900e-004, -2.16311182e-005,
          -1.24577753e-004, 1.49368652e-005, 1.19580545e-004,
          1.19515847e-004, 1.50383523e-004, 2.37870554e-004,
          -7.68598620e-005, -3.92065231e-005, -2.35318803e-004,
          -1.90582781e-004, -2.94376019e-004, -2.42453316e-004,
          -3.42836371e-004, -2.90447730e-004, 3.37802863e-004,
          1.19873446e-004, 7.85317388e-005, 3.15960970e-005,
          -2.28565608e-004, -2.15951179e-004, -4.12713591e-004,
          -1.60049414e-004, -5.82223729e-005, -3.44180517e-005,
          -1.95281173e-004, -1.40559365e-004, 2.40365145e-004,
          1.24197720e-006, -4.02083424e-005, -5.48798153e-006,
          -1.66603801e-004, -1.17280746e-004, -3.38518148e-004,
          -1.83729338e-004, -1.35898736e-004, 1.18650685e-004,
          1.60872427e-004, 3.37223086e-004, 8.16056126e-005,
          7.55351084e-006, 2.16840434e-019, 2.16840434e-019 ]
      - [ 1.44221412e-004, 9.02694956e-005, 7.89050537e-005,
          1.07085034e-004, 2.50940939e-004, 1.61544769e-004,
          -4.45325968e-005, -1.73937806e-005, -3.78626064e-005,
          -1.36568109e-004, -2.00894210e-004, -1.27849591e-004,
          -2.86016177e-004, -1.41184428e-004, 8.75063633e-005,
          1.25587641e-004, -9.89597393e-005, -2.62207788e-004,
          -3.48579808e-004, -4.10450477e-004, -1.47166002e-005,
          6.79137884e-005, -3.63858999e-005, -9.66802108e-005,
          -2.53285165e-004, 3.73292823e-005, 3.44174885e-004,
          2.03259260e-004, -4.23974088e-005, -1.62269353e-004,
          -2.27604003e-004, -3.35264158e-005, 9.50284448e-005,
          -6.83655162e-005, 2.55044550e-004, 1.52434746e-004,
          -7.14756243e-005, 1.83542172e-004, 4.61816031e-004,
          3.51198280e-004, 1.10815643e-004, 2.32691509e-005,
          -1.12082504e-004, -6.85982450e-005, 2.76318005e-005,
          -4.65971470e-006, 4.31304761e-005, 2.32329534e-004,
          5.04973505e-005, 2.49042379e-004, 3.34978977e-004,
          2.00968643e-004, -2.22756917e-005, -7.95537999e-005,
          -2.64104194e-004, -2.13863314e-004, 4.90404054e-005,
          -9.86687592e-005, 1.72575514e-004, 2.43580289e-004,
          5.16481850e-005, 1.07438165e-004, 1.07457592e-004,
          5.70276206e-005, 3.61274651e-005, 9.72867056e-005,
          -1.45666825e-004, -3.18633451e-004, 1.55010966e-005,
          -5.77412584e-006, 3.30696639e-004, 2.27116223e-004,
          -8.62850866e-005, 1.94770255e-005, 2.14576474e-004,
          6.32121955e-005, -7.90749327e-005, -1.44394216e-004,
          -2.81362067e-004, -3.28892347e-005, 2.34242558e-004,
          -5.03387164e-005, 8.47020274e-005, 4.68814542e-005,
          -3.54088814e-004, -1.09351196e-004, 2.18445697e-004,
          1.76883637e-004, 5.07124241e-005, -1.94163265e-004,
          -2.61487236e-004, -1.43513302e-004, 1.82624353e-004,
          4.53988556e-004, 2.34158681e-004, -2.17625173e-004,
          -5.46639087e-004, -5.89893607e-004, -4.18468349e-004,
          -2.05340562e-004, -1.63516306e-004, -2.15306951e-004,
          -1.93468426e-004, 2.33851999e-004, 4.92660678e-004,
          3.69527697e-004, 2.97215047e-005, -2.89387623e-004,
          -5.27827127e-004, -4.71780979e-004, -7.88227990e-005,
          -8.83001703e-005, 1.32486584e-005, 1.84081815e-004,
          3.28356226e-004, 3.33098811e-004, 2.86038849e-004,
          2.75207363e-004, -1.39013737e-005, 3.76851131e-005 ]
      - [ -2.96461532e-020, -9.93541289e-006, -5.27118891e-006,
          3.98095290e-006, 1.17165771e-004, 8.37649131e-005,
          -1.84910605e-004, -2.78171501e-004, -1.86852179e-004,
          -1.72197106e-004, -1.61205797e-004, -1.25300881e-004,
          -1.67067832e-004, -1.86852179e-004, -1.86852179e-004,
          -1.83099721e-004, -1.30799090e-004, 2.62832800e-005,
          8.79803774e-005, -4.39055875e-005, -2.74639042e-005,
          -5.02591101e-005, -6.00752901e-005, -7.33596244e-005,
          -1.86852179e-004, -1.33361158e-004, -8.49994249e-005,
          -7.27456281e-005, -1.43010639e-005, 1.13425798e-004,
          2.16191431e-004, 2.05881224e-004, 2.51023070e-004,
          1.31597102e-004, 2.64872739e-004, 1.00770238e-004,
          -1.71200096e-004, -5.17997578e-005, 9.64196151e-005,
          1.95291577e-004, 2.96453363e-004, 4.16348805e-004,
          2.79208238e-004, 1.83092532e-004, 2.21179245e-004,
          1.46646213e-004, -2.78995121e-005, -1.19375945e-005,
          -9.02915854e-005, 4.58001668e-005, 1.86185964e-004,
          3.56923789e-004, 3.37139441e-004, 3.10568546e-004,
          1.41133874e-004, 6.54350151e-005, 3.26561130e-005,
          -2.69341632e-004, -2.09842779e-004, -1.53021319e-004,
          -1.44210630e-004, -1.23179561e-004, 1.50273690e-005,
          2.55360763e-004, 3.44669970e-004, 3.92291025e-004,
          1.26144179e-004, -7.79984766e-005, -4.84956081e-006,
          -6.62491511e-005, -1.11491587e-004, -1.65697653e-004,
          -1.25834209e-004, -7.68974587e-006, 1.09594126e-004,
          1.31121953e-004, 1.61876727e-004, 2.72506732e-004,
          1.92694424e-004, 2.07721649e-004, 2.33039507e-004,
          -6.96773714e-005, -7.66717130e-005, -1.36910181e-004,
          2.03376781e-004, 2.29543875e-004, 2.88380630e-004,
          2.69370386e-004, 2.52990256e-004, 1.43281693e-004,
          4.83936783e-005, 2.15161731e-006, 7.33131383e-005,
          1.21145356e-004, 9.04048793e-005, -8.61189110e-005,
          2.53176077e-005, 4.01672150e-005, 8.06029038e-006,
          -3.95554052e-005, -1.88401493e-004, -2.54795828e-004,
          -2.35642292e-004, -6.69999281e-005, 2.33417941e-005,
          3.76255775e-005, 2.53100552e-005, -1.92124353e-004,
          -3.03296954e-004, -1.36298753e-004, 4.83467993e-005,
          -2.63833135e-005, -1.21977115e-004, -4.38393836e-005,
          -4.39783889e-006, 1.07366222e-005, -2.96461532e-020,
          -2.96461532e-020, -8.96397105e-005, -5.25161959e-005 ]
      - [ 6.75431074e-005, 1.64521480e-004, 2.08830417e-004,
          1.81051088e-004, 7.64239376e-005, -7.86859382e-005,
          -2.60016212e-004, -2.87487899e-004, -1.84364500e-004,
          -1.67448830e-004, -1.31188732e-004, 1.47540004e-006,
          1.57476825e-004, 1.57040326e-004, 1.85233264e-004,
          1.85233264e-004, 1.55243615e-004, 6.24133463e-005,
          -2.33354644e-004, -3.91496753e-004, -2.25312411e-004,
          2.15708915e-005, 1.92955689e-004, 1.31263761e-004,
          7.73449865e-005, 2.12137762e-004, 3.07256152e-004,
          3.14790115e-004, 2.87240488e-004, 1.84023767e-004,
          5.45601979e-005, 5.29861936e-005, 1.82967706e-004,
          1.09391854e-004, 2.39862478e-004, 5.94220510e-005,
          -1.28372107e-004, 4.10372304e-005, 2.01061004e-004,
          2.37323286e-004, 2.34987761e-004, 1.94371023e-004,
          3.66955283e-005, -1.35558084e-005, 1.67102407e-004,
          4.97704823e-005, -9.04957706e-005, -5.66139861e-005,
          -1.84364500e-004, -1.20017678e-004, -1.34522952e-005,
          3.62809078e-005, 1.67599610e-005, -9.26796838e-006,
          -9.53770868e-005, -2.62399517e-005, 1.36625546e-004,
          -7.99742120e-005, -1.38145304e-004, -1.43459387e-004,
          -1.84364500e-004, -1.84364500e-004, -1.48937601e-004,
          -1.31585650e-004, -6.50698275e-005, -2.38589364e-005,
          2.20866605e-005, -8.27818221e-005, 2.08004876e-005,
          -1.28147716e-004, -1.05821906e-004, -1.55343587e-004,
          -1.84364500e-004, -1.84364500e-004, -1.32308647e-004,
          -1.40984615e-004, -1.22118770e-004, 3.70784655e-005,
          -4.75102242e-005, 9.19195882e-005, 1.01494647e-004,
          -3.03311681e-004, -2.10791826e-004, -1.83356373e-004,
          -1.84364500e-004, -1.84364500e-004, -1.26214640e-004,
          -1.34280126e-004, -3.35328139e-008, 4.98857116e-005,
          2.34129184e-005, 9.45941702e-006, -9.64498395e-005,
          -4.26568840e-005, -4.06199870e-005, -1.81658630e-004,
          -2.79438187e-004, -3.58383288e-004, -3.92873888e-004,
          -2.43123635e-004, -2.02053838e-004, -1.15610419e-004,
          1.78819901e-005, 9.52445043e-005, -1.35525272e-019,
          -1.35525272e-019, -2.97105216e-005, -1.95240573e-004,
          -3.41405830e-004, -3.34782322e-004, -2.30922335e-004,
          -1.02839338e-004, -1.05499967e-004, 5.99359082e-005,
          1.03883838e-004, 8.67475228e-006, -1.35525272e-019,
          -1.35525272e-019, -8.40383364e-005, -4.92345789e-005 ]
      - [ -2.29376522e-018, -4.01802536e-005, -7.40350733e-005,
          4.09431959e-005, 1.22927144e-004, 3.10378935e-004,
          1.29245629e-004, -7.27716688e-005, -2.55913124e-004,
          -2.34553285e-004, -4.29632055e-005, 7.55347719e-005,
          -2.47597258e-004, -2.76917970e-004, -2.57953303e-004,
          -7.57456291e-005, 3.09249626e-005, 2.06452372e-004,
          6.56551492e-005, -4.78296315e-005, -5.13687810e-005,
          2.02495023e-004, 2.86927796e-004, -1.82995791e-005,
          -2.76917970e-004, -1.30427943e-004, 1.79125873e-005,
          9.40351947e-006, -8.62201850e-005, -1.01822559e-004,
          -2.22793358e-004, -2.33594794e-004, -9.20537514e-006,
          6.84137240e-006, 1.04345279e-004, 1.03990010e-006,
          -2.54368351e-004, 1.47377854e-004, 3.95167415e-004,
          3.69360991e-004, 2.35119660e-004, 9.45217544e-005,
          2.64170030e-005, -2.35296666e-005, 6.25577231e-005,
          -6.37365374e-005, -2.79319385e-004, -8.88764407e-005,
          -1.03462953e-005, 1.20187018e-004, 2.97155144e-004,
          2.80687294e-004, 2.11971404e-004, 1.28525309e-004,
          -1.48252711e-005, -5.62747337e-005, 7.20615062e-005,
          -3.50728747e-004, -2.71381839e-004, -1.85433557e-004,
          -2.34282066e-004, -1.49464162e-004, -5.71901655e-005,
          -1.34832601e-006, 2.57145846e-004, 2.79183383e-004,
          -5.77917162e-005, -1.14145871e-004, -1.19415810e-004,
          -3.12198972e-004, -1.42234858e-004, -2.00794908e-004,
          -2.76917970e-004, -2.76917970e-004, -2.22887611e-005,
          5.29001118e-005, -6.86779531e-005, -1.35885581e-004,
          -3.18741550e-005, 5.42516827e-005, -8.37835178e-005,
          -4.42113465e-004, -2.87456700e-004, -2.37003827e-004,
          -2.76917970e-004, -2.24405885e-004, 6.29195856e-005,
          -9.34224809e-005, -1.68795726e-004, 6.52995277e-006,
          3.65748638e-005, -2.20906455e-004, -1.65064834e-004,
          -6.40712169e-005, -5.26562326e-005, -2.34809355e-004,
          -3.19990475e-004, -2.74999969e-004, -4.79653710e-004,
          -5.02416515e-004, -2.63411814e-004, -8.33375525e-005,
          -1.68052618e-004, -9.21681567e-005, -2.29376522e-018,
          -2.29376522e-018, -3.84033992e-005, -2.52365193e-004,
          -2.35201049e-004, -4.20061173e-004, -3.01515247e-004,
          -1.79965777e-004, 2.81707053e-005, 9.71116333e-006,
          -6.81025558e-005, -2.29376522e-018, -2.29376522e-018,
          -2.29376522e-018, -1.08626758e-004, -6.36399200e-005 ]
      - [ 4.44840174e-004, 2.26448406e-004, 2.50572102e-005,
          -1.32192436e-004, -1.60206720e-004, -1.88221005e-004,
          -3.58834193e-004, -3.60943697e-004, -2.23238865e-004,
          -2.05729943e-004, -1.92598236e-004, -1.49701358e-004,
          1.85252007e-004, 4.59833172e-005, -9.70926558e-005,
          -2.23238865e-004, -2.23238865e-004, -2.23238865e-004,
          -3.95610201e-004, -5.06017997e-004, -3.50545801e-004,
          -2.15862179e-004, -1.63708508e-004, -9.54236748e-005,
          1.61614953e-004, 1.09890920e-004, 2.45944157e-005,
          -1.04178143e-004, -1.04178143e-004, -9.71745685e-005,
          -2.47659744e-004, -2.61322770e-004, -2.05372635e-004,
          -3.49620910e-004, -6.47045963e-005, -3.38813179e-018,
          1.61614953e-004, 1.43157886e-004, 1.26146217e-004,
          -3.38813179e-018, -3.38813179e-018, -3.38813179e-018,
          -1.72371321e-004, -2.91662785e-004, -2.32533232e-004,
          -2.46431620e-004, -2.80582579e-004, -9.12554096e-005,
          1.61614953e-004, 1.33046124e-004, 1.65772712e-004,
          1.10951682e-004, 9.40203608e-005, 7.63947464e-005,
          -7.05241619e-005, -1.11161033e-004, -2.86771774e-005,
          -2.46535608e-004, -1.75426874e-004, -1.31003399e-004,
          1.79911061e-004, 1.74125031e-004, 8.92434837e-005,
          2.32681432e-005, 1.06693187e-004, 1.50825726e-004,
          1.14827577e-004, 4.44710713e-005, 2.15707478e-004,
          1.87718178e-004, 2.12991959e-004, 7.93840354e-006,
          1.61614953e-004, 4.59833172e-005, -1.79103299e-005,
          -1.62060198e-004, -1.42026634e-004, -9.78999669e-005,
          -2.13122083e-004, 1.97813526e-004, 3.26702022e-004,
          1.04731225e-004, 2.39091169e-004, 2.26801232e-004,
          1.61614953e-004, 4.59833172e-005, -2.98414798e-005,
          -1.77285838e-004, -7.31456021e-006, 5.91673997e-005,
          -1.25883700e-004, 2.22715491e-004, 2.79744330e-004,
          4.02775942e-004, 2.89185031e-004, 7.48188540e-006,
          3.54346339e-005, -1.75823676e-004, -3.02352768e-004,
          -2.63017515e-004, -8.45861650e-005, 6.23863962e-005,
          -3.16297555e-005, 1.90188919e-004, 9.00580199e-005,
          9.41288181e-006, -3.94313502e-005, -2.59120308e-004,
          -8.73079698e-005, -1.06340240e-005, 8.46143957e-005,
          -4.09360800e-005, -1.09198860e-004, -1.23472710e-004,
          -6.37917110e-005, -3.38813179e-018, -3.38813179e-018,
          -3.38813179e-018, -1.11534384e-004, -6.53433817e-005 ]
      - [ 3.35471123e-004, 2.44799972e-004, 6.86514250e-005,
          -3.96610449e-005, -1.34482863e-004, -1.57998991e-004,
          -2.56521540e-004, -2.63190508e-004, -1.87394151e-004,
          -1.72696571e-004, -1.61673393e-004, -1.25664315e-004,
          1.45395563e-004, 8.45963295e-005, -4.59897019e-005,
          -1.15693678e-004, -1.87394151e-004, -1.87394151e-004,
          -2.85249582e-004, -3.47928231e-004, -2.59666471e-004,
          -1.80589646e-004, -1.37422379e-004, -8.01018177e-005,
          1.25553837e-004, 1.38242496e-004, 5.61584857e-005,
          -1.11930203e-005, -5.59375258e-005, -3.23944769e-005,
          -9.41914404e-005, -6.05956229e-005, -2.91296146e-005,
          -1.64429133e-004, 4.09128188e-005, 7.24179772e-005,
          1.25553837e-004, 2.10874074e-004, 2.87023198e-004,
          2.53241597e-004, 2.19889029e-004, 2.29104568e-004,
          1.23321297e-004, 5.88215808e-005, 8.02413560e-005,
          -5.62319037e-005, -3.87387990e-005, 7.28604718e-005,
          1.25553837e-004, 1.95956614e-004, 2.00081282e-004,
          1.46905513e-004, 7.11000393e-005, 1.85394256e-005,
          -8.93696342e-005, -4.03476988e-005, 8.89215153e-005,
          -1.15646537e-004, 3.70921261e-005, 1.17248739e-004,
          1.25553837e-004, 8.45963295e-005, -9.98063024e-006,
          -5.72887329e-005, -4.96477114e-005, 5.63965659e-006,
          -9.24901105e-005, -1.48518069e-004, 3.99581586e-005,
          -2.54888946e-005, 1.42478515e-004, 1.08294647e-004,
          1.25553837e-004, 1.28006199e-004, 1.58880590e-004,
          1.05295083e-004, 7.16796640e-005, 1.11528148e-004,
          5.58850370e-005, 1.39793832e-004, 2.21799099e-004,
          -4.04776511e-005, 6.47487250e-005, 8.71885713e-005,
          6.93406328e-005, 6.54516407e-005, 1.08829947e-004,
          7.28162340e-005, 5.80754458e-005, 2.58806667e-005,
          1.34668460e-006, 2.52175432e-005, 1.09805696e-004,
          1.46490085e-004, 2.31919024e-004, 1.34849804e-004,
          -1.58355761e-004, -2.17836510e-004, -2.41731745e-004,
          -2.70315824e-004, -2.66710325e-004, -2.20412941e-004,
          -1.71271357e-004, 1.63639070e-005, 1.59311050e-004,
          1.41404453e-004, 1.88106074e-004, 1.58719398e-004,
          -3.05716094e-004, -2.83803151e-004, -1.77789960e-004,
          -1.63092380e-004, -1.38148840e-004, -9.91345878e-005,
          -4.02934129e-005, 7.00884557e-005, 1.58916257e-004,
          1.41404453e-004, 1.38583811e-004, 2.25780444e-004 ]
      - [ 2.84603070e-019, -1.95411685e-005, 2.86332779e-005,
          -6.49872818e-005, -1.50067877e-004, -1.76309259e-004,
          -3.11693846e-004, -1.77075097e-004, 1.39459647e-004,
          8.90770389e-006, -1.80409465e-004, -1.40227363e-004,
          -1.86969817e-004, -1.81569892e-004, 1.00177058e-005,
          -7.28252198e-005, -2.05275894e-004, -2.09110978e-004,
          -3.44971108e-004, -2.92720477e-004, 3.91185131e-005,
          4.34154708e-006, -1.42007601e-004, -7.80442497e-005,
          -1.71039486e-004, -9.90258632e-005, 1.74626693e-004,
          2.24755524e-004, 3.94382078e-005, -8.30119370e-006,
          -1.00588732e-004, -3.94168055e-005, 2.00818395e-004,
          4.27169334e-006, 1.13517075e-004, 1.71112362e-004,
          -1.67691378e-005, 8.35874671e-005, 2.90970580e-004,
          4.32519882e-004, 3.18927370e-004, 2.70117889e-004,
          1.28940272e-004, 9.33039701e-005, 2.10081911e-004,
          1.25155624e-004, 5.91943062e-005, 2.18204106e-004,
          3.09656980e-006, 1.02676153e-004, 3.64731619e-004,
          2.55824736e-004, 1.08210043e-004, 5.19154310e-005,
          -1.09094610e-004, 2.96689063e-006, 2.10298531e-004,
          -1.03591643e-004, -1.53886824e-004, -1.02725673e-004,
          -1.45830752e-004, -1.23871680e-004, 1.25367311e-004,
          1.71888605e-004, 1.72393229e-005, -6.08988330e-006,
          -1.61557240e-004, -1.65912817e-004, 1.59133648e-004,
          1.82290642e-005, -1.54660866e-005, -4.38508905e-005,
          -5.33396305e-005, -4.10373832e-005, 1.34735237e-004,
          2.50431156e-004, 1.55972724e-004, 1.64833298e-004,
          1.04479986e-004, 2.09427904e-004, 3.50267772e-004,
          5.69322146e-005, 1.26926796e-004, 1.64661396e-004,
          8.30892168e-005, 1.04796978e-004, 2.70658376e-004,
          2.03824078e-004, 1.11488502e-004, 7.20902826e-005,
          -1.35377986e-005, 8.31149882e-005, 2.46167532e-004,
          1.65507518e-004, 2.57095089e-005, -1.46306702e-004,
          -1.88909748e-004, -2.43950315e-004, -7.00996170e-005,
          -7.34059140e-005, -2.65358074e-004, -2.90396885e-004,
          -2.35386076e-004, 5.22617884e-005, 3.33180011e-004,
          1.92437452e-004, -3.10791147e-005, -2.04234166e-004,
          -3.73386283e-004, -3.33243661e-004, 2.69172906e-005,
          9.47029039e-005, -1.20470104e-004, -1.37636074e-004,
          -5.59424043e-005, 4.81658062e-005, 1.38361283e-004,
          7.13324262e-005, -8.79094878e-005, -5.15025313e-005 ]
      - [ 1.08420217e-019, -3.68353540e-005, -9.85594597e-005,
          -1.35112554e-004, -4.69224760e-005, 1.49519328e-004,
          4.64687082e-006, -7.55559813e-005, -3.43749889e-005,
          -1.45244107e-004, -1.86071527e-004, -1.70239073e-004,
          -2.26985416e-004, -2.53865262e-004, -2.53865262e-004,
          -9.33243209e-005, 5.02742660e-005, 6.72364258e-005,
          -3.51737748e-004, -4.62423835e-004, -1.33518233e-005,
          -8.31534853e-005, -5.74114056e-005, -9.33075062e-005,
          -2.53865262e-004, -1.81190117e-004, -1.15483810e-004,
          1.19518227e-005, 5.46925330e-005, 2.11385443e-004,
          -3.72354916e-005, 1.23786856e-004, 1.45922444e-004,
          -2.82390916e-004, -9.95930714e-006, 1.01383046e-006,
          -2.53865262e-004, -1.11697205e-004, 1.34818882e-004,
          2.67493131e-004, 4.73910448e-004, 4.78890492e-004,
          2.41476402e-004, -1.55006463e-004, -1.96437701e-004,
          -2.66345189e-004, -3.40703729e-004, -1.13347749e-004,
          -9.99473632e-005, 1.87841550e-004, 3.53779964e-004,
          3.66579858e-004, 2.91860837e-004, 2.25459662e-004,
          3.63313193e-005, -2.04918178e-004, -3.72530922e-005,
          -2.64929258e-004, -1.76804213e-004, -1.94615423e-004,
          1.83895696e-004, 2.66773306e-004, 2.30259047e-005,
          1.41812037e-004, 2.43990522e-004, 2.35872852e-004,
          3.18162638e-005, -6.08836235e-005, -4.37136332e-005,
          -1.65007059e-005, 1.41235127e-004, 4.43827121e-005,
          5.64620950e-006, 2.78035513e-005, 2.85501028e-005,
          1.08461529e-004, 1.42659395e-004, -2.26439297e-005,
          -1.83077689e-004, 1.46796039e-004, 1.16020354e-004,
          -3.66960332e-004, 1.06689195e-005, 5.47694872e-005,
          -2.44912517e-004, -1.42991717e-004, 1.67450453e-005,
          -2.24880114e-005, -6.18547128e-005, -4.48310711e-005,
          -2.27946322e-004, -2.44917814e-004, 2.01689065e-004,
          3.74981028e-005, 1.13105380e-004, -2.26377757e-004,
          -4.05147875e-004, -4.53072338e-004, -3.94683506e-004,
          -1.80046991e-004, -1.07419808e-004, -8.73829194e-005,
          -1.98146314e-004, -3.03184970e-005, 2.90104072e-004,
          7.35704307e-005, -4.79635928e-005, -3.21851636e-004,
          -5.06311480e-004, -4.02294507e-004, -1.51518587e-004,
          -9.32770708e-005, -4.40396216e-005, 1.54372989e-004,
          1.67279941e-004, 2.87321658e-004, 9.56583026e-005,
          1.36867102e-005, -1.38536139e-004, -8.11625869e-005 ]
      - [ -3.38813179e-020, 2.68889398e-005, 7.46587102e-005,
          8.74462276e-005, 8.02686554e-006, -7.91178027e-005,
          -2.06098892e-004, -2.56719941e-004, -1.31440756e-004,
          -2.96957605e-005, -1.55787382e-006, -3.38813179e-020,
          -1.55787382e-006, -5.99781415e-005, -1.53116038e-004,
          -3.05700698e-004, -1.58915849e-004, 8.16315078e-005,
          1.79793176e-004, 1.04786530e-004, -7.59388931e-005,
          -8.44870956e-005, -3.04925629e-006, 7.16705972e-006,
          -4.82940886e-005, -1.17477153e-004, -2.86186405e-004,
          -2.61171517e-004, -9.09468799e-005, 2.08864090e-004,
          1.87415411e-004, 1.61231888e-004, 1.27966443e-004,
          1.02172926e-004, 1.72494067e-004, 9.62397753e-005,
          -1.45105019e-004, -1.39764583e-004, -1.32606787e-004,
          9.56629538e-006, 1.33648355e-004, 3.15078214e-004,
          2.03725183e-004, 1.61231888e-004, 1.37439478e-004,
          3.38249483e-005, -6.96949792e-005, -6.03466178e-005,
          -1.72397602e-004, -4.64179866e-005, 2.12861250e-005,
          1.34765214e-004, 1.61231888e-004, 1.61231888e-004,
          1.09175453e-004, 3.35911755e-005, -1.06812957e-004,
          -2.69485667e-004, -3.50262271e-004, -3.27812188e-004,
          -2.19631373e-004, -2.56207481e-004, -1.38094576e-004,
          5.35874824e-005, 1.46491104e-004, 1.71777967e-004,
          4.23675156e-005, -1.16540381e-004, -1.66211306e-004,
          -2.43306902e-004, -3.50262271e-004, -2.96579587e-004,
          -5.92085999e-005, -8.81184242e-005, -7.94030420e-005,
          -2.13692529e-005, 3.16448459e-005, 2.32664112e-004,
          3.36082943e-004, 1.60690965e-004, -2.89931268e-006,
          -1.45205631e-004, -1.68191225e-004, -8.51501754e-005,
          3.38114100e-004, 2.85691262e-004, 1.07508764e-004,
          9.00585364e-005, 1.33748195e-004, 1.51136745e-004,
          1.90838036e-004, 3.07783848e-005, -7.55748988e-005,
          -4.45080732e-005, 8.94261029e-005, 9.95281735e-005,
          2.19797585e-004, 3.16762598e-004, 2.77288433e-004,
          4.00172285e-005, -9.33487172e-005, -1.57705290e-004,
          -1.58606577e-004, -2.41974369e-004, -2.95651320e-004,
          -1.26556100e-004, 4.61378113e-005, 9.16441877e-006,
          -3.88202643e-005, 7.52211927e-005, 8.39105996e-005,
          1.10904519e-004, -1.51200784e-005, -1.11085283e-004,
          -2.13595646e-004, -1.83148819e-004, -1.29562963e-004,
          -1.11627574e-004, -5.90036689e-005, -5.90036689e-005 ]
      - [ -9.76738447e-005, 2.55037248e-005, 6.95806084e-005,
          2.33162609e-005, -1.54911992e-004, -2.72376928e-004,
          -2.88386480e-004, -3.49422422e-004, -2.80537963e-004,
          -2.10081780e-004, -1.54187685e-004, -1.36801373e-005,
          2.50394631e-004, 1.74343440e-004, 5.77959654e-005,
          5.62257701e-005, 1.51454879e-004, 1.31715438e-004,
          -1.29715234e-004, -2.06027384e-004, -3.17010272e-004,
          -1.16816052e-004, 1.64578261e-004, 1.63998760e-004,
          2.28105899e-004, 2.05127391e-004, 8.84764740e-005,
          1.81921874e-004, 3.23110929e-004, 2.66140589e-004,
          1.86837467e-004, 4.74014705e-005, 1.21043646e-004,
          1.80384741e-004, 1.36769027e-004, 2.25850772e-006,
          -1.04011669e-004, -5.43023998e-005, -5.40401707e-005,
          5.51464509e-005, 2.34767242e-004, 2.33025028e-004,
          1.78175775e-004, 8.13371371e-005, 1.45976242e-004,
          1.68658073e-006, -7.29553794e-005, -1.65291262e-004,
          -2.19196561e-004, -2.72359379e-004, -2.41618211e-004,
          -9.13431213e-005, 8.55215476e-005, 8.55215476e-005,
          1.02243299e-004, 8.49417702e-005, 5.75565100e-005,
          -6.11046562e-005, -1.54964015e-004, -2.20280592e-004,
          -2.12430430e-004, -2.72359379e-004, -2.87223753e-004,
          -2.43218645e-004, -8.07854594e-005, -4.94947017e-005,
          1.50915890e-004, 1.10069326e-004, -9.24192227e-006,
          -1.76954374e-004, -2.46175099e-004, -2.13795502e-004,
          -1.46674720e-004, -1.92178035e-004, -3.16526799e-004,
          -2.49868754e-004, -9.42513070e-005, 1.26172017e-004,
          1.16875955e-004, 1.26997824e-004, -3.48004723e-005,
          -3.19693558e-004, -2.14168031e-004, -1.46674720e-004,
          -2.78329117e-005, -1.56844311e-004, -2.66997580e-004,
          -2.80408276e-004, -3.56835189e-005, 1.38187112e-004,
          1.68141618e-004, 9.01356689e-005, -2.52110709e-004,
          -3.57808982e-004, -1.56844311e-004, -2.78329117e-005,
          -1.08420217e-019, -3.97613039e-005, -1.46891776e-004,
          -1.18319258e-004, -1.55851201e-004, -2.89522195e-005,
          1.39866985e-004, -9.31550403e-006, -3.25382483e-004,
