%YAML:1.0
my_svm: !!opencv-ml-svm
   svm_type: C_SVC
   kernel: { type:LINEAR }
   C: 1.
   term_criteria: { epsilon:2.2204460492503131e-016, iterations:300 }
   var_all: 120
   var_count: 120
   class_count: 12
   class_labels: !!opencv-matrix
      rows: 1
      cols: 12
      dt: i
      data: [ 0, 1, 2, 4, 5, 6, 7, 8, 10, 11, 12, 13 ]
   sv_total: 66
   support_vectors:
      - [ -1.80271920e-004, -3.28146154e-004, -7.06028659e-004,
          1.09590183e-003, -8.85931440e-005, -5.81908214e-004,
          -2.01891409e-003, -6.34728139e-003, -5.45566808e-003,
          -4.42619814e-004, -8.18785571e-004, -3.87078762e-004,
          1.26548088e-003, 5.71908895e-005, 4.40049247e-004,
          -3.80346522e-004, -1.37026585e-003, -1.95812481e-005,
          -1.22232549e-003, -3.37771908e-003, -6.58937730e-004,
          2.63747736e-003, 1.51052803e-003, 1.86979817e-003,
          -1.57433224e-003, -1.28976873e-003, -6.20410196e-004,
          -4.40355437e-003, -4.27287025e-003, 1.49706239e-003,
          2.78057298e-003, 3.03384056e-003, 1.75446155e-003,
          -5.11331018e-005, -9.50731221e-004, -6.28667476e-004,
          1.49501822e-004, 4.19976539e-004, -2.55819381e-004,
          -9.29573071e-005, -1.16592296e-003, -2.49152188e-004,
          3.28021706e-004, 4.07487882e-004, 1.17363967e-003,
          -1.11773188e-004, 3.25498811e-004, 4.63070610e-004,
          -2.66876945e-004, 6.50304501e-005, -2.14582818e-004,
          4.89430036e-004, 1.50626583e-004, 1.12728521e-004,
          8.15183521e-005, 2.98873074e-005, 3.32399039e-004,
          -5.50873985e-004, -9.08799193e-005, 4.66918646e-005,
          -3.48395290e-004, 8.23746886e-005, -3.48042493e-004,
          3.57752491e-004, 2.16840434e-019, 2.16840434e-019,
          2.16840434e-019, -1.43419566e-005, 2.13591586e-004,
          -8.36048101e-004, -1.72398271e-004, -3.48264839e-005,
          2.31210171e-004, 5.04894590e-004, -4.12712179e-005,
          6.42681844e-004, 3.79026664e-004, -1.10528059e-003,
          -5.40003239e-004, 8.01540038e-004, 2.38800165e-003,
          -1.54107646e-003, -5.35652034e-005, 4.32538334e-004,
          -1.25950389e-003, -1.09039014e-003, -6.16921519e-004,
          1.07668759e-003, 1.08825590e-003, 1.80803344e-003,
          9.01004532e-004, -1.22696208e-003, -1.61810848e-003,
          -5.47468837e-004, -1.67657365e-003, -7.41384574e-004,
          7.97979825e-004, -1.45481477e-004, 4.11339599e-004,
          6.81136269e-004, -1.98021415e-003, -2.42099771e-003,
          -1.85102155e-003, -5.70989738e-004, 2.29266915e-003,
          3.39877792e-004, -1.51359115e-003, 2.82242981e-004,
          1.22276577e-003, -7.70860643e-004, -2.80199922e-004,
          -5.61647257e-003, -7.36232800e-003, -3.72831384e-003,
          -3.62211518e-004, 1.09329994e-003, 1.67730555e-003,
          -1.60717696e-003, -7.54706212e-004, -1.06897962e-003 ]
      - [ 4.26346014e-005, -8.55868275e-004, -1.73449935e-003,
          4.18899115e-004, 1.66500558e-003, -2.69636395e-003,
          7.39263705e-005, 1.07999879e-003, 1.05175609e-003,
          -3.06971197e-005, -3.11263930e-003, 4.36654984e-004,
          -3.11380078e-004, 4.37191484e-004, 1.40969688e-003,
          9.99876065e-004, 9.99876065e-004, 9.99876065e-004,
          1.05040846e-003, 1.14196120e-003, 9.35814867e-004,
          6.49248192e-004, 2.80466233e-003, 2.59700487e-003,
          6.41718652e-005, 3.79700447e-003, -1.81748671e-003,
          3.30844941e-003, 2.12151394e-003, -2.25968799e-003,
          1.09861617e-003, 8.70819762e-003, 2.90071126e-003,
          5.53288148e-004, -8.91058648e-004, -1.34562491e-003,
          -1.37001218e-004, -3.19537736e-004, -2.12441984e-004,
          -9.08060640e-004, -1.02012837e-003, -1.01929426e-003,
          2.31785365e-004, 1.26341509e-003, 2.58944230e-003,
          7.47955462e-004, 2.69750808e-003, -2.01502160e-004,
          -4.63875185e-004, -4.63316770e-004, -2.31501806e-004,
          -4.62199416e-004, -4.44885169e-004, -4.44885169e-004,
          -1.92089792e-004, 2.46524718e-003, 2.42839524e-004,
          -5.58597385e-004, 2.12324318e-003, 3.57509020e-006,
          -4.63875185e-004, -4.63316770e-004, -2.31501806e-004,
          -4.62199416e-004, -4.44885169e-004, -3.93689785e-004,
          1.48099766e-003, 2.51734816e-003, 1.05381210e-003,
          4.73744090e-004, 4.23947728e-004, -3.52944800e-004,
          -1.89900438e-005, -1.52820125e-004, 1.76637914e-005,
          9.45652602e-004, 2.64087901e-003, 3.63433082e-003,
          4.55068075e-005, 9.05738736e-004, 4.89769131e-003,
          1.40437763e-003, -2.05686869e-004, -5.00341586e-004,
          2.30092221e-004, -4.99920687e-003, -1.46100891e-003,
          -4.26651165e-003, -1.40549627e-003, 6.74765848e-004,
          5.08482847e-003, 1.90031272e-003, -1.05115643e-003,
          -1.05239020e-003, -5.60961897e-004, -3.87539010e-004,
          6.79305289e-004, 9.85128456e-004, 5.24757663e-003,
          8.64543114e-003, 5.96175157e-003, 2.22155731e-003,
          -1.02008902e-003, -1.13958318e-003, -1.08511117e-003,
          -6.70343346e-004, -2.98449595e-004, -3.42607887e-017,
          -1.55037444e-004, 5.97736333e-003, 2.57795700e-003,
          -1.00678543e-003, -1.05456996e-003, -1.09737378e-003,
          -1.14850071e-003, -1.15147315e-003, -7.93526589e-004,
          -4.50559601e-004, -4.41650656e-004, -3.40963452e-004 ]
      - [ -3.63191191e-007, -7.49221135e-006, 1.85690878e-005,
          6.35301476e-005, 8.65970505e-005, 9.48625166e-005,
          5.65833579e-005, 1.18099684e-004, 1.46030929e-004,
          1.41346834e-006, 1.15318064e-004, 1.00179554e-004,
          9.51874026e-005, 1.95478293e-004, 1.47617990e-004,
          1.44845908e-004, 1.44845908e-004, 1.44845908e-004,
          1.44845908e-004, 1.44845908e-004, 1.40195756e-004,
          4.18212076e-005, 1.03192273e-004, 8.87148144e-006,
          1.69067353e-004, 1.49843945e-005, -1.62936369e-004,
          -8.39882268e-005, -8.39882268e-005, -1.05385210e-004,
          -1.51516826e-004, -1.24968894e-004, -5.68816904e-005,
          3.32268886e-004, 2.20557602e-004, -2.69332668e-005,
          2.01441930e-004, 1.03442135e-005, -1.94903099e-004,
          2.27651362e-005, 7.30880711e-005, 1.10231187e-004,
          1.74932095e-004, 1.14100309e-004, 2.97579943e-004,
          7.18655181e-004, 3.44868429e-004, -1.73238313e-005,
          1.76999820e-004, 1.33410300e-004, 2.54618353e-004,
          4.45571757e-004, 4.30320535e-004, 4.53518878e-004,
          3.67057713e-004, 3.01836728e-004, 1.22971978e-004,
          5.91418706e-004, 3.08869639e-004, -3.21806256e-005,
          1.93509477e-004, 3.52913106e-004, 4.21365956e-004,
          5.29171841e-004, 3.20249645e-004, 2.18119079e-004,
          3.48124100e-004, 4.88089048e-004, 9.73544593e-005,
          7.22677913e-004, 1.23206060e-004, -3.00489482e-005,
          2.01441930e-004, 3.85108084e-004, 5.89654781e-004,
          7.37469876e-004, 6.08962437e-004, 4.03533835e-004,
          1.04390878e-004, -1.16593328e-004, -1.00823991e-005,
          6.46313245e-004, 2.76874634e-004, -2.21164919e-005,
          1.74554050e-004, 2.62479909e-004, 9.56321310e-005,
          1.20196564e-004, 5.88926450e-005, 1.29573571e-004,
          3.85934291e-005, 2.90180440e-004, 3.32388503e-004,
          1.83820302e-005, -6.47786947e-005, -4.25566614e-005,
          1.42867968e-004, 1.05399253e-004, 4.15648392e-004,
          4.92538384e-004, 2.88602780e-004, 8.20751156e-005,
          -1.12750437e-004, -1.44845908e-004, -1.40043587e-004,
          -8.42712834e-005, -5.31722326e-005, -4.15502327e-005,
          2.11484497e-004, 2.31213435e-005, -1.69625535e-004,
          -1.29000488e-004, -1.44845908e-004, -1.37099254e-004,
          -1.25127161e-004, -1.01535079e-004, -5.76807361e-005,
          -2.52769732e-005, -2.49300465e-005, -1.92465122e-005 ]
      - [ 3.21126019e-004, 2.94649741e-004, 3.15375335e-004,
          3.19625309e-004, 4.71722684e-004, 2.11970473e-004,
          1.06572079e-004, 3.34432756e-004, 4.21941986e-005,
          -5.24716394e-004, -2.30935766e-004, -8.53286256e-005,
          -6.93135225e-005, 2.83456495e-004, 3.18999228e-004,
          4.27456427e-004, -2.82676978e-004, -6.39110222e-004,
          -4.79677285e-004, -3.63806641e-004, 4.61646036e-004,
          1.05482475e-004, 1.22743759e-005, -2.82526074e-004,
          -9.63441489e-005, 2.40218214e-004, 4.54371795e-004,
          3.89366061e-004, -2.93439953e-004, -4.09684435e-004,
          -3.50861927e-004, -5.25478135e-005, 1.96762994e-004,
          1.98649446e-004, 1.03798928e-004, -1.81984680e-004,
          4.32841596e-004, 4.13391273e-004, 4.38943447e-004,
          4.70227475e-004, -1.10517343e-004, -1.44130201e-004,
          -1.44130201e-004, 1.21971592e-004, 2.87295989e-004,
          3.27990711e-004, 4.51033819e-004, 3.66125547e-004,
          3.79702920e-004, 4.28234314e-004, 3.55331314e-004,
          3.82874976e-004, -1.46910868e-004, -1.46910868e-004,
          -1.46910868e-004, 1.97528898e-005, 2.26942546e-004,
          3.41344450e-004, 4.15720802e-004, 3.12986842e-004,
          4.52372245e-004, 4.81910422e-004, 3.71216476e-004,
          4.92214924e-004, -2.30078967e-006, -6.81259698e-005,
          -6.81259698e-005, -2.30078967e-006, 3.05727444e-004,
          4.20129363e-004, 4.94505686e-004, 3.85656167e-004,
          4.17775067e-004, 4.14534821e-004, 4.95145388e-004,
          5.83745539e-004, 2.36314427e-005, -1.69867912e-004,
          -1.87491285e-004, -7.56526570e-005, 3.29042901e-004,
          6.27303845e-004, 5.07361838e-004, 3.51058989e-004,
          -2.22762174e-004, 1.18300828e-004, 8.97107093e-005,
          5.66251634e-004, -4.02589649e-005, -4.18945769e-004,
          -4.29331965e-004, -2.25939759e-004, 4.38711257e-004,
          6.28758455e-004, 2.33563187e-004, -2.11490726e-004,
          -3.95172916e-004, -3.60348582e-004, -3.58355668e-004,
          3.77910241e-004, 9.72316120e-005, -3.81572376e-004,
          -5.25003707e-004, -5.51641642e-005, 4.61983582e-004,
          2.88657087e-004, -6.50126894e-005, -1.15216288e-004,
          2.33605751e-005, -2.49609962e-004, -3.34920274e-004,
          -8.72686633e-006, -6.23674932e-005, 7.14634079e-005,
          1.43851663e-004, 1.39547657e-004, 3.88355227e-004,
          6.50391681e-004, 3.25107918e-004, 3.80545389e-004 ]
      - [ -2.16868302e-005, -2.04181779e-005, 7.80090850e-005,
          1.74150671e-004, 1.36420917e-004, 4.78674974e-006,
          -1.59289339e-004, -2.41980131e-004, -2.26442135e-004,
          -2.39141707e-004, -1.34572416e-004, -1.23580423e-004,
          -2.18156583e-005, -6.79762306e-005, -1.30956410e-004,
          -2.32208477e-004, -1.87813581e-004, 5.96123427e-005,
          1.76860995e-004, 8.93037795e-005, -3.90959831e-005,
          -2.52267637e-004, -1.45154991e-004, -1.48729043e-004,
          -1.17980228e-004, -1.32678659e-004, -2.24083065e-004,
          -2.21576396e-004, -7.87418103e-005, 6.34241005e-005,
          2.02348208e-004, 2.02348208e-004, 2.16797853e-004,
          1.94829219e-004, 7.65575969e-005, -6.85785562e-005,
          -4.79456430e-005, -1.49687930e-005, -3.19446226e-005,
          1.42801175e-004, 2.33850660e-004, 2.86263559e-004,
          2.98845873e-004, 3.45155160e-004, 3.40903935e-004,
          1.75981360e-004, 8.62510205e-005, -1.55133403e-005,
          -3.14638419e-006, 2.50734476e-004, 2.36164648e-004,
          3.64554959e-004, 4.20179800e-004, 4.15317161e-004,
          3.36191588e-004, 1.82653093e-004, 7.00834644e-005,
          -7.54741268e-005, -9.46650398e-005, -1.14091221e-004,
          -2.90875396e-005, 3.01786822e-005, 4.59051444e-005,
          3.27834103e-004, 4.25539212e-004, 4.09549568e-004,
          2.02706287e-004, 6.62272432e-005, 4.57607275e-005,
          -4.79615919e-005, -7.73746506e-005, -9.25065469e-005,
          3.25325054e-005, 1.01687838e-004, 3.74370029e-005,
          1.67457241e-004, 2.08963975e-004, 2.63748516e-004,
          2.77078594e-004, 1.32721310e-004, 3.35457225e-005,
          -4.64698714e-005, -4.36058290e-005, -7.49398096e-005,
          2.87709729e-004, 2.69593089e-004, 1.55578571e-004,
          2.00986207e-004, 1.99978196e-004, 1.34683884e-004,
          1.04413280e-004, 7.24249476e-005, 7.69065882e-005,
          5.48393982e-005, 3.95433854e-005, -2.06961195e-005,
          1.98657945e-005, 1.76944435e-004, 9.58273304e-005,
          1.38384290e-004, -2.08879064e-005, -1.22975194e-004,
          -1.89819082e-004, -1.82518808e-004, -1.63748264e-004,
          -9.66106090e-005, -5.27932707e-006, 1.33366575e-005,
          -7.19232412e-005, -2.55702598e-005, -8.33594459e-005,
          -3.93271293e-005, -9.60124544e-006, 1.72311866e-005,
          -6.73825780e-005, -8.26930773e-005, -4.60685951e-005,
          -2.76471906e-006, -2.71050543e-020, -2.71050543e-020 ]
      - [ 1.04811363e-004, 3.07915121e-004, 3.23294982e-004,
          2.62462010e-004, 1.91259205e-005, -2.75318744e-004,
          -3.59754631e-004, -4.89843311e-004, -4.37419629e-004,
          -4.71530773e-004, -2.84345530e-004, 7.06919382e-005,
          3.74875119e-004, 2.76654580e-004, 2.80089909e-004,
          2.20608024e-004, 1.49426312e-004, -5.11386388e-005,
          -3.82710510e-004, -4.95862158e-004, -4.32245317e-004,
          -2.93147197e-004, 1.35901180e-004, 7.15613060e-005,
          1.97774367e-004, 2.68361066e-004, 2.78338703e-004,
          2.90133175e-004, 2.24591815e-004, -9.10459585e-006,
          -4.55481168e-005, -1.52746702e-006, 2.60146655e-004,
          3.30580981e-004, 3.20564490e-004, 6.89505541e-005,
          -1.74963337e-004, 8.02345821e-005, 1.18410302e-004,
          2.52852362e-004, 2.38760957e-004, 1.82669377e-004,
          1.38862742e-004, 2.54750630e-004, 5.40452835e-004,
          2.15599721e-004, 1.31292836e-004, -1.20326795e-005,
          -3.14996432e-004, -1.94585635e-004, -1.01762118e-004,
          1.24698752e-004, 1.52231412e-004, 1.52231412e-004,
          1.87038604e-004, 3.16831167e-004, 4.64961340e-004,
          2.00133611e-004, 1.23715711e-006, -5.77811188e-005,
          -2.57215288e-004, -1.62685639e-004, -1.54913461e-004,
          -2.75326693e-005, 0., 0., 3.49838607e-004, 3.62718565e-004,
          3.84854822e-004, 3.76660028e-005, -8.09900812e-005, 0.,
          -2.57215288e-004, -1.62685639e-004, -1.54913461e-004,
          -2.94774436e-005, -9.70166639e-006, 1.63774690e-004,
          1.22916594e-004, 2.66299350e-004, 2.45511474e-004,
          -1.28434549e-004, -8.09900812e-005, 0., -2.78931955e-004,
          -1.87967715e-004, -1.98697424e-004, -1.38777788e-004,
          6.36585974e-005, 9.86562227e-005, 1.20958168e-004,
          1.56880647e-004, -1.86898498e-004, -2.10383470e-004,
          -9.91413108e-005, -2.52820755e-005, -3.09583062e-004,
          -2.18942965e-004, -3.48311267e-004, -5.69675685e-005,
          -1.34104295e-004, -4.20485485e-005, 1.65900477e-004,
          8.64106696e-005, -2.80743901e-004, -2.09158592e-004,
          -1.22177793e-004, -5.62573223e-005, -2.87071802e-004,
          -1.92542138e-004, -3.20483232e-004, -4.73426408e-005,
          -2.27052806e-004, 3.98164811e-005, 3.83547522e-005,
          -2.00758179e-004, -1.45460901e-004, -6.68501816e-005,
          -2.98565028e-005, -2.98565028e-005 ]
      - [ -3.86852807e-005, -5.92051692e-005, -4.59676012e-005,
          8.91704694e-005, 1.66717218e-004, 3.39180202e-004,
          2.90788521e-005, -4.15798451e-004, -7.95153552e-004,
          -6.54707546e-004, 1.03027247e-004, 2.78064748e-004,
          -1.68074126e-004, -2.45123258e-004, -5.75035228e-004,
          -4.07500222e-004, -1.46632476e-004, 2.01458068e-004,
          1.81733951e-004, 6.25960820e-005, -5.12311599e-005,
          1.69841995e-004, 5.04277879e-004, -1.40800985e-004,
          -2.65702431e-004, -1.75232228e-004, -2.75620754e-004,
          -1.15330025e-004, -2.91798351e-004, -4.01695957e-004,
          -3.90513509e-004, -3.22454434e-004, 1.12994574e-004,
          2.37206536e-004, 2.27128385e-005, -1.59388175e-004,
          -2.48043158e-004, 2.06224839e-004, 2.24980075e-004,
          3.89804976e-004, 3.71787755e-004, 1.58494640e-005,
          2.04150187e-004, 4.09714819e-004, 2.87423551e-004,
          1.89424492e-004, -1.11078894e-004, -6.56112825e-005,
          7.64005235e-005, 2.75212049e-004, 1.81294425e-004,
          4.34200978e-004, 2.68719858e-004, 4.37772484e-004,
          5.94954356e-004, 3.85616382e-004, 4.02237376e-004,
          -1.48156134e-004, -1.84292876e-004, -1.19345903e-004,
          -1.53554967e-004, -1.05784195e-004, -2.55436957e-004,
          1.01233934e-004, 5.50827710e-004, 6.33046497e-004,
          1.68493963e-004, 4.09234694e-004, 2.45004194e-004,
          -1.62380602e-004, -7.70273618e-005, -1.20803879e-005,
          -1.58436917e-004, -2.21531736e-004, -1.55333400e-004,
          3.71509639e-004, 3.21251748e-004, -1.43020688e-005,
          1.70171057e-004, 3.94159841e-004, 2.82047004e-005,
          -1.68330793e-004, -7.70273618e-005, -1.20803879e-005,
          -1.79419192e-004, -1.51658780e-004, -2.83678110e-005,
          5.17502631e-005, -8.27257099e-005, -7.19138961e-006,
          3.11656564e-004, -2.14752454e-005, -1.03530161e-004,
          -1.83924989e-004, -9.68289023e-005, -3.65074993e-005,
          -5.26679614e-005, 1.88451697e-004, -4.22496843e-004,
          -3.30338138e-004, -1.72707849e-004, 1.86896636e-004,
          1.67661474e-005, -2.17553330e-004, -2.11871476e-004,
          -2.01652540e-004, -1.33791298e-004, -6.48350688e-005,
          3.18327977e-004, -1.73621607e-004, -5.77872852e-004,
          -3.42766143e-004, -2.12394341e-004, 6.59742655e-005,
          -2.05675911e-004, -1.86701131e-004, -1.34623682e-004,
          -8.20681453e-005, -4.01315774e-005, -3.20315921e-005 ]
      - [ 5.22398448e-004, 1.87437399e-004, -1.49730433e-004,
          -2.74697552e-004, -3.10054660e-004, -3.25013418e-004,
          -3.46771645e-004, -3.46771645e-004, -3.48958303e-004,
          -4.50571097e-004, -3.97736731e-004, -3.86446336e-004,
          2.10346538e-004, 9.18847800e-005, -4.21198383e-005,
          -1.33269103e-004, -1.33269103e-004, -1.33269103e-004,
          -1.30549321e-004, -1.04711435e-004, -8.24200906e-005,
          -1.45956001e-004, -8.08826298e-005, -1.64784462e-004,
          2.10346538e-004, 1.24522106e-004, 8.84294859e-005,
          6.09863722e-020, 6.09863722e-020, 6.09863722e-020,
          6.09863722e-020, 6.09863722e-020, -2.18665127e-006,
          -1.03799452e-004, -7.27232982e-005, -1.64784462e-004,
          2.10346538e-004, 1.24522106e-004, 8.84294859e-005,
          6.09863722e-020, 6.09863722e-020, 6.09863722e-020,
          6.09863722e-020, 6.09863722e-020, -2.18665127e-006,
          -1.03799452e-004, -7.27232982e-005, -1.64784462e-004,
          2.10346538e-004, 1.31324807e-004, 1.35457623e-004,
          7.69003746e-005, 7.69003746e-005, 7.69003746e-005,
          7.69003746e-005, 6.34096868e-005, 2.46628060e-005,
          -9.12494361e-005, -7.23447301e-005, -1.64784462e-004,
          2.23951953e-004, 2.25407755e-004, 2.43838193e-004,
          2.10177372e-004, 2.84054229e-004, 2.77455023e-004,
          4.04149207e-004, 5.42841211e-004, 5.39805158e-004,
          3.40912491e-004, 2.39777190e-004, -7.53865897e-005,
          2.02059091e-004, 1.11983885e-004, 6.40626313e-005,
          -8.49992866e-005, -1.08461471e-004, -1.25702936e-004,
          -1.42841469e-004, 9.17447396e-005, 4.65410412e-004,
          4.38987801e-004, 5.16392465e-004, 4.08135063e-004,
          1.78107948e-004, -4.21095001e-006, -1.23088277e-004,
          -2.65010778e-004, -1.83158714e-004, -1.18033677e-004,
          -1.51220389e-004, 2.34265826e-004, 3.76667682e-004,
          2.99805281e-004, 2.16822184e-004, 4.54659994e-006,
          2.57907050e-005, -8.73723766e-005, -1.41194920e-004,
          -9.08306392e-005, 7.32813060e-005, 1.70865489e-004,
          3.12293014e-005, 2.90464777e-005, -1.61901276e-004,
          -2.52873346e-004, -1.51074928e-004, -4.58944487e-005,
          1.11099587e-004, 7.99932532e-005, 1.01075217e-004,
          -1.14609356e-004, -2.60810921e-004, -3.25492001e-004,
          -3.11506650e-004, -1.96737557e-004, -1.45696424e-004,
          -6.85167543e-005, -4.56009730e-005, -4.56009730e-005 ]
      - [ 3.72585142e-004, 2.59494205e-004, 5.90585878e-005,
          -3.93912742e-005, -2.06033714e-004, -2.21214577e-004,
          -2.33628467e-004, -2.34967069e-004, -2.28062330e-004,
          -2.49491364e-004, -2.25013675e-004, -2.15958557e-004,
          2.15953944e-004, 1.41142242e-004, -1.63881141e-005,
          -7.84942022e-005, -1.64848185e-004, -1.64848185e-004,
          -1.63927660e-004, -1.55182686e-004, -1.46897975e-004,
          -1.68159459e-004, -1.90539562e-004, -2.24166710e-004,
          1.86858597e-004, 1.56923183e-004, 1.93914329e-005,
          -3.68441397e-005, -7.01189783e-005, -4.84288284e-005,
          -1.54988702e-005, 4.69789484e-005, 5.53317805e-005,
          -1.34903121e-005, -3.95540301e-005, -6.05384521e-005,
          1.66080528e-004, 2.04962475e-004, 2.40133435e-004,
          2.40978334e-004, 2.22922041e-004, 2.37720611e-004,
          2.28743404e-004, 2.45517149e-004, 2.46454729e-004,
          9.54487914e-005, 7.33506677e-005, 3.45647131e-005,
          1.74624074e-004, 2.27787998e-004, 2.30236416e-004,
          1.93347689e-004, 1.32921079e-004, 9.74177165e-005,
          7.88951802e-005, 1.66826707e-004, 2.10746599e-004,
          6.60554797e-005, 1.14135168e-004, 1.19597331e-004,
          1.86858597e-004, 1.75564564e-004, 8.97885984e-005,
          6.23752057e-005, 2.41346224e-005, 4.37440031e-005,
          7.17948933e-005, 1.27957173e-004, 2.09907477e-004,
          1.25548366e-004, 1.61141172e-004, 1.31831854e-004,
          1.74476794e-004, 2.10808328e-004, 2.42179027e-004,
          2.27583805e-004, 1.79593422e-004, 1.84512275e-004,
          1.77235022e-004, 1.69591935e-004, 1.88627164e-004,
          9.67221858e-005, 1.27116102e-004, 1.14651055e-004,
          7.49084356e-005, 3.63369145e-005, 7.07524669e-005,
          7.54672947e-005, 4.15338254e-005, 5.63488220e-006,
          -9.86745636e-006, 7.08317384e-005, 1.07968997e-004,
          3.05542162e-005, 1.64471057e-004, 2.18000758e-004,
          -2.54322134e-004, -2.21073249e-004, -1.30560918e-004,
          -1.40225136e-004, -1.74662491e-004, -1.74682180e-004,
          -1.74700079e-004, -7.21279284e-005, 1.19089673e-005,
          -2.42860824e-005, 1.33461290e-004, 3.30960582e-004,
          -1.97180168e-004, -2.22797506e-004, -2.06713928e-004,
          -1.85423007e-004, -1.84564560e-004, -1.84564560e-004,
          -1.69837818e-004, 1.11258514e-005, 1.21644334e-004,
          1.16627314e-004, 2.12556435e-004, 2.90781114e-004 ]
      - [ -2.91309925e-006, -4.23723532e-006, 1.42238161e-004,
          -2.38894536e-005, -2.11072766e-004, -2.68714444e-004,
          -2.88145355e-004, -1.64483266e-004, 1.56383045e-004,
          -9.66402295e-005, -1.40575372e-004, -1.68808998e-004,
          -1.00076337e-004, -1.42507910e-004, 6.60170408e-005,
          -1.56932729e-004, -2.72934791e-004, -3.09335097e-004,
          -3.12071876e-004, -1.64346697e-004, 1.53715315e-004,
          -1.54779409e-004, -2.71202094e-004, -2.86926195e-004,
          -7.69654580e-005, -8.32293226e-005, 8.08205441e-005,
          1.28271000e-004, -7.24174606e-005, -1.53517220e-004,
          -8.72702731e-005, 4.35737929e-005, 3.25229339e-004,
          1.27421270e-004, 4.93892094e-006, 8.87541955e-006,
          1.67334627e-004, 1.83209908e-004, 1.67052902e-004,
          3.84158106e-004, 3.14566190e-004, 2.44918803e-004,
          2.47354561e-004, 3.09294148e-004, 4.08963882e-004,
          2.49652396e-004, 1.94864930e-004, 1.63320496e-004,
          2.15387714e-004, 2.04173833e-004, 3.04716435e-004,
          2.94913363e-004, 2.43317219e-004, 1.79446564e-004,
          1.41707424e-004, 2.75639904e-004, 4.52954991e-004,
          8.61529115e-005, -5.62694040e-005, -1.24415237e-004,
          -4.12521963e-008, 1.30050685e-005, 1.68493076e-004,
          2.98534345e-004, 1.13948052e-004, 8.40394841e-006,
          1.41408664e-005, 1.49556319e-004, 4.52101172e-004,
          1.49765998e-004, 4.50777543e-006, -1.62281212e-005,
          1.56100054e-004, 1.69594263e-004, 1.44299731e-004,
          4.11453686e-004, 3.05585942e-004, 2.38963912e-004,
          2.76098202e-004, 2.65998038e-004, 3.43880121e-004,
          2.90737808e-004, 3.29853152e-004, 3.32255353e-004,
          2.68291595e-004, 1.85917423e-004, 9.36004217e-005,
          8.73435420e-005, 5.16777582e-005, -1.11244626e-005,
          -7.24775819e-005, 4.29680695e-005, 2.04729105e-004,
          -5.54670660e-005, -1.00686673e-004, -1.07726097e-004,
          -9.37608638e-005, -9.09073278e-005, -3.02199642e-005,
          1.19996439e-005, -1.70787971e-004, -2.86693015e-004,
          -2.89429794e-004, -1.44617690e-004, 1.77643058e-004,
          4.33677485e-007, -7.86665696e-005, -1.11245618e-005,
          -1.41343175e-004, -2.07871388e-004, -1.21633260e-004,
          1.32690966e-005, -1.77203619e-004, -2.87250412e-004,
          -2.72709847e-004, -1.03111292e-004, 7.75788940e-005,
          8.80876360e-006, -6.52154849e-005, -5.57427629e-005 ]
      - [ -2.75804196e-005, -4.60883311e-005, -7.51790794e-005,
          -1.41861747e-004, -1.18583266e-004, 1.78454473e-004,
          2.26342774e-004, -3.76539447e-006, -1.84850331e-004,
          -3.55113327e-004, -1.73962399e-004, -1.75412497e-004,
          -1.27885505e-004, -1.51889428e-004, -2.62827438e-004,
          -2.23770301e-004, 3.98169104e-005, -8.44337137e-006,
          -3.78460856e-004, -2.96278275e-004, 1.93849017e-004,
          -3.74115451e-004, -1.47278042e-004, -1.64638346e-004,
          -2.72155623e-004, -2.98191997e-004, -3.85633553e-004,
          -2.49110395e-004, -9.36895376e-005, -7.47330114e-006,
          -2.78738989e-005, 3.05004534e-004, 1.96157343e-004,
          -2.58174114e-004, -2.37278902e-004, -3.13160068e-004,
          -9.85819424e-005, -9.05033594e-005, -1.07342385e-004,
          2.20541115e-004, 5.55987179e-004, 5.53621387e-004,
          5.15598862e-004, 1.52237713e-004, 6.16629113e-005,
          -1.28016502e-004, -1.01890742e-004, -1.22302139e-004,
          8.95835328e-005, 3.59259691e-004, 2.91203527e-004,
          5.08569879e-004, 5.13055187e-004, 5.05577656e-004,
          4.99527203e-004, 2.12378058e-004, 2.20638685e-004,
          7.98810215e-005, 6.93606780e-005, -1.04155966e-004,
          5.10398066e-004, 6.23707660e-004, -2.07822522e-005,
          2.92263954e-004, 3.75344156e-004, 3.56809207e-004,
          4.09104076e-004, 5.26067161e-004, 3.22960666e-004,
          2.16895976e-004, 2.90159776e-004, 2.80303590e-004,
          2.93427351e-004, 1.85774043e-004, -1.65522593e-004,
          2.61471811e-004, 3.38771264e-004, 8.67213166e-005,
          9.65160580e-005, 2.96318176e-004, 1.28717773e-004,
          -4.12967274e-005, 2.94076599e-004, 3.53749463e-004,
          -8.93133110e-005, -5.80551205e-005, -2.20101327e-004,
          5.58939064e-005, 5.96176287e-005, 6.01111242e-005,
          -1.07269814e-004, -1.34890826e-004, 2.65018083e-004,
          -1.05318046e-004, 1.02094520e-004, 1.53599431e-005,
          -2.56043568e-004, -2.02763404e-004, -2.90113618e-004,
          4.82554715e-005, 1.41772878e-004, 8.87319329e-005,
          -1.56915907e-004, -1.83469354e-004, 1.34392376e-005,
          -2.67013529e-004, -2.16112385e-004, -7.60216208e-005,
          -1.08687127e-004, -5.17651824e-005, -2.74443446e-004,
          -1.48110063e-004, -7.73259017e-005, 8.85150293e-005,
          -3.25073779e-005, 1.38502481e-004, -9.05969573e-005,
          -7.50762410e-005, -1.16820374e-005, -9.03820819e-006 ]
      - [ 3.86247024e-019, -3.53624673e-005, -1.77409820e-004,
          -2.39265297e-004, -8.59156498e-005, -1.62072363e-004,
          2.34737337e-004, 8.06111901e-004, 5.93756558e-004,
          -1.50790860e-004, -2.92088025e-005, -1.79573344e-005,
          -2.43736213e-004, -4.66285273e-005, 1.20705845e-004,
          2.76607694e-004, 3.12224554e-004, 3.21092171e-004,
          5.81570086e-004, 1.19717827e-003, 7.07853585e-004,
          -6.89763459e-004, -3.82156228e-004, -4.64777113e-004,
          2.57615611e-004, -6.03123081e-005, 5.57825006e-005,
          4.51456493e-004, 3.80907528e-004, -4.62877288e-005,
          -6.28176576e-006, 2.45924748e-004, 5.16918604e-004,
          -6.25776083e-005, -9.39595920e-005, -2.76343751e-004,
          9.08303919e-005, -2.86783499e-004, -2.93390563e-004,
          -2.13900319e-004, -3.45068198e-004, -4.08505875e-004,
          -5.02509247e-005, 2.42696304e-004, 6.90676796e-004,
          -9.68430177e-005, 3.93416500e-004, -9.70398396e-005,
          9.08303919e-005, -2.92335288e-004, -3.12474469e-004,
          -2.16384768e-004, -2.29184894e-004, -2.03531221e-004,
          7.59656996e-006, 4.82843257e-004, 7.37717492e-004,
          -2.29887213e-004, 1.67159655e-004, 4.39108262e-004,
          2.73235084e-004, -1.91778861e-004, -2.58688466e-004,
          -2.67180162e-008, 3.86247024e-019, 1.29719920e-005,
          5.06942393e-004, 1.22616393e-003, 7.73666601e-004,
          1.20828961e-004, 1.28022177e-004, 4.76100511e-004,
          2.73235084e-004, -1.91131257e-004, -2.73208134e-004,
          1.67105041e-004, 2.74341437e-004, 6.05720154e-004,
          7.51632906e-004, 6.46308879e-004, 2.60247180e-005,
          -4.95717628e-004, 1.43049780e-004, -8.13111037e-005,
          1.76926013e-004, -2.97102059e-004, -3.73061266e-005,
          1.02125586e-003, 8.17670778e-004, 7.35531503e-004,
          5.42116293e-004, 3.57015524e-004, -8.01851056e-005,
          -4.74138302e-004, -2.63814029e-004, -2.41134883e-004,
          1.11379792e-004, 2.20622867e-004, 5.26772288e-004,
          1.23652897e-003, 7.52199907e-004, 4.88174061e-004,
          2.62168498e-004, -2.60379340e-004, -5.52690006e-004,
          -5.15467953e-004, -4.46306978e-004, -2.98320025e-004,
          4.65026591e-004, 2.48981058e-004, 2.79620162e-005,
          3.83338804e-004, 2.28329242e-004, -1.02796490e-004,
          -3.50463582e-004, -4.28253319e-004, -2.40262263e-004,
          -5.67619754e-005, -9.78654725e-007, 3.86247024e-019 ]
      - [ -6.99039310e-006, 6.86908743e-006, 1.14511167e-005,
          4.08852393e-005, 8.02404466e-005, 7.88352772e-005,
          1.07481588e-004, 2.51778838e-004, 3.10485688e-004,
          2.78553140e-004, 2.84835434e-004, 1.86519726e-004,
          1.27147374e-004, 1.37208845e-004, 2.24463831e-004,
          2.61053763e-004, 3.09962663e-004, 3.77611286e-004,
          4.25208360e-004, 3.86320753e-004, 1.55265967e-004,
          2.66654752e-005, 2.48164706e-005, -9.09237715e-005,
          2.56621337e-004, 2.29886791e-005, -6.45094551e-005,
          1.85039917e-005, -2.49827663e-005, -1.52866472e-004,
          -2.23836090e-004, -2.28801742e-004, -1.81517520e-004,
          9.15392666e-005, 1.34302158e-004, -7.32750323e-006,
          2.01477000e-004, -8.61303779e-005, -1.55535337e-004,
          -4.02643127e-005, -1.58553539e-005, 2.76676474e-006,
          5.35411309e-005, 5.84493828e-005, 1.50634223e-004,
          4.07583371e-004, 1.93101718e-004, -5.20117064e-005,
          2.01477000e-004, 2.83648933e-006, 1.41417244e-004,
          2.50565325e-004, 2.40106499e-004, 2.54616200e-004,
          1.98193113e-004, 1.66304322e-004, 1.38317162e-004,
          3.57646320e-004, 1.85910947e-004, -4.57464303e-005,
          2.56621337e-004, 1.72027852e-004, 2.56027211e-004,
          3.47765017e-004, 2.12876752e-004, 1.47155588e-004,
          2.31622835e-004, 3.25046480e-004, 1.74566187e-004,
          5.28399134e-004, 1.09434724e-004, 2.46655994e-018,
          2.56621337e-004, 1.90040519e-004, 3.68951791e-004,
          4.86671168e-004, 4.05347615e-004, 2.80323467e-004,
          1.27601146e-004, 3.13033597e-005, 8.71882294e-005,
          4.30383254e-004, 2.03548960e-004, 2.46655994e-018,
          2.45544303e-004, 1.52175518e-004, 1.14891132e-004,
          1.81144744e-004, 1.57972216e-004, 2.20368660e-004,
          1.51099710e-004, 2.91919248e-004, 2.90914555e-004,
          2.57322426e-005, -1.83283537e-005, -1.10770379e-005,
          2.14408850e-004, 1.48105712e-004, 3.96577845e-004,
          4.38518386e-004, 2.67651310e-004, 8.75543919e-005,
          -5.55809384e-005, -7.63417484e-005, -7.63417484e-005,
          -5.50858131e-005, -4.52062923e-005, -4.22124976e-005,
          2.76950770e-004, 3.02047101e-005, -1.39991957e-004,
          -5.08945013e-005, -5.29901554e-005, -7.09529195e-005,
          -6.22709194e-005, -4.82000869e-005, -2.09565587e-005,
          2.46655994e-018, 2.46655994e-018, 2.46655994e-018 ]
      - [ 2.45996402e-004, 2.31887680e-004, 2.82501453e-004,
          2.97509396e-004, 4.97283007e-004, 2.84114911e-004,
          2.47656018e-004, 5.55119244e-004, 2.47376389e-004,
          -3.85364372e-004, -1.24329075e-004, -5.38284585e-005,
          -2.06027631e-004, 9.93364229e-005, 2.76581384e-004,
          5.16425178e-004, -4.25752150e-005, -2.97031744e-004,
          -1.70424202e-004, -9.25546919e-005, 4.65160469e-004,
          -4.69953011e-006, -1.49146072e-004, -5.02305629e-004,
          1.12055634e-004, 3.02750093e-004, 4.06207691e-004,
          3.29917326e-004, -2.92869983e-004, -5.14645828e-004,
          -4.85390745e-004, -2.54985847e-004, 7.90009144e-005,
          2.54651008e-004, 2.58785585e-004, 2.32903712e-005,
          3.56402568e-004, 3.55579716e-004, 4.39921219e-004,
          3.68703011e-004, -1.44293444e-004, -1.75161229e-004,
          -1.49157626e-004, 4.74919652e-005, 1.85297482e-004,
          2.44882773e-004, 4.13088303e-004, 3.08863790e-004,
          3.30189039e-004, 3.38117039e-004, 3.68818175e-004,
          2.98487284e-004, -1.46732695e-004, -1.46732695e-004,
          -1.46732695e-004, -3.11955519e-005, 1.11984467e-004,
          2.20880960e-004, 3.98525561e-004, 2.82650231e-004,
          4.76921705e-004, 4.34803485e-004, 4.03952581e-004,
          4.65525751e-004, 4.56323141e-005, 0., 0., 4.56323141e-005,
          2.58717162e-004, 3.67613655e-004, 5.45258226e-004,
          4.29382926e-004, 3.27623158e-004, 3.01186112e-004,
          4.83992655e-004, 4.92052641e-004, -1.07697924e-004,
          -3.03216017e-004, -3.34409735e-004, -2.46026582e-004,
          1.35636583e-004, 5.40707726e-004, 4.38462710e-004,
          2.80084379e-004, -8.46551702e-005, 2.03245363e-004,
          1.60260708e-004, 3.32060736e-004, -2.77606858e-004,
          -4.30392131e-004, -2.82763765e-004, -1.64751000e-005,
          4.66574100e-004, 6.20751351e-004, 3.50969232e-004,
          -7.62751661e-005, -4.48788429e-004, -4.27187944e-004,
          -3.52478150e-004, 4.99245012e-004, 3.64907668e-004,
          2.88234151e-005, -1.80774921e-004, 3.62476214e-007,
          3.78007535e-004, 3.84365005e-004, -1.09878078e-004,
          -1.25346633e-004, -4.19202624e-005, -2.23024530e-004,
          -4.90438979e-005, 2.87420262e-004, 1.41198165e-004,
          1.01260921e-004, 1.02138882e-004, 8.76487829e-005,
          2.64795293e-004, 4.96078923e-004, 2.55130610e-004,
          3.22453707e-004 ]
      - [ -2.71050543e-020, 3.56717169e-006, 7.44974459e-005,
          1.46250284e-004, 1.58321680e-004, -5.33982620e-006,
          -1.41773635e-004, -1.75132780e-004, -1.50234482e-004,
          -2.24333489e-004, -6.26842302e-005, -7.82690622e-005,
          -6.16367106e-005, -8.77011844e-005, -1.25605220e-004,
          -2.27100900e-004, -1.99157730e-004, 3.40292427e-005,
          2.51427031e-004, 2.58759246e-004, 8.14359810e-005,
          -2.49436474e-004, -1.09701810e-004, -1.32805144e-004,
          -1.06052918e-004, -1.25468912e-004, -2.09872655e-004,
          -1.20763209e-004, 3.63414802e-005, 7.82921052e-005,
          1.81321593e-004, 1.76931193e-004, 1.78188493e-004,
          1.65714126e-004, 7.72952990e-005, -3.73168841e-005,
          -4.83780896e-005, -2.95529844e-005, -7.73930515e-005,
          1.57502480e-004, 2.25873213e-004, 2.34608582e-004,
          2.18751273e-004, 2.73971236e-004, 2.80601234e-004,
          1.40387856e-004, 9.35031276e-005, 1.99101287e-005,
          -9.18120168e-006, 2.38130771e-004, 1.83926415e-004,
          3.28904804e-004, 3.68299050e-004, 3.87863372e-004,
          3.36503639e-004, 1.88778460e-004, 8.65473339e-005,
          -7.92974533e-005, -6.58813879e-005, -6.59284924e-005,
          -2.95087430e-005, 1.65056335e-005, 1.61994849e-005,
          3.37992795e-004, 4.18613199e-004, 3.89048539e-004,
          1.92954205e-004, 7.10441673e-005, 5.38345448e-005,
          -5.96775099e-005, -5.84505324e-005, -5.34508399e-005,
          6.34900571e-005, 1.42616031e-004, 3.58297802e-005,
          2.00180089e-004, 2.58654560e-004, 3.06623901e-004,
          3.04939051e-004, 1.46142964e-004, 5.51940102e-005,
          -4.29239153e-005, -1.28970541e-005, -3.56600831e-005,
          3.22628679e-004, 3.25766858e-004, 1.50834458e-004,
          2.16955872e-004, 2.20099188e-004, 1.67053950e-004,
          2.01768315e-004, 2.28013771e-004, 2.35675834e-004,
          1.14066832e-004, 7.71092964e-005, 1.18066064e-005,
          4.60538213e-005, 2.09544887e-004, 1.17108961e-004,
          2.26550823e-004, 4.47673119e-005, -4.75625457e-005,
          -1.10709865e-004, -1.26805433e-004, -1.20718367e-004,
          -7.51804473e-005, 1.55819343e-005, 1.43545712e-005,
          -4.58067479e-005, 1.83439715e-005, -9.10329909e-005,
          1.91574145e-005, 4.62569951e-005, 1.98078324e-005,
          -6.89986555e-005, -9.40752288e-005, -5.60633634e-005,
          -1.28368574e-005, -2.09611144e-007, -2.71050543e-020 ]
      - [ 1.17359021e-004, 3.27586080e-004, 3.87787964e-004,
          2.08763930e-004, -8.07056858e-005, -4.13864414e-004,
          -2.80599255e-004, -2.66119838e-004, -2.41985486e-004,
          -3.22743348e-004, -9.48917223e-005, 7.96233944e-005,
          3.64824256e-004, 3.08329472e-004, 3.45298933e-004,
          2.92083656e-004, 2.46153329e-004, 1.35967639e-005,
          -2.17677589e-004, -2.08027137e-004, -2.47194956e-004,
          -2.67550931e-004, 3.07058974e-004, 1.33173555e-004,
          2.18039466e-004, 4.04341437e-004, 3.90895730e-004,
          4.97110654e-004, 4.63975157e-004, 4.11581859e-005,
          -6.48406349e-005, -4.82687828e-005, 1.65242454e-004,
          2.53147213e-004, 3.76482290e-004, 4.08329797e-005,
          -1.97206158e-004, 7.20808021e-005, 1.09238368e-004,
          3.10200034e-004, 2.59462948e-004, 1.28486849e-004,
          6.32286537e-005, 1.87047306e-004, 5.42283989e-004,
          2.32360238e-004, 1.95985936e-004, -2.51669517e-005,
          -3.32513271e-004, -1.92497406e-004, -2.04292548e-004,
          9.48353845e-005, 1.35341004e-004, 1.61325734e-004,
          2.32775215e-004, 3.72380338e-004, 4.71630308e-004,
          1.76172500e-004, 9.55882351e-005, -5.40426008e-005,
          -2.86295573e-004, -1.67018414e-004, -2.66978459e-004,
          -5.34979772e-005, 3.25260652e-019, 3.25260652e-019,
          3.90506757e-004, 3.58691730e-004, 3.53285344e-004,
          2.38416560e-005, -1.08224776e-005, -7.82489224e-006,
          -2.86295573e-004, -1.67018414e-004, -2.67745607e-004,
          -5.80456326e-005, 1.67352027e-005, 2.68913514e-004,
          1.81990021e-004, 2.78803258e-004, 2.42937662e-004,
          -1.30538770e-004, -1.11293357e-005, -7.82489224e-006,
          -2.92920216e-004, -1.79362047e-004, -2.90442142e-004,
          -1.05818915e-004, 1.96801921e-004, 2.06778612e-004,
          1.88547929e-004, 2.71588448e-004, -3.68561523e-005,
          -1.64608064e-004, -1.77110433e-005, -1.11047975e-005,
          -3.66529159e-004, -2.51267484e-004, -3.95384006e-004,
          1.08219800e-004, 4.33343448e-005, 7.63312128e-005,
          2.69493234e-004, 2.15924258e-004, -1.48366555e-004,
          -1.59209056e-004, -8.13514489e-005, -7.57534654e-005,
          -2.91605538e-004, -1.75749417e-004, -3.69498710e-004,
          1.13928880e-004, -5.81914792e-005, 1.63934004e-004,
          1.27808802e-004, -1.13983333e-004, -8.33407394e-005,
          -1.76357007e-005, -1.78109087e-006, -1.75040498e-006 ]
      - [ -6.61242802e-006, -3.56053824e-005, -4.05377396e-005,
          4.06922954e-005, 2.00142618e-004, 4.00382763e-004,
          2.83561239e-004, -1.44788628e-005, -3.84934567e-004,
          -3.20438528e-004, 3.05741880e-004, 2.96160259e-004,
          -3.38888291e-004, -4.25408827e-004, -5.93623437e-004,
          -2.93838501e-004, 7.63205098e-005, 4.05835366e-004,
          4.63971170e-004, 3.83360486e-004, 7.79613401e-005,
          1.16443669e-004, 4.50164982e-004, -2.39197383e-004,
          -2.86474708e-004, -2.39485700e-004, -2.69678771e-004,
          -3.76528733e-005, -2.19835332e-004, -5.27765893e-004,
          -5.67112933e-004, -5.09372214e-004, -1.46413986e-005,
          3.03468347e-004, 8.00000780e-005, -1.26017898e-004,
          -2.69884506e-004, 3.10307165e-004, 2.73882470e-004,
          4.40613832e-004, 2.52042373e-004, -1.54993773e-004,
          5.63846770e-005, 3.03569366e-004, 2.20340007e-004,
          2.11591745e-004, -1.43464844e-004, -1.23055099e-004,
          7.51569969e-005, 2.47521122e-004, 1.99959293e-004,
          5.15926571e-004, 2.14806598e-004, 4.36882779e-004,
          6.13134645e-004, 3.78783647e-004, 3.85293533e-004,
          -1.04071638e-004, -1.92006191e-004, -1.42442179e-004,
          -2.35168380e-004, -1.21694531e-004, -2.48531171e-004,
          2.07495570e-004, 5.59816661e-004, 6.50469621e-004,
          1.55936214e-004, 3.95665324e-004, 2.41564092e-004,
          -1.08276996e-004, -7.54295106e-005, -2.58654854e-005,
          -2.35168380e-004, -2.27899436e-004, -1.23599733e-004,
          5.09233854e-004, 3.50254733e-004, 1.04017008e-005,
          1.60235344e-004, 3.66414577e-004, -2.30645719e-006,
          -1.18414253e-004, -7.61238407e-005, -2.58654854e-005,
          -2.41275411e-004, -1.44492500e-004, 2.04634780e-005,
          1.98502705e-004, -6.60579899e-005, -1.63909299e-005,
          3.02180735e-004, -1.73085064e-005, -5.68617070e-005,
          -1.47967745e-004, -9.03453838e-005, -2.95206428e-005,
          -1.68138620e-004, 1.32516099e-004, -4.31814144e-004,
          -1.97142042e-004, -1.31641180e-004, 2.52019498e-004,
          1.17079027e-004, -9.26197245e-005, -1.07245083e-004,
          -1.73863649e-004, -1.49987754e-004, -1.27785112e-004,
          2.37369997e-004, -1.79644805e-004, -5.58238942e-004,
          -1.44962862e-004, -1.07791209e-004, 1.53400542e-004,
          -1.31057270e-004, -1.68387545e-004, -1.47298531e-004,
          -8.01625065e-005, -3.36291523e-005, -9.06018522e-006 ]
      - [ 6.18114835e-004, 2.90972879e-004, -1.01055099e-004,
          -2.30570455e-004, -2.47216696e-004, -2.27922428e-004,
          -1.08984750e-004, -8.15878375e-005, -8.15878375e-005,
          -2.65953771e-004, -2.69185199e-004, -3.05375404e-004,
          3.39985214e-004, 7.63741409e-005, -6.32514784e-005,
          -5.38684326e-005, -3.71149144e-005, -5.51228659e-005,
          -6.87313877e-005, -1.08222906e-004, -1.44010279e-004,
          -4.01974423e-004, -3.14808247e-004, -1.99214483e-004,
          2.18104731e-004, 1.25546809e-004, -3.65281994e-005,
          -1.27642896e-004, -1.29361186e-004, -1.09369372e-004,
          -1.94071341e-004, -2.20012342e-004, -1.19188218e-004,
          -2.43530143e-004, -9.00318119e-005, -7.09595697e-005,
          2.19015536e-004, 1.30108499e-004, 9.43181567e-006,
          -2.08732017e-005, -1.41174241e-005, -9.41161670e-006,
          -5.31300930e-006, -2.27700389e-006, 5.42101086e-020,
          -1.97758665e-004, -7.72007115e-005, -6.97451687e-005,
          2.19470938e-004, 1.57842354e-004, 7.55078509e-005,
          4.93494736e-005, 5.28014789e-005, 5.28014789e-005,
          5.28014789e-005, 4.32937813e-005, 1.97509125e-005,
          -1.89342332e-004, -7.72007115e-005, -6.97451687e-005,
          2.28525882e-004, 2.25966578e-004, 1.82542499e-004,
          1.75627021e-004, 2.68805627e-004, 2.65468232e-004,
          3.48401605e-004, 4.83227952e-004, 4.87919169e-004,
          1.91332787e-004, 1.98653026e-004, -1.79235110e-006,
          1.38339179e-004, 1.01535348e-004, 4.03400663e-005,
          -8.21935901e-005, -9.99935000e-005, -1.02303784e-004,
          -1.10054905e-004, 9.33957490e-005, 5.33646788e-004,
          4.12994006e-004, 5.01449336e-004, 4.16328403e-004,
          2.10445083e-004, 1.08185654e-004, -2.33830833e-005,
          -7.22805344e-005, -3.12393095e-005, 1.04184410e-005,
          1.46589036e-005, 3.70770693e-004, 5.53840422e-004,
          3.85335239e-004, 3.42706015e-004, 9.98812829e-005,
          8.52781450e-005, 1.48972285e-005, -5.02158400e-005,
          -1.82523145e-005, 1.52292356e-004, 2.63235677e-004,
          1.66721933e-004, 1.59010000e-004, -2.15292239e-005,
          -2.43894829e-004, -1.36553004e-004, -9.42602637e-005,
          1.59090807e-004, 1.99745700e-004, 1.88570397e-004,
          1.72572672e-005, -1.20263358e-004, -1.88346938e-004,
          -2.30214064e-004, -2.19497975e-004, -1.54816997e-004,
          -5.98099759e-005, -2.73510466e-007, 5.42101086e-020 ]
      - [ 4.10647684e-004, 3.08037153e-004, 8.45028044e-005,
          -5.34575847e-005, -2.01109389e-004, -2.16337270e-004,
          -1.19033524e-004, -6.10906718e-005, -5.55962179e-005,
          -1.08960165e-004, -1.50515247e-004, -2.40208334e-004,
          2.82943540e-004, 1.76174566e-004, -2.40307854e-005,
          -8.02739305e-005, -1.42046512e-004, -1.28660380e-004,
          -8.82903551e-005, -6.87336506e-005, -9.36103243e-005,
          -2.15185952e-004, -2.48363329e-004, -2.33026163e-004,
          2.11452614e-004, 1.65428661e-004, 2.99756830e-005,
          -3.38219570e-006, -3.86145402e-005, -5.20114081e-005,
          -5.37641827e-005, -1.97603331e-005, -1.92741245e-005,
          -8.17764449e-005, -5.99241539e-005, -3.20547661e-005,
          1.86595105e-004, 2.41107729e-004, 2.34240622e-004,
          2.70552700e-004, 2.43618575e-004, 2.40017063e-004,
          2.33397732e-004, 2.66390067e-004, 3.06235277e-004,
          1.43825615e-004, 1.11034467e-004, 6.63902101e-005,
          1.86595105e-004, 2.70494173e-004, 2.27048469e-004,
          1.95988847e-004, 1.08101871e-004, 7.64915530e-005,
          6.15532990e-005, 1.37858093e-004, 2.14382992e-004,
          5.57665153e-005, 1.04568047e-004, 1.20486242e-004,
          1.96649882e-004, 2.07435805e-004, 7.81794879e-005,
          7.49902392e-005, 2.20745496e-005, 4.00101198e-005,
          6.79220175e-005, 1.29583146e-004, 2.39434230e-004,
          1.26383733e-004, 1.56213893e-004, 1.30541011e-004,
          1.75380104e-004, 2.50070676e-004, 2.62975431e-004,
          2.67395197e-004, 2.36076477e-004, 2.41487418e-004,
          2.28350924e-004, 2.50381680e-004, 2.73785292e-004,
          1.44323276e-004, 1.52025445e-004, 1.09271226e-004,
          9.87913154e-005, 9.67535379e-005, 7.78582253e-005,
          6.54230607e-005, 3.99711789e-005, 3.42315798e-005,
          5.13420782e-005, 1.32970352e-004, 1.87956510e-004,
          9.62981867e-005, 1.94779132e-004, 2.28184086e-004,
          -2.25818905e-004, -1.92513166e-004, -1.11105452e-004,
          -8.48620766e-005, -7.73259671e-005, -7.29654130e-005,
          -1.02707272e-004, -5.74105434e-005, 2.91672059e-005,
          -3.89763118e-005, 1.36194416e-004, 3.39358725e-004,
          -2.31509941e-004, -2.07377772e-004, -1.78808536e-004,
          -1.38616684e-004, -1.38482268e-004, -1.57464674e-004,
          -1.59116040e-004, -4.94162523e-005, 9.08381844e-005,
          8.52503072e-005, 2.16420638e-004, 3.13567754e-004 ]
      - [ -8.13151629e-020, -8.13151629e-020, 1.52800945e-004,
          -5.69463418e-006, -1.36351155e-004, -2.00306196e-004,
          -2.01576666e-004, -5.30228208e-005, 2.62909627e-004,
          -1.47766841e-004, -1.27025400e-004, -1.30626693e-004,
          -6.86991989e-005, -7.93880899e-005, 1.54408990e-004,
          -1.05398096e-004, -2.28251854e-004, -2.27706492e-004,
          -1.74974499e-004, 1.37835605e-005, 2.65322829e-004,
          -1.94853710e-004, -2.08873040e-004, -2.04151234e-004,
          -8.22034708e-005, -9.17559446e-005, 1.04685620e-004,
          1.57996998e-004, -1.08693403e-005, -1.48310486e-004,
          -1.26204512e-004, -8.61196349e-006, 2.64114497e-004,
          6.15078607e-005, -1.39547601e-005, 2.26510074e-005,
          2.53203383e-004, 2.72344623e-004, 1.79246577e-004,
          4.30961198e-004, 3.49727605e-004, 2.36638167e-004,
          2.18725079e-004, 3.02859873e-004, 4.28124302e-004,
          2.76239327e-004, 2.22686387e-004, 2.38205990e-004,
          2.61190726e-004, 2.30273537e-004, 2.72018136e-004,
          2.20344562e-004, 1.60473297e-004, 1.49369473e-004,
          1.35151684e-004, 2.63530150e-004, 4.35511727e-004,
          2.62266603e-005, -7.82385541e-005, -8.78470310e-005,
          4.01911020e-005, 3.69551599e-005, 1.46919527e-004,
          2.48784112e-004, 7.58625029e-005, 1.47215258e-006,
          1.33745662e-005, 1.48103543e-004, 4.41802491e-004,
          9.45775610e-005, -1.67465350e-005, 1.05025310e-005,
          1.80555682e-004, 1.77319744e-004, 1.30876913e-004,
          3.88690416e-004, 3.20560881e-004, 2.58744723e-004,
          2.95467529e-004, 3.18251026e-004, 4.03055863e-004,
          3.17273021e-004, 3.06496950e-004, 3.26408859e-004,
          3.40116589e-004, 2.74190272e-004, 1.22506928e-004,
          9.53890412e-005, 7.86807577e-005, 8.75264304e-005,
          9.63318962e-005, 2.42757334e-004, 3.74153082e-004,
          5.27427574e-006, -6.14325545e-005, -4.91617539e-005,
          -9.63009916e-006, -3.35298282e-005, 3.55898119e-005,
          1.24690690e-004, 2.90086882e-006, -8.23591836e-005,
          -1.38368778e-004, -8.14859013e-005, 1.88848324e-004,
          -4.29639149e-005, -1.07951688e-004, -4.20018296e-005,
          -1.32111963e-004, -1.81972457e-004, -7.29067251e-005,
          5.89110605e-005, -1.30990302e-004, -2.37850414e-004,
          -2.38742941e-004, -1.49564061e-004, 3.13896235e-005,
          -4.04741913e-005, -7.18179872e-005, -5.60371991e-005 ]
      - [ -3.25260652e-019, -2.32165667e-006, -5.01282375e-005,
          -1.16333518e-004, -9.90424160e-005, 1.63444565e-004,
          2.89072195e-004, 1.50250897e-004, -3.00629927e-005,
          -3.79454461e-004, -1.62630589e-004, -1.56573733e-004,
          -1.29159438e-004, -2.04030279e-004, -2.71679746e-004,
          -2.98357831e-004, 1.74831948e-005, 3.85745552e-005,
          -2.30355741e-004, -6.70612144e-006, 3.92225658e-004,
          -4.18899057e-004, -2.66494462e-004, -2.73121841e-004,
          -2.25702723e-004, -2.68957694e-004, -3.57887271e-004,
          -1.11211491e-004, 1.69036299e-004, 8.60145337e-006,
          -5.85770067e-005, 2.62383401e-004, 9.45108259e-005,
          -3.85602005e-004, -2.82975700e-004, -2.48016673e-004,
          -1.19521370e-004, -1.08667613e-004, -1.62813783e-004,
          1.85055862e-004, 4.63526027e-004, 4.23810619e-004,
          3.18829843e-004, -4.46326594e-005, -8.05422169e-005,
          -2.00824157e-004, -1.36265051e-004, -1.14437345e-004,
          9.47652588e-005, 3.67911882e-004, 3.26320820e-004,
          5.34166407e-004, 4.63008997e-004, 4.98844194e-004,
          4.87407320e-004, 2.27565732e-004, 2.35491272e-004,
          3.77091856e-005, 5.88114308e-005, -5.64798393e-005,
          5.28290751e-004, 6.82267244e-004, 1.52883295e-005,
          2.95769423e-004, 3.57072946e-004, 4.62801458e-004,
          4.79663693e-004, 5.91061544e-004, 3.97776283e-004,
          2.32998398e-004, 3.10629170e-004, 3.14606295e-004,
          2.93985155e-004, 1.98577036e-004, -1.82830961e-004,
          2.56853818e-004, 3.36256664e-004, 1.37158131e-004,
          1.53182162e-004, 2.68849370e-004, 1.55236732e-004,
          -4.65001576e-005, 3.02769273e-004, 3.93832015e-004,
          -8.94156692e-005, -4.10804678e-005, -2.27851182e-004,
          3.58898433e-005, 3.77465512e-005, 5.23262570e-005,
          -5.39788271e-005, -5.76182792e-005, 2.80908105e-004,
          -8.66858536e-005, 1.68335071e-004, 6.50766597e-005,
          -2.32091072e-004, -1.81890253e-004, -2.66664778e-004,
          7.20488897e-005, 1.86335499e-004, 1.85635508e-004,
          -1.21078992e-005, 1.53841193e-005, 6.69521760e-005,
          -2.64868460e-004, -1.86836973e-004, -7.81844210e-005,
          -1.38513875e-004, -6.86553176e-005, -2.90817698e-004,
          -9.69102894e-006, 8.53199963e-005, 2.10474464e-004,
          8.26654741e-006, 1.02251353e-004, -1.35461014e-004,
          -5.83163637e-005, -3.83142861e-007, -3.25260652e-019 ]
      - [ -3.80974097e-006, -2.99834956e-005, -6.32923329e-005,
          4.14960709e-007, 9.50272079e-005, 3.67828507e-005,
          -5.47385644e-005, -6.30456134e-006, 3.97732583e-005,
          2.70463715e-005, 1.83782351e-004, 2.28771591e-004,
          9.80050027e-005, 1.14212053e-004, 4.05323117e-005,
          3.30732582e-005, 3.30732582e-005, 3.30732582e-005,
          2.08815472e-005, 1.68608767e-006, 2.41240232e-005,
          3.49813090e-005, 8.66903611e-006, -1.94453416e-004,
          9.27724395e-005, -3.96224423e-005, -4.48512903e-004,
          -4.85604134e-004, -4.81351453e-004, -4.72149783e-004,
          -5.32284204e-004, -5.74137084e-004, -5.39258996e-004,
          1.46423290e-005, 1.70204628e-004, 1.52417033e-005,
          1.04772233e-004, 1.57933275e-004, -9.21873725e-005,
          -3.14205063e-005, 5.14633357e-005, 1.36007453e-004,
          2.26587770e-004, 5.63915019e-005, 4.18679410e-005,
          4.11200075e-004, -8.76390641e-006, -5.33312923e-005,
          1.00476551e-004, 3.53580952e-004, 5.95208374e-004,
          6.36398210e-004, 5.57325431e-004, 5.25056268e-004,
          3.67265398e-004, 2.43195886e-004, 1.65553720e-005,
          1.57269795e-004, -2.34951673e-004, -1.24992701e-004,
          1.13363589e-004, 5.52680402e-004, 5.88740979e-004,
          5.64943184e-004, 3.90058965e-004, 3.08997871e-004,
          3.72406386e-004, 3.17873695e-004, -3.71269678e-004,
          2.98424537e-004, -1.90180712e-004, -1.16891912e-004,
          1.13363589e-004, 5.83023764e-004, 7.57777656e-004,
          6.60702121e-004, 4.26994986e-004, -7.62490845e-006,
          -4.99123824e-004, -6.29516377e-004, -3.40083032e-004,
          5.88739873e-004, 1.12628768e-004, -7.09550732e-005,
          1.13363589e-004, 3.23159329e-004, -3.31366871e-004,
          -4.44984384e-004, -4.23913909e-004, -1.80943141e-004,
          -8.64578979e-005, 2.10232276e-004, 3.13536526e-004,
          5.53295613e-005, -1.27959765e-005, 3.25260652e-019,
          1.03247061e-004, 7.04178237e-005, 1.28795713e-004,
          2.03708987e-004, 1.70469080e-004, 3.82218132e-005,
          -5.54408434e-005, -1.59419487e-005, -8.28875545e-006,
          3.25260652e-019, 3.25260652e-019, 3.25260652e-019,
          1.20688848e-004, 7.39220850e-005, -1.52477602e-004,
          -1.38264062e-004, -3.51705785e-005, -1.69905761e-005,
          -3.76127241e-006, 3.25260652e-019, 3.25260652e-019,
          3.25260652e-019, 3.25260652e-019, 3.25260652e-019 ]
      - [ 2.74593069e-004, 2.24240546e-004, 2.07745790e-004,
          1.79856244e-004, 2.23589435e-004, 9.65320432e-005,
          5.68124560e-005, -8.44233582e-005, -7.65617151e-005,
          -2.92522891e-005, 4.16643206e-006, 9.90403714e-005,
          -2.05320161e-004, -5.61664747e-005, 1.76361587e-004,
          1.26513653e-004, -1.54461333e-004, -3.33956530e-004,
          -1.95615634e-004, -3.68758105e-004, -1.68977756e-004,
          5.66793897e-005, -6.24843888e-005, -2.09575592e-004,
          -1.16083655e-004, 9.64412538e-005, 1.66861893e-004,
          -1.72960390e-005, -3.46326473e-004, -4.73874738e-004,
          -3.70560156e-004, -2.99572595e-004, -1.72188884e-004,
          -4.23867932e-005, 1.81636584e-004, 1.72976710e-004,
          7.44408608e-005, 2.71745957e-004, 3.26303911e-004,
          3.74345778e-004, 5.01239192e-005, -2.85607894e-005,
          2.15287437e-005, -6.76105337e-005, 2.79101823e-005,
          2.00712777e-004, 4.01061006e-005, 1.78788076e-004,
          1.57089526e-004, 3.22397304e-004, 2.90780416e-004,
          3.49101610e-004, 6.77067146e-005, 6.77067146e-005,
          6.48853311e-005, -6.21448562e-005, 1.07458654e-004,
          1.93882006e-004, 1.73811539e-004, 6.03146000e-005,
          1.95054061e-004, 3.53967072e-004, 2.90780416e-004,
          4.05339932e-004, 1.52438151e-004, 9.90222979e-005,
          2.52854243e-005, -2.84411479e-004, 3.52335746e-006,
          2.03406657e-004, 3.20109451e-004, 1.38606047e-004,
          6.38280908e-005, 2.49394914e-004, 3.13864934e-004,
          3.23952845e-004, 4.33463174e-005, -2.79713131e-004,
          -3.35703895e-004, -3.94781324e-004, 9.61039332e-005,
          4.78650531e-004, 2.00415932e-004, 2.46348034e-004,
          -2.28704215e-004, 8.27716722e-005, 6.68367065e-005,
          -4.73126638e-005, -2.70158082e-004, -5.35524043e-004,
          -4.68075043e-004, -2.43175105e-004, 3.48875386e-004,
          6.43185573e-004, 3.10694973e-004, 6.35673205e-005,
          -3.95999727e-004, -3.43692547e-004, -4.13089030e-004,
          -1.45525162e-004, -4.56400230e-005, -1.34451984e-004,
          -1.73691587e-004, 1.08087690e-004, 4.71365260e-004,
          4.24644968e-004, 9.08104630e-005, -3.25260652e-019,
          -1.64611469e-004, -1.86754682e-004, -2.57107051e-004,
          -1.45885206e-004, -2.27309720e-005, 1.85450495e-004,
          3.49912763e-004, 4.02384263e-004, 3.61318991e-004,
          3.23159242e-004, 1.20888799e-004, 1.20888799e-004 ]
      - [ 5.42101086e-020, -1.78745188e-006, 5.29325553e-005,
          8.81991073e-005, 1.56821770e-004, 6.62992097e-005,
          -2.57359934e-004, -3.11095588e-004, -2.05855948e-004,
          -1.39916781e-004, -2.89993732e-005, -1.76269768e-005,
          -1.04772931e-004, -1.28942003e-004, -2.18619025e-004,
          -2.36862878e-004, -2.03023068e-004, 5.13490022e-006,
          1.08896733e-004, -5.69539734e-005, -1.54029713e-005,
          -1.05256026e-004, -8.35710016e-005, -1.07843720e-004,
          -5.97212202e-005, -1.24158774e-004, -2.26506512e-004,
          -1.93130269e-004, -1.24852828e-004, 2.27613964e-005,
          1.28956759e-004, 3.94643721e-005, 1.22306403e-004,
          2.96853279e-004, 2.84839014e-004, 1.23320846e-004,
          -6.68659413e-005, -6.48043206e-005, -3.29239301e-005,
          2.34446939e-004, 3.38026701e-004, 4.41971759e-004,
          2.70291435e-004, 1.63372519e-004, 2.98290106e-004,
          1.66265949e-004, 5.93255463e-005, 2.50178200e-005,
          4.60213741e-005, 1.72394910e-004, 1.92149600e-004,
          4.54761903e-004, 4.54761903e-004, 4.53694811e-004,
          2.54378887e-004, 1.05958010e-004, 1.99352671e-005,
          -1.43259036e-004, -2.02408759e-004, -1.71482578e-004,
          -2.77066774e-005, -4.69622355e-005, 1.95093562e-005,
          4.24780534e-004, 4.70876083e-004, 4.87549143e-004,
          1.43992467e-004, -3.66993554e-005, -3.23698368e-005,
          -2.42353008e-006, -7.66719168e-005, -1.81398995e-004,
          2.49478508e-005, 4.98904628e-005, 3.01931723e-005,
          2.38503009e-004, 2.33508195e-004, 2.62210786e-004,
          1.40706819e-004, 8.44227034e-005, 1.59027259e-004,
          1.72047134e-004, 5.66321723e-005, -9.92669084e-005,
          3.91607027e-004, 2.91302917e-004, 5.22300470e-005,
          5.35315776e-005, 9.98737505e-006, -4.91268329e-005,
          -2.90708103e-005, 6.82258324e-005, 2.35590589e-004,
          2.24269534e-004, 7.69622420e-005, 3.81042410e-005,
          6.64666572e-007, 1.08847162e-004, 8.14410942e-006,
          -2.27812889e-005, -1.70740837e-004, -2.06664597e-004,
          -2.49053148e-004, -5.41106201e-005, 3.78214463e-005,
          5.46483461e-005, 1.39139929e-005, 2.15497239e-005,
          -1.61971111e-004, -1.76868285e-004, -1.40294360e-004,
          -8.27322947e-005, -1.58385606e-004, 2.35135412e-005,
          9.92166679e-005, 2.88629290e-005, 5.42101086e-020,
          5.42101086e-020, 5.42101086e-020, 5.42101086e-020 ]
      - [ 8.95388075e-005, 2.97463965e-004, 4.15024027e-004,
          3.10823874e-004, 4.07054576e-005, -2.24279836e-004,
          -3.25524335e-004, -5.54029073e-004, -4.35028749e-004,
          -2.83092901e-004, -1.45217011e-004, 4.39629621e-005,
          3.18136532e-004, 2.73556332e-004, 2.27527911e-004,
          2.08399419e-004, 1.78914241e-004, 2.15312757e-005,
          -2.51147983e-004, -5.56085201e-004, -5.27139462e-004,
          -5.84877926e-005, 2.39431480e-004, 6.30259892e-005,
          1.18333221e-004, 2.68304750e-004, 2.26335687e-004,
          2.57794134e-004, 2.08990707e-004, 2.91963097e-005,
          4.72282081e-005, -3.88152403e-005, 1.25108898e-004,
          3.26339214e-004, 3.13179713e-004, 4.20533797e-005,
          -1.40260978e-004, 3.83888619e-005, 2.96299513e-005,
          2.46995245e-004, 2.62599497e-004, 2.09504142e-004,
          1.60099633e-004, -1.01737851e-005, 2.20535701e-004,
          2.56864121e-004, -6.53575116e-005, -1.59232441e-004,
          -1.96634021e-004, -1.33662776e-004, -1.86157966e-004,
          5.42288835e-005, 7.91541388e-005, 7.91541388e-005,
          1.40396878e-004, 1.65218531e-004, 1.32144924e-004,
          1.24954735e-004, -3.19903957e-005, -2.64083239e-004,
          -1.85488621e-004, -1.26946965e-004, -2.13971580e-004,
          -2.49252589e-005, 5.42101086e-020, -2.66596430e-006,
          2.50879064e-004, -3.62227115e-006, 9.91728757e-006,
          -1.85730823e-005, -5.59564432e-005, -2.01333823e-004,
          -1.85488621e-004, -1.27138221e-004, -2.29810175e-004,
          -9.12307733e-005, -1.19054464e-004, -4.66279198e-005,
          -4.09488057e-005, -1.72430937e-005, 1.11023262e-004,
          -4.02033838e-005, -1.56192211e-004, -5.87223622e-005,
          -1.85685189e-004, -1.82693853e-004, -3.66388384e-004,
          -4.30718675e-004, -2.74043996e-004, -7.48283346e-005,
          4.18763957e-005, -5.10820473e-006, -7.17766889e-005,
          -2.53424078e-005, -3.63519393e-005, 5.42101086e-020,
          -2.56007741e-004, -2.90922384e-004, -5.76824823e-004,
          -2.83057161e-004, -1.91620755e-004, -5.93060322e-005,
          1.37248717e-004, 5.60816807e-005, -9.36345605e-005,
          -3.82161415e-005, 5.42101086e-020, 5.42101086e-020,
          -1.85493933e-004, -1.98787224e-004, -4.39502270e-004,
          -1.00794750e-004, -1.82711941e-004, 6.64557228e-005,
          1.30553308e-004, -4.91432002e-006, 5.42101086e-020,
          5.42101086e-020, 5.42101086e-020, 5.42101086e-020 ]
      - [ 3.72694497e-020, -1.77594138e-005, -1.83199263e-005,
          6.19511338e-005, 1.58462135e-004, 3.33860633e-004,
          1.63084973e-004, -1.79747905e-004, -4.51266387e-004,
          -2.77637475e-004, 1.38878240e-004, 2.46309646e-004,
          -2.29873840e-004, -3.04565328e-004, -4.03202546e-004,
          -2.18046218e-004, -1.03903394e-005, 2.06170764e-004,
          1.29980952e-004, -6.68854191e-005, -1.06675870e-004,
          2.41945687e-004, 3.60216247e-004, -9.25384884e-005,
          -1.82747244e-004, -6.69228175e-005, -2.07462552e-004,
          -1.85297744e-004, -3.12244316e-004, -3.73748742e-004,
          -4.28860454e-004, -4.18540498e-004, -7.76277157e-005,
          2.24007454e-004, 1.15782619e-004, -2.13280200e-005,
          -1.37952811e-004, 3.14889068e-004, 2.56718136e-004,
          4.64293029e-004, 3.71706468e-004, 9.06605055e-005,
          8.02447248e-005, 1.38801450e-004, 1.39832846e-004,
          1.82419200e-004, -2.65975017e-004, -9.29351227e-005,
          1.57698872e-004, 2.85896822e-004, 1.86984500e-004,
          4.46268561e-004, 3.93970578e-004, 3.60371283e-004,
          3.54661781e-004, 9.26863067e-005, 8.32156366e-005,
          -1.44023616e-005, -1.09416775e-004, -2.94067577e-004,
          -1.17116717e-004, 6.15129902e-005, -8.77384082e-005,
          1.96082969e-004, 4.31670167e-004, 4.73495020e-004,
          5.01488284e-005, -2.84613689e-005, -5.06337383e-005,
          -9.19698577e-005, -3.49869551e-005, -2.39639572e-004,
          -1.62393058e-004, -8.56059196e-005, -6.29585338e-005,
          2.91038858e-004, 8.93340184e-005, -2.19030888e-004,
          -8.22950169e-005, -1.90362534e-005, -8.51417353e-005,
          -1.93113246e-005, -1.36733288e-004, -5.28591481e-005,
          -1.62393058e-004, -5.45381372e-005, -1.19203985e-004,
          -2.95498903e-004, -4.67019359e-004, -1.82772579e-004,
          2.05253091e-005, -1.00105113e-004, -1.63534678e-005,
          -1.95726334e-005, -2.86235081e-005, 3.72694497e-020,
          -1.41851444e-004, -7.95717206e-005, -5.84657828e-004,
          -5.65936614e-004, -2.27638098e-004, 7.62533682e-006,
          -1.34405025e-004, -8.38245833e-005, -2.30151163e-005,
          -9.43619762e-006, 3.72694497e-020, 3.72694497e-020,
          5.22284172e-005, -2.96025712e-004, -5.79799642e-004,
          -2.39575733e-004, 2.57152551e-005, 5.62995665e-005,
          -4.87913712e-005, -3.22211645e-006, 3.72694497e-020,
          3.72694497e-020, 3.72694497e-020, 3.72694497e-020 ]
      - [ 4.02281905e-004, 1.49937725e-004, -4.06786558e-006,
          -1.14704344e-004, -1.32148503e-004, -1.46267528e-004,
          -1.89316750e-004, -3.12882417e-004, -1.97357789e-004,
          -1.53729503e-004, -1.39370590e-004, -9.37069854e-005,
          2.02474577e-004, 2.76164865e-005, -6.43827152e-005,
          -1.63214339e-004, -1.63214339e-004, -1.63214339e-004,
          -2.03437346e-004, -3.83114791e-004, -3.33413045e-004,
          -1.86647245e-004, -1.51875138e-004, -1.15384690e-004,
          1.62362412e-004, 4.83476397e-005, -3.49572001e-005,
          -1.46950872e-004, -1.46012288e-004, -1.43241734e-004,
          -1.81934927e-004, -3.20601219e-004, -2.89375050e-004,
          -2.70274584e-004, -1.08252585e-004, -7.51510584e-007,
          1.62362412e-004, 9.54022544e-005, 9.48231536e-005,
          -4.00847239e-006, -4.00847239e-006, -5.38462791e-006,
          -5.29287827e-005, -1.86255129e-004, -1.48720093e-004,
          -1.19041186e-004, -2.40707246e-004, -1.03812214e-004,
          1.62362412e-004, 1.06003725e-004, 1.68680708e-004,
          1.23663587e-004, 1.23663587e-004, 1.23663587e-004,
          8.30552453e-005, -4.73755244e-005, -4.11985056e-005,
          -8.06257885e-005, -1.68950224e-004, -2.91972246e-004,
          1.81160271e-004, 2.52199068e-004, 2.41340240e-004,
          1.64013778e-004, 1.67701524e-004, 1.60326032e-004,
          2.83871603e-004, 2.95362697e-004, 3.40551807e-004,
          2.81630026e-004, 1.60029289e-004, -1.78045666e-004,
          1.62362412e-004, 9.66047955e-005, 1.19483011e-004,
          1.10632418e-005, 1.22302245e-005, 1.93818832e-005,
          -4.20866709e-005, 9.50839603e-005, 2.94767931e-004,
          3.57371522e-004, 2.60258501e-004, 2.76758918e-004,
          1.62362412e-004, 4.73389009e-005, -6.01120591e-005,
          -2.70630000e-004, -2.27384939e-004, -1.65320846e-004,
          -2.08595156e-004, 1.23877631e-004, 3.53327254e-004,
          3.85439314e-004, 2.64127390e-004, 2.01168077e-004,
          3.11085350e-005, -1.56480950e-004, -2.63669266e-004,
          -2.37840097e-004, -6.33487434e-005, 2.49400764e-005,
          -5.20122485e-005, 7.78035173e-005, 5.61525085e-005,
          -2.17199758e-005, -1.07600381e-005, -1.35525272e-019,
          6.62318416e-005, 8.89380317e-005, 1.47319379e-005,
          -1.18688615e-004, -1.62122044e-004, -1.64961413e-004,
          -8.39471468e-005, -1.06807183e-005, -1.35525272e-019,
          -1.35525272e-019, -1.35525272e-019, -1.35525272e-019 ]
      - [ 3.16169404e-004, 2.40780108e-004, 5.61735505e-005,
          -3.91422072e-005, -1.50644686e-004, -1.73562206e-004,
          -2.02098614e-004, -2.84291862e-004, -2.02173338e-004,
          -1.53176414e-004, -1.02134160e-004, -3.94571434e-005,
          1.27408421e-004, 9.61443075e-005, -5.46461597e-005,
          -1.12333881e-004, -1.88231075e-004, -1.88231075e-004,
          -2.05399614e-004, -3.00344574e-004, -2.90398049e-004,
          -1.99852118e-004, -1.54382069e-004, -8.32396618e-005,
          1.38842996e-004, 1.16711541e-004, -4.54817055e-005,
          -8.95607882e-005, -1.27575491e-004, -9.60949546e-005,
          -8.21827780e-005, -1.49049272e-004, -1.29108230e-004,
          -8.00494672e-005, 4.47050916e-005, 7.11305765e-005,
          1.22750629e-004, 1.93632470e-004, 2.36320819e-004,
          2.59925291e-004, 2.40069858e-004, 2.44909374e-004,
          2.09544640e-004, 8.78395222e-005, 1.01213052e-004,
          -2.90000444e-005, -3.49953552e-005, -4.44505031e-006,
          1.22750629e-004, 1.93946573e-004, 1.92874271e-004,
          1.70252722e-004, 8.71902885e-005, 5.99664236e-005,
          2.86411778e-005, 1.62733286e-005, 8.52583398e-005,
          -6.40507787e-005, 2.15938162e-005, 2.46473451e-006,
          1.38842996e-004, 1.57827410e-004, 8.65456605e-005,
          8.16475804e-005, 1.90407482e-005, 3.45113585e-005,
          1.81728701e-005, -7.39595489e-005, 4.95720269e-006,
          3.65783562e-005, 1.56350332e-004, 4.19919270e-005,
          1.38842996e-004, 2.02020645e-004, 1.91792220e-004,
          1.94506516e-004, 1.53060522e-004, 1.14652670e-004,
          6.66984779e-005, 8.25143798e-006, 1.90126710e-004,
          1.93179076e-004, 1.43214667e-004, 1.07170999e-004,
          7.59047762e-005, 5.49149408e-005, -1.16966357e-005,
          -7.56588634e-005, -1.07782704e-004, -1.10268520e-004,
          -7.44098870e-005, 7.39936286e-006, 1.84974022e-004,
          1.75099762e-004, 2.09560894e-004, 2.01020186e-004,
          -1.52293709e-004, -1.89508166e-004, -2.25999916e-004,
          -2.07699297e-004, -2.06297991e-004, -1.80508927e-004,
          -1.58863942e-004, -3.32278505e-005, 1.27417690e-004,
          1.06561209e-004, 1.74181230e-004, 2.90445983e-004,
          -1.55499423e-004, -1.68357452e-004, -1.89189508e-004,
          -1.73287990e-004, -1.60972908e-004, -1.13924078e-004,
          -5.41997542e-005, 7.44627614e-005, 1.76851332e-004,
          1.28633415e-004, 1.86534569e-004, 2.44891649e-004 ]
      - [ -2.57498016e-019, -9.37898039e-006, 1.23579026e-004,
          -9.08935108e-005, -2.34499588e-004, -3.05693946e-004,
          -3.43040156e-004, -2.77441926e-004, 7.76369052e-005,
          1.87527985e-005, -5.94150770e-005, -1.79920498e-005,
          -1.81758733e-004, -1.90711726e-004, 4.20820979e-005,
          -1.51635439e-004, -2.76709878e-004, -3.34238488e-004,
          -3.43040156e-004, -2.85174232e-004, -5.94040721e-005,
          -8.72044257e-005, -1.74776898e-004, -1.12588590e-004,
          -1.07418011e-004, -9.22754771e-005, 6.97559663e-005,
          5.64345646e-005, -1.59313859e-004, -2.03159754e-004,
          -1.96323876e-004, -1.95792687e-004, 5.48346616e-005,
          1.02212834e-004, 1.40966280e-004, 1.97790505e-004,
          1.42200923e-004, 1.68892831e-004, 1.62887765e-004,
          4.77609225e-004, 3.90578527e-004, 3.40894214e-004,
          2.93352467e-004, 5.33384482e-005, 2.43861214e-004,
          1.78905422e-004, 9.29292437e-005, 1.71120526e-004,
          8.84986730e-005, 1.17490345e-004, 3.08341434e-004,
          2.98148196e-004, 1.95285669e-004, 1.18235381e-004,
          7.95196756e-005, 1.51363274e-004, 1.50790875e-004,
          -6.91949390e-006, -1.30092289e-004, -2.02545154e-004,
          -4.09087552e-005, -6.81545316e-006, 1.87140002e-004,
          3.52813397e-004, 1.35076480e-004, 1.72632190e-005,
          -1.16825377e-005, -1.87091682e-005, 8.97637074e-005,
          8.35711035e-005, 4.82799296e-005, -6.61917220e-005,
          1.01787875e-004, 1.60346652e-004, 1.30074608e-004,
          4.37672250e-004, 3.28748603e-004, 2.37752611e-004,
          1.90240578e-004, -8.50623394e-007, 2.54905492e-004,
          3.82104743e-004, 2.82364985e-004, 2.89759366e-004,
          2.59800494e-004, 2.39306188e-004, 1.73570254e-004,
          1.09334454e-004, -7.48419698e-005, -1.60475771e-004,
          -2.07818346e-004, 1.98946309e-005, 3.54043616e-004,
          2.54665589e-004, 6.47011620e-006, 2.24072155e-005,
          -7.02838806e-005, -9.00817831e-005, 3.29057798e-006,
          -8.78386927e-005, -2.92459270e-004, -3.27042653e-004,
          -2.41319867e-004, 2.60272354e-005, 3.12630262e-004,
          1.94511929e-004, 9.69332177e-007, -1.58718888e-006,
          -1.08714768e-004, -1.26401865e-004, -2.92753630e-005,
          4.77149915e-005, -1.23076679e-004, -1.65099234e-004,
          -9.43162158e-005, 9.12101314e-005, 1.80263523e-004,
          7.57426387e-005, -2.57498016e-019, -2.57498016e-019 ]
      - [ 2.71050543e-019, -5.77223864e-006, -3.22090746e-005,
          -1.15782786e-004, -6.60955411e-005, 2.01874282e-004,
          1.46140592e-004, -1.65726306e-004, -1.61190939e-004,
          -1.61440752e-004, -5.54669823e-005, -6.39104910e-005,
          -1.68626095e-004, -2.20658694e-004, -3.12472112e-004,
          -1.27093255e-004, 8.64044996e-005, 1.82940403e-005,
          -3.41464300e-004, -4.77828784e-004, -4.14423230e-005,
          -2.00730021e-004, -1.56349197e-004, -1.67923834e-004,
          -9.21661049e-005, -1.23627877e-004, -3.32049734e-004,
          -1.46277816e-004, -7.34539572e-005, 2.20827114e-005,
          -4.27272062e-005, 5.99099258e-005, 1.80605984e-005,
          -2.45005620e-004, -1.01356687e-004, -7.34048172e-006,
          -1.07564279e-004, -6.50776929e-005, -5.15880602e-005,
          3.18252918e-004, 5.73681842e-004, 5.16341301e-004,
          3.90381378e-004, -1.35994866e-004, -2.04013282e-004,
          -1.61628734e-004, -3.39443475e-004, -1.82327072e-004,
          1.07105385e-004, 3.45307868e-004, 2.51019577e-004,
          4.68222512e-004, 4.28564905e-004, 4.15380520e-004,
          3.79175181e-004, -5.53786813e-005, 1.67921353e-005,
          1.09867739e-004, -1.30205508e-005, -3.25046974e-004,
          4.36517788e-004, 5.16885717e-004, -2.39440924e-005,
          3.65294924e-004, 3.47109803e-004, 2.63961760e-004,
          2.06806348e-004, 6.23706510e-005, 3.58503457e-005,
          1.58376657e-004, 2.21927679e-004, 4.78440452e-005,
          1.89371684e-004, 1.81925760e-004, -2.52998107e-005,
          3.08323739e-004, 2.86186521e-004, -8.89907915e-006,
          -1.14981733e-004, 1.08054192e-005, 1.10785921e-004,
          1.11885944e-004, 1.48802399e-004, 2.44860625e-004,
          -8.14826999e-005, -3.71537426e-005, -2.26216333e-004,
          -1.91477215e-004, -2.68987555e-004, -2.49442848e-004,
          -3.39454651e-004, -2.86897732e-004, 3.38202837e-004,
          1.18404190e-004, 8.32389633e-005, 3.68861256e-005,
          -2.27863420e-004, -2.15098029e-004, -4.15105867e-004,
          -1.57103772e-004, -4.74148546e-005, -2.95506416e-005,
          -1.93622167e-004, -1.39909112e-004, 2.41442292e-004,
          -4.72377550e-008, -3.47694331e-005, -4.75244224e-006,
          -1.67422550e-004, -1.16869182e-004, -3.32462165e-004,
          -1.78183211e-004, -1.33372581e-004, 1.19836921e-004,
          1.60635653e-004, 3.37802514e-004, 8.05842719e-005,
          7.21469360e-006, 2.71050543e-019, 2.71050543e-019 ]
      - [ 1.67411665e-004, 1.19236087e-004, 7.24620622e-005,
          2.78529369e-005, -4.29973215e-006, -7.51361003e-005,
          -8.53253005e-005, -7.70711194e-005, -1.57253162e-004,
          -1.96762237e-004, -2.44540279e-004, -1.55929578e-004,
          -2.61287001e-004, -2.23086972e-004, -4.81131792e-005,
          -1.26372965e-004, -2.57491571e-004, -3.44486529e-004,
          -2.52278493e-004, -2.16208296e-004, -1.25997030e-004,
          -1.08373679e-004, -1.52984663e-004, -1.12076399e-004,
          -3.38801299e-004, -9.67016749e-005, 1.62561715e-004,
          2.64521022e-005, -1.17489442e-004, -1.85730038e-004,
          -1.09523884e-004, 1.12681679e-004, 1.38912845e-004,
          -4.43036770e-005, 7.33343622e-005, 1.01042395e-004,
          -2.18930873e-004, 2.28898389e-005, 2.80736334e-004,
          2.11064224e-004, 4.54084693e-006, -5.63045760e-005,
          -7.00346063e-005, 8.91333984e-005, 8.24854651e-005,
          -1.69502338e-004, 6.43091771e-005, 2.34969790e-004,
          -1.71179563e-004, -6.35797051e-006, 2.90374319e-005,
          -1.35074497e-005, -1.57220376e-004, -1.59562798e-004,
          -1.14038929e-004, -1.17879454e-005, 9.84296639e-005,
          -9.13943659e-005, 1.10351386e-004, 2.77843850e-004,
          -1.67411665e-004, -9.26789944e-005, -1.36434319e-005,
          -2.57491320e-006, -6.34549215e-005, -5.83206383e-005,
          -1.20238852e-004, -1.49381609e-004, 9.65628933e-005,
          -1.73808134e-004, 2.11280014e-004, 2.89447285e-004,
          -2.32594844e-004, -1.71965090e-004, -6.52590752e-005,
          -1.14493960e-004, -1.65850754e-004, -1.91491708e-004,
          -9.26443390e-005, 3.61682287e-005, 1.25061270e-004,
          -3.75429081e-005, 1.35879105e-004, 2.23478608e-004,
          -4.09780943e-004, -2.10329104e-004, 1.09327222e-004,
          9.15794953e-005, 4.14885326e-005, -2.00463677e-004,
          -1.54629379e-004, -7.85513475e-005, 4.57215028e-005,
          2.99476349e-004, 2.18862042e-004, 4.70780105e-005,
          -4.55169415e-004, -3.92867398e-004, -2.36312553e-004,
          -9.94587099e-005, 2.26414977e-005, 7.75561130e-005,
          1.00678277e-004, 2.21032416e-004, 2.99181731e-004,
          2.56644125e-004, 6.30541326e-005, 1.68952874e-006,
          -4.56858950e-004, -3.29017726e-004, 6.80131416e-005,
          9.11331517e-005, 1.33444919e-004, 2.15046515e-004,
          2.39418689e-004, 1.87472266e-004, 1.44564314e-004,
          1.13639646e-004, 1.68952874e-006, -1.08420217e-019 ]
      - [ 6.77626358e-020, -8.66084883e-006, -2.28015433e-005,
          -5.29286772e-005, -6.53972747e-005, -1.09925422e-004,
          -1.93170301e-004, -2.52522615e-004, -2.68059783e-004,
          -2.58001935e-004, -2.50458543e-004, -1.94014108e-004,
          -1.90327963e-004, -2.65866489e-004, -2.68059783e-004,
          -2.63830560e-004, -2.08974860e-004, -9.41387261e-005,
          -4.93036441e-006, -3.87453219e-005, -1.08132917e-004,
          -1.79270428e-004, -1.79010240e-004, -1.13201881e-004,
          -2.68059783e-004, -2.03932505e-004, -1.15361050e-004,
          -1.02968770e-004, -4.53488246e-005, 4.91300998e-005,
          1.67785503e-004, 1.96350025e-004, 2.07043893e-004,
          1.17323856e-004, 7.97847097e-005, 4.96539578e-005,
          -2.50758429e-004, -1.15569157e-004, 9.24746055e-005,
          1.41991666e-004, 1.73053559e-004, 2.17456545e-004,
          1.88004706e-004, 1.92034960e-004, 1.60613767e-004,
          -1.00262941e-005, -1.16105139e-006, 2.72646284e-005,
          -1.53324887e-004, -8.30534045e-005, -3.02137408e-007,
          1.12816968e-004, 1.39266413e-004, 1.54539652e-004,
          1.54800640e-004, 1.23014746e-004, 2.88677602e-005,
          -1.88573133e-004, -1.26287297e-004, -6.57986902e-006,
          -2.16849250e-004, -1.82335571e-004, -2.29316811e-005,
          1.27175037e-004, 1.77004811e-004, 1.87941536e-004,
          5.02392213e-005, -1.27454705e-005, 1.32439864e-005,
          -1.66319995e-004, -5.59383734e-005, 6.77626358e-020,
          -2.31398910e-004, -1.48657564e-004, -7.06563005e-005,
          -2.74947470e-005, 2.62351150e-005, 1.36982577e-004,
          1.99242524e-004, 1.89719547e-004, 1.21206547e-004,
          -4.29872707e-005, 1.49200814e-005, 3.49849615e-005,
          -7.53800941e-006, 2.08362526e-005, 1.64619210e-004,
          1.72357759e-004, 1.57218383e-004, 5.10411774e-005,
          2.76905812e-005, -1.03848961e-005, 3.37014944e-006,
          8.33846279e-005, 1.00777390e-004, 7.99515765e-005,
          -4.23861529e-005, -1.22836843e-006, 7.40369705e-006,
          1.40824504e-005, -2.79603887e-006, -2.36193227e-005,
          -4.61665513e-006, 5.51465291e-006, 1.16595520e-005,
          1.78044520e-005, 2.63315578e-005, 9.97273037e-006,
          -2.38652574e-004, -6.39760110e-005, 1.42870907e-004,
          1.28139363e-004, 7.07694635e-005, 9.33128613e-005,
          4.83229014e-005, 9.61185742e-006, 6.77626358e-020,
          6.77626358e-020, 6.77626358e-020, 6.77626358e-020 ]
      - [ 5.13259292e-005, 1.11576846e-004, 9.22098261e-005,
          4.18734053e-005, -6.95882773e-005, -1.72287619e-004,
          -2.19517955e-004, -2.53783219e-004, -2.59187596e-004,
          -2.45435309e-004, -2.08577738e-004, -8.62186789e-005,
          2.39015408e-005, -3.23914537e-005, -1.80238530e-005,
          -1.80238530e-005, -3.56413402e-005, -1.05182167e-004,
          -1.92853156e-004, -2.42061622e-004, -2.27694574e-004,
          -1.28455824e-004, -8.06723438e-006, 3.53391879e-005,
          -8.65373440e-005, 4.55610243e-005, 1.45548896e-004,
          1.43945188e-004, 1.23307269e-004, 4.59763796e-005,
          5.35030231e-005, 9.59007957e-005, 1.64824014e-004,
          1.00347781e-004, 7.24063793e-005, 4.07413536e-005,
          -2.25223746e-004, -7.18415540e-005, 1.33627109e-004,
          1.55601432e-004, 1.32020941e-004, 9.57302327e-005,
          5.01727664e-005, 4.37542949e-005, 1.24119877e-004,
          -6.16081015e-005, -2.09738428e-005, 5.10534346e-006,
          -2.59187596e-004, -2.07280682e-004, -1.29759093e-004,
          -8.78113933e-005, -6.76564669e-005, -5.80772867e-005,
          -8.52394351e-006, 9.74332288e-005, 1.13243557e-004,
          -5.95075944e-005, -5.87495051e-005, -5.71179817e-006,
          -2.59187596e-004, -2.44432129e-004, -1.37985451e-004,
          -1.18351156e-004, -8.33862650e-005, -7.25725477e-005,
          2.20195598e-005, 2.89418745e-006, 4.55274494e-005,
          -1.83443728e-004, -5.22986375e-005, -9.48676901e-020,
          -2.59187596e-004, -2.55379739e-004, -2.18372079e-004,
          -1.98678274e-004, -1.55962582e-004, -2.02378724e-005,
          6.09549970e-005, 9.02684624e-005, 3.39876788e-005,
          -1.96491193e-004, -7.73025968e-005, -9.48676901e-020,
          -2.59187596e-004, -2.41100250e-004, -1.04027058e-004,
          -9.00581435e-005, -1.01233645e-005, -3.86480770e-006,
          9.95615483e-006, 6.06683079e-006, -9.39064412e-005,
          -3.18858874e-005, -5.40438805e-007, -9.48676901e-020,
          -2.59187596e-004, -2.59187596e-004, -2.50386889e-004,
          -1.05538864e-004, -3.06360525e-005, 5.77618484e-005,
          1.38296455e-004, 1.03822320e-004, -9.48676901e-020,
          -9.48676901e-020, -9.48676901e-020, -9.48676901e-020,
          -2.59187596e-004, -1.93001193e-004, -2.74681879e-005,
          7.80651899e-005, 5.92998804e-005, 1.28735934e-004,
          1.22727972e-004, 1.11612762e-005, -9.48676901e-020,
          -9.48676901e-020, -9.48676901e-020, -9.48676901e-020 ]
      - [ 5.42101086e-020, -3.64389452e-005, -9.52800474e-005,
          -7.53885106e-005, -5.58214670e-005, 2.69428638e-005,
          5.70518159e-006, -1.40904172e-004, -3.37185309e-004,
          -3.07099690e-004, -1.90819352e-004, -8.48273339e-005,
          -2.45296425e-004, -3.34688113e-004, -3.25605739e-004,
          -2.16380198e-004, -1.25017075e-004, -3.54000476e-005,
          -2.88529354e-005, -3.33191674e-005, -1.25559483e-004,
          -4.51986853e-005, 1.78256369e-006, -9.00468658e-005,
          -3.37185309e-004, -2.18660571e-004, -5.85125636e-005,
          -6.24794484e-005, -1.13621201e-004, -1.33213252e-004,
          -1.02211437e-004, -6.74319672e-005, 6.26048131e-005,
          2.98552022e-005, -4.74982808e-005, -1.37441930e-005,
          -3.23412765e-004, -3.74391639e-005, 2.39655055e-004,
          2.11578357e-004, 1.28450265e-004, -1.02364174e-005,
          1.15422617e-005, 6.60716614e-005, 3.97272561e-005,
          -1.48902167e-004, -1.37129740e-004, -2.49719619e-006,
          -1.76584406e-004, -8.97890277e-005, 2.53820417e-005,
          3.71265887e-005, 3.62880601e-005, 7.82455845e-006,
          8.91629097e-005, 6.13323573e-005, 7.39511597e-005,
          -2.23606810e-004, -1.53373490e-004, -7.49158835e-006,
          -3.11983225e-004, -2.41740199e-004, -7.88125108e-005,
          -4.21982404e-005, 8.74949546e-005, 1.16062089e-004,
          -2.40757217e-005, -1.07779497e-005, -3.78949262e-005,
          -3.18599486e-004, -6.82044993e-005, 5.42101086e-020,
          -3.37185309e-004, -3.32190917e-004, -1.88758539e-004,
          -9.83776699e-005, -1.12189453e-004, -1.29854467e-004,
          6.84816187e-005, 8.56456172e-005, -9.32114272e-005,
          -2.67029973e-004, -1.00316589e-004, 5.42101086e-020,
          -3.37185309e-004, -2.85397633e-004, 7.91659932e-006,
          -3.85154053e-005, -1.18920085e-004, -5.39525281e-005,
          2.20757611e-005, -1.39517564e-004, -1.42929086e-004,
          -4.11817819e-005, -6.97996313e-007, 5.42101086e-020,
          -2.91261880e-004, -1.99414979e-004, -2.76011153e-004,
          -2.48595781e-004, -5.31621590e-005, 1.02595193e-004,
          6.63708197e-005, 5.42101086e-020, 5.42101086e-020,
          5.42101086e-020, 5.42101086e-020, 5.42101086e-020,
          -1.85382814e-004, -2.25189433e-004, -3.58103935e-005,
          5.90097479e-005, 1.56744645e-004, 1.08398599e-004,
          7.67633537e-007, 5.42101086e-020, 5.42101086e-020,
          5.42101086e-020, 5.42101086e-020, 5.42101086e-020 ]
      - [ 2.74499296e-004, 1.94418986e-004, -1.20488558e-005,
          -1.63535558e-004, -2.24893622e-004, -2.57908716e-004,
          -2.65130744e-004, -2.88860349e-004, -2.99177569e-004,
          -2.78543128e-004, -2.63067312e-004, -2.04304568e-004,
          3.91687499e-005, -6.36128680e-005, -1.83939774e-004,
          -2.80821754e-004, -2.99177569e-004, -2.99177569e-004,
          -2.99177569e-004, -2.99177569e-004, -2.99177569e-004,
          -2.87828618e-004, -2.29020501e-004, -1.29015927e-004,
          -1.38109699e-005, 1.82128879e-005, -1.91603795e-005,
          -1.19562093e-004, -1.37917901e-004, -1.29664128e-004,
          -1.03446531e-004, -7.53296918e-005, -6.71580274e-005,
          -1.83190481e-004, -4.79258670e-005, -3.25505198e-006,
          -1.68428069e-005, 6.06733520e-005, 1.15237788e-004,
          1.08159193e-005, -8.63296373e-006, -1.30202079e-005,
          -2.06625045e-005, -2.41228227e-005, -8.10500715e-005,
          -2.49860197e-004, -1.07226624e-004, -5.66095991e-007,
          -1.68428069e-005, 3.02336521e-005, 7.02002217e-005,
          -1.87504229e-005, -6.26715700e-006, -3.37150195e-005,
          -1.91654890e-005, -7.11500843e-006, 1.69709747e-005,
          -1.30276210e-004, -1.80104798e-005, 1.28015827e-005,
          -1.39283447e-005, -3.61877646e-005, -3.21820371e-005,
          -5.42162015e-005, 3.36175549e-006, 6.39671707e-005,
          5.75193881e-005, 5.24872521e-005, 2.05590608e-004,
          -3.87143700e-005, 1.61727294e-004, 1.28210217e-004,
          -1.68428069e-005, -5.85435118e-005, -1.01093014e-004,
          -1.82269578e-004, -1.93825486e-004, -1.58358365e-004,
          -8.43340604e-005, 5.65323826e-005, 2.63422757e-004,
          6.30721988e-005, 1.85818120e-004, 1.97162255e-004,
          -1.68428069e-005, -5.88010553e-005, -3.50240443e-005,
          -1.10057292e-004, -7.83812211e-005, -6.85078630e-005,
          5.04347736e-005, 1.20932425e-004, 1.28309621e-004,
          1.81852738e-004, 1.51270040e-004, 8.49278222e-005,
          -3.83027545e-005, -5.90667805e-005, -1.42417470e-004,
          -1.49452055e-004, 5.02526336e-006, 1.64034558e-004,
          1.86984442e-004, 1.48255989e-004, 6.96011775e-005,
          2.84549042e-005, 8.39664608e-006, 5.06927904e-007,
          -7.34021160e-005, 6.74464754e-005, 1.96800887e-004,
          1.37884097e-004, 8.82454624e-005, 2.89251875e-005,
          7.44120234e-006, 6.77626358e-020, 6.77626358e-020,
          6.77626358e-020, 6.77626358e-020, 6.77626358e-020 ]
      - [ 2.50513927e-004, 1.87731785e-004, 3.50392438e-005,
          -9.22405670e-005, -2.12585946e-004, -2.34145351e-004,
          -2.38861467e-004, -2.54357292e-004, -2.61094596e-004,
          -2.47619988e-004, -2.37514003e-004, -1.84191362e-004,
          3.27088565e-005, -4.10812099e-005, -1.33093272e-004,
          -1.98336798e-004, -2.61094596e-004, -2.61094596e-004,
          -2.61094596e-004, -2.61094596e-004, -2.61094596e-004,
          -2.53683567e-004, -2.15280874e-004, -1.14406495e-004,
          -2.64516748e-005, 2.42089500e-005, 1.34309075e-005,
          -5.17843546e-005, -9.23276384e-005, -7.12044639e-005,
          -3.90770510e-005, 1.34290103e-005, 1.10633819e-005,
          -1.18171301e-004, -5.31331425e-005, 1.51323939e-005,
          -2.64516748e-005, 8.32281949e-005, 2.21627750e-004,
          1.81857598e-004, 1.27166844e-004, 1.17087540e-004,
          8.88560098e-005, 9.48723755e-005, 6.67811037e-005,
          -1.51160799e-004, -3.48175381e-005, 4.95597997e-005,
          -2.64516748e-005, 4.72969950e-005, 7.54238572e-005,
          4.58903123e-005, 1.25492606e-005, -1.11671407e-005,
          5.94239100e-006, 8.14773957e-005, 1.26188301e-004,
          -7.13356931e-005, 4.67337159e-005, 1.46056889e-004,
          -2.64516748e-005, -3.09885254e-005, -3.00699448e-005,
          -6.99940356e-005, -7.03141122e-005, -3.37127458e-005,
          -5.16206528e-005, -5.26931399e-005, 8.12887665e-005,
          -1.06189487e-004, 1.11099151e-004, 1.50258915e-004,
          -2.64516748e-005, -1.15931289e-005, 2.50323192e-005,
          -1.28732081e-005, -3.10247997e-005, 1.80352417e-005,
          7.31872351e-005, 1.19568351e-004, 1.39410840e-004,
          -3.69155350e-005, 8.61586304e-005, 1.50258915e-004,
          -5.94086596e-005, -4.66626589e-005, 7.31045075e-005,
          5.79382686e-005, 4.47717975e-005, 1.02509568e-006,
          3.44865584e-005, 5.41948757e-005, 8.40278663e-005,
          1.34910573e-004, 2.09004211e-004, 1.94932800e-004,
          -1.61796153e-004, -1.61796153e-004, -1.52284105e-004,
          -1.54458874e-004, -1.25810999e-004, -5.92042525e-005,
          -8.08477489e-006, 6.75072079e-005, 1.47141807e-004,
          1.28001324e-004, 1.59378455e-004, 2.18075307e-004,
          -2.61094596e-004, -1.87826095e-004, -2.57305455e-005,
          7.62329653e-021, 7.62329653e-021, 7.62329653e-021,
          7.62329653e-021, 6.75072079e-005, 1.46752398e-004,
          1.28001324e-004, 1.51105502e-004, 1.76710600e-004 ]
      - [ -4.06575815e-020, -1.38549331e-005, -3.87193468e-005,
          -1.04879509e-004, -2.31936749e-004, -2.61436653e-004,
          -2.66221643e-004, -1.70460218e-004, -2.87867733e-005,
          -8.87688584e-005, -2.57103093e-004, -2.05323464e-004,
          -2.17801673e-004, -2.37923974e-004, -1.28669810e-004,
          -1.18281845e-004, -2.65338836e-004, -2.88779353e-004,
          -2.88779353e-004, -1.77295893e-004, -2.87867733e-005,
          -8.72281526e-005, -2.14351225e-004, -1.02157464e-004,
          -2.30653110e-004, -1.13728187e-004, 6.39505233e-005,
          1.40612290e-004, 2.78598181e-005, -8.31148736e-006,
          3.24718530e-005, 8.51729346e-005, 1.99070812e-004,
          8.35849351e-005, 5.85529779e-005, 1.60028299e-004,
          -1.22039026e-004, -1.54282097e-005, 2.08870479e-004,
          2.78997875e-004, 1.70133324e-004, 1.29508189e-004,
          9.92955902e-005, 1.51503424e-004, 1.78762188e-004,
          -4.21938512e-006, 3.99760502e-005, 1.58081020e-004,
          -1.79373717e-004, -6.86031635e-005, 1.21097066e-004,
          1.22076075e-004, -5.06671495e-006, -3.88814442e-005,
          -2.39425081e-005, 9.43521081e-005, 1.88248829e-004,
          -2.49975164e-005, -7.87447862e-005, 2.23903135e-005,
          -2.53283564e-004, -1.95589440e-004, 3.48627909e-005,
          1.26404193e-004, -1.82602798e-005, -3.13220953e-005,
          -6.88831860e-005, -1.88153226e-005, 1.72810818e-004,
          -4.29470711e-005, 3.67229586e-005, 4.38037750e-005,
          -1.35937007e-004, -1.25133054e-004, -3.10288306e-005,
          6.35995457e-005, 4.40632029e-005, 7.93000218e-005,
          1.55318397e-004, 1.97690737e-004, 2.08534897e-004,
          4.50595217e-005, 1.47765313e-004, 1.48976556e-004,
          -1.02367761e-004, -5.13086125e-005, 1.48791994e-004,
          1.65119331e-004, 7.07951331e-005, 2.64119740e-006,
          4.51638880e-006, 5.67071402e-005, 1.41538490e-004,
          1.52592562e-004, 4.36907139e-005, 2.34550953e-005,
          -2.24586474e-004, -1.75526671e-004, -4.47999337e-005,
          5.36717671e-005, -7.33539055e-005, -6.18473787e-005,
          -8.20281002e-006, 8.93278193e-005, 2.29405443e-004,
          1.66159924e-004, 6.36038794e-006, -4.06575815e-020,
          -2.88779353e-004, -1.61823831e-004, 1.57885210e-004,
          2.69667304e-004, 5.96519130e-005, -4.06575815e-020,
          -4.06575815e-020, 3.86252168e-006, 5.33880811e-005,
          3.82688377e-005, -4.06575815e-020, -4.06575815e-020 ]
      - [ -4.74338450e-020, -3.44324690e-005, -1.05782849e-004,
          -1.70035564e-004, -1.87263940e-004, -1.07493513e-004,
          -6.11790601e-005, -1.05592742e-004, -1.73175955e-004,
          -2.20668589e-004, -2.45484611e-004, -2.13919790e-004,
          -2.27556535e-004, -2.99217209e-004, -3.01067601e-004,
          -2.25667100e-004, -1.68371771e-004, -1.29095381e-004,
          -2.25698503e-004, -2.40370515e-004, -1.29475913e-004,
          -1.82861768e-004, -1.60520140e-004, -1.19184835e-004,
          -3.01067601e-004, -2.25519238e-004, -1.31405133e-004,
          -7.37217852e-005, -5.19141904e-005, 3.58624529e-005,
          8.46101727e-007, 1.26038358e-004, 1.33751149e-004,
          -7.96739623e-005, -6.46562548e-005, -1.06396237e-005,
          -3.01067601e-004, -1.75893409e-004, 5.04722775e-005,
          1.11683090e-004, 1.95148328e-004, 2.07740493e-004,
          1.69234321e-004, 5.66041417e-005, -4.57654569e-005,
          -2.45195028e-004, -1.24873259e-004, -1.85036936e-006,
          -2.40179565e-004, -7.19405507e-005, 5.65575683e-005,
          8.38389460e-005, 6.04580928e-005, 4.86822501e-005,
          8.01069109e-005, -1.27271942e-005, -1.00210946e-005,
          -1.62154582e-004, -7.20518365e-005, 9.92274363e-006,
          -7.44273493e-005, -2.04357093e-005, -3.49464062e-005,
          4.24955169e-006, 8.52674348e-005, 8.08437471e-005,
          5.05825155e-005, 5.38603781e-005, 6.14325618e-005,
          -1.08671964e-004, 1.11142712e-004, 1.34420465e-004,
          -1.29414853e-004, -1.32362911e-004, -1.43569181e-004,
          -6.98457879e-005, -3.34601282e-005, -9.17306970e-005,
          -2.03819382e-005, 1.20140699e-004, 3.19000210e-005,
          -1.88213060e-004, 8.67149283e-005, 2.05163058e-004,
          -2.91076343e-004, -2.10284314e-004, -1.59763604e-005,
          -1.00276447e-005, -5.63750764e-005, -8.34200619e-005,
          -8.61764056e-005, -1.23243793e-004, 4.82178693e-005,
          1.68406295e-005, 1.02097219e-004, 4.26428269e-005,
          -2.98198021e-004, -2.60115223e-004, -1.80303032e-004,
          -2.02267347e-005, 4.28763851e-005, 9.48794623e-005,
          6.53415555e-005, 3.86070387e-005, 1.45369035e-004,
          5.51010562e-005, -4.74338450e-020, -4.74338450e-020,
          -2.97992578e-004, -1.69387815e-004, 8.50170109e-005,
          1.46877210e-004, 1.46530088e-004, 1.86894147e-004,
          1.20414945e-004, 1.36284842e-004, 6.21356885e-005,
          8.80502830e-006, -4.74338450e-020, -4.74338450e-020 ]
      - [ -8.11462451e-006, 1.52340963e-005, 7.16920258e-005,
          8.57034829e-005, 9.55542646e-007, -6.01632273e-005,
          -1.67564212e-004, -2.36325810e-004, -9.56293370e-005,
          -3.79122430e-005, -9.68227050e-006, -8.11462451e-006,
          -5.60904755e-006, -6.45867185e-005, -1.47209284e-004,
          -2.84025155e-004, -1.56474576e-004, 1.12513750e-004,
          2.02813302e-004, 9.42841798e-005, -5.96426726e-005,
          -3.91555550e-005, 3.41462464e-006, 7.15135320e-006,
          -4.85970377e-005, -1.08686072e-004, -2.49548495e-004,
          -2.52549507e-004, -6.23945161e-005, 1.60930911e-004,
          2.24234740e-004, 1.51479355e-004, 1.23788224e-004,
          1.29767315e-004, 2.09665959e-004, 8.28810662e-005,
          -1.27107895e-004, -1.40621822e-004, -1.19772376e-004,
          5.63587628e-006, 1.64925252e-004, 3.16100166e-004,
          2.14057873e-004, 1.53518937e-004, 1.28789907e-004,
          2.58156051e-005, -5.44627110e-005, -6.70897352e-005,
          -1.44791629e-004, -5.98553779e-005, 1.80688785e-005,
          1.30211454e-004, 1.59593983e-004, 1.59536285e-004,
          1.05208092e-004, 1.68975021e-005, -1.20620534e-004,
          -2.71344848e-004, -3.38520244e-004, -3.21232597e-004,
          -2.37934684e-004, -2.60494533e-004, -1.31314897e-004,
          6.91051246e-005, 1.40938806e-004, 1.59211748e-004,
          1.79247309e-005, -1.02180064e-004, -1.59035131e-004,
          -2.28167832e-004, -3.38520244e-004, -3.13093245e-004,
          -7.26849321e-005, -9.64933715e-005, -7.51362459e-005,
          -3.80380516e-005, 6.22249718e-006, 2.80307868e-004,
          3.36448516e-004, 1.66249825e-004, 2.49790060e-006,
          -1.18526063e-004, -1.23980775e-004, -7.60287658e-005,
          3.27708840e-004, 2.58272310e-004, 1.21255493e-004,
          9.01725143e-005, 1.29327629e-004, 2.45149597e-004,
          2.37398446e-004, 4.39956566e-005, -7.53619315e-005,
          -4.13551134e-005, 5.72045210e-005, 9.83826540e-005,
          2.18742498e-004, 3.31596733e-004, 2.33385581e-004,
          4.96007597e-005, -7.61152551e-005, -1.22079175e-004,
          -1.23634731e-004, -2.24968840e-004, -2.86839873e-004,
          -1.28098400e-004, 3.23479944e-005, 6.58081035e-006,
          -2.79558299e-005, 9.51342518e-005, 1.01498728e-004,
          8.13266961e-005, -9.62652484e-005, -1.10407622e-004,
          -1.80839037e-004, -2.21560258e-004, -1.37766430e-004,
          -1.01859354e-004, -4.91163992e-005, -4.91163992e-005 ]
      - [ -9.66622829e-005, 2.82572528e-005, 6.44934262e-005,
          2.36170126e-005, -1.52646302e-004, -2.67201569e-004,
          -2.91951525e-004, -3.55720375e-004, -2.80812412e-004,
          -2.14738509e-004, -1.50119886e-004, -8.89711646e-006,
          2.49328761e-004, 1.72395419e-004, 5.88087169e-005,
          6.39364080e-005, 1.52344655e-004, 1.50166525e-004,
          -1.14816445e-004, -2.05042743e-004, -3.10130941e-004,
          -1.06178886e-004, 1.62781260e-004, 1.66349288e-004,
          2.34131963e-004, 2.19562789e-004, 1.04409846e-004,
          1.81804804e-004, 3.25018220e-004, 2.65170500e-004,
          2.01918854e-004, 4.24082573e-005, 1.20253259e-004,
          1.99982154e-004, 1.45297294e-004, 6.10469579e-006,
          -1.11192465e-004, -5.65415212e-005, -4.67935861e-005,
          6.15343233e-005, 2.42554350e-004, 2.30160615e-004,
          1.89880084e-004, 7.00778546e-005, 1.40748467e-004,
          8.83602752e-006, -6.21073632e-005, -1.72413260e-004,
          -2.15142689e-004, -2.72828009e-004, -2.41374612e-004,
          -9.41181206e-005, 8.49338467e-005, 8.49338467e-005,
          1.03800878e-004, 9.94590227e-005, 5.68427386e-005,
          -5.99899140e-005, -1.46986917e-004, -2.18987232e-004,
          -2.10301427e-004, -2.72828009e-004, -2.86032999e-004,
          -2.43661649e-004, -7.95294254e-005, -4.90412749e-005,
          1.53190646e-004, 1.13937116e-004, -1.02851036e-005,
          -1.75041569e-004, -2.43863760e-004, -2.15142689e-004,
          -1.49752625e-004, -1.77824986e-004, -3.05863708e-004,
          -2.50768848e-004, -9.70333494e-005, 1.46466642e-004,
          1.27920808e-004, 1.23364560e-004, -4.19147946e-005,
          -3.13443190e-004, -1.98018504e-004, -1.49752625e-004,
          -2.79910982e-005, -1.54617490e-004, -2.51621503e-004,
          -2.79961241e-004, -3.67955508e-005, 1.65890509e-004,
          1.72783359e-004, 9.68477980e-005, -2.51141784e-004,
          -3.41732026e-004, -1.54617490e-004, -2.79910982e-005,
          -2.71050543e-020, -3.99872843e-005, -1.44452133e-004,
          -1.06675601e-004, -1.44053309e-004, -1.53356541e-005,
          1.55679518e-004, -1.43218704e-005, -3.21845466e-004,
          -2.21081835e-004, -3.99872843e-005, -2.71050543e-020,
