%YAML:1.0
my_svm: !!opencv-ml-svm
   svm_type: C_SVC
   kernel: { type:LINEAR }
   C: 1.
   term_criteria: { epsilon:2.2204460492503131e-016, iterations:300 }
   var_all: 120
   var_count: 120
   class_count: 12
   class_labels: !!opencv-matrix
      rows: 1
      cols: 12
      dt: i
      data: [ 0, 1, 2, 4, 5, 6, 7, 8, 10, 11, 12, 13 ]
   sv_total: 66
   support_vectors:
      - [ -6.75428542e-004, -6.38010737e-004, -5.89729461e-004,
          1.07665139e-003, 7.19244417e-004, -7.39012903e-004,
          -1.62202632e-003, -6.48402097e-003, -5.34466747e-003,
          -1.26843352e-003, -1.24056835e-003, -6.30068709e-004,
          1.59100222e-003, 1.15003088e-003, -1.44241494e-004,
          -1.84586912e-003, -2.68180715e-003, -8.41632253e-004,
          -1.62567943e-003, -3.29832966e-003, -8.14343977e-004,
          2.56192265e-003, 1.55148678e-003, 1.33962824e-003,
          -5.93829551e-004, -4.93444211e-004, -8.78528459e-004,
          -3.79363238e-003, -3.81664303e-003, 1.39343017e-003,
          3.21033807e-003, 2.94912327e-003, 2.30136560e-003,
          3.08621442e-004, -2.51143501e-004, 1.62775046e-004,
          -8.14430823e-005, 3.24378780e-004, -2.40026842e-004,
          -1.32537709e-004, 1.14821050e-004, 3.54236399e-004,
          6.73461400e-005, -1.88258255e-005, 7.93869258e-004,
          -2.03999996e-004, 3.46889748e-004, 4.62049240e-004,
          -5.51733421e-004, -5.05284515e-005, 6.28576017e-005,
          -1.03342509e-005, -2.70373166e-005, -2.70373166e-005,
          -2.70373166e-005, -2.98545310e-005, 6.38967496e-004,
          -4.47665079e-004, -1.23400576e-004, -8.24108429e-006,
          -5.24696079e-004, 6.26983601e-005, -1.01232697e-004,
          1.67030666e-005, 1.38777878e-017, 1.38777878e-017,
          -1.81152370e-006, -1.52747489e-005, 6.49477937e-004,
          -4.38080431e-004, -9.63632629e-005, 1.87962323e-005,
          1.22437923e-005, 5.34052204e-004, 2.64075934e-004,
          4.19427786e-004, 3.19001672e-004, -1.15244638e-003,
          -3.87608423e-004, 1.23770407e-003, 2.60235672e-003,
          -1.34778686e-003, 1.21208686e-005, 4.84287593e-004,
          -1.27744908e-003, -1.00867357e-003, -3.84923886e-004,
          8.41594709e-004, 1.05246878e-003, 1.86013326e-003,
          1.03699928e-003, -1.10941881e-003, -1.74494577e-003,
          -7.65456469e-004, -1.90794969e-003, -6.61567668e-004,
          6.08125876e-004, 2.36541804e-004, 9.42263869e-004,
          7.22088909e-004, -1.72329531e-003, -2.49546324e-003,
          -2.03295820e-003, -6.24432869e-004, 2.24340311e-003,
          5.05320670e-004, -1.57809549e-003, 4.61875257e-004,
          9.73778544e-004, -7.18712574e-004, -2.09532853e-004,
          -5.58468094e-003, -6.91698398e-003, -3.52631020e-003,
          -2.54464132e-004, 1.11918210e-003, 1.52747403e-003,
          -1.62247382e-003, -7.18299299e-004, -1.11195527e-003 ]
      - [ 2.45141746e-005, -5.23156021e-004, -1.01153343e-003,
          6.17106154e-004, 1.69435318e-003, -2.60197977e-003,
          9.01337407e-005, 9.68033273e-004, 9.30163311e-004,
          1.58023919e-004, -3.03758634e-003, 3.02837347e-004,
          -7.22403202e-005, 1.44037811e-004, 1.01254892e-003,
          8.44347232e-004, 8.44347232e-004, 8.44347232e-004,
          8.94434052e-004, 9.85179562e-004, 7.84686999e-004,
          6.68565743e-004, 2.19773757e-003, 1.79704023e-003,
          7.37885071e-004, 4.58402140e-003, -1.68596115e-003,
          2.60736793e-003, 1.55397330e-003, -2.42427201e-003,
          1.73749693e-003, 8.42526928e-003, 3.20611475e-003,
          6.22052103e-005, -8.09672987e-004, -4.76699817e-004,
          -2.65708630e-004, -3.63314844e-004, -9.59074649e-004,
          -1.06312346e-003, -9.93774389e-004, -9.89068300e-004,
          9.33287607e-004, 2.53498903e-003, 1.39082619e-003,
          1.20812748e-003, 1.79547351e-003, 3.42155254e-004,
          -6.21573126e-005, -3.62040919e-005, -3.15257988e-004,
          -2.34782812e-004, -1.39338823e-004, -1.39338823e-004,
          1.97229296e-004, 3.36779165e-003, 3.78566590e-004,
          6.96433301e-004, 1.91268779e-003, 3.14703182e-004,
          -5.29842335e-004, -5.28018107e-004, -2.83445115e-004,
          -6.45201479e-004, -6.07023831e-004, -5.76329418e-004,
          1.45218696e-003, 1.94291421e-003, 7.31901440e-004,
          8.32753794e-005, -2.36965454e-004, -7.51802581e-004,
          7.71815030e-005, 4.46459271e-005, 5.80049295e-004,
          1.17852900e-003, 2.31582345e-003, 3.01156472e-003,
          -3.38571466e-004, 1.06103614e-003, 4.80462005e-003,
          8.73199897e-004, -1.96191395e-004, -2.42570808e-004,
          2.08206955e-004, -4.47574165e-003, -9.02706059e-004,
          -4.90725413e-003, -2.09660409e-003, 7.62513489e-004,
          5.15798200e-003, 1.76217710e-003, -9.94607690e-004,
          -8.71872762e-004, -2.61557230e-004, -1.82406307e-004,
          8.65556940e-004, 1.21204660e-003, 5.32069663e-003,
          8.25623609e-003, 5.92048932e-003, 2.24042358e-003,
          -8.64381960e-004, -9.82822618e-004, -9.11896524e-004,
          -4.43318801e-004, -1.40473829e-004, -9.97465999e-018,
          -2.31387050e-004, 5.92674315e-003, 2.47671711e-003,
          -9.12204152e-004, -8.98558879e-004, -9.40985337e-004,
          -9.91661451e-004, -9.94607690e-004, -7.79978989e-004,
          -5.54650498e-004, -5.50457276e-004, -4.24964412e-004 ]
      - [ -5.43648275e-006, 2.47810658e-005, 2.12703617e-005,
          -7.65367149e-005, -1.80834526e-004, -1.96485475e-004,
          1.30660497e-004, 1.74159824e-004, -9.75956500e-005,
          -3.18439270e-004, -3.08681847e-005, 1.82672957e-005,
          2.32415579e-004, 1.08847700e-004, -8.44438910e-005,
          -8.98767830e-005, -8.98767830e-005, -8.98767830e-005,
          2.76454317e-004, 5.14678773e-004, 1.64552606e-004,
          -2.61885201e-004, -1.04498497e-004, -1.19507633e-004,
          1.82312127e-004, -7.48986276e-005, -2.89432792e-004,
          -1.33899463e-004, -1.36329138e-004, -1.65472142e-004,
          1.40257500e-004, 2.41392408e-004, 1.48694729e-004,
          5.28026896e-004, -1.66651007e-004, -3.19252693e-004,
          1.67569349e-004, -8.55197868e-005, -3.69248854e-004,
          -1.25147766e-004, -1.25147766e-004, -1.25147766e-004,
          2.40673675e-004, 4.29381820e-004, 4.20543918e-004,
          4.74889297e-004, 4.22597834e-004, -1.30927641e-004,
          1.89728933e-004, 8.86862017e-006, -1.12785041e-004,
          2.20852409e-004, 3.19210085e-004, 4.50353662e-004,
          7.97960674e-004, 8.02399474e-004, 2.54788989e-004,
          7.02982652e-004, 3.71899892e-004, 1.01639031e-004,
          1.55925591e-004, 3.14558041e-004, 3.98233562e-004,
          5.47693868e-004, 2.12549203e-004, 4.90521779e-006,
          4.72727203e-004, 8.91859352e-004, 2.34401319e-004,
          4.43324156e-004, 1.96550227e-005, 1.01309539e-004,
          2.71235302e-004, 3.77719116e-004, 3.15416808e-004,
          5.95594523e-004, 4.91019629e-004, 2.72668520e-004,
          3.18114617e-004, -9.75644944e-005, -2.45319796e-004,
          7.96641980e-004, 5.31835249e-004, 2.95521924e-004,
          2.10864906e-004, 1.54600741e-004, -1.64186597e-004,
          -6.57357814e-005, -1.93767613e-004, -1.95632339e-004,
          -1.22653379e-004, 1.63804885e-004, 4.42549826e-005,
          -2.66259274e-004, -1.20983445e-004, 3.34988901e-004,
          2.55464693e-004, 2.69424956e-004, 4.27578489e-004,
          7.06387626e-004, 5.52977668e-004, 3.78847384e-004,
          1.41563607e-004, -3.08619172e-004, -4.87648678e-004,
          -3.30438546e-004, -1.18595417e-004, 4.65711899e-004,
          4.51279775e-004, 2.34160616e-004, -1.03849867e-004,
          1.12156362e-004, 6.99147995e-006, -1.29234206e-004,
          -3.13101889e-004, -4.15612536e-004, -2.69044336e-004,
          -1.39518830e-004, 1.06785497e-004, 3.83745501e-005 ]
      - [ 4.33680869e-019, 1.01848209e-005, 9.44674466e-005,
          1.56637718e-004, 3.98636941e-004, 1.89195998e-004,
          1.01295067e-004, 2.66725081e-004, -1.29424952e-004,
          -7.27375504e-004, -3.81964433e-004, -2.48213211e-004,
          -1.55180358e-004, 7.87081008e-005, 8.27481708e-005,
          4.15159768e-004, -2.84822047e-004, -6.02880609e-004,
          -5.58868283e-004, -4.58714843e-004, 3.67944158e-004,
          -6.43542226e-005, -1.82763994e-004, -4.37899842e-004,
          7.19437012e-005, 2.07737583e-004, 4.23317164e-004,
          3.53233685e-004, -2.82413006e-004, -4.05207189e-004,
          -2.75214174e-004, -1.70419560e-004, 1.87810292e-004,
          4.22196434e-004, 1.06017433e-004, -1.78704722e-004,
          4.98227542e-004, 3.16111749e-004, 4.55638918e-004,
          3.60804639e-004, -5.54486069e-005, -1.48341103e-004,
          -6.34324679e-005, -1.89195089e-006, 1.00154000e-004,
          3.36453377e-004, 4.25174367e-004, 2.65711569e-004,
          6.27384463e-004, 4.13415895e-004, 3.86078726e-004,
          3.10189149e-004, 9.55647010e-006, 9.55647010e-006,
          9.55647010e-006, 9.55647010e-006, 4.03092090e-005,
          2.71029188e-004, 4.88323101e-004, 3.94868548e-004,
          5.40839974e-004, 3.56198085e-004, 3.82541533e-004,
          2.80428590e-004, -2.66220359e-005, -6.15389290e-005,
          -7.69880717e-005, -5.13332088e-005, 8.61603530e-006,
          2.40571084e-004, 4.24952304e-004, 3.08324001e-004,
          5.28710836e-004, 4.04872611e-004, 5.15903055e-004,
          5.31306257e-004, 1.08592203e-005, -1.27435182e-004,
          -2.26936754e-004, -1.40154982e-004, 1.59460527e-004,
          5.42725727e-004, 4.90396225e-004, 2.96194892e-004,
          4.99328598e-005, 1.68107028e-004, 2.53612001e-004,
          5.88776020e-004, -1.29991720e-004, -2.77976622e-004,
          -3.60313163e-004, -2.99330946e-004, 3.36257654e-004,
          5.21032780e-004, 2.49385252e-004, -1.02560436e-004,
          -1.99567308e-004, -3.59516853e-004, -2.94267491e-004,
          4.71884996e-004, 6.39822756e-005, -4.39261290e-004,
          -5.32375008e-004, -1.27899373e-004, 3.84467072e-004,
          2.38658744e-004, -7.33125489e-005, -8.64229587e-005,
          2.88062089e-004, -2.19068272e-004, -2.32683931e-004,
          9.77455420e-005, -1.38699997e-005, 3.09985517e-005,
          6.30278737e-005, 6.52001982e-005, 3.52007133e-004,
          6.28377078e-004, 3.59919504e-004, 4.22834099e-004 ]
      - [ -9.79579909e-006, -2.98301893e-006, 8.73849058e-005,
          1.59260089e-004, 1.36520481e-004, 3.45090893e-006,
          -1.56931885e-004, -2.46060838e-004, -2.40474226e-004,
          -2.18748872e-004, -1.40181422e-004, -1.42431381e-004,
          -2.70967666e-005, -7.57053567e-005, -1.37175943e-004,
          -2.36703912e-004, -1.90372113e-004, 4.49103682e-005,
          1.68580285e-004, 8.40466309e-005, -5.15353713e-005,
          -2.34865045e-004, -1.54903886e-004, -1.78251721e-004,
          -1.03688020e-004, -1.37697425e-004, -2.21094408e-004,
          -2.10942060e-004, -7.39168463e-005, 6.14460005e-005,
          2.09033227e-004, 2.12640269e-004, 2.21885464e-004,
          2.22737857e-004, 9.76393712e-005, -6.86326894e-005,
          -5.38902859e-005, -2.69730099e-005, -3.86904576e-005,
          1.30438857e-004, 2.26363976e-004, 2.83591071e-004,
          2.93427060e-004, 3.32157564e-004, 3.19215702e-004,
          1.88681399e-004, 8.08306213e-005, -4.29080101e-005,
          1.52945959e-005, 2.30174031e-004, 2.24150557e-004,
          3.64250765e-004, 4.25137754e-004, 4.20563883e-004,
          3.44022788e-004, 1.98205089e-004, 7.53862550e-005,
          -5.56457671e-005, -8.56516417e-005, -1.21310222e-004,
          -3.56280616e-005, 5.53906875e-006, 3.63411309e-005,
          3.09388386e-004, 4.09376284e-004, 3.93172348e-004,
          1.90301027e-004, 5.75531521e-005, 2.69599041e-005,
          -4.73383770e-005, -9.17576908e-005, -1.22973783e-004,
          3.57710960e-005, 9.60220277e-005, 3.71983842e-005,
          1.57170391e-004, 2.07654273e-004, 2.70281831e-004,
          2.84767157e-004, 1.36825140e-004, 3.87119289e-005,
          -4.63547658e-005, -3.78548866e-005, -8.83609609e-005,
          3.05536785e-004, 2.62988469e-004, 1.48894746e-004,
          1.98927271e-004, 2.05391829e-004, 1.38535062e-004,
          1.07970700e-004, 7.79821930e-005, 8.01704591e-005,
          5.89043520e-005, 6.00731801e-005, -6.04598063e-006,
          2.34206364e-005, 1.59564908e-004, 9.97217358e-005,
          1.35576513e-004, -1.75461300e-005, -1.22521436e-004,
          -1.80953415e-004, -1.73401175e-004, -1.51791799e-004,
          -8.78286301e-005, 4.10464691e-006, 3.05281246e-005,
          -6.15596146e-005, -4.43705649e-005, -1.03264072e-004,
          -4.56136040e-005, -1.09338253e-005, 1.36952413e-005,
          -7.16284485e-005, -7.54135035e-005, -5.10436803e-005,
          -1.83269094e-005, -1.53335841e-005, -1.18378457e-005 ]
      - [ 1.04194085e-004, 3.91628477e-004, 4.71937674e-004,
          4.36526985e-004, 1.49634347e-004, -1.66376849e-004,
          -2.80139706e-004, -4.51019092e-004, -4.13787435e-004,
          -4.09513857e-004, -2.24716423e-004, -9.53774652e-005,
          4.74831380e-004, 3.31379735e-004, 2.84656155e-004,
          2.34762105e-004, 2.21346127e-004, -1.53974961e-005,
          -2.84283655e-004, -4.54518013e-004, -3.83608160e-004,
          -2.13044521e-004, 1.58778566e-004, -1.69580471e-005,
          2.40496720e-005, 1.36582297e-004, 2.14495769e-004,
          2.34959763e-004, 1.80137111e-004, -8.29628625e-005,
          -6.57852070e-005, 8.01104979e-005, 2.63748603e-004,
          3.07885435e-004, 2.69713317e-004, -5.59620967e-005,
          -2.31825325e-004, -1.03846050e-005, -1.21839303e-005,
          8.12536891e-005, 5.28614037e-005, -1.21488001e-005,
          -5.93947698e-005, 1.12214111e-004, 5.76816907e-004,
          2.28014018e-004, 2.94365327e-005, -2.91913002e-005,
          -2.50817509e-004, -1.11033281e-004, -1.39156327e-004,
          -2.72915368e-005, -2.72915368e-005, -2.72915368e-005,
          6.19178027e-005, 3.77320161e-004, 5.60946064e-004,
          1.05415245e-004, -7.53333952e-005, -2.72915368e-005,
          -2.25425742e-004, -9.70268811e-005, -1.31657973e-004,
          -1.89976265e-006, -1.89976265e-006, -1.89976265e-006,
          3.71272850e-004, 4.74387052e-004, 2.53747741e-004,
          -6.39066420e-005, -4.99416237e-005, -1.89976265e-006,
          -2.31470651e-004, -1.03932616e-004, -1.39053489e-004,
          -7.94466905e-006, -8.13829956e-006, 1.71971056e-004,
          2.28045217e-004, 2.13022722e-004, 1.43747762e-004,
          -1.44638558e-004, -5.32555496e-005, -7.94466905e-006,
          -2.27180368e-004, -9.96423332e-005, -1.56177121e-004,
          -9.88923202e-005, 8.33869926e-005, 2.38248060e-004,
          1.48719337e-004, 2.75212678e-005, -1.70881365e-004,
          -1.55359303e-004, -5.16962427e-005, -2.63927632e-006,
          -2.72064091e-004, -1.46759718e-004, -2.84134556e-004,
          4.62992757e-005, -1.19449305e-005, -3.69834306e-005,
          8.77925559e-005, -2.61052483e-005, -2.19300462e-004,
          -1.55045855e-004, -8.36857871e-005, -4.52897766e-005,
          -2.59408203e-004, -1.37024748e-004, -2.82127701e-004,
          5.76397397e-005, -1.94631633e-004, -5.21418006e-005,
          -3.67374778e-005, -1.83474956e-004, -1.16821837e-004,
          -6.29437491e-005, -3.83649312e-005, -3.58822217e-005 ]
      - [ -1.99899114e-005, -4.12456429e-005, -3.69279915e-005,
          7.19151649e-005, 1.59618023e-004, 3.84060695e-004,
          8.45509348e-005, -3.61072889e-004, -7.68839847e-004,
          -5.91748918e-004, 1.07568019e-004, 3.28651513e-004,
          -2.08888261e-004, -2.96600134e-004, -6.03056804e-004,
          -4.34152375e-004, -1.81699448e-004, 1.81569587e-004,
          1.76804257e-004, 6.82885075e-005, -1.00762409e-004,
          2.31568789e-004, 5.25377283e-004, -1.54780078e-004,
          -2.27463257e-004, -1.91162879e-004, -2.61971873e-004,
          -1.40198026e-004, -3.34732467e-004, -4.32978937e-004,
          -4.14128153e-004, -3.33532284e-004, 1.09893990e-004,
          3.69264075e-004, 7.32881308e-005, -1.23374964e-004,
          -2.71235593e-004, 1.91600702e-004, 2.33680112e-004,
          3.92464164e-004, 3.38157581e-004, 5.25277392e-006,
          2.01206800e-004, 3.90071073e-004, 2.87916686e-004,
          2.43930117e-004, -1.55527247e-004, -1.11956484e-004,
          1.32415269e-004, 2.61280336e-004, 2.02298965e-004,
          4.62241966e-004, 3.08315444e-004, 4.62790311e-004,
          5.91691409e-004, 4.19472781e-004, 4.08468652e-004,
          -7.84217627e-005, -1.87253507e-004, -1.13447772e-004,
          -2.18921443e-004, -1.83579468e-004, -2.73802696e-004,
          2.42718761e-005, 4.86231351e-004, 5.23955154e-004,
          7.33080233e-005, 3.31284304e-004, 1.32753659e-004,
          -2.01066636e-004, -1.85762212e-004, -1.11956484e-004,
          -1.44652076e-004, -2.81754183e-004, -1.66500031e-004,
          3.68016859e-004, 3.00143147e-004, -8.30441877e-006,
          2.11725084e-004, 4.11084096e-004, 2.31892045e-005,
          -1.13931805e-004, -8.91836535e-005, -2.34330291e-005,
          -1.23311271e-004, -1.60744952e-004, 4.00601175e-006,
          7.09480591e-005, -5.12347506e-005, 5.93719851e-005,
          3.57440615e-004, -1.34190270e-006, -9.72355410e-005,
          -1.03779130e-004, -7.58979586e-005, -2.87681837e-006,
          -1.74600063e-005, 1.52841996e-004, -4.23021324e-004,
          -3.34075565e-004, -1.64948302e-004, 1.73556720e-004,
          -1.21030234e-005, -2.56640691e-004, -2.61058391e-004,
          -2.66874762e-004, -1.48072591e-004, -5.89358606e-005,
          3.85823834e-004, -1.96621055e-004, -5.93161269e-004,
          -3.47360678e-004, -1.96308552e-004, 3.59328442e-005,
          -2.45185976e-004, -2.30487422e-004, -1.62352502e-004,
          -1.06199557e-004, -2.29869802e-005, -1.17538339e-005 ]
      - [ 5.20317932e-004, 1.94418302e-004, -1.24092912e-004,
          -2.62093119e-004, -3.04678018e-004, -3.24096793e-004,
          -3.47941037e-004, -3.48861009e-004, -3.51925410e-004,
          -4.59302682e-004, -4.39779920e-004, -3.71638220e-004,
          2.19088179e-004, 1.07915912e-004, -4.39263458e-005,
          -1.52126493e-004, -1.52126493e-004, -1.52126493e-004,
          -1.49620319e-004, -1.25811683e-004, -1.10805391e-004,
          -1.91375977e-004, -1.48730818e-004, -1.67385195e-004,
          2.04368655e-004, 1.23155463e-004, 6.99301308e-005,
          -2.93240555e-005, -2.93240555e-005, -2.93240555e-005,
          -2.93240555e-005, -2.93240555e-005, -3.68733054e-005,
          -1.43675585e-004, -1.54321882e-004, -1.82104719e-004,
          2.15408290e-004, 1.33505135e-004, 6.99301308e-005,
          -6.09480367e-006, -3.67988150e-006, -3.67988150e-006,
          -3.67988150e-006, -3.67988150e-006, -1.12291336e-005,
          -1.28036088e-004, -1.43282232e-004, -1.71065069e-004,
          2.19088179e-004, 1.44041565e-004, 1.20091201e-004,
          8.14179657e-005, 8.42928785e-005, 8.42928785e-005,
          8.42928785e-005, 7.14483976e-005, 2.40094068e-005,
          -1.08749198e-004, -1.38632226e-004, -1.67385195e-004,
          2.14976841e-004, 2.29575948e-004, 2.29848345e-004,
          1.97139918e-004, 2.63700815e-004, 2.56361091e-004,
          3.87570937e-004, 5.22772549e-004, 5.16279018e-004,
          3.11427750e-004, 1.66443686e-004, -8.46831390e-005,
          2.08606623e-004, 1.37638577e-004, 8.59311913e-005,
          -6.57693963e-005, -1.11142064e-004, -1.28138403e-004,
          -1.34616464e-004, 1.15863084e-004, 4.63305973e-004,
          4.07446176e-004, 4.92523541e-004, 4.09627712e-004,
          1.46596693e-004, -3.84923515e-005, -1.32700065e-004,
          -2.54755490e-004, -1.69534527e-004, -9.62574704e-005,
          -1.17993877e-004, 2.54740648e-004, 3.87552340e-004,
          3.06986214e-004, 2.37867309e-004, 3.48309186e-005,
          3.02327589e-005, -4.78479888e-005, -1.25111634e-004,
          -7.73095308e-005, 8.59427164e-005, 1.81834504e-004,
          4.82161522e-005, 3.89420202e-005, -1.49119354e-004,
          -2.37345739e-004, -1.21872166e-004, -4.08461565e-005,
          1.23103237e-004, 1.11732814e-004, 9.55429932e-005,
          -1.01616257e-004, -2.44824856e-004, -3.17992410e-004,
          -3.06442409e-004, -1.99671093e-004, -1.42860154e-004,
          -6.41087972e-005, -4.29379361e-005, -4.27974483e-005 ]
      - [ 3.82323546e-004, 2.77816114e-004, 6.93645416e-005,
          -4.54906694e-005, -2.16794942e-004, -2.30214500e-004,
          -2.45482661e-004, -2.45482661e-004, -2.34985026e-004,
          -2.49930483e-004, -2.09221776e-004, -1.98141643e-004,
          2.22201925e-004, 1.38911375e-004, -3.70812995e-005,
          -9.35034695e-005, -1.87436337e-004, -1.87436337e-004,
          -1.86696896e-004, -1.79672177e-004, -1.66941551e-004,
          -1.71068343e-004, -2.03813732e-004, -2.29868747e-004,
          2.09986334e-004, 1.56638082e-004, 1.41245546e-005,
          -8.44231090e-006, -4.09680288e-005, -1.79338113e-005,
          1.55218313e-005, 8.16760512e-005, 9.06151181e-005,
          3.99881355e-006, -3.00442080e-005, -5.09082784e-005,
          1.63942677e-004, 1.96780165e-004, 2.22774732e-004,
          2.32800259e-004, 2.16886998e-004, 2.30010497e-004,
          2.18504094e-004, 2.34256513e-004, 2.36742999e-004,
          8.45501418e-005, 5.92020697e-005, 1.80608276e-005,
          2.09986334e-004, 2.34927647e-004, 2.23185998e-004,
          2.10676255e-004, 1.37959258e-004, 1.02395286e-004,
          8.37947955e-005, 1.69320687e-004, 2.21147886e-004,
          7.98274414e-005, 1.28219093e-004, 1.32949208e-004,
          1.63942677e-004, 1.48484411e-004, 6.67659478e-005,
          2.55928007e-005, -2.24022533e-005, -3.19361379e-006,
          2.43753675e-005, 7.95775195e-005, 1.66484970e-004,
          8.21506183e-005, 1.17681855e-004, 8.69055511e-005,
          1.96826964e-004, 2.10397455e-004, 2.36753185e-004,
          2.42096037e-004, 1.87385798e-004, 1.91193307e-004,
          1.86109959e-004, 1.81229683e-004, 1.97995047e-004,
          1.02276041e-004, 1.35164722e-004, 1.15980540e-004,
          9.49436435e-005, 2.88679184e-005, 6.18461127e-005,
          8.36641775e-005, 4.63524375e-005, 1.04263272e-005,
          -5.49258039e-006, 7.10469030e-005, 1.12251102e-004,
          3.67232096e-005, 1.76860878e-004, 2.21084090e-004,
          -2.32681356e-004, -2.33841827e-004, -1.53697518e-004,
          -1.39379103e-004, -1.73925015e-004, -1.73925015e-004,
          -1.73925015e-004, -7.34490532e-005, 1.63570949e-005,
          -1.53419733e-005, 1.45093029e-004, 3.40179831e-004,
          -1.69025137e-004, -2.29607511e-004, -2.25008494e-004,
          -1.82236196e-004, -1.84140838e-004, -1.84140838e-004,
          -1.69575302e-004, 7.54171197e-006, 1.23886246e-004,
          1.22355865e-004, 2.20225906e-004, 3.00423446e-004 ]
      - [ -3.50916764e-007, -3.50916764e-007, 1.33525507e-004,
          -2.96564667e-005, -1.92226566e-004, -2.53351638e-004,
          -2.75449798e-004, -1.67262668e-004, 1.81674652e-004,
          -7.41047843e-005, -1.26881409e-004, -1.63765886e-004,
          -1.13249494e-004, -1.59268500e-004, 9.73948481e-005,
          -1.23366932e-004, -2.60112371e-004, -3.05781723e-004,
          -3.05781723e-004, -1.70485218e-004, 1.50045962e-004,
          -1.72214728e-004, -2.74940714e-004, -3.00095882e-004,
          -4.96090979e-005, -9.53396229e-005, 1.13450144e-004,
          1.30877757e-004, -9.19618687e-005, -1.82194912e-004,
          -1.07905194e-004, 2.56815110e-005, 3.33081873e-004,
          1.52856650e-004, 4.29187712e-005, 3.60795602e-005,
          1.65951235e-004, 1.68977713e-004, 1.90708262e-004,
          3.95042618e-004, 3.06726462e-004, 2.22024479e-004,
          2.27751443e-004, 2.99372536e-004, 4.22526064e-004,
          2.55899067e-004, 2.05307078e-004, 1.66786325e-004,
          2.21594411e-004, 1.68974861e-004, 3.10842966e-004,
          3.12254357e-004, 2.38595239e-004, 1.66659098e-004,
          1.33394700e-004, 2.58583546e-004, 4.61584394e-004,
          9.28492227e-005, -5.42267735e-005, -1.25152656e-004,
          -1.64808062e-005, -2.87716248e-005, 1.74373010e-004,
          2.75853410e-004, 7.90116683e-005, -2.68040767e-005,
          -1.75217665e-005, 1.11098256e-004, 4.21374687e-004,
          1.14877548e-004, -2.70964447e-005, -5.46614028e-005,
          1.83506520e-004, 1.48773193e-004, 1.64775221e-004,
          4.19848104e-004, 2.96157232e-004, 2.28149715e-004,
          2.79865490e-004, 2.71578960e-004, 3.33169999e-004,
          2.90329102e-004, 3.41426290e-004, 3.37887643e-004,
          3.05800058e-004, 1.85030629e-004, 1.17867668e-004,
          1.03976447e-004, 6.92740214e-005, -7.90687864e-007,
          -5.25138457e-005, 4.68126018e-005, 2.13201536e-004,
          -5.67411189e-005, -9.39639940e-005, -1.03459824e-004,
          -7.53466011e-005, -1.04384933e-004, -1.84056134e-005,
          3.18006278e-005, -1.65264530e-004, -2.85922142e-004,
          -2.86132999e-004, -1.50836495e-004, 1.81289259e-004,
          4.17945694e-006, -7.61167612e-005, -1.01244405e-005,
          -1.23382197e-004, -2.36627835e-004, -1.16969859e-004,
          1.69607065e-005, -1.85748126e-004, -2.99698033e-004,
          -2.82041496e-004, -1.13289170e-004, 8.04802039e-005,
          1.34556085e-005, -7.70407933e-005, -6.75706542e-005 ]
      - [ -1.03058992e-005, -1.72217005e-005, -5.23559247e-005,
          -1.71826527e-004, -1.56793642e-004, 1.57922856e-004,
          2.27691431e-004, 2.78293028e-005, -1.52478155e-004,
          -2.93445832e-004, -1.86398465e-004, -1.33612484e-004,
          -1.23769540e-004, -1.87151381e-004, -3.73667106e-004,
          -2.69521202e-004, 1.41469513e-006, -2.15392483e-005,
          -3.95090494e-004, -3.38002457e-004, 1.62536046e-004,
          -3.20500840e-004, -1.96786787e-004, -2.08053738e-004,
          -1.98616544e-004, -2.81245477e-004, -4.45264071e-004,
          -2.19310357e-004, -7.10253880e-005, 4.28453604e-005,
          1.19272418e-005, 3.78832017e-004, 2.94285943e-004,
          -1.58645256e-004, -2.47694639e-004, -2.49804260e-004,
          -1.61914199e-004, -1.53137749e-004, -2.22477742e-004,
          1.93243090e-004, 5.53140650e-004, 5.75632963e-004,
          5.31668542e-004, 1.19871765e-004, -2.43041268e-005,
          -1.91284518e-004, -2.49956356e-004, -1.93883287e-004,
          1.56417009e-004, 3.96776653e-004, 2.77610437e-004,
          6.54130126e-004, 6.04984583e-004, 5.80583524e-004,
          5.72642719e-004, 2.51111429e-004, 2.61070003e-004,
          1.41992859e-004, 5.13329032e-005, -3.95941206e-005,
          4.41009935e-004, 5.69157652e-004, -4.43069766e-005,
          2.14158208e-004, 2.91086762e-004, 2.87206669e-004,
          3.22833628e-004, 4.53223940e-004, 2.35157888e-004,
          1.71818363e-004, 1.54963345e-004, 1.64445417e-004,
          3.42030427e-004, 2.33693034e-004, -1.98121270e-004,
          3.06640315e-004, 3.66360793e-004, 7.35698122e-005,
          7.68949394e-005, 3.17579194e-004, 1.41735640e-004,
          -2.42040460e-005, 3.07408889e-004, 4.35603957e-004,
          -6.21992076e-005, -3.54387994e-005, -2.34035877e-004,
          6.16627440e-005, 8.61243971e-005, 1.10877343e-004,
          -7.04764097e-005, -9.07039066e-005, 3.49006004e-004,
          -7.10673485e-005, 1.26992731e-004, 5.95055644e-005,
          -2.05076693e-004, -1.62200013e-004, -3.02782370e-004,
          1.62079508e-004, 1.52068707e-004, 4.30182081e-005,
          -2.01589573e-004, -2.39179572e-004, -1.94123168e-005,
          -2.88280426e-004, -2.32625040e-004, -6.56738630e-005,
          -8.81369051e-005, -4.32664892e-005, -2.83847068e-004,
          -8.83189496e-005, -7.29251260e-005, 8.09303674e-005,
          -5.47716409e-005, 8.85326735e-005, -1.26133775e-004,
          -1.23444945e-004, -3.39750441e-005, -2.13759267e-005 ]
      - [ -1.62630326e-019, -5.55746119e-005, -1.33876136e-004,
          -8.35919200e-005, -1.99445276e-005, -1.34384420e-004,
          2.20865651e-004, 7.47144455e-004, 5.60149841e-004,
          -2.71160861e-005, 1.46191214e-005, 2.45992651e-005,
          -4.08695458e-004, -2.07286532e-004, 2.39508066e-004,
          3.23453714e-004, 3.57508543e-004, 4.66500089e-004,
          7.00830948e-004, 1.20726135e-003, 7.00710574e-004,
          -6.01729553e-004, -5.23713126e-004, -5.95020945e-004,
          3.58571939e-004, 9.02868123e-005, 1.07896172e-004,
          2.93620426e-004, 2.25844691e-004, -1.51443281e-004,
          2.35592470e-005, 3.20016057e-004, 3.51324677e-004,
          2.96073940e-005, 2.31152626e-005, -1.27227220e-004,
          8.29625351e-005, -2.54992017e-004, -3.22779961e-004,
          -3.14272416e-004, -3.65521060e-004, -4.36499045e-004,
          -3.11181320e-005, 4.62128664e-004, 1.31013250e-004,
          -1.93637272e-004, 3.97056341e-004, -6.19803614e-005,
          8.29625351e-005, -2.59223278e-004, -3.35473742e-004,
          -3.03484005e-004, -2.45966978e-004, -2.09676335e-004,
          2.85975730e-005, 7.58614799e-004, 2.24567848e-004,
          -2.84853973e-004, 2.48404162e-004, 4.50001884e-004,
          2.62752437e-004, -1.60108335e-004, -2.82458786e-004,
          -7.56623631e-005, -1.62630326e-019, 5.05191201e-006,
          3.97151103e-004, 8.25341442e-004, 6.53817842e-004,
          1.86941325e-004, 2.16045722e-004, 4.89923405e-004,
          2.62752437e-004, -1.60108335e-004, -2.79284344e-004,
          -3.06892216e-005, -3.02618955e-005, 2.36122782e-004,
          6.42076135e-004, 8.06151656e-004, 2.02514930e-004,
          -4.24095604e-004, 1.68770901e-004, -4.22737976e-005,
          1.78642644e-004, -1.97160218e-004, 1.00962861e-004,
          7.25413265e-004, 6.23688451e-004, 9.25446162e-004,
          6.23843051e-004, 3.80149635e-004, -8.32317019e-005,
          -4.68469399e-004, -2.27737502e-004, -2.23843323e-004,
          8.05359814e-005, 3.76367156e-004, 6.47645851e-004,
          1.12521963e-003, 7.79793772e-004, 4.77856316e-004,
          2.62843969e-004, -2.18780144e-004, -5.21610549e-004,
          -4.78424132e-004, -4.56372887e-004, -3.17633501e-004,
          4.01108467e-004, 3.02923843e-004, 2.92645236e-005,
          3.39662278e-004, 2.19324589e-004, -1.26221392e-004,
          -3.60472506e-004, -4.41184908e-004, -2.56876578e-004,
          -7.03366459e-005, -6.60028718e-006, -1.62630326e-019 ]
      - [ -5.42101086e-019, 3.19493811e-005, 5.73832222e-006,
          -3.01256805e-005, -6.58953868e-005, -7.97544562e-005,
          2.48081924e-004, 3.85442399e-004, 1.92209205e-004,
          -1.49451280e-005, 1.67194419e-004, 7.09398737e-005,
          1.29213440e-004, 4.67805330e-005, 6.07367328e-005,
          9.61800761e-005, 2.00706490e-004, 2.44147202e-004,
          5.44818933e-004, 6.59647398e-004, 2.63698166e-004,
          -3.16659687e-004, -1.65260572e-004, -2.51923600e-004,
          2.58100335e-004, -4.40664408e-005, -1.61077580e-004,
          -4.78948350e-005, -9.70233814e-005, -2.68084143e-004,
          -2.95068385e-005, 3.61158782e-005, 5.14855128e-005,
          2.18796369e-004, -2.45584924e-005, -9.90653643e-005,
          1.62769968e-004, -1.78720409e-004, -2.49325589e-004,
          -9.53303752e-005, -1.13663140e-004, -1.19774064e-004,
          1.88238482e-004, 3.96751566e-004, 3.42534709e-004,
          1.61011252e-004, 3.37230565e-004, -2.54155220e-005,
          1.62769968e-004, -1.28915504e-004, -1.06702457e-004,
          9.25699496e-005, 1.53694156e-004, 2.35193089e-004,
          5.12331375e-004, 5.39461500e-004, 2.89788470e-004,
          3.55929747e-004, 2.91953387e-004, 1.40494725e-004,
          2.58100335e-004, 1.25121893e-004, 2.45139672e-004,
          4.12022404e-004, 2.03747346e-004, 7.47073573e-005,
          4.26553015e-004, 7.27909093e-004, 4.42349381e-004,
          3.06532282e-004, 1.53836256e-004, 2.49108387e-004,
          1.99326067e-004, 6.63476167e-005, 1.32712157e-004,
          3.68915818e-004, 3.06585076e-004, 1.89114289e-004,
          3.30557086e-004, 1.01327096e-004, -1.88901413e-005,
          4.94854234e-004, 3.58685124e-004, 2.47360469e-004,
          2.27558048e-004, 4.68192557e-005, 1.04192113e-005,
          1.42944162e-004, 5.27415687e-005, 5.28471573e-005,
          1.45412443e-004, 3.18068138e-004, 1.82675532e-004,
          -2.46743119e-004, -5.36797743e-005, 2.99983105e-004,
          2.21115522e-004, 2.45365984e-004, 4.90286155e-004,
          6.24387409e-004, 5.51120727e-004, 3.89443012e-004,
          2.08970014e-004, -1.66961923e-004, -3.28906899e-004,
          -3.61155253e-004, -1.81658790e-004, 2.29451558e-004,
          5.54919941e-004, 3.05736641e-004, 4.83620970e-005,
          2.17743509e-004, 1.21761987e-004, -5.27223456e-005,
          -2.40385314e-004, -3.14167701e-004, -2.02716110e-004,
          -7.84798685e-005, 1.68292085e-004, 1.09349938e-004 ]
      - [ 0., -1.79070889e-006, 5.99984305e-005, 1.69509978e-004,
          4.35765600e-004, 2.49531906e-004, 2.15528897e-004,
          4.66214842e-004, 8.90190713e-005, -5.85471105e-004,
          -3.34237557e-004, -3.03561450e-004, -2.09598424e-004,
          3.96947689e-005, 1.16126001e-004, 5.11508028e-004,
          -5.80184460e-005, -3.06790258e-004, -2.50035460e-004,
          -1.69490755e-004, 4.29667038e-004, -5.45881267e-005,
          -2.00806433e-004, -5.23314928e-004, 1.11149158e-004,
          3.04242800e-004, 3.78597673e-004, 3.53093114e-004,
          -2.33527244e-004, -3.72858747e-004, -3.73281277e-004,
          -2.98906612e-004, 2.34659183e-005, 3.12482181e-004,
          2.05036398e-004, -8.50263234e-007, 3.59214580e-004,
          3.06065980e-004, 3.95175855e-004, 2.79659638e-004,
          -1.21240286e-004, -1.48948660e-004, -1.15808274e-004,
          -3.44897962e-005, 6.04383022e-005, 2.75330938e-004,
          4.22610814e-004, 2.94295081e-004, 4.04857186e-004,
          3.67982982e-004, 3.50255403e-004, 2.24247648e-004,
          -3.45840526e-005, -3.45840526e-005, -3.45840526e-005,
          -3.45840526e-005, -2.08547590e-005, 1.93419735e-004,
          4.68253420e-004, 3.39937687e-004, 4.87200916e-004,
          4.14825801e-004, 3.76216514e-004, 3.41088133e-004,
          8.03842777e-005, 4.77596986e-005, 4.77596986e-005,
          5.85224479e-005, 9.94949442e-005, 3.13769444e-004,
          5.50597149e-004, 4.22281446e-004, 3.28098686e-004,
          3.37637990e-004, 4.55322093e-004, 4.21067758e-004,
          -1.15754607e-004, -2.60349334e-004, -2.96571438e-004,
          -2.62963382e-004, 4.51469532e-005, 5.10247191e-004,
          4.14781127e-004, 2.63179187e-004, -5.90679811e-005,
          2.57443782e-004, 1.49983127e-004, 2.35397762e-004,
          -4.08445892e-004, -4.43169265e-004, -2.82700057e-004,
          -1.26042680e-004, 3.59488855e-004, 5.24752657e-004,
          3.04326619e-004, -1.05677376e-004, -3.72466107e-004,
          -3.42339481e-004, -3.64971871e-004, 4.98373760e-004,
          3.22750508e-004, -3.42248713e-005, -2.45513715e-004,
          -1.06770727e-004, 3.01208347e-004, 4.09750472e-004,
          -9.51258698e-005, -1.03521408e-004, 3.99215787e-005,
          -9.18887017e-005, 4.12043992e-005, 3.67000059e-004,
          1.91142361e-004, 8.34343809e-005, 4.54007823e-005,
          8.95144913e-005, 3.15112033e-004, 5.28956472e-004,
          2.98114639e-004, 3.79808247e-004 ]
      - [ 2.43945489e-019, 3.61448588e-006, 7.47128652e-005,
          1.46034989e-004, 1.57152870e-004, -6.85793157e-006,
          -1.42941251e-004, -1.75828172e-004, -1.50762091e-004,
          -2.23186013e-004, -4.81699644e-005, -8.16993779e-005,
          -6.23011219e-005, -8.83777830e-005, -1.26554150e-004,
          -2.27868557e-004, -1.99683360e-004, 3.41917294e-005,
          2.49813282e-004, 2.57029984e-004, 8.00986600e-005,
          -2.49043689e-004, -9.26825960e-005, -1.33885813e-004,
          -1.05913015e-004, -1.25834762e-004, -2.10805010e-004,
          -1.21253484e-004, 3.68594847e-005, 7.86046803e-005,
          1.80016796e-004, 1.75784953e-004, 1.77563605e-004,
          1.66655358e-004, 9.24350898e-005, -3.94829585e-005,
          -4.86259669e-005, -3.03913876e-005, -7.81634953e-005,
          1.57662173e-004, 2.25518525e-004, 2.33947285e-004,
          2.18130226e-004, 2.73279118e-004, 2.79227650e-004,
          1.39342665e-004, 1.08686480e-004, 1.76739977e-005,
          -9.40330392e-006, 2.36642169e-004, 1.82296935e-004,
          3.28183727e-004, 3.67551576e-004, 3.87023261e-004,
          3.35043209e-004, 1.86954072e-004, 8.56555707e-005,
          -7.87406389e-005, -4.84674347e-005, -6.66533670e-005,
          -2.95484970e-005, 1.50334072e-005, 1.37175757e-005,
          3.37865145e-004, 4.18357231e-004, 3.88113986e-004,
          1.91703381e-004, 7.14299313e-005, 5.44858085e-005,
          -5.78644867e-005, -4.06028630e-005, -5.38303757e-005,
          6.48726345e-005, 1.44129925e-004, 3.81395475e-005,
          2.05480945e-004, 2.60375411e-004, 3.05838621e-004,
          3.08731571e-004, 1.45514437e-004, 5.22116607e-005,
          -4.45172227e-005, -5.82345911e-006, -3.59514088e-005,
          3.25496076e-004, 3.24872963e-004, 1.49452273e-004,
          2.17649038e-004, 2.20857837e-004, 1.65688660e-004,
          1.98113368e-004, 2.30230711e-004, 2.42506692e-004,
          1.20944664e-004, 8.62411616e-005, 4.33180105e-008,
          4.03158119e-005, 2.05826727e-004, 1.15334617e-004,
          2.19954760e-004, 4.68409453e-005, -4.63624456e-005,
          -1.06378357e-004, -1.29114211e-004, -1.20418597e-004,
          -7.53126296e-005, 5.28153259e-006, 9.24910819e-006,
          -5.65033806e-005, 1.17713962e-005, -9.29093658e-005,
          1.94538407e-005, 4.17365773e-005, 1.71829597e-005,
          -7.17924850e-005, -9.69122557e-005, -6.25474495e-005,
          -1.91975869e-005, -1.26659711e-006, 2.43945489e-019 ]
      - [ 1.21440789e-004, 4.08815424e-004, 4.98206296e-004,
          3.65031330e-004, 3.24164175e-005, -2.57648906e-004,
          -1.90518578e-004, -2.09838807e-004, -1.96019435e-004,
          -2.48774188e-004, -1.04304934e-004, -4.62097778e-005,
          4.35307331e-004, 3.56019766e-004, 3.41414328e-004,
          3.22563254e-004, 3.63326020e-004, 1.09287124e-004,
          -8.44552342e-005, -1.74897315e-004, -2.00133160e-004,
          -1.42762030e-004, 2.62113841e-004, -3.67727662e-005,
          2.77868221e-005, 1.91591156e-004, 2.83225556e-004,
          3.80617450e-004, 3.38847720e-004, -8.76786144e-005,
          -9.51105758e-005, 6.74179973e-005, 2.37575514e-004,
          2.82677298e-004, 3.07181559e-004, -5.61852939e-005,
          -2.60065804e-004, -1.01498903e-004, -1.07043024e-005,
          1.48310355e-004, 1.11349524e-004, -9.02778993e-006,
          -7.47317536e-005, 7.80767659e-005, 5.75168000e-004,
          2.17707930e-004, 4.82715986e-005, -3.99455603e-005,
          -2.85959861e-004, -2.32086953e-004, -2.25121665e-004,
          -1.01810911e-004, -7.32990520e-005, -5.50084260e-005,
          7.48549428e-005, 4.14540002e-004, 5.42902679e-004,
          6.74547337e-005, -4.48780629e-005, -3.99455603e-005,
          -2.46014301e-004, -2.10065686e-004, -2.13342850e-004,
          -3.76571661e-005, -1.08420217e-019, -1.08420217e-019,
          4.20977245e-004, 4.69757360e-004, 2.16156681e-004,
          -6.66643682e-005, -4.93250309e-006, -1.08420217e-019,
          -2.46014301e-004, -2.10065686e-004, -2.13342850e-004,
          -4.06595609e-005, 1.12694970e-005, 2.59812165e-004,
          2.77973682e-004, 2.47919670e-004, 1.55581700e-004,
          -1.21401688e-004, -4.93250309e-006, -1.08420217e-019,
          -2.53949198e-004, -2.20359609e-004, -2.34849897e-004,
          -9.87936801e-005, 1.86204721e-004, 2.91207398e-004,
          1.85324738e-004, 1.09265886e-004, -6.32012598e-005,
          -1.21401688e-004, -1.43685966e-005, -7.93489653e-006,
          -3.12431599e-004, -2.80772132e-004, -3.31093441e-004,
          1.54721303e-004, 1.22586920e-004, 5.91944554e-005,
          1.64065044e-004, 6.22536318e-005, -1.19078271e-004,
          -1.06175263e-004, -6.85618652e-005, -6.64172985e-005,
          -2.46014301e-004, -2.11995794e-004, -2.91400356e-004,
          1.77537004e-004, -6.61215454e-005, 3.69516856e-005,
          3.48730136e-005, -9.69278408e-005, -5.18547095e-005,
          -3.98299926e-006, -1.08420217e-019, -1.08420217e-019 ]
      - [ -6.16200350e-006, -3.31800184e-005, -3.85416715e-005,
          2.60240431e-005, 1.09820787e-004, 3.73916060e-004,
          3.02826724e-004, 3.78001496e-005, -3.41814157e-004,
          -3.21784260e-004, 3.14222969e-004, 2.85585556e-004,
          -3.28008813e-004, -4.43043216e-004, -6.41355349e-004,
          -3.26406152e-004, 4.67022983e-005, 4.27789259e-004,
          5.03510004e-004, 4.05961298e-004, 1.13453469e-004,
          1.41639088e-004, 4.74104658e-004, -2.40810579e-004,
          -3.12578399e-004, -2.67672556e-004, -2.58400221e-004,
          -1.81130672e-005, -2.11064675e-004, -4.99706599e-004,
          -5.50212630e-004, -5.12819155e-004, -6.07376933e-005,
          2.73609301e-004, 6.23295346e-005, -1.02864244e-004,
          -2.35373518e-004, 2.90596538e-004, 2.72253761e-004,
          4.38130170e-004, 1.94354798e-004, -1.59792253e-004,
          7.01115787e-005, 3.04076879e-004, 2.51209014e-004,
          2.23858733e-004, -1.27410545e-004, -9.44210624e-005,
          1.18892574e-004, 2.34890074e-004, 2.34609004e-004,
          5.46450668e-004, 2.32969556e-004, 4.78724687e-004,
          6.11811352e-004, 4.27256397e-004, 4.04034537e-004,
          -1.03015918e-004, -1.80395597e-004, -1.17239360e-004,
          -2.07570309e-004, -1.49919535e-004, -2.30676582e-004,
          2.31235492e-004, 5.99511783e-004, 6.28310663e-004,
          1.37732728e-004, 4.09405911e-004, 2.49953096e-004,
          -1.12727903e-004, -6.51310329e-005, -1.97480267e-006,
          -2.07570309e-004, -2.59812718e-004, -9.04973203e-005,
          5.25035372e-004, 3.29799572e-004, 1.51778213e-005,
          1.78121743e-004, 3.89781228e-004, 5.01530849e-006,
          -1.12727903e-004, -6.51310329e-005, -1.97480267e-006,
          -2.09614940e-004, -1.56146081e-004, 5.69332333e-005,
          1.79732888e-004, -6.35644537e-005, -2.46617092e-005,
          3.02258675e-004, -2.41128982e-005, -6.34050084e-005,
          -1.53528308e-004, -8.00603520e-005, -1.59364736e-005,
          -1.34488510e-004, 1.04650906e-004, -4.17774398e-004,
          -1.68837534e-004, -1.16669820e-004, 2.76924315e-004,
          1.36333751e-004, -8.40021894e-005, -1.02890568e-004,
          -1.67449165e-004, -1.40103075e-004, -1.27188134e-004,
          2.81594403e-004, -2.09252030e-004, -5.50109544e-004,
          -1.46870152e-004, -1.14373535e-004, 1.62218901e-004,
          -1.18471304e-004, -1.55299174e-004, -1.24172424e-004,
          -6.25012908e-005, -1.93401029e-005, -3.40425186e-006 ]
      - [ 6.21140294e-004, 2.77300191e-004, -9.47657172e-005,
          -2.21953305e-004, -2.46237963e-004, -2.28592224e-004,
          -1.03702892e-004, -7.73694119e-005, -7.73694119e-005,
          -2.67367170e-004, -2.57959677e-004, -2.89873133e-004,
          3.48380388e-004, 6.40242433e-005, -6.66843771e-005,
          -5.95759338e-005, -4.02677724e-005, -5.46338633e-005,
          -6.63883329e-005, -1.04261708e-004, -1.38350049e-004,
          -3.99263634e-004, -2.89615709e-004, -1.96253357e-004,
          2.15850174e-004, 1.16712865e-004, -3.36835583e-005,
          -1.23899736e-004, -1.25559454e-004, -1.08247470e-004,
          -1.91589803e-004, -2.19001216e-004, -1.25278573e-004,
          -2.56309024e-004, -7.59342147e-005, -5.84552981e-005,
          2.17251232e-004, 1.19468270e-004, 4.88849264e-006,
          -2.85024380e-005, -2.17163142e-005, -1.44775431e-005,
          -8.17280670e-006, -3.50263144e-006, 4.06575815e-020,
          -2.03679738e-004, -5.74975384e-005, -5.65872288e-005,
          2.17951761e-004, 1.50409425e-004, 7.32489643e-005,
          4.46337435e-005, 6.66715714e-005, 6.66715714e-005,
          6.66715714e-005, 5.80724081e-005, 3.67792454e-005,
          -1.89643455e-004, -5.74975384e-005, -5.65872288e-005,
          2.26141434e-004, 2.36799096e-004, 2.04184427e-004,
          1.94948065e-004, 2.71926227e-004, 2.68537871e-004,
          3.51154129e-004, 4.92464984e-004, 5.17543638e-004,
          2.29211408e-004, 2.49601639e-004, 1.34654147e-005,
          1.41511555e-004, 9.40220780e-005, 3.53144169e-005,
          -7.27758743e-005, -9.12261821e-005, -9.48370871e-005,
          -9.74141876e-005, 8.06450626e-005, 5.40243986e-004,
          4.12990630e-004, 5.10585669e-004, 4.00366000e-004,
          2.12625906e-004, 1.01651596e-004, -2.47334356e-005,
          -7.71592386e-005, -4.44466605e-005, -1.09215953e-005,
          -3.06323705e-006, 3.74972646e-004, 5.62314293e-004,
          3.89981724e-004, 3.27301241e-004, 8.06986645e-005,
          7.17827934e-005, 3.56335158e-006, -5.87756367e-005,
          -4.75875677e-005, 1.19698547e-004, 2.40730573e-004,
          2.06084180e-004, 1.88174134e-004, -1.70268904e-005,
          -2.38861641e-004, -1.40208998e-004, -9.30835085e-005,
          1.40597491e-004, 1.63694349e-004, 1.47751023e-004,
          -8.31577108e-006, -1.37541705e-004, -1.54326728e-004,
          -2.29778831e-004, -2.18440342e-004, -1.57643444e-004,
          -6.26689289e-005, -1.33146420e-006, 4.06575815e-020 ]
      - [ 4.11633606e-004, 3.11348762e-004, 8.91060336e-005,
          -5.00063579e-005, -1.99670845e-004, -2.13605454e-004,
          -1.18655764e-004, -6.03743865e-005, -5.68296273e-005,
          -1.03744489e-004, -1.15728639e-004, -2.48086493e-004,
          2.87845818e-004, 1.77685681e-004, -2.39652527e-005,
          -7.89185360e-005, -1.38642819e-004, -1.26620551e-004,
          -8.90710580e-005, -7.20248281e-005, -9.62505874e-005,
          -2.09816266e-004, -2.08588099e-004, -2.40749680e-004,
          2.22017246e-004, 1.71957494e-004, 3.60000304e-005,
          -3.34424908e-006, -3.79210323e-005, -5.27312586e-005,
          -4.96741195e-005, -1.34252687e-005, -1.47813953e-005,
          -8.15884196e-005, -2.10001290e-005, -3.25142064e-005,
          1.90728082e-004, 2.39105124e-004, 2.36044056e-004,
          2.67741445e-004, 2.37353408e-004, 2.35959917e-004,
          2.30419115e-004, 2.60255474e-004, 2.92473647e-004,
          1.25395905e-004, 1.33170266e-004, 5.64410839e-005,
          1.90728082e-004, 2.66658433e-004, 2.27809316e-004,
          1.91766550e-004, 1.12199901e-004, 8.02193026e-005,
          6.48556161e-005, 1.47726314e-004, 2.12291052e-004,
          5.10061291e-005, 1.39100928e-004, 1.18188669e-004,
          2.03759875e-004, 2.08956350e-004, 8.34137172e-005,
          7.16960785e-005, 2.32965958e-005, 4.22250778e-005,
          7.09016167e-005, 1.33634632e-004, 2.32336373e-004,
          1.19854834e-004, 1.90464823e-004, 1.31220469e-004,
          1.85121055e-004, 2.51613063e-004, 2.72965583e-004,
          2.81512301e-004, 2.44642928e-004, 2.48759810e-004,
          2.45635310e-004, 2.60585599e-004, 2.80505570e-004,
          1.52850218e-004, 1.71253021e-004, 1.12581649e-004,
          1.14824783e-004, 1.11737791e-004, 9.09447554e-005,
          7.59754548e-005, 4.11775181e-005, 2.58332038e-005,
          2.90004336e-005, 1.30622982e-004, 1.84159959e-004,
          1.02964892e-004, 2.13546111e-004, 2.03148476e-004,
          -2.32576480e-004, -1.89477432e-004, -1.11515736e-004,
          -8.89564253e-005, -6.45721084e-005, -6.09298077e-005,
          -7.99310656e-005, -3.20654435e-005, 4.93484004e-005,
          -1.81848809e-005, 1.10611494e-004, 3.03559529e-004,
          -2.39796544e-004, -2.15518477e-004, -1.58466879e-004,
          -1.13704315e-004, -1.22505386e-004, -1.35044917e-004,
          -1.55906717e-004, -6.50674847e-005, 5.67875031e-005,
          5.81780623e-005, 2.01961520e-004, 3.00947286e-004 ]
      - [ 1.35525272e-019, 1.35525272e-019, 1.49708678e-004,
          -1.01235628e-005, -1.39627431e-004, -2.00326002e-004,
          -2.01031668e-004, -5.28189448e-005, 2.57334177e-004,
          -1.51184766e-004, -8.98063881e-005, -1.31081921e-004,
          -7.04733538e-005, -8.12496946e-005, 1.45804297e-004,
          -1.10076377e-004, -2.30279285e-004, -2.26203541e-004,
          -1.75657275e-004, 9.52531900e-006, 2.57278036e-004,
          -1.98631038e-004, -1.65877063e-004, -1.99803573e-004,
          -8.23181836e-005, -9.36667129e-005, 9.87698513e-005,
          1.53727553e-004, -1.62932629e-005, -1.53007742e-004,
          -1.30007160e-004, -1.23200689e-005, 2.62006593e-004,
          5.91898461e-005, 2.93825051e-005, 2.52035643e-005,
          2.45397561e-004, 2.63047114e-004, 1.72386208e-004,
          4.26228304e-004, 3.44602944e-004, 2.34200837e-004,
          2.18195710e-004, 3.01130058e-004, 4.22165991e-004,
          2.68743373e-004, 2.65177281e-004, 2.41832488e-004,
          2.60460627e-004, 2.28700184e-004, 2.68204283e-004,
          2.17093650e-004, 1.57857416e-004, 1.49954460e-004,
          1.34938964e-004, 2.62279675e-004, 4.28637519e-004,
          2.07348567e-005, -3.39066864e-005, -8.20111163e-005,
          4.05263818e-005, 3.53370269e-005, 1.42584831e-004,
          2.45790085e-004, 7.19577147e-005, 1.35525272e-019,
          1.18192966e-005, 1.44786376e-004, 4.35859314e-004,
          8.97246864e-005, 2.54539809e-005, 1.27343546e-005,
          1.73947468e-004, 1.68758110e-004, 1.27320818e-004,
          3.93320865e-004, 3.17566359e-004, 2.53872131e-004,
          3.02767818e-004, 3.14556091e-004, 3.94200382e-004,
          3.08412069e-004, 3.23713321e-004, 3.27975024e-004,
          3.41095845e-004, 2.71854049e-004, 1.22491838e-004,
          9.89929758e-005, 8.16541724e-005, 8.82601817e-005,
          8.96526035e-005, 2.47312739e-004, 3.83016362e-004,
          1.37474899e-005, -3.92916663e-005, -7.22074255e-005,
          -3.24196881e-005, -2.99361636e-005, 3.15274920e-005,
          1.05592189e-004, 5.12838551e-006, -7.86572127e-005,
          -1.25881212e-004, -8.11151403e-005, 1.91297338e-004,
          -4.11479596e-005, -1.25916427e-004, -5.38437089e-005,
          -1.50906417e-004, -1.88753140e-004, -7.29096719e-005,
          5.92242177e-005, -1.43666417e-004, -2.41551708e-004,
          -2.41446789e-004, -1.53798886e-004, 1.94499444e-005,
          -5.07072655e-005, -7.19739401e-005, -5.43281640e-005 ]
      - [ 1.08420217e-019, -2.69420161e-006, -5.35544496e-005,
          -1.20044395e-004, -9.89771142e-005, 1.62793658e-004,
          2.80379318e-004, 1.36226212e-004, -3.80608508e-005,
          -3.60821112e-004, -1.46135761e-004, -1.64567638e-004,
          -1.24813087e-004, -2.12104511e-004, -2.75171245e-004,
          -2.89464311e-004, 3.18338025e-005, 4.12050067e-005,
          -2.34651685e-004, -8.30547560e-006, 3.89055873e-004,
          -4.12720779e-004, -2.47319898e-004, -2.71026598e-004,
          -2.24231888e-004, -2.52314901e-004, -3.67814268e-004,
          -1.18205513e-004, 1.63521385e-004, 1.04423780e-005,
          -4.48735518e-005, 2.73998798e-004, 9.65383515e-005,
          -3.91549052e-004, -2.51589605e-004, -2.27749901e-004,
          -1.41469791e-004, -1.00074983e-004, -1.68261642e-004,
          1.89868762e-004, 4.68228885e-004, 4.25238803e-004,
          3.20422085e-004, -5.62255627e-005, -9.26665452e-005,
          -2.09133024e-004, -1.14536830e-004, -1.16545249e-004,
          7.06962528e-005, 3.76922399e-004, 3.08714691e-004,
          5.25535550e-004, 4.49309766e-004, 4.80839779e-004,
          4.72471234e-004, 2.13515712e-004, 2.23596129e-004,
          2.92399218e-005, 7.89193800e-005, -5.90691270e-005,
          5.11524442e-004, 6.96073228e-004, 1.48515880e-006,
          2.92317389e-004, 3.53300275e-004, 4.62855387e-004,
          4.75139561e-004, 5.90451062e-004, 3.93030175e-004,
          2.35170184e-004, 3.44525091e-004, 3.19344748e-004,
          2.73327896e-004, 2.14340704e-004, -1.92088555e-004,
          2.59119377e-004, 3.40819824e-004, 1.43019890e-004,
          1.64606769e-004, 2.70985009e-004, 1.58528535e-004,
          -4.37422423e-005, 3.14533128e-004, 4.01965255e-004,
          -1.01336860e-004, -2.92476998e-005, -2.41762769e-004,
          4.49654253e-005, 3.96490796e-005, 4.19296994e-005,
          -7.02383841e-005, -6.33516756e-005, 2.81703426e-004,
          -8.58482672e-005, 1.78930379e-004, 4.65628982e-005,
          -2.57815962e-004, -1.56067457e-004, -2.81200133e-004,
          6.19377970e-005, 1.90820792e-004, 1.86722871e-004,
          3.91916865e-006, 2.01901039e-005, 7.51479674e-005,
          -2.64448288e-004, -2.04750890e-004, -8.46975599e-005,
          -1.64189783e-004, -5.31781625e-005, -3.02791217e-004,
          -7.85040720e-006, 7.43690616e-005, 2.01440533e-004,
          1.36685048e-006, 9.06308487e-005, -1.51946311e-004,
          -6.82871687e-005, -2.10774192e-006, 1.08420217e-019 ]
      - [ -2.87868693e-006, 3.33305070e-005, 2.32878101e-005,
          -1.24042372e-005, -5.40988403e-005, -5.27368793e-005,
          1.75020687e-004, -7.16346858e-006, -3.46048328e-005,
          3.95383177e-005, 1.83437776e-004, 2.68716482e-004,
          1.63604680e-004, 5.87235481e-005, 8.56968200e-006,
          -7.02357011e-006, -7.02357011e-006, -7.02357011e-006,
          3.14309291e-004, 1.27214196e-004, 1.69798077e-004,
          -6.04420820e-005, -1.78960385e-004, -2.62301182e-004,
          1.25519073e-004, -1.27361753e-004, -4.72554850e-004,
          -4.57312650e-004, -4.74529574e-004, -4.91123239e-004,
          -2.45423376e-004, -5.41742600e-004, -6.83217135e-004,
          3.89009918e-004, -1.07157895e-004, -7.01630415e-006,
          9.22534746e-005, -5.64031652e-005, -1.39730299e-004,
          -6.41845108e-005, -9.25097120e-005, -6.86819694e-005,
          2.03601667e-004, 5.11462335e-004, 2.18053276e-004,
          5.38768427e-006, 1.23641483e-004, -1.08380591e-005,
          7.56206719e-005, 1.44180331e-005, 1.08863147e-004,
          2.60347530e-004, 3.71603761e-004, 5.09549922e-004,
          8.08468438e-004, 8.48778407e-004, 4.75103938e-004,
          8.47958319e-004, 9.02616666e-005, -3.09637137e-004,
          1.25519073e-004, 4.02231381e-004, 6.56816002e-004,
          6.84400147e-004, 3.44865432e-004, 1.20108612e-004,
          4.83944605e-004, 1.02153490e-003, 5.11211168e-004,
          4.56734502e-004, 1.01912819e-005, -3.08623421e-004,
          1.25519073e-004, 3.83328967e-004, 3.42993066e-004,
          4.45337762e-004, 3.76732147e-004, 5.62443638e-005,
          -1.19438721e-006, -5.65076247e-004, -2.46851443e-004,
          1.53283123e-003, 4.42970399e-004, 5.93447068e-004,
          7.34832865e-005, -1.22226003e-004, -7.27332954e-004,
          -8.64529342e-004, -1.01873442e-003, -9.67963482e-004,
          -5.46255440e-004, 4.44160287e-005, 2.01825897e-004,
          -1.76578396e-005, -1.49612693e-004, 9.50290705e-004,
          3.75349214e-006, 1.72363852e-005, 1.29181164e-004,
          1.55496557e-004, 9.09300143e-005, 3.63708496e-005,
          2.47656517e-005, 2.99089497e-005, -1.15631839e-004,
          -6.18941413e-005, -2.62259600e-005, 1.30773021e-003,
          3.05970665e-004, 1.22347497e-004, -1.95730318e-004,
          -6.24187160e-005, -7.71754130e-005, 7.62326308e-005,
          1.73506065e-004, -1.08095137e-005, 6.50521303e-019,
          6.50521303e-019, 5.90696989e-004, 3.46064917e-004 ]
      - [ -8.68871496e-007, -2.33822066e-005, -8.00436464e-006,
          2.12905124e-005, 1.89437065e-004, 1.14195645e-004,
          6.06773174e-005, -1.31127221e-004, -1.85651035e-004,
          -2.39104687e-004, -1.92189313e-004, -1.44416976e-004,
          -2.23360112e-004, -1.02031059e-004, 2.69477769e-005,
          1.39816373e-004, -1.48986423e-004, -2.73418700e-004,
          -2.20585105e-004, -3.96485324e-004, -1.38847448e-004,
          4.70626183e-005, -9.80545738e-005, -2.44649040e-004,
          -1.13362432e-004, 7.74598011e-005, 1.47119528e-004,
          1.29606397e-005, -2.33679195e-004, -3.82678321e-004,
          -2.44947063e-004, -3.76557291e-004, -1.67147853e-004,
          9.22689069e-005, 1.37980722e-004, 1.24550032e-004,
          1.21264282e-004, 2.54042738e-004, 3.21428233e-004,
          2.89366813e-004, 1.06347507e-004, 7.72597832e-006,
          9.87642707e-005, -1.80601448e-004, 7.16086579e-005,
          2.82864465e-004, 1.27163599e-004, 1.70527244e-004,
          2.63938709e-004, 3.28356662e-004, 2.85629008e-004,
          2.74912716e-004, 1.72827073e-004, 1.66610829e-004,
          1.57250746e-004, -1.21934761e-004, 6.87599968e-005,
          1.78072398e-004, 2.87905394e-004, 1.26336294e-004,
          2.38801556e-004, 3.54581105e-004, 2.85629008e-004,
          3.11851531e-004, 1.91682659e-004, 1.54053632e-004,
          6.62712337e-005, -1.85496290e-004, -7.45913712e-005,
          1.72468906e-004, 4.21128527e-004, 1.58288516e-004,
          6.45742912e-005, 2.89122720e-004, 3.31926160e-004,
          2.81521410e-004, 7.19925592e-005, -1.37303519e-004,
          -2.91215169e-004, -3.67696892e-004, 2.56316562e-005,
          4.45339683e-004, 2.59805878e-004, 2.10465238e-004,
          -1.84786724e-004, 8.49011994e-005, 1.79822164e-004,
          -1.41868486e-005, -2.82394263e-004, -4.09296917e-004,
          -3.86404252e-004, -2.43719784e-004, 2.95863691e-004,
          5.93323028e-004, 2.72004021e-004, 5.61023880e-005,
          -3.42734595e-004, -3.14001401e-004, -3.18862207e-004,
          -6.79839795e-005, -1.15696501e-004, -2.21148788e-004,
          -1.99301692e-004, 1.55226226e-005, 3.95063398e-004,
          3.83897655e-004, 8.01462666e-005, -2.71050543e-019,
          -3.58556099e-005, -9.22431209e-005, -1.34216694e-004,
          -7.56821682e-005, 4.32572551e-006, 1.39435739e-004,
          2.84898037e-004, 3.25149536e-004, 3.65489657e-004,
          3.77990189e-004, 1.97602494e-004, 1.97602494e-004 ]
      - [ 0., -1.50174264e-006, 5.38902023e-005, 8.65363909e-005,
          1.52900640e-004, 6.17066835e-005, -2.60374567e-004,
          -3.17382655e-004, -2.09093720e-004, -1.41160504e-004,
          -2.70491328e-005, -1.62094075e-005, -1.03841900e-004,
          -1.28090236e-004, -2.21970346e-004, -2.40690191e-004,
          -2.06479628e-004, 3.26590998e-006, 1.09663553e-004,
          -5.34628962e-005, -1.24255912e-005, -1.07324347e-004,
          -8.26589821e-005, -1.06895553e-004, -5.97031722e-005,
          -1.25212959e-004, -2.30006219e-004, -1.94979701e-004,
          -1.24881961e-004, 2.29341804e-005, 1.30787550e-004,
          3.43995525e-005, 1.16988595e-004, 3.11474636e-004,
          2.87645118e-004, 1.16620737e-004, -6.49474532e-005,
          -6.53986208e-005, -3.80344682e-005, 2.35194835e-004,
          3.38078418e-004, 4.41873271e-004, 2.73900398e-004,
          1.55098460e-004, 2.84125330e-004, 1.44506557e-004,
          5.68079122e-005, 3.34287433e-005, 4.90537932e-005,
          1.69484454e-004, 1.84520963e-004, 4.54302994e-004,
          4.54302994e-004, 4.53094573e-004, 2.57302687e-004,
          9.38696612e-005, 1.94114891e-005, -1.40813805e-004,
          -2.23799099e-004, -1.77102047e-004, -2.61468358e-005,
          -5.04310919e-005, 1.53021101e-005, 4.25184466e-004,
          4.71080450e-004, 4.86546342e-004, 1.45617567e-004,
          -4.09426939e-005, -2.86081176e-005, 8.88543809e-007,
          -6.99192387e-005, -2.07070552e-004, 3.00933625e-005,
          5.23636299e-005, 1.85570807e-005, 2.31127298e-004,
          2.26998629e-004, 2.50561541e-004, 1.40956021e-004,
          8.20640853e-005, 1.60738273e-004, 1.73335298e-004,
          7.02237230e-005, -1.35516617e-004, 3.87259090e-004,
          2.72276375e-004, 5.63094909e-005, 8.69239084e-005,
          4.27749874e-005, -1.87896276e-005, -3.60838385e-005,
          5.92022989e-005, 2.33795159e-004, 2.25965981e-004,
          6.55492768e-005, 1.17583486e-005, 1.29442633e-005,
          1.17104260e-004, 7.48915636e-006, -2.37294462e-005,
          -1.71015199e-004, -2.04764088e-004, -2.44432915e-004,
          -6.87041902e-005, 3.63764302e-005, 4.99139387e-005,
          1.15324974e-005, 1.14614659e-005, -1.83248776e-004,
          -1.63393983e-004, -1.46417937e-004, -7.81781637e-005,
          -1.39842188e-004, 1.35381724e-005, 8.61116569e-005,
          2.84825728e-005, 0., 0., 0., 0. ]
      - [ 1.14708826e-004, 3.41753912e-004, 4.40800941e-004,
          3.67636414e-004, 1.08802204e-004, -1.78640461e-004,
          -2.95792124e-004, -5.17273729e-004, -4.09955916e-004,
          -2.97428807e-004, -1.23501493e-004, -1.31681909e-005,
          3.80492740e-004, 3.07697745e-004, 2.26725446e-004,
          2.07364297e-004, 2.04247728e-004, 3.69961126e-005,
          -1.95154746e-004, -5.02334908e-004, -4.72561223e-004,
          -2.61487075e-005, 2.62802292e-004, 5.11699836e-005,
          2.50145513e-005, 1.80753646e-004, 2.25047072e-004,
          2.75085651e-004, 2.19535184e-004, 2.87657949e-005,
          3.44600630e-005, 8.54147220e-006, 1.87448342e-004,
          2.98805186e-004, 2.76792183e-004, -3.07932237e-006,
          -2.10787664e-004, -7.03385667e-005, 1.96954734e-005,
          1.89973100e-004, 1.81130323e-004, 1.31199966e-004,
          5.50651639e-005, -1.79321767e-004, 3.09413008e-004,
          2.62172864e-004, -9.96029339e-005, -1.63655510e-004,
          -2.39325454e-004, -1.91479616e-004, -1.66069556e-004,
          -4.04362290e-005, -3.73521652e-005, -3.73521652e-005,
          5.54019607e-005, 1.23855832e-004, 1.76567497e-004,
          8.47706324e-005, -5.99347113e-005, -2.55038030e-004,
          -2.01973293e-004, -1.65431411e-004, -1.60576295e-004,
          -4.18537229e-006, 3.19720783e-007, 1.07343594e-005,
          2.88734882e-004, 6.60165751e-005, -3.88037588e-005,
          -3.07498740e-005, -2.52010796e-005, -1.75594629e-004,
          -2.01973293e-004, -1.65431411e-004, -1.70962943e-004,
          -4.38949137e-005, -7.84036820e-005, -1.35492002e-007,
          2.48081119e-006, -5.06435499e-005, 5.71199525e-005,
          -5.71424935e-005, -1.22753641e-004, -5.12150982e-005,
          -2.01973293e-004, -2.47535034e-004, -3.76399345e-004,
          -3.91873327e-004, -2.15130087e-004, -4.87756806e-005,
          2.10728376e-005, -4.07225125e-005, -4.93656371e-005,
          -1.62587621e-005, -3.17045851e-005, 0., -2.62943649e-004,
          -3.29364295e-004, -4.99830639e-004, -2.11969149e-004,
          -1.51750268e-004, -5.02008224e-005, 9.61619589e-005,
          2.18101786e-006, -8.12938088e-005, -3.33304597e-005, 0., 0.,
          -2.01973293e-004, -2.18686095e-004, -3.47796158e-004,
          -4.91507562e-005, -1.50020409e-004, 4.60829215e-005,
          1.18434407e-004, -4.19156368e-006, 0., 0., 0., 0. ]
      - [ -5.42101086e-020, -3.48997419e-005, -5.17712797e-005,
          3.70983471e-005, 1.56950890e-004, 3.19516257e-004,
          1.64441182e-004, -1.67971375e-004, -4.39028023e-004,
          -3.01680702e-004, 1.35145121e-004, 2.43730945e-004,
          -1.89911400e-004, -2.57949752e-004, -3.91639856e-004,
          -2.11324383e-004, -8.95087123e-006, 1.97975693e-004,
          1.19636781e-004, -6.30416835e-005, -9.42169645e-005,
          2.34757041e-004, 3.97631607e-004, -6.54039613e-005,
          -2.07424251e-004, -1.18457399e-004, -2.07508419e-004,
          -1.55110945e-004, -2.82717345e-004, -3.45326291e-004,
          -4.32602508e-004, -4.32386965e-004, -6.71605376e-005,
          2.17109802e-004, 1.19114913e-004, -4.19719909e-005,
          -1.47831510e-004, 2.77331128e-004, 2.74331571e-004,
          4.71650739e-004, 3.61177226e-004, 8.29821147e-005,
          6.54501537e-006, 8.86030102e-006, 1.73719658e-004,
          2.08483718e-004, -2.05593125e-004, -8.80218358e-005,
          1.43084864e-004, 2.49848177e-004, 2.02771480e-004,
          4.42632212e-004, 3.90348869e-004, 3.35673394e-004,
          3.13096185e-004, -2.18167042e-005, 1.02286089e-004,
          -4.34420435e-005, -6.56231714e-005, -2.91298144e-004,
          -1.14176866e-004, 3.95404495e-005, -7.06325300e-005,
          2.07187666e-004, 4.21130506e-004, 4.59967327e-004,
          6.72870374e-005, -2.92619970e-005, -5.02311232e-005,
          -6.37134071e-005, -1.61666885e-005, -2.29031997e-004,
          -1.63079661e-004, -1.07580330e-004, -4.84797383e-005,
          3.32201103e-004, 1.49687068e-004, -1.58971598e-004,
          -8.30700301e-005, -7.17434377e-005, -1.02499405e-004,
          -4.48297942e-005, -1.28025436e-004, -4.90502753e-005,
          -1.63261182e-004, -1.05042331e-004, -1.52776644e-004,
          -2.66476040e-004, -4.69171006e-004, -2.52245431e-004,
          -3.66753266e-005, -1.10676883e-004, -2.12185132e-005,
          -1.84806468e-005, -2.60936049e-005, -5.42101086e-020,
          -1.46327759e-004, -1.13201313e-004, -5.76935126e-004,
          -6.04534755e-004, -2.86919065e-004, -3.12125485e-006,
          -1.30555505e-004, -6.57206474e-005, -1.44137748e-005,
          -5.90964783e-006, -5.42101086e-020, -5.42101086e-020,
          2.82201399e-005, -3.20449733e-004, -5.54443337e-004,
          -2.40087218e-004, 5.05512471e-005, 6.86583153e-005,
          -4.38380557e-005, -2.01792841e-006, -5.42101086e-020,
          -5.42101086e-020, -5.42101086e-020, -5.42101086e-020 ]
      - [ 4.03101207e-004, 1.57290749e-004, 2.00169161e-005,
          -1.00706864e-004, -1.24175480e-004, -1.40582066e-004,
          -1.96818757e-004, -3.11382173e-004, -2.06452038e-004,
          -1.50326552e-004, -1.25960651e-004, -8.41769433e-005,
          2.08539946e-004, 2.29389861e-005, -6.86128406e-005,
          -1.66713100e-004, -1.66713100e-004, -1.66713100e-004,
          -2.09419566e-004, -3.85961757e-004, -3.28896596e-004,
          -1.88351987e-004, -1.52635286e-004, -1.18640608e-004,
          1.60250594e-004, 4.54599613e-005, -4.21764817e-005,
          -1.46085455e-004, -1.48346560e-004, -1.41611905e-004,
          -1.83541270e-004, -3.27495247e-004, -3.08391638e-004,
          -2.98009603e-004, -1.27529856e-004, -1.29304954e-006,
          1.60250594e-004, 9.87143067e-005, 9.81002522e-005,
          -1.62630326e-019, -1.37925281e-005, -3.48471599e-006,
          -5.11097533e-005, -1.99020404e-004, -1.44636157e-004,
          -1.17545533e-004, -2.24429023e-004, -9.87086241e-005,
          1.60250594e-004, 1.08161425e-004, 1.68376500e-004,
          1.24544313e-004, 1.24544313e-004, 1.24544313e-004,
          8.14655432e-005, -4.21210680e-005, -3.76963508e-005,
          -7.70922925e-005, -1.64895115e-004, -2.83301546e-004,
          1.79144830e-004, 2.55440129e-004, 2.41003931e-004,
          1.63393168e-004, 1.67053629e-004, 1.59732721e-004,
          2.81252869e-004, 3.01038992e-004, 3.35632212e-004,
          2.82133522e-004, 1.67408201e-004, -1.72397544e-004,
          1.60250594e-004, 9.87143067e-005, 1.18598815e-004,
          1.09813718e-005, 1.36223380e-005, 3.24212015e-005,
          -1.79715316e-005, 1.08132794e-004, 2.97227234e-004,
          3.62806837e-004, 2.64302187e-004, 2.82963592e-004,
          1.60250594e-004, 4.91970895e-005, -5.29350582e-005,
          -2.61741458e-004, -2.24539806e-004, -1.65264486e-004,
          -2.06504250e-004, 1.27756168e-004, 3.34637123e-004,
          3.74061317e-004, 2.61827809e-004, 2.01096162e-004,
          2.71387744e-005, -1.64939556e-004, -2.65675946e-004,
          -2.36714302e-004, -7.50933905e-005, 1.41730243e-005,
          -6.15414319e-005, 7.25776263e-005, 4.67330174e-005,
          -2.27853834e-005, -1.15078738e-005, -1.62630326e-019,
          6.01691208e-005, 8.10936181e-005, 9.02010106e-006,
          -1.03236351e-004, -1.57447168e-004, -1.59010102e-004,
          -7.95975066e-005, -1.01153655e-005, -1.62630326e-019,
          -1.62630326e-019, -1.62630326e-019, -1.62630326e-019 ]
      - [ 3.16169404e-004, 2.40780224e-004, 5.61735687e-005,
          -3.91422182e-005, -1.50644715e-004, -1.73562221e-004,
          -2.02098498e-004, -2.84292095e-004, -2.02173353e-004,
          -1.53176356e-004, -1.02133970e-004, -3.94567869e-005,
          1.27408333e-004, 9.61443002e-005, -5.46462506e-005,
          -1.12333953e-004, -1.88231148e-004, -1.88231148e-004,
          -2.05399498e-004, -3.00344749e-004, -2.90398108e-004,
          -1.99852133e-004, -1.54381982e-004, -8.32392980e-005,
          1.38842966e-004, 1.16711562e-004, -4.54818583e-005,
          -8.95609410e-005, -1.27575622e-004, -9.60949692e-005,
          -8.21825815e-005, -1.49049403e-004, -1.29108361e-004,
          -8.00491252e-005, 4.47051934e-005, 7.11305111e-005,
          1.22750571e-004, 1.93632543e-004, 2.36320775e-004,
          2.59925349e-004, 2.40069916e-004, 2.44909403e-004,
          2.09544844e-004, 8.78392311e-005, 1.01212740e-004,
          -2.90004209e-005, -3.49953880e-005, -4.44551824e-006,
          1.22750571e-004, 1.93946646e-004, 1.92874199e-004,
          1.70252664e-004, 8.71901939e-005, 5.99663217e-005,
          2.86412705e-005, 1.62731758e-005, 8.52580415e-005,
          -6.40508588e-005, 2.15939162e-005, 2.46464515e-006,
          1.38842966e-004, 1.57827511e-004, 8.65455804e-005,
          8.16475949e-005, 1.90407773e-005, 3.45114095e-005,
          1.81730393e-005, -7.39597090e-005, 4.95725999e-006,
          3.65784908e-005, 1.56350507e-004, 4.19918142e-005,
          1.38842966e-004, 2.02020732e-004, 1.91792366e-004,
          1.94506676e-004, 1.53060624e-004, 1.14652561e-004,
          6.66986525e-005, 8.25125426e-006, 1.90126957e-004,
          1.93178959e-004, 1.43214813e-004, 1.07170599e-004,
          7.59047762e-005, 5.49151082e-005, -1.16965748e-005,
          -7.56590161e-005, -1.07782871e-004, -1.10268651e-004,
          -7.44100471e-005, 7.39928055e-006, 1.84974197e-004,
          1.75099864e-004, 2.09560894e-004, 2.01019866e-004,
          -1.52293767e-004, -1.89508253e-004, -2.25999975e-004,
          -2.07699311e-004, -2.06297991e-004, -1.80508898e-004,
          -1.58863913e-004, -3.32279524e-005, 1.27417501e-004,
          1.06561063e-004, 1.74181027e-004, 2.90445838e-004,
          -1.55499205e-004, -1.68357117e-004, -1.89189464e-004,
          -1.73287946e-004, -1.60972850e-004, -1.13924121e-004,
          -5.41998743e-005, 7.44628851e-005, 1.76851478e-004,
          1.28633386e-004, 1.86534482e-004, 2.44891504e-004 ]
      - [ -9.48676901e-020, -1.15529983e-005, 6.62347447e-005,
          -8.03168223e-005, -2.26672477e-004, -2.95817124e-004,
          -3.30210547e-004, -3.12616845e-004, 1.06268577e-004,
          1.50760798e-005, -5.85217458e-005, -8.41135352e-006,
          -2.21947586e-004, -2.29417143e-004, 1.06570897e-005,
          -1.30305387e-004, -2.58400571e-004, -3.19494196e-004,
          -3.31294083e-004, -3.20234336e-004, -3.44250548e-005,
          -9.17838552e-005, -2.03602714e-004, -1.34505448e-004,
          -7.76985544e-005, -6.71512244e-005, 4.59572148e-005,
          7.05199054e-005, -1.39876312e-004, -1.99718124e-004,
          -1.53163346e-004, -2.03113639e-004, 1.17422613e-004,
          1.55370944e-004, 1.68008424e-004, 2.30424193e-004,
          1.08594053e-004, 1.53883797e-004, 1.85873359e-004,
          4.61700314e-004, 3.62402643e-004, 3.24903463e-004,
          3.08230257e-004, 5.76670318e-005, 2.61532201e-004,
          2.03880190e-004, 7.37173104e-005, 1.54689100e-004,
          6.06638569e-005, 8.77158309e-005, 2.85430287e-004,
          2.79386557e-004, 1.70865809e-004, 9.70100518e-005,
          5.21652000e-005, 6.89965746e-005, 1.65397694e-004,
          -4.25542275e-005, -1.39160169e-004, -2.43895207e-004,
          -4.94683045e-005, -1.79739891e-005, 1.62580211e-004,
          3.46671237e-004, 1.32219924e-004, 1.80023508e-005,
          -6.09286735e-006, -5.84289264e-005, 1.15374685e-004,
          8.58945787e-005, 6.58124991e-005, -7.61786359e-005,
          1.05957632e-004, 1.35035225e-004, 1.32277666e-004,
          4.21712321e-004, 3.37504927e-004, 2.10117287e-004,
          1.81643059e-004, 4.27152463e-006, 2.60154629e-004,
          3.82105442e-004, 2.75832601e-004, 2.89737160e-004,
          2.48210446e-004, 2.47482705e-004, 1.53121087e-004,
          7.39722527e-005, -5.05443568e-005, -1.48071253e-004,
          -1.65244230e-004, 3.15906476e-007, 3.83910286e-004,
          2.37710905e-004, 8.34249477e-006, 1.88254198e-005,
          -7.91796774e-005, -1.03351107e-004, -3.23251916e-005,
          -8.50845754e-005, -2.88073759e-004, -3.23268876e-004,
          -2.39847330e-004, -1.81829164e-005, 3.38544050e-004,
          1.83755852e-004, -3.63554705e-006, -2.12784562e-006,
          -1.17621807e-004, -1.37264113e-004, -5.82767934e-005,
          4.13985108e-005, -1.43457903e-004, -1.67235587e-004,
          -9.14096090e-005, 4.52390559e-005, 1.80961128e-004,
          7.14052076e-005, -9.48676901e-020, -9.48676901e-020 ]
      - [ -3.79470760e-019, -7.78701997e-006, -4.36018818e-005,
          -1.33431182e-004, -7.09038432e-005, 1.92453968e-004,
          1.39709606e-004, -1.66432452e-004, -1.61869335e-004,
          -1.83803670e-004, -5.64904949e-005, -6.72293827e-005,
          -1.25260223e-004, -1.75987094e-004, -3.10583855e-004,
          -1.36815928e-004, 7.58994138e-005, 1.01651349e-005,
          -3.46609653e-004, -4.76586574e-004, -4.14149399e-005,
          -2.00714872e-004, -1.04844956e-004, -1.22078156e-004,
          -1.24718717e-004, -1.62903278e-004, -3.31828633e-004,
          -1.28066255e-004, -5.71812452e-005, 3.79456396e-005,
          -5.00052302e-005, 5.61940251e-005, 4.60580850e-005,
          -2.65150185e-004, -1.23482183e-004, -3.43322390e-005,
          -1.17205949e-004, -8.49607022e-005, -3.67226348e-005,
          3.24621651e-004, 5.63735724e-004, 5.04540047e-004,
          3.42817249e-004, -2.04821874e-004, -1.18470525e-004,
          -1.54682377e-004, -3.32356285e-004, -1.80230651e-004,
          9.35157732e-005, 3.18597158e-004, 2.56950909e-004,
          4.64464305e-004, 4.15180228e-004, 4.02259524e-004,
          3.59126629e-004, -1.33041613e-004, 9.29753078e-005,
          9.71370537e-005, -2.17787965e-005, -3.22349282e-004,
          4.24887956e-004, 4.92935942e-004, -1.65335623e-005,
          3.72941606e-004, 3.40989500e-004, 2.58259475e-004,
          2.06578203e-004, 9.01551903e-005, 3.90175846e-005,
          1.31304201e-004, 2.14627318e-004, 5.70394477e-005,
          1.77977316e-004, 1.61251606e-004, -1.68985189e-005,
          3.39534512e-004, 3.32768977e-004, 3.81572972e-005,
          -1.19568249e-004, -3.23854365e-005, 8.41461660e-005,
          9.69003304e-005, 1.51689659e-004, 2.43309041e-004,
          -8.66585106e-005, -5.55406477e-005, -2.28587684e-004,
          -1.59965624e-004, -2.60572735e-004, -3.09905066e-004,
          -3.76020209e-004, -2.91584292e-004, 3.30469571e-004,
          1.16338910e-004, 8.35650790e-005, 3.72708746e-005,
          -2.27270837e-004, -2.30426172e-004, -4.10866778e-004,
          -1.84326971e-004, -9.39122692e-005, -3.75722484e-005,
          -1.82618547e-004, -1.27901920e-004, 2.41083690e-004,
          1.66649863e-006, -3.27874041e-005, -4.48411038e-006,
          -1.71329913e-004, -1.35748633e-004, -3.17940168e-004,
          -1.79176437e-004, -1.28496686e-004, 1.27923588e-004,
          1.63642966e-004, 3.34576907e-004, 7.87950848e-005,
          7.06228275e-006, -3.79470760e-019, -3.79470760e-019 ]
      - [ 1.62630326e-019, -4.70974628e-005, -5.27284283e-005,
          1.47330229e-006, 2.14984175e-004, 1.50021937e-004,
          -6.13812444e-005, -4.63873257e-005, -1.02635131e-004,
          -2.41174610e-004, -3.02589469e-004, -2.38738430e-004,
          -3.13758530e-004, -1.80476942e-004, -1.05949093e-005,
          1.36291637e-004, -9.47352819e-005, -2.51357327e-004,
          -3.90458707e-004, -4.45387355e-004, -1.60548882e-006,
          4.85890450e-005, -8.55400285e-005, -1.47618906e-004,
          -2.14672371e-004, 4.76627902e-005, 2.97016610e-004,
          1.96811045e-004, -1.85095341e-005, -1.45304934e-004,
          -2.02738840e-004, -1.11533423e-004, 5.28243472e-005,
          9.26046869e-006, 2.55579827e-004, 1.41341079e-004,
          -2.63282254e-005, 1.68499348e-004, 4.33520559e-004,
          3.08699440e-004, 1.49062544e-004, 4.23665479e-005,
          -7.74191940e-005, -1.23655438e-004, -3.41648738e-005,
          5.76902712e-005, 8.74788748e-005, 2.24950403e-004,
          1.34323942e-004, 2.71949277e-004, 3.27634072e-004,
          1.74974746e-004, 5.94715311e-005, 9.21080937e-006,
          -1.81640979e-004, -2.02281954e-004, -1.11411646e-005,
          -8.67101335e-005, 2.28445148e-004, 2.71816592e-004,
          1.28362357e-004, 1.47693601e-004, 1.27987325e-004,
          3.67577632e-005, 8.73941535e-005, 1.60529889e-004,
          -8.92817334e-005, -2.74622464e-004, -5.94678058e-005,
          1.97468053e-005, 3.84011946e-004, 2.47752701e-004,
          -4.07861080e-005, 8.13321021e-005, 2.31736107e-004,
          6.07241382e-005, -4.94267006e-005, -6.44514439e-005,
          -2.47895776e-004, -2.97758943e-005, 1.75768451e-004,
          -5.00661299e-005, 1.22050646e-004, 3.59344849e-005,
          -3.08139861e-004, -8.04712763e-005, 2.40520225e-004,
          1.73649576e-004, 6.83502003e-006, -1.39988813e-004,
          -2.47663062e-004, -1.62872122e-004, 1.77081994e-004,
          4.16045019e-004, 2.13373991e-004, -2.28833218e-004,
          -5.00831986e-004, -5.52692218e-004, -3.89127410e-004,
          -1.56947382e-004, -1.80756542e-004, -2.73837737e-004,
          -2.40525158e-004, 1.74793080e-004, 4.60412208e-004,
          3.36219295e-004, 2.31350587e-005, -2.97395163e-004,
          -4.21761477e-004, -3.85431311e-004, -3.22946871e-005,
          -3.99785968e-005, 4.01157740e-005, 1.71406908e-004,
          3.05046706e-004, 3.17980972e-004, 3.04061599e-004,
          3.27490183e-004, 4.54519213e-005, 9.84658473e-005 ]
      - [ -8.13151629e-020, -9.93541289e-006, -5.27118891e-006,
          3.98095290e-006, 1.17165771e-004, 8.37649131e-005,
          -1.84910605e-004, -2.78171501e-004, -1.86852179e-004,
          -1.72197106e-004, -1.61205797e-004, -1.25300881e-004,
          -1.67067832e-004, -1.86852179e-004, -1.86852179e-004,
          -1.83099721e-004, -1.30799090e-004, 2.62832800e-005,
          8.79803774e-005, -4.39055875e-005, -2.74639042e-005,
          -5.02591101e-005, -6.00752901e-005, -7.33596244e-005,
          -1.86852179e-004, -1.33361158e-004, -8.49994249e-005,
          -7.27456281e-005, -1.43010639e-005, 1.13425798e-004,
          2.16191431e-004, 2.05881224e-004, 2.51023070e-004,
          1.31597102e-004, 2.64872739e-004, 1.00770238e-004,
          -1.71200096e-004, -5.17997578e-005, 9.64196151e-005,
          1.95291577e-004, 2.96453363e-004, 4.16348805e-004,
          2.79208238e-004, 1.83092532e-004, 2.21179245e-004,
          1.46646213e-004, -2.78995121e-005, -1.19375945e-005,
          -9.02915854e-005, 4.58001668e-005, 1.86185964e-004,
          3.56923789e-004, 3.37139441e-004, 3.10568546e-004,
          1.41133874e-004, 6.54350151e-005, 3.26561130e-005,
          -2.69341632e-004, -2.09842779e-004, -1.53021319e-004,
          -1.44210630e-004, -1.23179561e-004, 1.50273690e-005,
          2.55360763e-004, 3.44669970e-004, 3.92291025e-004,
          1.26144179e-004, -7.79984766e-005, -4.84956081e-006,
          -6.62491511e-005, -1.11491587e-004, -1.65697653e-004,
          -1.25834209e-004, -7.68974587e-006, 1.09594126e-004,
          1.31121953e-004, 1.61876727e-004, 2.72506732e-004,
          1.92694424e-004, 2.07721649e-004, 2.33039507e-004,
          -6.96773714e-005, -7.66717130e-005, -1.36910181e-004,
          2.03376781e-004, 2.29543875e-004, 2.88380630e-004,
          2.69370386e-004, 2.52990256e-004, 1.43281693e-004,
          4.83936783e-005, 2.15161731e-006, 7.33131383e-005,
          1.21145356e-004, 9.04048793e-005, -8.61189110e-005,
          2.53176077e-005, 4.01672150e-005, 8.06029038e-006,
          -3.95554052e-005, -1.88401493e-004, -2.54795828e-004,
          -2.35642292e-004, -6.69999281e-005, 2.33417941e-005,
          3.76255775e-005, 2.53100552e-005, -1.92124353e-004,
          -3.03296954e-004, -1.36298753e-004, 4.83467993e-005,
          -2.63833135e-005, -1.21977115e-004, -4.38393836e-005,
          -4.39783889e-006, 1.07366222e-005, -8.13151629e-020,
          -8.13151629e-020, -8.96397105e-005, -5.25161959e-005 ]
      - [ 8.27418116e-005, 2.28164819e-004, 2.80739885e-004,
          2.70236487e-004, 1.53575602e-004, -2.08457022e-005,
          -2.18492016e-004, -2.73877115e-004, -1.80788891e-004,
          -1.62262280e-004, -1.08224507e-004, -3.18238272e-005,
          2.14064567e-004, 1.96502981e-004, 1.96502981e-004,
          1.96502981e-004, 1.94258115e-004, 7.82738716e-005,
          -1.64240453e-004, -3.48917267e-004, -2.08800484e-004,
          5.18754059e-005, 2.05922915e-004, 8.49730495e-005,
          -3.03115758e-006, 1.78297909e-004, 2.85303744e-004,
          2.92923709e-004, 2.58502580e-004, 1.27986437e-004,
          4.80127674e-005, 1.21267760e-004, 2.22306306e-004,
          1.12292975e-004, 2.05101387e-004, 2.56874064e-005,
          -1.68816332e-004, -2.89873842e-005, 1.25368315e-004,
          1.63792894e-004, 1.57806615e-004, 1.21888908e-004,
          -2.36994401e-005, -8.48889758e-005, 1.97292073e-004,
          3.20349391e-005, -1.20135446e-004, -6.24185923e-005,
          -1.80788891e-004, -1.17690026e-004, -4.46654922e-005,
          -5.88450130e-005, -7.79873662e-005, -1.03510502e-004,
          -1.57256291e-004, 5.84940972e-005, 1.89432933e-004,
          -1.06831387e-004, -1.55092770e-004, -1.30231376e-004,
          -1.80788891e-004, -1.80788891e-004, -1.46049075e-004,
          -1.29033637e-004, -6.38078418e-005, -2.33962091e-005,
          7.47557642e-005, -1.68172198e-006, -7.76372872e-006,
          -1.57952192e-004, -9.79595279e-005, -1.41019787e-004,
          -1.80788891e-004, -1.80788891e-004, -1.29742621e-004,
          -1.38250325e-004, -1.17573501e-004, 5.10920836e-005,
          2.55545256e-005, 7.43353157e-005, 7.06748251e-005,
          -2.99706560e-004, -1.96567009e-004, -1.66449579e-004,
          -1.80788891e-004, -1.80788891e-004, -1.21788915e-004,
          -1.25701903e-004, 2.17156376e-005, 1.08311717e-004,
          2.73340393e-005, -3.37262136e-005, -9.51182519e-005,
          -4.18295858e-005, -3.69271729e-005, -1.64908372e-004,
          -2.67096097e-004, -3.38761864e-004, -3.69493122e-004,
          -1.98920548e-004, -1.57460192e-004, -1.04311584e-004,
          -1.77610091e-005, 3.83262268e-005, -1.11130723e-018,
          -1.11130723e-018, -2.69709963e-005, -1.77237976e-004,
          -3.23349872e-004, -3.12651799e-004, -2.10682498e-004,
          -6.63013052e-005, -9.41975159e-005, 2.80485347e-005,
          9.89437249e-005, 9.08939001e-006, -1.11130723e-018,
          -1.11130723e-018, -7.62893906e-005, -4.46947925e-005 ]
      - [ 2.87991202e-019, -4.01802536e-005, -7.40350733e-005,
          4.09431959e-005, 1.22927144e-004, 3.10378935e-004,
          1.29245629e-004, -7.27716688e-005, -2.55913124e-004,
          -2.34553285e-004, -4.29632055e-005, 7.55347719e-005,
          -2.47597258e-004, -2.76917970e-004, -2.57953303e-004,
          -7.57456291e-005, 3.09249626e-005, 2.06452372e-004,
          6.56551492e-005, -4.78296315e-005, -5.13687810e-005,
          2.02495023e-004, 2.86927796e-004, -1.82995791e-005,
          -2.76917970e-004, -1.30427943e-004, 1.79125873e-005,
          9.40351947e-006, -8.62201850e-005, -1.01822559e-004,
          -2.22793358e-004, -2.33594794e-004, -9.20537514e-006,
          6.84137240e-006, 1.04345279e-004, 1.03990010e-006,
          -2.54368351e-004, 1.47377854e-004, 3.95167415e-004,
          3.69360991e-004, 2.35119660e-004, 9.45217544e-005,
          2.64170030e-005, -2.35296666e-005, 6.25577231e-005,
          -6.37365374e-005, -2.79319385e-004, -8.88764407e-005,
          -1.03462953e-005, 1.20187018e-004, 2.97155144e-004,
          2.80687294e-004, 2.11971404e-004, 1.28525309e-004,
          -1.48252711e-005, -5.62747337e-005, 7.20615062e-005,
          -3.50728747e-004, -2.71381839e-004, -1.85433557e-004,
          -2.34282066e-004, -1.49464162e-004, -5.71901655e-005,
          -1.34832601e-006, 2.57145846e-004, 2.79183383e-004,
          -5.77917162e-005, -1.14145871e-004, -1.19415810e-004,
          -3.12198972e-004, -1.42234858e-004, -2.00794908e-004,
          -2.76917970e-004, -2.76917970e-004, -2.22887611e-005,
          5.29001118e-005, -6.86779531e-005, -1.35885581e-004,
          -3.18741550e-005, 5.42516827e-005, -8.37835178e-005,
          -4.42113465e-004, -2.87456700e-004, -2.37003827e-004,
          -2.76917970e-004, -2.24405885e-004, 6.29195856e-005,
          -9.34224809e-005, -1.68795726e-004, 6.52995277e-006,
          3.65748638e-005, -2.20906455e-004, -1.65064834e-004,
          -6.40712169e-005, -5.26562326e-005, -2.34809355e-004,
          -3.19990475e-004, -2.74999969e-004, -4.79653710e-004,
          -5.02416515e-004, -2.63411814e-004, -8.33375525e-005,
          -1.68052618e-004, -9.21681567e-005, 2.87991202e-019,
          2.87991202e-019, -3.84033992e-005, -2.52365193e-004,
          -2.35201049e-004, -4.20061173e-004, -3.01515247e-004,
          -1.79965777e-004, 2.81707053e-005, 9.71116333e-006,
          -6.81025558e-005, 2.87991202e-019, 2.87991202e-019,
          2.87991202e-019, -1.08626758e-004, -6.36399200e-005 ]
      - [ 4.46588616e-004, 2.26522956e-004, 2.95698501e-005,
          -1.27385691e-004, -1.60583324e-004, -1.88663471e-004,
          -3.59018275e-004, -3.61205020e-004, -2.23763651e-004,
          -2.06213561e-004, -1.93051004e-004, -1.50053282e-004,
          1.89910454e-004, 4.50243497e-005, -9.37133736e-005,
          -2.18646150e-004, -2.23763651e-004, -2.23763651e-004,
          -3.95849114e-004, -5.06073819e-004, -3.50859453e-004,
          -2.16360597e-004, -1.64093348e-004, -9.56479926e-005,
          1.62438228e-004, 1.09082182e-004, 2.82597539e-005,
          -9.93055364e-005, -1.04423038e-004, -9.74030045e-005,
          -2.47550866e-004, -2.61110516e-004, -2.05232107e-004,
          -3.49602662e-004, -6.46534463e-005, 3.52365706e-019,
          1.61100324e-004, 1.42427351e-004, 1.30050277e-004,
          2.97684710e-006, 3.52365706e-019, 3.52365706e-019,
          -1.72085463e-004, -2.91196629e-004, -2.32361694e-004,
          -2.46767013e-004, -2.80415610e-004, -9.11040697e-005,
          1.61100324e-004, 1.32310204e-004, 1.69579027e-004,
          1.10540626e-004, 9.35165372e-005, 7.62080235e-005,
          -7.01972094e-005, -1.10901114e-004, -2.86144095e-005,
          -2.47275661e-004, -1.75733905e-004, -1.31017208e-004,
          1.79476221e-004, 1.73395296e-004, 9.05428606e-005,
          2.40021873e-005, 1.08156506e-004, 1.52196109e-004,
          1.16928670e-004, 4.60607698e-005, 2.17246154e-004,
          1.88747319e-004, 2.14849715e-004, 9.52370283e-006,
          1.61100324e-004, 4.50243497e-005, -1.52926696e-005,
          -1.57062095e-004, -1.41659402e-004, -9.82180572e-005,
          -2.13241074e-004, 1.97947200e-004, 3.27379210e-004,
          1.04747065e-004, 2.39242203e-004, 2.29527635e-004,
          1.61100324e-004, 4.50243497e-005, -2.61595724e-005,
          -1.72277956e-004, -6.19045750e-006, 6.05209461e-005,
          -1.23719496e-004, 2.24554955e-004, 2.80022068e-004,
          4.02805192e-004, 2.91035045e-004, 1.19487559e-005,
          3.51292620e-005, -1.76359725e-004, -2.98786967e-004,
          -2.58527289e-004, -8.35480532e-005, 6.41356091e-005,
          -3.13168966e-005, 1.90862134e-004, 9.14411794e-005,
          1.08088234e-005, -3.91652720e-005, -2.58690561e-004,
          -8.55192702e-005, -8.27232725e-006, 8.56336192e-005,
          -3.97135882e-005, -1.08001062e-004, -1.22717611e-004,
          -6.34128373e-005, 3.52365706e-019, 3.52365706e-019,
          3.52365706e-019, -1.11349422e-004, -6.52350136e-005 ]
      - [ 3.35471123e-004, 2.44799972e-004, 6.86514250e-005,
          -3.96610449e-005, -1.34482863e-004, -1.57998991e-004,
          -2.56521540e-004, -2.63190508e-004, -1.87394151e-004,
          -1.72696571e-004, -1.61673393e-004, -1.25664315e-004,
          1.45395563e-004, 8.45963295e-005, -4.59897019e-005,
          -1.15693678e-004, -1.87394151e-004, -1.87394151e-004,
          -2.85249582e-004, -3.47928231e-004, -2.59666471e-004,
          -1.80589646e-004, -1.37422379e-004, -8.01018177e-005,
          1.25553837e-004, 1.38242496e-004, 5.61584857e-005,
          -1.11930203e-005, -5.59375258e-005, -3.23944769e-005,
          -9.41914404e-005, -6.05956229e-005, -2.91296146e-005,
          -1.64429133e-004, 4.09128188e-005, 7.24179772e-005,
          1.25553837e-004, 2.10874074e-004, 2.87023198e-004,
          2.53241597e-004, 2.19889029e-004, 2.29104568e-004,
          1.23321297e-004, 5.88215808e-005, 8.02413560e-005,
          -5.62319037e-005, -3.87387990e-005, 7.28604718e-005,
          1.25553837e-004, 1.95956614e-004, 2.00081282e-004,
          1.46905513e-004, 7.11000393e-005, 1.85394256e-005,
          -8.93696342e-005, -4.03476988e-005, 8.89215153e-005,
          -1.15646537e-004, 3.70921261e-005, 1.17248739e-004,
          1.25553837e-004, 8.45963295e-005, -9.98063024e-006,
          -5.72887329e-005, -4.96477114e-005, 5.63965659e-006,
          -9.24901105e-005, -1.48518069e-004, 3.99581586e-005,
          -2.54888946e-005, 1.42478515e-004, 1.08294647e-004,
          1.25553837e-004, 1.28006199e-004, 1.58880590e-004,
          1.05295083e-004, 7.16796640e-005, 1.11528148e-004,
          5.58850370e-005, 1.39793832e-004, 2.21799099e-004,
          -4.04776511e-005, 6.47487250e-005, 8.71885713e-005,
          6.93406328e-005, 6.54516407e-005, 1.08829947e-004,
          7.28162340e-005, 5.80754458e-005, 2.58806667e-005,
          1.34668460e-006, 2.52175432e-005, 1.09805696e-004,
          1.46490085e-004, 2.31919024e-004, 1.34849804e-004,
          -1.58355761e-004, -2.17836510e-004, -2.41731745e-004,
          -2.70315824e-004, -2.66710325e-004, -2.20412941e-004,
          -1.71271357e-004, 1.63639070e-005, 1.59311050e-004,
          1.41404453e-004, 1.88106074e-004, 1.58719398e-004,
          -3.05716094e-004, -2.83803151e-004, -1.77789960e-004,
          -1.63092380e-004, -1.38148840e-004, -9.91345878e-005,
          -4.02934129e-005, 7.00884557e-005, 1.58916257e-004,
          1.41404453e-004, 1.38583811e-004, 2.25780444e-004 ]
      - [ -2.71050543e-020, -1.79442141e-005, 1.85043100e-005,
          -7.03479382e-005, -1.50731881e-004, -1.77089358e-004,
          -3.11657146e-004, -1.93130749e-004, 1.45563099e-004,
          1.18316148e-005, -1.81207724e-004, -1.40847813e-004,
          -1.87797094e-004, -1.78080561e-004, 6.45622958e-006,
          -7.48564926e-005, -2.06269207e-004, -2.10036218e-004,
          -3.45013745e-004, -3.08114395e-004, 4.58738214e-005,
          7.98010205e-006, -1.40868346e-004, -7.66219746e-005,
          -1.65862220e-004, -9.16361241e-005, 1.70671061e-004,
          2.21289331e-004, 4.84941847e-005, -8.71697284e-006,
          -8.68708084e-005, -4.77824433e-005, 2.06081168e-004,
          9.86512441e-006, 1.12022753e-004, 1.74488552e-004,
          -1.39396116e-005, 9.08351867e-005, 2.93701916e-004,
          4.29246080e-004, 3.17080645e-004, 2.61326117e-004,
          1.31157663e-004, 9.36279393e-005, 2.15125503e-004,
          1.30050670e-004, 5.11094731e-005, 2.20900780e-004,
          -7.10305585e-006, 9.86183586e-005, 3.55690601e-004,
          2.52219877e-004, 1.04366809e-004, 4.80490489e-005,
          -1.12489310e-004, -1.46864495e-005, 2.17177483e-004,
          -1.01765108e-004, -1.56217022e-004, -1.04642124e-004,
          -1.49965606e-004, -1.20829565e-004, 1.20649478e-004,
          1.66841288e-004, 1.88061367e-005, -4.31093349e-006,
          -1.57237766e-004, -1.82258489e-004, 1.65336576e-004,
          1.32341856e-005, -1.51281083e-005, -4.84645716e-005,
          -4.06611543e-005, -4.06611543e-005, 1.31464709e-004,
          2.44980300e-004, 1.62620010e-004, 1.60629323e-004,
          1.06572283e-004, 2.11743769e-004, 3.49240843e-004,
          6.32097581e-005, 1.26086627e-004, 1.64970494e-004,
          7.79106849e-005, 1.07283246e-004, 2.65366136e-004,
          1.92078965e-004, 1.14115384e-004, 6.53519164e-005,
          -6.13488510e-006, 6.98688673e-005, 2.52249913e-004,
          1.68852217e-004, 2.47653825e-005, -1.45848200e-004,
          -1.91312647e-004, -2.41402158e-004, -7.45870420e-005,
          -7.70656843e-005, -2.65760056e-004, -2.89208896e-004,
          -2.33964383e-004, 3.48388530e-005, 3.37741745e-004,
          1.94742519e-004, -3.08772105e-005, -2.02907380e-004,
          -3.73244344e-004, -3.27971939e-004, 2.47809876e-005,
          9.17869620e-005, -1.20490156e-004, -1.36741932e-004,
          -5.55789775e-005, 3.06808906e-005, 1.31428125e-004,
          7.00663441e-005, -8.73383979e-005, -5.11679500e-005 ]
      - [ -1.08420217e-019, -3.68353540e-005, -9.85594597e-005,
          -1.35112554e-004, -4.69224760e-005, 1.49519328e-004,
          4.64687082e-006, -7.55559813e-005, -3.43749889e-005,
          -1.45244107e-004, -1.86071527e-004, -1.70239073e-004,
          -2.26985416e-004, -2.53865262e-004, -2.53865262e-004,
          -9.33243209e-005, 5.02742660e-005, 6.72364258e-005,
          -3.51737748e-004, -4.62423835e-004, -1.33518233e-005,
          -8.31534853e-005, -5.74114056e-005, -9.33075062e-005,
          -2.53865262e-004, -1.81190117e-004, -1.15483810e-004,
          1.19518227e-005, 5.46925330e-005, 2.11385443e-004,
          -3.72354916e-005, 1.23786856e-004, 1.45922444e-004,
          -2.82390916e-004, -9.95930714e-006, 1.01383046e-006,
          -2.53865262e-004, -1.11697205e-004, 1.34818882e-004,
          2.67493131e-004, 4.73910448e-004, 4.78890492e-004,
          2.41476402e-004, -1.55006463e-004, -1.96437701e-004,
          -2.66345189e-004, -3.40703729e-004, -1.13347749e-004,
          -9.99473632e-005, 1.87841550e-004, 3.53779964e-004,
          3.66579858e-004, 2.91860837e-004, 2.25459662e-004,
          3.63313193e-005, -2.04918178e-004, -3.72530922e-005,
          -2.64929258e-004, -1.76804213e-004, -1.94615423e-004,
          1.83895696e-004, 2.66773306e-004, 2.30259047e-005,
          1.41812037e-004, 2.43990522e-004, 2.35872852e-004,
          3.18162638e-005, -6.08836235e-005, -4.37136332e-005,
          -1.65007059e-005, 1.41235127e-004, 4.43827121e-005,
          5.64620950e-006, 2.78035513e-005, 2.85501028e-005,
          1.08461529e-004, 1.42659395e-004, -2.26439297e-005,
          -1.83077689e-004, 1.46796039e-004, 1.16020354e-004,
          -3.66960332e-004, 1.06689195e-005, 5.47694872e-005,
          -2.44912517e-004, -1.42991717e-004, 1.67450453e-005,
          -2.24880114e-005, -6.18547128e-005, -4.48310711e-005,
          -2.27946322e-004, -2.44917814e-004, 2.01689065e-004,
          3.74981028e-005, 1.13105380e-004, -2.26377757e-004,
          -4.05147875e-004, -4.53072338e-004, -3.94683506e-004,
          -1.80046991e-004, -1.07419808e-004, -8.73829194e-005,
          -1.98146314e-004, -3.03184970e-005, 2.90104072e-004,
          7.35704307e-005, -4.79635928e-005, -3.21851636e-004,
          -5.06311480e-004, -4.02294507e-004, -1.51518587e-004,
          -9.32770708e-005, -4.40396216e-005, 1.54372989e-004,
          1.67279941e-004, 2.87321658e-004, 9.56583026e-005,
          1.36867102e-005, -1.38536139e-004, -8.11625869e-005 ]
      - [ -1.89735380e-019, 2.68889398e-005, 7.46587102e-005,
          8.74462276e-005, 8.02686463e-006, -7.91178027e-005,
          -2.06098892e-004, -2.56719941e-004, -1.31440756e-004,
          -2.96957605e-005, -1.55787382e-006, -1.89735380e-019,
          -1.55787382e-006, -5.99781415e-005, -1.53116038e-004,
          -3.05700698e-004, -1.58915849e-004, 8.16315078e-005,
          1.79793176e-004, 1.04786530e-004, -7.59388931e-005,
          -8.44870956e-005, -3.04925743e-006, 7.16705927e-006,
          -4.82940886e-005, -1.17477153e-004, -2.86186405e-004,
          -2.61171517e-004, -9.09468799e-005, 2.08864090e-004,
          1.87415411e-004, 1.61231888e-004, 1.27966443e-004,
          1.02172926e-004, 1.72494067e-004, 9.62397753e-005,
          -1.45105019e-004, -1.39764583e-004, -1.32606787e-004,
          9.56629538e-006, 1.33648355e-004, 3.15078214e-004,
          2.03725183e-004, 1.61231888e-004, 1.37439478e-004,
          3.38249483e-005, -6.96949792e-005, -6.03466178e-005,
          -1.72397602e-004, -4.64179866e-005, 2.12861250e-005,
          1.34765214e-004, 1.61231888e-004, 1.61231888e-004,
          1.09175453e-004, 3.35911755e-005, -1.06812957e-004,
          -2.69485667e-004, -3.50262271e-004, -3.27812188e-004,
          -2.19631373e-004, -2.56207481e-004, -1.38094576e-004,
          5.35874824e-005, 1.46491104e-004, 1.71777967e-004,
          4.23675156e-005, -1.16540381e-004, -1.66211306e-004,
          -2.43306902e-004, -3.50262271e-004, -2.96579587e-004,
          -5.92085999e-005, -8.81184242e-005, -7.94030420e-005,
          -2.13692529e-005, 3.16448459e-005, 2.32664112e-004,
          3.36082943e-004, 1.60690965e-004, -2.89931290e-006,
          -1.45205631e-004, -1.68191225e-004, -8.51501754e-005,
          3.38114100e-004, 2.85691262e-004, 1.07508764e-004,
          9.00585364e-005, 1.33748195e-004, 1.51136745e-004,
          1.90838022e-004, 3.07783848e-005, -7.55748988e-005,
          -4.45080732e-005, 8.94261029e-005, 9.95281735e-005,
          2.19797585e-004, 3.16762598e-004, 2.77288433e-004,
          4.00172285e-005, -9.33487172e-005, -1.57705290e-004,
          -1.58606577e-004, -2.41974369e-004, -2.95651320e-004,
          -1.26556100e-004, 4.61378113e-005, 9.16441877e-006,
          -3.88202643e-005, 7.52211927e-005, 8.39105996e-005,
          1.10904526e-004, -1.51200775e-005, -1.11085283e-004,
          -2.13595646e-004, -1.83148819e-004, -1.29562963e-004,
          -1.11627574e-004, -5.90036689e-005, -5.90036689e-005 ]
      - [ 6.11282594e-005, 2.19888330e-004, 2.82113178e-004,
          1.93073531e-004, -1.80098195e-005, -1.43156765e-004,
          -1.69624182e-004, -2.13064865e-004, -1.13239614e-004,
          -4.12037334e-005, 6.01473630e-006, 3.62990031e-005,
          3.35548888e-004, 2.54243962e-004, 1.52922905e-004,
          8.30886129e-005, 2.15071428e-004, 1.66057827e-004,
          -3.26362192e-006, -9.81844278e-005, -2.00048700e-004,
          -1.12124480e-005, 2.02295385e-004, 1.31217414e-004,
          1.10222980e-004, 1.16533403e-004, 8.38321430e-005,
          1.57471819e-004, 2.64564704e-004, 1.51980625e-004,
          1.25226492e-004, 1.52945155e-004, 1.65456644e-004,
          9.90088229e-005, 6.90951565e-005, -5.85067573e-005,
          -1.37706433e-004, -7.58440365e-005, -8.81012820e-005,
          1.04390092e-005, 1.11840840e-004, 9.94108559e-005,
          4.47809725e-005, 3.56252749e-005, 2.11552469e-004,
          -1.50347159e-005, -1.51719272e-004, -1.52006527e-004,
          -2.38856126e-004, -2.38856126e-004, -2.09231861e-004,
          -1.47646497e-004, -1.00565936e-004, -1.00565936e-004,
          -4.41497541e-005, 1.19721590e-004, 1.71128631e-004,
          -1.06540865e-004, -2.66360003e-004, -2.38856126e-004,
          -2.06518846e-004, -2.11073624e-004, -2.09231861e-004,
          -1.47646497e-004, -9.66321313e-005, -7.12651672e-005,
          1.26410523e-004, 1.52361739e-004, -1.19041861e-005,
          -1.84448756e-004, -2.39433371e-004, -2.06518846e-004,
          -1.19309188e-004, -1.53725836e-004, -2.25690266e-004,
          -1.61947697e-004, -6.17459154e-005, 1.19946089e-004,
          1.59028947e-004, 1.02487284e-004, -3.85309031e-005,
          -2.55328603e-004, -1.78967151e-004, -1.19309188e-004,
          -2.27772089e-005, -1.28431740e-004, -2.10910715e-004,
          -1.98775408e-004, 4.65834710e-005, 1.78465518e-004,
          1.30690591e-004, 3.91707617e-005, -1.83259763e-004,
          -2.82530586e-004, -1.28431740e-004, -2.27772089e-005, 0.,
          -3.25388683e-005, -1.26537911e-004, -8.22554211e-005,
          -4.25385733e-005, 3.90052310e-006, 9.12211981e-005,
          -4.25008620e-005, -2.41553920e-004, -1.90986088e-004,
          -3.25388683e-005, 0., -7.85349475e-005, -7.85349475e-005,
          -1.38780364e-004, 2.66728930e-005, -1.19616372e-004,
