%YAML:1.0
my_svm: !!opencv-ml-svm
   svm_type: C_SVC
   kernel: { type:LINEAR }
   C: 1.
   term_criteria: { epsilon:2.2204460492503131e-016, iterations:300 }
   var_all: 120
   var_count: 120
   class_count: 12
   class_labels: !!opencv-matrix
      rows: 1
      cols: 12
      dt: i
      data: [ 0, 1, 2, 4, 5, 6, 7, 8, 10, 11, 12, 13 ]
   sv_total: 66
   support_vectors:
      - [ -9.31685427e-005, -2.56738684e-004, -7.90571910e-004,
          7.97596062e-004, -3.08607414e-004, -8.43503047e-004,
          -2.04959814e-003, -6.37506181e-003, -5.64304274e-003,
          -3.50630144e-004, -6.20820618e-004, -2.34317384e-004,
          1.28410198e-003, 2.84027570e-004, 1.98736248e-004,
          -4.14822047e-004, -1.43692421e-003, -2.33287792e-004,
          -1.44344091e-003, -3.51900002e-003, -9.79896169e-004,
          2.51044077e-003, 1.43615843e-003, 1.81663583e-003,
          -1.37771165e-003, -1.37382839e-003, -6.52893330e-004,
          -4.00228798e-003, -3.98735004e-003, 1.48435519e-003,
          2.86775385e-003, 2.95864325e-003, 1.40342279e-003,
          -8.21805661e-005, -8.11520498e-004, -4.57020040e-004,
          2.02700481e-004, 1.07469030e-004, -9.56308359e-005,
          7.66152807e-005, -9.41684586e-004, -6.23049054e-005,
          3.90827132e-004, 5.93507721e-004, 8.65021779e-004,
          -1.20475321e-004, 2.39920031e-004, 4.43509984e-004,
          -1.36131901e-004, -1.84892197e-004, -6.97483338e-005,
          6.82119571e-004, 2.24852614e-004, 1.71203224e-004,
          1.27021383e-004, 1.15985669e-004, 3.79117351e-004,
          -4.36412491e-004, -9.89123509e-005, 1.04677587e-004,
          -2.63153284e-004, -2.00073788e-004, -2.03520933e-004,
          4.84091666e-004, 9.54097912e-018, 9.54097912e-018,
          9.54097912e-018, -3.06547554e-006, 2.44125738e-004,
          -6.06963644e-004, -2.25933734e-004, 5.73037287e-005,
          2.44203897e-004, 9.63229613e-005, 4.87942852e-005,
          9.06550966e-004, 1.22010468e-004, -1.20288250e-003,
          -9.66553809e-004, 3.77686636e-004, 1.94964884e-003,
          -8.26019968e-004, 6.76488125e-005, 5.54407481e-004,
          -8.53843347e-004, -6.63465355e-004, -2.89356831e-004,
          6.24170934e-004, 6.54373434e-004, 1.42561167e-003,
          1.12269516e-003, -5.26086253e-004, -1.76569505e-003,
          -9.97226802e-004, -1.42542017e-003, -6.31228846e-004,
          1.03643816e-003, -2.23336232e-004, 4.41180047e-004,
          9.81386751e-004, -1.72575319e-003, -2.39802711e-003,
          -1.56029838e-003, -6.53034658e-004, 1.63825054e-003,
          7.25289341e-004, -1.55643967e-003, -8.31442503e-006,
          4.88613849e-004, 1.54632344e-005, -1.39144249e-003,
          -6.44262461e-003, -6.25746418e-003, -3.14138131e-003,
          -4.77050635e-005, 9.91545501e-004, 9.40625905e-004,
          -1.73439609e-003, 6.15182100e-004, 4.16403665e-004 ]
      - [ 1.73472348e-017, 1.28515123e-004, -3.02761298e-004,
          1.17842073e-003, 1.68145075e-003, -2.48046848e-003,
          1.55364687e-004, 1.09105499e-003, 1.16086472e-003,
          -2.83490517e-004, -3.64965084e-003, 1.14623492e-003,
          -1.39172567e-004, 5.35841158e-004, 1.04099826e-003,
          1.05956674e-003, 1.05956674e-003, 1.05956674e-003,
          1.08914892e-003, 1.14274467e-003, 9.71877540e-004,
          6.37215155e-004, 1.68830378e-003, 1.18971022e-003,
          7.20229698e-004, 2.54424475e-003, -2.67414143e-003,
          1.91591587e-003, 8.43296468e-004, -3.21297278e-003,
          -4.93137632e-004, 7.37023866e-003, 2.86752987e-003,
          8.04340641e-004, 2.66255083e-005, -5.94324141e-004,
          7.73413863e-004, 4.01016005e-004, -5.42265130e-004,
          -6.21400017e-004, -6.10544404e-004, -6.10544404e-004,
          2.38797293e-005, 1.36859249e-003, 1.06293557e-003,
          1.32463139e-003, 2.81964941e-003, 4.53147863e-004,
          1.75149660e-004, 6.46804983e-005, -9.61786209e-005,
          -6.05645997e-004, -5.98264218e-004, -5.98264218e-004,
          -3.13909433e-004, 3.67053528e-003, -7.02398029e-005,
          -4.57515300e-004, 1.94683939e-003, -3.74783907e-004,
          1.75149660e-004, 6.46804983e-005, -9.61786209e-005,
          -6.05645997e-004, -5.98264218e-004, -5.70967153e-004,
          1.37403992e-003, 2.70142313e-003, 6.13750482e-004,
          7.30001950e-004, -1.25222170e-004, -8.62983114e-004,
          7.73413863e-004, 4.74459666e-004, 4.16070048e-004,
          1.14318321e-003, 2.74052843e-003, 3.67534510e-003,
          -5.94043115e-004, -9.53013718e-004, 4.82044602e-003,
          9.14725126e-004, -3.03766748e-004, -3.32606316e-004,
          7.21670804e-004, -4.47565224e-003, 1.83411830e-004,
          -3.65939038e-003, -2.88939849e-003, 3.44525586e-004,
          5.04154572e-003, 2.22860556e-003, -1.14831305e-003,
          -1.01462880e-003, -3.43077496e-004, -2.36928870e-004,
          4.92010848e-004, 4.19492048e-004, 5.22905635e-003,
          7.71667715e-003, 5.64768957e-003, 2.15845229e-003,
          -1.07139966e-003, -1.14135258e-003, -1.05720875e-003,
          -5.35286905e-004, -1.82462463e-004, 1.73472348e-017,
          5.43763272e-005, 6.48642099e-003, 2.70068296e-003,
          -1.03884819e-003, -1.09158503e-003, -1.11664284e-003,
          -1.14657299e-003, -1.14831305e-003, -8.84170877e-004,
          -6.11761585e-004, -6.06314978e-004, -4.68087732e-004 ]
      - [ -3.92391058e-007, -2.34719479e-007, 3.01692198e-005,
          6.72716924e-005, 8.93707765e-005, 8.50815122e-005,
          4.49853214e-005, 1.03999169e-004, 1.28848566e-004,
          2.65486215e-005, 1.59002375e-004, 1.25679493e-004,
          8.67723793e-005, 1.70637082e-004, 1.32492889e-004,
          1.30093598e-004, 1.29657361e-004, 1.29657361e-004,
          1.29657361e-004, 1.29657361e-004, 1.24315644e-004,
          7.18583906e-005, 9.67548258e-005, -4.11410620e-005,
          2.27945085e-004, 4.43030840e-005, -1.75676323e-004,
          -7.17759103e-005, -7.29091407e-005, -9.34357013e-005,
          -1.32519941e-004, -9.81092671e-005, -3.14518147e-005,
          3.72634328e-004, 2.63716589e-004, -2.49683235e-005,
          1.77630820e-004, 6.27207797e-008, -2.47635908e-004,
          -5.06798606e-005, 5.64727907e-006, 4.72220709e-005,
          1.19642682e-004, 5.45143703e-005, 2.29106343e-004,
          6.91836525e-004, 3.11873155e-004, -8.39688582e-005,
          2.25982018e-004, 1.77650814e-004, 2.70577788e-004,
          4.83486539e-004, 4.54861729e-004, 4.65422781e-004,
          3.70785216e-004, 3.04614427e-004, 1.25183826e-004,
          6.41477585e-004, 3.57810291e-004, -2.48886772e-005,
          1.77630820e-004, 3.51338298e-004, 3.83835752e-004,
          4.74955101e-004, 2.80474487e-004, 1.90549923e-004,
          3.24084482e-004, 4.58371593e-004, 6.05408313e-005,
          7.07265863e-004, 9.55736032e-005, -8.93333490e-005,
          2.25982018e-004, 4.08626162e-004, 5.89870848e-004,
          7.31439621e-004, 6.05074631e-004, 4.06420673e-004,
          1.06510721e-004, -1.07399857e-004, 1.48825175e-005,
          6.68551133e-004, 2.80090113e-004, -4.09821478e-005,
          2.17187786e-004, 2.92256387e-004, 6.86569692e-005,
          1.19304350e-004, 7.35684953e-005, 1.51233180e-004,
          7.20614917e-005, 3.08808376e-004, 3.39473423e-004,
          3.31963820e-005, -4.09427012e-005, -2.99049625e-005,
          1.75709385e-004, 1.24417900e-004, 4.21045988e-004,
          5.05004835e-004, 2.99048028e-004, 9.13129843e-005,
          -9.88675311e-005, -1.29657361e-004, -1.21364130e-004,
          -6.86107815e-005, -3.24333487e-005, -8.50910965e-006,
          1.94498789e-004, -2.09179234e-006, -2.12623796e-004,
          -1.26522427e-004, -1.29657361e-004, -1.27343490e-004,
          -1.25029605e-004, -1.21148259e-004, -8.43012749e-005,
          -5.33520542e-005, -5.27091979e-005, -4.06925938e-005 ]
      - [ -1.06278721e-005, -6.51378787e-006, 5.02422554e-005,
          7.37699447e-005, 2.86987022e-004, 8.01101560e-005,
          2.40269001e-005, 1.40210454e-004, -2.00966155e-004,
          -5.46404743e-004, -2.52076803e-004, -1.82539879e-004,
          -1.49236032e-004, 5.32477861e-005, 9.17561774e-005,
          1.83296375e-004, -3.43731284e-004, -6.13343727e-004,
          -4.49150888e-004, -3.59750120e-004, 1.65327307e-004,
          6.42433633e-007, -4.23285164e-005, -3.18348611e-004,
          3.18894745e-005, 1.88353908e-004, 2.60029745e-004,
          2.01350515e-004, -3.27979302e-004, -3.56954522e-004,
          -3.13128636e-004, -5.44448339e-005, 1.40848220e-004,
          3.47697263e-004, 1.18218406e-004, -1.32102432e-004,
          3.98305187e-004, 2.96939950e-004, 2.25826720e-004,
          3.62928287e-004, -1.40017102e-004, -1.40017102e-004,
          -1.40017102e-004, 1.07332940e-004, 2.08699814e-004,
          2.76916864e-004, 3.37866775e-004, 2.36873617e-004,
          6.74268522e-004, 5.42546099e-004, 1.35797294e-004,
          3.70256574e-004, 1.63251083e-004, 1.39105076e-004,
          1.39105076e-004, 1.92226289e-004, 2.66412855e-004,
          1.48985870e-004, 5.58533007e-004, 5.12836967e-004,
          5.51145291e-004, 5.06457989e-004, 1.42846809e-004,
          3.93090100e-004, 9.91589841e-005, 1.70625535e-005,
          1.70625535e-005, 1.00219746e-004, 2.88947107e-004,
          1.71799489e-004, 4.83701850e-004, 3.89713765e-004,
          4.35064489e-004, 3.35854129e-004, 2.91846925e-004,
          3.60278180e-004, -6.05707974e-005, -1.42667224e-004,
          -1.42667224e-004, -6.05707974e-005, 2.05368051e-004,
          4.11738321e-004, 4.37058246e-004, 2.65352544e-004,
          -6.61862359e-005, 1.36212984e-005, 1.88585269e-004,
          3.03253444e-004, -1.23884689e-004, -3.12223565e-004,
          -3.12223565e-004, -1.52859910e-004, 1.89915823e-004,
          5.77753992e-004, 1.72402928e-004, -1.52240304e-004,
          -2.17297187e-004, -3.71479604e-004, -1.69063496e-004,
          3.09634546e-004, -5.37985397e-005, -3.13752593e-004,
          -3.62044637e-004, -1.76059839e-004, 3.35171819e-004,
          2.57575244e-004, -3.92673610e-005, -6.76983036e-005,
          -1.20356119e-004, -4.88897960e-004, -5.13540232e-004,
          -1.74041939e-004, -1.24233238e-005, -2.21193222e-005,
          -2.91322231e-005, 3.57906792e-005, 1.30582383e-004,
          2.01864081e-004, -1.16864330e-005, -2.49875779e-006 ]
      - [ -1.94190798e-005, -4.61136915e-006, 1.01795755e-004,
          1.79194176e-004, 1.39193391e-004, -1.38551650e-005,
          -1.72047352e-004, -2.45011674e-004, -2.48832803e-004,
          -2.57082283e-004, -1.44344522e-004, -1.53894754e-004,
          -1.39545718e-005, -8.01547576e-005, -1.60599840e-004,
          -2.37912056e-004, -1.67288148e-004, 5.42283160e-005,
          1.79854294e-004, 9.42626284e-005, -4.38684328e-005,
          -2.32896622e-004, -1.62046563e-004, -2.19883936e-004,
          -1.44739650e-004, -1.61574237e-004, -2.37372456e-004,
          -2.22969597e-004, -7.44805366e-005, 5.48525786e-005,
          2.03409625e-004, 2.04511249e-004, 2.05369666e-004,
          1.94511187e-004, 8.92349999e-005, -8.85819245e-005,
          -9.43790583e-005, -4.09494132e-005, -5.53559403e-005,
          1.18580690e-004, 2.04930126e-004, 2.62225774e-004,
          2.70909251e-004, 2.96223821e-004, 2.87807168e-004,
          1.94943161e-004, 1.05114377e-004, -4.63306860e-005,
          7.88845136e-006, 2.29752346e-004, 2.43897724e-004,
          3.75630829e-004, 4.15431190e-004, 4.11415298e-004,
          3.26769979e-004, 1.80524265e-004, 5.97951293e-005,
          -4.73160289e-005, -6.85410560e-005, -1.29782347e-004,
          -6.79337827e-005, 1.10206756e-005, 6.36612385e-005,
          3.44170054e-004, 4.26197628e-004, 4.12771216e-004,
          1.95217188e-004, 6.50174261e-005, 3.20608924e-005,
          -3.83075967e-005, -7.63564167e-005, -1.33397945e-004,
          -2.72886664e-005, 8.84593974e-005, 5.42779962e-005,
          1.69744890e-004, 1.95911110e-004, 2.81100918e-004,
          2.94970785e-004, 1.48236344e-004, 4.95104287e-005,
          -3.48689973e-005, -3.28343958e-005, -1.02370199e-004,
          2.67525844e-004, 2.70982942e-004, 1.76365822e-004,
          2.19200170e-004, 2.09731515e-004, 1.40186137e-004,
          9.95936498e-005, 6.83243634e-005, 7.09677624e-005,
          5.84326408e-005, 5.64654256e-005, -1.24833650e-005,
          -1.13438646e-005, 1.63577337e-004, 1.32474423e-004,
          1.60795593e-004, -4.99737644e-006, -1.38911928e-004,
          -1.93093249e-004, -1.85953686e-004, -1.64987170e-004,
          -1.00983132e-004, -7.46433307e-006, 2.81888661e-005,
          -1.26822895e-004, -5.34883620e-005, -7.08189473e-005,
          -2.25201438e-005, -9.86883424e-006, 1.83626853e-005,
          -7.97761822e-005, -8.17406544e-005, -6.01014071e-005,
          -2.33958235e-005, -1.90648661e-005, -1.47184719e-005 ]
      - [ 1.05715982e-004, 3.20030231e-004, 3.66764143e-004,
          3.18867445e-004, 4.48554310e-005, -2.74552323e-004,
          -3.54291318e-004, -4.97835805e-004, -4.54983092e-004,
          -4.56125708e-004, -2.36545486e-004, 1.22135505e-004,
          4.00710444e-004, 2.98002444e-004, 3.09550436e-004,
          2.34313935e-004, 1.48824358e-004, -5.34716455e-005,
          -3.90498870e-004, -5.00715338e-004, -4.53067594e-004,
          -3.10586271e-004, 1.57554823e-004, 1.05870044e-004,
          2.21995491e-004, 2.99159874e-004, 3.00955056e-004,
          2.96645041e-004, 2.31600177e-004, -4.27221858e-006,
          -4.45823061e-005, -2.25888616e-005, 2.11121456e-004,
          2.95906211e-004, 2.90984462e-004, 1.37187080e-005,
          -1.34451344e-004, 1.10832298e-004, 1.17874355e-004,
          2.34310748e-004, 1.96701760e-004, 1.35870199e-004,
          8.81474334e-005, 2.14807806e-004, 5.17624430e-004,
          2.20122500e-004, 1.76478818e-004, 5.95201936e-006,
          -2.62763380e-004, -1.64636658e-004, -9.33856063e-005,
          1.91492814e-004, 1.91492814e-004, 1.91492814e-004,
          2.22926668e-004, 3.43874679e-004, 4.79458889e-004,
          2.34610503e-004, 6.60962978e-005, -2.28526533e-005,
          -2.39910732e-004, -1.48897918e-004, -1.52434921e-004,
          -1.62630326e-019, -1.62630326e-019, -1.62630326e-019,
          3.50381451e-004, 3.60614300e-004, 3.78666504e-004,
          3.50222181e-005, -5.96153186e-005, -1.62630326e-019,
          -2.56408355e-004, -1.65395541e-004, -1.68932544e-004,
          -1.96592555e-005, -1.73095068e-005, 1.74097513e-004,
          1.35486465e-004, 2.90362688e-004, 2.61418783e-004,
          -1.36309609e-004, -7.04418853e-005, -1.64976191e-005,
          -2.47715303e-004, -1.56702503e-004, -1.84814722e-004,
          -9.21255269e-005, 1.00230165e-004, 1.40805088e-004,
          1.60814787e-004, 2.05522738e-004, -1.47784973e-004,
          -1.72716565e-004, -6.74198964e-005, -5.63664025e-006,
          -3.04844230e-004, -2.13831416e-004, -3.29281989e-004,
          1.16049514e-005, -1.18002834e-004, -4.45309524e-005,
          1.67905746e-004, 9.01485619e-005, -2.87491916e-004,
          -2.25469339e-004, -1.29741660e-004, -5.79960979e-005,
          -2.75953382e-004, -1.89577637e-004, -3.07372422e-004,
          -2.49529512e-005, -2.29675657e-004, 4.06890540e-005,
          3.77015931e-005, -2.04732933e-004, -1.58762879e-004,
          -9.68747336e-005, -4.58352224e-005, -3.60426529e-005 ]
      - [ -4.09290578e-006, -6.50919992e-006, -6.68546272e-006,
          1.09132052e-004, 1.22899975e-004, 3.56416887e-004,
          8.36149702e-005, -3.54425720e-004, -8.01807095e-004,
          -6.00421510e-004, 1.86747289e-004, 4.13457339e-004,
          -1.19339689e-004, -2.80365290e-004, -6.50285627e-004,
          -4.18978627e-004, -1.82628632e-004, 2.21595517e-004,
          2.26758450e-004, 1.11553913e-004, -4.99664966e-005,
          2.57531443e-004, 4.79216687e-004, -2.17129156e-004,
          -2.48678494e-004, -2.22898278e-004, -3.41868203e-004,
          -1.54736234e-004, -3.69259069e-004, -4.69857972e-004,
          -4.54305642e-004, -3.77505581e-004, 7.14992129e-005,
          3.21981963e-004, -2.42997412e-005, -1.72208078e-004,
          -2.87839212e-004, 1.95353961e-004, 1.63537436e-004,
          3.48146161e-004, 2.45103380e-004, -8.86117850e-005,
          1.26905870e-004, 3.18286329e-004, 2.17439738e-004,
          2.22896968e-004, -1.33874928e-004, -8.41582369e-005,
          1.13748116e-004, 2.49454868e-004, 1.91676168e-004,
          4.88773570e-004, 3.11108597e-004, 5.04602853e-004,
          6.14687568e-004, 4.27964318e-004, 3.97072494e-004,
          -3.61633793e-005, -1.42003191e-004, -7.51498810e-005,
          -2.56213913e-004, -1.75847803e-004, -2.48215249e-004,
          8.73165409e-005, 5.47290139e-004, 5.67868876e-004,
          9.02206957e-005, 3.45752749e-004, 1.50863765e-004,
          -1.65913938e-004, -1.51011540e-004, -8.41582369e-005,
          -2.10063256e-004, -2.85909307e-004, -1.06937296e-004,
          4.47086466e-004, 3.09303054e-004, -1.56176793e-005,
          1.95704648e-004, 3.88771849e-004, 1.54128484e-005,
          -1.06734129e-004, -8.28069387e-005, -2.43102950e-005,
          -1.85752971e-004, -1.50356849e-004, 7.00711025e-005,
          1.07286134e-004, -5.85665148e-005, 4.77244284e-005,
          3.36224446e-004, -1.19427496e-005, -1.05763495e-004,
          -9.34682030e-005, -6.68533103e-005, -5.42101086e-020,
          -6.34025491e-005, 1.91367071e-004, -3.95176088e-004,
          -3.06897855e-004, -1.76238857e-004, 1.51058746e-004,
          -2.81066241e-005, -2.65526614e-004, -2.68143805e-004,
          -2.59827939e-004, -1.41882978e-004, -5.29984536e-005,
          3.52475152e-004, -2.03722186e-004, -5.79217856e-004,
          -3.22437641e-004, -1.99524133e-004, 2.66909519e-005,
          -2.45882227e-004, -2.31263446e-004, -1.63699733e-004,
          -1.09882247e-004, -2.80612203e-005, -1.56181068e-005 ]
      - [ 4.60449985e-004, 1.42116012e-004, -1.75620808e-004,
          -2.86075461e-004, -3.16243153e-004, -3.41036008e-004,
          -3.46141343e-004, -3.46141343e-004, -3.50703602e-004,
          -4.16682888e-004, -3.59268917e-004, -3.58076009e-004,
          2.09576741e-004, 9.05067573e-005, -6.92980539e-005,
          -1.70266387e-004, -1.70266387e-004, -1.70266387e-004,
          -1.70266387e-004, -1.70266387e-004, -1.28117666e-004,
          -1.32319634e-004, -9.17488942e-005, -1.80075469e-004,
          2.15326174e-004, 1.39588461e-004, 9.20297753e-005,
          -4.17731553e-006, -4.31206763e-006, -4.31206763e-006,
          -3.68322458e-006, -1.93144706e-006, -6.13436578e-006,
          -9.89726905e-005, -7.94369698e-005, -1.74326036e-004,
          2.09576741e-004, 1.36444243e-004, 9.11763491e-005,
          -5.74942351e-006, -5.74942351e-006, -5.74942351e-006,
          -5.74942351e-006, -5.70450629e-006, -1.17041200e-005,
          -1.04677194e-004, -8.51863952e-005, -1.80075469e-004,
          2.15326174e-004, 1.46319187e-004, 1.39510114e-004,
          7.65916775e-005, 7.65916775e-005, 7.65916775e-005,
          7.65916775e-005, 6.33896707e-005, 2.10438466e-005,
          -8.62496963e-005, -7.89929181e-005, -1.74326036e-004,
          2.23038194e-004, 2.36793101e-004, 2.48008553e-004,
          2.14237210e-004, 2.84982816e-004, 2.78236548e-004,
          4.06004081e-004, 5.43920323e-004, 5.37962886e-004,
          3.48127971e-004, 2.34975218e-004, -8.62300221e-005,
          2.07548685e-004, 1.26768995e-004, 6.67223067e-005,
          -8.61672161e-005, -1.06661362e-004, -1.18881115e-004,
          -1.33187161e-004, 9.92277346e-005, 4.73451044e-004,
          4.41986544e-004, 5.14636515e-004, 4.05779399e-004,
          1.82596428e-004, 5.14736030e-006, -1.22939702e-004,
          -2.61947600e-004, -1.83192649e-004, -1.20022130e-004,
          -1.50153937e-004, 2.39414541e-004, 3.79535399e-004,
          3.01033258e-004, 2.19434311e-004, 8.64672529e-006,
          3.05273170e-005, -7.07197760e-005, -1.31520137e-004,
          -8.99637089e-005, 7.49837418e-005, 1.72612024e-004,
          3.89670240e-005, 3.44976543e-005, -1.60640164e-004,
          -2.59307155e-004, -1.45926024e-004, -3.55747688e-005,
          1.31257475e-004, 1.33766574e-004, 8.90788942e-005,
          -1.13932569e-004, -2.59971479e-004, -3.31595511e-004,
          -3.20309569e-004, -2.03790260e-004, -1.54689289e-004,
          -7.57841262e-005, -5.12620609e-005, -5.08050653e-005 ]
      - [ 3.40258470e-004, 2.34226725e-004, 9.27786241e-005,
          -1.92588795e-005, -1.77288006e-004, -2.12441199e-004,
          -2.20628935e-004, -2.20628935e-004, -2.11942504e-004,
          -2.16038257e-004, -2.09602600e-004, -2.01903953e-004,
          2.13543841e-004, 1.29663327e-004, -1.02959011e-005,
          -8.55055550e-005, -1.80324569e-004, -1.80324569e-004,
          -1.80324569e-004, -1.80324569e-004, -1.64172583e-004,
          -1.53571309e-004, -2.20448972e-004, -2.52506492e-004,
          1.84891280e-004, 1.27119230e-004, 3.44001091e-005,
          5.74303476e-006, -5.65422379e-005, -4.56579110e-005,
          -3.29530303e-005, 4.32099068e-006, 4.54981127e-005,
          4.90220955e-005, -1.01107426e-005, -4.49896907e-005,
          1.43908677e-004, 1.70930085e-004, 1.85200202e-004,
          1.82746327e-004, 1.68194703e-004, 1.90017163e-004,
          1.89319238e-004, 1.86672129e-004, 1.93700515e-004,
          1.96202003e-004, 1.42861434e-004, 6.50151778e-005,
          1.79775234e-004, 2.21865455e-004, 2.13466963e-004,
          2.17282650e-004, 1.25863400e-004, 9.56143704e-005,
          7.80504197e-005, 5.46318151e-005, 1.21893856e-004,
          1.31833280e-004, 1.75961148e-004, 1.73988185e-004,
          1.43908677e-004, 1.33937647e-004, 1.01553582e-004,
          5.75288577e-005, -3.58665566e-005, -3.58665566e-005,
          -2.90802000e-005, -1.25203023e-005, 1.10843932e-004,
          1.73666805e-004, 1.95713787e-004, 1.38121628e-004,
          1.69084728e-004, 1.96651570e-004, 2.16702174e-004,
          2.11024133e-004, 1.55276997e-004, 1.73797816e-004,
          1.89421931e-004, 1.72730099e-004, 1.87281723e-004,
          2.13345978e-004, 2.17071181e-004, 1.60203053e-004,
          7.53849454e-005, 3.81042410e-005, 8.36947147e-005,
          1.01203579e-004, 7.19303207e-005, 4.26570659e-005,
          2.31415615e-005, -1.40886932e-005, 1.61065327e-005,
          1.80304232e-006, 1.38736810e-004, 1.94895008e-004,
          -2.16790315e-004, -2.03816773e-004, -1.24390630e-004,
          -1.31023364e-004, -1.69235806e-004, -1.69235806e-004,
          -1.69235806e-004, -1.69235806e-004, -7.55537039e-005,
          4.58631257e-006, 1.80233299e-004, 3.64780281e-004,
          -1.68413753e-004, -2.13471460e-004, -2.21857059e-004,
          -1.89285231e-004, -1.90832536e-004, -1.90832536e-004,
          -1.76255038e-004, -1.01109232e-004, 1.93297619e-005,
          1.29427426e-004, 2.73166952e-004, 4.06768231e-004 ]
      - [ -1.20879286e-005, -1.50458291e-005, 1.36657647e-004,
          -2.38154716e-005, -2.07391698e-004, -2.87890958e-004,
          -3.04265239e-004, -1.81274052e-004, 1.58969298e-004,
          -1.20014454e-004, -1.69444451e-004, -1.85195473e-004,
          -6.95391354e-005, -1.47256651e-004, 6.34119715e-005,
          -1.53489062e-004, -2.80317414e-004, -3.17884784e-004,
          -3.19928426e-004, -1.76898568e-004, 1.72563261e-004,
          -1.48121369e-004, -2.92599725e-004, -3.19743034e-004,
          -1.00976169e-004, -1.36751172e-004, 8.44111200e-005,
          1.38992138e-004, -6.29119531e-005, -1.49647327e-004,
          -7.46836522e-005, 5.01615505e-005, 3.35878867e-004,
          1.05109291e-004, -1.50182404e-005, 8.17916316e-006,
          1.36870018e-004, 1.39248790e-004, 1.56600436e-004,
          3.76076816e-004, 2.96837155e-004, 2.16789762e-004,
          2.20377551e-004, 2.68681790e-004, 3.83452862e-004,
          2.59882363e-004, 2.14867396e-004, 1.85711513e-004,
          1.81098541e-004, 1.58563955e-004, 3.24227323e-004,
          2.95007194e-004, 2.25065422e-004, 1.59281059e-004,
          1.21504745e-004, 2.48206867e-004, 4.57444694e-004,
          9.30061069e-005, -4.50070147e-005, -1.21960104e-004,
          -4.36727241e-005, -2.93586600e-005, 2.14650965e-004,
          3.16169462e-004, 1.13229740e-004, 9.81035191e-006,
          1.78033897e-005, 1.47396306e-004, 4.67289268e-004,
          1.50051681e-004, 1.53666097e-005, -1.71500742e-005,
          1.28131331e-004, 1.35745460e-004, 1.93260043e-004,
          4.36132483e-004, 3.13127355e-004, 2.37530054e-004,
          2.83215748e-004, 2.75327533e-004, 3.42154177e-004,
          3.02123197e-004, 3.48214613e-004, 3.44401546e-004,
          2.47642281e-004, 1.67678707e-004, 1.51984874e-004,
          1.09317276e-004, 6.46110202e-005, -6.89284843e-006,
          -6.24706445e-005, 4.43267272e-005, 2.19073117e-004,
          -6.56615084e-005, -8.73889730e-005, -9.78790777e-005,
          -1.37805560e-004, -1.25488950e-004, 8.46887633e-006,
          3.25837245e-005, -1.69586128e-004, -2.87623814e-004,
          -2.89880933e-004, -1.52322871e-004, 1.86768433e-004,
          -1.20685092e-006, -7.47512895e-005, -1.04270985e-005,
          -1.94128734e-004, -2.67543190e-004, -1.01209444e-004,
          1.65291367e-005, -1.90657942e-004, -3.01569409e-004,
          -2.85952119e-004, -1.18035256e-004, 7.25209684e-005,
          1.92657645e-009, -7.72481726e-005, -7.13673144e-005 ]
      - [ 5.42101086e-020, 5.42101086e-020, -3.93806258e-005,
          -1.56090973e-004, -1.44418402e-004, 1.63706194e-004,
          2.35186613e-004, 4.15676877e-005, -1.53408706e-004,
          -3.02832428e-004, -1.07012747e-004, -1.09451510e-004,
          -1.14697381e-004, -2.31022015e-004, -4.16833936e-004,
          -2.79653788e-004, -1.28939917e-006, -2.96285598e-005,
          -4.10549110e-004, -3.50167014e-004, 1.64629164e-004,
          -3.12269403e-004, -2.22837043e-004, -2.98585335e-004,
          -1.98136666e-004, -3.09701863e-004, -4.62887605e-004,
          -2.10980477e-004, -6.14477976e-005, 5.72877943e-005,
          3.00860320e-005, 4.05531522e-004, 3.09677300e-004,
          -1.68788742e-004, -2.29928191e-004, -2.67678261e-004,
          -2.03193704e-004, -2.10208105e-004, -2.38552311e-004,
          1.45620725e-004, 4.89487837e-004, 4.97953733e-004,
          4.55491536e-004, 3.32451818e-005, -9.63374478e-005,
          -1.99564034e-004, -1.96300753e-004, -2.03170159e-004,
          1.10483226e-004, 3.52176285e-004, 3.10692121e-004,
          6.14957244e-004, 5.61261026e-004, 5.40189329e-004,
          5.29134413e-004, 2.16693064e-004, 2.35565531e-004,
          1.58306997e-004, 1.08061518e-004, -6.41533115e-005,
          4.58498631e-004, 5.99782565e-004, -6.07386710e-007,
          2.93239689e-004, 3.41923558e-004, 3.18305712e-004,
          3.61888349e-004, 5.02662850e-004, 2.78305029e-004,
          2.31340950e-004, 2.65442097e-004, 2.28946068e-004,
          2.95015343e-004, 1.81810872e-004, -1.62227472e-004,
          3.15689715e-004, 3.80421872e-004, 9.45936044e-005,
          1.05225554e-004, 3.30506446e-004, 1.54813170e-004,
          8.95095945e-006, 3.40380473e-004, 4.08101099e-004,
          -8.48321797e-005, -5.25392497e-005, -2.00746581e-004,
          6.99713564e-005, 7.49640894e-005, 9.55917858e-005,
          -9.46626024e-005, -1.18857402e-004, 3.19116487e-004,
          -7.83811411e-005, 9.33619594e-005, 2.16814697e-005,
          -2.39210392e-004, -2.08709898e-004, -2.57302163e-004,
          1.62280703e-004, 1.52251348e-004, 4.75662491e-005,
          -2.07185149e-004, -2.69937213e-004, -3.28344104e-005,
          -3.15185607e-004, -2.49174482e-004, -6.25151806e-005,
          -1.38554780e-004, -8.65517504e-005, -2.47827877e-004,
          -1.02062702e-004, -9.93997019e-005, 6.96743737e-005,
          -6.09736417e-005, 9.51712136e-005, -1.37318595e-004,
          -1.31872308e-004, -3.58743928e-005, -1.99750684e-005 ]
      - [ 2.71050543e-019, -4.24884201e-005, -1.08086628e-004,
          -3.32368727e-005, 4.82051109e-005, -8.18199405e-005,
          1.94396081e-004, 6.66070438e-004, 4.46923892e-004,
          8.94963614e-006, -4.70145460e-005, -3.23109671e-005,
          -3.66870081e-004, -2.03698612e-004, 1.79091236e-004,
          2.41343820e-004, 2.91269127e-004, 3.85690277e-004,
          6.06657122e-004, 1.13484298e-003, 6.31059287e-004,
          -4.84806573e-004, -5.70251024e-004, -6.23173721e-004,
          3.03769484e-004, 6.73612376e-005, 9.22777908e-005,
          2.61025416e-004, 2.24799282e-004, -9.65398867e-005,
          5.03064002e-005, 2.84020643e-004, 2.45028408e-004,
          1.77346432e-004, -2.47664830e-005, -2.15971770e-004,
          7.00785095e-005, -1.70632120e-004, -2.68298230e-004,
          -2.72696867e-004, -3.27532529e-004, -3.96197865e-004,
          1.51891954e-005, 4.45772544e-004, 1.73499648e-005,
          -4.61918535e-005, 4.18648706e-004, -1.25396633e-004,
          7.00785095e-005, -1.81731681e-004, -3.11253185e-004,
          -2.93393590e-004, -2.52116995e-004, -2.17717869e-004,
          1.78932132e-005, 6.95014664e-004, 4.13202324e-005,
          -1.64622703e-004, 2.17731111e-004, 3.62389226e-004,
          2.59467692e-004, -6.98613003e-005, -2.68468866e-004,
          -5.84761583e-005, 2.71050543e-019, 4.04130606e-006,
          3.60089325e-004, 8.30479432e-004, 5.75710903e-004,
          3.02227389e-004, 1.14115115e-004, 3.65994667e-004,
          2.59467692e-004, -6.72862952e-005, -2.69320386e-004,
          -2.07441954e-005, 8.08239274e-005, 3.79462290e-004,
          7.77348585e-004, 9.00220650e-004, 1.58466763e-004,
          -4.11258487e-004, 4.49703293e-005, -1.57024275e-004,
          2.28022807e-004, -1.18320437e-004, 1.21865378e-004,
          8.16818792e-004, 6.68133842e-004, 9.09367111e-004,
          5.65515307e-004, 2.45671079e-004, -1.62386161e-004,
          -3.58862017e-004, -2.19943744e-004, -1.85634854e-004,
          1.36067829e-004, 3.39865743e-004, 6.32389681e-004,
          1.04884768e-003, 8.90002062e-004, 6.48016925e-004,
          3.96054325e-004, -1.49586864e-004, -4.44855599e-004,
          -4.86738572e-004, -3.12166958e-004, -1.35820199e-004,
          2.66402290e-004, 1.55134272e-004, 8.28059565e-005,
          3.41483479e-004, 1.74990812e-004, -6.58852805e-005,
          -3.47692752e-004, -4.52138891e-004, -3.40081751e-004,
          -1.47783983e-004, -6.95812632e-005, -6.06048816e-005 ]
      - [ -6.87333750e-006, 7.47906370e-006, 1.31216666e-005,
          4.25126673e-005, 8.26653777e-005, 8.07161196e-005,
          1.08588727e-004, 2.51300342e-004, 3.09529307e-004,
          2.85803486e-004, 2.75749771e-004, 1.89304730e-004,
          1.27060732e-004, 1.39489552e-004, 2.23597744e-004,
          2.59932771e-004, 3.08170653e-004, 3.73938848e-004,
          4.20706172e-004, 3.83474195e-004, 1.56664100e-004,
          3.52690877e-005, 1.55156595e-005, -8.86700218e-005,
          2.60197732e-004, 2.70642122e-005, -6.46642075e-005,
          1.84161763e-005, -2.42812039e-005, -1.51217479e-004,
          -2.21279784e-004, -2.26663120e-004, -1.79544077e-004,
          9.86642481e-005, 1.23803387e-004, -6.73702107e-006,
          2.04534153e-004, -8.18299741e-005, -1.56999828e-004,
          -4.06462823e-005, -1.60137915e-005, 2.77902222e-006,
          5.40233741e-005, 5.87882460e-005, 1.49698360e-004,
          4.11268295e-004, 1.78924078e-004, -5.25020405e-005,
          2.04534153e-004, 7.12270366e-006, 1.40301243e-004,
          2.49716395e-004, 2.38136519e-004, 2.51413934e-004,
          1.94660126e-004, 1.62970508e-004, 1.36129238e-004,
          3.61553655e-004, 1.72425949e-004, -4.61789714e-005,
          2.60197732e-004, 1.74503759e-004, 2.50544050e-004,
          3.44066444e-004, 2.11425096e-004, 1.47260740e-004,
          2.31444588e-004, 3.23680841e-004, 1.74924164e-004,
          5.32146485e-004, 9.63553175e-005, -1.08547265e-005,
          2.41604677e-004, 1.74089539e-004, 3.46790039e-004,
          4.69397521e-004, 4.07645683e-004, 2.96810758e-004,
          1.47831612e-004, 6.19142520e-005, 1.10461835e-004,
          4.32139408e-004, 1.63601100e-004, -3.37444362e-005,
          2.60197732e-004, 1.58568626e-004, 1.18771255e-004,
          2.25509095e-004, 1.93657412e-004, 2.51518562e-004,
          1.57645234e-004, 2.71861994e-004, 2.74860387e-004,
          2.77874824e-005, -1.79639173e-005, -1.40946282e-018,
          2.23626543e-004, 1.53614994e-004, 4.21787088e-004,
          4.21191333e-004, 2.64941365e-004, 1.02343649e-004,
          -3.20185354e-005, -5.05830976e-005, -5.00042588e-005,
          -7.33126872e-005, -3.12557968e-005, -1.85930476e-005,
          2.61914858e-004, 1.61816588e-005, -1.20245037e-004,
          -4.47548919e-005, -5.19253517e-005, -5.63799367e-005,
          -6.27858826e-005, -5.87802861e-005, -3.99556084e-005,
          -1.24457056e-005, -1.40946282e-018, -1.40946282e-018 ]
      - [ -1.35525272e-019, 2.70626219e-006, 3.82549915e-005,
          9.21797691e-005, 2.98722909e-004, 1.08997425e-004,
          1.12168018e-004, 3.28804046e-004, 8.31163634e-005,
          -2.61687033e-004, -2.51835299e-004, -2.72048084e-004,
          -2.40010049e-004, -4.90929269e-005, 1.44397287e-004,
          2.52085913e-004, -1.79368522e-004, -3.63769504e-004,
          -2.25390162e-004, -1.15145209e-004, 3.34712822e-004,
          -2.55614159e-005, -2.20283633e-004, -5.11408376e-004,
          1.42552279e-004, 2.80456676e-004, 2.97993713e-004,
          1.73705994e-004, -2.46290001e-004, -4.04940220e-004,
          -3.97277152e-004, -2.58927146e-004, 6.66663618e-006,
          3.12587887e-004, 2.35784988e-004, 4.30867658e-005,
          2.76126753e-004, 2.46177922e-004, 2.35160231e-004,
          2.13155232e-004, -1.86213816e-004, -1.94791632e-004,
          -1.64725658e-004, -1.35940400e-005, 1.45303027e-004,
          1.99768358e-004, 3.08303133e-004, 2.19700843e-004,
          5.15882159e-004, 4.75623849e-004, 2.00743772e-004,
          2.99409498e-004, 1.40586359e-004, 1.27626467e-004,
          1.27626467e-004, 1.56138209e-004, 2.52213766e-004,
          1.24666098e-004, 4.99546411e-004, 4.59456234e-004,
          5.50251803e-004, 5.11518738e-004, 2.33807441e-004,
          4.11538407e-004, 2.06059718e-004, 1.61996126e-004,
          1.61996126e-004, 2.06059718e-004, 3.64342704e-004,
          2.36795022e-004, 5.59835811e-004, 4.83643234e-004,
          2.74593534e-004, 2.73158366e-004, 3.25282861e-004,
          2.53714388e-004, -9.13645563e-005, -1.54714100e-004,
          -1.80375966e-004, -1.43417303e-004, 9.90551489e-005,
          2.87722272e-004, 3.55995435e-004, 2.03954361e-004,
          -1.04933373e-004, 6.69475558e-005, 2.37997912e-004,
          1.50394859e-004, -2.26303644e-004, -2.93513644e-004,
          -2.44918803e-004, -1.19287579e-004, 1.88811711e-004,
          5.13621373e-004, 2.14460015e-004, -8.18971021e-005,
          -3.40801373e-004, -3.53295618e-004, -9.39230176e-006,
          3.02218657e-004, 5.54630860e-005, -9.79048200e-005,
          -1.50433960e-004, -1.16408686e-004, 2.71181110e-004,
          1.58442723e-004, -5.93910263e-005, -8.80289808e-005,
          -2.28769670e-004, -4.06972045e-004, -2.55521503e-004,
          -2.80836139e-005, 4.94332926e-005, -9.11082589e-006,
          -5.51918492e-005, 2.37108252e-005, 8.97507198e-005,
          1.68695959e-004, -7.29010708e-007, -1.35525272e-019 ]
      - [ 5.33630757e-020, 3.71994042e-006, 7.31957407e-005,
          1.46150618e-004, 1.61521064e-004, -5.69614649e-008,
          -1.37982919e-004, -1.72232190e-004, -1.60502561e-004,
          -1.93470871e-004, -6.29516217e-005, -8.97385253e-005,
          -5.97523540e-005, -8.16947068e-005, -1.17050273e-004,
          -2.19060908e-004, -1.93889529e-004, 2.91523447e-005,
          2.47615506e-004, 2.53958511e-004, 6.46924746e-005,
          -2.21028167e-004, -1.09837354e-004, -1.43553596e-004,
          -1.00942489e-004, -1.19296179e-004, -2.06291588e-004,
          -1.18443852e-004, 3.86085776e-005, 7.42412449e-005,
          1.81815209e-004, 1.78768591e-004, 1.68281607e-004,
          1.96041947e-004, 7.15737333e-005, -5.39690955e-005,
          -4.16524927e-005, -2.65351973e-005, -7.55615110e-005,
          1.58715775e-004, 2.27464945e-004, 2.34026113e-004,
          2.17745517e-004, 2.71585071e-004, 2.61770183e-004,
          1.62788157e-004, 9.28413865e-005, 9.94664424e-006,
          -4.69807947e-006, 2.43351475e-004, 1.89936138e-004,
          3.24249908e-004, 3.63331666e-004, 3.82451079e-004,
          3.30881361e-004, 1.80930641e-004, 7.02277903e-005,
          -4.83672884e-005, -6.66387568e-005, -8.16737884e-005,
          -2.50369612e-005, 1.60251802e-005, 1.95445027e-005,
          3.37258709e-004, 4.14669892e-004, 3.81495716e-004,
          1.83882934e-004, 6.02487526e-005, 3.13737000e-005,
          -3.79858102e-005, -6.00397980e-005, -6.97966607e-005,
          7.14894704e-005, 1.46611084e-004, 3.17343292e-005,
          1.96187888e-004, 2.77854298e-004, 3.42842919e-004,
          3.42708459e-004, 1.86786769e-004, 6.97064388e-005,
          -4.14607784e-005, -2.78120751e-005, -5.53160244e-005,
          3.00290150e-004, 2.97580962e-004, 1.25406572e-004,
          2.16515313e-004, 2.24228730e-004, 1.78857823e-004,
          1.94008753e-004, 1.99097718e-004, 2.08322599e-004,
          1.33424561e-004, 4.93648731e-005, -3.14888457e-005,
          6.65429179e-005, 2.51304824e-004, 1.50768697e-004,
          2.10638347e-004, 5.37520245e-005, 6.43611747e-006,
          -2.48166525e-005, -6.40426297e-005, -9.38799058e-005,
          -7.85583397e-005, 6.17748665e-005, 6.46123299e-005,
          -5.27449920e-005, 6.97327141e-006, -6.74994153e-005,
          2.19736958e-005, 4.35375114e-005, 2.42131391e-005,
          -8.41347064e-005, -1.09128610e-004, -7.58276292e-005,
          -2.25216154e-005, -5.86355497e-007, 5.33630757e-020 ]
      - [ 1.28358937e-004, 3.45851382e-004, 3.93723109e-004,
          2.35820218e-004, -9.97336538e-005, -4.18384618e-004,
          -2.95808160e-004, -2.54415965e-004, -2.32114297e-004,
          -3.13233264e-004, -9.54701754e-005, 9.44472267e-005,
          4.12576366e-004, 3.23565211e-004, 3.35444871e-004,
          2.81099812e-004, 2.60944391e-004, 5.44091345e-005,
          -1.63270874e-004, -1.45265119e-004, -1.98110545e-004,
          -2.21600625e-004, 2.96393817e-004, 9.81700650e-005,
          2.34571460e-004, 3.51751311e-004, 4.10240929e-004,
          5.22285409e-004, 4.75339330e-004, 2.75922157e-005,
          -8.48136333e-005, -7.76921661e-005, 1.42519784e-004,
          2.53454869e-004, 3.50520015e-004, 3.58716788e-005,
          -1.45971411e-004, 7.49152969e-005, 1.44720441e-004,
          3.29819159e-004, 2.77553656e-004, 1.35616647e-004,
          5.94532430e-005, 1.87051890e-004, 5.45582850e-004,
          2.52437749e-004, 2.16488756e-004, -1.03038074e-005,
          -2.83898989e-004, -2.46083451e-004, -1.88754871e-004,
          1.02042875e-004, 1.46723614e-004, 1.75386740e-004,
          2.49496545e-004, 3.88259476e-004, 4.81470488e-004,
          1.98056092e-004, 1.16271738e-004, -3.97620934e-005,
          -2.49328528e-004, -2.27025375e-004, -2.56415078e-004,
          -5.90123018e-005, 3.25260652e-019, 3.25260652e-019,
          3.94422968e-004, 3.58914112e-004, 3.50945862e-004,
          3.45695917e-005, -4.86588306e-006, -5.19163268e-006,
          -2.49328528e-004, -2.27025375e-004, -2.56924046e-004,
          -6.06206886e-005, 3.09979951e-005, 2.95130274e-004,
          2.04323689e-004, 3.02222761e-004, 2.58091750e-004,
          -1.19913369e-004, -5.06947663e-006, -5.19163268e-006,
          -2.50000390e-004, -2.30384656e-004, -2.64108705e-004,
          -7.95745436e-005, 2.27256445e-004, 2.28556935e-004,
          1.89631930e-004, 2.62455025e-004, -4.30626242e-005,
          -1.55392510e-004, -5.00839860e-006, -3.64432253e-006,
          -3.20061226e-004, -2.98409548e-004, -3.68019828e-004,
          1.04895887e-004, 4.23177989e-005, 8.05707095e-005,
          2.83278932e-004, 2.34347084e-004, -1.33167705e-004,
          -1.58955401e-004, -7.04680206e-005, -6.77602220e-005,
          -2.53756240e-004, -2.32817139e-004, -3.44730332e-004,
          1.21515659e-004, -5.06920915e-005, 1.78395218e-004,
          1.33260270e-004, -1.13887974e-004, -8.83959801e-005,
          -2.03747713e-005, -2.08637402e-006, -2.06601476e-006 ]
      - [ -6.61413924e-006, -3.56145938e-005, -3.62797982e-005,
          3.84928862e-005, 1.20626784e-004, 3.67383211e-004,
          2.90700787e-004, 2.57642605e-005, -3.50398972e-004,
          -2.97951046e-004, 2.94101977e-004, 2.69710203e-004,
          -3.54543969e-004, -4.71543113e-004, -6.08230184e-004,
          -3.29201430e-004, -4.02531668e-006, 3.89748340e-004,
          4.82501491e-004, 3.96974821e-004, 1.22250363e-004,
          1.10854678e-004, 4.20396449e-004, -2.84235459e-004,
          -2.91765085e-004, -2.42299706e-004, -2.27457189e-004,
          -3.42547391e-005, -2.31429163e-004, -5.33769547e-004,
          -5.79659420e-004, -5.20368980e-004, -4.73302098e-005,
          2.87641276e-004, 6.72209499e-005, -9.66731241e-005,
          -2.55163613e-004, 2.74904363e-004, 3.03634850e-004,
          4.13879025e-004, 1.71054926e-004, -2.00931157e-004,
          2.47669686e-005, 2.70379911e-004, 2.18188594e-004,
          1.93001062e-004, -1.59339674e-004, -1.27848994e-004,
          1.37651979e-004, 2.55474268e-004, 2.52217462e-004,
          5.50216238e-004, 2.50913290e-004, 5.03044808e-004,
          6.42285915e-004, 4.44372010e-004, 4.19657561e-004,
          -7.59940376e-005, -1.62336990e-004, -1.01526828e-004,
          -2.06612647e-004, -1.47366110e-004, -2.06840370e-004,
          2.19930211e-004, 5.93148870e-004, 6.30790659e-004,
          1.37593350e-004, 3.97907163e-004, 2.42932787e-004,
          -1.12404181e-004, -7.72807325e-005, -1.64705762e-005,
          -2.06612647e-004, -2.54172774e-004, -6.04073466e-005,
          5.23383555e-004, 3.36120545e-004, 1.70044314e-005,
          1.68232145e-004, 3.70005000e-004, -6.71739190e-006,
          -1.19429991e-004, -7.77619498e-005, -1.64705762e-005,
          -2.08200683e-004, -1.55497808e-004, 8.35678729e-005,
          1.82182368e-004, -6.25843750e-005, -2.44985731e-005,
          2.86366179e-004, -3.60081613e-005, -6.68215289e-005,
          -1.59540301e-004, -9.09227601e-005, -2.48833403e-005,
          -1.40778066e-004, 1.04115847e-004, -3.86479020e-004,
          -1.81073076e-004, -1.25588325e-004, 2.60232220e-004,
          1.25615959e-004, -8.96689889e-005, -1.10807152e-004,
          -1.86229139e-004, -1.50812193e-004, -1.31394991e-004,
          2.78435560e-004, -2.12796571e-004, -5.25262731e-004,
          -1.56731316e-004, -1.22805766e-004, 1.43652011e-004,
          -1.31332388e-004, -1.69514984e-004, -1.39336218e-004,
          -7.16098657e-005, -2.16458666e-005, -4.18514628e-006 ]
      - [ 6.19395520e-004, 2.84511101e-004, -1.03663762e-004,
          -2.43502844e-004, -2.48685508e-004, -2.27552417e-004,
          -1.20243800e-004, -9.26009452e-005, -9.26009452e-005,
          -2.80192355e-004, -2.58993910e-004, -3.16698104e-004,
          3.25945410e-004, 6.29488277e-005, -5.29438221e-005,
          -4.23260426e-005, -2.84062844e-005, -5.07325567e-005,
          -6.61728991e-005, -1.06852516e-004, -1.46209364e-004,
          -4.17961099e-004, -3.28720926e-004, -1.89171740e-004,
          2.17723878e-004, 1.10619105e-004, -3.05804242e-005,
          -1.26397266e-004, -1.27942461e-004, -1.06151841e-004,
          -2.00143113e-004, -2.27584911e-004, -1.17144678e-004,
          -2.40859459e-004, -7.90763152e-005, -7.04356789e-005,
          2.18160392e-004, 1.21716461e-004, 2.71165864e-005,
          -7.42995599e-006, -1.20041364e-006, 0., 0., 0., 0.,
          -2.02890573e-004, -7.62462005e-005, -7.04356789e-005,
          2.18160392e-004, 1.40578850e-004, 7.77333044e-005,
          4.33109672e-005, 6.23762171e-005, 6.23762171e-005,
          6.23762171e-005, 5.40319052e-005, 3.33697935e-005,
          -1.90058010e-004, -7.62462005e-005, -7.04356789e-005,
          2.26107353e-004, 2.21584851e-004, 2.06378740e-004,
          1.96798792e-004, 2.75504135e-004, 2.71719560e-004,
          3.52688949e-004, 4.92231571e-004, 5.13685751e-004,
          2.23543160e-004, 2.25533542e-004, 4.66969504e-006,
          1.34923219e-004, 7.80063565e-005, 3.36131598e-005,
          -8.58928470e-005, -1.03561833e-004, -1.06470834e-004,
          -1.14002571e-004, 7.33031557e-005, 5.32730541e-004,
          4.08925291e-004, 5.01257658e-004, 3.92517686e-004,
          2.09011152e-004, 9.08313232e-005, -1.82056629e-005,
          -7.33716079e-005, -4.33120804e-005, -9.83129576e-006,
          9.99677241e-007, 3.67787521e-004, 5.52995072e-004,
          3.83375620e-004, 3.22179461e-004, 8.30785430e-005,
          8.05149321e-005, -5.28736427e-006, -5.32612103e-005,
          -4.46807826e-005, 1.05596395e-004, 2.28343357e-004,
          1.94222288e-004, 1.81085430e-004, -2.25512467e-005,
          -2.49899982e-004, -1.38535368e-004, -9.70515102e-005,
          1.54783454e-004, 1.59360105e-004, 1.53443791e-004,
          -5.94105541e-006, -1.30996341e-004, -1.60637414e-004,
          -2.35492189e-004, -2.24729738e-004, -1.58266892e-004,
          -6.11928990e-005, -4.26317854e-007, 0. ]
      - [ 3.78236698e-004, 2.80787150e-004, 1.21431374e-004,
          -1.94691620e-005, -1.75996262e-004, -1.91633473e-004,
          -1.14126946e-004, -6.13850862e-005, -5.50768818e-005,
          -8.52274243e-005, -1.56363792e-004, -2.40903653e-004,
          2.49119184e-004, 1.57538569e-004, 5.34909032e-006,
          -5.21390248e-005, -1.29110413e-004, -1.18790624e-004,
          -8.44713286e-005, -6.73456379e-005, -8.46076582e-005,
          -1.78105096e-004, -2.53129168e-004, -2.59611872e-004,
          2.09215403e-004, 1.58310941e-004, 6.71041562e-005,
          3.31974661e-005, -3.12445445e-005, -6.01663451e-005,
          -7.19320306e-005, -5.88219264e-005, -2.29791294e-005,
          -2.85630517e-006, -1.84819019e-005, -1.61888820e-005,
          1.74300745e-004, 2.20374044e-004, 2.16786910e-004,
          2.33321392e-004, 2.06203549e-004, 2.15735301e-004,
          2.22339411e-004, 2.40113062e-004, 2.67398020e-004,
          2.27714700e-004, 1.60814205e-004, 9.37366567e-005,
          1.74300745e-004, 2.53694277e-004, 2.21737821e-004,
          2.06906188e-004, 1.10485496e-004, 8.35606843e-005,
          6.88119326e-005, 4.51459164e-005, 1.17664102e-004,
          9.79105243e-005, 1.40689051e-004, 1.55456481e-004,
          1.90874649e-004, 1.86902704e-004, 1.05336672e-004,
          9.13984768e-005, -6.77626358e-020, -6.77626358e-020,
          7.88867146e-006, 3.15546858e-005, 1.61023665e-004,
          1.96329391e-004, 2.13469742e-004, 1.72030384e-004,
          1.69855979e-004, 2.28007324e-004, 2.25512806e-004,
          2.23444542e-004, 1.87993995e-004, 2.05834629e-004,
          2.11538034e-004, 2.20290036e-004, 2.42318041e-004,
          2.36165390e-004, 2.16321379e-004, 1.51011714e-004,
          1.04852094e-004, 9.22017498e-005, 6.92701942e-005,
          7.98992405e-005, 5.62373971e-005, 5.42951893e-005,
          5.96118662e-005, 3.85930907e-005, 8.64255562e-005,
          6.01305001e-005, 1.49163898e-004, 2.10438637e-004,
          -2.02518480e-004, -1.96526773e-004, -1.01602658e-004,
          -7.88069592e-005, -8.08948462e-005, -7.07690851e-005,
          -9.64068022e-005, -1.43754805e-004, -6.68251014e-005,
          -2.68192671e-005, 1.59105970e-004, 3.57442506e-004,
          -1.91629442e-004, -1.97172660e-004, -1.64544545e-004,
          -1.23912643e-004, -1.29024033e-004, -1.45763857e-004,
          -1.56859882e-004, -1.49937201e-004, -1.34233669e-005,
          1.10765526e-004, 2.86863506e-004, 4.17318719e-004 ]
      - [ 1.62630326e-019, 1.62630326e-019, 1.47201761e-004,
          -4.64091818e-006, -1.28814921e-004, -1.94643755e-004,
          -2.00565293e-004, -5.77970059e-005, 2.66931514e-004,
          -1.26773492e-004, -1.23601480e-004, -1.31519075e-004,
          -7.05705461e-005, -7.74855071e-005, 1.53445348e-004,
          -1.04569677e-004, -2.27066048e-004, -2.29576413e-004,
          -1.75937617e-004, 1.29920609e-005, 2.74387130e-004,
          -1.78786446e-004, -2.05318516e-004, -2.08482874e-004,
          -7.71759587e-005, -9.08040529e-005, 1.00684323e-004,
          1.59843650e-004, -1.16028268e-005, -1.52003326e-004,
          -1.30574888e-004, -1.54207519e-005, 2.74024205e-004,
          7.88492471e-005, -1.45005342e-005, 8.77735511e-006,
          2.50393408e-004, 2.64297210e-004, 1.76626694e-004,
          4.29609267e-004, 3.44586442e-004, 2.32016988e-004,
          2.16002081e-004, 2.98913423e-004, 4.35886439e-004,
          2.85283662e-004, 2.23789000e-004, 2.31084545e-004,
          2.66549585e-004, 2.32226768e-004, 2.73291022e-004,
          2.20913091e-004, 1.62894008e-004, 1.52207576e-004,
          1.37016425e-004, 2.60845525e-004, 4.40848060e-004,
          3.92383809e-005, -7.75535300e-005, -9.60382240e-005,
          4.92304098e-005, 3.87823166e-005, 1.45569895e-004,
          2.52168393e-004, 7.68383834e-005, 9.94528136e-007,
          1.25345605e-005, 1.42918492e-004, 4.48706298e-004,
          1.07908039e-004, -1.93169562e-005, -1.55069745e-006,
          1.70932879e-004, 1.60484778e-004, 1.17332034e-004,
          3.80777463e-004, 3.27174261e-004, 2.75393366e-004,
          3.17001337e-004, 3.38428916e-004, 4.20378055e-004,
          3.18590231e-004, 2.95081118e-004, 3.06300295e-004,
          3.26835492e-004, 2.51701713e-004, 1.18203883e-004,
          1.18215627e-004, 9.65484505e-005, 8.13171646e-005,
          6.75841438e-005, 2.03020303e-004, 3.62974533e-004,
          2.70619535e-006, -8.37043699e-005, -6.97098512e-005,
          -1.23896489e-005, -4.13261805e-005, 5.37005071e-005,
          9.54480347e-005, -3.18886268e-005, -9.58611854e-005,
          -1.24691956e-004, -5.43821152e-005, 2.05028016e-004,
          -7.77641908e-005, -1.22911413e-004, -5.22357841e-005,
          -8.88841678e-005, -1.34654751e-004, -4.17699521e-005,
          7.65230870e-005, -1.19140139e-004, -2.24155272e-004,
          -2.32228776e-004, -1.39845783e-004, 6.04437009e-005,
          5.41820737e-006, -2.13425919e-005, -1.85874414e-005 ]
      - [ -5.42101086e-020, -8.91752961e-007, -3.85045132e-005,
          -1.18879143e-004, -1.16503368e-004, 1.52923458e-004,
          3.20824969e-004, 1.95850444e-004, -6.04141587e-006,
          -3.66952096e-004, -1.26980638e-004, -1.56730152e-004,
          -1.39162716e-004, -1.93101005e-004, -2.68231990e-004,
          -2.82553519e-004, 3.61859056e-005, 1.16246392e-005,
          -2.43559974e-004, -1.14186378e-005, 4.14067501e-004,
          -4.11790708e-004, -2.60322005e-004, -2.74493534e-004,
          -2.20999471e-004, -2.76200590e-004, -3.68793902e-004,
          -1.11337824e-004, 1.68002240e-004, 6.36909363e-006,
          -5.84010486e-005, 2.63385242e-004, 1.00798228e-004,
          -3.83124512e-004, -2.88646697e-004, -2.53433362e-004,
          -1.10680325e-004, -1.09143039e-004, -1.66131591e-004,
          1.82434320e-004, 4.62009542e-004, 4.14683484e-004,
          3.11260519e-004, -5.31885271e-005, -8.92641838e-005,
          -2.02466705e-004, -1.35150141e-004, -1.13139147e-004,
          1.02042468e-004, 3.60733422e-004, 3.17756057e-004,
          5.30946010e-004, 4.62130643e-004, 4.95858782e-004,
          4.85275610e-004, 2.25856958e-004, 2.35444924e-004,
          3.70127927e-005, 5.93039877e-005, -5.55776423e-005,
          5.32602251e-004, 6.76707248e-004, 9.96836934e-006,
          2.91280827e-004, 3.59057361e-004, 4.63095552e-004,
          4.78410424e-004, 5.92094904e-004, 3.96587304e-004,
          2.33819985e-004, 3.10793170e-004, 3.12704040e-004,
          2.91732053e-004, 1.90365667e-004, -1.89932180e-004,
          2.46104697e-004, 3.35781544e-004, 1.33257185e-004,
          1.49652318e-004, 2.68278643e-004, 1.56490278e-004,
          -4.84444936e-005, 3.03257519e-004, 3.92831047e-004,
          -8.72383171e-005, -5.01242248e-005, -2.33414670e-004,
          3.64460575e-005, 3.83765582e-005, 5.14873827e-005,
          -6.14342716e-005, -5.94785524e-005, 2.79136992e-004,
          -8.31767684e-005, 1.71247113e-004, 6.52331073e-005,
          -2.25639029e-004, -1.85340352e-004, -2.72498350e-004,
          7.39474272e-005, 1.93055894e-004, 1.86211008e-004,
          -8.33332797e-006, 1.48446061e-005, 7.17569419e-005,
          -2.61983834e-004, -1.85895697e-004, -8.05012969e-005,
          -1.30581931e-004, -7.09034866e-005, -2.89410673e-004,
          -1.09757229e-005, 8.22050933e-005, 2.07616613e-004,
          6.41996940e-006, 1.05595056e-004, -1.33089212e-004,
          -5.56765335e-005, -3.80668922e-007, -5.42101086e-020 ]
      - [ -1.46438438e-007, 1.97254230e-005, -1.64293658e-006,
          -4.71526946e-005, 1.82296462e-005, 3.42659689e-007,
          -5.22384944e-005, -1.22903093e-005, 3.07711707e-005,
          4.34611247e-005, 1.77817099e-004, 2.49655393e-004,
          1.18925367e-004, 1.14741029e-004, 2.79493197e-005,
          2.07203084e-005, 2.07203084e-005, 2.07203084e-005,
          1.30822345e-005, 1.05632944e-006, 1.51136373e-005,
          2.83059981e-005, 3.92786642e-005, -1.00166697e-004,
          7.71741907e-005, -3.96047471e-005, -4.32466943e-004,
          -4.70980071e-004, -4.78553062e-004, -4.52269422e-004,
          -5.02584619e-004, -6.10834220e-004, -5.10095677e-004,
          4.36082737e-005, 1.86798366e-004, 4.61582613e-006,
          9.93884314e-005, 1.34055939e-004, -1.26847706e-004,
          -2.29011439e-005, 4.54882029e-005, 1.21274024e-004,
          1.81895070e-004, -7.14141934e-005, -8.51392324e-005,
          4.57478018e-004, 2.20880629e-005, -1.41954646e-004,
          9.66133666e-005, 3.28122987e-004, 5.60978311e-004,
          6.08730013e-004, 5.31992526e-004, 5.00223774e-004,
          3.51969094e-004, 2.17221794e-004, -3.39767321e-005,
          2.56609346e-004, -1.51113098e-004, -1.65569130e-004,
          1.04938546e-004, 5.11647668e-004, 5.50780154e-004,
          5.34294872e-004, 3.69192916e-004, 3.10173491e-004,
          3.86593339e-004, 3.95128503e-004, -2.70115706e-004,
          3.30972951e-004, -1.96562381e-004, -1.73299806e-004,
          1.04938546e-004, 5.53201360e-004, 8.11182021e-004,
          7.17164017e-004, 4.78766859e-004, 5.90332893e-005,
          -4.20860189e-004, -5.79841319e-004, -3.18287086e-004,
          5.23256662e-004, 5.13972300e-005, -8.82531676e-005,
          1.04938546e-004, 3.06469796e-004, -2.99000123e-004,
          -4.23553312e-004, -3.88731452e-004, -1.94674183e-004,
          -1.14695118e-004, 1.62228593e-004, 2.30337886e-004,
          7.69983899e-007, -1.75095392e-005, -2.16840434e-019,
          9.86005689e-005, 7.43711062e-005, 1.55359041e-004,
          1.79944414e-004, 1.34597198e-004, 1.90991177e-005,
          -6.31195726e-005, -1.94900822e-005, -1.67273738e-005,
          -2.61365221e-006, -2.16840434e-019, -2.16840434e-019,
          9.27269066e-005, 9.55159994e-005, -1.47630097e-004,
          -1.24711310e-004, -2.21966948e-005, -1.06445505e-005,
          -2.35642733e-006, -2.16840434e-019, -2.16840434e-019,
          -2.16840434e-019, -2.16840434e-019, -2.16840434e-019 ]
      - [ -1.08420217e-019, -6.85177520e-006, 2.74163704e-005,
          5.21508373e-005, 2.12182218e-004, 1.18800664e-004,
          9.19353988e-005, -8.25441603e-005, -1.85524143e-004,
          -2.16863555e-004, -2.06493554e-004, -1.46315273e-004,
          -1.97019748e-004, -7.87999015e-005, 1.20927260e-004,
          8.29169585e-005, -1.63407210e-004, -3.42372601e-004,
          -1.64032288e-004, -2.78867228e-004, -1.66668033e-004,
          2.88498286e-005, -8.32856094e-005, -2.26002026e-004,
          -8.69132273e-005, 1.35588634e-004, 1.16077492e-004,
          -3.49879047e-005, -2.90370459e-004, -3.74378316e-004,
          -3.25431465e-004, -2.53595150e-004, -1.25038729e-004,
          2.67539344e-005, 1.19929573e-004, 1.45405575e-004,
          1.29757726e-004, 2.97582214e-004, 2.25328404e-004,
          2.70960183e-004, 1.17878217e-005, -1.03743241e-005,
          -7.65471668e-006, -7.38673771e-005, 1.31941750e-004,
          2.21240174e-004, 3.26824156e-005, 1.83629963e-004,
          3.06451955e-004, 4.21533652e-004, 2.14139392e-004,
          2.91847973e-004, 2.14356463e-004, 1.91888743e-004,
          1.85949699e-004, -2.25403596e-006, 1.50017033e-004,
          1.38339718e-004, 3.21940461e-004, 2.19022026e-004,
          2.04418538e-004, 4.16178460e-004, 2.14139392e-004,
          3.29669128e-004, 1.75691603e-004, 9.86650120e-005,
          5.70403718e-005, -1.24649319e-004, 1.19172901e-005,
          9.60714897e-005, 3.99538985e-004, 1.77324808e-004,
          7.92591818e-005, 2.92338897e-004, 2.86447961e-004,
          2.62615300e-004, 4.82198411e-005, -2.14531843e-004,
          -2.79211235e-004, -3.40391241e-004, 7.17091389e-005,
          3.65940214e-004, 2.12225685e-004, 2.35691652e-004,
          -1.78407543e-004, 1.30388260e-004, 2.15587119e-004,
          -6.63955288e-005, -2.03009258e-004, -4.61947086e-004,
          -3.75770207e-004, -1.77252296e-004, 2.58932647e-004,
          5.69113705e-004, 2.81872490e-004, 5.92479992e-005,
          -3.26263485e-004, -2.80945504e-004, -1.80092815e-004,
          -9.02291140e-005, -1.13754453e-004, -1.89554441e-004,
          -2.19006921e-004, 8.48903255e-006, 3.24678636e-004,
          3.96509276e-004, 8.46399998e-005, -1.08420217e-019,
          -2.37655549e-004, -2.59628549e-004, -2.48910597e-004,
          -1.74812114e-004, -2.95135169e-006, 9.82464408e-005,
          2.00876704e-004, 2.57619366e-004, 2.31539278e-004,
          1.86207995e-004, -1.08420217e-019, -1.08420217e-019 ]
      - [ 1.62630326e-019, 4.02789226e-007, 5.80402302e-005,
          7.94182415e-005, 1.37363371e-004, 4.62591888e-005,
          -2.71450554e-004, -3.57309124e-004, -2.22957096e-004,
          -1.44891790e-004, -2.81024786e-005, -1.66478894e-005,
          -9.79840479e-005, -1.26265732e-004, -2.29213794e-004,
          -2.48720171e-004, -2.13735038e-004, 6.95066618e-008,
          1.02826249e-004, -5.36894804e-005, -2.00770264e-005,
          -1.17289615e-004, -7.72644999e-005, -1.00846846e-004,
          -6.18027188e-005, -1.28751955e-004, -2.37463566e-004,
          -1.99694477e-004, -1.28352578e-004, 2.25369549e-005,
          1.24982253e-004, 3.09995085e-005, 1.30174652e-004,
          3.36634024e-004, 2.89953226e-004, 1.08626518e-004,
          -6.25813191e-005, -6.80533558e-005, -4.94298474e-005,
          2.34371895e-004, 3.34904646e-004, 4.34884510e-004,
          2.69619515e-004, 1.38805350e-004, 2.44707073e-004,
          1.27936655e-004, 8.37638145e-005, 2.97281258e-005,
          4.49945001e-005, 1.65356541e-004, 1.71766078e-004,
          4.48291539e-004, 4.48291539e-004, 4.47051862e-004,
          2.56879663e-004, 8.78715000e-005, 1.62157448e-005,
          -1.49157626e-004, -2.67798343e-004, -1.48439940e-004,
          -2.10767776e-005, -4.60966330e-005, 1.24215076e-005,
          4.18893731e-004, 4.65053658e-004, 4.81841882e-004,
          1.46809660e-004, -3.03528668e-005, -2.43156064e-005,
          1.64827952e-006, -9.28998707e-005, -2.27141471e-004,
          3.24958019e-005, 4.92652871e-005, 5.01594559e-006,
          2.22893534e-004, 2.17866793e-004, 2.35920408e-004,
          1.37078212e-004, 9.08254879e-005, 1.59506846e-004,
          1.71615306e-004, 6.22278603e-005, -1.83300566e-004,
          3.79723235e-004, 2.40642068e-004, 2.51260572e-005,
          4.94338638e-005, 5.56787472e-006, -5.62316964e-005,
          -4.74877779e-005, 6.36092809e-005, 2.29540412e-004,
          2.24415242e-004, 3.10747928e-005, -2.56118910e-005,
          7.11408302e-006, 1.21715748e-004, 1.00445368e-005,
          -1.95894845e-005, -1.59258081e-004, -1.90693012e-004,
          -2.27256431e-004, -4.76254936e-005, 2.42812548e-005,
          4.51022024e-005, -1.48092349e-005, 4.55347481e-006,
          -1.68859115e-004, -1.51923014e-004, -1.47861152e-004,
          -6.63389728e-005, -1.37274023e-004, 1.96179062e-005,
          1.05741186e-004, 2.84031830e-005, 1.62630326e-019,
          1.62630326e-019, 1.62630326e-019, 1.62630326e-019 ]
      - [ 9.93746144e-005, 2.76051753e-004, 3.67435452e-004,
          2.78876192e-004, 4.31132103e-005, -1.99672490e-004,
          -3.18888488e-004, -5.36764681e-004, -4.18985321e-004,
          -2.98244093e-004, -1.26188461e-004, 6.49573922e-005,
          3.41370789e-004, 2.95698585e-004, 2.22127477e-004,
          1.97273141e-004, 1.64109442e-004, 2.71438075e-005,
          -2.37848639e-004, -5.37322136e-004, -5.01608418e-004,
          -7.75214794e-005, 2.76415172e-004, 1.37603638e-004,
          8.06050957e-005, 2.04186537e-004, 2.41982212e-004,
          2.74285529e-004, 2.26968987e-004, 7.27435618e-005,
          5.63404719e-005, -8.12791914e-005, 1.03608458e-004,
          2.65066657e-004, 2.94837897e-004, 1.35347109e-005,
          -1.71372070e-004, -8.29197052e-006, 7.39360185e-005,
          2.47315562e-004, 2.42979135e-004, 2.01010378e-004,
          1.35190407e-004, -1.22891070e-004, 2.38524037e-004,
          2.62722606e-004, -8.41807123e-005, -1.87383266e-004,
          -2.26069067e-004, -1.78459333e-004, -1.48137507e-004,
          6.66746782e-005, 7.51751140e-005, 7.51751140e-005,
          1.15346316e-004, 9.53481867e-005, 9.38990052e-005,
          1.09795707e-004, -2.19949925e-005, -2.78607593e-004,
          -1.96936118e-004, -1.60904863e-004, -1.76930873e-004,
          -8.50043489e-006, 4.80499267e-008, 1.51331574e-006,
          2.65374721e-004, 2.04052812e-005, -4.10274843e-005,
          -3.87654327e-005, -2.80948479e-005, -1.95757646e-004,
          -1.96936118e-004, -1.60904863e-004, -1.95302739e-004,
          -5.66815688e-005, -7.66509111e-005, -7.31481805e-006,
          -4.71908461e-005, -6.87596112e-005, 4.69060433e-005,
          -5.92495817e-005, -1.36849092e-004, -5.70959819e-005,
          -1.96936118e-004, -2.40746711e-004, -3.84005223e-004,
          -3.94733506e-004, -2.67900730e-004, -1.38939577e-004,
          -2.17235374e-005, -5.09874080e-005, -7.72350031e-005,
          -1.81257074e-005, -3.53451323e-005, 1.35525272e-019,
          -2.64907518e-004, -3.30579758e-004, -5.26973570e-004,
          -3.01932218e-004, -2.58005282e-004, -7.06150386e-005,
          1.48633131e-004, 4.92111431e-005, -9.19886079e-005,
          -3.71577007e-005, 1.35525272e-019, 1.35525272e-019,
          -1.96936118e-004, -2.17688692e-004, -3.88518907e-004,
          -1.42670353e-004, -1.69838226e-004, 1.00610145e-004,
          1.44113190e-004, -3.29087266e-006, 1.35525272e-019,
          1.35525272e-019, 1.35525272e-019, 1.35525272e-019 ]
      - [ 3.25260652e-019, -3.06670881e-005, -4.47493949e-005,
          3.71054266e-005, 1.51810658e-004, 3.18934734e-004,
          1.64310215e-004, -1.70658532e-004, -4.40185220e-004,
          -3.05613212e-004, 1.29668799e-004, 2.39848901e-004,
          -1.86121120e-004, -2.55390303e-004, -3.91008885e-004,
          -2.12725266e-004, -1.00807683e-005, 1.97732865e-004,
          1.20416989e-004, -6.29705319e-005, -9.62174090e-005,
          2.36189589e-004, 3.97280121e-004, -6.44477477e-005,
          -2.07979421e-004, -1.19843629e-004, -2.12105311e-004,
          -1.60150186e-004, -2.88290641e-004, -3.52453731e-004,
          -4.37266543e-004, -4.32150031e-004, -6.28534690e-005,
          1.97992980e-004, 1.05681873e-004, -4.08376836e-005,
          -1.50475491e-004, 2.67926458e-004, 2.70153279e-004,
          4.67450736e-004, 3.57458775e-004, 7.78536414e-005,
          -4.40386003e-007, 1.99940059e-005, 1.96050183e-004,
          1.96066001e-004, -2.36174179e-004, -9.12341347e-005,
          1.39837022e-004, 2.40621244e-004, 2.02962576e-004,
          4.43620258e-004, 3.91303329e-004, 3.39110236e-004,
          3.17694328e-004, -1.72113523e-005, 1.33635069e-004,
          -4.33482783e-005, -9.47072986e-005, -2.93143152e-004,
          -1.18566924e-004, 2.84430698e-005, -7.09321175e-005,
          2.06007855e-004, 4.21135890e-004, 4.60592884e-004,
          7.32169719e-005, -2.41600283e-005, -5.28437558e-005,
          -8.28452903e-005, -2.53592971e-005, -2.29472309e-004,
          -1.67075545e-004, -1.18179800e-004, -5.01975010e-005,
          3.26791836e-004, 1.44465273e-004, -1.60192852e-004,
          -8.81046071e-005, -8.20375644e-005, -9.90160988e-005,
          -3.92804250e-005, -1.28705637e-004, -4.93847219e-005,
          -1.67075545e-004, -1.11222420e-004, -1.57224480e-004,
          -2.66546675e-004, -4.63949837e-004, -2.47714750e-004,
          -3.31485426e-005, -1.09538320e-004, -2.07163084e-005,
          -1.85530553e-005, -2.63502116e-005, 3.25260652e-019,
          -1.47360784e-004, -1.09763649e-004, -5.68857708e-004,
          -5.97801816e-004, -2.89814896e-004, -5.10143673e-006,
          -1.31042732e-004, -6.81998645e-005, -1.56809929e-005,
          -6.42920668e-006, 3.25260652e-019, 3.25260652e-019,
          2.93090234e-005, -3.22338863e-004, -5.53769176e-004,
          -2.41686779e-004, 4.86571771e-005, 6.68514185e-005,
          -4.48785249e-005, -2.19533899e-006, 3.25260652e-019,
          3.25260652e-019, 3.25260652e-019, 3.25260652e-019 ]
      - [ 4.03334619e-004, 1.52368899e-004, 1.45830600e-005,
          -1.03392667e-004, -1.27641310e-004, -1.44673642e-004,
          -1.98515147e-004, -3.13028693e-004, -2.07027872e-004,
          -1.54238311e-004, -1.29349253e-004, -8.72463061e-005,
          2.07281511e-004, 2.25062358e-005, -6.87886932e-005,
          -1.66643440e-004, -1.66643440e-004, -1.66643440e-004,
          -2.08360769e-004, -3.85373773e-004, -3.30907700e-004,
          -1.88344187e-004, -1.51463959e-004, -1.15541501e-004,
          1.60744210e-004, 4.77079448e-005, -3.83725746e-005,
          -1.46430539e-004, -1.47849758e-004, -1.40356133e-004,
          -1.79501658e-004, -3.24691529e-004, -3.01616121e-004,
          -2.89746327e-004, -1.24108337e-004, -1.37668496e-006,
          1.60744210e-004, 1.00556535e-004, 9.78547469e-005,
          1.08420217e-019, -1.11259251e-005, -1.73842579e-006,
          -4.17173287e-005, -1.87827318e-004, -1.48396924e-004,
          -1.21228630e-004, -2.30622260e-004, -9.99927070e-005,
          1.60744210e-004, 1.09987406e-004, 1.68132610e-004,
          1.24767859e-004, 1.24767859e-004, 1.24767859e-004,
          8.30505305e-005, -3.78979712e-005, -3.24035609e-005,
          -8.17958207e-005, -1.72365268e-004, -2.87029223e-004,
          1.79605937e-004, 2.57605192e-004, 2.40929789e-004,
          1.63161036e-004, 1.66812330e-004, 1.59509742e-004,
          2.81565619e-004, 3.01928027e-004, 3.45503737e-004,
          2.79567845e-004, 1.60674943e-004, -1.74806206e-004,
          1.60744210e-004, 1.00556535e-004, 1.18302007e-004,
          1.09538896e-005, 1.34895081e-005, 2.71347326e-005,
          -2.36289270e-005, 1.07662076e-004, 2.96950981e-004,
          3.58750694e-004, 2.58347311e-004, 2.78715161e-004,
          1.60744210e-004, 5.11551298e-005, -5.48856660e-005,
          -2.63710564e-004, -2.25764845e-004, -1.65167410e-004,
          -2.04441385e-004, 1.26141400e-004, 3.38986953e-004,
          3.75412958e-004, 2.61993700e-004, 2.00941213e-004,
          2.82850688e-005, -1.63697434e-004, -2.65219394e-004,
          -2.34811145e-004, -7.12626352e-005, 1.70021340e-005,
          -5.89515985e-005, 7.31205073e-005, 4.86525751e-005,
          -2.25610474e-005, -1.13194146e-005, 1.08420217e-019,
          6.24815148e-005, 8.53428137e-005, 8.64837057e-006,
          -1.11628637e-004, -1.58320268e-004, -1.60160271e-004,
          -8.07500255e-005, -1.02796757e-005, 1.08420217e-019,
          1.08420217e-019, 1.08420217e-019, 1.08420217e-019 ]
      - [ 2.89121352e-004, 2.19471855e-004, 8.92172102e-005,
          -1.94398726e-005, -1.44635851e-004, -1.58254945e-004,
          -1.96552923e-004, -2.61860230e-004, -1.80889372e-004,
          -1.39297568e-004, -9.86138330e-005, -3.74619485e-005,
          1.14813403e-004, 8.06519602e-005, -2.04485405e-005,
          -8.35389728e-005, -1.71745414e-004, -1.71745414e-004,
          -2.00402224e-004, -2.84636451e-004, -2.54743674e-004,
          -1.78668299e-004, -1.37405106e-004, -7.22378172e-005,
          1.10818961e-004, 9.89604232e-005, -1.23496811e-005,
          -6.19134807e-005, -1.19545140e-004, -1.00735153e-004,
          -1.15154275e-004, -1.93904692e-004, -1.37401876e-004,
          -3.22914893e-005, 7.33011984e-005, 1.05770152e-004,
          9.88688043e-005, 1.73900669e-004, 2.15066655e-004,
          2.15340275e-004, 1.98163732e-004, 2.10850718e-004,
          1.74656569e-004, 6.15748504e-005, 7.09578671e-005,
          5.46348019e-005, 4.20686083e-005, 6.75117262e-005,
          9.88688043e-005, 1.84129851e-004, 1.97333560e-004,
          1.77671391e-004, 9.18551596e-005, 7.03534970e-005,
          2.92118439e-005, -5.14681051e-005, 1.45613740e-005,
          -1.13551669e-005, 7.03601472e-005, 8.44200913e-005,
          1.11424357e-004, 1.38288029e-004, 1.14596027e-004,
          8.79955405e-005, 2.71050543e-020, 2.71050543e-020,
          -4.09615132e-005, -1.31721259e-004, -3.14070712e-005,
          9.24445121e-005, 2.02381896e-004, 1.00737147e-004,
          1.11424357e-004, 1.81411495e-004, 1.85756260e-004,
          1.67292441e-004, 1.21691104e-004, 9.87516978e-005,
          6.46651315e-005, 1.43024645e-005, 1.69382649e-004,
          2.50334007e-004, 2.07988051e-004, 1.60826588e-004,
          5.45968178e-005, 4.90530838e-005, -8.17296768e-006,
          -6.03768167e-005, -8.06531098e-005, -8.20237328e-005,
          -6.01964675e-005, -5.60980188e-005, 9.65784857e-005,
          1.36430055e-004, 1.77474139e-004, 2.02053343e-004,
          -1.53735571e-004, -1.87183556e-004, -2.08339479e-004,
          -1.97842834e-004, -1.99562230e-004, -1.74333225e-004,
          -1.52765948e-004, -9.24567794e-005, 5.18694724e-005,
          1.29716762e-004, 2.03810647e-004, 3.19134502e-004,
          -1.68266008e-004, -1.80678529e-004, -1.80174029e-004,
          -1.64876823e-004, -1.55035057e-004, -1.04468687e-004,
          -4.34719732e-005, -5.08717449e-006, 8.79955405e-005,
          1.47433617e-004, 2.35521075e-004, 3.24302120e-004 ]
      - [ 2.03287907e-019, -1.06798461e-005, 1.19631884e-004,
          -9.47891021e-005, -2.36068590e-004, -3.06154456e-004,
          -3.42066487e-004, -2.77372979e-004, 7.94966472e-005,
          2.17311808e-005, -5.47059826e-005, -7.21822289e-006,
          -1.82650707e-004, -1.90059713e-004, 4.57534152e-005,
          -1.46347724e-004, -2.75970000e-004, -3.33628966e-004,
          -3.42066487e-004, -2.85094808e-004, -5.88009716e-005,
          -8.72918317e-005, -1.69250372e-004, -9.70200199e-005,
          -1.09325520e-004, -9.48704910e-005, 7.24590427e-005,
          5.71009696e-005, -1.61785254e-004, -2.05506163e-004,
          -1.96976616e-004, -1.98581518e-004, 5.33305283e-005,
          1.12295325e-004, 1.53967019e-004, 2.00039227e-004,
          1.37472685e-004, 1.66029786e-004, 1.65134537e-004,
          4.81361261e-004, 3.90073634e-004, 3.36636702e-004,
          2.88120849e-004, 4.43067656e-005, 2.27420474e-004,
          1.77538328e-004, 1.01555474e-004, 1.64630110e-004,
          8.50522629e-005, 1.14543196e-004, 3.05737718e-004,
          2.98835163e-004, 1.91268045e-004, 1.14129653e-004,
          7.66276862e-005, 1.47583953e-004, 1.41257377e-004,
          -9.37933964e-006, -1.19019802e-004, -2.07551289e-004,
          -4.12180452e-005, -6.05286414e-006, 1.87723752e-004,
          3.52994190e-004, 1.33151058e-004, 1.72644886e-005,
          -1.19554461e-005, -1.82706281e-005, 8.96010897e-005,
          8.70176227e-005, 5.08615485e-005, -6.82346363e-005,
          9.82307392e-005, 1.58759358e-004, 1.31751367e-004,
          4.39318712e-004, 3.28303198e-004, 2.38768858e-004,
          1.93368207e-004, -4.92111076e-006, 2.55159219e-004,
          3.82156199e-004, 2.86359747e-004, 2.95521284e-004,
          2.65069946e-004, 2.43033923e-004, 1.74945424e-004,
          1.10532979e-004, -7.21606048e-005, -1.58524374e-004,
          -2.05213262e-004, 1.94175664e-005, 3.53471842e-004,
          2.54263898e-004, 5.83179371e-006, 2.29791258e-005,
          -7.11009343e-005, -9.19445738e-005, 5.36304196e-006,
          -8.79865402e-005, -2.95822974e-004, -3.28294671e-004,
          -2.42232214e-004, 2.43328013e-005, 3.13846627e-004,
          1.94860288e-004, 7.77344383e-007, -1.52151654e-006,
          -1.08356682e-004, -1.21976300e-004, -2.75104430e-005,
          4.69213883e-005, -1.24413302e-004, -1.65626363e-004,
          -9.47117151e-005, 9.42432089e-005, 1.88838967e-004,
          8.27672775e-005, 2.03287907e-019, 2.03287907e-019 ]
      - [ 3.25260652e-019, -5.47099262e-006, -3.93763366e-005,
          -1.36704824e-004, -7.78118483e-005, 1.86508056e-004,
          1.39134776e-004, -1.66287835e-004, -1.60741591e-004,
          -1.86001780e-004, -6.33325617e-005, -6.78423530e-005,
          -1.24992366e-004, -1.76569112e-004, -3.09358904e-004,
          -1.36482573e-004, 7.61394185e-005, 1.17548188e-005,
          -3.46166955e-004, -4.76512010e-004, -4.12063455e-005,
          -1.99516406e-004, -1.06795742e-004, -1.27283973e-004,
          -1.23757127e-004, -1.59460411e-004, -3.31323361e-004,
          -1.28454747e-004, -5.74599799e-005, 3.89209927e-005,
          -5.04812633e-005, 5.48924472e-005, 4.97595902e-005,
          -2.71811034e-004, -1.27626045e-004, -3.32130548e-005,
          -1.17821321e-004, -8.62961533e-005, -4.17833908e-005,
          3.20735737e-004, 5.60635468e-004, 5.01112081e-004,
          3.36336816e-004, -2.06812882e-004, -1.15197887e-004,
          -1.50889071e-004, -3.43253108e-004, -1.80542891e-004,
          9.21510873e-005, 3.17899277e-004, 2.57689477e-004,
          4.63945878e-004, 4.15455492e-004, 4.02154750e-004,
          3.58023797e-004, -1.31698340e-004, 9.57384109e-005,
          1.03480292e-004, -2.53040944e-005, -3.20627965e-004,
          4.24221857e-004, 4.93391766e-004, -1.57308532e-005,
          3.72540468e-004, 3.41606938e-004, 2.59669410e-004,
          2.09790713e-004, 9.03478503e-005, 3.68644469e-005,
          1.34858739e-004, 2.20425994e-004, 5.78143954e-005,
          1.77226815e-004, 1.62400494e-004, -1.54228364e-005,
          3.38216661e-004, 3.27003101e-004, 3.67802277e-005,
          -1.21415127e-004, -3.16721307e-005, 8.68564821e-005,
          9.89527616e-005, 1.52280423e-004, 2.41180911e-004,
          -8.76864360e-005, -5.59757464e-005, -2.32015795e-004,
          -1.60242489e-004, -2.66132702e-004, -3.07188689e-004,
          -3.76517652e-004, -2.92485696e-004, 3.30641342e-004,
          1.16954026e-004, 8.20540954e-005, 3.55253724e-005,
          -2.30206424e-004, -2.30188467e-004, -4.07439366e-004,
          -1.82622025e-004, -9.60981997e-005, -3.89826928e-005,
          -1.83513839e-004, -1.28507454e-004, 2.40818146e-004,
          2.04767048e-006, -3.46576744e-005, -4.73708724e-006,
          -1.74322748e-004, -1.33506343e-004, -3.17785074e-004,
          -1.81804106e-004, -1.29588065e-004, 1.27501276e-004,
          1.63732868e-004, 3.34622571e-004, 7.92222127e-005,
          7.18358069e-006, 3.25260652e-019, 3.25260652e-019 ]
      - [ 6.09863722e-020, -4.12905720e-005, -5.91076823e-005,
          -6.49399371e-005, -2.58895670e-005, -7.67636157e-005,
          -8.63066016e-005, -8.53342717e-005, -2.17113819e-004,
          -3.10722739e-004, -3.57731245e-004, -2.79477419e-004,
          -2.87663657e-004, -2.44921393e-004, -1.13855756e-004,
          -1.17963114e-004, -2.20043614e-004, -3.02268803e-004,
          -2.57803651e-004, -2.16079061e-004, -1.07429842e-004,
          -1.08922250e-004, -1.94555512e-004, -1.69852938e-004,
          -2.59600842e-004, -3.28946335e-005, 9.99604163e-005,
          2.82419514e-005, -9.67161905e-005, -1.53421526e-004,
          -7.71063133e-005, 6.67263666e-005, 1.05269872e-004,
          5.31732003e-005, 9.46730652e-005, 1.08059336e-004,
          -1.06814921e-004, 6.63836545e-005, 2.41600341e-004,
          1.77417474e-004, 1.75295008e-005, -1.86879770e-005,
          -4.39112409e-005, 4.63336510e-005, 5.14839667e-005,
          -8.94135374e-005, 1.48217732e-004, 2.82909197e-004,
          -4.16643270e-005, 5.91836506e-005, 1.50781962e-005,
          -8.80737844e-006, -7.44591089e-005, -7.59322720e-005,
          -3.24912507e-005, 1.57108316e-005, 8.89802686e-005,
          -7.45741854e-005, 1.98655252e-004, 3.49044829e-004,
          -6.97836003e-005, -1.28292895e-005, 4.02637488e-006,
          8.20762398e-006, -2.83827794e-005, -2.12906216e-005,
          -7.58273600e-005, -9.85168153e-005, 7.13015688e-005,
          -1.45289654e-004, 2.77716346e-004, 3.30236420e-004,
          -1.58052106e-004, -1.08163338e-004, -6.13223019e-005,
          -1.01120218e-004, -1.47971092e-004, -1.73872715e-004,
          -8.61923763e-005, -5.47766135e-008, 7.91530692e-005,
          -3.88439439e-005, 1.58465482e-004, 2.26261895e-004,
          -3.25366564e-004, -1.22234545e-004, 1.50315827e-004,
          8.00079870e-005, 1.19941478e-005, -1.43848476e-004,
          -1.26027953e-004, -8.52338126e-005, 3.93260270e-005,
          2.72702047e-004, 2.32889768e-004, 4.68291037e-005,
          -3.89453053e-004, -3.16826772e-004, -1.46500446e-004,
          -4.68864855e-005, 5.11744065e-006, 5.05933240e-005,
          8.42444570e-005, 1.57699978e-004, 2.59441586e-004,
          2.47514923e-004, 6.63332175e-005, 6.09863722e-020,
          -3.92009679e-004, -2.87752802e-004, 6.31695002e-005,
          1.13864116e-004, 1.67762555e-004, 1.94172506e-004,
          1.89478335e-004, 1.68867948e-004, 1.26829487e-004,
          1.03492472e-004, 6.09863722e-020, 6.09863722e-020 ]
      - [ 1.35525272e-020, -8.66084883e-006, -2.28015433e-005,
          -5.29286772e-005, -6.53972747e-005, -1.09925422e-004,
          -1.93170301e-004, -2.52522615e-004, -2.68059783e-004,
          -2.58001935e-004, -2.50458543e-004, -1.94014108e-004,
          -1.90327963e-004, -2.65866489e-004, -2.68059783e-004,
          -2.63830560e-004, -2.08974860e-004, -9.41387261e-005,
          -4.93036441e-006, -3.87453219e-005, -1.08132917e-004,
          -1.79270428e-004, -1.79010240e-004, -1.13201881e-004,
          -2.68059783e-004, -2.03932505e-004, -1.15361050e-004,
          -1.02968770e-004, -4.53488246e-005, 4.91300998e-005,
          1.67785503e-004, 1.96350025e-004, 2.07043893e-004,
          1.17323856e-004, 7.97847097e-005, 4.96539578e-005,
          -2.50758429e-004, -1.15569157e-004, 9.24746055e-005,
          1.41991666e-004, 1.73053559e-004, 2.17456545e-004,
          1.88004706e-004, 1.92034960e-004, 1.60613767e-004,
          -1.00262941e-005, -1.16105139e-006, 2.72646284e-005,
          -1.53324887e-004, -8.30534045e-005, -3.02137408e-007,
          1.12816968e-004, 1.39266413e-004, 1.54539652e-004,
          1.54800640e-004, 1.23014746e-004, 2.88677602e-005,
          -1.88573133e-004, -1.26287297e-004, -6.57986902e-006,
          -2.16849250e-004, -1.82335571e-004, -2.29316811e-005,
          1.27175037e-004, 1.77004811e-004, 1.87941536e-004,
          5.02392213e-005, -1.27454705e-005, 1.32439864e-005,
          -1.66319995e-004, -5.59383734e-005, 1.35525272e-020,
          -2.31398910e-004, -1.48657564e-004, -7.06563005e-005,
          -2.74947470e-005, 2.62351150e-005, 1.36982577e-004,
          1.99242524e-004, 1.89719547e-004, 1.21206547e-004,
          -4.29872707e-005, 1.49200814e-005, 3.49849615e-005,
          -7.53800941e-006, 2.08362526e-005, 1.64619210e-004,
          1.72357759e-004, 1.57218383e-004, 5.10411774e-005,
          2.76905812e-005, -1.03848961e-005, 3.37014944e-006,
          8.33846279e-005, 1.00777390e-004, 7.99515765e-005,
          -4.23861529e-005, -1.22836843e-006, 7.40369705e-006,
          1.40824504e-005, -2.79603887e-006, -2.36193227e-005,
          -4.61665513e-006, 5.51465291e-006, 1.16595520e-005,
          1.78044520e-005, 2.63315578e-005, 9.97273037e-006,
          -2.38652574e-004, -6.39760110e-005, 1.42870907e-004,
          1.28139363e-004, 7.07694635e-005, 9.33128613e-005,
          4.83229014e-005, 9.61185742e-006, 1.35525272e-020,
          1.35525272e-020, 1.35525272e-020, 1.35525272e-020 ]
      - [ 5.13259292e-005, 1.11576846e-004, 9.22098261e-005,
          4.18734053e-005, -6.95882773e-005, -1.72287619e-004,
          -2.19517955e-004, -2.53783219e-004, -2.59187596e-004,
          -2.45435309e-004, -2.08577738e-004, -8.62186789e-005,
          2.39015408e-005, -3.23914537e-005, -1.80238530e-005,
          -1.80238530e-005, -3.56413402e-005, -1.05182167e-004,
          -1.92853156e-004, -2.42061622e-004, -2.27694574e-004,
          -1.28455824e-004, -8.06723438e-006, 3.53391879e-005,
          -8.65373440e-005, 4.55610243e-005, 1.45548896e-004,
          1.43945188e-004, 1.23307269e-004, 4.59763796e-005,
          5.35030231e-005, 9.59007957e-005, 1.64824014e-004,
          1.00347781e-004, 7.24063793e-005, 4.07413536e-005,
          -2.25223746e-004, -7.18415540e-005, 1.33627109e-004,
          1.55601432e-004, 1.32020941e-004, 9.57302327e-005,
          5.01727664e-005, 4.37542949e-005, 1.24119877e-004,
          -6.16081015e-005, -2.09738428e-005, 5.10534346e-006,
          -2.59187596e-004, -2.07280682e-004, -1.29759093e-004,
          -8.78113933e-005, -6.76564669e-005, -5.80772867e-005,
          -8.52394351e-006, 9.74332288e-005, 1.13243557e-004,
          -5.95075944e-005, -5.87495051e-005, -5.71179817e-006,
          -2.59187596e-004, -2.44432129e-004, -1.37985451e-004,
          -1.18351156e-004, -8.33862650e-005, -7.25725477e-005,
          2.20195598e-005, 2.89418745e-006, 4.55274494e-005,
          -1.83443728e-004, -5.22986375e-005, 9.48676901e-020,
          -2.59187596e-004, -2.55379739e-004, -2.18372079e-004,
          -1.98678274e-004, -1.55962582e-004, -2.02378724e-005,
          6.09549970e-005, 9.02684624e-005, 3.39876788e-005,
          -1.96491193e-004, -7.73025968e-005, 9.48676901e-020,
          -2.59187596e-004, -2.41100250e-004, -1.04027058e-004,
          -9.00581435e-005, -1.01233645e-005, -3.86480770e-006,
          9.95615483e-006, 6.06683079e-006, -9.39064412e-005,
          -3.18858874e-005, -5.40438805e-007, 9.48676901e-020,
          -2.59187596e-004, -2.59187596e-004, -2.50386889e-004,
          -1.05538864e-004, -3.06360525e-005, 5.77618484e-005,
          1.38296455e-004, 1.03822320e-004, 9.48676901e-020,
          9.48676901e-020, 9.48676901e-020, 9.48676901e-020,
          -2.59187596e-004, -1.93001193e-004, -2.74681879e-005,
          7.80651899e-005, 5.92998804e-005, 1.28735934e-004,
          1.22727972e-004, 1.11612762e-005, 9.48676901e-020,
          9.48676901e-020, 9.48676901e-020, 9.48676901e-020 ]
      - [ -4.06575815e-020, -3.64389452e-005, -9.52800474e-005,
          -7.53885106e-005, -5.58214670e-005, 2.69428638e-005,
          5.70518159e-006, -1.40904172e-004, -3.37185309e-004,
          -3.07099690e-004, -1.90819352e-004, -8.48273339e-005,
          -2.45296425e-004, -3.34688113e-004, -3.25605739e-004,
          -2.16380198e-004, -1.25017075e-004, -3.54000476e-005,
          -2.88529354e-005, -3.33191674e-005, -1.25559483e-004,
          -4.51986853e-005, 1.78256369e-006, -9.00468658e-005,
          -3.37185309e-004, -2.18660571e-004, -5.85125636e-005,
          -6.24794484e-005, -1.13621201e-004, -1.33213252e-004,
          -1.02211437e-004, -6.74319672e-005, 6.26048131e-005,
          2.98552022e-005, -4.74982808e-005, -1.37441930e-005,
          -3.23412765e-004, -3.74391639e-005, 2.39655055e-004,
          2.11578357e-004, 1.28450265e-004, -1.02364174e-005,
          1.15422617e-005, 6.60716614e-005, 3.97272561e-005,
          -1.48902167e-004, -1.37129740e-004, -2.49719619e-006,
          -1.76584406e-004, -8.97890277e-005, 2.53820417e-005,
          3.71265887e-005, 3.62880601e-005, 7.82455845e-006,
          8.91629097e-005, 6.13323573e-005, 7.39511597e-005,
          -2.23606810e-004, -1.53373490e-004, -7.49158835e-006,
          -3.11983225e-004, -2.41740199e-004, -7.88125108e-005,
          -4.21982404e-005, 8.74949546e-005, 1.16062089e-004,
          -2.40757217e-005, -1.07779497e-005, -3.78949262e-005,
          -3.18599486e-004, -6.82044993e-005, -4.06575815e-020,
          -3.37185309e-004, -3.32190917e-004, -1.88758539e-004,
          -9.83776699e-005, -1.12189453e-004, -1.29854467e-004,
          6.84816187e-005, 8.56456172e-005, -9.32114272e-005,
          -2.67029973e-004, -1.00316589e-004, -4.06575815e-020,
          -3.37185309e-004, -2.85397633e-004, 7.91659932e-006,
          -3.85154053e-005, -1.18920085e-004, -5.39525281e-005,
          2.20757611e-005, -1.39517564e-004, -1.42929086e-004,
          -4.11817819e-005, -6.97996313e-007, -4.06575815e-020,
          -2.91261880e-004, -1.99414979e-004, -2.76011153e-004,
          -2.48595781e-004, -5.31621590e-005, 1.02595193e-004,
          6.63708197e-005, -4.06575815e-020, -4.06575815e-020,
          -4.06575815e-020, -4.06575815e-020, -4.06575815e-020,
          -1.85382814e-004, -2.25189433e-004, -3.58103935e-005,
          5.90097479e-005, 1.56744645e-004, 1.08398599e-004,
          7.67633537e-007, -4.06575815e-020, -4.06575815e-020,
          -4.06575815e-020, -4.06575815e-020, -4.06575815e-020 ]
      - [ 2.74022837e-004, 1.92290769e-004, -1.19593515e-005,
          -1.63686840e-004, -2.24709569e-004, -2.57825712e-004,
          -2.65069859e-004, -2.88872106e-004, -2.99220905e-004,
          -2.78523308e-004, -2.63000111e-004, -2.04255935e-004,
          3.92163274e-005, -6.57303317e-005, -1.83183060e-004,
          -2.80788197e-004, -2.99220905e-004, -2.99220905e-004,
          -2.99220905e-004, -2.99220905e-004, -2.99220905e-004,
          -2.87837232e-004, -2.28849080e-004, -1.29010557e-004,
          -1.33421490e-005, 1.61885200e-005, -1.84159107e-005,
          -1.19541291e-004, -1.37973999e-004, -1.29694949e-004,
          -1.03407358e-004, -7.53105196e-005, -6.71617454e-005,
          -1.83313314e-004, -4.73129840e-005, -3.18631919e-006,
          -1.63184523e-005, 5.87002651e-005, 1.16037838e-004,
          1.10384381e-005, -8.45067279e-006, -1.27452768e-005,
          -2.02261999e-005, -2.37381719e-005, -8.08602199e-005,
          -2.49872333e-004, -1.07082691e-004, -5.54142503e-007,
          -1.63184523e-005, 2.82986803e-005, 7.03541009e-005,
          -2.00100476e-005, -6.01245711e-006, -3.37757447e-005,
          -1.94065997e-005, -7.16895602e-006, 1.76219328e-005,
          -1.30808170e-004, -1.86596735e-005, 1.26479717e-005,
          -1.35772916e-005, -3.57948848e-005, -2.86374925e-005,
          -5.11327817e-005, 3.25792917e-006, 6.52300951e-005,
          5.89706906e-005, 5.38041022e-005, 2.09139034e-004,
          -3.33335374e-005, 1.65110687e-004, 1.28459636e-004,
          -1.63184523e-005, -6.13369994e-005, -1.02333324e-004,
          -1.81705880e-004, -1.93667409e-004, -1.58780342e-004,
          -8.45362738e-005, 5.47689160e-005, 2.63821974e-004,
          6.30873546e-005, 1.85752346e-004, 1.95615023e-004,
          -1.63184523e-005, -6.10201241e-005, -3.44684231e-005,
          -1.10137422e-004, -7.99132686e-005, -7.11925604e-005,
          4.99247435e-005, 1.21551951e-004, 1.28123647e-004,
          1.82022399e-004, 1.48798019e-004, 8.40950306e-005,
          -3.86969296e-005, -6.06852118e-005, -1.41488927e-004,
          -1.52144159e-004, -1.33445201e-006, 1.58440147e-004,
          1.91948289e-004, 1.52083696e-004, 7.10519380e-005,
          2.92859531e-005, 8.72824330e-006, 5.28625435e-007,
          -7.34690257e-005, 6.35977267e-005, 1.92029707e-004,
          1.35757524e-004, 8.81075830e-005, 3.40411752e-005,
          7.71800751e-006, -2.71050543e-020, -2.71050543e-020,
          -2.71050543e-020, -2.71050543e-020, -2.71050543e-020 ]
      - [ 2.28034565e-004, 1.59938005e-004, 5.76999882e-005,
          -7.08792213e-005, -2.02970754e-004, -2.22175950e-004,
          -2.26377088e-004, -2.40180816e-004, -2.46182433e-004,
          -2.34179199e-004, -2.25176758e-004, -1.74583780e-004,
          1.35699765e-005, -5.63680005e-005, -1.01671962e-004,
          -1.70909392e-004, -2.46182433e-004, -2.46182433e-004,
          -2.46182433e-004, -2.46182433e-004, -2.46182433e-004,
          -2.39580666e-004, -2.05371398e-004, -1.08152999e-004,
          -4.53697103e-005, 4.24576638e-006, 3.69047157e-005,
          -2.96176877e-005, -8.69483993e-005, -7.61621559e-005,
          -5.72784156e-005, -2.37999375e-005, -5.49633114e-006,
          -7.88000252e-005, -2.34162526e-005, 3.96955656e-005,
          -4.53697103e-005, 7.01295721e-005, 2.12237850e-004,
          1.56004651e-004, 1.04856401e-004, 9.84888757e-005,
          7.63361095e-005, 7.67904348e-005, 4.98006593e-005,
          -7.49385217e-005, 3.55638513e-005, 1.04072176e-004,
          -4.53697103e-005, 4.05610590e-005, 7.98794499e-005,
          5.86844108e-005, 2.20271486e-005, -1.45759930e-006,
          1.82562017e-005, 1.93526521e-005, 5.80349151e-005,
          -4.35117727e-005, 8.61530498e-005, 1.96429624e-004,
          -4.53697103e-005, -4.28409840e-005, 2.29974421e-006,
          -4.96710200e-005, -8.06785174e-005, -6.18101403e-005,
          -9.29420203e-005, -1.17927040e-004, 1.97925328e-005,
          -6.22473672e-005, 1.59176096e-004, 2.00812734e-004,
          -4.53697103e-005, -2.08489309e-005, 1.22619540e-005,
          -2.70399723e-005, -4.57215101e-005, 7.75414082e-006,
          7.30943357e-005, 1.06003885e-004, 1.19120094e-004,
          3.43894826e-005, 1.55202535e-004, 2.00812734e-004,
          -6.76388372e-005, -3.42723506e-005, 8.91926247e-005,
          7.91587008e-005, 6.10041388e-005, 2.06120785e-005,
          4.66266101e-005, -5.39635550e-007, 2.26615866e-005,
          1.09100911e-004, 1.87753249e-004, 2.00812734e-004,
          -1.50902924e-004, -1.50902924e-004, -1.42109580e-004,
          -1.43661076e-004, -1.16765681e-004, -5.37525848e-005,
          -7.20194839e-006, -5.42101086e-020, 7.52730484e-005,
          1.44510486e-004, 1.88353413e-004, 2.46182433e-004,
          -2.46182433e-004, -1.78888149e-004, -2.47873122e-005,
          -5.42101086e-020, -5.42101086e-020, -5.42101086e-020,
          -5.42101086e-020, -5.42101086e-020, 7.48994062e-005,
          1.44510486e-004, 1.88353413e-004, 2.46182433e-004 ]
      - [ 1.49077799e-019, -1.38549331e-005, -3.87193468e-005,
          -1.04879509e-004, -2.31936749e-004, -2.61436653e-004,
          -2.66221643e-004, -1.70460218e-004, -2.87867733e-005,
          -8.87688584e-005, -2.57103093e-004, -2.05323464e-004,
          -2.17801673e-004, -2.37923974e-004, -1.28669810e-004,
          -1.18281845e-004, -2.65338836e-004, -2.88779353e-004,
          -2.88779353e-004, -1.77295893e-004, -2.87867733e-005,
          -8.72281526e-005, -2.14351225e-004, -1.02157464e-004,
          -2.30653110e-004, -1.13728187e-004, 6.39505233e-005,
          1.40612290e-004, 2.78598181e-005, -8.31148736e-006,
          3.24718530e-005, 8.51729346e-005, 1.99070812e-004,
          8.35849351e-005, 5.85529779e-005, 1.60028299e-004,
          -1.22039026e-004, -1.54282097e-005, 2.08870479e-004,
          2.78997875e-004, 1.70133324e-004, 1.29508189e-004,
          9.92955902e-005, 1.51503424e-004, 1.78762188e-004,
          -4.21938512e-006, 3.99760502e-005, 1.58081020e-004,
          -1.79373717e-004, -6.86031635e-005, 1.21097066e-004,
          1.22076075e-004, -5.06671495e-006, -3.88814442e-005,
          -2.39425081e-005, 9.43521081e-005, 1.88248829e-004,
          -2.49975164e-005, -7.87447862e-005, 2.23903135e-005,
          -2.53283564e-004, -1.95589440e-004, 3.48627909e-005,
          1.26404193e-004, -1.82602798e-005, -3.13220953e-005,
          -6.88831860e-005, -1.88153226e-005, 1.72810818e-004,
          -4.29470711e-005, 3.67229586e-005, 4.38037750e-005,
          -1.35937007e-004, -1.25133054e-004, -3.10288306e-005,
          6.35995457e-005, 4.40632029e-005, 7.93000218e-005,
          1.55318397e-004, 1.97690737e-004, 2.08534897e-004,
          4.50595217e-005, 1.47765313e-004, 1.48976556e-004,
          -1.02367761e-004, -5.13086125e-005, 1.48791994e-004,
          1.65119331e-004, 7.07951331e-005, 2.64119740e-006,
          4.51638880e-006, 5.67071402e-005, 1.41538490e-004,
          1.52592562e-004, 4.36907139e-005, 2.34550953e-005,
          -2.24586474e-004, -1.75526671e-004, -4.47999337e-005,
          5.36717671e-005, -7.33539055e-005, -6.18473787e-005,
          -8.20281002e-006, 8.93278193e-005, 2.29405443e-004,
          1.66159924e-004, 6.36038794e-006, 1.49077799e-019,
          -2.88779353e-004, -1.61823831e-004, 1.57885210e-004,
          2.69667304e-004, 5.96519130e-005, 1.49077799e-019,
          1.49077799e-019, 3.86252168e-006, 5.33880811e-005,
          3.82688377e-005, 1.49077799e-019, 1.49077799e-019 ]
      - [ 0., -3.46119523e-005, -1.06118052e-004, -1.69714767e-004,
          -1.85305253e-004, -1.03656981e-004, -5.19991590e-005,
          -9.95212322e-005, -1.73536333e-004, -2.25765238e-004,
          -2.47953052e-004, -2.14167303e-004, -2.28499179e-004,
          -2.99796491e-004, -3.01627209e-004, -2.24486532e-004,
          -1.55647183e-004, -1.25223814e-004, -2.29359081e-004,
          -2.42614464e-004, -1.17880540e-004, -1.82908683e-004,
          -1.67095262e-004, -1.20320576e-004, -3.01627209e-004,
          -2.25805634e-004, -1.31718669e-004, -7.20041498e-005,
          -4.03006234e-005, 3.01254913e-005, 1.94847462e-006,
          1.30608954e-004, 1.36636387e-004, -7.99732516e-005,
          -6.71884627e-005, -1.05265990e-005, -3.01627209e-004,
          -1.75819063e-004, 5.14910826e-005, 1.16213800e-004,
          2.01655494e-004, 2.11558334e-004, 1.75036839e-004,
          5.99508930e-005, -4.67880382e-005, -2.46244890e-004,
          -1.24799350e-004, -1.83071290e-006, -2.39839050e-004,
          -6.68514404e-005, 6.06092071e-005, 8.76229897e-005,
          6.45768014e-005, 5.37042833e-005, 8.81165324e-005,
          -1.37848219e-005, -1.03067687e-005, -1.61746313e-004,
          -7.09392261e-005, 1.02510385e-005, -6.82862155e-005,
          -1.80844017e-005, -3.49240690e-005, 8.74152647e-006,
          8.32642545e-005, 8.47492338e-005, 5.27098236e-005,
          5.78021791e-005, 6.33812306e-005, -1.05411535e-004,
          1.11233487e-004, 1.37658993e-004, -1.25827180e-004,
          -1.23107762e-004, -1.44449034e-004, -6.11833384e-005,
          -2.54538754e-005, -8.75664919e-005, -1.66792543e-005,
          1.24128390e-004, 3.92780239e-005, -1.84699238e-004,
          9.11302050e-005, 2.09098827e-004, -2.90451309e-004,
          -2.10365644e-004, -1.56917031e-005, 1.43614834e-005,
          -4.49784093e-005, -8.06667085e-005, -8.30854769e-005,
          -1.22119833e-004, 5.17459448e-005, 4.33395107e-005,
          1.04847502e-004, 4.87445104e-005, -2.95176549e-004,
          -2.52873549e-004, -1.79551585e-004, -2.14201464e-005,
          4.58450886e-005, 9.14984921e-005, 6.41796869e-005,
          4.61260679e-005, 1.46433216e-004, 5.18166853e-005, 0., 0.,
          -2.96909071e-004, -1.67387479e-004, 8.28298143e-005,
          1.48107720e-004, 1.48591775e-004, 1.86830555e-004,
          1.24181432e-004, 1.43151367e-004, 6.26938272e-005,
          8.18113404e-006, 0., 0. ]
      - [ -6.09863722e-020, 2.53074559e-005, 7.42526754e-005,
          7.72932399e-005, -5.63629010e-006, -6.38371203e-005,
          -1.73006571e-004, -2.37048967e-004, -9.13736294e-005,
          -3.24913090e-005, -1.73286980e-006, -6.09863722e-020,
          -1.73286980e-006, -6.67154891e-005, -1.61270698e-004,
          -2.72231555e-004, -1.47050858e-004, 1.14918970e-004,
          1.87060839e-004, 8.30025747e-005, -5.19523601e-005,
          -4.43126955e-005, -3.54959298e-007, 1.07229635e-005,
          -5.37189626e-005, -1.24827595e-004, -2.47017073e-004,
          -2.39840010e-004, -6.07357870e-005, 1.59361254e-004,
          2.20897200e-004, 1.35402559e-004, 1.21127698e-004,
          1.23854305e-004, 2.03400748e-004, 8.16458924e-005,
          -1.41580007e-004, -1.67174687e-004, -1.10393194e-004,
          -3.43764412e-008, 1.61252814e-004, 3.02290806e-004,
          2.07539328e-004, 1.35402559e-004, 1.15377246e-004,
          3.35656005e-005, -6.09100534e-005, -7.86657693e-005,
          -1.78592367e-004, -9.24182968e-005, 3.32720701e-005,
          1.13990274e-004, 1.32513815e-004, 1.35491457e-004,
          8.23057708e-005, -4.99486259e-006, -1.38308053e-004,
          -2.52165075e-004, -3.59027064e-004, -3.51240771e-004,
          -2.39231624e-004, -2.83076399e-004, -1.17256008e-004,
          5.15563806e-005, 1.28789849e-004, 1.53357265e-004,
          1.42828931e-005, -1.17564086e-004, -1.84626755e-004,
          -2.16086017e-004, -3.47116526e-004, -3.21626634e-004,
          -7.04758640e-005, -1.00962206e-004, -7.02837715e-005,
          -3.96033029e-005, 1.03905186e-005, 2.96125159e-004,
          3.43276653e-004, 1.67837439e-004, -5.35980871e-006,
          -1.16082258e-004, -1.25695922e-004, -7.80513801e-005,
          3.18010483e-004, 2.38074732e-004, 9.50121175e-005,
          1.00993748e-004, 1.25249018e-004, 2.42052658e-004,
          2.32958613e-004, 3.99996425e-005, -5.88080838e-005,
          -5.12115475e-005, 5.30168400e-005, 9.39697784e-005,
          2.15033651e-004, 3.15975107e-004, 2.15654669e-004,
          6.27816407e-005, -6.59340585e-005, -1.32969959e-004,
          -1.23029342e-004, -2.09692313e-004, -2.75358470e-004,
          -1.36322487e-004, 2.94102501e-005, 7.63172466e-006,
          1.97085537e-005, 1.33873022e-004, 1.34923379e-004,
          1.24006488e-004, -6.45287000e-005, -9.38215599e-005,
          -1.64552694e-004, -1.97591813e-004, -1.03892962e-004,
          -5.71847013e-005, -6.09863722e-020, -6.09863722e-020 ]
      - [ 5.67148018e-005, 1.45827478e-004, 1.60049152e-004,
          7.37800583e-005, -1.32451794e-004, -2.30086313e-004,
          -2.29150246e-004, -2.55293853e-004, -1.29162421e-004,
          -4.49640866e-005, 5.30392572e-006, 1.50063861e-004,
          2.59690365e-004, 1.98816153e-004, 1.29934575e-004,
          5.62642053e-005, 1.51795917e-004, 1.63313016e-004,
          -5.52358506e-005, -1.21938923e-004, -2.53970618e-004,
          -5.94290614e-005, 1.93233485e-004, 2.26397795e-004,
          2.33376719e-004, 1.93338128e-004, 1.31346169e-004,
          1.70369487e-004, 3.07064736e-004, 2.21964248e-004,
          1.63290373e-004, 7.29530948e-005, 1.19105542e-004,
          1.01322250e-004, 1.18472213e-004, 1.61228836e-005,
          -9.57888114e-005, -1.25225761e-005, -7.44699236e-008,
          9.69538087e-005, 2.39126850e-004, 2.19495763e-004,
          1.73294015e-004, 1.14163347e-004, 1.40615986e-004,
          -3.59111764e-005, -8.32800433e-005, -1.60307376e-004,
          -3.02436965e-004, -3.15234007e-004, -1.90655905e-004,
          -6.46459303e-005, -1.03918328e-005, -7.40640280e-006,
          4.44899769e-007, 1.38247588e-005, 2.32378588e-005,
          -4.86586468e-005, -2.31304861e-004, -3.06874805e-004,
          -2.64549570e-004, -2.98314204e-004, -2.39519402e-004,
          -2.11236431e-004, -1.41651515e-004, -1.21697929e-004,
          4.08087872e-005, -4.42606188e-006, -1.19342940e-005,
          -1.32908215e-004, -3.02703760e-004, -2.70137971e-004,
          -1.35510680e-004, -1.73298453e-004, -2.70938239e-004,
          -1.93258966e-004, -5.95121383e-005, 1.25552862e-004,
          8.16124302e-005, 1.05296771e-004, 2.73397859e-006,
          -2.56471045e-004, -1.97725851e-004, -1.35510680e-004,
          -2.51798883e-005, -1.45656857e-004, -2.67991069e-004,
          -2.21520051e-004, 3.66436943e-005, 1.16675685e-004,
          1.25141843e-004, 1.32435584e-004, -1.73283173e-004,
          -3.15045647e-004, -1.39088908e-004, -2.51798883e-005,
          5.42101086e-020, -3.59712685e-005, -1.45392492e-004,
          -1.12615962e-004, -7.72689018e-005, 4.25342332e-005,
          1.78709801e-004, 8.21236681e-005, -2.70501798e-004,
          -1.91327184e-004, -3.59712685e-005, 5.42101086e-020,
